,dim_0,dim_1,dim_2,dim_3,dim_4,dim_5,dim_6,dim_7,dim_8,dim_9,dim_10,dim_11,dim_12,dim_13,dim_14,dim_15,dim_16,dim_17,dim_18,dim_19,dim_20,dim_21,dim_22,dim_23,dim_24,dim_25,dim_26,dim_27,dim_28,dim_29,dim_30,dim_31,dim_32,dim_33,dim_34,dim_35,dim_36,dim_37,dim_38,dim_39,dim_40,dim_41,dim_42,dim_43,dim_44,dim_45,dim_46,dim_47,dim_48,dim_49,dim_50,dim_51,dim_52,dim_53,dim_54,dim_55,dim_56,dim_57,dim_58,dim_59,dim_60,dim_61,dim_62,dim_63,dim_64,dim_65,dim_66,dim_67,dim_68,dim_69,dim_70,dim_71,dim_72,dim_73,dim_74,dim_75,dim_76,dim_77,dim_78,dim_79,dim_80,dim_81,dim_82,dim_83,dim_84,dim_85,dim_86,dim_87,dim_88,dim_89,dim_90,dim_91,dim_92,dim_93,dim_94,dim_95,dim_96,dim_97,dim_98,dim_99,dim_100,dim_101,dim_102,dim_103,dim_104,dim_105,dim_106,dim_107,dim_108,dim_109,dim_110,dim_111,dim_112,dim_113,dim_114,dim_115,dim_116,dim_117,dim_118,dim_119,dim_120,dim_121,dim_122,dim_123,dim_124,dim_125,dim_126,dim_127,dim_128,dim_129,dim_130,dim_131,dim_132,dim_133,dim_134,dim_135,dim_136,dim_137,dim_138,dim_139,dim_140,dim_141,dim_142,dim_143,dim_144,dim_145,dim_146,dim_147,dim_148,dim_149,dim_150,dim_151,dim_152,dim_153,dim_154,dim_155,dim_156,dim_157,dim_158,dim_159,dim_160,dim_161,dim_162,dim_163,dim_164,dim_165,dim_166,dim_167,dim_168,dim_169,dim_170,dim_171,dim_172,dim_173,dim_174,dim_175,dim_176,dim_177,dim_178,dim_179,dim_180,dim_181,dim_182,dim_183,dim_184,dim_185,dim_186,dim_187,dim_188,dim_189,dim_190,dim_191,dim_192,dim_193,dim_194,dim_195,dim_196,dim_197,dim_198,dim_199,dim_200,dim_201,dim_202,dim_203,dim_204,dim_205,dim_206,dim_207,dim_208,dim_209,dim_210,dim_211,dim_212,dim_213,dim_214,dim_215,dim_216,dim_217,dim_218,dim_219,dim_220,dim_221,dim_222,dim_223,dim_224,dim_225,dim_226,dim_227,dim_228,dim_229,dim_230,dim_231,dim_232,dim_233,dim_234,dim_235,dim_236,dim_237,dim_238,dim_239,dim_240,dim_241,dim_242,dim_243,dim_244,dim_245,dim_246,dim_247,dim_248,dim_249,dim_250,dim_251,dim_252,dim_253,dim_254,dim_255,dim_256,dim_257,dim_258,dim_259,dim_260,dim_261,dim_262,dim_263,dim_264,dim_265,dim_266,dim_267,dim_268,dim_269,dim_270,dim_271,dim_272,dim_273,dim_274,dim_275,dim_276,dim_277,dim_278,dim_279,dim_280,dim_281,dim_282,dim_283,dim_284,dim_285,dim_286,dim_287,dim_288,dim_289,dim_290,dim_291,dim_292,dim_293,dim_294,dim_295,dim_296,dim_297,dim_298,dim_299,dim_300,dim_301,dim_302,dim_303,dim_304,dim_305,dim_306,dim_307,dim_308,dim_309,dim_310,dim_311,dim_312,dim_313,dim_314,dim_315,dim_316,dim_317,dim_318,dim_319,dim_320,dim_321,dim_322,dim_323,dim_324,dim_325,dim_326,dim_327,dim_328,dim_329,dim_330,dim_331,dim_332,dim_333,dim_334,dim_335,dim_336,dim_337,dim_338,dim_339,dim_340,dim_341,dim_342,dim_343,dim_344,dim_345,dim_346,dim_347,dim_348,dim_349,dim_350,dim_351,dim_352,dim_353,dim_354,dim_355,dim_356,dim_357,dim_358,dim_359,dim_360,dim_361,dim_362,dim_363,dim_364,dim_365,dim_366,dim_367,dim_368,dim_369,dim_370,dim_371,dim_372,dim_373,dim_374,dim_375,dim_376,dim_377,dim_378,dim_379,dim_380,dim_381,dim_382,dim_383,dim_384,dim_385,dim_386,dim_387,dim_388,dim_389,dim_390,dim_391,dim_392,dim_393,dim_394,dim_395,dim_396,dim_397,dim_398,dim_399,dim_400,dim_401,dim_402,dim_403,dim_404,dim_405,dim_406,dim_407,dim_408,dim_409,dim_410,dim_411,dim_412,dim_413,dim_414,dim_415,dim_416,dim_417,dim_418,dim_419,dim_420,dim_421,dim_422,dim_423,dim_424,dim_425,dim_426,dim_427,dim_428,dim_429,dim_430,dim_431,dim_432,dim_433,dim_434,dim_435,dim_436,dim_437,dim_438,dim_439,dim_440,dim_441,dim_442,dim_443,dim_444,dim_445,dim_446,dim_447,dim_448,dim_449,dim_450,dim_451,dim_452,dim_453,dim_454,dim_455,dim_456,dim_457,dim_458,dim_459,dim_460,dim_461,dim_462,dim_463,dim_464,dim_465,dim_466,dim_467,dim_468,dim_469,dim_470,dim_471,dim_472,dim_473,dim_474,dim_475,dim_476,dim_477,dim_478,dim_479,dim_480,dim_481,dim_482,dim_483,dim_484,dim_485,dim_486,dim_487,dim_488,dim_489,dim_490,dim_491,dim_492,dim_493,dim_494,dim_495,dim_496,dim_497,dim_498,dim_499,dim_500,dim_501,dim_502,dim_503,dim_504,dim_505,dim_506,dim_507,dim_508,dim_509,dim_510,dim_511
AQP8,-1.9313272,-0.42110938,0.48113254,-1.6538477,-1.239693,-0.21417117,-0.7480476,0.8367305,2.61388,0.28992775,2.1704857,0.12791924,0.34988007,-0.975813,0.3003876,0.95773375,1.0417643,1.1535448,0.3913886,1.8034854,-0.09799639,1.0777245,0.5694284,-0.23312117,0.98589414,-0.73056877,-1.3403021,0.2555875,-0.5068045,-0.4044293,1.2646538,-0.04721442,-0.5099104,-0.13770528,-2.0108123,-0.29923573,0.5346074,-1.2432173,-1.6330625,-0.10529596,-0.6490732,-2.244019,-1.5394834,-1.0505006,1.0602719,1.5534868,-0.9036975,-1.0430968,-0.088453956,0.75219107,1.6433619,-1.1653866,1.13664,0.5178009,0.6777982,-0.7389315,-0.94383943,-0.16070628,1.7693857,1.3452325,-0.9427395,0.7161261,-0.8824496,-1.9270946,-0.31018594,-0.82986635,-0.42436436,1.2451339,-0.13198294,-1.1661223,0.8527989,-1.2223636,1.2960755,0.30152282,1.0743423,0.8826372,-0.65930474,1.6244841,-1.0547289,-0.50378823,-0.34919116,0.687995,0.18546584,1.4948518,1.0992824,-1.3025626,-1.328394,0.54041135,-1.3572301,1.0222589,1.2703352,-2.0388467,-0.7861519,0.31338355,-0.031361524,1.0566189,2.1178467,-0.8339862,1.1477145,-0.71118903,-0.34810963,-0.32815853,-0.8044786,1.4545578,1.422226,-1.1237894,-0.62672937,0.61983263,1.1951146,-2.0774336,0.1442123,-0.6456934,1.5359417,0.3860035,0.99401873,-1.5144489,-0.70477587,1.1808602,-1.3751338,1.4821432,-0.23685063,-0.8344454,-1.2794526,-0.9083682,-0.09652911,0.45881438,-1.0054938,-1.354371,-0.12810646,0.6692246,-1.4217621,-1.5122288,-0.30022523,1.1090575,-0.87219167,-0.84565276,-0.48786488,-0.35538113,1.1081384,0.51834846,-0.33824623,1.757422,-1.1216627,1.3637955,1.2872785,-0.77414864,-1.1794482,0.2604064,1.1752388,0.8319391,-0.27741578,-2.115136,0.45233706,1.4827212,-1.6425527,-0.76450634,-0.39868644,-1.7130989,0.68718237,-1.1894581,0.39810666,0.67970955,0.7755456,-0.6953472,1.2025111,-0.1706874,-0.39996406,-1.2945486,0.6802251,1.2267532,-0.32461232,0.059202492,0.40695056,-1.2461816,0.55293494,0.100866795,-2.4484591,-1.8940175,0.18614082,1.3846675,0.7319735,-0.12089423,-0.5813335,0.4106826,-0.7042805,0.25682038,0.24899304,0.16126736,-1.1871446,0.49969608,0.50190276,0.8669392,-1.141954,1.2222668,-0.4230666,-1.6006552,0.50615114,-0.6922619,0.8410295,0.3192097,0.21980165,0.80543447,-0.8960093,0.94450104,1.4911331,-1.4495902,0.27727792,-1.3476774,-0.11411426,1.2367747,0.7841959,-0.9261504,1.0067345,0.42421767,0.20629326,2.2543263,-0.6544601,-1.2199897,1.6750928,-1.0253454,-1.2668531,0.58409107,0.122483745,0.5272518,1.0629649,0.33507282,0.117081136,-1.0541434,1.3388325,1.4858705,0.014323182,-1.6420108,-0.7226687,2.163447,-0.66512156,-0.17353465,-2.0298839,2.1510634,0.39546308,0.53068614,-0.8252207,-0.43264088,-1.5031766,-1.9563266,1.0209804,-0.20139232,2.0042293,-0.8106273,-0.49207118,-0.6106,0.06458169,1.2544283,0.50906205,0.15450694,-0.4685203,1.9427071,0.60383856,-1.1443461,-0.41042814,-1.1260066,1.2731494,0.40569195,0.39980826,0.4243309,-0.26394603,0.97046334,-1.483707,0.71997017,1.2315625,1.2401042,0.12048292,2.6363976,0.38088554,0.11011638,-0.550514,-0.9886335,-0.7112057,-0.84279865,1.4548374,0.27123958,1.506072,2.027131,-0.4949791,0.7437501,-0.17636226,-0.34971586,-1.3720179,1.303162,1.7803069,-0.5547914,1.3699781,-0.73054844,0.50281996,-1.5021967,-1.4367166,-0.42231765,-1.3122416,-1.0837274,-1.6725852,0.37547046,-0.15074849,-0.63048196,-1.7530078,0.78312254,-1.387656,0.6677423,-0.19154751,0.4030039,0.8484648,-1.2797856,-1.2302092,0.19410355,-2.329452,-1.055928,0.26790896,0.91989124,-1.6088991,-0.29088408,0.7571807,0.9735835,0.15945175,0.1829638,-2.0572376,0.6924837,1.4121723,-0.1407515,0.17753983,-1.3699363,-0.13806109,-1.6066682,1.644251,0.4678326,0.34668836,2.0833452,-1.2971643,0.6875846,0.23187466,-0.9138361,-0.10581054,1.5224619,1.2866994,0.71877635,-0.35402766,1.8238335,1.6140603,0.4499503,0.118656054,0.8624682,-1.2035573,-1.5717846,-3.0221066,0.3608847,-1.1268778,-0.70444256,1.350629,-0.3257985,-0.7304787,0.46272558,-1.450903,-1.4692906,-1.0087228,0.99791825,0.21983998,0.7219332,-1.1585426,-0.42783904,0.11046103,1.3744036,-0.11426968,-0.7372878,-1.0281943,1.4568809,1.209178,-0.21262656,-1.2406871,0.62507176,-0.91619307,1.516381,1.4046009,-1.0167453,0.7790633,-0.29358453,-1.6759554,-0.017787036,-0.27890977,-0.39606765,0.53941333,-0.47753116,0.11656099,0.4650901,0.05701387,1.2574478,1.6124055,-1.7028004,1.3220764,1.392699,-0.23773278,-0.8623772,-0.45167944,0.3912352,-0.7223207,-1.2893071,0.7882879,-0.41502166,-0.860438,1.5354984,0.60143983,-0.2523423,-0.9276093,-0.047921024,-0.32957998,-1.5930874,0.25616342,-1.3428947,0.5344735,1.4224291,-0.88946515,0.24850364,-0.96215796,-0.62368613,0.093119666,0.12421866,-1.6969954,0.77670527,-0.014761659,-0.7082835,-0.7689162,-0.2996904,1.6140656,0.4295784,1.3202305,0.04687138,0.42014453,-0.21113022,0.31913996,0.01760759,0.7725986,-0.2535322,1.1880878,1.5126534,1.2442163,-0.11278328,-1.9492924,-2.221529,1.2024798,0.30122778,0.89383876,1.0796043,1.5811489,-0.85103744,-1.5897144,0.6492097,-0.32230628,-1.7438992,0.17054045,-0.28749582,1.6258271,0.25866583,-1.0566249,-0.7319346,-0.0823595,-1.0266445,-0.41349462,-0.56561303,-1.2964832,0.59136885,-0.97208965,1.9550785,-0.26912668,-0.21051386,-0.87070656,0.18638183,1.3120562,1.9769458,-0.413344,2.3662217,1.5005711,-0.68112767,0.7226476,0.16686757,0.26056424,1.0487828,-0.5896705,-1.3468266,1.808237,1.7550786,-0.046399858,0.794583,1.4990573,0.6278477,0.31408042,1.2560608,-1.07357,0.5053398,0.19393793,-0.1369659,-1.164904,1.6921067,-0.70202965,-1.6973919,-1.1488166,-1.9601604,0.32189134,1.1087699,-0.91373265,2.0672696,-1.0523224,-2.3826127,-0.88292617,-0.053279366,1.6795235,0.03187465
AREG,0.7724449,-1.4331102,1.8044455,0.39163992,-0.40198877,0.42024302,2.4313354,-1.5414304,1.0963746,-0.49272168,-0.8344365,-0.7894599,0.39727074,-0.8103632,-0.9889376,-0.3887004,-0.09143314,-1.0914387,0.33939794,-1.0845177,1.363354,0.2745551,-0.087017514,0.7382472,1.6386269,0.4839378,-1.3998661,0.398161,1.8689473,0.259926,-1.9582257,-1.2887757,-0.9726437,0.51543736,-0.13122466,0.85489726,0.3125207,1.1906272,0.33623275,1.5069363,0.45804623,0.33448476,-0.55469793,0.4659344,-1.0040449,0.5075573,2.5374594,-0.6550348,0.24508938,-0.47624406,2.2066903,-1.2658324,-0.1355294,-0.44320497,-0.68267834,-1.7645954,0.43925792,-0.05341513,-1.5525565,2.1445212,-0.14898607,-0.5862338,1.3624003,-0.8841739,-1.2173035,-1.0452735,-1.2118285,1.3571025,-1.0898151,0.24442855,3.1049874,-0.346667,-0.030949123,-0.75152665,-0.06465277,-0.70014364,-1.9202021,-0.17740922,0.9246153,0.0042844275,1.1714216,0.6523347,1.401851,-1.3464063,1.86339,1.7581205,-1.5377892,0.497264,-1.3522296,-0.9878747,0.28320745,-1.4996432,0.8216591,2.135292,0.9339399,-0.674099,1.954704,-0.046324935,-0.10861678,-0.30767635,0.9505888,-0.87140876,1.334911,-0.12444492,1.0011396,1.2110958,-1.2234453,-0.4718742,0.2136137,1.5764523,0.3926597,0.85622257,-1.7260076,0.1029602,0.7135976,-0.88197374,-0.24478659,-0.75242954,-0.5526726,0.4539307,-1.0934649,-1.2719289,1.5347122,0.00070400635,1.5855842,1.5950544,1.0238842,0.8040556,-0.04903629,0.8130552,-0.7757689,-0.6204781,-0.5709137,-1.0051225,-1.2378992,0.21084553,-0.6175456,0.3100037,0.55278414,1.0081108,-0.27976367,0.97028977,1.2643402,-1.5505617,0.31665808,-0.6618204,1.5805613,-1.3316777,-0.07986646,1.6484302,0.654608,-0.067242,-0.36389777,0.11867764,-0.5315508,1.1490462,-1.367613,0.29625347,0.21793209,1.2999533,-0.08659806,-1.3948737,-1.189175,-2.0530007,-2.2960608,0.6290827,-0.21530204,-1.5582818,1.5450455,2.0661654,-0.45887733,-1.4185338,0.0066010254,0.27611396,-1.4615837,-2.4366388,1.0932842,1.6207666,-0.30138853,0.18952969,-2.2836616,0.7278541,-1.4455552,-1.7165538,0.92857945,-1.5637622,0.30190843,1.2662746,-0.3327326,1.0051128,0.5569066,1.5902904,0.6361414,-2.1900766,-0.12092232,-1.3529648,0.370788,-0.91174394,-0.7353634,0.016659072,0.44734535,-0.7193765,-0.61485755,1.1444645,1.4156812,-0.4772586,-0.69194543,0.12509021,0.59945446,-0.5535362,-0.53786796,-1.6823767,-0.15626685,0.3559525,-0.22886582,0.5816576,0.35667714,-0.12767191,-1.3895134,-0.82990336,-0.4356476,-0.5093492,-1.3061135,-1.1198641,0.5954382,-0.41057223,0.26917422,1.5737123,-1.1156007,0.81819093,0.9756935,-0.0402665,1.4074883,-0.26887324,-0.91817325,-1.6565205,-1.0593128,-1.8316025,0.6027743,1.1896715,-0.45682743,-1.0834223,-1.6076227,-0.7729426,-0.45379737,0.40840125,0.7023138,2.18507,-2.0531495,-0.9237894,1.0673944,0.5687571,1.9492061,0.04540354,-0.4210163,-0.7761751,-2.6598935,0.21518888,-0.23910573,0.016616337,0.2230163,0.49770024,-0.67279375,-0.8299727,-0.64179134,0.0038209236,-0.6833861,0.2496753,-0.53743434,-0.9464675,-0.51278514,-0.92653704,-1.3777338,1.6110023,0.7359882,1.5233629,0.66466516,-0.25807437,0.15798835,0.17238574,0.417908,-0.34232682,0.2674485,1.62151,1.8169603,0.29499,0.36128962,-0.51217455,1.0704495,1.8564957,0.25321075,0.3880275,-0.5398076,1.3002517,-1.5346746,-0.4112703,-2.4576528,0.54635525,0.5433072,-1.2302929,2.3651874,0.4149131,1.0188117,0.80494756,0.56276584,0.7277835,0.7313165,-0.25487766,0.43599564,-0.35364875,0.9608334,-1.3441839,-0.43270513,-0.7192373,1.2334136,0.5247235,-0.83017474,-0.05326594,0.40340757,0.6161039,0.825831,0.63412166,-0.35340303,-0.54619974,0.7008304,-0.5676716,-0.36827222,1.4275112,-0.8473279,-0.93205833,0.87446445,-0.679918,-1.1108919,1.0802014,-0.6036436,-1.2871825,-0.06697597,-1.2217152,-0.023835154,1.7639678,1.7149353,-1.8132772,0.77243453,-1.5856596,-2.1233962,0.28948802,-0.5449899,0.43104208,0.8143989,0.77686054,-2.2879343,-1.6922762,0.9836891,0.52706826,2.314655,2.1037638,1.632149,-1.5732491,0.5486896,-1.1264299,0.60145813,-0.43613526,0.7070333,-0.22779204,0.93720114,-2.1582515,2.307033,1.561667,1.5475627,2.392044,0.19148862,-0.72251076,1.3511081,1.8225486,1.1024607,0.8553231,0.20229009,-0.65612245,-0.7820035,1.2968636,-0.5866276,1.3688557,0.29988262,1.473701,1.8720134,-0.37134415,-1.6160698,-1.1346372,1.2525474,-0.082661316,0.31468967,-0.73776627,-1.6768169,1.2082429,-0.12115911,0.69554496,-1.8714231,0.5626727,1.0391809,-2.0954394,1.1805881,0.7017557,1.3944508,-1.8376245,-0.31603026,-0.15624827,0.9794311,0.05536748,0.11011446,-1.4642085,-0.8450372,-0.45085058,0.036151182,0.0012858256,0.9447957,0.22234423,0.6622795,0.66951793,-2.1589115,0.3648851,-0.50335824,1.398283,-0.22360083,0.5262124,-0.8676015,1.0336591,0.60522914,-0.26269683,-0.9193579,0.109478526,-0.09849895,-0.7198943,-0.80117714,-2.429131,1.3444124,0.113373086,0.43068743,0.021661447,-0.3068553,-0.19329722,-1.1202452,-0.46641123,0.35416445,-0.4206651,2.7833285,-1.5294375,-1.2151995,1.2076819,-0.3526535,-1.0887488,-1.374093,-0.10036802,-0.120088056,0.07282093,-1.2573514,-1.0749035,-0.057569906,0.47084203,1.2191801,-2.105527,0.19780152,0.105491064,0.8506355,-0.57033634,0.60736006,0.6694881,-1.8173004,-0.15529913,0.61246425,-0.21935679,0.60960644,-0.5678858,0.17455202,1.0590483,-0.42545253,1.2519226,-0.8372038,2.0012777,-0.11614068,-1.275213,-0.8888728,2.0903995,-0.0053050574,-0.29844686,-0.08106071,0.61574686,-0.21301596,0.6006249,-1.4815264,1.0245281,-1.466023,2.6818676,1.4317212,-0.22530657,0.9582116,-2.396555,0.89396775,0.98344284,0.23645152,-1.81001,0.6068051,-0.020388559,-1.9611872,0.35948983,-0.4081792,-1.7220404,-0.59400713,-1.2719012,0.048547123,-0.62498015,-0.45620537,0.18266886
BANK1,-0.5301649,-1.4495238,0.4343193,-0.15067853,0.92793524,-1.4509493,0.35761765,-1.3538973,2.0590906,0.34556392,0.3900361,-0.7945459,-0.90162146,-0.035985116,0.10464927,0.98974246,-0.4629296,0.08177044,-1.9096977,1.4125977,-1.5853778,-1.1454033,-0.12717319,0.9692985,0.438408,-0.3373375,-0.6840864,2.2782238,0.30631706,1.2140666,-0.17600538,-0.8638074,-1.27722,0.09464831,-0.74664795,-0.61994284,0.09726889,0.76526725,0.8918591,-0.3010896,-0.49580455,0.059306085,0.5550795,-0.49102184,-1.2185625,-0.029299837,2.7542174,-1.0583315,-1.0097542,-1.6135842,-0.6798796,0.40392125,-0.9006179,0.938667,-0.5587437,-0.9271865,-0.3396297,-0.16629341,-0.3387187,-0.16061929,0.2798441,1.8999738,2.3867102,-0.87042904,-0.76439947,0.73252577,-1.6091665,-1.47518,-0.952959,-0.4207248,-0.03801404,-2.6091404,-0.1340701,1.2049533,0.2966609,-0.8072527,1.137714,-1.1487372,3.193784,-1.4812856,1.4777367,-1.4023981,0.46131316,-0.3969164,1.5239005,-0.49834576,-1.3644948,1.7957354,0.9867508,2.2318687,-1.3869902,-1.0691267,-0.70291173,0.64696103,0.5617615,-1.6037182,-0.16720659,-0.6508179,-0.0765328,-0.5263396,1.2397966,1.9640247,-1.313137,-1.7862933,0.8524905,-0.4165842,0.4351,-0.55487883,-0.2953648,-0.66888213,0.4930506,0.37209067,-0.8399887,-1.5370256,1.8595959,-0.8343171,0.96829635,2.137378,0.73371905,0.21163824,0.60489416,2.3465931,-0.5278547,-0.5370902,-0.1521081,1.0286505,-0.33115378,-0.6393568,0.26130137,0.18323705,-0.09309908,-1.3660126,-1.05206,-1.0172169,-1.5643122,0.24667619,-0.7330089,0.53371763,-0.20715047,0.3959627,0.7528872,2.0602834,0.39163175,1.0270057,1.0970829,2.272579,-0.7225457,-0.60451794,0.44329035,-0.76527673,-0.7582318,0.9454955,0.28414208,0.24388096,0.66445374,0.8743145,1.3751844,-0.20584263,-0.9383486,0.9399138,0.39037162,0.9498781,1.1610167,-0.14687578,-1.2150279,-1.4821494,3.012556,1.5950458,0.4265112,-0.2498452,0.5039696,-2.1168168,1.0978,-1.8684714,2.46981,-1.0230732,-0.63351053,0.2941411,1.179046,0.6463401,-1.8777854,-1.0443443,0.7130261,0.3161845,0.9343109,-0.4520987,-0.2970238,1.7650384,-0.44865122,-0.30028176,-0.64038104,0.8564693,-1.0531784,0.5998018,-0.2980245,-0.61568135,-0.754456,0.11900847,-0.88953763,0.43233982,-1.2727244,0.21190079,0.37335804,0.50770104,0.9906964,0.6104305,-0.57788455,-0.27725786,-0.46220386,0.45496428,-0.28908572,0.8734726,-3.4876864,-1.4857287,-0.6882345,0.081072986,0.6836385,0.38734975,0.12025706,0.102136,-0.57344544,-0.12604731,-0.8135097,-0.1685433,0.3582018,-1.0126134,0.20264807,-1.0860487,1.9082478,-0.081588365,-0.9648619,-0.5755702,-0.7300618,-2.0333295,2.1981657,-2.384351,-1.4995202,0.19946815,0.12036255,-0.1559183,-0.68778956,-2.2918103,0.6225876,1.6279706,1.9567478,-1.298493,2.2457206,0.5555245,-0.24705353,-1.1446146,2.7233837,0.9242268,0.81055707,-1.9056311,0.15190423,0.70028776,-0.88829505,0.73445207,0.06758911,0.31830576,-0.17710876,-0.48066092,0.47623286,-1.2652959,1.741598,-1.9950244,-0.0753417,-0.9892216,-0.18883346,-0.35678664,-2.1266994,-0.10788894,0.4432663,0.69599533,-0.20086986,-0.5553365,-1.9365522,0.124617316,-0.30426267,-1.1614095,-0.7814866,0.6774516,-1.5803357,0.9868341,0.25047442,1.4134121,0.766419,1.2218008,-0.048313737,-0.16874072,1.8968982,0.38230628,0.9545449,-0.6323934,-0.4434491,0.2504196,-1.0675539,1.0753597,-0.43270606,0.28482696,0.08158528,1.159884,0.9187047,-0.45910132,1.7275885,1.0926968,-0.66439766,-0.22799729,0.77090436,-0.050306115,0.30161047,-1.4648863,-1.5613968,0.78821987,1.6319481,-0.91272897,2.289118,-0.30539733,0.78926903,0.26957154,-0.8060629,-1.4477321,2.0032854,-0.16048479,0.77348566,-0.4313789,2.1921089,1.4879674,0.98879856,-0.5616676,0.33663446,0.9920448,-0.76279265,-0.7496068,-2.1900408,-2.4427733,0.19787377,0.6499088,-0.009582414,0.011112571,-0.5904253,-1.3015708,-1.7206683,0.07093763,-0.41253126,-0.18323858,0.670578,-0.7171259,0.004965284,0.03545112,-0.46200097,-0.3752136,1.2971107,1.5617976,-0.9351544,-1.0921804,1.4792902,-1.2005004,0.22136721,-1.051037,-1.2239397,-0.32954875,0.0004381746,-0.714378,-0.07791895,1.0681194,-0.33602566,3.4124804,0.71897393,-0.51124334,0.046751507,-0.55216366,2.3148363,-1.5685003,1.3095927,0.5015306,2.2725184,0.024525633,0.60919213,-1.1978326,-1.0562843,-0.6177019,-0.41319233,0.9220136,0.34998792,2.4938965,1.0948746,-0.65458006,1.222134,-0.44632614,-0.26744702,1.3242635,1.1770972,0.84535855,0.85441804,0.15465832,-0.9944042,-1.6213504,1.7623724,-0.43173048,-1.0307564,-1.1957734,0.14247084,1.4187459,1.425578,1.58051,-1.1600734,-0.0844403,0.48774165,0.29988655,-0.24789624,0.26230296,0.90551686,-1.6153978,-1.9037954,-0.56313246,-0.9784758,-0.9596121,-1.0103599,1.166353,0.2753527,0.46631765,1.8805038,-1.1836417,1.186169,0.5972406,-0.98363024,0.7598859,0.35564125,1.7508274,-1.8806185,0.6446942,-0.12027232,-1.4378216,-0.3562906,-1.5233384,-1.6987582,-0.83718896,1.6873579,-1.5393629,-0.0814948,-0.98206043,2.8657951,0.613124,-1.4920974,-0.7726033,-0.13006496,-0.8859895,0.2530036,-0.9514833,0.9426397,0.9630422,-0.30485752,1.290111,-0.90782046,-1.7659683,-1.1779034,0.38745615,-0.33104685,0.27447787,-0.9122647,-1.3973831,-0.23667634,-0.027024409,-0.18349688,-0.17472804,1.0344408,0.9563379,0.30984017,-1.9598818,1.2162318,-1.357075,-0.087719984,1.5508113,1.8779117,0.16942628,0.4604209,-0.02859167,1.2924489,1.5086133,-0.9176593,0.070886776,1.134696,-1.4954484,-0.041176382,-0.23306906,0.32758656,2.2537615,-0.6148215,-0.7568658,0.5582538,-1.3192902,0.062019408,0.65363795,-0.71783704,0.12039306,0.083787255,1.3975631,1.6143854,-0.0072951815,0.5835858,-0.654031,-1.4599626,0.57596546,1.554736,-1.6575472,-0.04717106,-0.23449649,1.0962132,-1.4149368,-0.59825915,-1.0819023
CA1,0.64174706,1.0442216,-0.34213448,0.89748406,-1.010697,1.40985,-1.8127388,0.52908677,-0.26389727,0.1959188,-1.4957075,1.7796417,1.7271085,-1.0794113,-0.34626776,-1.6611634,-0.64722604,-0.2684548,1.6906371,1.7832518,0.30338022,1.9250156,1.7299135,0.6918617,-0.77014214,1.7313312,-0.35763174,-0.079029575,0.804912,-0.50379395,0.5291801,0.2076256,-2.810095,0.27624092,0.64870834,-0.02317003,1.8943263,1.2974548,-0.10893323,2.1858773,0.57453007,-0.68651706,0.26352984,1.6097717,0.25982782,2.5540478,1.2906045,-1.7829659,-1.1455702,-0.103854716,-0.4225756,0.03645985,-0.116445035,-0.7027534,-0.42666513,-0.19199623,1.2667187,-2.1247313,1.5756915,1.8171893,-1.1957043,-1.7087975,0.45417145,-1.7575456,-0.7871364,-0.41627103,-0.26143003,-0.70275664,-1.1650629,-0.2714187,1.1669037,0.73556244,0.7728543,0.067409664,-0.74536645,1.1509078,-0.3245829,0.008404019,-1.1702192,-0.8543252,-0.8755225,-1.2488916,-0.77799034,0.32423759,-1.4125981,0.7965511,0.9456956,0.38591215,0.2616548,-0.23018354,-0.10235386,-0.4338844,0.6476612,-3.0848277,-1.3179125,1.202569,-0.9315067,-0.52104205,-1.2719887,-1.4346852,-1.1740432,1.0688757,-0.8692849,-1.9257326,0.2056586,-1.8663424,0.09684747,1.6329485,0.20574704,-0.69739497,-1.337107,-1.5075579,0.2961754,0.6070422,-1.514285,0.59167194,0.9194811,0.65197235,-2.09917,-0.062151983,0.49945405,-0.42489228,0.43051922,-0.15853965,-0.11764012,1.3941329,0.027696334,-0.90785253,0.61631274,-0.90171343,-0.2064649,-1.4911654,-1.786225,1.0290239,1.1805135,-0.1490559,-0.7559726,1.1126255,0.41409686,-1.166582,0.81860214,1.8614948,0.18963861,1.4897004,1.863599,0.7076615,-1.3788868,0.09400786,0.31986964,1.6521733,1.4023579,-0.33328003,0.06713791,-1.5757269,0.7918843,0.0567423,-0.04623022,1.0213387,0.5736115,-1.2804596,-0.32229885,-0.23952591,-1.0392896,-2.2440045,-0.10472553,-0.6418431,-0.006220327,0.42702264,1.0123304,-0.13441522,-1.3008204,-0.49617982,-0.340735,1.6058403,1.8812907,0.49089584,-1.5035654,1.5222987,-0.22958297,-1.7899113,-0.36740094,0.6481708,1.8122325,0.32196137,-1.0679936,0.9149674,-0.17522591,-0.46747294,-0.70393616,0.48088545,1.0193158,1.6678233,0.26989987,-0.5131083,-0.75749564,1.4085226,-0.72303736,-0.6092643,-0.2669883,-1.3365092,-0.21545011,2.2239637,0.75721395,1.0349153,-0.31387794,-0.837454,-1.4796152,0.5205229,-0.3410126,0.22407113,-0.5002937,-0.35817212,1.0454986,0.81249225,2.2013133,0.15852842,0.9755694,-1.1529921,-1.0453372,-1.086643,-0.31082147,1.4966283,-0.84900916,1.4920183,2.1158936,0.19811405,1.9293703,-0.18176039,-0.261503,-1.285465,0.38676694,-1.5951232,1.4806596,-0.0063905893,-0.7335935,-0.31710935,-0.37084717,-0.30115128,1.0551922,1.4224795,-0.40494347,1.4205117,0.67353106,1.6740348,0.018783128,-1.7192771,0.91774523,0.27248248,-0.74817467,0.74702305,-1.2953302,1.7513226,0.6527302,0.74371916,0.71975076,-0.10841635,-0.09378333,-0.7050644,0.9211538,-0.2163511,-0.19144297,1.1794034,-1.6949233,-1.0671756,0.3904651,-0.7943883,0.07127867,-1.6178508,0.5725044,0.5660171,-0.3297794,-0.3269443,-0.58600616,0.015070527,-1.0700238,-1.7234404,1.1009033,-0.50045073,0.36089846,-0.65030044,-0.85287625,-0.28001088,0.869347,-0.07582106,-1.0100332,2.1489105,0.1678604,0.3796318,-0.56560415,-1.0293417,-0.4128718,1.4780663,0.35997942,-0.0015305119,-0.4984243,1.0594356,-1.1988468,-1.8602529,0.67869514,0.7734767,-0.858977,0.22596416,0.0880845,0.71715677,-0.46140233,-1.1501515,0.81577253,0.2434189,-0.32605734,-0.30695114,1.3788842,2.752182,-1.0085253,-0.19019106,0.58076006,1.7885094,1.7794137,-0.00024176124,1.67625,0.18425654,0.7532797,-0.35163346,-1.3283241,1.3541913,0.8669379,-0.8178361,0.6349491,-1.3336765,0.6861005,0.002329872,0.34289944,-0.09813231,0.799252,0.005467267,-0.41365126,1.1175275,-1.1475142,-0.84565175,-1.3487401,-1.2750201,-0.2890113,1.3043767,-1.1679888,1.0359122,0.37527284,-0.46759924,-0.9234043,0.92326397,0.04320446,-2.2030096,0.16504867,-1.282729,1.1274649,-0.8295816,-0.6848164,-0.1917578,-1.5445433,-1.832239,0.62054,-1.6108841,-1.0525608,0.23602661,2.2468882,-0.42458293,-0.98200274,0.9256779,-2.3063385,-2.4536855,-0.22974367,1.1033762,-0.89423275,-1.3993766,-0.13497132,1.3041451,1.4442302,-0.41768435,-1.7000805,-0.99504536,-0.9233253,0.11594051,-2.1777887,0.5769611,-0.7563002,1.3510183,0.4899929,-0.3678031,-0.18128842,-1.9452976,1.098472,0.23345746,0.011528016,-0.6286896,1.4482249,1.3739411,-0.67838097,1.1154499,1.7571621,1.4980818,1.9119356,-0.8987706,-1.0987027,-0.17861578,0.959329,0.012602275,0.2852644,-0.16004731,-0.6422159,0.5918969,1.5508558,-0.94620687,-1.1472327,-0.026964081,-0.94883996,-1.1742388,0.13318388,1.6203476,-0.21674715,0.46106806,0.14963058,-0.7485442,0.731271,-0.8938504,-1.132747,1.2164434,0.76107407,0.66222143,-1.112152,-0.6722959,0.9024909,0.9283456,2.2482693,1.0103786,-0.28130838,-1.489178,0.54773384,0.9706026,-0.069754325,0.6288475,-2.372796,-1.5575399,-1.1434386,-1.8571252,-1.8115025,-0.4572119,-2.2767942,0.17079511,1.9051939,-3.2537396,0.4355019,0.607465,-1.1299958,0.31356055,1.3058376,0.4950447,-0.09153089,-1.759308,0.8540449,-0.30699912,0.9577299,2.3061054,-0.9882183,2.579499,-0.20281117,-0.56048876,-0.97662836,-0.5290487,0.35344854,0.77291334,0.86809283,0.75288385,-0.68587166,0.67581743,-0.99897754,-1.3061795,-0.4896146,0.22757185,-1.1542401,1.7434132,1.3383373,0.30455846,-0.93257165,2.1332343,0.3855607,-0.2271834,-1.3637174,-0.3742262,-0.659563,-0.65975076,0.57153326,1.193133,-0.87418854,1.6073103,0.62387806,1.6150938,-0.07834789,-0.17616993,-0.24151844,1.2134975,0.4985865,0.47151053,-0.29718858,0.7450454,-0.9457595,1.7069907,-0.0041514337,-1.4718106,-1.1121184,0.50971866,1.3249326,-0.016463842,-1.3316598,0.22684133
CA4,-0.69563305,1.4056528,-0.56650746,-1.2323012,-1.3323126,-0.96081454,-2.0848897,0.7003527,-0.6409587,1.038842,-0.06498572,1.3038633,0.30969152,-0.5645524,0.008124396,-0.78231436,-0.28147507,0.54247665,-0.42739913,-0.6464563,1.0470499,0.6294437,-0.92250395,0.9562084,-0.0009385427,0.7560267,-1.0167627,0.35306352,0.68005574,-1.0699753,-1.9274065,1.8146495,-0.82173604,0.25446746,-1.5678301,0.3525409,2.5439432,-0.20063792,-1.3150276,0.7798256,0.5558715,0.88417536,-0.5811615,1.3047646,0.0034222458,0.1533603,-0.9360243,2.7914338,-0.5368126,-0.6082336,1.6647696,-1.1449951,0.65897113,2.1289008,-1.6375307,-0.2034191,-0.20621084,1.4080312,-0.43650326,-1.5845102,0.808652,0.93970084,0.22685668,-0.5245057,0.3970461,0.979657,-0.009021616,-0.6638755,1.8280691,0.36193457,-1.2879273,-0.6416042,0.40402335,0.98043627,1.1047475,-1.2518575,1.5369043,1.1599258,0.4285551,-0.37297738,0.5184815,-0.87692654,-0.8805692,-0.81270486,-2.6557176,1.0219725,0.12615667,0.29118827,-0.28920522,1.3936262,0.2123201,-1.2768604,-0.4431668,-0.21789221,-0.5858788,0.075409785,-0.8833924,-0.23445182,-1.3634076,-1.0243646,0.381097,0.12596877,-1.0403475,2.2700908,1.5448917,0.12838568,-0.34014517,0.32775605,-1.0018413,-1.9935573,-0.26454332,-0.463571,-0.107285604,0.70279545,-0.122954935,-1.1012831,-0.60244423,1.6306136,1.0223936,0.21100028,1.0680918,-1.227812,1.5819584,1.0433186,1.1879662,-0.98553896,0.25769264,0.19834802,-0.7026734,0.3881912,-0.58449924,1.6801364,0.7412916,0.026602874,-2.2165058,1.0552096,-0.19533977,-1.2552925,1.4378374,0.6108319,-1.2082813,-0.79370344,2.0760605,0.4875662,1.8423125,0.4556227,1.9722239,-0.8334209,-0.7809587,-1.3963526,-0.002030428,-1.4910307,-1.866085,-1.0390882,0.64390457,-0.89661723,1.7013452,-1.4742844,0.3913517,0.7175941,-0.089459375,0.063370205,1.6457112,-1.3595599,0.8911379,0.40923223,-0.35106498,0.4551379,1.8546793,0.52704006,-1.622424,-1.1034871,0.16849384,-0.8224067,-0.11688447,0.04384406,-0.15828913,1.6072752,0.32976183,1.3513578,1.7159884,1.1914728,-0.70354044,-0.9826329,-1.3371588,-0.2929626,1.1100091,-0.06926045,-2.1210833,0.6277387,-0.36247125,-0.422435,-0.69885397,-0.2692257,0.7954438,1.1351696,-1.2235502,-0.007838932,0.3465091,0.08522652,-0.13082163,0.20695055,-0.100965455,-1.3574165,0.29320255,-0.7874198,0.12829678,0.48067385,1.4583609,-1.2811568,0.01557259,-1.9971523,1.3497577,0.23581102,-1.1512779,0.36565828,-0.49845776,-1.7184497,-1.6271926,1.2466671,-1.5095792,-0.008449191,0.73230773,1.4385307,-0.84729654,0.15645722,0.6784778,-2.510395,1.6292905,0.7656166,0.91493106,-0.85579044,1.3979056,0.40610936,-0.23978691,0.037298024,-0.1840769,1.5196279,-0.34763628,0.51151055,0.6294353,0.27619284,-0.21071382,1.4454238,0.34135002,0.17309979,0.016032934,0.699046,-0.3501512,-0.892336,-0.056635406,0.26239187,1.3622012,-1.9970899,0.063429326,1.4267839,-0.71991324,-0.6488818,0.083459884,-0.53950024,-0.041301854,0.19207266,1.2282919,1.3204455,-0.159797,1.4271461,-0.82051957,-0.29120216,2.7477608,0.55091375,-0.7435884,-0.9306335,-0.65251786,-0.7434253,-0.2276206,1.4629565,1.4995613,-3.126005,0.2516852,1.1116854,0.46419066,0.7250491,1.1428705,-0.95841116,0.68347317,0.18334551,0.647408,-0.13665159,-0.90021574,0.8862136,-1.3745449,1.980064,0.95013386,-1.8058738,0.77975214,1.3499709,-0.94610643,1.6433978,-1.0019504,0.05880765,0.8058241,-0.17143424,-0.0327544,1.2866052,-0.2698364,-0.26038933,0.63141286,-2.280776,0.26687512,-1.8377731,0.6028373,0.9999264,-0.3761056,1.7469037,-2.108117,1.8235856,-0.33840927,0.30938148,0.011125572,-0.6369559,-2.2043185,0.00932862,-0.06457315,0.5804081,0.8054329,-0.03528734,1.0924231,0.64507705,-0.44623464,-0.26511684,1.709204,0.3975668,-0.7846909,-0.16528486,0.15215147,-0.11682224,0.5818948,-0.30812147,-1.6001701,0.98389447,-0.75691664,0.088940926,-1.0615317,1.5361365,-1.8944818,-1.2646695,1.3415009,-1.2829076,0.4949641,1.6507714,-0.6252797,0.48742256,-0.1694423,1.363195,0.52941024,-1.3961684,-0.5511308,-0.89639515,-0.783293,-0.40093,-2.1574574,0.9287681,-0.85126555,1.9723375,0.34507105,0.96193933,-1.0581924,0.07533968,1.3637413,1.1630063,-1.0313007,-0.29482782,0.34560016,1.5521747,-0.82606107,0.12524422,0.30560026,-0.7211419,-0.07520473,0.43819612,-0.31112581,0.51802903,1.9402406,-0.8455534,-0.7671241,0.07811709,0.69684154,-1.1648858,-0.057091363,-0.49146098,0.67723775,1.4793687,-0.3189143,-0.7620842,2.2696962,0.16837901,1.6412922,1.5619555,-1.6915334,1.383977,0.40459403,-1.7873394,0.68022346,-0.8777549,-2.0759323,1.2469075,-0.31769875,0.7059507,1.3982394,1.3437805,-2.2161322,0.6048235,-0.6482189,0.35637823,-0.4956079,-1.5246171,0.14257228,1.1525462,-1.5782497,-0.28992587,1.2205594,1.7314752,-0.6820663,-1.2879595,-0.9088301,0.73714465,-2.0628085,-1.2354909,-0.35130072,1.2533408,0.2924898,-0.72887266,-0.046242498,-0.06357068,-0.39480594,-0.085640885,-0.26283935,-1.6760963,1.7292886,0.24117301,-0.9545412,-1.2903315,-1.1631141,1.6080697,-1.4816005,0.604515,2.0591073,-1.1411394,1.8815768,-0.8972029,-0.41813123,-1.2414572,-2.102501,-0.35254973,-1.9285707,-0.9342893,1.63559,0.47940156,1.2578437,-0.03137242,-2.11274,-2.6541646,2.609748,0.9567214,-0.7914242,-1.4763633,-0.3778377,0.4875691,0.49449733,-1.0359665,-0.7369679,-0.2633088,0.3745441,1.2619334,0.16279687,0.94364893,1.059963,-0.41703168,1.955439,-1.3630921,0.881107,0.7931714,1.6505313,-0.2612726,-1.1321547,0.109694436,-0.05882899,-1.6372588,-0.5090635,1.8230032,-1.0824863,-0.27244845,-0.36459726,-0.39887935,-0.8370347,-0.9300756,0.52424145,1.4533664,-0.6656829,-0.83405876,-2.2520473,0.09642369,-0.5158278,-1.7417186,0.57742673,-0.60897356,0.49669567,0.21735376,0.7773856,1.3446496,-0.7312361,0.043042693
CALB2,-1.4953285,-0.054242853,1.3675658,0.07591668,0.9197239,-0.7367989,0.2814917,-1.2762487,0.5467493,1.0299183,-0.63245726,-1.9599795,0.22290367,0.33572692,-1.0248089,-1.7964579,0.95042735,-1.1083621,-1.2407892,-0.47322896,-0.75602156,0.6314053,-1.713883,-0.9542123,-0.20426548,0.48682338,-1.6567208,-2.0943573,-0.16590168,-0.47613886,-1.649088,1.4611619,0.8179701,0.56494516,2.7924914,-1.0551405,-1.0858257,1.8625555,0.23202695,0.34485593,0.9345747,-0.13505802,-1.7757124,0.6127566,-0.9357607,-0.1890784,0.6234621,2.0760565,1.5991436,-0.23206152,0.5274014,1.0560466,-0.38203427,-0.292995,-2.2220883,-1.7501161,-1.5006541,1.2406288,0.25801915,-0.57615966,0.15069984,-0.30844578,-0.9851837,0.255645,1.0151603,1.3323863,-1.0724251,0.7199372,0.22523703,0.12608713,0.061182413,0.05381835,0.5467111,0.8564648,1.0911354,-1.6706979,-0.5571902,-0.3706496,1.8982459,-0.9751593,-0.79760337,1.1523944,-0.6140676,0.9107406,-0.4069395,1.0771362,-0.17408991,0.9765386,-1.4895436,1.2606138,-1.2373078,0.43795398,-0.8464379,1.3681858,-0.07752844,1.6191189,0.22855645,-0.107910715,0.73280424,-0.51673573,-0.34929794,0.43430185,0.08724431,1.3298665,-0.72275364,-0.09631738,0.77799916,-1.2402601,0.27821863,-0.31307358,-0.13754566,0.48423335,-0.07146957,0.11597807,-0.7156357,-1.8002934,-0.6486883,1.2566342,0.03459597,-1.1173376,-0.9944328,-2.3217158,1.4834342,-0.9078002,-2.3101609,0.57596594,-1.448307,1.4852684,0.52018404,0.8517691,1.8977283,2.1399465,-0.2650298,0.25423035,0.4019799,-0.96154004,1.3033499,0.06939648,0.5975158,-0.39569432,-1.5171394,-1.5123442,1.0717759,-0.9938822,-0.7732216,2.2089005,1.5147738,-0.2920003,1.7566175,-0.38945657,-1.3977741,-0.39535737,0.16005315,0.6164572,0.24427125,0.6501228,-0.7565461,-0.23411071,-1.7797862,-0.22334601,0.8697043,1.7002461,-1.6213969,0.22815546,0.26601633,0.514633,-0.6633756,0.20151871,-1.1047665,0.41690323,-0.83309716,-0.9647808,-1.0910463,-0.21680771,0.121949926,-0.26610878,-0.066551596,-1.1871654,1.310149,0.55996436,1.0998971,1.0228791,0.9046437,-0.78836745,1.3463961,-0.06074673,-1.477707,-1.1718944,0.4986072,-1.5326953,0.7589272,-0.566881,-2.130032,0.12117814,-1.0581441,-1.6548425,-0.21154335,0.12871306,1.3788962,-0.86712176,-0.6162199,-1.8910743,0.56778187,-0.35070267,1.2049514,-1.1601772,0.29247308,-1.0916393,-1.1043315,0.63391477,0.65598226,0.9983802,-0.79349834,-1.98427,0.9103792,-0.98721325,1.1426274,-1.022138,-0.69171184,-1.4876271,-0.6780163,0.4937994,2.0375996,0.23133856,-0.9405223,0.17348582,1.5465635,-0.8553456,-1.5929954,1.9282929,0.00124555,0.70149434,0.24259141,-1.5841624,0.13062552,-1.8758107,-0.6072315,-1.0236716,-1.8067727,0.9156885,0.61383075,-0.3629416,-0.94637716,-1.5064479,1.5542105,-0.7444918,0.8717221,-0.4362621,-0.015237952,1.0644773,-0.8480418,-0.9549096,1.6103159,0.54592925,0.74384815,1.8713374,-0.91222477,0.9480213,1.6191422,1.8178146,-1.0079767,-0.28397354,1.1170985,-0.95208853,-0.3147391,1.8128968,-0.5248861,0.8144535,1.0756596,0.625932,1.153399,0.9053713,-0.29752386,0.9398739,-0.5233022,-0.24742515,-0.120214425,0.18419397,0.25830725,2.359772,-0.70071626,-0.5366325,0.072687924,-0.5519384,0.12922813,0.9083552,-0.68913144,-1.1234245,0.2115056,1.2517526,1.555708,0.70709956,-0.6131378,2.2557533,1.1419345,-0.43148604,2.0472038,0.042055488,1.4384868,-1.3906195,-1.8110675,-0.4279373,0.9641261,0.99587464,1.046149,0.109387174,-1.9199413,1.8111023,0.49463862,0.7103096,-1.3517454,0.9474591,-1.7906967,0.6486413,0.94107974,0.27421317,-0.024114378,0.20465174,1.8715546,0.024871673,1.9867483,-0.89016336,0.52814525,-0.46224767,-1.7401848,0.72165835,-0.25503626,0.5548759,0.15449311,0.9985671,1.3648632,0.06050068,0.7777415,-0.56339425,-1.1207373,-1.2256657,0.27792692,0.49872857,-0.20117404,-0.17721826,-0.5646343,0.01658796,-0.49762714,0.7623635,0.18628795,0.6726885,1.3351165,-0.73137873,2.1338098,-0.70639753,0.15298878,1.2293148,0.0005484476,-0.2505225,-1.0217195,-0.45535794,-1.3043185,-0.35612798,0.72710073,-0.832291,0.07450851,1.643117,0.25871137,0.7418048,0.5718493,1.4002345,-1.4099838,1.1255735,-0.3309462,-0.9712489,1.5281152,-0.5890183,-0.16359766,2.0309994,-1.3303205,0.43238476,1.3379685,-1.1175866,-0.77229327,0.30118817,-1.0292639,0.8465504,-0.10917657,-0.012813256,0.44316292,-0.9367819,-1.1454189,1.0450879,-1.7685513,0.91545486,-0.14609906,-1.625683,-0.05949772,-0.79994017,0.76631624,-1.2030907,-0.15252271,0.5614059,0.41914096,-0.89209765,1.0366521,-2.0085762,1.001217,-0.7127707,0.6855262,0.61202425,-0.8878794,0.7187843,-1.541301,-0.53394264,0.10782968,-1.5402801,0.93915766,-0.0756518,-0.75464,1.2702627,-0.76973605,-1.0902108,1.4352634,2.3122954,-0.77611434,1.4808004,1.196556,0.44454694,-0.85229194,1.554125,1.3631351,0.61101896,-1.2056737,1.0081712,0.5950115,0.53036094,0.459938,0.2329069,-2.490102,0.046354454,-0.27069983,-3.0496185,-0.31277007,2.1371596,-0.42966577,0.45786133,1.0890832,-0.130001,0.14324214,1.4145012,-1.9224672,-2.261329,0.72577816,1.0750787,-0.5662278,-1.1922914,-0.41910267,0.80052334,-0.43007293,-1.6862994,1.29722,-1.1256961,-0.07883236,0.43807656,-0.5702617,-0.9039426,1.8169771,-0.050815992,-0.67170554,-0.56084675,-0.74040335,0.20416495,1.1105682,-1.2776501,1.456766,1.3569412,0.43821907,-0.31892416,-0.70818377,-0.9623843,0.2692259,0.7194144,-0.054426145,-0.5732518,0.47448227,0.3661958,0.578958,-0.99801576,1.4772991,-0.0730914,-1.6281693,-0.815415,-0.7333067,0.873455,1.2387402,2.5126498,-0.8060919,-0.9363729,0.843691,-0.378213,-1.4944161,-0.03409159,0.7294587,-2.594174,-2.778551,-0.6955241,0.8254755,-0.37931958,-1.659686,0.5122388,-0.023998499,2.1777859,-0.75126487,1.825118,0.15213147,2.1901486
CCL20,-2.012391,0.07059889,0.2531668,1.1475334,-2.0063267,1.1908689,0.6242833,0.40012488,-0.06176664,-0.8419633,-0.0104498705,-0.33752713,1.7023762,-2.2672641,-0.63673156,-1.2424073,0.5896085,-0.20149636,1.6707002,-0.72710013,0.014328256,1.0132009,0.3988282,0.6735014,0.3796,0.8458744,-1.2963388,0.31535113,0.24190226,0.02296377,1.0138634,0.13209705,-1.1556877,1.9673197,1.3846629,0.40287316,-0.6777306,2.0671687,1.2148604,2.4601912,0.4333392,-1.6456541,-1.1562067,-0.29773334,0.9903802,1.0370268,0.9116157,-0.15889557,0.9679659,0.19747023,1.7090322,-1.2978565,0.81325436,-0.24019651,-1.2213246,1.3143352,-0.3574036,-0.27506498,1.0588362,1.6799728,-0.24745844,1.0412583,-3.056097,1.139475,-1.7131834,0.17881131,-0.32080173,-0.35393056,0.025058426,1.8348994,-0.58514,-0.08365083,1.4628967,0.8462541,1.9659405,-0.45980698,1.8404133,-0.051903605,0.7312799,0.7896342,-0.87539303,0.7687214,0.074967116,0.4938455,-1.9065511,2.0190094,-1.6072994,1.6577092,-0.22082084,-0.6068456,1.1790551,-0.82691425,-1.9487576,-0.56568867,-1.488892,-2.151271,0.47306353,1.0153524,0.4469745,-0.025436318,-0.15607634,-1.4738005,-1.5254667,-0.710832,0.708346,0.49376845,-1.8404076,0.61305237,-2.3571532,-0.22853586,0.38278642,-1.3193226,-1.0753859,-1.9699532,0.7201956,-0.3120776,-0.84835213,1.7402279,0.14133659,0.39530167,-0.124279216,0.68902886,1.0244783,0.60396695,-0.41164988,1.2236663,-0.55333287,0.34377542,0.88281906,1.6022416,0.8267333,0.69782263,-0.41908488,0.7095863,-0.92937887,1.0733793,-0.33262813,0.2562881,0.39254144,0.49774963,0.27988625,0.19719514,-0.003728632,-0.02401354,-0.83246094,-0.69551957,0.114103876,-1.0132871,0.1812919,-0.004244128,0.41542664,-0.15371457,0.46430603,0.47335765,-0.05331112,-2.2222536,0.68264586,-0.42859632,1.7503806,-0.2448254,1.0125544,-1.1486238,0.48179778,0.679636,0.066529326,2.9798684,1.4117861,-1.6923314,0.27302414,0.024223296,0.56565183,-1.2516769,-1.418433,0.7733949,1.3118703,-0.10542767,-0.12292792,0.033012737,0.9515455,-0.50565356,-0.6078183,-1.2172455,-0.80613047,-0.34601417,-0.95640326,-1.204881,-0.48744598,0.98725593,-1.0495541,1.232028,-0.14411443,0.82970095,-0.6410836,1.9160773,-1.3442836,0.9083687,-1.0345451,-1.5172681,-1.5359315,1.0512952,0.5471444,1.0886652,1.0449073,0.6687166,-0.36735547,0.080487624,-0.61278296,-0.92011064,-2.7492337,-0.051461227,-0.8092289,-0.91726947,-0.97358024,-2.0828595,-1.0205816,0.88489544,1.3431529,-1.0166028,0.1199517,-2.7076595,-0.87560946,0.16492523,2.3646805,1.334642,-0.49384114,1.3559175,1.5102935,-0.12690648,-2.1708426,0.6003395,-1.0731947,0.3690496,1.7359405,-2.439201,-1.7731764,-0.9845294,0.045591228,-1.1764448,0.6083976,-0.03942216,-0.12769163,-0.3470523,-1.3528284,1.2188807,-0.9543876,1.4044617,1.677719,1.525883,-1.5377176,-0.90126437,-1.4829853,-0.47107002,-0.9004751,-0.18440074,0.36319897,0.22325878,-0.72730136,-0.7036134,0.8353525,2.168208,0.32188776,1.5907425,-1.3237215,0.8818962,-0.58784735,1.7649922,0.6276773,1.4867127,-0.24069913,-1.2486209,-1.31274,-1.2764515,0.33944017,-0.20043646,-0.10135157,1.4937184,0.3646974,-0.5478325,-1.175503,-1.2647218,0.030827368,-0.51225954,2.0339885,-0.48654944,1.0072106,-0.47851777,1.3907855,-0.2058295,-1.425347,0.18076998,1.0705906,1.1715264,1.2115282,1.4611892,-0.11537092,-0.0829994,0.7812973,-0.8975421,0.69374025,0.8464785,-1.7316886,-0.8527564,-0.115798615,-1.2809868,0.14355366,-1.5571656,-1.5602114,0.74191886,0.551755,-1.3100315,1.7456526,1.5048271,-0.9308206,-0.5099427,0.14199811,0.3294956,-0.8347529,-1.3939153,0.44722685,0.85158336,0.78681797,-0.7735173,-2.5597317,0.88417137,-0.19446643,-0.5566107,1.1881803,0.969294,-1.0110004,1.131563,1.167095,-1.5027226,0.5872885,1.00672,0.09811103,0.42135635,0.00976718,-0.8539318,0.84998196,1.0919511,0.409695,0.17723982,0.025704075,-0.07962213,0.103356,-0.970748,0.904509,1.0066541,1.0203775,-0.2718196,-1.0454088,-0.25984195,1.0702158,1.279941,1.061473,-1.0593978,0.87218744,-1.7540395,0.6766342,-0.08872355,0.60240287,0.7407703,1.0230998,0.11548494,-0.8677422,-0.96294856,-2.1470575,-0.21538278,2.165174,0.018103803,2.016787,-0.98806465,0.9248556,0.5627316,1.2218413,0.46259946,1.2978959,0.89801145,-0.70982826,1.1463132,-1.298744,-0.09251325,0.4051705,-0.5887197,0.14503503,0.91452205,0.7106605,-0.036132954,-0.8861976,0.2758383,-0.78534615,0.11637144,-0.7176306,0.37225816,-1.3535477,0.65969175,0.68214667,-0.29227066,-0.19764665,-0.21875775,-0.04637773,0.42693135,0.6719632,0.9015098,0.12913743,-1.1744908,1.234575,-0.88823646,-0.78866464,-0.2655805,-0.037735075,-0.73338395,-0.70877326,1.931583,-0.6800001,-0.7477979,-0.5228605,-0.9550986,-1.9763576,-1.4544369,0.1233644,0.76153415,0.6220457,1.2640154,-1.1001811,0.35182333,-1.9007583,-0.51950693,0.85471,-0.36323673,-0.6371536,0.50475615,-0.18820566,-1.8566139,1.5675329,-0.3617588,-0.74160856,1.3886566,-1.6797218,-1.2909982,-0.47780576,-0.3950448,-2.3458474,-0.6911798,0.1032725,-0.49587846,-1.8805064,-1.0061595,1.1732105,0.28130844,0.03455578,-2.4076571,2.054332,-0.5553886,-1.3832242,-0.33313987,0.76845545,-1.0757821,1.0083752,1.6814638,-0.7656993,-1.3497318,-0.8771105,1.2057331,1.8374612,0.8049396,0.5102858,1.7151706,0.61644536,-0.07445751,1.2909955,-0.6586902,-0.6496022,0.22781631,-0.71226925,-0.45574698,-0.19979993,2.3154113,0.37941524,-1.3698655,-1.5667597,0.16071855,0.73370904,0.6463172,0.1499708,0.6574367,-1.2313693,0.5672476,0.42056623,0.6521989,2.5787065,-0.7088945,1.9566084,1.4434137,0.19811307,0.4077725,-0.34297413,-0.3305359,0.34926,0.98302084,-0.4243675,-1.541448,-2.0737672,-1.5262271,-2.9162648,1.4305432,0.27831084,0.21167184,-1.9936798,-0.3807933,0.19983897,1.0223681
CCR7,0.11955438,0.2445536,0.93362534,-1.0571754,0.46657574,-0.8314548,0.41150802,2.1976569,0.15204948,-0.1863704,-0.14412126,0.6171237,0.57763755,-0.066534124,0.08836501,-1.1132697,0.4330551,1.2494344,1.2476115,-0.049137045,-0.90676594,-0.53322107,0.3424151,-0.21142505,-0.9701325,0.9334346,-1.5175556,1.5988235,-1.4761964,1.9761816,0.22470583,0.947739,-0.61010116,-0.08103378,0.23552968,-0.75188744,2.4778488,1.147,-0.5456432,-1.4897652,-0.7198429,-1.1818049,0.58183086,1.9807098,-0.054295104,-0.90033937,0.9776348,-0.8505892,-1.433241,0.99577385,0.6457094,-0.8047062,-1.6427909,2.872073,-1.2829163,-0.89259624,-0.9802451,-0.1096743,0.55088407,0.36108977,1.148841,1.455202,1.9987383,0.3269436,-0.6658887,-1.2139617,1.8354341,1.1617696,-0.6454016,-1.0298284,-0.797484,0.5649371,-0.31701216,0.76610607,0.6324282,-1.3996123,-1.8650736,-1.0477059,0.5438644,-0.19969931,2.212488,-1.1269934,0.73870564,-0.27873504,0.4854853,-0.40421763,-0.23685357,0.4255876,0.0655963,-2.7728434,-1.5752805,-1.0489813,0.1341722,0.48902577,-0.22478633,1.0393988,0.0594801,-0.4994272,-1.0037955,0.28295833,0.5230564,-0.38876727,0.66730493,0.84610087,-0.9725556,-0.89470583,-0.65568376,-1.0001125,-0.28971997,1.9897492,-0.12955567,-1.6693112,0.27056,0.5675938,-0.9513566,0.85917556,-0.6782123,-0.15034282,0.22415857,-0.48564804,2.1416178,0.9087841,-0.44886762,-1.4483552,-0.3676689,-0.08074316,0.5786623,0.29879037,0.7983347,1.117435,-1.1158128,0.07251783,-0.26625878,-0.9955839,0.34664133,0.124220714,1.5277015,-0.13316949,0.26769766,-0.61492383,1.2170316,0.65605676,-0.5825347,1.1467847,-0.15185274,-0.7527595,-1.2043494,0.130047,0.014730461,-0.9241991,0.95679355,0.027761986,-0.37426102,-0.18956152,-0.16281474,-2.2615173,-0.6448193,-1.0946214,0.26267257,-0.4002888,0.97887444,-1.1903167,-0.8309494,0.4679177,1.4581337,-0.110410705,0.29289743,0.7890624,0.27460644,2.6355166,-1.0450022,-0.19421987,-0.8001679,0.67312366,0.1661446,0.40850037,1.5888704,-0.39564154,-0.54930437,1.1860578,0.10445778,-0.2082069,-2.0269406,-2.369591,-0.32444283,1.5044447,-2.2833686,-0.4090472,-0.39204443,-0.45265964,1.2047881,-1.3315802,-0.9895483,-0.5308998,-0.35563266,-0.65951186,0.503246,1.8836454,0.18393457,-0.115052715,-0.4239001,-0.22047104,2.077164,1.2859753,-1.6660172,-0.043893676,0.07451696,-0.32762474,-1.1455337,0.35894954,0.7027986,-0.70122474,-1.4781591,0.9250803,-1.1908033,0.7490181,0.74766123,-1.2772425,1.4480243,0.26840013,-1.4604528,0.22060697,0.4349174,-0.26411968,0.098951384,0.24568084,-0.020837318,2.0577269,-0.91437614,1.2000335,-0.7150331,1.3532478,1.0919725,-0.35325798,-1.5457593,-2.5696833,-0.05257945,1.1780124,-1.3046511,0.22776085,-0.35259253,-1.24519,-0.297345,0.92241424,1.3961196,-0.094177306,0.5168576,0.8550773,-1.5696641,0.28616872,0.93409616,-0.09079895,1.6782259,-2.486344,-0.5050609,0.34475002,0.86632746,-0.43896136,0.88184583,3.5194924,1.0289358,1.7082719,-0.2622119,-0.22910868,0.22765142,-0.48779762,0.629961,0.738177,1.4244285,-1.4349376,0.12305956,-1.3431923,-0.822427,0.07874323,-0.83183753,-0.49840143,-0.9141034,-0.8101618,-1.5196036,-1.2783352,1.0523589,1.0047636,-0.8163163,-1.2650211,-0.97539955,-1.6477071,1.0185493,1.5051389,0.051364854,-1.2308099,0.42792094,-0.42056897,0.9146497,1.5931858,-0.29897723,1.0038551,-1.4777229,-0.5327067,0.8635826,-0.80897427,0.61115426,0.6435192,1.0497427,1.5041957,2.0523372,0.64872926,1.1392624,-0.188183,-1.1168605,-0.8951163,0.28527164,-0.8067698,-2.2647161,1.2323068,0.032398727,1.3642613,1.9618251,-0.81397855,-2.1665752,-0.31043768,1.1735855,0.5731452,-0.38052872,0.34403,0.6245768,-1.1770011,-0.14879128,-1.4548025,0.9656036,-0.8052861,-1.6683503,-1.8781401,0.33086646,0.82367307,-2.6493945,1.1725087,-0.72662413,0.88569796,1.0662576,0.087420136,-2.3039982,1.1058846,0.80493104,-0.32070124,-0.8378122,0.6745683,-0.06343151,-1.0144867,1.4510528,0.9383431,-0.6856043,-2.0177503,0.33830643,0.76755136,0.00740869,-0.5700559,0.1453692,2.2121427,-0.71038496,-1.7089219,1.0191137,-0.44697616,-0.058112532,-0.9234941,-0.19346869,1.0851171,1.3658967,1.4767133,0.4090533,0.093247406,-0.43773144,-1.5558214,1.5395299,0.9976227,0.060112447,1.4369295,1.0692017,0.837178,-1.7582302,0.6353407,-0.24094917,-0.71595603,1.816521,-1.1701325,1.3680985,-0.7399662,0.673697,0.5464561,0.32135427,-1.4514982,-0.3267759,0.08136346,0.24177673,-0.9599828,2.0503507,1.1868498,-0.94105774,0.6000005,-1.7123009,0.71444696,-1.3575138,0.9986561,-0.9834526,-1.0642818,1.8372675,-0.93506855,-1.6464196,-0.7439193,0.72311354,1.6775624,-0.22255637,-0.13459788,0.9040043,0.8094593,-0.46558118,0.6284855,-1.7466499,1.2411891,-0.6139526,-1.2297187,-0.6664662,0.75203234,-0.59089154,0.6919475,-0.78622454,2.3548489,-0.73203295,-0.69024605,0.8600595,1.1832241,-1.3595307,0.36637586,1.0903695,-0.8465669,-1.1542537,0.50423443,1.0926151,-0.8550253,-0.5823461,1.4600452,0.11941775,0.8730641,2.451197,-1.3248144,-0.27029344,-0.03405058,-2.1780903,1.3018767,0.8918287,0.54243225,-1.2253585,0.3941626,0.188398,-1.2883838,-1.3472832,1.198789,-0.7577224,-1.140403,0.42268935,-1.8021799,-0.4119442,1.4343822,-0.7927532,0.9125239,1.4153072,1.2572474,-1.0179211,0.8924198,0.19652708,1.4210113,-0.38821748,1.1872184,-0.030749004,-0.197136,2.6103842,0.030865343,-1.7897464,-1.854657,0.109633744,1.0860636,0.7759196,-0.08997428,-1.8269647,-0.28005436,0.5583729,-0.5667449,0.52717847,1.3573368,-1.9964433,0.27115077,-1.9428024,-0.83693826,0.42348364,0.7771576,0.22336932,-2.4497883,1.3578827,-1.263297,3.3098793,0.9929616,-0.9632624,0.043777652,-2.310219,0.30666777,2.5742512,-1.8541301,0.06379231,1.4557388,0.4380941,0.1392618,-0.6115525,0.104859
CD177,-1.4220254,1.1818662,1.4366145,0.12213429,-0.6070482,1.4315227,-1.3819923,-0.6455438,0.63252115,-1.6449873,-1.194198,1.5767627,-0.14773962,-0.16998251,1.6184235,1.1089132,-0.21489647,-1.1477413,-0.21489336,-0.9899932,0.8469888,0.5380496,-0.5525771,-1.5785439,-1.0329963,0.6287298,-0.4856552,-0.07587039,0.9034468,1.7204219,-1.6180989,-0.22385783,0.1920706,0.70833695,-2.4486725,-1.0735328,0.50837326,0.73182565,-0.3452952,0.81720126,-0.020328987,-0.7585212,-0.6919933,-0.6357228,-0.48224625,0.3165189,1.4214342,1.0879079,0.43725055,0.2125005,-0.91012347,1.1884491,0.61478853,2.568964,0.3627301,-1.1175393,-1.0320675,-0.7043975,2.289873,-0.6540604,1.0721473,1.1483027,1.1242414,-0.6241362,-0.03932101,1.4087393,1.4147369,-0.5366524,-0.32040527,-0.15514453,-0.26238486,-0.6295586,-0.8525232,0.32293543,-0.695349,0.7958904,1.5181136,-1.2398802,-0.5639682,1.3681194,-0.6001388,1.2152439,-1.8327173,-0.12342745,-1.5706512,0.8300938,-1.373055,0.19935986,0.6512819,2.4556391,1.3786101,-1.8077761,1.2078528,1.4396029,-0.019635621,-0.3741625,0.64519596,-1.986484,-0.7551143,1.2164887,0.46752924,1.213099,0.8033682,-0.76442486,1.1503849,-1.0898347,-1.8480172,1.1842624,-0.21131575,-0.8537615,0.30234718,0.8540943,0.85542,-0.65705645,-0.5736878,2.1103826,0.6783665,-0.23372164,0.00053044653,-1.4548315,-0.833778,-2.9683847,-0.9859736,-0.030582748,-0.78406686,0.180875,0.19789554,0.2801447,-1.7126237,-1.6638685,0.018533217,-1.143136,2.5399165,0.5416612,0.035785373,2.5739682,-0.18894579,0.73692954,0.75765216,1.959593,0.949386,-0.33550248,0.4422911,0.010891456,1.3988076,-2.3410387,-0.5725886,0.06252226,0.10640531,0.23338047,1.0301764,0.5918709,0.9464635,-1.4083714,1.5950606,0.85305166,1.7658706,0.7424095,-0.35776135,-0.0694544,0.6536693,-1.9649388,1.4017811,0.56775874,-0.66262287,1.4781303,0.39966595,0.8617195,2.0939467,-0.5433529,0.9278244,-0.07481723,-1.1857204,-0.92409945,-0.17674999,-0.3798206,-1.7325264,-0.41228902,0.9023929,0.2532472,-0.62105244,1.6115891,0.09362229,1.8577759,-0.6164047,-0.43846887,-0.082790785,-0.60910517,1.2866206,0.060241193,-1.8547915,0.19347039,0.84086347,0.022428883,0.72912174,-0.21655136,0.24689412,0.087912284,1.1437012,-1.4361731,-1.4428377,-0.44435373,0.40504026,-1.5050989,0.6729183,-1.198965,0.6900325,-1.7321638,-0.56452996,-0.33445695,-1.2437929,0.5711349,0.36469334,0.30834612,-0.4872904,0.5736625,0.63364196,0.68922067,-1.0583847,2.2805223,0.5862509,-1.0971786,0.37697032,2.0582855,-0.538309,-2.7086713,1.809974,-0.51257956,-3.03505,-0.961177,-0.6457266,0.6974206,2.7983239,-1.5315952,-0.7538269,-2.073878,-0.80516136,0.117891595,0.04751711,-1.628982,-0.76110154,2.2332423,-1.4717542,2.3076916,0.4942915,-1.4555572,1.3775426,2.27607,-1.4710406,0.91434395,-0.75066596,-1.4356169,-0.6254122,-1.5011446,-0.6344529,1.5242789,0.2254325,0.8247451,1.7714406,-1.0058464,0.11127438,-1.4712402,-1.8546553,-0.7447685,-0.8711677,-0.39609927,-1.479567,-0.85602087,1.7115611,-0.7192465,-0.098671034,1.2070467,-0.6202881,-1.7997667,-0.60548633,0.5316184,1.0179337,0.9691067,0.4836312,-0.25413504,-0.8978591,0.7922954,2.2813017,0.32971627,0.61511296,-0.43008518,0.0689918,-0.932971,1.5116153,1.6356567,-0.22332215,0.43392366,1.314381,-0.73073554,-0.660135,0.5372558,0.46139744,-1.9549588,0.8639325,0.41879892,2.0473177,-1.0414212,0.56978077,0.1497346,-0.72337717,-0.25395903,0.040434122,0.16814712,-0.9705745,0.5557181,-2.215918,0.11835695,0.38568312,1.7123288,-0.25688377,1.3044891,-0.42660442,0.75414073,0.16000752,0.6589747,0.9285867,0.8519703,-0.34730628,-0.44658527,0.20516706,0.6504619,-0.91349,1.2962141,0.5969481,0.45803076,1.0356561,-1.4632977,1.0928985,0.7714409,0.48766965,0.37583604,0.07067325,0.5401773,-1.7348443,2.0905752,0.3934245,-1.189095,1.4310918,1.7404618,-1.4620214,0.45013738,-0.504482,0.0502816,-0.31405443,0.5038589,-0.21102986,-0.67684203,0.70749605,1.5920376,1.4717479,-0.9275339,0.7113038,-2.0854952,0.5901754,-0.038766477,-2.345956,-0.02236757,-1.035839,-1.4566249,-0.22469817,2.0827243,1.548664,-0.557105,-0.6498972,-0.5650237,-0.5566881,-1.8011075,0.547943,0.5042793,0.73069435,-1.369537,2.3394454,-1.3755686,0.5518701,-1.1659598,-1.5479999,0.18388195,0.30357763,0.34645852,0.69181263,-1.0483665,-1.6099272,-0.7523701,-0.37134182,-1.1723511,0.18746261,-0.6590976,-0.6544021,0.4251485,-1.19351,-2.2165868,2.0714905,2.134519,-1.3121562,-0.23450303,-1.2494491,-0.12793694,1.3204602,-0.35737768,-0.23246431,-0.36898732,-1.4564304,-0.87978035,1.5485066,-0.51206714,0.6110134,0.6013421,-0.72124505,-0.7657998,-0.61335355,1.6073794,1.0480865,-0.95183325,-0.5283388,-1.640153,-0.014805509,0.40585858,-0.54474396,-0.4469508,-0.76885647,-1.2226425,-1.0376946,0.9995833,0.71367806,-0.99312186,-0.31954715,0.8748591,0.6823767,0.67372113,-2.0673306,-0.781981,-1.0208876,-0.3697707,-1.213535,0.66790456,-0.5628763,1.7168081,-1.0738626,0.30232832,-0.4830257,0.32353306,0.4662333,-2.1529813,1.260048,0.18487807,-0.44927016,-0.33429316,1.6945574,0.49280408,0.68343985,0.09747738,0.96460164,0.8640966,0.3648098,0.17032935,0.32782394,-0.0437486,-0.89429915,-0.0949162,1.3364148,0.62432486,1.126747,0.3366759,-1.327764,1.1283473,0.3764243,1.2638353,1.1052818,-0.43161634,0.074678935,-0.66907704,2.3488598,1.2022848,-1.1715692,0.105642535,-1.10336,-0.43950933,-0.5676385,-1.2931129,0.56066334,0.18635993,-1.528952,-1.6055143,0.08566486,-2.078743,-1.9902155,-0.09083141,0.12949929,1.0367075,0.50323296,-0.37961546,-0.91007537,-0.894983,-0.4018092,0.61529356,0.46509638,-0.96395165,1.086926,0.3586495,0.9202229,0.098772764,0.87703866,0.7825036,-0.75404215,1.1412016,-0.39854175,-0.26743874
CEACAM6,1.0365155,-1.5298153,2.9386473,-0.47680622,-1.2780204,-0.06727711,-1.0680652,1.0641022,0.5458071,-2.0133908,1.3671736,0.6781018,1.3115175,0.08043279,-0.25860348,-1.5789638,-0.65294087,-0.15014008,-0.9534843,0.76792246,0.7667833,-1.0082047,-1.0312885,-1.157059,0.82723224,-0.07568427,0.7301851,-0.7182798,0.36265066,0.80921614,-2.4734774,0.18822742,1.6426748,-0.105909914,-2.2181656,-0.18722592,-0.8099111,-0.31727558,-0.99985415,1.7091279,-0.9521505,0.3491408,-1.3044014,2.1138644,0.3582449,-0.045186274,-0.09498337,2.3135626,-1.3950047,-1.3912579,0.1685518,-0.45518234,-1.1069158,-1.0745027,-0.7205688,-1.06514,-2.606333,-0.083088554,1.5067854,-2.119154,-0.7252671,-0.17573597,1.5572577,1.4380645,0.51020294,0.45210367,-1.1106973,0.3468843,-1.2622324,2.0917075,-1.0984136,0.76489544,0.15975696,-0.34878576,-1.9736687,-0.85514826,-0.38142622,-0.87615097,-0.50232404,-0.7915246,0.8341029,-0.6172296,0.8974772,1.9581817,1.5572716,-0.609853,-0.23838146,-1.5124718,0.66741985,0.68042904,-2.06569,0.67445207,1.5305308,0.31648153,0.6473039,-1.4365963,-0.16185488,-2.482128,-0.8679191,0.5727373,0.6590951,0.9885176,-1.3563653,0.51103795,1.3890388,0.4110597,1.0027764,-0.42805454,-0.8777419,-2.2497993,0.19993457,0.8710704,-0.85526025,0.26004747,2.1205616,0.6103057,-0.854225,0.280986,0.4722787,-1.3173906,2.2067533,-0.95084155,1.0299426,-0.47170615,-1.4298708,-0.51726884,0.13267098,-0.7680262,0.33634675,-0.52349156,0.8762081,0.18048981,0.15523227,-1.8752927,0.39934015,-0.97750586,1.1077617,-2.281672,-0.251466,0.054333836,0.90998596,0.804289,0.11734073,0.7112154,0.39827752,0.62680984,0.4650463,-1.0994734,0.4634056,-0.8725932,-1.5844762,-0.004477882,-0.45016232,1.1685524,0.54765034,-0.89070207,0.6673801,0.26443407,-0.83729976,-0.49019527,1.341533,-0.8145654,-0.45359546,0.54092664,-1.3246816,1.7276416,-1.6001949,-0.2605711,1.5986217,-1.9034172,0.15890193,-0.45889398,-0.4941201,-0.90970415,-0.5845166,-1.0620794,0.10541688,0.2044292,0.6896556,-0.88793343,0.5968129,0.9675303,-1.2088847,0.8307866,1.313334,-0.12661123,0.7448188,-0.36723167,-1.5596583,-2.1840644,0.9709177,-1.2743391,1.9876481,-0.21004601,1.5162824,0.91784614,0.5500612,-0.89749277,-0.56312144,-0.4346552,0.5872786,0.31837127,-0.81342685,-0.020194095,2.4001231,0.17449968,-1.9979818,0.72651607,-0.849924,-1.6776559,0.6241483,0.80892426,0.9771541,-2.0718837,1.756828,-0.30629566,0.87214875,-0.70510614,-0.0020849744,-0.46213427,-1.0094906,-0.06574857,0.2248841,-1.2968779,-0.36950642,-0.60001546,0.8480889,-0.033973016,-1.1973789,-0.27930373,0.6858989,-1.6287924,1.1134495,0.3503746,-2.9150786,0.16680425,0.3414647,0.88374466,-0.64610684,-0.10431974,-2.02668,0.32934403,-0.9379959,2.3546324,-0.63985497,0.9666796,2.9117565,-0.72502416,-0.37626925,0.5547414,-1.9562511,0.57849854,0.7243356,-1.8543267,-0.20767564,2.470333,1.7771316,0.7803875,1.8322035,-0.38148853,0.058591988,0.84022367,-0.043973356,-0.5845859,-0.72021365,1.287268,0.6153893,-1.6429245,0.41197535,0.49051514,0.7907666,-0.34538573,-0.16727431,0.9251371,-1.7470472,-0.26942113,0.34613618,1.081549,-0.01571404,-1.0976626,-0.51367664,0.2625134,-0.51361686,0.6148411,1.5399946,-0.8041357,0.48696014,-1.1088552,-0.09828606,1.1052065,-0.04271415,1.4085718,-0.78373235,-0.79123884,-0.29072317,-0.15390868,-0.23809586,2.2635674,-0.8400848,0.98078173,1.2357862,-0.33548227,-1.373182,1.172765,1.4741518,-0.8585285,-0.49096277,2.5334506,-0.43570524,-0.17657125,-0.1006816,1.2119374,0.40314317,0.32722473,1.7228999,1.108923,0.76352096,1.4994074,0.7593908,0.1396691,0.70664763,-0.50383186,0.28249985,0.17408422,-1.2955707,0.19130565,0.5772253,-1.4808848,0.8864018,0.7742029,0.9923027,0.29113704,-0.5154658,0.073381804,1.656227,-0.391686,0.33586124,0.102160834,-1.9677483,0.47203436,1.4532992,-1.3760675,-0.3816591,3.2501755,0.5126568,-0.15988445,0.32902172,1.0558261,1.2564077,1.1654909,-1.2383531,0.6342547,1.1681068,1.7668706,-0.6088883,-2.015111,0.17995457,-0.837846,-0.9383814,-0.07977723,1.9097921,-0.5169273,1.468379,-0.06018867,-1.8436719,-0.19832724,-1.8256505,-0.7869804,-0.35676953,1.3277333,-0.304272,-0.520511,-0.6445152,-1.2609097,0.89625186,0.8799799,-1.075038,-0.833759,-1.3304896,-0.062342733,-0.076582946,1.2190957,-1.180732,0.019774651,-0.9553299,-1.3149261,-1.2569629,0.28986543,-0.6449079,-1.3984913,1.2953557,-0.111365095,-0.78943866,-0.30858448,-1.3719711,-0.6831877,1.0122527,-0.8746723,0.8667204,1.7967293,0.21830396,-2.1738403,-0.7739332,0.74592316,-1.7740175,0.9541544,-0.5745295,1.5609034,0.42109925,-0.6410652,-0.34335536,-1.5477105,-1.1229372,0.01198053,1.0544109,0.019376889,-0.57445425,1.1400118,0.41793498,0.792002,0.2781147,1.2363408,-0.6175719,1.433161,0.24664594,-1.8563324,1.3453071,0.57216305,-1.3793141,1.0830615,-0.1493845,-0.11708175,-1.4961487,-1.1691043,0.7575053,-0.26085815,0.41624558,1.0308684,-0.56298864,2.977891,-0.6341685,0.44106188,-1.4223877,-0.5290903,1.9085972,-0.50658554,-0.29030168,-0.53883433,1.1791579,0.44645777,0.36872494,-1.1144948,0.7638689,0.8260071,-1.4775951,0.7289677,0.5827544,0.95025516,-1.1568439,-1.0080261,-0.7319721,1.362372,0.7939884,-0.25700933,0.1812406,1.2059145,-0.14398775,0.9637976,-0.7398447,-1.2652444,-1.2047608,0.4044959,-1.030113,2.441689,1.3214408,-0.42001548,1.0779439,-0.20653513,1.808736,0.35918802,-0.6753113,-1.0775882,-0.14523196,-0.08908627,-1.6909791,-0.44252202,0.79068345,0.83807373,0.1953408,-1.0368576,-0.5472199,-1.1155751,0.37439743,0.72894585,0.5657542,1.0959647,-0.07601142,-0.037291054,0.1419404,1.5482339,0.22574483,-0.90635747,-0.21056993,-0.40152267,0.2541045,-0.5018623,1.0406755,0.6282402,2.1493905,-0.47300372,1.8231813,-1.3390493
CEACAM7,0.32089496,0.11165451,1.0126895,-1.6961464,-0.42846748,1.3428493,0.7366138,1.8394871,1.0340629,0.13052447,-0.4864955,-1.0985577,0.49459842,-0.040740278,-0.11924001,-1.6863593,1.3664552,-0.3020716,0.6414399,1.1060508,-1.3324274,0.37395996,-0.041902505,0.42707202,1.3162911,1.2794102,0.56755596,-1.6766416,0.07507807,2.015941,-1.1086928,0.29985803,-1.6088542,1.6576893,-1.56299,0.19153836,-0.91777384,-0.46671197,-0.01297474,0.13051172,-0.52698964,-2.155196,1.1077564,1.8168731,0.18327935,1.2300353,0.09472055,-0.5241457,-0.7496234,0.9356021,0.34716058,-1.6103854,0.46963364,2.5306413,-0.94463885,0.6549849,-1.6363403,-0.07472631,-0.0028049748,-0.7853294,0.6180388,0.68494666,-1.0355287,-0.9844934,0.039330088,-0.80651414,0.8755035,1.0454583,-0.9844099,0.327689,0.9444615,-0.2529363,-0.558615,1.4920921,0.43262625,-0.27629966,0.73659724,-1.6679147,0.7136657,0.067130476,-1.268589,0.60858023,-2.1347814,0.62907284,0.24774815,1.4549239,-2.8517451,1.205549,0.5490183,-0.22974867,0.51293075,0.011679103,-1.1790123,-1.5441655,0.7601575,0.6246619,1.6457376,-0.77137595,2.300523,-1.3799471,-0.15033245,0.27122048,-2.2458398,-0.16918951,1.123737,-1.8427657,-0.86542034,0.7761589,-0.0012135635,-0.05403385,-1.3820554,-1.2104981,0.44422483,-1.7618729,-0.10838575,1.5576038,0.3122337,-0.14639767,1.5927805,0.14907444,0.035710137,-2.1554997,0.2529277,-0.69042957,-2.1390972,-0.765442,0.47385836,0.4401488,-0.59325945,0.14422771,-1.0939457,-0.50647783,1.4208078,0.45633772,-1.741784,0.1898741,0.36297038,-1.3911014,-1.3904792,2.4399176,-0.4735218,0.18648781,0.7114791,-0.5095392,-0.5314005,-1.7171217,-0.03633125,-0.43090975,1.5650425,-1.0748847,-0.29346034,1.1708983,-0.43693447,1.5749389,-1.4877092,1.4481694,0.24341905,-0.76448196,-0.43395886,0.27411836,0.8036946,-0.9577967,-0.38521805,-0.96371263,-1.7736304,-0.75016016,-1.2295169,-0.95806366,0.8519433,0.33911338,0.3987262,-0.27549353,0.53900474,-1.4005115,-0.7770526,-0.42774582,0.15448968,-1.097433,0.027386332,0.5081645,1.1575533,-0.8565719,0.95421416,-0.7407133,0.65469563,-1.9751987,-1.0670826,-1.8291788,-0.648989,-0.37104177,0.30078635,-1.5343932,-1.1647441,0.7481263,-0.06706546,-1.2563688,-1.3275826,0.93042207,-1.402837,-0.87125707,0.9906085,-0.20006137,0.4708699,0.42008096,0.9760786,1.046098,-0.46156505,0.09267001,-0.2281644,-1.2181422,0.21306992,1.3122387,-0.29440334,0.57291096,-0.48472553,-0.7382654,-0.5162123,-0.8952402,-0.10313237,-1.2435864,0.76916206,0.8287692,-1.3910998,-0.82384646,-0.6439188,0.060042243,0.83092076,1.0060618,0.16933751,0.75204283,1.0587409,-2.1033547,1.9371725,-1.1261435,-0.10811158,1.023606,0.6466656,1.431046,-1.1375248,-1.0282652,-1.7134784,-1.4587152,1.2308314,1.0940491,0.3999348,1.0013857,-0.009008783,-0.44303524,-1.0559131,-2.03407,-0.40171376,1.3969998,-0.65946096,-0.512781,-0.7714571,0.38094386,0.42131442,-0.871239,-0.9217854,-2.3343754,2.0839584,-0.6824851,-0.9600926,-1.1927801,1.2895845,-0.82055813,-1.3794534,-1.4227736,0.07569413,-1.270994,1.3669981,2.3675075,-0.16773814,-0.44199902,-0.17779046,1.439945,-0.17162596,1.104961,-0.3846067,-1.0106745,1.2848709,1.0590566,-1.4670953,-0.90648234,-0.35649955,-1.447175,-0.021429086,-0.26921764,1.4243169,-0.9249921,-0.12407843,0.54893607,1.8236495,1.0028368,-0.4623614,1.025048,-1.3911487,-2.0631719,1.6008784,0.11043426,0.91065156,-2.0407004,1.2404774,-1.51386,0.90084404,0.95222837,-0.7404808,-0.5494109,-0.37323555,-1.539457,1.1477038,0.36841777,-0.2115502,0.65645444,-0.653812,1.7144167,0.8505577,1.4682143,1.3894356,-1.147023,-0.13368209,0.91880184,0.3971002,-1.6073891,0.7306901,0.5566826,0.0054402924,0.94233376,-0.92977077,0.17849667,-0.7430939,0.51035297,-0.0552274,-0.7126152,2.6567376,-0.73099536,-0.2390414,0.7458685,-1.9294236,1.0811747,0.4428889,0.38551793,0.03798366,1.2813355,-0.28990662,-0.040950835,-0.98081744,1.4964718,0.47725034,-0.53596306,0.081707254,-0.66137433,-1.2648858,-0.5611273,0.2099561,-2.1947155,-1.6919717,-0.63371027,0.5355068,0.33464155,-2.1363938,-0.68092436,-0.7189322,2.0821357,-1.817873,0.46296555,-1.5700498,-0.3189119,-0.7128371,0.60347784,1.5571854,0.79943806,-1.2715325,0.029084317,0.784987,0.21627837,0.77524334,0.6003732,-0.76174295,0.23505189,-1.0759798,-0.18219428,0.112939805,-0.42518342,0.7773227,0.45913857,-0.7786827,-0.19504225,-1.402318,0.4051776,0.24678442,1.4343681,0.2252676,-0.79322946,-1.1889461,-1.3917168,-0.042157657,-0.34341192,1.3120822,-0.27446485,-0.73414654,0.078737676,-0.72341156,1.7869473,-1.7001941,1.1462356,1.3054044,-0.14769301,1.4303895,1.1481924,-0.38704988,0.8819205,0.61134845,-0.93936306,0.9012321,1.0895349,-1.6760339,0.7023257,0.9032258,2.5682485,1.1214161,1.5479227,0.60485995,1.1182764,-1.26005,0.6696708,1.0387082,-2.1509292,-1.3879008,0.7084093,-0.8313255,-1.4342065,0.69358075,0.6947809,-2.0350401,0.4722296,1.5096879,0.5960426,-0.92936474,-0.1928719,-1.1370273,1.0796081,-0.8681288,0.8879736,-0.16952689,0.0365846,3.5198057,-0.18564333,1.98214,-0.23189569,-0.82633305,-1.4367199,-0.5952228,-0.69681185,-0.7623513,0.5682553,1.4970275,1.052371,1.3761839,2.4715621,-0.8781339,1.4815092,1.7382137,1.1390715,-1.0872272,-1.0239831,0.27971247,1.9836843,0.41214642,1.6413882,1.0969994,0.7283184,-0.50966907,1.0889751,1.3769779,-0.13925317,1.0231738,-1.7203553,1.491118,0.6597251,-0.7745018,-1.6455867,1.3758774,0.63642716,1.2443095,-1.5842048,0.7978906,-2.1562061,1.6167146,-0.40662274,0.58026695,1.2569151,1.2252983,1.9254164,0.98072004,0.46895897,-0.13438466,-1.2938497,1.9842384,0.76555663,0.21921955,0.19324522,-0.6915435,-0.021880595,0.6629242,1.9437264,-0.21635064,-2.086342,0.5951856,0.48097876,1.0219036,0.44627914
CHGA,1.1878567,-0.41888142,-0.6374669,-0.3001215,0.6797349,-0.17066954,0.34379408,0.12830295,0.43773216,-0.092492566,-0.7190735,-0.42304245,0.26620337,-0.57383054,-0.6521683,-1.725306,-1.9545894,-1.176962,-2.3818986,0.69782525,-1.4298575,-0.64742684,0.12574324,-0.2968996,-0.30108854,2.2635844,-2.3261147,-1.619199,-0.2216468,-1.0342238,0.1292605,-1.1442132,-0.39906007,-0.69835395,-0.7751999,0.72151226,1.9844204,-1.425492,-0.34722856,1.351109,0.9985351,1.511362,-0.62579423,0.07590424,-1.9795561,2.221237,-0.57415324,1.3250227,-0.25911725,-0.530493,0.77244556,-0.90581304,-1.1996604,-0.66226155,0.22283293,1.1391064,0.15799731,0.33706835,2.6732056,-0.85646117,1.9164063,-0.9399773,0.3975812,-0.82947755,1.7718717,0.8620227,0.106394425,-0.39050308,-1.9049443,1.2648106,-1.0149767,-0.26619685,-0.92796487,-0.5985127,0.092708685,1.3032067,-1.1455278,-1.4200113,1.6767708,-0.36007705,0.3425468,-0.60746926,-1.7875302,1.6398356,0.3678722,-1.2306314,-0.54380494,-1.4158934,0.71980613,-0.5701139,-0.9122645,1.0351924,1.1942514,0.3099562,-2.0272262,-0.86749864,-1.3791354,0.08753251,-1.9581767,0.2682785,1.3876309,2.0306726,0.3013414,0.03099911,-0.37820995,-2.2558413,0.1778351,-1.1778616,-1.3768528,-0.29598993,-0.9404341,0.19729319,1.0429567,-0.7674552,1.1641371,0.13979712,-0.75017434,-0.3865934,-1.3599826,0.811513,-0.46173427,-0.37485766,1.4364725,-1.5903133,-0.39416343,-1.5179781,0.78788024,0.86414534,-0.2474095,0.5763863,0.75880337,1.0303396,0.8644604,-0.7928312,0.33218053,1.139105,-1.2574238,-0.62417716,-0.0033678599,1.7520242,0.35722914,1.4501085,1.8968428,-0.08627383,2.3928342,0.8658891,0.17838538,-0.13192047,1.6173525,-1.0125605,0.90050924,1.1725836,0.2024631,0.9709167,1.1477562,-0.8849853,1.0747778,-2.1209164,-0.77440363,-0.009374927,1.2819599,0.17742132,-1.1526791,-1.3048543,0.7368686,0.8026083,-1.3728249,0.08320039,0.97790885,0.40677294,-0.24422608,-1.1322345,-0.48564166,-1.8173524,-0.08114887,0.48215428,-0.97496027,0.6173723,0.27992284,1.4752357,-0.61040825,1.3999493,1.7828747,-1.5878587,0.57572037,1.6031913,-1.2567086,-1.730554,-2.615373,-1.5125952,-0.1920412,-0.13630186,-0.30868748,0.6175101,0.45811167,-0.14424555,0.6130503,-1.5437093,0.9648481,-1.4075239,1.1945175,-0.46765772,-0.8535888,-0.50934666,-1.1694331,-1.3817374,1.8237079,0.10126991,0.9929971,-0.14356086,-0.9101374,0.26826072,0.6664073,0.25894386,0.24517435,0.47575673,1.1665906,0.5687654,-1.1119388,2.0679333,0.48087484,-2.1766102,-1.6844072,-0.78416616,2.2483428,-1.3519402,-1.033288,0.3553424,-2.2727275,0.6530808,0.27871084,0.09138951,2.3362598,-0.37535265,0.6726147,0.4399299,0.15598854,2.5052607,-0.25334057,0.7162389,1.2948446,1.0400778,-0.36920983,1.2874562,-0.55485594,0.8727794,1.3614837,-0.24114436,-0.95564896,-1.3589674,0.048016135,-1.4122692,-0.7847094,-1.4421107,1.0769609,1.0762361,0.11026994,0.75595844,0.90503806,1.2104362,-0.6942765,-1.6339071,0.105601326,0.78626025,0.6742873,0.51303005,-1.8321494,0.20001914,1.7771487,1.0215051,-0.07876046,1.0328603,0.24520934,-1.4609536,-1.1588279,-0.8646525,0.64697593,1.2825505,-0.28822654,-0.24931574,-0.48064724,1.8993342,-0.45555234,-0.68728817,-0.63506603,-1.1522835,1.3506814,1.5861067,-1.1865284,-0.9548055,1.1164474,1.2340742,0.8146891,0.9439334,0.97173643,0.7323848,-1.3005368,-1.7408049,0.7926663,1.8165159,0.2350071,0.60844797,2.0137925,0.33785227,-0.007639258,-0.6870817,-0.3264185,-1.5958786,-0.82495683,0.5486099,-1.8897493,0.51617736,1.1307288,-0.8855251,-0.05696898,-0.11744944,0.765977,-0.25852326,-0.7451284,0.6105814,0.38245597,1.4168756,0.8093092,1.3657829,1.2053047,0.35151893,0.5736827,-0.3911903,-0.8747915,-0.63563967,-0.48821074,0.17457156,0.32006574,0.77458745,2.1307936,0.96896046,-0.2978896,1.3741254,0.6462921,0.15280585,0.7737663,-1.3803345,0.3019923,-0.3710322,-1.823894,0.59340334,0.5632312,-1.6221441,0.61941856,-1.3650687,-0.1870522,1.4843378,-1.6204805,1.8697779,0.19874318,-0.5494905,-1.2417067,-1.4601372,0.057096485,-1.3861264,-0.013019863,-0.43698424,0.7229683,1.9827366,-1.1559846,1.042611,-1.4164015,-0.13592252,1.4566307,0.44012997,0.06142052,-1.692979,0.4332031,-0.51457167,-0.32516178,-0.19949284,1.5693959,-0.8938881,0.2516733,1.0153683,-0.197592,0.42736912,-1.1019764,-0.7507406,-0.8775285,-1.2798896,1.1079609,0.18452358,-1.2152493,-0.2684639,1.0508157,0.59858817,0.18230501,-0.6074381,0.7471236,-0.57392627,0.23798315,-0.7769505,-1.1261088,-0.42556313,-1.9741862,-1.9430889,-0.42694142,1.8280289,-0.73837173,1.0006759,0.17158617,-0.36977467,-0.6927141,0.54921407,0.102009185,-1.0917938,0.48070806,-1.3433584,-0.47397083,1.9930036,-1.1230371,-0.6926142,-1.9205738,-0.4980693,-1.5352602,0.3489876,0.3675203,1.4151162,-0.46478328,-1.0723908,1.6566598,-1.9640836,1.2776088,-0.7441314,-0.7366581,0.48393655,-0.31292734,0.34147134,-1.6470481,0.3714251,1.5809282,1.0429683,0.5680601,-0.47587207,0.9077655,-1.2617022,0.7746151,-0.79950917,-0.5631445,0.8982455,-2.4607954,-0.31407806,1.6219796,-0.1917219,0.24892107,0.6131415,0.031922296,-0.75373566,1.0968184,0.20210478,1.3041948,1.1754501,0.23657478,-0.09650148,-0.34020713,0.58277184,2.2914765,0.90528244,-0.53862023,1.0384649,0.89847726,-0.14365847,-0.072193205,1.2204747,1.4281346,0.2562479,-0.7615677,0.45363763,-0.97965884,0.49900994,-1.5294075,0.6698082,1.8136855,-0.28381968,0.41458488,-0.85496545,0.5486938,0.1579378,-1.2529961,1.53536,-0.43490818,-0.073548585,-0.32892704,0.3856354,-0.9113605,1.5721292,-1.1412072,-0.32007354,0.1261136,-0.49067053,-1.6337571,-0.9462303,1.9202627,0.72096235,-0.22167546,-1.0151899,0.5025402,1.2948152,0.20454417,-1.2108742,1.7222102,-1.2784427,2.5130894,0.64471847,-0.65653634,-0.604807
CHGB,-0.49034992,0.6466522,2.4198072,-0.2169073,0.7855572,-1.8587701,0.2162253,-0.9854446,0.08723826,-1.7378069,-0.3346666,2.7735114,-0.3297357,-1.1296703,-0.881754,0.18838476,-0.25017986,-0.96509224,-0.2979555,-0.7616017,-0.79105556,-0.43700218,-0.4876781,0.17752193,0.1881918,0.9623101,-0.3862303,-0.5031038,-0.196561,-1.0219376,0.3605167,-1.0534817,1.0006901,0.07622413,0.101346314,1.1125299,-0.6307753,-0.17260975,-1.0268445,-0.73000103,-1.1678619,0.45611387,-1.1869274,0.8004215,0.01387558,-0.2638576,0.9125446,-1.4410964,-0.44921458,0.60141414,0.90389925,-1.294718,-2.3686204,-1.1394031,0.71406686,1.5997847,-0.9323886,-1.1799325,0.7285097,-0.25374067,1.9744946,-0.025569765,-1.1686,-0.12849915,0.44294962,0.90052,0.9570097,0.13620137,0.5696066,-0.013795564,0.046448387,-1.0745552,-0.37312844,-1.1110895,-0.65334386,1.338705,0.4400517,-0.6662912,0.8885159,-1.2814041,0.27929702,-0.19950382,-1.6194724,2.0396597,-1.293023,-0.19101624,-0.84225285,1.2336972,-1.1354547,-0.017608033,0.19503473,-0.7804232,-0.71105725,1.5222932,-1.34366,-1.6151618,-1.7442777,-1.3087736,-0.557704,-1.2094214,0.28044775,-1.5227377,-0.54239094,0.0195606,1.3700526,1.1393213,-1.62316,-1.4462776,-0.2502837,0.52163273,0.6335778,0.6398247,1.7371156,0.35449418,0.8793827,0.26169804,-1.8471754,0.6501858,1.9873444,1.4795804,1.1307694,-1.6622314,1.6974707,-1.3674599,-0.17295712,-0.5202083,-0.62205225,-1.3250176,1.738317,-1.0251443,-2.524486,-0.28675616,-1.4407314,0.5143313,0.6762104,-1.587123,0.60642916,-0.6451542,-0.16077359,1.8326367,-0.14350009,1.0021209,0.6992417,-0.51482934,0.6493645,0.7706227,-0.19616291,-0.3614669,-0.44359267,0.43940994,-0.33157194,0.37820292,0.577795,0.8513019,0.8452907,1.8835435,-1.7872803,-0.5388214,-0.11427254,-1.458822,0.81251043,0.7570768,-0.90227014,-1.814215,-0.28712958,-1.4374131,0.9974423,-1.3389949,-1.3534763,0.7705523,-1.5617548,0.96009827,-0.6638544,-0.020658795,-0.34807146,-0.7574493,1.0681628,0.76244104,1.4207859,1.7698425,1.2992941,-0.68334013,-1.1091101,-1.0654814,1.0845499,-0.88418853,-0.5137365,-1.9139633,-1.1232116,1.0457411,-0.80418384,-0.7698514,0.46259332,0.28200826,1.8195307,-1.1457336,-0.12270349,0.83660173,-0.2663992,-2.2961888,1.1656169,0.13399868,-0.7194621,-0.7369684,0.08387183,-0.20573741,0.70257866,1.5013936,-1.4656141,-1.4080312,1.1556666,-1.2574192,0.3376818,-1.927645,-0.43181065,0.5085914,0.03575489,-2.069864,-0.43983403,-0.59163755,-0.49059382,-1.8028969,-0.2511942,1.4750305,-0.8761349,0.5843068,-0.87296575,1.2740289,0.96400607,1.4833287,1.2357244,-0.07910602,0.8028735,0.28291127,0.24658473,-1.6016049,-0.005014879,2.768502,1.6892755,0.08175025,-0.61221635,2.534275,-1.2153709,-0.8618823,0.24740587,-1.3833011,2.0055027,1.3323885,1.5325575,-1.2165141,0.7222091,0.29097065,-1.7258408,-1.9320326,1.5750599,1.0383515,-0.7597735,0.87450564,2.3365126,0.19597459,-0.017583448,1.3728759,-0.54122114,0.34145737,0.7551669,-0.49593735,-1.235137,-0.56171757,-0.3213625,0.99683243,-0.13735077,1.1022075,-0.4270232,-1.0821601,-0.46373212,0.42083073,0.5404301,-1.4728472,0.5242303,-0.051655967,-1.0609179,1.5572133,-1.3149235,-0.19712071,0.8051441,-0.11470132,0.5587076,-0.8475999,-0.80317813,-1.1337128,1.470477,0.0916316,0.32240668,2.3478994,0.7731321,0.5245477,1.2341475,0.7960227,-0.84311384,0.13705522,-2.3331847,-1.3305094,-1.101664,0.23494895,1.4813797,0.41742754,-0.5130684,0.681768,-0.059911482,-1.2138243,-1.6232865,2.4253356,-1.5196136,0.32132056,-0.57448936,0.81299794,1.18191,1.5923872,-0.38090697,-0.23444727,0.11960575,1.3340385,-1.82504,2.1495419,-0.556093,0.61505437,0.07707258,0.08171126,-0.44840378,-2.435902,0.45929298,-0.032516845,0.35355848,-0.7943262,1.0821651,1.0743347,0.89645535,0.4146302,0.94426143,-1.1581517,-1.2311978,-0.6874765,1.6636336,-0.5452036,1.5345548,0.4519675,0.12367477,0.7442442,-1.3108038,-1.6662649,-1.3379388,0.5181818,0.41584498,1.4439583,1.3617233,-0.58119583,-0.699247,0.82759875,-0.73840463,-0.6120729,1.0365808,-0.30220535,1.0217135,1.5767936,-0.0960515,-0.5944751,-0.8133127,1.6818484,0.8481273,0.21962032,0.35674715,0.3240116,0.5115558,-0.2512797,0.7714301,1.9462246,-0.92266333,-0.97121733,-1.0875897,0.3484895,0.39938867,0.9311083,-0.91801786,-0.4785858,-0.1663866,0.13815902,1.3248389,0.015585188,0.7877073,-1.9024473,-0.17819458,0.6493301,1.599586,0.81204635,0.53376,1.1604621,0.95352846,0.95090085,-1.6035225,0.7293188,-1.2527596,-1.7117872,-0.5762794,-0.70158994,-1.1840923,2.0636313,-2.4391036,1.1568803,0.5080909,-1.1773859,-0.659998,0.14951466,-0.97678846,-1.169021,1.2652735,-0.06824738,-0.82691103,-0.6897784,-0.12917398,-0.5430707,1.1598656,1.1987392,0.4774118,1.922435,-0.089487374,0.43019238,1.7568486,-0.3145932,1.4703078,0.8277872,0.29484874,-0.9144302,-1.4165331,-2.1394541,0.3680933,0.6885012,-1.080581,1.9051565,1.3386421,1.2855296,1.533474,-1.9391996,-1.3846716,-0.2486177,0.42417005,-0.2786691,-0.20864366,-1.1489033,1.1569668,-0.68622047,0.38541743,-0.851159,1.4969984,1.2470942,-1.3395091,-1.8784118,0.76324224,0.6679078,1.2258214,0.69007856,0.45175853,2.4088416,0.4793824,-0.07656883,1.0020267,-1.6057856,-1.3237033,-0.93773055,0.9382456,0.37320626,-0.32975847,1.402178,-1.3709884,0.48471597,1.3200724,-1.3755474,-0.3922521,-1.320726,1.2357886,0.7206283,-0.6875521,0.5438558,-1.26991,-0.4776133,1.2177068,0.37252185,1.2611606,-0.19470957,-0.5154507,-0.8507832,-0.33340892,1.2712513,0.32372847,0.50238645,0.111873485,2.0034542,0.21512873,-1.2375265,0.37813142,0.27184805,0.86008066,-1.1839586,0.7972644,1.2845157,-0.03240225,-0.80182916,2.1375039,0.59040976,0.9645482,-0.18805732,-1.2695105,-0.6833381
CHI3L2,-0.7431586,-0.06618076,1.1265157,0.5293237,1.4645864,-0.29962072,0.5482431,1.6082934,-1.2949675,-1.9035057,0.3390158,-1.2961407,0.60952485,-0.21441926,0.2283018,-0.88620174,-0.21375297,1.254457,0.73058116,-1.2886657,0.32705086,0.8844901,-2.968155,0.4297804,1.2591488,-0.80715245,-0.69285923,-1.247508,-0.36144176,1.9874997,1.7582943,2.150507,-0.018925281,1.1105808,0.15925582,-0.7856148,1.5083688,1.0058604,-0.7151223,1.2821232,0.37165207,1.8261902,0.7181346,0.13916045,1.5086519,0.6332379,-1.9178448,1.095119,-1.0501751,0.6273812,0.52545625,-1.2125727,-0.3714437,1.2023069,0.24952047,-0.9445155,-1.9370852,0.75146717,0.90272874,-1.4713132,-0.802649,-0.5221811,0.3360717,-0.6573918,-1.5245664,-1.2454171,0.20768109,-1.2372869,0.3263836,0.07849512,1.4571036,0.70937747,0.83724695,0.9685637,0.6772973,0.4744125,0.7624639,-0.63815683,-0.5191643,-0.103430696,0.39044514,-2.853393,0.0021129781,-0.077554464,0.23819558,-0.9767186,1.3481964,0.4120169,-0.5937358,0.3222118,-1.142404,-2.5873,0.0838481,-1.7279165,0.6099195,0.03671509,1.1808255,-1.8274424,-0.16021165,0.7313415,0.036020353,-1.1835855,0.8159586,-0.72179383,-1.1038882,0.3184583,-0.95405185,-1.5145602,-1.5244827,0.39066058,-1.0276957,0.911569,-1.3129185,0.6929936,0.7637127,-0.11201377,-1.7012423,0.5052921,0.63690615,0.68795246,-0.26373175,-1.2768717,0.6027448,-1.4047705,-0.5360466,0.9422638,-0.8485746,-1.3101616,-0.24862015,1.2109596,0.4683757,-0.42712313,0.61150366,-1.1934865,1.0283391,2.219089,2.547466,-0.05399086,1.2610976,1.7802203,1.5085272,0.9865505,-0.05911908,-0.48911867,1.7772605,1.1488007,0.048980474,-1.0076276,1.1470563,-0.9668711,0.41558114,-0.95087737,0.59034383,-0.5633992,-0.71620494,-1.5274956,-1.7519251,-1.519567,-0.6384763,-0.28600082,0.64866364,-0.11793286,-1.0063239,-0.40607783,1.6897815,0.48289225,0.70675534,0.71388793,-0.44084895,-1.5786507,0.69482356,-0.07089927,0.1452024,1.7997856,1.4471773,0.39576703,0.32711288,1.1999326,0.7360621,0.45645532,0.79333794,0.30564335,-1.126353,-1.5709977,0.6074977,-1.0075699,1.230305,-0.011511491,0.98929906,-0.23974435,0.25926447,0.3597838,-1.0458224,-0.73028064,0.05090707,-0.83398104,-1.477331,1.4181017,1.2136129,-0.34884986,0.00788706,-0.08569895,1.0567107,-0.16446365,0.36717466,0.42237505,0.8604995,0.96504086,-0.69848853,-0.66103923,-0.9844112,-0.32022163,-0.37768862,-1.0080434,-0.08712129,-1.8037302,-0.57487005,-1.4802309,0.54562163,2.9636617,-2.5284185,0.8251359,0.7510324,0.849856,0.04650879,0.10684891,-0.020681918,-1.274817,-0.24636964,0.90798044,-0.29945233,-0.47002953,0.5525598,-0.27709946,-1.6426476,-1.286589,-0.16830194,0.53672713,2.1918175,-0.893268,-2.1311297,-0.25214735,-1.5189246,0.2575174,1.150431,0.94875175,0.3977642,-0.88284117,0.5881457,-1.2766044,1.948053,0.6011606,1.3533479,-2.097064,-0.6928549,-1.5659735,0.95679134,0.30283093,0.8018612,-0.2574754,-2.2852812,-0.0401824,0.24277118,1.8461105,-1.1389301,1.8848056,-1.6595296,-0.69250304,1.7496138,-1.3409307,-0.67363447,1.7788278,-0.5711431,-0.62137294,1.3742452,1.4731439,-2.1600904,-0.30595008,-1.2180605,0.39406663,0.13446319,-0.30728853,0.5705047,-0.4476147,-0.04835617,0.18796591,-0.012536803,0.13794994,-0.6710415,-0.16663998,0.848029,0.05336643,0.95109785,-0.22383602,0.8880845,2.0385334,-1.5674187,-1.7213035,1.2967504,0.69685477,0.7907107,0.94043255,2.4344366,-0.9351689,-1.0448182,-0.7301679,-0.15547267,-1.2174808,1.2672814,0.9140873,-0.45239514,1.278415,-1.7088251,-0.110511445,-1.0572013,0.031324904,-0.393381,0.25557882,0.37266755,1.9219811,-0.48557693,0.6548897,-1.5748734,0.5434403,-0.018264607,-0.57792115,0.38158914,-1.1234273,0.40592694,-1.8464988,-0.16186944,-0.24080655,-0.49556196,-0.97586507,-2.666274,1.2419133,-1.7404808,-0.9329361,0.32157713,-2.1302454,-2.4795017,-0.6041878,1.4194324,1.2628943,-0.124061406,-2.861328,0.4033936,0.2993992,0.15760385,0.3199683,-0.5495069,1.3041897,0.6821179,-0.09417198,0.82024795,-0.9708783,-1.4953325,-0.76217157,1.0022461,-0.28547302,-1.5460454,0.21943036,0.15249436,1.5580987,2.0100603,0.7336201,0.906039,-0.605954,0.40193447,0.07582658,1.8963064,-0.82412326,-0.06653665,0.14060362,-2.2964344,0.016157296,-0.302064,-0.41139334,-1.80647,-0.44776037,0.7963084,-0.16190419,-1.349211,1.4267884,0.24417703,0.5696419,1.4330604,0.7563071,0.31406587,0.49853924,-0.9821775,-0.6435173,1.5902342,0.6211169,0.1361687,-1.40585,0.13725826,-0.6384952,0.2024569,-0.84021705,1.2129,0.113257736,-0.4892871,0.45360082,0.21784668,1.6492132,-1.1429387,0.72007906,-0.2475207,1.8541648,0.82815975,-0.008522602,-0.102962054,0.40165287,0.51196927,-1.1146426,-1.3934387,0.93939954,0.42991528,0.15285766,-0.8683215,-0.5789233,-0.0047852066,0.32388678,2.0498147,-0.29092878,-0.40677288,-0.40805706,0.9385487,-0.08350109,-0.90499073,-0.26934278,0.98163867,0.2981913,0.6826691,-0.7891438,-1.4057015,0.96146756,-0.7325475,1.0872034,-0.69453126,-0.90270233,0.41849512,-1.6041354,-1.9330268,0.13101411,0.35644913,0.7917245,0.4512296,0.9049499,-0.41117078,-2.2245433,1.2058614,0.024167923,-0.8264698,-0.5880885,-0.78915095,0.13977954,-0.29639944,-1.674315,1.2160963,-0.879645,-2.2587519,-0.08471991,0.74925464,1.3413787,1.5516795,-0.0837702,2.2649121,2.1488376,-0.736445,0.7614639,-0.27231577,1.2417649,-1.681323,-1.5699567,1.4225172,0.6956762,0.45013717,-0.3059601,0.2252238,0.0630177,0.3183324,-2.143494,1.3003427,1.9785172,0.076544896,-0.6174359,-0.5829476,-1.7543317,-0.30746895,1.0190353,-0.4068766,1.5924997,-0.69843,-1.835997,1.0356971,1.9471183,0.17840402,0.094401084,0.11222942,-2.1935244,-1.8871436,-0.9728359,1.5136548,0.5803472,2.358281,0.028642977,0.6389018,0.7160726,1.781504,2.6138098
CLCA1,0.8954623,0.22491963,0.82322276,0.27343118,0.39414564,1.4247019,-1.0021422,0.36507964,0.1847726,0.15429811,0.4451927,0.6010565,0.2730443,-0.9644746,-0.31531712,0.2660527,-0.16845392,-1.8196056,0.09893366,-0.7984446,-0.73037946,0.50738555,0.3787284,1.6675144,0.10804138,1.5231261,0.5020165,0.62144774,2.2380612,1.4325087,-0.21612754,-0.7378609,-0.0771121,0.20786464,-1.683488,-0.39020273,-0.648288,1.7461456,-2.2060325,1.5671115,0.42055225,0.19799313,-0.96269673,0.20428339,0.33805576,2.280082,0.16985525,-1.7540452,-0.1750142,-0.18066435,-0.63503087,-0.38965693,-1.7233511,2.7756126,0.75668585,-1.1171207,-3.702517,-1.9947088,1.9278231,-0.03799159,1.273298,0.6784619,-1.4056768,-0.751737,0.65991575,1.5018137,0.7419562,1.5848897,0.33294025,1.3182483,1.1067197,0.32990515,1.5593193,-1.1594781,-1.4311365,-1.019624,1.2366794,-2.0059125,-2.0443103,0.77234113,-1.0571729,-0.63546515,-0.115420006,1.0114069,0.66062903,0.6888018,-2.187144,-0.43329516,-0.89810795,-2.1076276,-1.4242758,0.034954738,-1.5388167,0.37908328,0.18834946,1.3018817,-0.8079367,1.5423139,1.1197519,-0.99123615,-1.0689219,-0.07810334,-0.46904692,2.1373725,0.6434444,1.2651663,0.40837207,-0.41133583,-0.7297719,-0.6195068,1.2536135,-0.3455265,-0.5093044,-0.24403621,0.8995772,-0.99055576,0.8816523,0.16038373,1.3968934,0.08361534,0.10114178,0.33633524,1.3660381,1.1365039,0.9616337,-0.96365017,-0.12284374,0.07260708,1.198351,0.7823956,0.29330125,-0.908681,-0.033373028,1.3699275,-3.086715,0.7448664,0.9758904,-1.1239421,0.16414566,0.61789805,-0.6161161,0.9462108,-1.8969823,-0.65813535,0.69149077,0.1180759,1.2827579,0.72941166,0.065711774,-0.28294197,1.1808778,-0.51349974,-0.76997614,1.2382243,2.220308,-1.1296638,-1.2773415,-0.08432805,0.09410457,-0.59626216,-0.2961944,-0.57728904,-0.79013056,-1.6066462,1.4955865,-1.1092666,-2.06942,-2.0547373,1.1639513,-0.41604665,0.55555904,-1.29684,-0.6156322,-1.0492029,0.42200714,-0.48572946,-0.26564726,-1.6713997,-0.3386347,1.2916741,-1.0887171,0.033006582,-0.8284073,1.0609993,-1.708523,0.36411166,0.4789502,0.5055204,0.015418333,-1.2350823,0.9955025,0.6843836,-0.992422,1.4315443,0.04432898,1.5415272,1.160406,-2.4949327,-0.7546086,-0.7477878,0.114122234,-0.37750375,-1.9783337,0.8255711,0.78125036,-1.3468081,1.4425097,0.84423643,-1.1795135,-2.10024,0.7303131,1.4998713,-0.67575186,0.41987234,1.2449529,0.3481728,0.99842644,1.1251752,1.5010122,0.91335374,-2.8422315,-1.0852265,-1.2388786,0.8824847,-0.32362774,-0.39237976,1.349831,0.39048675,-0.27800137,0.36555076,0.31682348,-1.1709629,2.2379584,-1.3438774,-0.27063915,-0.96676993,-0.8427218,-0.4575031,0.9278426,-1.2037513,-0.52169764,-0.33362815,0.49062955,-0.07044488,-0.735153,1.1032935,3.3531191,-0.8731384,-2.5275815,-0.21596964,0.9010769,1.038512,-1.0473704,-1.7205845,0.41909194,0.56963754,-1.548766,-0.797665,0.42561015,-0.4811197,0.43110386,-0.48179364,1.0097904,-0.92252946,-1.2088765,2.947015,-0.22254038,-0.3503023,-1.648587,-1.1392936,-0.021003067,-0.4709431,0.071906686,-0.5759955,-0.48259264,-1.3086212,2.2904744,-2.04362,-0.6673941,-0.7675052,-1.0311278,1.8764532,-1.9707807,-0.8728311,-1.118,-0.65866536,0.7139861,0.49300662,0.22726154,-0.35712507,-0.37511098,0.1069013,0.09761635,-0.15665887,0.045647267,1.2877028,-0.48594075,-0.824677,0.89068794,1.2936028,-0.8977653,-0.25901043,0.48610282,-0.9534666,1.1317978,0.5759918,0.7675846,-0.56771713,-0.1663529,-1.1045356,-0.06610936,0.97223353,0.5125311,-1.0591403,-1.161785,1.9394624,0.26800892,-1.1569557,-0.30960554,-0.118556,1.2476335,-0.34733233,0.74394095,-0.52994186,0.16637528,1.8436612,-0.026085734,-0.83642983,0.7618843,-0.28216732,1.0592152,-1.1036893,0.3800653,-0.016106749,2.9970512,1.6402721,1.8939937,0.3805516,-1.7174902,-1.1255414,-1.0619147,-1.4235331,1.4408814,0.7429816,0.17452362,0.7975366,-0.3686838,0.7580534,-0.6433256,0.90373,-2.7290244,-0.5080424,-0.98118734,1.2920299,-0.5140365,-0.22109577,0.52456826,0.2666468,0.6082694,-0.6793745,0.6756172,0.955043,0.72370356,0.12797722,-1.2489535,1.7216355,0.67058337,-0.8716552,2.0855224,-1.3881795,0.37130284,-0.68386763,-0.8296562,0.08700772,1.3699579,1.504063,2.561823,-1.1818042,1.1018107,0.55486286,-1.7310942,-0.36090216,-1.9274051,0.84165484,0.49986717,-0.4001798,-0.95457786,0.6454169,0.2944151,0.49719167,0.28455132,1.5281585,-0.93195176,1.2136545,-0.15870512,2.2411323,1.235602,-1.0434058,0.6215506,-2.3112915,0.42537916,-0.29058865,-0.21115248,-0.42789662,-0.40671754,0.3440467,-1.6890876,-0.012679057,1.4363358,0.55143315,-0.061548732,0.35059673,-1.7376086,1.7471862,0.28326765,-0.38445848,-0.0017459902,0.3122198,-1.3456141,1.1770583,1.0584241,1.3989891,-0.84564394,-0.0025248616,1.1672885,0.8298993,-0.2825288,1.1250579,-1.2290426,-0.123794235,-0.047845148,0.8737743,0.6669203,-1.2812002,-1.4190422,0.62328064,-0.84464484,0.7365588,0.48984587,1.1032925,1.5272658,-0.77093214,0.28953958,-2.0686612,0.24713227,0.17469373,-1.1216853,-2.2306557,0.5613528,1.534304,0.09194517,0.93131334,0.32424483,0.3383693,-0.5494635,-1.9207885,-0.30526206,1.0154592,0.8861369,0.06301996,-1.9528425,-0.57658356,0.66118073,1.4639876,0.4887406,-1.3998712,0.5035989,1.8062809,-0.7648961,0.4350928,1.1605792,-0.15758744,0.6243983,0.72898805,0.20416689,-0.1644213,0.11457749,0.47307563,0.7069668,-1.0170014,-0.917571,-0.41684273,0.74565816,0.28637925,0.30291092,-1.8698529,0.023485202,-0.8433676,-0.46788085,-0.011563757,-0.4309681,0.2802562,-1.0166167,-0.48403457,-1.4279279,0.2628347,0.13913064,-0.23542984,1.6641365,2.0374148,-0.5317338,0.10067234,0.7708648,-1.227638,-1.4820225,-1.1657553,1.8815888,-0.98684245,-0.4356706,0.43194693,-0.1412452,-1.1934208
CLCA4,0.81727225,-0.49181226,-0.6302673,-0.5636536,-0.9602596,0.7685952,0.34046203,-1.0340086,1.3773402,0.3103593,-1.1099592,0.91466963,1.8116117,-0.7960654,-0.048531245,1.2169065,2.5053415,-0.67108816,-0.71230984,-1.0962355,1.1047343,2.429938,-2.034484,-2.0121093,-1.0316503,1.3444581,-0.9972817,0.86409855,-1.3197032,-0.8933946,-1.7941684,1.6043181,0.77466094,1.5397687,1.0868375,-0.92647374,-0.3463401,-0.5591946,-0.22259437,1.4693639,1.0745696,0.6261343,1.0653349,0.5238786,0.17347148,-0.47369304,-0.29496646,0.82363284,-0.48963946,1.5900363,0.9364852,-0.06871408,0.8358848,2.2839146,1.0562311,1.4271929,0.2621417,-0.08528593,0.5799627,1.1613615,1.0753342,-0.26217598,-0.741417,1.0292716,-0.57653284,0.512111,1.6108279,-1.0686895,1.7055415,1.6252921,-1.2218646,-0.66429454,-0.94064474,1.5850482,0.25042212,1.3602678,-1.309065,-0.2848032,0.88891464,0.6885308,-1.4923776,-1.0146602,1.214147,1.5887545,-1.0427202,0.026947642,-0.80619705,0.97559977,1.9290855,1.1465768,-0.36013898,0.012439896,0.30536377,-2.2478945,-0.19626735,-0.26838833,1.2391021,0.09699173,2.0452695,-1.0876641,-2.0005062,0.42386135,-1.217494,0.6517168,-0.62916327,0.9063814,0.1757231,-1.0703936,-1.4536014,0.49901563,-0.94495815,0.43876663,1.3869152,-0.59407234,-0.92021424,-1.4322811,1.5388432,0.84959805,2.0093462,-0.6822886,-0.8391448,1.2301787,0.79981154,0.96589386,0.45348126,0.18282972,-1.1792669,-0.021746071,0.5911472,-0.817391,0.09926749,-0.70642513,1.2830598,-1.2144009,0.9568294,1.7938918,-2.2905867,0.43615,0.15310402,0.17882176,-0.031650167,1.0896511,0.06065525,1.4841733,-0.16561548,-1.6554118,-0.5117961,-1.0557408,0.5750509,0.12443607,-1.6588849,0.124501094,0.46039554,-1.5174063,0.5159407,1.4976877,-0.50215054,-0.3453357,0.1345069,-0.4450863,-0.27159464,1.1433924,-1.7090241,0.21160977,-1.8664676,1.2497588,1.1543628,0.61749965,0.46691886,-0.88397425,0.5889567,-0.14556655,-0.55879766,0.6427067,1.5634165,-0.78806907,0.98486054,-1.7600092,-0.9448773,-1.2811217,-1.0024433,0.9160495,0.98953843,0.41650888,-1.6325132,-0.87137544,-1.717757,0.8643722,0.29735363,0.058573164,-0.7649905,-0.7254648,1.1403365,-1.1361451,1.2848474,-0.82177645,0.7762514,-1.0427449,-0.1964531,-1.3423886,-1.9618253,0.08792051,-1.2590795,0.790048,-0.3171503,-1.2870071,0.2534556,0.96903586,-0.60394555,-1.6040157,-1.3463963,-0.9224214,-0.7369387,-1.1143392,1.5626308,-1.0633274,-1.1127918,-0.33949733,1.1052188,1.1708039,-0.8243861,-2.2051244,-1.0325786,1.6756238,0.8561447,-0.99706477,-1.2350341,1.1226778,-1.663911,-0.5106999,-0.79714113,-0.8863325,-0.2445533,-0.19359608,-1.4262791,-0.23954287,0.2821861,-0.9085743,-1.6002363,-1.0531486,0.8517879,-1.7675002,1.2747034,0.07140446,1.5332633,-1.3596219,0.782895,-0.01624025,1.2274388,0.17652902,1.1300236,-0.17288418,-2.221584,0.39515224,1.229706,-0.68306017,-1.4123893,-1.358537,-0.27200636,0.5325237,-0.25771827,-1.3424318,1.4226333,-1.3780798,0.08435342,1.4692918,1.3092234,-0.8170533,-0.31301978,0.36178094,1.5539628,0.65384567,0.8725698,0.05295995,0.75898576,-0.1645588,-0.70128846,0.7514485,1.1185776,0.906149,1.0248277,0.15562764,-0.19663373,-0.6695103,-0.14530776,-1.0310186,0.40246642,-0.23218524,0.7262241,-1.8579341,-0.24864212,-0.6895774,-0.40056986,0.6824565,0.7839257,1.4953773,-2.4951327,-1.1534247,-1.2113094,0.530978,-0.33727634,-2.2526424,-0.85554487,0.7978004,-0.52999806,-0.4666148,-1.6487542,1.310056,0.13651493,-1.5520797,-0.419666,-0.2388836,1.6845106,1.3677486,-1.744803,1.3941928,2.7628393,-0.8739932,1.1508343,1.2305385,0.95289737,-0.97217506,-1.125033,-0.80566937,-0.115922324,-1.1816983,-0.2291898,0.28522816,1.2784582,0.859262,-1.0174918,-0.8120605,-1.000524,-0.25671175,2.2752695,-0.330297,0.3071582,0.42264965,0.5114926,-0.98275256,1.2440028,-0.5226863,1.7352741,-0.040537015,-0.14894284,-1.5780545,1.3930053,1.2278564,0.33784026,-0.107156284,-1.4993322,0.0038612178,0.35019776,0.23948771,1.826607,0.67506117,-0.19786966,-0.9128655,0.97029346,-0.6486972,1.0922358,0.09173029,1.8007116,-0.7352327,1.7315258,0.016951224,-0.9739563,0.1514676,-0.6911939,-0.5452869,-0.8264488,1.1972626,0.9686567,1.6729164,0.8827674,-0.032015838,-0.410932,0.38305366,-1.7090019,-0.20226175,0.3992827,0.025998445,-0.66071844,-0.7557414,-0.80170923,0.3033823,-1.2164694,2.1355453,1.5887017,-1.4316268,0.19915403,0.47001916,-0.7295099,-0.25364205,-1.2941259,1.0398537,1.8511865,0.73171055,0.6712184,1.1933993,-0.8511705,-0.10152312,-1.8841225,-0.88412195,-2.1185985,-0.8166447,-0.8152422,0.4196125,-0.97978884,1.2963394,1.417551,0.4078091,-0.684959,0.15537429,1.7235801,-1.7271645,1.5243945,-0.21654585,-1.8985766,0.46105835,1.2014638,0.20748647,-1.6663274,-1.8962799,1.5815123,0.33178797,0.058907803,-0.20799114,1.344226,0.66363513,1.3908784,0.25956243,-1.125437,-0.93719167,0.61914176,-1.0902654,-0.5690785,-0.13736434,1.1623747,0.52090204,-0.78079045,-1.9841952,0.29494745,-1.1099412,-0.09240146,-0.25064415,-1.3055464,1.5189178,0.81075805,-0.9917892,-0.49468482,-0.8600966,-0.40702236,-1.2589288,-0.44288677,-1.199865,0.28503826,0.5926675,0.29714984,0.11339788,-0.29525122,0.51752454,-1.3399746,-0.46398562,0.110233165,0.026096571,-0.50540113,-0.499352,0.62121123,0.8422169,1.3020282,0.81153303,0.56273675,0.8510858,0.9308628,1.3420502,0.2226437,-1.6942732,1.3467625,1.2281256,-0.18020234,0.7988569,-0.62179184,1.6252337,1.2065089,1.8046488,0.88952774,-2.1394186,1.9235946,0.44478744,-0.8821749,1.7942991,-1.3781642,-0.95256686,0.3818416,-0.03534881,0.8451347,-0.36670226,-1.4796824,-0.7166832,1.6571236,-0.47578898,1.1261202,-0.82267165,-2.3022664,-0.8644531,-0.88798267,-0.3757611,-1.8550408,-0.67771834,2.1757674,-0.81627136
COL11A1,-0.3998369,-0.5935127,1.4503424,-0.7607857,-1.7691696,1.787634,1.169952,-0.45275617,1.5171365,-1.0753771,-1.6651455,0.69074583,0.10716577,1.3755206,-0.5809569,-0.42614394,0.6090451,0.53349215,1.34834,0.12198751,-2.5073438,-1.1280738,-1.6782293,0.111341916,0.35693613,0.6688561,-1.7059768,-0.8667168,-1.289881,-1.1523879,-2.596176,-0.15377432,-0.6017613,-0.028356116,-1.9313171,-1.0754496,-1.0383656,-0.097858325,0.2348343,-0.6076158,0.7636776,-1.1654335,0.17173842,-0.59360725,-0.72892845,0.5061753,-0.06593435,1.0070951,-0.638056,-1.2848536,-1.8970637,-0.18666297,0.37838578,1.3856043,0.62680715,0.64818203,0.011429153,-0.21472096,1.1793181,0.692847,0.54936373,0.9972062,0.7019667,-0.7419003,-0.2962463,0.11031564,-0.54248863,0.41333517,0.18988699,1.0426058,-1.0005102,0.48644006,-1.7761608,-0.45961675,-0.31540757,1.0223885,1.9422777,-0.17083001,-0.34517294,1.4584407,-1.7964107,-0.02077819,1.1136658,0.70967734,-1.5834484,0.5379518,0.44477913,0.0005314831,-0.14871581,0.2409285,0.3565033,-0.5614511,-0.6771517,-0.22962503,-0.65536815,0.5436075,1.2912347,-1.1798722,-0.6433274,0.17821312,-0.8692855,-2.256126,-0.09411878,1.6225842,0.90089166,-2.1209,1.8631092,-0.21808429,0.18544076,-2.1729574,1.7661852,0.95652086,0.7301384,-0.28396285,0.33107546,1.3451443,-1.8285968,1.055967,-0.68685126,1.0886462,0.2445402,-1.0607404,-0.9222649,-1.6134434,0.5183909,-0.027416153,-0.5862953,0.6623979,1.3075106,0.48600692,-0.74901587,-1.0200778,-0.12563756,0.18079574,-1.5035592,-0.9059096,-1.901926,0.48749563,0.88926363,0.24252242,-0.36442515,-0.048517812,-1.5517951,0.79470116,0.77153575,-0.5551421,0.5642079,0.6255146,1.4883649,-0.37532988,0.37960285,0.11586345,-0.19654247,-0.48736635,1.6736542,-0.8317921,-0.5820239,0.080890246,0.33367175,-0.47749683,-1.5724869,0.39471173,0.9541529,-0.19258663,0.36427516,-0.48527688,0.21879202,1.878513,-1.9443628,1.781866,-1.0798032,-1.5423061,-1.1716334,-0.9651464,1.0577651,-1.5000995,1.8589146,-0.40451804,1.164175,-1.5684664,1.4124857,-0.3847154,0.46862015,-0.1141797,-0.48798278,-0.111257404,0.28289753,0.07138704,-0.5925891,-1.6286297,-1.0821832,-1.1578195,2.4427507,1.259464,-2.2762356,0.7309907,0.5624994,-0.45981753,-0.28130212,-0.4471997,-1.3741945,0.08545276,0.19886237,-0.008568075,-0.4900493,-1.1956638,1.9570019,-0.61983067,1.0873176,1.1493495,0.9074549,-0.743775,-0.13535894,1.066486,-0.20595413,-0.15469652,-0.164082,-0.31111893,1.4565517,1.4053818,-0.83239746,-2.595218,-0.24581613,-0.1957167,0.94326,-1.2147571,0.06509941,-0.46319932,-1.1358548,1.6851324,2.183728,-0.3913524,2.4837146,0.76323885,-0.89053386,1.0999897,-2.2156017,-0.9599515,-1.0403405,-1.6273519,0.38346124,-0.06003642,-0.0059972606,0.2764411,-0.11725371,0.43164614,0.54712486,-0.8787245,-1.5087456,0.30491215,0.04166322,-0.11886273,-0.36619613,-1.3198518,1.0904073,2.120799,0.5711964,-0.73063,2.1227977,-2.147724,0.3651191,0.7321661,-1.7094774,-0.9497883,-0.7312608,0.007603513,-2.5390668,-2.521571,1.5107673,1.4675864,0.5538606,-0.5953084,0.08556441,1.6583718,0.2982561,-0.59937954,1.6771591,-1.9772291,0.06778652,0.29440445,0.47666857,1.9420604,-0.59396607,0.83795595,-0.7052141,-1.5652081,-0.6759317,1.2869687,-0.5673845,0.0076050456,1.9338932,-0.024615308,0.26929206,0.6854122,-1.6234518,-0.2859048,-0.7557102,0.26194754,0.50696576,-0.6045382,1.338066,-2.7391047,-1.3796872,0.32144892,0.16674331,0.78628665,0.6769762,0.27230448,0.30817893,-1.140057,0.9641527,0.8378444,1.3982167,1.7412416,1.2186905,1.8121355,0.3254694,0.8742673,1.2622464,-0.85133475,0.43053162,0.43250784,0.15354827,0.65047884,0.10864404,0.36445734,-0.022806572,-0.4206832,1.627977,0.7395147,-0.92074585,-0.0023885157,0.5386668,-1.7538499,-0.47262454,-0.26584265,-2.3614752,-0.052091353,0.18325782,-0.77329755,-0.4291348,-0.6554562,1.4091734,-0.04974856,0.783462,-0.69882053,-0.16770089,-0.80941075,-0.74052787,-0.13083094,-0.37403622,1.784224,0.26745832,0.42444074,-0.71050763,-0.7714976,0.73066664,0.2422156,-0.035997152,-1.8067434,1.3462511,-0.4110851,1.7266046,0.96103513,-0.18392593,0.80023086,0.61870605,-1.3701155,-0.07246162,-1.2121874,0.8348778,-2.6065798,-0.017579824,1.3492833,-1.013824,-0.023464292,0.8278761,-1.4161851,-1.2680362,0.067659855,0.35087153,-0.88969916,-1.4487144,-0.72126436,-0.21369354,-1.6686147,-0.6616209,1.4391917,1.2138824,1.8191015,0.4982287,1.6994927,-0.8066364,-0.5758526,-1.7020483,-0.24292603,1.2536308,0.22113433,-0.19471057,0.9142264,0.76687694,-1.7896397,-1.3376331,0.6289175,-1.1081785,1.3793414,-1.0943886,1.1286361,1.5499442,-0.9578633,-0.16407682,-1.8675152,0.59315544,0.4736359,-0.0050759204,0.5947744,0.97270775,1.3892126,2.083052,1.4886806,-1.0301138,0.045990203,1.0589774,0.7969717,0.7456183,0.37770566,0.6607948,0.9568539,0.555529,-0.4475249,1.1767828,-0.7950648,-2.2381415,-2.1458535,-2.1392653,0.96215767,1.7612522,1.3897407,-0.32598516,0.3350544,1.4752692,0.17899738,-0.5728441,-0.46498176,-0.6099278,-0.03028623,-1.7568371,-0.07052089,0.4176873,-0.8896102,-1.7492516,-1.0583632,1.7149453,0.08294617,-1.1264223,0.4505054,1.0334109,0.50681573,-0.31571716,0.56139696,2.0737848,0.91104853,2.2985692,1.373127,-0.17546605,0.87522024,-0.1999487,1.1349846,1.3091733,0.713521,1.035669,0.81085837,1.1881975,-0.9308417,0.37651634,1.371323,-1.1010419,0.35625532,0.41113466,1.4542098,-0.6180405,0.7447021,-1.2149289,-0.6654244,-1.7259651,-1.6478993,0.07036117,-0.096150346,0.24140938,-2.288172,0.24098144,1.2314932,1.1256617,1.3397171,-0.18815777,-0.37162873,-0.6618964,2.6044364,-0.8657797,1.9623567,-0.19060229,-0.079482466,-0.042108394,0.26610956,-0.96540546,-1.4792058,0.7598706,-0.98342425,-0.43673792,1.0742016,1.8909215,1.8096124
