,dim_0,dim_1,dim_2,dim_3,dim_4,dim_5,dim_6,dim_7,dim_8,dim_9,dim_10,dim_11,dim_12,dim_13,dim_14,dim_15,dim_16,dim_17,dim_18,dim_19,dim_20,dim_21,dim_22,dim_23,dim_24,dim_25,dim_26,dim_27,dim_28,dim_29,dim_30,dim_31,dim_32,dim_33,dim_34,dim_35,dim_36,dim_37,dim_38,dim_39,dim_40,dim_41,dim_42,dim_43,dim_44,dim_45,dim_46,dim_47,dim_48,dim_49,dim_50,dim_51,dim_52,dim_53,dim_54,dim_55,dim_56,dim_57,dim_58,dim_59,dim_60,dim_61,dim_62,dim_63,dim_64,dim_65,dim_66,dim_67,dim_68,dim_69,dim_70,dim_71,dim_72,dim_73,dim_74,dim_75,dim_76,dim_77,dim_78,dim_79,dim_80,dim_81,dim_82,dim_83,dim_84,dim_85,dim_86,dim_87,dim_88,dim_89,dim_90,dim_91,dim_92,dim_93,dim_94,dim_95,dim_96,dim_97,dim_98,dim_99,dim_100,dim_101,dim_102,dim_103,dim_104,dim_105,dim_106,dim_107,dim_108,dim_109,dim_110,dim_111,dim_112,dim_113,dim_114,dim_115,dim_116,dim_117,dim_118,dim_119,dim_120,dim_121,dim_122,dim_123,dim_124,dim_125,dim_126,dim_127,dim_128,dim_129,dim_130,dim_131,dim_132,dim_133,dim_134,dim_135,dim_136,dim_137,dim_138,dim_139,dim_140,dim_141,dim_142,dim_143,dim_144,dim_145,dim_146,dim_147,dim_148,dim_149,dim_150,dim_151,dim_152,dim_153,dim_154,dim_155,dim_156,dim_157,dim_158,dim_159,dim_160,dim_161,dim_162,dim_163,dim_164,dim_165,dim_166,dim_167,dim_168,dim_169,dim_170,dim_171,dim_172,dim_173,dim_174,dim_175,dim_176,dim_177,dim_178,dim_179,dim_180,dim_181,dim_182,dim_183,dim_184,dim_185,dim_186,dim_187,dim_188,dim_189,dim_190,dim_191,dim_192,dim_193,dim_194,dim_195,dim_196,dim_197,dim_198,dim_199,dim_200,dim_201,dim_202,dim_203,dim_204,dim_205,dim_206,dim_207,dim_208,dim_209,dim_210,dim_211,dim_212,dim_213,dim_214,dim_215,dim_216,dim_217,dim_218,dim_219,dim_220,dim_221,dim_222,dim_223,dim_224,dim_225,dim_226,dim_227,dim_228,dim_229,dim_230,dim_231,dim_232,dim_233,dim_234,dim_235,dim_236,dim_237,dim_238,dim_239,dim_240,dim_241,dim_242,dim_243,dim_244,dim_245,dim_246,dim_247,dim_248,dim_249,dim_250,dim_251,dim_252,dim_253,dim_254,dim_255,dim_256,dim_257,dim_258,dim_259,dim_260,dim_261,dim_262,dim_263,dim_264,dim_265,dim_266,dim_267,dim_268,dim_269,dim_270,dim_271,dim_272,dim_273,dim_274,dim_275,dim_276,dim_277,dim_278,dim_279,dim_280,dim_281,dim_282,dim_283,dim_284,dim_285,dim_286,dim_287,dim_288,dim_289,dim_290,dim_291,dim_292,dim_293,dim_294,dim_295,dim_296,dim_297,dim_298,dim_299,dim_300,dim_301,dim_302,dim_303,dim_304,dim_305,dim_306,dim_307,dim_308,dim_309,dim_310,dim_311,dim_312,dim_313,dim_314,dim_315,dim_316,dim_317,dim_318,dim_319,dim_320,dim_321,dim_322,dim_323,dim_324,dim_325,dim_326,dim_327,dim_328,dim_329,dim_330,dim_331,dim_332,dim_333,dim_334,dim_335,dim_336,dim_337,dim_338,dim_339,dim_340,dim_341,dim_342,dim_343,dim_344,dim_345,dim_346,dim_347,dim_348,dim_349,dim_350,dim_351,dim_352,dim_353,dim_354,dim_355,dim_356,dim_357,dim_358,dim_359,dim_360,dim_361,dim_362,dim_363,dim_364,dim_365,dim_366,dim_367,dim_368,dim_369,dim_370,dim_371,dim_372,dim_373,dim_374,dim_375,dim_376,dim_377,dim_378,dim_379,dim_380,dim_381,dim_382,dim_383,dim_384,dim_385,dim_386,dim_387,dim_388,dim_389,dim_390,dim_391,dim_392,dim_393,dim_394,dim_395,dim_396,dim_397,dim_398,dim_399,dim_400,dim_401,dim_402,dim_403,dim_404,dim_405,dim_406,dim_407,dim_408,dim_409,dim_410,dim_411,dim_412,dim_413,dim_414,dim_415,dim_416,dim_417,dim_418,dim_419,dim_420,dim_421,dim_422,dim_423,dim_424,dim_425,dim_426,dim_427,dim_428,dim_429,dim_430,dim_431,dim_432,dim_433,dim_434,dim_435,dim_436,dim_437,dim_438,dim_439,dim_440,dim_441,dim_442,dim_443,dim_444,dim_445,dim_446,dim_447,dim_448,dim_449,dim_450,dim_451,dim_452,dim_453,dim_454,dim_455,dim_456,dim_457,dim_458,dim_459,dim_460,dim_461,dim_462,dim_463,dim_464,dim_465,dim_466,dim_467,dim_468,dim_469,dim_470,dim_471,dim_472,dim_473,dim_474,dim_475,dim_476,dim_477,dim_478,dim_479,dim_480,dim_481,dim_482,dim_483,dim_484,dim_485,dim_486,dim_487,dim_488,dim_489,dim_490,dim_491,dim_492,dim_493,dim_494,dim_495,dim_496,dim_497,dim_498,dim_499,dim_500,dim_501,dim_502,dim_503,dim_504,dim_505,dim_506,dim_507,dim_508,dim_509,dim_510,dim_511
ABCC11,1.779014,-0.7067938,-1.1947101,-1.3102101,0.3944439,-0.63430935,0.38047987,-1.1319429,-1.0489299,2.701751,1.7487333,1.4229947,-0.4616379,0.24533547,-0.5367423,-0.25540337,0.3110895,1.4782852,-1.1700753,1.8475078,-1.4307522,-0.32584956,0.13067846,-0.38374862,0.7675615,-0.5396287,-1.3492554,2.3321981,0.075105816,0.4102083,0.38680187,1.342993,1.389204,-1.1956816,1.2995709,-0.68774945,-0.2289243,-0.61541027,-0.30378613,-0.82392883,-0.13495688,-0.119173646,0.48599142,-1.3777297,0.1704092,2.2838628,-0.21652474,0.790138,0.89801687,-0.9178521,0.12902528,1.3683072,0.45298266,1.4908137,0.13685906,2.1105018,-0.6234431,-1.3898584,0.5311788,2.7327387,-0.1939523,-1.541973,2.2689323,-1.9080617,-0.9646986,-1.7250061,1.1557624,-0.78024787,-0.2663629,0.55438113,1.7367467,-1.5297724,-0.035757046,1.0371686,-0.64099073,0.97182643,-0.796339,-0.7184529,-0.19212878,0.05397773,-0.1203832,1.7024417,0.68167084,-0.7630212,1.0982059,-0.50016385,0.7535542,0.043802083,0.5724916,1.1041458,-1.0366092,-0.14327846,-0.8887166,-1.279557,0.54589564,0.23023944,-2.524329,-0.6543878,0.2514067,-0.036872678,0.3860387,-0.5155115,0.31158265,2.2961576,-0.63139355,1.2405492,-1.3613508,0.5690251,-1.1722939,0.18698817,0.5358889,-0.26120448,1.1890528,0.28680474,-0.1548672,-0.72038406,-1.3394517,-0.17160077,0.32963532,-0.805086,0.57478505,-0.09362214,0.16844396,-0.3848977,0.112728335,-1.279935,1.4203598,-1.7167857,1.6717312,-0.20495139,-0.22093487,0.7083786,-0.41824278,-0.04536661,1.0932996,0.063576914,0.55241746,0.7564352,-0.795746,-1.4472964,-0.9318288,1.9701093,1.5523348,-0.9140212,-1.0732678,1.9146458,-0.8757474,0.73434466,-0.2976897,-1.0586857,-0.16854829,-0.8629189,0.655355,1.7653714,0.9214153,-1.1649928,-1.3404417,0.33135644,0.34206387,0.17917134,-0.14736566,-0.024824204,1.0850446,0.043228533,1.4672368,0.8553198,0.41621587,0.1498696,1.0815109,1.8285338,-1.0977255,-0.17790577,-0.1485712,0.36084875,-0.5495586,1.6671878,-2.1756022,-0.69774663,-0.022801384,-0.595926,0.90670854,0.41481262,-0.117246225,-0.7340122,-1.0603895,-0.17733735,-0.68171406,0.60536003,0.6602386,-0.5514917,-0.6195235,-1.2986348,-2.1093574,2.3069844,-1.8268245,0.052931033,2.3591256,-0.18075264,-1.5737056,-0.38440475,-0.45479858,-0.80105984,-0.66278404,0.7923802,-0.24202418,1.4756647,-0.54335356,1.7831999,-0.8357309,-0.2233497,-0.38409892,0.6249277,0.3998215,-1.30842,-1.0927517,1.0880251,0.9058221,-0.37083912,1.1624464,-0.94349974,-1.7478863,0.7607599,0.57046586,-1.0595583,-0.6341726,0.7659155,-1.0063109,-1.085256,0.85655516,1.006284,-1.0387237,0.26740488,-2.3545828,-1.7150521,0.89548916,0.4764153,0.36871856,-0.11833204,-0.08968131,0.48652512,-0.19731943,-0.7389671,-0.34341314,2.3591866,1.7188684,1.9836204,-0.52222353,0.47578028,0.036640294,-0.13512109,-0.9105774,-0.3411963,-1.3255585,2.2965329,1.005419,0.6402492,-1.2007226,-0.9460973,-0.10090718,-0.49453112,2.0911663,0.57916844,-0.63151574,-0.597763,-0.8055424,-0.9693012,2.1043797,-1.5933132,0.13252102,-0.16281904,0.326353,0.24349746,1.3953218,-0.8243811,0.5555608,-2.0115483,-2.2187693,0.030941028,-0.35725477,-0.14632723,1.4001553,-0.80696976,-1.8759015,1.5191487,0.6547993,1.9750695,0.7507948,-0.03932463,1.7095565,0.9738069,1.0057641,0.61846226,-0.42638424,-0.76071227,0.781352,0.5194638,-0.4803511,0.47603625,-1.1618463,-0.70988834,-0.8343117,-1.4781954,0.63163275,0.046103805,0.9616175,0.13596843,-1.139712,-0.663756,1.2618382,0.09523317,-1.543945,3.5173166,-0.21301211,-1.1465329,-1.6971084,1.5546296,-0.66788346,-1.0928323,1.1341994,1.2158458,1.620841,1.674732,1.0673043,-1.0103106,-1.910133,-1.8841083,0.8591304,-0.90887225,0.89694315,0.9110672,-0.40169704,-0.04888648,1.9559962,-0.626977,-0.26246077,-0.051620953,-1.0042672,0.1431349,0.8316015,1.1419312,0.79851675,-0.8707713,-0.39730498,-1.0232531,0.2718256,-1.1984183,-0.3026348,0.18085587,-1.1036907,-0.14524655,-0.44267178,0.8932647,-1.192456,-0.812505,0.55251974,1.6930985,0.08672084,-1.2415057,0.21677579,-0.4018626,0.011591831,-0.4466968,-0.042413555,0.43897158,-2.004416,1.1921558,-0.8824217,-0.811826,1.399188,1.3671944,0.9990323,-1.6282079,0.330806,-0.24063191,0.89868104,0.031158654,0.22039494,-1.595248,-1.4610012,0.07577927,0.9212384,0.7578776,0.14028442,0.9631696,-1.1443137,1.0189734,0.5229021,-0.10731579,0.34673133,1.7118098,-0.5676518,-0.42940196,0.076038174,0.6727203,-0.71605444,-1.180312,0.6802534,1.9794784,-0.81793606,-1.2140527,0.8653991,-0.09899519,-0.50231135,1.1485122,-1.1020331,1.1150119,-0.9438028,0.023253549,1.9542418,0.9412373,-0.27292356,-1.8010324,0.031689096,-0.53567624,-1.1440377,-0.25017974,-0.22145808,-0.5258929,1.6158333,0.86616474,0.6385791,0.60280955,-1.5314598,-0.66960984,-1.0908246,0.75228614,-0.5067086,-2.1742384,1.1408569,0.6790283,0.095127754,-0.6987487,-0.3638136,1.8702844,1.5843745,0.3150475,-1.112621,-0.86472934,-1.0713885,0.7404547,-0.5883553,-1.1137882,-0.7472182,-1.7393242,0.5267232,-0.0025849186,-0.3582916,0.529225,0.27934903,-0.33059597,-1.0269321,1.6455271,0.7435085,-0.10278494,-0.09334399,-0.25893876,0.23148073,-0.10844038,-2.1889133,0.94217056,-0.60659087,2.348494,-0.7841598,1.7405775,-0.37845704,-1.1223547,1.2365242,0.78867155,-2.638671,-0.9912161,-0.49023256,-1.6510319,1.3015981,0.6306685,-1.7423284,-0.77079964,-0.41167998,0.30637395,-1.2429453,0.25838614,-0.87563246,-1.8029647,-0.42860126,-0.22166717,1.1409775,0.98701584,0.12319668,2.109757,0.81369615,-1.1536169,1.7371591,-1.0747163,0.87525475,0.14164713,-0.4873358,1.2256144,0.2815652,-1.1336948,-0.48892057,1.4884001,1.237774,-0.75562966,2.2442877,0.34598282,1.1003383,-0.7499241,-1.6414659,0.09369578,-0.42377985,-2.4037867,-2.07004,1.6443473
ADH1B,0.98222077,1.9294335,0.73722476,-0.4715381,-0.3144662,0.6138081,1.9403619,1.6052513,2.2203856,-1.6016877,-0.406384,0.089769036,1.9146806,0.5333097,0.18524009,-1.9597815,0.116468005,0.45924315,-1.9547089,-1.0456834,0.20802632,1.5108968,-0.38783884,1.2173324,0.9534037,0.438743,-1.4890157,-0.40392134,0.9745542,0.9943919,-1.6143663,-0.91078717,0.41461483,-0.5002208,-0.3946242,1.8890157,2.208808,1.117557,-1.0512253,1.4932295,-0.88471764,1.1874675,-1.682548,-1.3581741,1.1308694,0.2624452,1.6715521,1.6885475,2.1257012,-0.8917242,1.8676685,-0.8644652,0.044388328,1.7272089,-0.06579591,-0.3049729,-1.8805895,0.15934381,-1.453051,0.2646716,-0.5001533,1.1687318,0.6808411,-0.15094595,1.2827258,0.90260047,0.62582475,-0.7287423,-1.4762968,2.844191,-1.0226179,-0.750184,-1.557307,-0.006868637,1.0692558,0.9458555,-0.5961354,1.746512,-1.1886554,0.9477563,-0.31989577,0.8955002,-1.5692586,-0.833956,-2.0003772,-0.8372816,-1.2966454,1.0917981,0.1584062,-0.509852,-1.558828,-1.3823863,0.73357403,-0.41756716,-1.7964932,-0.4739421,0.0141702965,-0.7307993,0.8473646,0.6327891,-0.7473725,-0.6763487,-1.1826459,0.25714213,0.77191955,-0.5832281,-0.4021027,1.4275241,-1.5904694,0.92859024,1.9144096,0.30487916,1.097676,-0.39895833,-0.26548636,1.3330497,-1.7897289,-0.072894976,-1.3832008,-0.7218533,1.41447,1.0235546,-1.237696,-0.9504657,1.0044581,-0.77577615,-0.50281966,-0.913152,0.034098722,1.0352817,0.16907136,1.0943097,0.68190044,1.2757051,0.29632378,0.77698827,1.0619309,0.008569986,0.7022674,0.32072726,1.1656708,-0.3224391,1.0185207,1.2595146,0.97635394,-0.76398826,-1.1949731,1.681467,0.8322135,-0.1595919,-0.5312498,-0.7681904,-1.3702309,0.9573896,0.16394977,1.9271086,-0.17780061,-0.13918416,-1.3097633,0.6313961,-0.7676402,1.1255304,-0.93108094,-0.017199079,0.0819006,1.4387181,0.5785086,0.4348355,-1.4605048,0.30434322,-1.2095367,-0.745876,-0.09397789,-0.21405171,-1.1907305,-1.0273117,-0.9819039,0.11865354,1.4200251,-1.2308109,1.7154106,0.66034275,-0.13874415,-0.9477564,0.38506573,-1.2352661,0.15564343,-0.6162229,-0.88898045,-0.105911165,-1.3640306,0.9207024,-1.0962292,-0.6779974,1.7252914,-1.3983641,0.5992022,-2.026316,0.8881327,-0.10082018,0.14113396,-0.41929284,0.18574324,-2.3696837,-1.1321836,0.31525198,0.7966484,-0.054405037,1.3939619,-0.71257204,-1.4162036,1.8436854,0.005597399,-0.34299788,-1.0795056,-1.7298965,-1.7224678,0.47363943,0.43423876,2.0419228,1.0766543,-0.50102377,0.9299153,-0.80047613,-0.52039486,-1.0697906,0.04597924,-2.2069993,1.2373115,0.13951552,2.9472644,-2.0779624,0.32692015,0.5269817,0.041334767,0.69092536,-1.1197795,-0.464167,0.6164584,1.2565379,-0.672996,1.7277669,-0.32651454,0.8884762,-0.17117451,-0.88033134,0.43887872,0.8991725,0.19050679,-0.44039595,0.438716,-1.2367293,-0.043644574,-1.8721145,-0.8754134,0.80105966,-1.6280583,-0.04652329,1.1216432,-2.266266,0.43994737,0.34685713,0.31161812,0.44965515,-0.41904816,2.095701,1.2549437,0.6328208,0.5373614,-0.7943144,0.004746564,1.5418687,0.6660427,-0.1402858,-1.1123831,-0.28831607,1.9560945,0.12906125,-1.2927651,0.7670833,0.89144677,-0.20006116,-0.28170756,0.27704403,1.2104385,-1.0503255,-1.3425773,-1.1673305,-0.5092663,-1.4427141,-0.27221525,-0.7150393,0.15049753,-1.0053264,0.8982394,-1.6588356,-0.34376588,-0.90654325,0.24719091,0.012982213,-0.6708102,-1.5444775,0.20508477,-1.621871,0.21784426,1.1408962,-0.8624458,0.23994248,-1.0322306,-0.010442737,-2.2598884,-1.4015065,-0.12674041,-1.1143858,1.4949657,0.3857855,-1.7084316,0.8464462,0.33725333,-1.3608687,0.011982078,-1.0738986,0.37938294,-1.304883,0.34073883,1.3611064,0.8911447,1.163444,0.087318845,-1.3622574,0.59586173,-1.1172853,-0.45702866,-0.9852103,1.7098966,0.5737254,-0.38347396,-1.0484681,-0.8595273,1.890072,-1.0314846,-1.0230131,1.0377499,-0.19755767,0.63700646,0.42859158,1.4085116,-1.7085431,0.18528003,0.0048657972,-0.73644197,1.3402567,-0.9938582,-0.83294094,-1.0500585,2.054471,0.07418391,0.36573055,0.40699527,0.6936046,-1.6007268,-0.03755544,-0.39530364,0.25657246,-0.3638089,1.7030427,-0.15291594,0.15930673,1.5799713,0.95239276,-1.642671,-0.91063684,-1.2124858,1.2931548,0.60386544,-1.0913656,1.0894636,0.13685949,0.22698405,1.6615021,-0.044531982,-0.39204052,-0.37348515,0.55133075,0.675416,-1.2148867,-1.4233781,0.1393115,-1.6656846,0.4928468,0.20889303,0.8196932,-0.87310755,-0.30179417,0.59989107,-1.9312693,0.4542225,-0.95390934,0.84602165,-1.2727445,-1.0675328,0.78783005,0.40067714,0.7273886,0.96656245,0.8529395,-0.52654564,2.419379,0.115751825,-1.1671729,0.6642056,1.0222651,0.35750124,0.48226407,-0.91454023,-1.4311429,1.4807025,-0.7788877,-0.73956233,1.6913394,-1.2694985,-0.36994737,0.8628676,1.3028128,-0.71084714,-1.5099063,-0.11398854,-0.9696521,1.1549889,0.98805827,0.7483408,-0.1628986,-0.41658527,-0.6653216,-0.7742042,-0.72962886,0.23205307,0.36524385,-1.0706396,0.0524485,2.0796745,0.23556985,-0.09807639,0.9981601,2.0042927,0.9286596,-0.011384996,0.5354205,1.9033586,-1.2201751,0.4423879,-1.3266343,-1.1384915,1.1426284,0.33812502,-0.31907174,-0.67474973,-1.1862143,2.3237967,1.748853,-1.3084471,0.052911013,-0.6615259,0.92012286,-0.17866974,0.3891673,-0.4625333,-1.1350242,0.86261696,-0.69975454,2.1635003,-0.88817537,1.1439254,0.005451425,-0.19683763,0.886497,1.5649778,-2.7210267,1.727101,0.83428913,-0.53786063,-0.4724637,-1.2033819,-0.079366855,1.2085683,-1.1225159,-0.26614487,-1.2703363,-1.1531868,-0.033268422,-0.9977671,-0.43301985,-0.22037657,-0.6774198,1.908503,0.73251146,-2.0581934,0.48641753,-0.07364082,0.30885684,-1.2935487,0.27794355,0.6645943,-1.3556612,0.73884976,0.6938923,0.63346803,0.08708632,0.53516984,2.319739,-0.75435835,0.28872076
ADIPOQ,-1.1550914,1.3833486,0.337948,-0.7142759,-0.45560408,1.5350418,0.11463634,0.286478,1.4569142,-0.657264,-0.02941576,0.5037028,0.7978489,1.0280961,0.592185,0.4672174,0.4601679,-0.4546547,-0.1679066,-1.6220369,-0.4689049,1.615086,-0.07124231,-1.7192918,-1.0365647,-0.44164246,1.4571166,-0.8500653,-0.09173677,-0.41719964,-2.0245612,1.5247236,-0.6839108,-0.06616954,0.42216954,0.6773257,1.7304215,1.3285125,1.2033733,0.1226762,-0.81317836,-1.6315832,-0.34980518,0.4784592,1.6153766,2.6377501,-1.4091874,0.8886074,-0.021440893,0.29394972,1.4845022,-1.1926225,0.9215565,0.44275868,-0.27530685,-0.9000341,-2.4193182,1.1824633,-1.3659197,-0.36827162,1.688029,0.54228973,1.9456687,-0.9469855,-0.97590464,-0.375254,0.45677963,1.2013742,1.6361746,1.3585876,-0.8497309,-0.7025567,-1.3122942,0.026670147,1.1701822,0.59827137,-1.071962,1.6939023,0.81928116,-0.56267536,0.45036155,-2.8968012,-0.23849425,-0.097489245,-0.21002041,1.1628386,-2.1022747,-2.145784,-1.4549702,-1.2708582,-0.57114327,1.9230413,-0.103810005,1.1394643,-0.31096122,-0.46634486,1.0832342,0.5815411,-0.24155387,1.1648127,0.7609439,0.53473777,-1.0616285,-0.7688463,-1.1709034,-1.1554205,-0.11030779,-0.28085625,1.5885855,0.0647382,1.2054392,0.23187923,-0.75387996,-1.3584613,0.08418022,1.4053837,-1.2205346,0.84716505,-0.7319698,0.9145201,-0.94257396,-0.66736525,-1.4214945,0.37768486,1.2718675,-0.2858921,0.23773661,0.0053761373,1.5644511,0.7127071,-1.0812509,0.37340188,0.8125938,-0.69280016,0.16035612,-0.82696044,1.6798733,0.24494322,1.2925936,-0.6553076,-1.180636,0.8016026,-0.6825311,0.30435678,-1.3304346,-0.6396599,0.47920614,1.1590841,-0.7073856,1.8851348,-0.28513524,1.3034585,1.8388045,-1.1718466,1.7099693,-0.25724527,-0.085749306,-1.3410963,0.17367476,-0.3707686,0.34247586,1.306792,-0.5170651,-1.3367599,2.188438,0.59431905,-1.2532082,1.2680176,-1.9752935,1.3646522,-0.14937368,0.5141665,1.3196104,-1.9357123,-0.49028948,1.607212,-0.3744512,-1.2799326,-0.37978357,0.77133673,0.08004522,0.39967653,-0.098966725,1.1611065,0.5459388,1.1868875,-1.3673449,0.84052837,0.87495804,0.5952799,0.97303987,0.27915528,1.4691831,-0.8991807,0.46028548,0.6513548,-0.42632097,-0.4480203,0.25757807,-1.1640811,-0.97301376,-0.7934117,0.4106099,0.34024853,-0.9936561,-1.1187696,0.9551108,1.7094532,-0.7431517,-0.01383444,-0.27647075,-1.0354677,0.743183,-1.124242,-0.13858855,-0.8419072,1.2290099,-0.85562676,0.71213996,0.1023798,-0.022494908,-0.88374674,0.7296331,1.6097932,-0.7064572,-0.054512978,-0.42848235,-0.0989305,-1.4068831,-0.6416847,-0.9224832,-0.65607387,-0.54552853,1.300773,0.23579487,-1.4780177,-0.8272269,-0.050767846,-1.0084755,-1.909009,0.6259066,-0.31218097,0.12933339,1.0050772,-0.39834887,1.6491592,-0.59793854,-0.9313709,0.81090254,1.5179927,0.21815771,-0.80447435,-1.5027434,-0.914481,0.5304558,0.8446731,0.25181097,1.2065427,0.64018244,-1.1663133,-0.3064593,-0.4478598,0.9109498,-1.5608488,-0.6680646,-0.10892995,-1.6563431,0.3809997,-0.19106719,-1.0030937,-1.5914719,-0.17785461,0.8696489,-1.9485976,-0.11242728,-1.7752696,-0.9940216,-0.3851647,-0.540844,1.552361,0.54426336,-0.79683965,1.2537565,0.69275767,0.682191,-0.6265753,0.4611067,-1.3057067,-0.9816288,0.14423549,0.5211487,-0.19211335,0.9197199,0.8932586,1.6785356,-0.7417606,2.1051664,-0.12449194,1.2130927,0.20202087,-1.7732259,0.27806768,-1.5778196,0.50378704,0.19896904,0.6497132,1.0194438,0.24161713,0.6682905,1.4879068,-0.7802883,0.07953031,0.75268644,-0.6654992,-1.8819824,1.678496,-0.3502502,-0.91407907,2.031086,-0.21997184,2.1932461,-0.8319968,2.1782024,-0.09148186,-1.4825054,0.52634025,2.297049,-1.8829513,1.6914546,1.2896874,-1.2277789,-0.29431266,-0.9107126,-0.54966426,-1.7205101,0.33604008,-0.85107356,0.77773845,-1.0259746,0.73541975,0.7617013,0.42704293,1.2314781,0.16968106,-1.209921,-1.8042469,0.6989664,-1.0146137,0.6043308,0.39443654,-2.0334234,-0.7299149,0.27336562,0.38936347,-0.8822727,1.3120444,-1.824732,-0.93660396,-0.1567116,-0.9554736,-0.08610141,0.06262339,1.0695657,2.2199087,0.6829495,0.74781555,-2.2482977,-0.42504162,0.0381419,0.23809531,0.20321919,1.5011125,0.66378826,-1.2267467,0.08504285,0.5338605,2.3568404,1.0096796,0.14520456,-0.13011281,-0.79690564,0.04690092,1.3107866,0.58676726,-0.7027469,-0.4202479,1.6257111,-2.2191634,-0.36429146,-0.9893856,-0.77332115,-0.56005096,-1.0452564,0.23893368,-0.14164916,0.6456864,1.5201893,-0.1208782,-1.2551129,0.30691716,0.22159387,0.6867605,-0.94935274,-0.3700092,-0.42780504,-0.11930018,0.2511889,0.3057026,-1.430105,1.3238407,1.2634709,-0.11592206,-0.1765458,-0.8432605,0.44400218,-1.672229,1.289363,-1.7500527,0.38567984,2.0397053,-0.511939,-1.2573898,-0.64122295,0.08085086,0.01149126,0.24335325,-0.32047153,-2.8294122,-0.8310995,-0.7093128,0.7440098,-0.7656482,-0.0338495,0.9583948,-0.6860699,0.61593986,0.5066627,-1.8444394,-0.6501812,-2.1618872,0.8061753,-1.4763571,0.12327151,-1.9271203,0.97564036,-0.459602,-0.13504465,-1.9925832,1.1600016,-0.9271041,-0.43114096,2.1140187,-0.40123573,0.8467802,-0.5434896,-2.4112506,-0.3391851,2.065626,0.53284025,0.54047513,-1.8258286,-0.2862333,2.0550416,0.40956888,-0.96950847,0.7484592,0.79242384,1.3909142,0.7058874,1.8832451,-0.3843827,0.18733005,0.70188487,0.47874746,1.4928509,1.4057368,-0.9543667,-0.8979806,-0.50016254,-0.29465777,-1.4186368,-1.5914574,0.4909365,1.5900145,0.86080235,-1.7626475,1.3966813,-1.0635694,1.5754902,-1.5282569,-1.5698307,-0.9070517,-1.3762107,1.0844754,0.4786714,-0.688788,0.63516057,0.3633175,-1.443836,1.6241733,1.1133817,-0.015051554,1.4330258,0.35434422,-1.0697145,0.67412144,0.2587375,-0.67708665,-0.5513554,1.5512637,-1.1404325,1.3993603
ANKRD30A,-0.21832721,-0.9232032,-0.55490303,-0.52383757,-1.4564736,0.7487303,-1.3175999,-0.43905917,-1.082699,-0.48880056,0.9281484,-0.8164966,-1.2626361,0.19723271,-0.08126001,-0.06681734,0.71425325,0.18988499,-0.09376984,-0.15162314,-1.2600236,0.49787393,1.4550594,-1.7480952,-1.2639135,1.0701288,0.2802281,1.6374515,1.0173675,0.43360323,-1.4131202,-0.92680764,0.79542094,1.4469378,0.22345006,-0.59976107,0.49924317,-0.69163436,-0.8540694,-1.2530669,-0.36549157,0.8818456,0.9247731,0.047441684,0.05773501,0.90238214,0.012759198,-0.20420294,-1.1266031,0.92951006,-0.45785245,0.55158573,0.75361305,-0.22993769,1.2084501,0.51794577,-2.145803,-0.13360812,-0.6913803,1.3696163,0.47103578,-0.3296331,1.8586812,-1.5364213,0.6048569,0.7647052,-0.75818264,1.2554067,0.1834199,0.45864213,-0.14870495,-1.1080257,-0.9029712,1.2999438,-0.15942992,0.96774566,-1.8583432,1.1880348,0.88603866,0.90042806,-1.1018745,-0.9898492,-0.250387,-0.48825362,-1.7623378,0.7860636,1.6329073,-0.018385988,-0.8333564,-0.45859122,-0.21075855,-1.5130727,-1.2887739,0.96845055,-1.0243688,0.62697136,-0.88087434,-1.4924115,-0.77560747,-0.02841151,0.46260238,2.2395976,-1.48648,0.49757048,0.65252835,-0.037176795,-0.22152269,-1.5328681,2.1394007,1.3524175,0.51139957,-1.3127149,-0.8410025,0.16692123,0.9888975,-0.32855394,1.3149188,-1.1720572,0.11301339,1.324578,0.6307742,1.4954213,-1.1128402,-0.1011845,0.42096764,1.8258556,2.0842075,0.7138222,0.7742806,0.73866147,-1.2255381,1.8022139,1.5568655,1.1683483,-1.5971214,1.0417306,0.17388201,0.9004795,-0.35877377,0.45369518,0.20568916,-1.0087583,-0.012333256,-0.3830042,-0.79267377,-1.0346433,0.41435248,0.58559203,-1.0887843,-0.14534834,-0.9487719,-0.42997324,-0.11514875,-0.7066551,-0.4901775,-1.1347957,-0.10355116,-1.202335,-1.6160337,1.1852394,0.9447664,1.479012,-0.84628797,-1.7077662,-0.6919757,-0.38810664,-1.3837008,0.9878827,-2.118325,-0.76057154,0.69845665,-0.513046,0.16280599,-0.89739424,1.5614066,0.5895268,0.22529761,0.35000348,-1.0606105,-0.6388354,0.8683195,2.3357968,-0.35388356,0.3557914,-0.6632717,-0.4295339,-1.1701711,0.5243235,0.6616548,-0.7354574,1.2898517,-1.0109798,-0.6507874,2.1683884,-2.3796475,-0.5046956,0.8400987,-2.1041346,0.3107353,-0.31952214,-0.40346903,0.34673902,0.5617397,1.0855181,1.539995,0.8835708,0.21513543,-1.4570343,1.0318013,-0.5304987,1.577629,-1.6018286,2.264725,-0.19875294,-1.5530106,2.0563247,0.18206015,0.6709224,0.17108287,1.0942646,-0.7081268,1.3510698,1.7462593,-0.12982231,-1.5244145,-1.1567141,0.98076105,-0.82007486,-0.33529863,1.3692061,0.32110012,-0.7796965,-1.4502256,-1.6268839,0.5626967,0.29092765,-1.4439625,-1.2072495,-1.2904915,0.31762967,1.2925085,-1.123496,0.8811833,0.32703212,-0.23925045,-0.24263483,1.6478821,-0.9717649,0.6228711,-0.8156307,-0.36483222,0.9066201,1.2278821,0.8276043,-0.04112965,2.2064633,0.53710407,-0.2564699,0.24625425,1.859407,-1.4791422,1.6047893,1.592055,0.009053082,1.141592,0.37918553,-1.7833343,-1.9165188,1.1528994,-0.68037796,-0.28989425,0.037484005,1.0258528,-0.99946827,0.8483483,-0.26376823,-0.35031757,1.1056993,-0.52430934,-1.0333377,-1.0119842,-0.47740304,1.1786405,2.2784472,0.2733411,1.7899418,-0.9319102,-1.0002755,1.5999535,1.0899819,2.5868013,1.7290888,-1.6398987,1.2508128,0.9802289,0.7624361,1.4302702,-0.5122006,-1.2976289,0.24306035,-2.367534,-0.3699815,-2.373125,1.4494219,-0.68504155,-1.8215111,1.3451623,-1.2134602,-0.54657096,-0.42270976,-0.11484759,-1.1319158,0.25686976,-0.5949521,1.276177,-1.2368286,-1.0385175,-2.233939,0.16958497,0.03407893,-0.76038426,2.3098092,0.17730017,1.6462576,0.96066666,0.72320044,-0.82744664,-1.6715248,-1.3570684,1.3065152,0.389601,0.17624891,0.10814487,-0.87648064,-1.4720467,1.1247945,1.9782419,-0.01732836,-1.3979665,-1.5791905,-0.8009029,-0.6051107,-0.9930212,-1.4958333,-1.2033992,0.53993005,-0.2537403,-0.49941924,-1.4536612,0.46514013,-0.96430856,-1.0100887,-0.70534384,1.3379582,-0.9499155,1.5916388,0.99096775,0.5761543,-0.99080503,-1.7955569,0.72246885,0.6645451,1.69282,-0.08625514,-1.086012,-0.5888653,-2.7288823,1.3397057,0.96513855,0.7681018,0.8454955,-1.6878742,0.51457566,0.6046973,1.2608298,0.21748883,0.6062471,0.31820858,-0.3071935,1.6426508,0.04285967,-0.07282639,-1.2447858,-1.0168029,0.53993744,0.021465039,1.1660302,-0.7269878,0.04404788,2.1477122,0.9823002,0.30451033,-0.1646597,-0.19382209,1.5339558,2.5077865,1.2361377,1.3941756,-1.0794971,0.44234127,-0.72487515,-2.2578952,-0.8944916,-1.5181137,-0.18431205,-0.030650146,-1.4659859,1.2926852,0.9249108,0.8201222,0.35923317,1.0087445,0.88062364,0.84953344,-0.7399367,0.4177174,1.6999022,-1.391181,0.7922965,-0.013528213,0.12702784,0.4006068,0.7581785,-0.92939156,-1.4921116,-1.7374256,0.20863757,-2.388881,-1.5822643,0.57481563,-0.6869329,-0.41140252,-1.2714573,1.538732,1.1464133,0.08811747,0.3996679,-0.29559866,0.25767627,0.90603906,-0.4391245,-0.37213892,-0.025662407,-1.4160912,-0.40809914,0.3450756,-2.1663346,0.6966215,0.4005054,0.5950363,-0.27788237,1.3813622,-0.30268613,-0.8829949,-0.45449412,0.922301,0.69642717,-0.03377207,-0.2092284,1.6614265,0.4482916,-1.0221643,-0.025813112,0.25514543,0.65560764,-1.0725206,1.1344349,0.7097274,-0.591717,-1.158731,1.4045457,-1.7245178,1.4437292,0.05066747,-1.7864231,1.2244302,0.7216615,-1.7979901,0.2705328,0.9173098,0.19257073,0.29124966,-0.22593968,1.6709313,-0.8097359,-0.29747242,-0.67531,0.5235441,2.1250753,-1.7803245,-0.51910526,0.7252343,0.18153363,-1.3372031,-1.1110739,-0.21890645,-0.054255575,0.275551,2.6341994,-0.35287893,-0.69373345,-0.7484534,1.8472335,-0.5158047,-1.65669,0.27493975,1.6479572,1.4534883,-0.6727405,-0.26723248,-1.5777602,0.20580794
AQP1,0.5852554,0.42989692,-2.7316635,0.6664895,-0.730944,0.45917103,1.8300548,0.5250512,0.23642346,-1.3091632,1.7548568,-0.7750082,1.0211946,-0.53986406,1.0061002,1.2275945,0.25712028,-2.5770197,-2.370329,-0.07364606,-0.9627185,0.7324277,0.55270493,1.0427577,0.35797,0.4341616,-0.77200836,-1.8381987,2.0583417,0.40562993,-2.043175,1.0024269,-1.2194246,0.73347545,1.2607237,0.89732003,-0.4241992,-1.957384,-0.99764484,0.1532409,1.5135888,-0.45930436,1.0807481,1.1791872,-1.6942828,0.17618582,1.9581984,1.5417972,-0.53828186,0.98850775,2.5238683,-0.9822842,0.1981384,0.28928173,0.7801139,-1.1848836,0.19580966,-0.7433154,1.2891335,-1.0208879,0.3170994,0.5733737,-0.062382456,-1.000724,-0.48396197,-1.2152236,-1.2199324,-0.4382505,-1.65415,2.0124896,0.14016034,0.27560836,-0.13753039,-0.44614172,0.78179306,1.0732346,0.9072299,-0.26500142,-1.8175342,-1.252783,0.579869,-0.77685463,-0.45486078,1.5340785,0.11321015,0.07665393,-1.2035475,-1.7019794,1.0978389,-0.5779915,-0.39477333,-2.1511521,0.44786683,0.41465604,-0.33864692,0.39127392,-0.22090702,-2.2274725,1.1395204,-0.3969047,0.49440312,0.7593009,-0.84189475,-0.27283004,0.9387467,-0.13097148,0.67341405,0.9139706,0.6066107,0.26968968,0.47878104,0.33099493,0.3057666,0.22747208,0.64016014,0.72987247,-1.142367,1.8028636,0.47243652,0.094643205,0.8316486,-0.4349484,1.7390683,0.8316753,0.939213,0.7434177,0.292604,-0.3661886,-0.65537786,2.020664,0.07837819,1.1349583,1.9180318,2.0940425,0.69254535,2.572293,-0.10828265,-0.27090847,-0.03771042,1.2254444,0.89813876,-0.62535256,-0.40867984,0.8210184,2.0495021,2.4083974,0.23451126,-0.62724066,-0.7043199,-1.35165,-2.060525,-1.2843455,-0.86458594,-0.61451024,-0.21089554,-0.34220156,1.220943,0.18116884,-1.9760178,-1.3884073,1.0117621,0.4247546,1.3720522,-2.01995,0.02040291,-1.3411968,-0.8233268,1.2360327,1.6972567,1.6179947,0.52052206,0.15274252,1.5724726,1.2298061,0.031302486,-0.0836136,-0.82458544,1.1748372,-0.18471813,-0.5022949,-2.005697,2.294282,0.6328425,0.8084008,2.0377598,-1.73522,0.01128005,-1.6244426,-2.160843,-0.2103836,0.024397697,0.8848001,0.38873687,0.10925422,-0.011491153,0.7719427,-2.2150602,0.4715237,0.0035242701,0.23157103,-0.06693929,0.8391502,-0.40183607,-1.2684575,2.3091068,1.0647031,-0.499375,0.9517749,0.5468134,-0.041038424,-0.36749893,-1.8546025,-0.49756965,0.7490737,1.3903083,-1.1964554,-0.54910594,-1.1299405,0.75571424,-1.3245913,-0.07546853,0.4679371,-0.32319984,-1.2480774,-0.098985374,-2.637993,1.5342844,-1.3104608,-0.32755536,-0.088094234,-0.3079285,-0.0816606,1.7975764,-0.587838,-1.7439386,-2.3494356,-0.9422479,-0.95777154,-0.53050774,0.9523917,0.8051818,1.0864996,-0.9722767,0.9172858,-0.27009267,-1.3389916,0.064575754,-1.701939,-1.9606843,-2.2369447,0.7608215,1.4377495,0.2176836,1.1863086,0.5479786,-1.7600347,-0.33722863,-0.7550722,-0.59222937,-2.424175,1.775508,0.12319997,-1.9071045,-0.12799755,0.9959028,0.7394968,-2.1080818,-0.41649583,1.6838757,-1.1987854,0.1389986,1.2572858,1.1429701,0.5676987,-1.0840038,-1.1154692,2.2197578,-0.88910174,1.1553177,1.204149,1.498455,0.8954513,-1.3691067,1.1420889,0.3769104,0.14389299,1.8930005,-0.24261646,-0.62679607,0.25561693,-2.1779163,-0.23009393,1.5567683,1.410865,0.9566879,0.19492823,-0.49073192,0.6814856,0.29423258,0.92059183,-1.1262804,1.0364971,-0.3670867,-1.3228323,-0.006909329,-1.1691645,-1.1782453,-0.93692523,1.6295539,1.1737465,-0.5232806,0.8348305,0.5636442,2.1020837,-1.6222086,-0.4243212,-1.8158171,-0.0005863135,-1.3006365,-0.13340044,1.317595,0.80611694,-0.39694417,0.5225423,-0.93354,0.49859667,-1.3717932,-0.55635977,0.84544945,-2.2803986,0.9135293,0.9172608,1.304713,-0.2660612,1.8411235,-0.68943864,0.7631891,-1.0290321,-1.1202232,1.6309779,-0.3492317,-0.41310954,0.89923,-0.37945405,-1.3558701,0.096011475,0.4269698,-0.57561445,-0.86260563,0.30384466,-1.8680913,-0.01006866,0.7738608,-0.07291054,1.3888853,-0.3990264,1.7503966,0.001928179,0.5454773,0.7189122,-1.7932113,-0.48789576,1.1747621,1.6789196,1.1215123,-0.14830509,-0.03704267,0.96640855,0.9941659,-1.1366419,-2.0115228,-0.41611445,0.08734847,0.43139678,0.24836376,0.70498455,1.6129079,0.8650577,-2.577803,0.440332,-0.76058495,-0.37792778,0.004450989,0.12281341,0.4015694,-0.8394108,0.054499995,-0.19922899,-1.2011999,0.6428216,-0.3861783,-1.3463985,0.6138287,1.1045008,0.93100446,-1.5892493,-0.6490113,1.3018665,-1.0888263,0.29533052,-1.3103071,-1.4289604,0.5609697,-0.43831402,0.70738584,-1.0997076,-0.39788797,-0.19996075,-1.2644655,-1.4908152,-1.5224227,1.9807229,-0.78459364,-0.65816617,-0.52973723,-0.77358687,-0.6883835,-0.5697414,-0.15473701,-0.9081402,1.0201226,1.9906871,-1.1616799,-0.4428525,-0.50098836,1.2548746,0.22850928,-2.0481572,-1.1405336,1.1760812,0.76177704,0.61529046,-0.196238,-0.44342443,-0.43822396,-0.32431927,-0.0905457,-1.2656337,-1.2873436,0.30067468,-0.964426,1.7169553,1.0630826,1.0581226,0.48769698,-1.2781154,1.0659372,1.7974526,1.7180612,-0.06763376,0.7499573,-1.3422513,0.50258565,-0.38015747,0.7471154,-1.4205483,-0.9692645,-1.9292233,-0.638495,0.7448973,-1.2818098,-0.116511725,-0.19170056,-0.4478892,-0.75264007,0.34549057,0.6060063,-0.20662944,-0.11519493,-0.54361904,-0.060860563,-0.32955006,1.9300237,0.9028335,0.63401455,0.71277356,-1.2951349,0.6660276,-1.1550618,-0.5968947,-0.6624452,-0.5701844,-1.0324179,-0.19489315,-0.06793845,-0.5558264,-0.51279974,-1.2627575,0.95256835,0.74101484,-0.008326544,-0.22485957,1.6833954,-1.1273044,0.7350319,1.0781666,-0.8528714,1.539722,-0.2188127,1.1996646,-1.3439026,0.945478,-0.2912801,-1.1918399,0.52053547,1.9701133,-0.6342077,0.47007492,0.8703591,1.990715,-1.0126688,-0.24101713
AQP3,-1.5008448,0.82032776,-0.14548661,-0.23126993,0.5697578,-0.4188279,-0.7933209,0.36682436,-0.14685468,0.7905301,1.590391,-1.1569712,0.022320257,-1.0469658,-1.7619842,-0.2778376,-0.3196943,-0.75009996,-1.7625555,0.67318773,-0.22789164,1.3909469,0.16905172,0.6596879,-0.645527,1.1125221,0.3043371,-0.43959245,-1.0558989,-1.0744758,0.5129449,3.07655,0.2754992,0.48080415,-0.95968646,0.47222623,0.49154282,-0.18393092,-1.7271477,1.7450045,-0.3531644,1.673291,-0.13435324,0.42747492,1.120061,-1.1113164,-0.31149527,1.6561772,0.6244716,1.43732,-0.63540137,0.13005939,0.47289595,2.431299,1.1243598,-0.3702506,-0.2378082,-0.24844798,0.09263707,-0.6215998,-0.6037307,2.190508,0.29624754,-0.66959965,0.39067864,0.8427369,0.5634776,-0.70464504,-1.6678668,2.4456239,-2.0633333,1.0111119,0.020025756,0.21267451,0.2022122,-0.10229342,1.5627723,-1.6331803,-0.12088499,0.30585897,-0.14522019,-1.3800476,0.11218814,1.2529465,0.41105482,0.628452,-0.30155078,0.18012273,-0.9812187,0.061555546,-0.22256702,-1.2799833,0.56372374,-2.4122581,1.6003838,1.9644191,-0.6380745,0.3040718,0.042241268,0.53522116,-1.6404263,-1.4680116,0.84192926,-0.54420286,0.36527258,-1.1229787,2.369167,0.7394664,-0.21981195,-0.33737478,0.63956803,1.0131209,0.24005504,-0.7166333,-0.5306391,-0.4301201,-2.1817307,0.29092506,0.06161493,-0.27140504,0.30895492,-1.0624619,-0.18601029,1.162355,-1.1886833,-0.7374933,-0.3624407,0.8385982,0.10601654,1.9978075,0.5061456,0.5349059,0.3374048,1.2768067,2.04022,0.43809253,-0.48238954,1.2320716,-0.8552494,-0.21356687,0.7501217,-0.9546201,0.04312342,-1.7937152,0.98068494,0.65699685,-1.3630425,-1.6403102,2.2446792,-0.08297973,-1.3854411,0.8863259,1.5581256,-0.5668736,-0.43757573,-0.94202566,-0.32198974,-1.2294091,0.22801238,-0.26720154,0.36703777,-0.119812556,-1.848768,-0.23522158,-0.8710183,0.3271209,-0.78444785,0.27927068,1.6736666,0.3314353,-0.9805345,-0.759424,-1.3943573,0.3701698,0.4182823,2.411619,-0.02260139,-2.145099,-0.8087762,-1.5019956,1.5886257,-0.4154048,-0.9018583,-1.6121447,-1.1340344,-0.053567402,-1.2446316,-0.007925027,-0.8239851,1.1376685,1.6853714,1.3026617,1.208846,-1.4249915,-0.1718857,1.1303806,0.41272345,0.37833402,-0.73619795,-1.2388315,-0.22725211,0.31826183,0.12655294,-1.5475177,1.2104945,1.7458272,0.21579207,1.5372822,-1.1023244,1.3757389,-1.4107864,-0.7709648,-1.6118457,1.0416958,0.14736636,-0.059251584,-2.0781312,-1.3729913,-0.67628795,-0.55006003,-0.029303946,0.6005901,-2.3106248,-0.42045492,-0.18455315,-0.47859156,2.1117015,2.0437663,-1.6109151,0.69642234,-1.3556246,0.0950308,-0.09352457,-0.61146617,-2.1619732,-0.45937338,0.024927419,0.54455453,-0.12572876,-0.6155774,-1.8240564,-0.09232398,-2.2870557,0.047373693,-2.569153,-0.59525245,0.25043404,-0.06457478,-2.6250389,-0.40802565,0.30811507,-1.4065915,-0.50178057,-2.4532712,0.7362346,0.41884854,2.1872938,1.2029554,0.7146988,3.382711,0.11379142,-1.958854,-2.401352,1.5121979,-0.06472675,-0.5447602,-1.2182603,0.16797201,1.8776352,-1.6163458,-0.31584132,-0.26560757,0.8043151,1.0869192,0.22264434,0.22325128,2.1882029,1.8665116,0.63328063,-0.047453385,0.22841352,1.1144471,0.40194654,-0.5671212,-0.50552464,-1.5079483,1.0896603,2.0493097,0.60721153,-1.9487165,-0.45968547,0.2615433,0.51054704,1.9164681,-0.9395029,0.60172033,-1.2651565,-0.35879755,2.1730964,2.1728287,0.33933255,0.012787805,0.43119937,-0.4396696,-0.797203,0.54753757,0.33946455,0.358506,0.0482884,-1.0197977,-0.2691884,0.48559746,0.51664066,2.3464293,0.16546284,0.79132044,2.8592749,-0.69674003,-0.880183,1.0689131,1.2085437,-1.8706559,-0.83660173,0.23757094,0.2119378,-0.2841753,-1.0339584,-0.5617615,-0.099191815,0.6590432,0.6136609,1.3927703,-1.6098944,1.1510773,-0.14975555,-1.0363324,0.8252048,-0.1398342,-1.3281568,1.2000934,0.26998502,-1.0028611,0.33526784,-0.94418675,0.02682656,-0.34759486,1.1837736,0.75976837,0.521484,-0.64769465,0.33036909,2.0280306,-0.5617858,0.13956387,0.7173228,-1.3214406,-2.285712,-0.29599214,-0.48383504,0.30088314,0.29143685,-1.5652744,1.3540444,1.020184,1.5897799,0.4267972,-0.18714024,-1.0984367,-0.79071474,0.6085244,-1.1596215,-0.21709482,-1.3034533,-0.69578713,1.0473853,-0.64384973,-1.4651108,1.067442,-1.3010961,-0.60130596,-0.582585,0.36265528,-0.46538478,-0.6892978,0.055209856,0.70690274,0.41452536,0.0018245532,-1.3025684,-0.7787897,-0.13223878,-0.51789594,-0.74796647,0.5505578,0.35306674,-1.570798,-0.2275905,0.1996178,-0.4779516,-0.09889057,-0.37512323,2.1227527,0.4159942,0.40781724,-1.6880703,-0.8539563,-1.0485085,-1.1668072,-0.3036711,0.51260537,-0.087027825,-1.4602123,0.33142576,-0.31579658,-0.8826418,1.6704658,-0.77845716,1.4002992,0.09428063,1.2954829,-0.29106435,1.1444131,0.9675183,0.8842089,0.08593292,-0.62000674,-0.40860718,1.0700607,-0.52488166,1.0395128,1.4046015,-1.3878508,1.7140051,-2.0427558,1.0957808,-0.73775804,-0.047067497,-1.2136459,-0.8118777,0.30110365,-0.68331295,0.106417514,0.94676363,1.0084717,0.22780216,-0.9291318,0.96179193,-2.2411747,0.2442947,-0.65186304,0.6171263,-1.0383499,-0.86142755,0.07782436,1.3490149,1.1667924,1.2270424,2.5212274,-0.8878498,0.8080116,0.65577286,-0.72684026,-2.0403378,0.67842734,-0.32944727,2.125768,0.378651,-0.6326609,-0.15305728,0.45992014,0.70028347,-0.3131597,-0.6840084,-1.5681263,-0.28943726,-1.5704567,-1.0041584,-0.42964873,0.09052841,0.63214386,0.7398524,3.0328667,-0.14375897,2.0009143,1.9007674,-1.9524155,-0.085047446,-0.99094105,0.6710744,0.18836187,0.7453315,-1.1309341,1.749461,0.44115204,0.07933848,-0.29733515,0.9843758,-0.1503774,0.5548463,-0.61295766,0.71864986,-1.0275224,-0.5879398,1.5927795,3.3020468,-1.821411,0.6168029,0.57345605,0.48388505,-0.22514836,-0.3791072,-0.30055997
CCR7,0.11955438,0.2445536,0.93362534,-1.0571754,0.46657574,-0.8314548,0.41150802,2.1976569,0.15204948,-0.1863704,-0.14412126,0.6171237,0.57763755,-0.066534124,0.08836501,-1.1132697,0.4330551,1.2494344,1.2476115,-0.049137045,-0.90676594,-0.53322107,0.3424151,-0.21142505,-0.9701325,0.9334346,-1.5175556,1.5988235,-1.4761964,1.9761816,0.22470583,0.947739,-0.61010116,-0.08103378,0.23552968,-0.75188744,2.4778488,1.147,-0.5456432,-1.4897652,-0.7198429,-1.1818049,0.58183086,1.9807098,-0.054295104,-0.90033937,0.9776348,-0.8505892,-1.433241,0.99577385,0.6457094,-0.8047062,-1.6427909,2.872073,-1.2829163,-0.89259624,-0.9802451,-0.1096743,0.55088407,0.36108977,1.148841,1.455202,1.9987383,0.3269436,-0.6658887,-1.2139617,1.8354341,1.1617696,-0.6454016,-1.0298284,-0.797484,0.5649371,-0.31701216,0.76610607,0.6324282,-1.3996123,-1.8650736,-1.0477059,0.5438644,-0.19969931,2.212488,-1.1269934,0.73870564,-0.27873504,0.4854853,-0.40421763,-0.23685357,0.4255876,0.0655963,-2.7728434,-1.5752805,-1.0489813,0.1341722,0.48902577,-0.22478633,1.0393988,0.0594801,-0.4994272,-1.0037955,0.28295833,0.5230564,-0.38876727,0.66730493,0.84610087,-0.9725556,-0.89470583,-0.65568376,-1.0001125,-0.28971997,1.9897492,-0.12955567,-1.6693112,0.27056,0.5675938,-0.9513566,0.85917556,-0.6782123,-0.15034282,0.22415857,-0.48564804,2.1416178,0.9087841,-0.44886762,-1.4483552,-0.3676689,-0.08074316,0.5786623,0.29879037,0.7983347,1.117435,-1.1158128,0.07251783,-0.26625878,-0.9955839,0.34664133,0.124220714,1.5277015,-0.13316949,0.26769766,-0.61492383,1.2170316,0.65605676,-0.5825347,1.1467847,-0.15185274,-0.7527595,-1.2043494,0.130047,0.014730461,-0.9241991,0.95679355,0.027761986,-0.37426102,-0.18956152,-0.16281474,-2.2615173,-0.6448193,-1.0946214,0.26267257,-0.4002888,0.97887444,-1.1903167,-0.8309494,0.4679177,1.4581337,-0.110410705,0.29289743,0.7890624,0.27460644,2.6355166,-1.0450022,-0.19421987,-0.8001679,0.67312366,0.1661446,0.40850037,1.5888704,-0.39564154,-0.54930437,1.1860578,0.10445778,-0.2082069,-2.0269406,-2.369591,-0.32444283,1.5044447,-2.2833686,-0.4090472,-0.39204443,-0.45265964,1.2047881,-1.3315802,-0.9895483,-0.5308998,-0.35563266,-0.65951186,0.503246,1.8836454,0.18393457,-0.115052715,-0.4239001,-0.22047104,2.077164,1.2859753,-1.6660172,-0.043893676,0.07451696,-0.32762474,-1.1455337,0.35894954,0.7027986,-0.70122474,-1.4781591,0.9250803,-1.1908033,0.7490181,0.74766123,-1.2772425,1.4480243,0.26840013,-1.4604528,0.22060697,0.4349174,-0.26411968,0.098951384,0.24568084,-0.020837318,2.0577269,-0.91437614,1.2000335,-0.7150331,1.3532478,1.0919725,-0.35325798,-1.5457593,-2.5696833,-0.05257945,1.1780124,-1.3046511,0.22776085,-0.35259253,-1.24519,-0.297345,0.92241424,1.3961196,-0.094177306,0.5168576,0.8550773,-1.5696641,0.28616872,0.93409616,-0.09079895,1.6782259,-2.486344,-0.5050609,0.34475002,0.86632746,-0.43896136,0.88184583,3.5194924,1.0289358,1.7082719,-0.2622119,-0.22910868,0.22765142,-0.48779762,0.629961,0.738177,1.4244285,-1.4349376,0.12305956,-1.3431923,-0.822427,0.07874323,-0.83183753,-0.49840143,-0.9141034,-0.8101618,-1.5196036,-1.2783352,1.0523589,1.0047636,-0.8163163,-1.2650211,-0.97539955,-1.6477071,1.0185493,1.5051389,0.051364854,-1.2308099,0.42792094,-0.42056897,0.9146497,1.5931858,-0.29897723,1.0038551,-1.4777229,-0.5327067,0.8635826,-0.80897427,0.61115426,0.6435192,1.0497427,1.5041957,2.0523372,0.64872926,1.1392624,-0.188183,-1.1168605,-0.8951163,0.28527164,-0.8067698,-2.2647161,1.2323068,0.032398727,1.3642613,1.9618251,-0.81397855,-2.1665752,-0.31043768,1.1735855,0.5731452,-0.38052872,0.34403,0.6245768,-1.1770011,-0.14879128,-1.4548025,0.9656036,-0.8052861,-1.6683503,-1.8781401,0.33086646,0.82367307,-2.6493945,1.1725087,-0.72662413,0.88569796,1.0662576,0.087420136,-2.3039982,1.1058846,0.80493104,-0.32070124,-0.8378122,0.6745683,-0.06343151,-1.0144867,1.4510528,0.9383431,-0.6856043,-2.0177503,0.33830643,0.76755136,0.00740869,-0.5700559,0.1453692,2.2121427,-0.71038496,-1.7089219,1.0191137,-0.44697616,-0.058112532,-0.9234941,-0.19346869,1.0851171,1.3658967,1.4767133,0.4090533,0.093247406,-0.43773144,-1.5558214,1.5395299,0.9976227,0.060112447,1.4369295,1.0692017,0.837178,-1.7582302,0.6353407,-0.24094917,-0.71595603,1.816521,-1.1701325,1.3680985,-0.7399662,0.673697,0.5464561,0.32135427,-1.4514982,-0.3267759,0.08136346,0.24177673,-0.9599828,2.0503507,1.1868498,-0.94105774,0.6000005,-1.7123009,0.71444696,-1.3575138,0.9986561,-0.9834526,-1.0642818,1.8372675,-0.93506855,-1.6464196,-0.7439193,0.72311354,1.6775624,-0.22255637,-0.13459788,0.9040043,0.8094593,-0.46558118,0.6284855,-1.7466499,1.2411891,-0.6139526,-1.2297187,-0.6664662,0.75203234,-0.59089154,0.6919475,-0.78622454,2.3548489,-0.73203295,-0.69024605,0.8600595,1.1832241,-1.3595307,0.36637586,1.0903695,-0.8465669,-1.1542537,0.50423443,1.0926151,-0.8550253,-0.5823461,1.4600452,0.11941775,0.8730641,2.451197,-1.3248144,-0.27029344,-0.03405058,-2.1780903,1.3018767,0.8918287,0.54243225,-1.2253585,0.3941626,0.188398,-1.2883838,-1.3472832,1.198789,-0.7577224,-1.140403,0.42268935,-1.8021799,-0.4119442,1.4343822,-0.7927532,0.9125239,1.4153072,1.2572474,-1.0179211,0.8924198,0.19652708,1.4210113,-0.38821748,1.1872184,-0.030749004,-0.197136,2.6103842,0.030865343,-1.7897464,-1.854657,0.109633744,1.0860636,0.7759196,-0.08997428,-1.8269647,-0.28005436,0.5583729,-0.5667449,0.52717847,1.3573368,-1.9964433,0.27115077,-1.9428024,-0.83693826,0.42348364,0.7771576,0.22336932,-2.4497883,1.3578827,-1.263297,3.3098793,0.9929616,-0.9632624,0.043777652,-2.310219,0.30666777,2.5742512,-1.8541301,0.06379231,1.4557388,0.4380941,0.1392618,-0.6115525,0.104859
CD3E,0.17252035,1.9274743,0.5351776,-0.39332068,-1.9513985,0.10627996,0.2409517,-0.9638713,-0.94940436,0.9978002,0.07812732,0.16959508,0.09322915,-2.118919,-0.53110874,2.1294065,-1.9957168,0.22995172,-0.24057016,0.6288955,1.139998,-1.1174197,-1.256684,-0.39530024,1.3142822,-0.5725124,-0.73453546,0.8198846,-2.1494215,1.5162786,0.67158955,2.7581751,-1.6019416,0.5531485,-1.0264757,0.8550753,1.8662515,-0.73816705,-0.8791291,0.25817692,-0.4684537,1.5105228,1.0908732,0.6638049,-0.98461497,1.2062999,-0.4973114,0.9915979,-0.53456485,1.1178051,-0.6070961,0.14271928,0.94376194,-0.16857946,-0.39973357,0.28866774,0.8642508,1.9949167,1.3111517,0.124498904,-0.83210564,0.46141493,1.0279686,-2.103309,0.87530094,0.28056142,-0.40532824,0.570581,1.1402206,2.4361944,0.38347852,0.50106597,0.043145757,-2.1666505,1.8788824,1.139631,-2.7813396,-1.2629563,-2.2349052,-0.49144167,1.2424614,-1.3355919,0.9215618,0.4198619,-1.4541591,-1.2566885,-0.16319607,-1.0410852,-0.6978591,-3.0310762,0.54905915,-1.4569116,-0.8571551,1.5174594,0.3543,1.5020717,-2.141856,-0.22028588,-0.31376803,-1.5335413,0.6266722,0.6043361,0.6515886,0.03282449,0.7935941,-1.670122,2.6725974,0.07927221,0.21888319,-0.38754177,0.9363732,0.23175554,-1.1448212,0.31555122,-1.094341,0.3394656,-0.065881014,-0.7901414,1.597641,-1.6729641,1.0608053,-0.018403294,-0.7117245,-0.16816011,-0.13484555,1.8568491,-0.5480955,0.3163747,-0.8683186,0.50005096,-0.17267007,0.107976586,2.2737699,1.2400824,1.2495217,0.66544265,-0.15613672,1.1891011,-0.2908336,1.1688346,0.116766885,-1.4524719,-0.6495751,1.1683476,-0.033459235,0.010753166,0.16034658,0.4398466,0.18692243,-0.5052023,0.05321965,-1.3239181,1.4695671,-0.11638509,-1.4607571,-0.7444954,-0.886841,0.87508833,-0.1590356,-0.12818791,-0.03220468,-0.1040204,-1.3473381,0.45676267,-0.399581,0.8719254,-1.1053904,-1.7319283,-1.2066082,0.39526087,-0.68310237,1.4323809,1.2179008,1.0576704,0.9999912,2.3388104,1.2700174,-0.44243982,0.26385015,1.4893883,0.12256583,-1.0018034,1.217913,-1.8788868,0.1440204,0.018254232,-0.49204618,-0.8285011,-0.1517442,-0.608711,1.0678679,1.0437484,-0.48812395,-2.3951316,2.3251836,1.3505887,1.342934,0.47074008,1.2105457,0.0011974355,-0.43656638,-0.6025165,0.7525442,-1.0250201,-1.0122387,-0.25027853,1.0456705,0.74709094,-0.1689946,1.0227064,-1.1985174,0.07114482,-1.0000671,0.85976654,0.19168456,-1.6652833,0.23883088,-1.157686,-1.1970838,1.3245769,-2.2793927,0.08753567,-1.0633488,-0.19230795,0.4942308,-1.1302793,-1.2959988,0.40742168,-0.781045,-0.54107964,-2.2454867,-1.8192115,-2.1539748,1.2666508,0.57774436,1.1009572,0.7470661,-1.1561396,-1.9305686,-0.05253597,-1.1715477,0.9465225,-0.09118617,-3.3549883,0.21605782,0.3321546,-0.0016000954,0.9306832,-0.84276277,-0.38148996,-1.6261412,-0.41153526,-0.20312344,-1.441074,-0.7728764,-0.60894024,-1.7249825,0.6927667,-1.2049031,2.0134587,0.7595725,-0.48091885,0.40136388,0.57997334,-0.4582723,1.3159493,-0.31675127,1.0173624,1.2803977,-0.4573481,-1.2833437,-0.15494929,-0.18881813,-0.29494584,1.9926752,0.9297673,2.010673,0.7147346,0.00015056701,1.0205971,-0.08631846,1.0697442,0.26777577,0.24449608,-1.1990314,-0.6489873,-0.8979183,1.9212778,-0.8402391,0.37706503,-1.5358704,-1.0417241,0.47361314,-1.0155216,0.3780403,-1.6140487,-0.18226492,0.777667,1.9479172,-0.3726256,0.14495192,-0.8744868,1.031061,0.42354587,0.2949199,-2.5575688,1.2338002,-1.7594779,1.0974579,-1.9350452,-0.02745992,-0.64028597,1.4455855,-0.1991526,-2.353281,0.6949198,1.4665165,1.3228103,0.14039126,1.5639768,-0.22278851,-0.091662616,0.6112743,-1.5350213,-0.956373,0.36697677,1.8965908,-1.3348576,-0.3945892,-1.0045358,0.7688637,-1.4718783,-0.6098802,-2.0855365,1.1957734,1.9445941,1.2696034,0.16110705,-2.1074913,0.40684098,0.4887291,-0.98051316,-0.73905253,-0.937893,0.8492058,-1.5604022,0.35898706,-0.5530112,-1.2476401,-0.94641536,2.2944722,-0.19786786,0.48403248,-1.0073619,1.6391904,1.0995536,-0.0295336,1.4159414,0.6702663,-1.4372913,1.2885082,0.892004,0.30218875,0.16653605,-0.1916946,0.1014235,0.85428977,1.2074293,1.8327192,-0.5634441,-1.1143456,-1.1636143,1.5187956,-0.25435066,-0.7480246,0.33412737,-0.7110951,0.702183,0.94420063,0.40555382,-0.5125478,-0.7615487,-0.093164906,0.35029337,1.6578574,-0.124335356,-1.5474775,-0.6229412,0.87003326,0.19069229,0.2509119,1.6771325,-0.32928926,1.4976789,1.2713565,-0.7117712,-0.058880784,0.9654757,0.07784942,0.1888326,0.2963277,2.2551036,0.6693078,1.0670599,-0.5991438,0.65625185,0.49441624,1.3046601,1.5372379,0.4962501,0.67885286,-0.007295173,-0.015845926,-0.30025896,-0.32483363,-1.4286087,-0.15964739,0.035968482,0.44371396,1.8255409,-1.4839369,0.29936707,0.2874206,-0.06172574,0.2434223,-1.890163,-2.2109494,1.4993298,-0.39211705,-0.87818235,0.47343218,-0.021085074,-1.04481,0.6238665,-1.8960563,-0.32568467,-1.3220967,-0.75546867,-0.52958995,0.2897212,0.4445015,-0.4258705,2.3197196,-0.61907655,-1.2388601,1.1807941,-1.8152331,-1.4744822,-1.3714813,-0.61571264,-0.74966437,-0.5004624,-0.77299756,0.20154357,-0.5390567,-1.5264132,1.6305436,0.41311377,-0.9189424,-0.17050461,-1.1840012,0.008479129,-0.5516359,1.4189655,-0.12555858,-0.3970152,0.39033067,-0.41014582,1.6220375,0.459571,1.1020889,0.4451302,-0.48385072,-0.389836,0.13902943,-1.4857575,-1.5595602,-2.24218,-1.5630722,1.1675165,-1.3209308,1.6058358,-1.6862427,0.13087113,1.7795714,1.4376651,1.3758152,0.4265575,-1.5492527,0.14328922,-1.7852854,0.7700366,0.8241019,0.39888483,1.021654,0.3156941,1.7122147,0.05359496,-0.17255294,-0.43700668,0.19955619,0.16312523,0.2893719,0.6684204,1.0223442,0.9312052,1.153057,1.9212185,-0.14902976,-0.2718251,-0.7588333,1.5742562
CEACAM6,1.0365155,-1.5298153,2.9386473,-0.47680622,-1.2780204,-0.06727711,-1.0680652,1.0641022,0.5458071,-2.0133908,1.3671736,0.6781018,1.3115175,0.08043279,-0.25860348,-1.5789638,-0.65294087,-0.15014008,-0.9534843,0.76792246,0.7667833,-1.0082047,-1.0312885,-1.157059,0.82723224,-0.07568427,0.7301851,-0.7182798,0.36265066,0.80921614,-2.4734774,0.18822742,1.6426748,-0.105909914,-2.2181656,-0.18722592,-0.8099111,-0.31727558,-0.99985415,1.7091279,-0.9521505,0.3491408,-1.3044014,2.1138644,0.3582449,-0.045186274,-0.09498337,2.3135626,-1.3950047,-1.3912579,0.1685518,-0.45518234,-1.1069158,-1.0745027,-0.7205688,-1.06514,-2.606333,-0.083088554,1.5067854,-2.119154,-0.7252671,-0.17573597,1.5572577,1.4380645,0.51020294,0.45210367,-1.1106973,0.3468843,-1.2622324,2.0917075,-1.0984136,0.76489544,0.15975696,-0.34878576,-1.9736687,-0.85514826,-0.38142622,-0.87615097,-0.50232404,-0.7915246,0.8341029,-0.6172296,0.8974772,1.9581817,1.5572716,-0.609853,-0.23838146,-1.5124718,0.66741985,0.68042904,-2.06569,0.67445207,1.5305308,0.31648153,0.6473039,-1.4365963,-0.16185488,-2.482128,-0.8679191,0.5727373,0.6590951,0.9885176,-1.3563653,0.51103795,1.3890388,0.4110597,1.0027764,-0.42805454,-0.8777419,-2.2497993,0.19993457,0.8710704,-0.85526025,0.26004747,2.1205616,0.6103057,-0.854225,0.280986,0.4722787,-1.3173906,2.2067533,-0.95084155,1.0299426,-0.47170615,-1.4298708,-0.51726884,0.13267098,-0.7680262,0.33634675,-0.52349156,0.8762081,0.18048981,0.15523227,-1.8752927,0.39934015,-0.97750586,1.1077617,-2.281672,-0.251466,0.054333836,0.90998596,0.804289,0.11734073,0.7112154,0.39827752,0.62680984,0.4650463,-1.0994734,0.4634056,-0.8725932,-1.5844762,-0.004477882,-0.45016232,1.1685524,0.54765034,-0.89070207,0.6673801,0.26443407,-0.83729976,-0.49019527,1.341533,-0.8145654,-0.45359546,0.54092664,-1.3246816,1.7276416,-1.6001949,-0.2605711,1.5986217,-1.9034172,0.15890193,-0.45889398,-0.4941201,-0.90970415,-0.5845166,-1.0620794,0.10541688,0.2044292,0.6896556,-0.88793343,0.5968129,0.9675303,-1.2088847,0.8307866,1.313334,-0.12661123,0.7448188,-0.36723167,-1.5596583,-2.1840644,0.9709177,-1.2743391,1.9876481,-0.21004601,1.5162824,0.91784614,0.5500612,-0.89749277,-0.56312144,-0.4346552,0.5872786,0.31837127,-0.81342685,-0.020194095,2.4001231,0.17449968,-1.9979818,0.72651607,-0.849924,-1.6776559,0.6241483,0.80892426,0.9771541,-2.0718837,1.756828,-0.30629566,0.87214875,-0.70510614,-0.0020849744,-0.46213427,-1.0094906,-0.06574857,0.2248841,-1.2968779,-0.36950642,-0.60001546,0.8480889,-0.033973016,-1.1973789,-0.27930373,0.6858989,-1.6287924,1.1134495,0.3503746,-2.9150786,0.16680425,0.3414647,0.88374466,-0.64610684,-0.10431974,-2.02668,0.32934403,-0.9379959,2.3546324,-0.63985497,0.9666796,2.9117565,-0.72502416,-0.37626925,0.5547414,-1.9562511,0.57849854,0.7243356,-1.8543267,-0.20767564,2.470333,1.7771316,0.7803875,1.8322035,-0.38148853,0.058591988,0.84022367,-0.043973356,-0.5845859,-0.72021365,1.287268,0.6153893,-1.6429245,0.41197535,0.49051514,0.7907666,-0.34538573,-0.16727431,0.9251371,-1.7470472,-0.26942113,0.34613618,1.081549,-0.01571404,-1.0976626,-0.51367664,0.2625134,-0.51361686,0.6148411,1.5399946,-0.8041357,0.48696014,-1.1088552,-0.09828606,1.1052065,-0.04271415,1.4085718,-0.78373235,-0.79123884,-0.29072317,-0.15390868,-0.23809586,2.2635674,-0.8400848,0.98078173,1.2357862,-0.33548227,-1.373182,1.172765,1.4741518,-0.8585285,-0.49096277,2.5334506,-0.43570524,-0.17657125,-0.1006816,1.2119374,0.40314317,0.32722473,1.7228999,1.108923,0.76352096,1.4994074,0.7593908,0.1396691,0.70664763,-0.50383186,0.28249985,0.17408422,-1.2955707,0.19130565,0.5772253,-1.4808848,0.8864018,0.7742029,0.9923027,0.29113704,-0.5154658,0.073381804,1.656227,-0.391686,0.33586124,0.102160834,-1.9677483,0.47203436,1.4532992,-1.3760675,-0.3816591,3.2501755,0.5126568,-0.15988445,0.32902172,1.0558261,1.2564077,1.1654909,-1.2383531,0.6342547,1.1681068,1.7668706,-0.6088883,-2.015111,0.17995457,-0.837846,-0.9383814,-0.07977723,1.9097921,-0.5169273,1.468379,-0.06018867,-1.8436719,-0.19832724,-1.8256505,-0.7869804,-0.35676953,1.3277333,-0.304272,-0.520511,-0.6445152,-1.2609097,0.89625186,0.8799799,-1.075038,-0.833759,-1.3304896,-0.062342733,-0.076582946,1.2190957,-1.180732,0.019774651,-0.9553299,-1.3149261,-1.2569629,0.28986543,-0.6449079,-1.3984913,1.2953557,-0.111365095,-0.78943866,-0.30858448,-1.3719711,-0.6831877,1.0122527,-0.8746723,0.8667204,1.7967293,0.21830396,-2.1738403,-0.7739332,0.74592316,-1.7740175,0.9541544,-0.5745295,1.5609034,0.42109925,-0.6410652,-0.34335536,-1.5477105,-1.1229372,0.01198053,1.0544109,0.019376889,-0.57445425,1.1400118,0.41793498,0.792002,0.2781147,1.2363408,-0.6175719,1.433161,0.24664594,-1.8563324,1.3453071,0.57216305,-1.3793141,1.0830615,-0.1493845,-0.11708175,-1.4961487,-1.1691043,0.7575053,-0.26085815,0.41624558,1.0308684,-0.56298864,2.977891,-0.6341685,0.44106188,-1.4223877,-0.5290903,1.9085972,-0.50658554,-0.29030168,-0.53883433,1.1791579,0.44645777,0.36872494,-1.1144948,0.7638689,0.8260071,-1.4775951,0.7289677,0.5827544,0.95025516,-1.1568439,-1.0080261,-0.7319721,1.362372,0.7939884,-0.25700933,0.1812406,1.2059145,-0.14398775,0.9637976,-0.7398447,-1.2652444,-1.2047608,0.4044959,-1.030113,2.441689,1.3214408,-0.42001548,1.0779439,-0.20653513,1.808736,0.35918802,-0.6753113,-1.0775882,-0.14523196,-0.08908627,-1.6909791,-0.44252202,0.79068345,0.83807373,0.1953408,-1.0368576,-0.5472199,-1.1155751,0.37439743,0.72894585,0.5657542,1.0959647,-0.07601142,-0.037291054,0.1419404,1.5482339,0.22574483,-0.90635747,-0.21056993,-0.40152267,0.2541045,-0.5018623,1.0406755,0.6282402,2.1493905,-0.47300372,1.8231813,-1.3390493
CEACAM8,0.4651054,0.5764466,-0.48480713,-1.5041318,0.13086925,0.30759254,-0.5029206,0.85029805,0.74019396,-0.6455132,-1.3680805,-0.15892607,0.09158078,-0.52223647,0.8692464,0.9664371,0.7466562,-1.0750613,-1.477299,-1.2155855,0.2625064,2.9704046,0.005309511,-1.1973392,-0.7230681,0.54409605,1.0327177,0.657429,0.47378668,1.9394931,-1.0953141,1.0755956,0.8344462,-0.62776154,-1.671321,0.11380099,0.18344656,1.0888488,-0.8069415,0.63061947,0.008108528,-1.7455852,-0.05452625,-0.8610115,-1.1721765,2.2047734,0.92506605,1.3739794,-0.23903106,-0.7002781,-0.54881656,1.4865042,-1.1984563,0.69513404,1.3693995,-0.6141035,-2.4552264,0.1765497,0.024557648,-0.48063564,0.27452645,-0.12567553,1.3953205,1.8134936,-0.54082286,-0.35016185,1.9182264,-0.0526689,0.013776117,-0.8161391,-0.16890459,-0.9690269,-1.111895,0.4939037,-0.62033814,-0.5200817,1.4073927,0.37503225,-0.8513112,1.2088778,-1.5567702,0.8515371,-1.1324486,0.12368855,0.4137708,1.1968671,0.44742072,0.0035148403,-0.15451166,1.2385559,1.4253826,0.48401117,0.18669736,0.20272474,-1.3944224,0.16203769,0.50103545,-1.100523,0.20044123,0.216528,-0.61392754,1.15063,-0.9722853,0.35242292,-0.42112616,-0.036440812,-1.4871378,-0.75253475,-0.630409,0.1957221,-0.46805686,1.1548826,-1.1457171,-0.32912916,1.1962645,0.7364243,1.2899405,0.44535455,0.13108134,-1.4112232,1.7620938,-1.5776215,1.1373867,0.5261016,-1.4087626,-1.2099683,-0.011388754,-0.59145594,0.19398579,0.75065655,-0.3532941,-0.5202814,2.0242708,2.0168161,1.6117268,1.0248246,-0.27664486,-1.2177444,-0.41154882,0.4704773,1.0599418,0.12836283,0.12303693,0.11904245,1.3962739,0.25852787,0.7263557,-0.115918934,0.30654266,1.0298245,-1.4453704,-0.14849745,1.3639042,0.032140344,0.59103,-1.582957,-0.34187207,-0.7890624,-0.79006296,-0.21100742,1.8081008,0.45870575,-0.9491718,0.5489157,0.7426306,0.078379385,-1.7134724,-1.1443554,1.206946,0.015749233,-1.6461748,-1.6215016,0.14440717,-2.0863156,0.039977282,1.0385785,-0.07607651,-1.4899065,0.58287185,-0.7478539,-0.33557478,1.1905457,-1.125526,1.2962506,-0.35610673,-0.36706614,1.5076207,0.24942574,1.5591791,-1.5629743,0.2652564,0.27064553,1.0376989,0.31631672,-0.1552256,-0.10589506,0.17472437,-1.5892261,1.1488253,0.012105731,-0.40396068,-1.6600976,-1.3229473,0.5885755,1.1440533,-1.2416909,-0.012100424,-0.100215934,0.67006177,0.19273062,-0.95353353,1.1211662,1.064834,0.6406889,0.8534798,-0.2720946,1.5831819,-0.2581228,-0.9606065,-0.67890733,-0.0026019167,-1.6303996,0.21113828,0.65789956,0.045968488,-0.31632382,1.3461992,0.95923764,-2.9794047,-1.2146848,-0.5212705,0.7058534,0.35204747,0.09730478,-2.7101126,-0.7885826,-0.2388978,0.22500369,1.0886103,-1.3532361,0.11333667,2.3754895,-1.3548315,3.9039178,-1.0102173,0.7543315,1.6308433,0.10827736,-1.1687613,-0.608713,-0.5862332,-2.5585513,1.0779954,-0.20285402,0.45444283,1.423555,-1.3908678,-0.9037947,1.4319115,-1.0535007,0.010915814,-0.29779202,-0.72301936,1.2157149,-0.7375858,1.0698633,-1.5464362,-1.2426735,-1.0297707,0.081092566,0.76737124,1.02667,1.4536949,0.4803401,0.41727686,1.3454723,2.4026213,-0.672174,-0.046679813,0.25610256,0.5604984,1.0191679,0.22460347,-1.1090373,0.19898732,-1.5406679,-0.6205625,0.60748935,-0.7634356,1.6592361,1.0181578,-1.4221243,-0.2136447,1.0921004,-1.043302,0.7471251,-2.22416,-0.5416547,0.5462993,-0.8374753,-0.21047552,-1.2327138,-2.0463667,1.2157512,-1.6299819,-0.14459991,1.0333298,0.025486473,-0.3130166,0.85495055,-0.06393868,0.56258416,1.1509763,0.7653817,0.36290073,0.31282762,-1.3077697,0.72366285,1.5120142,0.75024396,-1.7689637,-1.098146,1.9949032,-0.29389936,0.28380728,-0.2564189,-0.09925258,0.34935784,-1.0168774,-0.58875597,0.37932742,0.9936606,-0.98499036,0.5656372,0.108398005,0.7902659,1.5784853,0.015207528,-0.19650711,-0.7284495,-0.45482555,-1.890563,-0.13020276,1.4630338,-0.688755,-0.6602542,0.84672135,0.21609282,-0.8277072,-0.8576383,-0.3744986,-1.3247231,0.49446538,0.5738175,0.49256602,-0.14349441,0.2197431,-0.8284699,-0.033031207,-1.9063579,-3.2101858,0.017929282,-2.0513086,0.73458827,-1.6044984,0.6254365,1.5412104,-0.9128925,1.8417344,1.8770732,0.20577437,-1.4103442,0.4990202,-1.098762,0.5760804,-0.86266285,2.3095891,-0.4420191,0.51548094,0.41655383,-0.9448746,-1.6435524,-0.56304437,-1.0135058,-0.84272975,-1.9730697,0.0020687692,-1.6344059,1.3058703,0.7473856,-0.42558265,1.8650961,-1.041835,-0.55322546,0.67121875,-0.07289498,1.1216578,0.061299045,-1.949752,-0.63349503,0.5799886,-1.2517977,0.9208881,1.6366559,0.71523064,-1.3523295,0.26751485,-0.12097546,-0.06182595,-0.5738895,-0.6234503,2.3035097,0.09675196,-0.31327128,0.99840105,0.26687518,0.6082534,-1.0406492,-0.067696914,0.33835632,-0.34749117,1.4518555,1.1978846,-0.6401588,0.8431089,0.2835578,0.19457419,-0.3690574,-0.48334265,-0.6881941,2.1163929,-0.5677833,-0.13026163,-1.2378519,-1.6665117,0.53562194,1.3694364,2.3982666,0.45698848,1.4899036,1.3538516,-1.5452422,-1.7574618,-2.1987867,-0.82056653,-0.021100415,1.7220733,-2.2615895,-1.0005621,-0.32369414,0.17998078,-1.7226261,0.28547755,-1.98302,0.9221615,0.06213228,0.40846714,0.7884291,0.84925956,-0.34149414,-0.28066838,-0.16985619,-0.020818992,-0.78171253,-0.89122134,1.6736618,1.4000915,-0.03989087,-1.4854026,0.7344123,-0.018544752,0.45639765,0.7289876,0.3104304,-0.23245831,2.1925714,2.391065,2.6284475,-0.52037513,1.23985,0.4700741,-1.4364637,0.03288669,-0.9189774,0.17847383,-0.49361888,1.8801318,-2.5444298,-0.6216262,-1.1012123,2.0507007,1.52238,1.613047,0.17788815,-0.15465593,0.49091882,-1.3676443,1.992177,-1.6475639,0.35773852,-1.8512131,-0.5053435,-0.7914831,0.7754803,0.63171643,1.9084437,-0.09241024,-2.1211836,-0.9425966,2.4505537,0.9785508,0.2585193
CLIC6,-1.2300653,-0.08226052,0.44029784,-1.4333318,-0.589295,-1.0681078,2.3101506,0.30922666,1.4881897,-1.2059056,-0.7009723,-0.43089873,-0.0990138,-1.1698215,0.71548694,-1.9926753,-0.9280242,-0.59313315,-0.3173158,-0.7281414,-1.2880952,2.8956838,-1.2981396,0.45748848,0.4769951,0.6616596,-0.011789669,-1.5427705,0.452421,0.16224512,-0.72993803,-0.4468608,0.3899056,-1.4690754,-0.5050232,-0.04251229,0.45352635,-1.067076,-1.1390711,-0.17104082,0.611698,-0.8665987,-1.0776632,-2.483182,-0.41689533,0.7984009,0.9611367,0.8834719,0.926315,-0.3831789,-0.5022712,-0.69278276,-0.18362053,-0.042619117,-0.121094406,1.5291152,1.4149405,0.79763705,-1.3897393,0.1751032,1.4231126,-0.7907475,0.038899902,-2.38833,-0.6424063,-0.48495278,-0.987495,-1.3075445,1.5203533,0.61795515,-1.7422822,-0.06813747,0.6327854,0.27061749,-0.12364155,0.40559587,0.7863944,0.13811538,-1.4806888,-0.26435375,-0.6395032,-2.2985425,0.18410778,0.88537395,0.6694608,0.30773136,-1.1512235,1.8374256,0.7302175,-1.7462672,-1.3180438,-0.66666937,-1.2447513,-0.808019,1.2750473,0.73315483,1.0205079,1.8183808,0.34987056,-0.8727177,-0.9986712,-1.88276,-0.07648092,2.350054,0.57718265,0.2592202,0.6414148,0.48987535,0.15551801,-1.643419,-0.15159127,0.94172347,1.6606548,0.7954881,-0.94530153,-0.32835838,-0.6196309,0.84035295,0.12643263,-0.039610222,-1.3967521,-0.45609295,1.4231148,2.104417,-0.1724446,0.30227476,0.77699834,-1.6227076,0.395742,1.7645575,-0.086728804,-1.085773,0.26242214,2.0347035,-1.1400683,1.2951784,1.9690969,0.06214823,-0.9607419,1.12939,2.3196054,-1.3582778,-0.20242424,1.4779228,-0.8822885,-0.10320106,-0.81714785,0.69380957,-0.20946978,0.5512856,0.64087945,-0.8982411,0.96692955,-0.6863302,-1.7878408,0.8537515,0.48719606,0.6664575,0.84885204,0.42376703,-1.8435829,1.9459071,0.8885842,2.4659088,-0.023254503,-0.57060564,0.71851563,0.36220184,0.07394913,-0.4726844,-1.6273412,-0.044710416,-0.042219993,0.14084068,-1.2102342,0.85996884,0.19136801,-1.6530273,-0.081295386,-0.9424818,0.62457025,-1.403453,0.9173615,-0.58184403,1.0312339,0.9910916,-0.10480659,-1.044049,-1.172306,1.4556539,-0.96709055,1.3772919,1.5206721,-0.6332713,0.6524102,-0.5616265,-0.042682797,-1.2239606,-0.5707822,0.86910206,0.05482971,1.7347717,0.73723733,1.1511416,0.61570984,0.6618505,-1.4687369,-1.1350186,-1.2704365,0.07913955,0.33069202,-0.988854,1.2223316,-0.1335676,0.847797,0.57042795,-1.7363358,1.2616389,-1.275692,1.2329594,-0.25875992,0.28938526,0.83847314,-0.8028444,1.2204785,-0.82847095,1.7478646,0.2694141,0.2222844,-0.046264652,0.5261828,-0.8357922,0.99462354,-0.5867686,-0.48485947,-0.5872662,-0.8768627,-0.6064346,1.7752392,0.05167082,-1.0838051,1.5150613,0.47872296,-0.10489429,1.8996081,-0.21717447,2.1911945,-1.4962244,0.7904335,0.33502802,-2.185141,1.3782814,-1.6324149,1.4116201,-0.20862982,0.25017545,1.1424572,0.65681815,1.0854313,-0.62982404,0.25486472,-0.88236845,-1.5056288,0.12325964,-0.07038583,-0.20025025,1.1048064,-0.20942745,-0.6610404,-1.0058601,-0.47569188,0.3536315,-0.19795108,-0.42881626,-1.6448278,-0.8090779,-0.43019596,-1.6634403,0.39308396,0.00097108557,-1.1280634,1.6102334,-2.565483,-0.04550973,-0.016075885,0.7704376,-1.4775395,2.709943,1.0363309,-1.2625867,-0.13408586,0.63691276,-0.13210057,1.17027,1.054994,-0.75816953,-2.8223643,-0.18305674,0.18271084,1.7519852,0.029808417,-1.0463309,0.83325034,0.46593943,-1.3283024,0.051841848,-0.71928626,0.6437374,-1.3175768,1.4517199,0.15361626,0.029443221,1.3952978,1.3217701,2.1320627,3.2317634,-1.0524852,0.5105281,1.0857211,1.1647518,0.22837955,0.15140286,1.8189037,-0.40009236,-0.38216683,-0.64272165,0.16719936,-0.07334205,1.4253523,2.1393397,-0.65753764,0.6970059,0.22568153,1.2107143,-1.0715429,0.043575894,-0.7074262,-1.1954157,0.1288282,1.2599998,-0.13796705,-1.0602075,1.0130539,0.47754806,-0.4795598,0.83579564,1.4800241,-0.4170556,0.5841993,-1.0105,0.51416737,1.1782236,0.8675025,-0.14785537,-2.588379,1.3698297,0.13344827,-0.289097,-0.57489973,-0.4262494,1.5409675,-0.718225,0.14156123,0.7762974,0.6918107,-2.294811,-2.1908922,-0.10270212,-0.048684523,0.44406793,-0.82320786,-1.261904,-0.8481786,-0.74388456,0.2594632,-1.2969059,0.3734249,1.9227098,-1.2483281,-0.28409743,1.2880409,1.1813104,-1.2945809,1.7568061,-1.3241826,-0.5419335,0.61171216,-0.3989522,1.0409024,-0.28031152,1.0305779,-1.9956383,-0.70678097,0.4225465,-1.4507974,1.9374557,-1.0888591,0.48722017,-0.06034103,0.13832024,-0.34621748,-0.5129999,1.3153759,1.652709,1.840062,0.16074587,2.4742723,-0.07541673,-0.1416794,0.58640426,0.6219405,1.5039397,-2.1233017,-0.18442373,-0.10511471,-1.4469054,0.9631832,0.21809317,0.18785128,1.1849114,-1.739322,1.0325751,-1.0046066,-1.4221791,-0.17533617,-0.8479151,-0.5262131,-0.09192216,0.6444637,-1.7434744,-0.24577399,-1.3191897,-0.3771522,-0.7184289,1.5806733,-2.086821,-1.9857148,-0.6469766,-1.509135,-1.2113671,0.985865,0.36031112,-1.8883129,1.4453484,0.24864647,-1.5612907,-1.2807063,0.08217787,3.033346,1.6332142,0.08340308,-0.1374779,-1.1185184,-1.0936177,-1.0521828,-0.7601958,0.035173316,1.3852041,1.0397042,-0.33961102,0.4894102,0.89675117,-0.073958576,0.37084967,-0.6355919,-0.28582633,0.109193705,-1.2192205,-0.2412149,-0.7079406,0.38088927,0.13879403,-0.5929688,1.7658733,0.7559869,1.1010039,0.2872247,0.70656234,-0.20366327,0.21051325,-0.3388241,1.5727029,1.0644083,1.0698456,-1.7123276,-0.96205944,-1.2633317,-0.7993004,0.38636175,0.6219832,1.4053295,-1.2654508,-0.103765115,-0.29708496,0.0020010772,-1.2823237,-1.4407971,1.0625496,-0.24686258,-0.037315782,-0.32914457,-0.72477776,0.14660065,1.0944341,1.1091437,1.1093357,-1.9327643,-0.24374823,1.4303131,0.7752462,0.86349404,-0.056915812
CYTIP,-1.0476516,-0.97755957,-1.2050415,1.2547857,1.1882888,0.976058,1.056574,-0.6969769,-0.6916943,1.4007665,0.7958725,1.2254558,-0.2795101,-1.2250091,0.05178266,1.6868111,-1.5511156,0.3046363,1.4215356,-0.98833096,-0.6025578,-0.2641649,0.056901887,-0.63530725,0.008704273,1.9917804,0.48851642,0.8789946,-1.2731298,2.0526886,1.3361871,-0.07360637,-0.765223,1.0613241,0.23966214,0.6520714,-0.63119906,0.15913305,-1.2586706,-1.4836704,-1.5942192,-0.12275208,0.57753044,1.9060714,0.8269027,-0.88642126,2.0546978,-1.2655606,-0.1848795,0.8321619,-0.9062506,0.9675121,-0.35364354,0.2146178,-0.9767891,1.0860602,0.7851174,-2.327148,-0.44255453,-1.211878,-0.30042407,1.8346285,0.2794635,0.10709215,-0.4851413,-0.9138354,1.4418774,-1.2874968,1.7306285,0.6124946,1.3299907,-0.99780464,-0.5521093,0.67137164,-0.3163131,-1.7436024,-0.16347271,1.0951785,0.62735116,-1.0749091,-0.9528951,1.9042283,-0.052975338,-0.016777528,-1.192767,1.4166218,-0.12941438,0.07834968,0.48960146,-1.0247138,-0.49237075,-2.6493552,0.5141938,0.42109334,-0.9049806,-0.20614704,-0.6603425,-1.156736,-0.4079566,-1.4630657,0.31276453,-2.355668,0.16998309,-0.8286897,1.3219874,0.8352806,-0.7664882,0.2262337,-0.6761434,1.1004757,1.2302371,-0.45822784,0.1073455,1.4869206,-1.156185,1.3548281,-0.36550194,0.6047039,1.3289795,1.6834824,0.24751799,0.3293174,1.4735712,-1.5883441,0.818747,-0.8093421,-1.1046025,0.49012652,-0.43623015,-0.14431298,0.9419346,0.1423099,-0.86216515,0.9915588,-0.41255337,1.1100503,-0.41503015,0.3944337,-1.739644,0.27630112,-1.1051862,1.0914139,1.4999471,-1.1743866,-0.41069356,-0.8619226,-0.6739969,1.7716819,1.5703757,-1.5555861,1.6862197,-1.3552276,0.93520916,-0.6900972,0.5776077,-1.0833402,-1.4630636,-0.5331601,1.0415336,0.025946246,-0.11448125,0.5048288,-1.2206106,1.156028,0.5237829,0.65949374,0.29260328,1.0010766,-0.33018228,-1.263294,0.11128065,-0.93736523,-1.9820431,1.4481156,-0.160563,0.65343636,-1.6750635,0.33308405,-1.7883977,1.0146756,2.136104,-0.13122554,-1.1797742,1.2912226,-1.8473331,-1.235633,0.43596798,1.2370415,-0.31979728,-0.6644053,-0.1544172,0.01659507,-0.86440575,-2.234879,-1.2656137,-0.67732525,0.90560156,0.66115856,-0.7020649,0.0783116,-1.3834305,2.1017528,-0.41164717,-0.73051935,-0.6875555,-0.6776494,-0.12928712,1.518378,-1.0929712,-1.2528937,0.7242003,-0.7104985,-1.3188128,1.5002936,-1.0773901,1.076738,0.40453267,-1.5597131,-0.7182915,0.63520795,-1.1748859,1.6462249,-0.60455775,0.029354457,-0.9916604,-1.0685663,-2.6897318,-0.7968911,-3.0956507,-0.11052728,-0.0962462,0.5767104,-1.4646131,0.49991703,-1.5869372,-2.3088799,0.006419805,-0.30594814,0.2542778,-0.046489067,0.28163,-0.86471206,0.4503191,-0.888557,-1.6796598,-0.7656243,-1.0438296,-0.040053003,0.48344377,-1.5938613,-0.31283268,-1.8446783,1.5144958,0.89760375,-0.002146104,-0.0051668514,1.1345992,0.22782576,-0.78266513,1.3307313,-1.0809098,0.15473151,-0.12058096,-0.85745376,-0.40780166,-2.1883533,1.4102802,2.9664354,0.61774844,0.5633031,-0.58488095,-1.1756325,-0.9105586,1.7915399,-0.66836286,0.80546963,1.5495619,0.61232734,-0.5654989,0.44260922,1.292547,0.20625243,0.7355422,-1.9349142,-0.18277372,-0.7752222,-0.46979085,0.38325164,1.178098,1.3764354,1.443196,-1.093725,1.1692684,0.87831247,-3.50769,-0.8397332,-1.129321,2.1732447,0.23974678,-0.4057938,0.47962388,1.13973,0.93686736,-0.12190628,0.83246523,-0.054853994,1.9327135,-0.44397968,-0.62464535,-1.1129562,1.0876815,0.0034279204,-2.087863,0.20156291,-1.0122207,-0.041682098,1.786513,-0.9554942,0.27642345,-1.6992061,1.5180224,0.088398255,-2.0551789,-0.915045,0.9298176,-0.14775679,0.062174708,-0.40269962,-0.024750063,0.1725872,-1.2172486,-2.7982287,0.07391082,-1.4158361,-1.0357983,-1.4252023,1.8563377,0.3041328,0.084553115,1.626876,-1.4614562,1.5123823,-0.3306359,-1.1177834,0.750771,0.716911,0.45476022,0.048979197,-1.5182757,-2.3826737,2.9309676,-0.17528759,1.246217,0.8717835,0.98177046,-1.8749509,1.1530697,1.0574375,-0.7976393,0.45166606,1.0416876,-2.667633,-0.8496621,-0.832797,0.7587878,1.183356,-0.64577603,1.9681838,1.046956,0.9302231,-1.0052426,0.4199035,0.006072568,-1.3863652,0.299233,-0.5767048,-1.4154193,-0.26225442,-0.42390704,0.5980345,-0.838439,-1.0449458,1.0842732,-0.8483896,-0.3401774,1.7407358,-1.3851296,0.28518498,-0.15806301,-1.3212863,-0.905398,-0.12901802,0.084543355,0.91637826,-0.315904,-0.5340794,-1.5083542,-0.534258,-0.7570746,1.5956148,-0.011619482,-0.7325599,1.4261808,-0.5038377,-1.5733819,1.0874538,0.34010717,0.36866853,0.083632946,0.4723118,2.1760757,0.44635925,0.6598238,0.44809654,0.7187564,-0.321924,0.097096056,0.8131866,-0.31623378,-1.2542808,0.22832443,-1.0966877,-0.43434545,0.56745267,-0.5110249,-1.1504949,-0.6120272,-1.5015243,-0.55025214,1.2126212,0.89220065,1.4163414,0.83005756,0.78710985,-1.92947,-0.2841182,2.551669,-0.40856498,-0.11976668,1.4488143,-1.4375944,-1.5912403,1.8744696,0.72369665,0.6683805,0.6856417,0.80493236,0.26242626,-0.6037638,0.9785159,0.93387425,0.5700893,0.06776007,0.1410536,-0.65403974,-0.01989873,2.0892193,0.22508585,-0.7699934,-0.09247125,0.35830814,-0.6417593,-1.0682349,-0.25959653,0.96924365,1.5952591,0.028910968,-0.7600775,0.8454043,-0.0786478,-0.8240306,0.41055867,-0.6875149,0.86583173,0.54658544,0.4578405,-0.41613203,0.7891066,0.29057217,-0.6570076,1.8159063,1.8072894,0.76474315,-1.6954572,2.4938288,-1.6903647,-0.7914144,1.9045804,0.89237547,1.3025275,2.0334208,0.7889485,0.7428584,-0.6059295,0.33335677,1.8747245,0.5782605,0.58076763,1.2244321,1.044304,-0.082044974,0.23744842,-0.67030114,-0.9941964,1.0141048,0.4654199,-0.48615813,-0.4653168,-1.1020789,1.6670786,1.2495152,3.5211945
DST,-0.56914145,2.0166223,-0.8768693,-1.0908836,0.058943707,0.5479716,1.3970963,1.8419367,0.7551159,-1.2170004,-0.111191064,0.7066638,1.6998898,-0.3872804,0.85555494,-0.34712547,-0.26197505,1.4457744,-1.1659465,1.2950758,-0.41081193,-1.4572945,0.393496,1.1466286,1.1485357,2.0245793,-0.7561118,0.63988787,0.7332552,0.26384863,2.0706153,-1.3351016,1.3736746,1.0945905,2.8120725,-0.3369609,0.398643,1.1622208,-1.0986292,0.50670224,-1.2500724,0.632367,1.7309854,1.3479193,-0.039952297,-1.6822895,0.5622601,0.47510362,-0.6152048,1.6453184,0.98517555,-0.3943602,0.43618098,0.28758857,1.4736251,-1.2785194,1.0175444,1.5542009,0.42277917,0.6751613,-1.3371881,-0.88620394,-1.6368372,-0.085170835,0.8560246,-0.078801796,0.19443895,-0.69374084,-0.1658202,1.3676376,1.8730587,1.0012242,0.023543814,-0.266483,-1.3309696,-1.5177195,1.5096105,0.0137364045,-0.79215556,-0.59089243,-2.1123354,-1.4216454,-0.488221,-1.5229945,-0.8905158,-0.9943523,-0.6152713,0.8961262,-1.2177515,-0.21793334,0.7207262,-0.74707514,-0.05337035,-1.0715938,1.8059009,0.70290464,-0.90203846,0.9387107,1.4555318,0.7280942,1.159173,-0.1033819,-1.7595137,-0.0037922338,-1.0566354,2.3293118,0.43194294,0.077923864,1.0313137,0.15938067,1.5265709,3.112065,0.693705,-0.032593578,1.8915815,-0.6523449,0.5271739,0.27723667,1.3082976,-1.5902827,-0.8633198,0.08246042,-0.98689425,-1.0237682,0.2367789,1.1370763,0.17687911,-0.5131047,0.54036516,0.99838716,-0.427146,0.39016834,0.2327372,-0.7256443,1.8355143,1.2401602,-0.30287543,-1.4192352,-1.431395,-0.27355525,-0.17528181,-1.6293668,0.13627833,0.09398558,0.20311238,1.4618579,-0.58502847,-1.285535,0.57574856,-0.651564,0.19262719,-0.41382265,-1.7865868,-1.0784932,-1.7143952,0.44956732,-0.82396644,0.20260686,1.8521293,-0.8228373,-0.7738209,2.227347,-0.67262095,2.449345,-2.7641716,-1.1074845,-0.010475356,0.10410243,-1.1538564,1.0667758,-0.23557042,-0.5781587,1.0846243,-0.15232554,-1.8532721,0.59556824,0.4097851,1.508424,-1.3458021,1.3923587,0.8914365,0.6998141,1.0777882,1.0078315,1.5228431,0.15820119,0.73874825,-1.4521784,0.78057015,-1.0288805,-0.59136355,1.5715966,1.1924709,0.7642229,-0.15648112,0.6588523,-2.5750895,-1.5380096,-0.47004423,0.44322547,-0.056669157,1.960961,0.11361193,-0.05236348,2.210305,-0.16377433,0.65255266,0.58311254,-1.1077299,-1.2335807,0.27893227,0.94060874,-0.13174559,-0.18953775,-0.8485471,-1.0846678,-1.323469,-0.9448597,-1.3523607,0.60510844,1.177225,0.7143462,-0.031626076,-1.981051,0.43167058,1.2251761,0.41779315,-0.54718554,0.6482013,-1.6694608,-0.2589748,1.128048,1.369489,1.2549472,1.1086094,-0.69774467,0.045899786,-0.07959201,0.8561685,0.24879661,-1.5658313,1.0413814,-0.6193228,-0.52163094,-1.1200002,-1.2440314,0.6808636,1.0375388,-0.6512833,1.800344,-2.170291,1.2685812,-1.4774601,1.3401331,-1.0474683,0.30345076,-1.1266938,-1.2434105,-1.6868601,1.6641237,0.7606204,0.084331,0.32278794,-0.109751604,1.3032691,-0.18885408,0.44860232,0.45935032,0.57438624,-1.9991,-0.6903175,0.49162576,-0.5683405,-0.121894665,0.87223697,1.9282496,-0.59002143,-0.18685333,-0.83479124,0.029856015,-2.1494682,1.3965139,-1.2396816,0.9642726,-0.98711425,-1.5617138,-0.04870771,0.2726024,0.30423307,-1.6924837,1.1676466,-0.038462818,-0.21403109,-0.11401764,-0.2362936,0.6077003,1.6138061,-0.122927964,-0.54907763,-0.32276672,0.14796486,1.4964416,1.6664598,0.2826617,1.4637219,-0.31415612,-1.5355991,0.1989768,-1.4145403,-0.80500335,1.1795334,-0.8267886,-0.18597358,1.8210813,-0.6148125,1.2427868,-0.5544446,-1.8765074,-1.3170877,0.7810852,1.7081081,-1.154163,-1.1013291,0.6084552,1.2558899,1.434538,-0.28838977,1.0463558,-0.20859013,0.88555205,-0.13951404,0.16609134,-0.4771408,-0.2075287,-1.0302341,-0.34249836,-0.12989584,-0.12901632,0.6356622,0.1673015,1.8078394,-1.0772403,1.6113725,0.9279762,-0.11014117,-0.069798626,1.95807,0.3133539,0.66124636,0.22599618,0.07943383,0.6444901,-1.75332,0.07366463,0.38301358,-1.1090789,0.36672375,0.40938812,1.5198215,-1.1216546,-0.6950251,-0.65870064,-1.345002,0.2730213,-0.12093209,-1.487134,-2.3169959,1.2464095,0.461647,-0.14976119,0.6906082,-0.11932069,-1.4823344,-1.3811767,0.96617466,1.7968976,-0.50410837,0.79844815,-0.35690105,0.36555043,-0.29072976,-0.62113315,0.9949965,-0.095533445,0.95316505,-1.4664365,1.3772475,1.4449908,-2.075316,-0.85685176,1.4083949,-1.3763916,0.42610565,-0.25718728,1.3654788,0.24222018,-0.048814297,-0.16374993,1.0803751,1.3370386,-1.0738845,-0.07464711,1.0891297,-1.003758,-0.052796345,-0.47107744,-0.119089186,-0.08242685,-2.0161936,-1.3476129,-1.8069812,0.757078,-0.4262368,0.68801045,0.33257064,-0.9476705,0.43249527,-1.4229507,-0.4600543,0.3187789,-0.665528,-1.7275041,-1.2428454,1.0776539,-1.0323949,0.9967073,1.0203557,0.3255275,-0.41060555,0.12886643,0.5870662,-0.70422477,-0.89834386,1.107586,1.3084806,-1.841104,-1.8700441,-2.3640184,0.43902287,2.2866287,0.50288117,0.04907564,0.2357226,-0.1770143,-2.126802,-1.1676568,-0.86967605,-0.8661309,0.6267115,0.18984888,-0.31484517,0.59571284,-0.31350842,1.3578329,0.42269894,2.0070527,-1.9183369,-0.48732808,-0.05739152,1.1012402,-0.37435547,-1.1177601,-0.115960754,-0.08376569,-0.60944855,0.4855129,-1.0466979,0.086408064,-0.3521486,-0.7540407,0.044907242,-0.36525676,-0.24082379,-2.4310215,-1.9941145,-0.86675376,0.106365435,1.3206397,-0.7023914,-0.77807534,0.74106956,0.5990217,-0.22928914,0.74655557,-1.3661518,2.4062595,-0.6776388,-2.072784,-1.7203609,1.779734,-0.71191716,-1.5515788,-0.49439165,-0.7921751,0.75070304,0.74971426,-2.0061495,-0.8948978,-0.42095166,0.27963665,0.4673975,-0.19420284,-0.52697855,-0.4716577,0.98124284,0.04669523,1.157049,-0.36289075,-0.45735323,0.8880553,-0.24673644,2.136395
ERBB2,-0.17097169,-0.73150206,-1.3782555,-1.3368629,-0.57390696,0.9656952,-0.55991143,0.7263287,-1.966668,-0.5006205,1.4601748,0.4019341,-0.3165433,-2.5504181,0.012272392,1.364779,1.3256507,-2.7130828,0.00932969,0.3096969,0.015515068,0.99421245,-0.80830055,-0.7192552,-0.32022524,-0.68433803,-3.2011225,0.97985727,-1.1588093,1.7668638,-0.56062716,0.5835681,-0.7499356,1.2064956,0.77207804,-0.08909072,0.083608896,0.9298482,0.11532764,-0.8705296,0.38545707,0.1577592,0.383351,-0.34734762,-0.8064009,-0.55327743,0.61396396,0.13038749,-0.94763815,-1.1717734,-1.0751046,-0.43430692,1.4978967,-0.71890485,-1.4694179,-0.24098301,0.9048966,-0.86462265,-1.0421385,1.6221523,0.2819204,0.7634349,0.53961176,-1.0267107,2.2724054,-0.63306594,-0.52996254,-0.9743226,-0.104574025,0.39178762,0.15830693,-1.3580643,-1.2595768,-1.5080812,0.7815547,0.0013547876,1.5306369,0.88618857,-2.3268461,1.8256158,-0.65998083,-3.020744,-0.18948239,2.1157067,2.4612682,-1.3224032,-0.3799517,-1.0613815,0.6203756,-0.39635983,0.93464816,0.37698862,0.34316242,-1.4349778,-0.57706654,1.0244988,2.0267684,-1.1637768,-0.46556476,0.25649038,-0.7868361,1.6613196,-1.5573093,2.3341677,0.9969552,0.080733396,1.095913,-0.7847662,0.57009023,0.51432556,0.8497539,1.1564271,0.5689467,-0.3083829,1.422061,-2.418844,-0.30338106,-0.76666224,2.61998,0.4263091,-0.12600689,-0.39253917,0.40860164,0.911803,-0.5150031,-0.18385173,2.487342,0.31974635,1.8294854,-0.49126545,0.16535112,1.4377731,-1.4330901,-1.2224945,-1.5155711,-0.158245,-0.06393908,1.1589166,-1.0600321,-1.1978266,0.8237134,0.59210724,-0.41952187,-0.9416383,-0.5208277,0.268472,0.108136386,-0.4276072,-0.610948,1.3406085,1.8298302,-0.19670594,0.20559521,0.8513445,-0.8093552,0.31367654,-1.7015958,-0.7607395,0.9730597,0.27603275,-0.31115425,1.0668672,1.3808216,-0.080048054,-2.0848553,0.827342,-1.161945,-0.24586193,0.54923433,-0.6495807,0.5850907,1.1114132,-0.32867235,-0.29006425,-0.41557035,0.024901142,-1.8747152,1.1108525,1.3003188,0.19753002,-0.13777445,-0.25718454,1.1611544,-0.20509356,-0.8111896,-1.0101027,-0.013919084,-0.23775995,0.6883631,-0.2516449,-0.36980864,-1.1081415,1.6634374,0.17198832,-0.32409754,0.6689436,0.598318,-1.4208887,-0.22604077,-0.66664654,0.16813982,0.16808869,-0.77972114,-0.9116851,1.9005184,1.692256,0.58933854,0.27294976,0.46756545,-1.8862239,-0.7149823,0.12567167,0.198243,-1.0914041,-0.66021335,0.78739005,0.84402966,0.8632852,0.12070068,-0.12536468,0.94226277,-1.7645617,-0.8133766,-2.1959636,2.0214229,-0.78951293,1.3294315,-0.41322657,0.35960737,1.0902585,-1.0531199,-0.7625354,-0.3457938,0.1250035,-0.05445442,1.3180445,-0.75735813,-2.034257,-0.9796334,-2.032196,1.4688108,0.5728672,0.27584755,2.2234554,0.84159553,-1.3514684,-0.24960972,0.46635938,0.42876992,0.39000386,1.9397472,0.18083455,-0.8067009,2.0902927,0.5402971,0.9003869,0.23062873,-0.54591507,-0.47519448,-0.5048296,2.0004148,1.1056287,0.54017955,1.5988421,0.31358236,1.1626735,-0.17707708,1.4121819,0.42134213,-0.25038096,-0.15437049,0.28917646,2.3400357,0.11445718,-1.2643663,-1.3243833,-0.74446064,1.4061666,2.1296992,-0.41481176,-0.09055987,-0.13575333,0.05183942,1.9902697,-0.85009277,1.6790097,-0.7243975,-0.04224679,0.87198013,-0.4797892,-1.02878,-1.009391,-0.45005375,2.1709116,-0.39069945,-0.098981045,-1.3250629,0.9475478,1.0539184,-0.96637976,0.8716002,-0.3786961,1.1376661,-0.77811426,-1.0790963,-1.593826,0.47714856,0.3857791,-0.8540549,-1.5988297,-0.90620166,0.378213,-0.36872768,0.34923053,1.7335474,-0.8219417,-1.9909741,1.2713677,-0.3865867,0.9948976,-0.535943,0.2066676,0.21698621,1.0090148,-2.6425521,-0.8975202,-0.39632758,-0.48857856,0.47817388,-0.4632396,-1.0103848,-1.3632799,0.91179514,-0.87950766,-1.0735906,0.7504575,-0.58097994,-1.5994041,-1.3194357,1.3532991,-0.8396175,-1.1564224,0.7426233,0.84574044,1.1901194,0.63403594,0.4030003,-0.18007599,2.091466,1.2036788,-0.38064197,-0.41515747,1.0275762,-0.4663681,0.87803847,1.4204819,-0.9517489,-1.0396091,0.9750755,-0.3009706,0.50941175,-0.14975749,-0.2939185,0.30536848,0.5439064,0.38722324,-2.1775582,-0.0033337467,1.6751956,1.4372686,-0.9217967,-0.27690473,-0.20921977,0.5550511,-0.4426211,-0.18831427,-2.2777612,-1.5646276,-0.0027838205,1.3991501,0.519872,-0.54704046,0.26147577,0.016131442,1.6341681,0.27348423,-0.1334289,0.07392339,-0.6687111,1.4060006,-1.1441321,-0.9198874,0.44965667,-0.61846846,0.92700857,1.2212198,0.05437415,1.2753744,-1.9961096,0.5862572,-1.3302273,0.9183864,-0.20853794,-1.5292743,-0.906087,2.3613813,1.0034555,1.3399698,-1.6443971,-0.15435356,0.58409315,-1.6572325,-2.2584405,-1.1765242,0.012231013,-0.25649703,2.0674078,0.23103005,-0.4366405,0.9582879,1.4818491,-1.3687768,0.76484215,0.12986137,1.2722757,0.8591546,1.1004581,-0.035312254,-0.18840736,1.4283934,-0.32408184,-1.8712744,0.5492445,-0.09516816,-1.0077504,-1.9296036,0.23530184,0.26599073,0.40307665,-0.37932292,0.5454841,-0.16694905,0.530126,-0.26580656,0.41994882,-0.6705266,0.5897977,1.1664125,3.0891826,1.0330101,-0.64124507,0.32896096,-0.5975156,0.639495,0.90339714,0.21738112,1.1942024,-0.5823144,-1.8898245,-0.9028539,-1.5460203,-0.3188176,0.67173076,0.88481504,-0.6599525,0.47482368,-1.4495331,-0.19834052,-1.5348036,-1.1985269,-1.1295766,-0.54638016,-0.4698558,1.3178262,-0.8449711,0.058644112,1.831922,1.0170797,-0.8874657,-1.4824822,-0.18655458,-0.533077,0.90895903,-0.14417572,-1.1028813,1.9302161,0.62219775,0.9826195,0.7051394,-1.2074044,-0.64619637,0.28015465,-0.08235557,-0.4974678,-0.16176227,-0.05403302,0.38891944,-0.22367954,-1.9982504,0.5666546,-2.0963106,-0.88849914,0.53333384,-0.6342264,0.6308096,0.74363667,2.6819167,1.77032,-0.36437976,-1.6085039,1.9256277,-0.32214192
ESR1,-0.20263463,-0.78431135,0.4619004,1.0625435,-1.1162367,-0.16731411,1.2034703,1.2002198,0.5956793,0.8911177,-0.48851427,0.23500656,0.9206571,0.34482297,-0.23483972,-0.1979738,-0.4933813,0.78472406,0.10055253,1.0520012,1.17542,0.43476623,1.022884,-1.4473459,-2.007333,-0.517044,-0.76912624,-0.61650765,-1.1149799,1.2829053,-2.270841,-1.8933045,0.81314784,0.53489965,-1.5478662,1.5422918,-0.12164392,0.71353656,0.027669845,0.059727535,0.2896572,0.2800847,0.17108472,-1.1790248,-0.14023487,-2.2509956,-0.18304983,0.5648952,1.8893048,-1.1559925,-1.8847879,-1.0791086,-1.618916,0.27724192,1.7701457,-0.5297032,1.3742048,1.0779363,-0.3924554,-0.8903274,0.76962644,1.7059401,-1.0112042,0.7494306,0.3464332,-1.2465744,0.7372661,-1.1346779,-0.6453558,-0.043647896,1.40292,-0.60268915,-0.30817604,-0.06839011,0.7600367,-2.3941913,0.3734955,-1.1243485,0.70433724,-0.60867864,-0.5538084,0.11954123,0.23488885,-0.22196116,0.12737745,1.463043,-0.6028054,0.7023978,-1.582818,-0.8316965,-0.6967546,-1.3218454,0.77195084,1.6461504,-0.04433075,1.1997653,-0.09894101,-0.033205528,1.1197872,-0.6240686,-0.24251328,-0.5554062,-0.48793796,-0.70387226,-1.4454169,-0.5297513,0.6547913,-1.4579989,-0.6627383,-0.057721093,1.363434,-0.28902864,0.79872817,-0.18445882,-1.166171,0.4802455,-2.5325768,-1.5653143,-0.9488179,-0.4471526,0.22148423,-0.06715566,1.35976,-0.79555076,0.99499595,-0.068477824,-1.1045002,-1.1134984,0.84852046,2.1627626,-0.4309442,-1.1562468,0.64464015,1.2494577,-1.3773359,-0.32643193,-0.7120719,0.16733894,-0.9364525,-2.4495919,0.052700203,0.24487014,0.36608288,0.336199,0.41096053,1.1281666,-1.1849505,-1.1278136,0.80236834,-0.014955288,-1.8386964,-0.07600881,1.0303746,0.9146712,1.2076886,2.1292312,0.6153895,0.91694254,0.9473386,0.04865397,-1.3941728,-0.41284356,-0.12709406,0.046008565,1.959094,2.7729628,0.07940464,-0.14875445,-0.37365443,2.4067035,-1.6408027,2.2899542,-0.0023707957,-0.9673929,0.828599,0.582679,-1.7084851,-0.91659534,1.1522478,1.472125,2.0489852,-1.2042762,1.3750126,1.2613989,-0.4150116,-1.1582092,-2.40185,-0.03814514,0.82604134,-0.68240494,1.5562706,0.6851311,-1.9346673,0.4726375,0.35294876,1.1660783,-0.6723842,-0.036118135,-1.7101518,0.27087423,-0.9617759,-1.2463944,2.1818953,-0.17697307,0.7690334,1.3277494,-0.5710472,-0.8549179,-1.6675296,-0.16970006,1.014234,0.24892603,1.0607831,0.7900334,-0.43308854,-1.2287573,-1.2216475,0.061049134,1.4626412,-0.078865536,-0.14318421,0.47064614,-1.5478883,1.2263716,-1.8314233,0.585366,-1.1276935,0.05904614,1.8923948,1.6962528,1.3578774,-1.0039148,-0.57084394,-0.76600325,1.227253,-1.4202561,0.8441055,0.26794928,1.5837569,1.2122678,-0.45834395,-1.3711069,0.2888428,0.7609492,-1.0798092,0.28487805,2.6089764,-0.3059469,-1.2615597,0.73818046,-1.7809595,0.07070613,-0.24424757,-1.5758419,0.96578807,0.6332361,-1.1573882,0.39739698,-0.29289255,-0.4080532,1.0372353,-0.6398654,-0.26971456,-1.3266567,-0.9000964,0.45501217,-1.849827,-0.08934822,-0.22458301,-0.8383361,1.2273426,-0.490158,-1.3872799,0.6081168,0.84088606,0.054181032,-1.4725186,-1.2927672,0.23484644,1.4507571,0.089845486,-1.2818226,-0.5464683,0.059844404,-1.2941035,-1.496298,1.144269,-1.0577105,-0.03536935,-0.12205684,0.3642174,0.058013722,-0.19267686,-1.2287709,1.0926427,1.3057835,1.9961545,1.6038358,-1.0949918,0.35172904,-1.109471,0.01639396,0.4998894,1.1081091,-1.1404055,0.53392166,-0.26653373,1.2597821,0.04216808,1.3229235,-0.07333775,-1.1623528,-0.7814018,-0.809506,-1.7397864,-0.77527857,1.6417376,0.15516558,1.3340305,1.5965118,-0.21655045,0.66686344,-0.600514,1.3327571,-0.18738016,-1.2100501,-0.08654573,-0.59626687,-1.4890844,0.7326374,1.1528745,1.3968948,-1.3499613,0.5734341,0.7212532,-0.6521177,1.8877836,-0.7461273,1.443606,-0.47209188,1.4788394,0.044950176,0.7063945,-0.26153186,1.4182872,-0.13499025,-1.4015764,1.4398193,1.5051674,1.3451251,0.0149712395,0.93316203,-0.6617916,-0.057123166,-0.83225954,1.3045993,-0.827736,1.3855796,-1.7367542,-0.26233813,0.029807612,-0.111725986,0.35896972,-0.8147551,-0.30648598,0.8406031,-0.20510215,-1.0392777,-0.92643976,0.6407565,-0.87368506,-1.4001992,-1.1037214,1.9352092,-0.5058634,0.2778483,-1.6918079,1.0992236,0.7070188,1.3108622,-0.16852294,-0.84240973,-1.6219615,0.10296647,-1.1990485,1.2310562,0.38593477,-1.2763108,0.20807214,1.4155896,0.3807263,1.4702281,1.9870539,1.7092801,2.2129319,-0.4557544,0.7946206,2.1945658,0.7028359,1.2586852,-0.8885093,0.4058187,-1.3622352,1.1215708,0.6213651,1.0694569,1.0300019,0.0759099,0.9713999,2.1942363,2.1428125,-0.24683191,-0.85798407,-0.973282,-0.6067853,0.55636847,-1.423062,-0.6079523,-0.99275714,-0.39777327,-0.2502352,0.4067291,0.30704355,1.339339,-1.1016815,-1.1416404,1.0041549,-0.64290786,0.55072844,-0.15324529,-0.9728608,-0.9400483,-0.51828885,-0.31197318,0.94053215,-0.53572154,0.7698376,-0.5116573,0.11853278,1.057471,-1.1730223,-1.7263601,1.2137398,-1.1014661,1.4786626,-1.7989706,-0.09146626,-1.3817807,0.22724587,0.36200005,0.83882624,-0.97915477,1.5267136,-2.3499985,1.0680839,1.2235159,1.230508,1.9819801,0.42086253,0.58513874,1.7534565,1.3594211,0.6433567,-0.02022501,0.4462971,0.90504074,-0.6000441,-1.391802,-1.2832111,0.4196152,-0.56489253,-1.5043783,-0.12509333,1.3147026,-0.10547077,0.50728846,-2.3005347,-0.8682092,-0.26025108,-0.68410605,0.4036485,-1.8780826,-0.85690856,0.99334216,0.6451321,0.04276363,-1.7554461,-1.2393152,-0.008639076,-1.0447417,0.5033037,1.9727403,0.03498096,1.2693548,0.07294672,-1.2654622,0.97783977,-0.9029131,0.7971715,-0.7893897,0.33833146,-0.5498328,-1.6862907,1.625322,-1.2834787,-0.35369945,-0.030256052,-0.48566777,-0.11782674,1.3324343,-0.741184,-2.1185474
FASN,-1.0060523,-0.6226846,1.3928401,-0.87267673,0.56785756,1.1064636,-0.8268384,1.3307593,0.52977383,0.31373048,-1.1060858,1.7437859,-0.905764,0.7028486,-2.056164,0.7078006,-0.107933246,-0.23373222,-0.17543282,-0.6601778,1.5943302,0.67047185,-1.1132612,1.3750212,-1.1628119,-1.1905847,-0.5399673,1.1501889,0.40314397,-0.94766694,0.6157164,-0.5294128,-0.042888854,-1.2551382,-0.54417074,-0.337116,-2.7894118,-1.042215,-0.40412372,1.2486453,-0.9297224,-0.7081492,-0.7694177,0.4482873,-0.69809276,0.84585047,-0.84447026,-0.76943284,-0.91444165,-1.8797867,0.98730123,0.06277058,0.8132499,-1.6157566,-1.1102469,-1.3343363,0.61760324,-0.02216005,0.6382615,1.2520663,1.9086174,1.2636253,2.0355988,-0.79405767,1.1688898,1.1043843,0.09132162,-0.5104686,0.64249074,-0.5287135,0.80708206,2.0848167,0.895799,-1.0579194,0.9399155,0.6304462,0.3640316,0.76752317,-0.14695302,1.2666203,-1.7747669,-0.0735731,0.1930231,-1.0611411,0.22478944,1.8329424,0.6807299,0.46999496,0.038520176,-0.9915092,-1.5478191,-1.430014,-0.08785863,1.3400129,0.49702576,-0.6580175,-0.88940567,-0.3279648,-1.2294538,2.1644778,-0.17082965,1.1179168,1.3148245,0.020923546,-0.7974071,-1.1220772,-0.47818622,-0.76725525,-0.5060497,-0.5320495,-1.4825578,1.1323385,-0.19926275,-0.9057366,1.2190601,-0.2431725,-1.2811007,0.66230315,0.14567302,-1.0925168,-1.1922649,1.4385529,-1.3105376,-0.4201459,-1.0311785,-0.8311728,-0.9606126,0.03564492,0.534149,-0.5188063,0.47469178,-1.6614603,0.09130319,1.9923172,-0.20148823,1.2573141,0.19465244,-0.60321826,0.029455442,-0.19698977,0.0016220729,-0.7183316,-1.43219,0.34527355,0.07105884,-0.96486545,-0.063518606,1.306219,1.8476022,-0.9760708,0.52146846,-0.9940403,0.16102389,-0.96876603,1.7964978,-1.8834034,-0.5303198,0.9788008,1.0985278,0.32685614,1.1567483,-0.2977845,0.40437025,-0.8144505,0.19707489,0.55016357,-0.32731363,1.3174763,-1.1515354,0.4604163,-1.7404054,-1.1054304,-1.5305381,-1.5918351,1.1304497,0.76695055,1.1458478,0.6152733,0.004177083,-1.1775044,0.7132942,-1.387708,0.06679797,0.5064909,0.6444706,-0.16155218,-0.8783441,-2.41255,1.1781828,0.006273054,-1.1187568,1.7804434,2.396482,0.8506782,-2.1648128,-1.9024388,-0.59129524,0.5583062,1.2431958,-0.8849604,1.0745583,0.37542716,1.1562315,0.4902028,0.16593574,-0.3181717,-0.32963136,0.5160583,-0.36803004,-1.3768545,1.7470368,0.25810033,-0.17405328,-0.492325,0.6350487,0.80897766,-1.1747563,0.5688086,1.0916182,-1.5368931,-0.33794186,-0.521046,0.3222479,0.9225525,1.4491384,0.6175145,-0.19566838,-1.5983212,-0.70405424,1.7869399,0.08173627,-0.68183446,-0.41979784,0.36391675,-1.0407382,-0.35048613,0.38500357,-0.7172054,1.3792168,0.7795269,-0.62732613,0.05989156,-2.3681736,0.7935075,0.61123466,-0.8962953,0.18226492,1.9388003,-0.38683003,1.0878478,-1.3220478,1.3344408,-2.289102,0.72037905,1.9031793,1.318547,-0.69814336,0.40549412,1.2034178,-0.84925395,-2.6403048,-0.7511689,-1.3767135,-1.496364,1.4347801,0.19766335,1.0803677,-1.9224433,-0.8829429,-0.83281094,0.39137837,0.042142544,-0.630892,0.14966291,0.02484465,0.06524788,0.08972184,-1.3209461,2.7799735,0.23385063,0.3835537,0.76255196,0.88099027,-0.83277553,0.2586467,0.27108565,0.44378638,2.054888,1.8630505,-0.008682424,1.9571395,-0.53475535,-1.4878123,-1.4944128,-0.30049607,1.7669536,1.1010288,-0.09628219,0.6534666,0.27581522,-1.3022618,-0.8858729,-0.45661157,-1.0704149,0.05652384,1.2808942,0.8186411,0.35158476,-0.7659693,0.9106822,0.7502223,-0.15690282,0.346273,1.4795463,0.24549197,0.40501812,0.35275134,1.4192863,-1.3086697,-0.7703501,-0.25557825,-0.5414888,-0.23292446,1.8267344,-1.4275967,0.84318084,1.2243075,1.2729918,0.6646948,-1.2805469,-0.56344444,0.31640574,-1.3042392,0.84214985,1.7316098,0.77373105,1.2046384,-0.53727883,0.83222675,0.026463296,-1.3005224,0.47128266,0.7643754,-0.2861041,-1.6951189,0.2971372,1.9046093,-0.8309368,1.7083169,1.8293421,-0.1958506,-1.8208658,-1.6302441,-0.8683017,1.8414758,0.7330626,-0.7490808,1.1209464,0.057739,-0.40273604,-0.31950137,0.9058111,1.6526198,1.356531,-0.13098364,0.34818566,-1.0374211,-3.381016,1.3827848,-2.5304875,-0.1421707,0.084439576,0.5592381,-0.6555627,0.5119356,-0.69286305,-0.5701451,-0.27895778,-2.1835032,0.6232114,0.63802224,0.72977287,1.2655138,-0.6767478,1.962623,-0.32834688,-0.913853,0.84006006,0.25577965,-0.5026305,-1.1614122,0.68969494,0.11008791,1.2134537,-0.34041113,-0.56636107,2.9542828,1.0841533,0.030370463,1.0836791,-1.1835337,0.04873132,1.6092833,0.6156519,-1.670881,0.15149765,-0.7102954,-0.7615642,1.856842,-1.7789211,1.3652525,0.09125881,-1.5291768,0.73423856,0.35223848,0.73999345,-1.9119563,-2.0004718,1.1619242,1.145809,0.53740454,-0.28084037,-0.29374564,-0.5920617,1.1889651,1.4783846,1.6885092,-2.0060313,0.68676007,-1.7141842,1.2490821,-0.8682038,0.94382846,-0.468635,-0.00016536178,-2.2295787,0.22142307,-0.35353106,-0.388644,-0.23009339,-1.0737042,-1.1394441,-0.34664276,0.042253703,-0.19329002,0.24451923,-2.0740519,1.0851538,0.7674571,0.23553517,0.26323524,-0.32452026,0.58404535,1.101988,-0.73092985,-0.55651,0.2670075,-1.4364492,1.1819787,-0.45502302,0.4521492,1.3510134,0.022512386,-0.3943207,-1.827295,0.6015209,-0.06483967,-1.0999604,-0.19333099,1.1183606,-0.40713662,1.1039319,-0.09564042,-0.004387173,-0.043736257,0.26936182,-1.1596813,-0.51588124,-0.66113174,-1.365042,0.047771834,1.0034093,-1.1290249,2.5311632,1.3191547,0.9162279,0.5453348,-0.118213914,-0.43212557,-0.4105682,0.014233619,-0.27162096,-3.0415642,2.1704218,-0.30095625,-0.8289116,0.046191566,-0.626336,-1.6076887,-1.1565027,0.19434842,1.5606544,0.3771902,-0.11812873,2.062928,-0.70400304,1.1628172,0.7728741,0.49347645,-0.5660292,-1.3217376,-1.1153308
GATA3,0.5094239,1.4790773,0.42324317,-0.501147,-0.7313334,1.1281106,0.053256374,1.7149149,1.0504459,-0.29724926,1.8158753,-0.90347624,0.68664354,-0.6413799,-0.36817208,0.8761762,0.15489197,0.2976306,-1.4728688,-1.6618266,-0.60138595,-0.04170336,-0.26715925,-1.0275998,-1.2562237,-0.28466055,-1.819486,-0.6166231,-0.5890183,-0.04544826,0.2998317,0.6478513,-0.599757,0.48372442,1.6428636,0.8396078,0.81077445,-0.029359113,1.1426167,1.1649888,-0.16244109,0.0140971225,0.428844,0.8576038,0.65711224,-0.6553474,0.1795205,-1.3445897,0.3693972,-0.087593175,-0.35751665,1.21578,-2.3062553,0.75508136,0.04201612,0.11005238,0.8235731,-1.2388123,0.78337085,-1.3130618,1.4639758,1.946282,0.85102123,-1.1325723,0.5046873,-1.2629671,-2.0098898,-1.1883217,-1.5682197,0.5152099,-0.36797673,-0.29025844,-0.11769583,-1.760287,-0.3132681,-0.024511384,2.441473,-1.2422959,-0.4005683,-0.08437285,-1.3820623,1.7318475,-0.99098617,-1.2863632,-0.27203703,0.44949773,-0.022357635,-0.607784,-1.3469591,-2.00051,-1.613998,-1.0438781,-0.069654785,0.19368985,-0.31152928,1.5068233,1.332172,1.0807154,-0.8385235,-1.1087132,1.0037546,-0.99925894,0.84886414,1.428793,0.16935414,2.0641682,0.72010565,-0.34120712,-0.99281734,-0.4703537,-0.94038177,0.52901846,1.1460441,2.2762153,0.24409477,-0.1612104,-2.4543805,-1.2783892,2.1008005,-0.731269,1.4944433,-2.2895393,-1.0569419,0.3845075,-1.8424153,-1.3320202,0.8045046,0.661071,0.39863372,-0.3797845,0.4052802,0.416243,0.106338106,-1.5507908,2.1800706,2.2128608,-1.8329057,0.58151007,1.273767,1.2645758,-0.8059152,-0.7193303,-0.72199374,0.8272906,1.1789953,-0.13142721,-0.07323951,-0.010550919,0.22375003,-0.16810004,-0.79353756,-0.5620323,1.1023917,-0.8495314,-0.9089214,1.5767626,-0.7409675,-0.40266562,0.112140566,0.77932966,0.62754977,2.6486354,-1.5731139,-0.22339535,0.95694095,-0.5963763,0.27172136,-0.66211367,-1.1753367,-0.27210397,0.6341373,0.46094698,-1.6476986,1.465447,0.8935773,-0.42646074,-0.6724722,0.40069595,0.6141507,1.0786397,-0.9456035,0.26845977,0.27574843,0.8444852,0.16798225,-1.1969681,1.2091801,-0.7006424,1.0277432,0.4273935,0.021360382,0.40892196,0.68345743,0.85399413,-1.8256356,-0.109784804,-0.1837064,-1.2565225,-0.85146236,0.03461701,-0.17153327,-3.297615,-1.037722,-0.20463865,-0.9372826,-0.37882555,0.8896141,0.63241166,0.183952,-0.15752314,0.14357121,-0.25766194,0.12677218,0.39515662,1.3034768,0.7177048,1.2017837,-0.91581315,1.0836546,0.22999947,-1.7951512,-0.92053765,-0.26468194,2.1389973,-0.08715847,1.2033552,-0.062890224,-1.2207718,-1.0455174,-0.15974753,2.1199377,1.0952897,-0.32795078,-0.30617115,0.6276456,-1.389832,0.22224998,1.2672756,-2.005088,-1.1391039,-0.6835992,0.6606312,-1.2496847,-3.072044,-0.73502487,0.025633853,0.0014730333,-0.81850207,-1.9771941,-1.2101772,0.34647536,-1.213567,0.15576495,-0.21268637,-0.20872302,-1.2016008,1.132664,-0.709554,0.1511583,3.3985975,0.38122356,0.306063,-2.0335827,0.8846795,-0.6488686,-1.4405807,0.50110036,-1.082956,0.8866295,0.28728062,-0.34898046,-0.5486862,1.4685589,1.8754101,-1.0773718,-0.10899577,2.2002974,0.22636855,1.4793713,0.23684768,0.13795422,1.5786805,-0.804134,-0.8121484,-0.38996798,0.44783238,-0.31925938,0.21181248,0.7241805,1.50258,1.2530156,0.103568584,0.26109713,0.71800613,-2.0661416,0.31510904,-1.5388279,-2.0101686,0.26633152,-0.9852522,0.63740224,-1.2698985,0.22697124,0.52492446,-0.3128434,-2.4358115,0.27661967,-1.6581405,0.19694258,-1.6991187,-2.0777626,-1.1828959,-0.27072057,-0.44060147,-0.70603377,-0.43275303,-1.2086598,-1.6469774,1.4811112,1.152545,1.7929478,-1.736877,0.2804628,-0.55253106,0.21144703,-0.03491644,0.11415474,-0.336703,-0.63797265,1.1842736,1.4227916,-0.08809886,-0.2643875,0.09828259,0.6259308,-2.156943,-0.70031726,0.84514666,-0.51440233,0.4817195,1.5436743,-0.59784627,0.042932205,-1.5183843,0.44246927,0.37888378,1.5907156,1.5270042,0.23919488,1.5149542,0.9329099,-0.4407607,-0.6928881,-0.61363643,-0.4162958,1.4043885,0.41561854,-1.1496668,0.14136136,-1.18316,1.0642499,1.6860633,-0.78880423,0.5720204,0.8187832,0.25158882,1.3505387,1.5782365,0.32147002,0.9451433,-0.8106304,-0.39383808,-0.13644382,-0.5826675,0.040359776,-0.57962155,-1.538423,0.40995663,-0.21406686,0.17189884,0.7104584,-0.12807702,0.27489176,0.31775355,1.5744587,0.52236813,0.6319208,0.47481206,1.295085,-1.607492,2.273266,-0.6430902,-0.42414513,1.223294,0.20924316,-2.8979545,0.23487666,1.203145,-0.8602505,0.5800303,-0.41801682,-0.10407221,1.5323977,-0.2700225,1.353378,1.6596919,0.22790585,1.5248009,-0.4370396,1.6913106,-1.1769305,1.348895,0.6113039,-1.5575405,-0.7275678,-2.2556875,-0.88188976,-1.428285,-0.82959354,0.046393838,-0.61028916,1.3511376,2.6103837,-0.9176993,0.61767375,-0.2651243,1.8989666,1.1032205,0.64799976,2.095697,1.1513251,0.550726,0.77032876,-1.2078387,0.5464214,1.153474,-1.5459027,-0.14050372,-0.87563723,-0.17280914,-0.08634083,0.81166196,0.09336707,1.3588341,0.19437082,0.025858525,-0.16763057,-2.6747863,-0.66766536,-2.3325167,-0.8851868,-0.06981675,-0.21108466,-1.7682751,0.04515045,-0.9543502,1.9919972,-0.23006527,1.2567167,-0.89466316,0.67135656,-1.8635153,1.5449214,-0.57231027,0.93422425,0.043292273,-0.32461247,-0.26061845,0.55584574,-0.19440359,1.9739734,1.0738516,-1.6785511,0.20695008,0.99049664,-1.4414667,-1.4167489,-0.43697694,1.0146464,0.5769393,-0.008964593,-0.58371,0.5312243,1.4789472,-1.279311,-0.038488716,1.2093691,1.8300762,-0.5854902,-1.5670335,1.675294,0.320663,0.5949291,-0.13955826,-0.14760882,0.7624831,-1.1714903,2.3148735,-0.09849693,-0.9288303,1.4115332,-0.83513045,0.09377441,-2.344294,-0.46000114,-0.72967726,0.23714949,1.7174395,1.3726392,-1.1843457,0.87459576,-0.1480982
