,dim_0,dim_1,dim_2,dim_3,dim_4,dim_5,dim_6,dim_7,dim_8,dim_9,dim_10,dim_11,dim_12,dim_13,dim_14,dim_15,dim_16,dim_17,dim_18,dim_19,dim_20,dim_21,dim_22,dim_23,dim_24,dim_25,dim_26,dim_27,dim_28,dim_29,dim_30,dim_31,dim_32,dim_33,dim_34,dim_35,dim_36,dim_37,dim_38,dim_39,dim_40,dim_41,dim_42,dim_43,dim_44,dim_45,dim_46,dim_47,dim_48,dim_49,dim_50,dim_51,dim_52,dim_53,dim_54,dim_55,dim_56,dim_57,dim_58,dim_59,dim_60,dim_61,dim_62,dim_63,dim_64,dim_65,dim_66,dim_67,dim_68,dim_69,dim_70,dim_71,dim_72,dim_73,dim_74,dim_75,dim_76,dim_77,dim_78,dim_79,dim_80,dim_81,dim_82,dim_83,dim_84,dim_85,dim_86,dim_87,dim_88,dim_89,dim_90,dim_91,dim_92,dim_93,dim_94,dim_95,dim_96,dim_97,dim_98,dim_99,dim_100,dim_101,dim_102,dim_103,dim_104,dim_105,dim_106,dim_107,dim_108,dim_109,dim_110,dim_111,dim_112,dim_113,dim_114,dim_115,dim_116,dim_117,dim_118,dim_119,dim_120,dim_121,dim_122,dim_123,dim_124,dim_125,dim_126,dim_127,dim_128,dim_129,dim_130,dim_131,dim_132,dim_133,dim_134,dim_135,dim_136,dim_137,dim_138,dim_139,dim_140,dim_141,dim_142,dim_143,dim_144,dim_145,dim_146,dim_147,dim_148,dim_149,dim_150,dim_151,dim_152,dim_153,dim_154,dim_155,dim_156,dim_157,dim_158,dim_159,dim_160,dim_161,dim_162,dim_163,dim_164,dim_165,dim_166,dim_167,dim_168,dim_169,dim_170,dim_171,dim_172,dim_173,dim_174,dim_175,dim_176,dim_177,dim_178,dim_179,dim_180,dim_181,dim_182,dim_183,dim_184,dim_185,dim_186,dim_187,dim_188,dim_189,dim_190,dim_191,dim_192,dim_193,dim_194,dim_195,dim_196,dim_197,dim_198,dim_199,dim_200,dim_201,dim_202,dim_203,dim_204,dim_205,dim_206,dim_207,dim_208,dim_209,dim_210,dim_211,dim_212,dim_213,dim_214,dim_215,dim_216,dim_217,dim_218,dim_219,dim_220,dim_221,dim_222,dim_223,dim_224,dim_225,dim_226,dim_227,dim_228,dim_229,dim_230,dim_231,dim_232,dim_233,dim_234,dim_235,dim_236,dim_237,dim_238,dim_239,dim_240,dim_241,dim_242,dim_243,dim_244,dim_245,dim_246,dim_247,dim_248,dim_249,dim_250,dim_251,dim_252,dim_253,dim_254,dim_255,dim_256,dim_257,dim_258,dim_259,dim_260,dim_261,dim_262,dim_263,dim_264,dim_265,dim_266,dim_267,dim_268,dim_269,dim_270,dim_271,dim_272,dim_273,dim_274,dim_275,dim_276,dim_277,dim_278,dim_279,dim_280,dim_281,dim_282,dim_283,dim_284,dim_285,dim_286,dim_287,dim_288,dim_289,dim_290,dim_291,dim_292,dim_293,dim_294,dim_295,dim_296,dim_297,dim_298,dim_299,dim_300,dim_301,dim_302,dim_303,dim_304,dim_305,dim_306,dim_307,dim_308,dim_309,dim_310,dim_311,dim_312,dim_313,dim_314,dim_315,dim_316,dim_317,dim_318,dim_319,dim_320,dim_321,dim_322,dim_323,dim_324,dim_325,dim_326,dim_327,dim_328,dim_329,dim_330,dim_331,dim_332,dim_333,dim_334,dim_335,dim_336,dim_337,dim_338,dim_339,dim_340,dim_341,dim_342,dim_343,dim_344,dim_345,dim_346,dim_347,dim_348,dim_349,dim_350,dim_351,dim_352,dim_353,dim_354,dim_355,dim_356,dim_357,dim_358,dim_359,dim_360,dim_361,dim_362,dim_363,dim_364,dim_365,dim_366,dim_367,dim_368,dim_369,dim_370,dim_371,dim_372,dim_373,dim_374,dim_375,dim_376,dim_377,dim_378,dim_379,dim_380,dim_381,dim_382,dim_383,dim_384,dim_385,dim_386,dim_387,dim_388,dim_389,dim_390,dim_391,dim_392,dim_393,dim_394,dim_395,dim_396,dim_397,dim_398,dim_399,dim_400,dim_401,dim_402,dim_403,dim_404,dim_405,dim_406,dim_407,dim_408,dim_409,dim_410,dim_411,dim_412,dim_413,dim_414,dim_415,dim_416,dim_417,dim_418,dim_419,dim_420,dim_421,dim_422,dim_423,dim_424,dim_425,dim_426,dim_427,dim_428,dim_429,dim_430,dim_431,dim_432,dim_433,dim_434,dim_435,dim_436,dim_437,dim_438,dim_439,dim_440,dim_441,dim_442,dim_443,dim_444,dim_445,dim_446,dim_447,dim_448,dim_449,dim_450,dim_451,dim_452,dim_453,dim_454,dim_455,dim_456,dim_457,dim_458,dim_459,dim_460,dim_461,dim_462,dim_463,dim_464,dim_465,dim_466,dim_467,dim_468,dim_469,dim_470,dim_471,dim_472,dim_473,dim_474,dim_475,dim_476,dim_477,dim_478,dim_479,dim_480,dim_481,dim_482,dim_483,dim_484,dim_485,dim_486,dim_487,dim_488,dim_489,dim_490,dim_491,dim_492,dim_493,dim_494,dim_495,dim_496,dim_497,dim_498,dim_499,dim_500,dim_501,dim_502,dim_503,dim_504,dim_505,dim_506,dim_507,dim_508,dim_509,dim_510,dim_511
ACER1,-0.33996487,1.0628588,1.1911423,0.7627676,-1.4132919,-1.6535116,0.05785189,1.1069599,-0.3620006,0.66690683,-1.3710837,2.0099282,-0.684468,0.87092257,-1.3749075,1.4749953,1.388925,0.7600823,-0.35944104,-0.29448783,0.93584955,1.7269644,-1.6257002,-0.46216935,-1.1253726,1.1080661,-1.2873293,-1.0078454,1.1430002,1.2878007,-0.49883443,-1.2619551,-1.4961925,0.4102984,-1.8530806,-0.08991608,0.42782843,-1.1439095,1.1266556,-1.7719334,1.148765,0.07900747,-1.6454322,-1.0549766,0.95483106,-1.2648127,-0.5351853,0.81317794,-1.4643934,-0.9438556,-1.6339053,0.86769354,1.4165611,-0.4436911,0.99336904,-1.1701406,-0.21298537,-1.1275818,-0.60938025,0.95017064,1.4913335,-0.8712321,0.028149718,-1.66757,0.48125368,0.21070348,0.72424453,0.2562344,-0.7661612,-0.2235775,-0.75405264,0.4428726,0.2592571,0.4422088,-0.07522516,-2.0426874,-1.3095253,1.2246491,-0.11654277,0.3921976,-0.58928764,-1.0622841,-1.4250863,2.0014222,-0.058095932,0.7856331,0.94534254,-0.7866696,-0.10583178,0.21528006,0.0040885396,-2.431229,0.806288,-0.93800455,0.9789652,-0.39373612,-1.3147057,-1.7678124,-2.3530455,1.0754544,1.3894734,-1.0121951,-0.029831605,-1.1737742,0.56699085,0.93236464,-1.7621938,-0.4856045,1.8620777,-0.18087684,0.65067,-1.7106518,0.54562515,0.33141676,0.31566006,-0.09015526,-0.61350423,-1.9293257,-0.43184,0.9476328,-1.6547292,-1.2392516,-1.8168889,0.96986747,0.2673936,0.4138872,0.16351655,0.18440962,1.9500289,-0.43066686,-1.5149875,-1.599144,0.52164006,-0.6858879,-0.64685726,1.7882487,-0.28955293,-0.13709071,1.9734753,-0.68466085,1.1410029,-0.6070055,1.1904848,0.091294535,-0.97915554,-1.3694724,1.5093863,1.5605712,-0.16309898,0.98376656,-0.29497188,-1.875929,-1.0415498,0.56192034,-1.2252963,-0.15475287,-1.341253,0.44455507,0.25582033,-0.7565279,0.026459968,0.7693163,-1.4474534,0.43662587,-0.5111765,0.4307353,1.2044127,0.37377626,-0.3807059,2.1916375,-1.199311,0.36021292,0.1278093,0.07648164,0.85215634,-0.048704047,1.3429997,0.86420316,0.3803651,0.5301229,0.56201404,0.36024442,-0.5855951,-0.49358362,-0.55025846,1.3491501,-0.34053338,-1.9153929,-1.3335525,1.7389541,0.7819984,-1.6805128,-1.4086921,-1.3616049,-0.8029832,0.076967314,-0.07731604,-0.061871793,0.5137285,-1.0339249,1.1102127,-1.1461116,1.4888487,-0.94498855,0.09181199,-0.09215167,-0.37406662,1.9648677,0.019063536,1.1463108,-0.05714544,0.28838825,-0.30958813,0.01558159,1.2429538,-0.8742957,-0.14953576,-0.37460774,0.7987134,1.9428777,0.917506,-1.8890973,0.1461008,0.20660546,0.78229016,0.4758391,-0.74573815,-1.3354976,0.3570675,2.332485,-0.024486275,-0.17624943,-1.5541393,-1.264124,0.7326478,-1.5794684,1.1158544,-0.30353153,-0.18187311,-0.028963454,0.37748376,0.9185555,0.112674035,-2.927323,-1.2216462,-0.92066133,-1.3384758,-0.33333436,2.079952,1.9132912,-0.9479542,-0.28866786,0.90029925,-0.47053152,-0.71918935,0.30419144,-1.4684125,1.4881299,0.9388196,0.17773792,-0.408855,-1.5077074,0.06617291,-0.084355615,1.7290229,0.6166508,-0.36596665,-0.94056606,0.35633025,-1.6572006,0.22304878,2.005727,1.2004755,0.60228056,-0.018036345,0.52936685,0.14358029,-0.7668314,0.43307808,-0.3894921,-0.9751123,-1.1680964,0.41890118,0.31237587,-1.3728726,-0.054074287,-1.2999444,-0.22550286,0.7607179,-0.14792201,-0.38715324,0.2861861,-0.7980628,-1.4648588,-0.46364883,-1.0101752,1.3894956,-0.39723107,-0.97410464,0.44739854,-1.3985089,0.008029025,-0.5340975,-0.3453772,-0.8916972,1.4459373,0.5947566,0.53530645,-0.93525374,-0.44871697,0.63598615,-0.13272117,-0.061146177,1.0828921,1.5169443,-0.7170749,-0.6179544,0.9167566,2.5388484,1.0790253,1.9026353,0.3800254,0.34029555,1.4614185,1.2883966,1.2978467,-0.25822875,-1.6768533,1.615804,1.1105962,0.6955414,0.2023389,1.0481629,0.89000404,1.308331,-0.4270439,0.78562623,0.22054118,-0.6063014,-1.4201405,-0.1410315,-0.95009565,-0.5455058,0.68053687,1.2208792,-1.0833714,-1.2553561,0.9677879,1.0185143,-2.1471767,0.65110105,-1.4184031,-0.48692122,-0.5751513,1.3060584,0.0044957846,0.18928497,-0.09332074,0.40826622,-0.6426522,0.7737979,2.5031424,1.1129845,1.4227768,1.8174862,-1.4463016,0.124840125,-0.7076448,0.20684521,-0.7124384,-0.8364313,-0.1631865,-0.5698119,1.5314308,-2.7717733,-0.9581301,0.9980847,1.295926,-1.9272529,1.0474713,0.058825616,-2.2817492,-2.0723832,-0.3567923,-0.2851487,0.6368776,0.46284762,-0.25252032,0.12681524,-0.48384112,1.1287287,0.50023675,-0.5474862,0.33973023,2.159326,0.1617175,-0.792747,1.4161525,-0.46599683,-1.4663447,-0.31588265,1.7210586,-0.7629095,-0.65703267,1.8417674,0.26140186,0.76431507,-0.39047444,0.20000872,0.75251025,-0.922188,-1.0059849,0.54866475,-0.34622738,0.53924733,0.57892746,1.3690265,0.21279238,-1.9030637,0.42010784,1.2895474,1.1123005,-0.6430572,1.3796743,0.5660192,-0.31504154,0.5748115,0.44236186,0.9174328,-0.31053582,-0.98805285,0.9898599,-0.640202,0.5638717,-1.6445715,0.9869541,-0.056613453,0.3633501,1.402844,-0.15294032,2.685513,-0.7881219,0.4346803,-1.0008899,-0.848466,1.7735009,-2.2959373,0.12411135,0.6374028,1.1932415,-0.060743235,-0.25291103,-0.69545335,-1.7938093,-0.46746057,-1.5847094,-0.4896272,-0.5331012,0.71672267,-2.5491529,-1.0231398,1.5999272,-1.0006365,0.5469026,-0.01321275,-1.6948376,-0.07498606,-0.7618295,-0.71625644,0.21726145,-0.040010337,-0.8618665,0.4904487,-1.0941253,1.6110215,1.1899325,0.018543892,0.72930324,1.1176434,-0.16738513,0.9341262,-1.3150398,-2.0200193,-0.019929428,0.14981522,-0.5821988,0.8179507,-0.86344683,2.2010782,-0.15591377,1.4476931,1.9251224,-0.49187198,-1.0903596,-0.58719516,-0.03713541,-0.5975053,1.1144103,1.5451201,-1.273982,1.1846926,0.6262701,0.8734335,1.833976,-1.3161752,0.82795984,1.8882561,0.7097448,2.4919643,0.5647836,1.8438565,-2.0825958
AHNAK2,-1.9190862,-1.0876342,-0.50653255,1.0128596,-1.4598619,-1.5537218,-0.33930597,1.6047374,-0.50014067,0.67838466,-1.0662589,0.5040745,-0.39602453,-1.3659502,-1.1519636,-0.7195395,-0.15178058,-2.4032793,-0.38514456,0.9094646,0.5341095,1.5827292,1.4123862,-0.20286608,-1.1864693,1.3132803,-0.7814456,-1.1983893,1.557152,-0.1431021,-1.2247938,-0.650834,0.26730156,0.2438483,1.5050347,-1.128644,1.0532659,0.09709691,-0.31508568,-1.1923275,0.8379847,1.5021248,0.90253484,1.0809368,1.0291214,-1.1903744,-0.67266774,0.9883189,2.9827013,0.12417481,-1.0014714,-0.65909076,-1.5935668,-0.21665972,-0.7251353,-0.8149467,-0.955805,0.4751038,1.3616036,-1.5221812,1.2420228,-0.07182376,0.82376385,0.30934253,-0.043203905,0.75780916,-0.17257102,0.5274907,1.3063947,0.9960749,-0.6058337,-0.34675068,-0.57694113,-1.3554019,0.95146716,-1.16156,-0.29523498,1.1725005,0.12338037,0.33698165,-0.7724676,-0.53654075,1.2195568,-0.6589285,-1.0430502,-0.027411323,-3.009145,0.3680241,-0.71899277,-2.2958229,-0.30182397,-1.8625152,1.088118,0.4371726,-0.08792,0.31945127,-1.5712898,0.38281253,-0.5703967,0.5664997,-1.375784,-0.3887958,2.14311,1.8250606,-0.9196701,1.3891951,1.3750113,-0.58057046,0.7986031,0.81015605,-0.20131738,-1.4245056,-0.545164,-0.113039955,-0.51900786,0.5479002,2.39852,0.5311965,0.92031103,-0.8437221,-0.37328038,-0.7668829,-1.5320199,0.41580766,-0.8282076,-0.10553032,1.0300595,1.1609424,0.8700865,0.23211806,-0.7686981,-1.2159612,-1.0454754,0.47786352,-2.2546854,-0.71640486,-1.2262033,-0.20917678,0.04698442,0.583601,2.4200017,0.62758803,0.19026743,-0.122137204,0.14913279,2.1104102,0.95875543,1.4539632,0.31034386,-0.48939994,0.5542154,0.45161986,-0.88432056,-1.3278071,1.3045559,-0.112269305,-0.58461785,-0.9689053,-0.8589755,-1.3353893,1.3951101,1.2124413,1.2295549,1.9468087,1.276965,-0.15281825,1.9703546,0.57321805,-0.3224681,-1.6233648,-1.2384614,1.2635454,-0.13546814,0.4592512,1.2003225,-0.3354612,1.714643,1.4878548,0.97875905,0.5356457,1.2917786,0.36104488,0.37091863,1.4539223,0.46896216,0.57024485,-1.0672895,-0.33852193,-1.1515787,0.25648525,0.33650777,-1.3473282,-0.69084793,-0.024681251,-0.30807325,-1.8473018,-1.5484827,0.8955804,-1.7855608,0.54219395,0.36934233,0.8649582,-1.1240951,0.23993985,-1.2555361,1.5115029,0.8635701,0.50657624,-1.6739203,-0.92872196,-0.08292197,0.7428024,-0.665997,0.62630934,-0.11339002,1.0306948,-1.279814,-0.10886012,-0.24885179,1.0094291,1.9836591,-1.9289373,0.17074771,1.4511789,-1.2901564,0.30616695,1.6283395,-0.060686417,0.8061258,1.4113572,1.0730687,-0.26020753,-0.42749652,1.4151814,-1.3999288,1.591177,-0.71121454,-0.19907889,-1.3086095,-0.09811956,-1.0645521,0.04821138,-1.8080955,-1.2627528,1.2644691,-0.949906,-1.3151233,-1.0152533,0.8874985,0.3478778,0.4585467,0.67296827,0.21541919,-0.7583868,0.23635198,0.6083354,-0.071279794,0.746693,0.33127424,2.758608,1.2776744,-0.608578,-1.2554924,-1.725253,-1.1600655,0.5921532,1.7926427,0.25382024,0.13383839,-1.8761835,2.086903,-0.47014394,0.50733256,-0.79123527,-2.3934183,-0.25946888,-0.7419497,0.27341273,-0.8582959,1.2961607,0.09085673,0.83396167,-2.1208313,1.8749605,1.0720513,0.8082908,-0.014649573,-1.3411835,-0.3630467,0.88957804,-0.06996498,-1.0570483,-0.027080266,1.5836695,-1.4244993,0.40780434,-0.68305385,-0.32100043,-0.7138763,0.0822086,1.0242325,0.045880463,0.78191066,-0.83192337,0.9717184,0.9169256,-0.16253686,-0.010848237,-0.9048246,-1.6528338,-0.7698328,-0.65181094,1.5856544,-0.80614936,1.5065063,0.0407586,-0.039392788,-1.8129872,0.40567622,-1.1456746,1.1552545,0.418389,-1.4481589,-0.91684633,-1.5849651,-0.8355757,-0.6095016,-0.27747038,0.48545188,-0.74604356,-0.3063695,1.7670308,1.4993914,-0.87779546,-2.6023052,-1.0521722,0.70974743,-0.4303253,-0.9905962,-0.4090957,0.2458089,-1.4920622,1.655823,1.0481684,0.9856861,0.11759116,-0.10533975,-0.7132295,0.91720855,0.29672483,0.72334903,-0.96039695,1.5075008,0.8784798,-1.735168,0.9245456,1.0080973,1.2245944,-0.8885908,0.44694436,0.24906035,1.9502975,0.5230335,-0.7302118,-0.09263368,-1.421281,-2.444571,0.34246808,2.172517,-1.4088908,-0.6381802,1.052439,0.36080453,-0.29817227,0.24977493,-0.15545094,-1.0703799,0.7711127,-0.404241,-0.011613585,-0.48512873,0.5094929,0.78485596,-0.7063513,-0.28140154,1.6482372,1.0019912,-0.07974426,0.96483606,-0.37194327,-1.5994686,0.78981936,1.3689044,0.90348804,2.1275876,0.80362743,1.2370749,-0.35474646,0.3910832,-0.2931575,0.31861284,-0.7792845,1.5056251,-0.978445,-0.10756525,1.6455133,-0.02431035,0.81473315,-1.1133059,1.1935424,-0.90494543,-0.6027707,-0.21405777,-0.33172947,-1.408821,-1.1627842,0.93575263,0.71991163,-1.6435492,-1.165456,1.2851537,-0.37084866,0.4337239,1.313294,-1.2634108,-0.4185012,-0.7073932,1.226704,-0.16595611,-0.7663732,1.5313039,0.23025247,0.975881,-0.92882603,-0.05636654,-0.74699056,-0.38975322,-2.1401243,-1.4709514,0.6768381,-1.1641209,0.48628768,-1.2222682,0.09901906,0.25127786,0.099616855,0.090942085,-0.37778577,-0.8485419,0.8960398,-1.2867422,-0.45074642,-0.7393785,1.0683547,-0.6271655,-1.6250368,1.2841309,1.4979415,0.68936884,0.22580336,0.70681214,-0.010890588,1.0584935,0.7620647,-1.1267124,-0.5923107,-1.4902301,0.9489651,-0.46662235,-1.415236,-0.34776607,1.3899755,0.4946457,-0.8128534,0.32985693,1.1450088,-2.1371434,0.49527156,1.7244925,-1.7533783,-1.6191055,1.2760216,-0.41751269,2.8000646,1.8412473,-0.293173,1.1761234,0.80397624,1.4386076,1.6937869,-1.1444746,2.2639086,0.96465516,-1.1675084,1.3604244,-1.3279979,-0.9391256,0.10977063,-0.037767913,-1.5833521,-0.9134248,-1.577699,-1.1747127,0.24129912,-1.4775417,-0.094248794,-0.816082,1.3398854,0.77990115,-0.005154734,1.6173965,-1.5014337
AQP3,-1.5008448,0.82032776,-0.14548661,-0.23126993,0.5697578,-0.4188279,-0.7933209,0.36682436,-0.14685468,0.7905301,1.590391,-1.1569712,0.022320257,-1.0469658,-1.7619842,-0.2778376,-0.3196943,-0.75009996,-1.7625555,0.67318773,-0.22789164,1.3909469,0.16905172,0.6596879,-0.645527,1.1125221,0.3043371,-0.43959245,-1.0558989,-1.0744758,0.5129449,3.07655,0.2754992,0.48080415,-0.95968646,0.47222623,0.49154282,-0.18393092,-1.7271477,1.7450045,-0.3531644,1.673291,-0.13435324,0.42747492,1.120061,-1.1113164,-0.31149527,1.6561772,0.6244716,1.43732,-0.63540137,0.13005939,0.47289595,2.431299,1.1243598,-0.3702506,-0.2378082,-0.24844798,0.09263707,-0.6215998,-0.6037307,2.190508,0.29624754,-0.66959965,0.39067864,0.8427369,0.5634776,-0.70464504,-1.6678668,2.4456239,-2.0633333,1.0111119,0.020025756,0.21267451,0.2022122,-0.10229342,1.5627723,-1.6331803,-0.12088499,0.30585897,-0.14522019,-1.3800476,0.11218814,1.2529465,0.41105482,0.628452,-0.30155078,0.18012273,-0.9812187,0.061555546,-0.22256702,-1.2799833,0.56372374,-2.4122581,1.6003838,1.9644191,-0.6380745,0.3040718,0.042241268,0.53522116,-1.6404263,-1.4680116,0.84192926,-0.54420286,0.36527258,-1.1229787,2.369167,0.7394664,-0.21981195,-0.33737478,0.63956803,1.0131209,0.24005504,-0.7166333,-0.5306391,-0.4301201,-2.1817307,0.29092506,0.06161493,-0.27140504,0.30895492,-1.0624619,-0.18601029,1.162355,-1.1886833,-0.7374933,-0.3624407,0.8385982,0.10601654,1.9978075,0.5061456,0.5349059,0.3374048,1.2768067,2.04022,0.43809253,-0.48238954,1.2320716,-0.8552494,-0.21356687,0.7501217,-0.9546201,0.04312342,-1.7937152,0.98068494,0.65699685,-1.3630425,-1.6403102,2.2446792,-0.08297973,-1.3854411,0.8863259,1.5581256,-0.5668736,-0.43757573,-0.94202566,-0.32198974,-1.2294091,0.22801238,-0.26720154,0.36703777,-0.119812556,-1.848768,-0.23522158,-0.8710183,0.3271209,-0.78444785,0.27927068,1.6736666,0.3314353,-0.9805345,-0.759424,-1.3943573,0.3701698,0.4182823,2.411619,-0.02260139,-2.145099,-0.8087762,-1.5019956,1.5886257,-0.4154048,-0.9018583,-1.6121447,-1.1340344,-0.053567402,-1.2446316,-0.007925027,-0.8239851,1.1376685,1.6853714,1.3026617,1.208846,-1.4249915,-0.1718857,1.1303806,0.41272345,0.37833402,-0.73619795,-1.2388315,-0.22725211,0.31826183,0.12655294,-1.5475177,1.2104945,1.7458272,0.21579207,1.5372822,-1.1023244,1.3757389,-1.4107864,-0.7709648,-1.6118457,1.0416958,0.14736636,-0.059251584,-2.0781312,-1.3729913,-0.67628795,-0.55006003,-0.029303946,0.6005901,-2.3106248,-0.42045492,-0.18455315,-0.47859156,2.1117015,2.0437663,-1.6109151,0.69642234,-1.3556246,0.0950308,-0.09352457,-0.61146617,-2.1619732,-0.45937338,0.024927419,0.54455453,-0.12572876,-0.6155774,-1.8240564,-0.09232398,-2.2870557,0.047373693,-2.569153,-0.59525245,0.25043404,-0.06457478,-2.6250389,-0.40802565,0.30811507,-1.4065915,-0.50178057,-2.4532712,0.7362346,0.41884854,2.1872938,1.2029554,0.7146988,3.382711,0.11379142,-1.958854,-2.401352,1.5121979,-0.06472675,-0.5447602,-1.2182603,0.16797201,1.8776352,-1.6163458,-0.31584132,-0.26560757,0.8043151,1.0869192,0.22264434,0.22325128,2.1882029,1.8665116,0.63328063,-0.047453385,0.22841352,1.1144471,0.40194654,-0.5671212,-0.50552464,-1.5079483,1.0896603,2.0493097,0.60721153,-1.9487165,-0.45968547,0.2615433,0.51054704,1.9164681,-0.9395029,0.60172033,-1.2651565,-0.35879755,2.1730964,2.1728287,0.33933255,0.012787805,0.43119937,-0.4396696,-0.797203,0.54753757,0.33946455,0.358506,0.0482884,-1.0197977,-0.2691884,0.48559746,0.51664066,2.3464293,0.16546284,0.79132044,2.8592749,-0.69674003,-0.880183,1.0689131,1.2085437,-1.8706559,-0.83660173,0.23757094,0.2119378,-0.2841753,-1.0339584,-0.5617615,-0.099191815,0.6590432,0.6136609,1.3927703,-1.6098944,1.1510773,-0.14975555,-1.0363324,0.8252048,-0.1398342,-1.3281568,1.2000934,0.26998502,-1.0028611,0.33526784,-0.94418675,0.02682656,-0.34759486,1.1837736,0.75976837,0.521484,-0.64769465,0.33036909,2.0280306,-0.5617858,0.13956387,0.7173228,-1.3214406,-2.285712,-0.29599214,-0.48383504,0.30088314,0.29143685,-1.5652744,1.3540444,1.020184,1.5897799,0.4267972,-0.18714024,-1.0984367,-0.79071474,0.6085244,-1.1596215,-0.21709482,-1.3034533,-0.69578713,1.0473853,-0.64384973,-1.4651108,1.067442,-1.3010961,-0.60130596,-0.582585,0.36265528,-0.46538478,-0.6892978,0.055209856,0.70690274,0.41452536,0.0018245532,-1.3025684,-0.7787897,-0.13223878,-0.51789594,-0.74796647,0.5505578,0.35306674,-1.570798,-0.2275905,0.1996178,-0.4779516,-0.09889057,-0.37512323,2.1227527,0.4159942,0.40781724,-1.6880703,-0.8539563,-1.0485085,-1.1668072,-0.3036711,0.51260537,-0.087027825,-1.4602123,0.33142576,-0.31579658,-0.8826418,1.6704658,-0.77845716,1.4002992,0.09428063,1.2954829,-0.29106435,1.1444131,0.9675183,0.8842089,0.08593292,-0.62000674,-0.40860718,1.0700607,-0.52488166,1.0395128,1.4046015,-1.3878508,1.7140051,-2.0427558,1.0957808,-0.73775804,-0.047067497,-1.2136459,-0.8118777,0.30110365,-0.68331295,0.106417514,0.94676363,1.0084717,0.22780216,-0.9291318,0.96179193,-2.2411747,0.2442947,-0.65186304,0.6171263,-1.0383499,-0.86142755,0.07782436,1.3490149,1.1667924,1.2270424,2.5212274,-0.8878498,0.8080116,0.65577286,-0.72684026,-2.0403378,0.67842734,-0.32944727,2.125768,0.378651,-0.6326609,-0.15305728,0.45992014,0.70028347,-0.3131597,-0.6840084,-1.5681263,-0.28943726,-1.5704567,-1.0041584,-0.42964873,0.09052841,0.63214386,0.7398524,3.0328667,-0.14375897,2.0009143,1.9007674,-1.9524155,-0.085047446,-0.99094105,0.6710744,0.18836187,0.7453315,-1.1309341,1.749461,0.44115204,0.07933848,-0.29733515,0.9843758,-0.1503774,0.5548463,-0.61295766,0.71864986,-1.0275224,-0.5879398,1.5927795,3.3020468,-1.821411,0.6168029,0.57345605,0.48388505,-0.22514836,-0.3791072,-0.30055997
BIRC3,-0.56311166,-0.7284916,-0.77886933,-0.45889577,0.90672356,-2.2725759,-0.19755398,0.95571315,0.7932468,-1.0789797,1.5336388,0.21563801,0.52005357,-0.71063673,-0.54656166,0.9638602,-1.6192262,1.9313464,-0.28993052,0.7206137,-1.2573587,-1.5027279,0.93484163,-0.45556146,0.31791782,1.358394,-0.31820086,0.6681443,2.0146396,0.07648189,-0.24998547,1.4530823,-1.611963,1.405613,1.2148947,-1.7207451,1.1048042,0.44849497,0.4306734,-0.030006163,-1.8919566,1.6369207,0.49035707,0.01871036,1.5684608,-1.582319,1.2015352,-0.03668911,2.5376678,0.23292619,-0.91618186,-0.22493686,-1.2879578,1.3577281,-0.1382368,-0.14683136,0.39757073,0.39598694,-0.2713331,1.2234491,-1.0265695,2.1878593,-0.19745518,-0.99363095,-0.4427737,-0.7828023,-0.7349895,-1.4592884,-2.0474925,0.8988035,0.9870033,1.1293737,-0.28885382,0.21980624,-0.17694235,-1.950666,0.5771057,0.15744723,1.8135741,-0.5268237,0.08173709,1.3465568,0.57006407,-0.40362903,-1.9165041,2.7626503,-0.1214358,-1.0207582,-0.5248235,-0.20947334,-2.027747,-1.9437903,-0.6050771,0.18284518,0.17508967,0.2362066,1.6323352,-2.246851,-1.0216416,1.2344652,-1.6686431,-1.6418116,0.4303857,-1.5803341,-0.37941903,0.9585336,0.6059405,-0.047344428,0.1943137,-0.03377889,-0.62951183,-1.2795769,-0.5766225,0.49449062,-0.17813797,-1.686928,-0.94721246,1.1795164,0.56704676,1.7173557,0.68241644,-0.54684067,2.2897522,0.22177431,-2.7699697,0.83645284,-0.4551856,-0.59778553,-0.46654812,-0.88068736,-0.18684454,-1.8107066,-1.0309898,-0.29059896,0.61773145,-0.6358972,0.93012965,-0.4416151,-0.26066256,-0.580518,-0.09320741,-0.2596808,-0.8040223,-0.07257343,0.65300673,0.6466159,0.558824,-0.43080068,0.8597844,-1.6723119,-1.4197849,-0.8677104,0.48912543,-0.20952407,1.5555779,0.7013853,1.4375857,1.4055982,-1.2592287,0.61893594,1.4920086,-0.46599782,-0.49896958,1.2708043,-1.9676477,0.35017326,0.70328194,-0.5952472,0.839894,1.3759542,-1.1104577,1.6328706,0.6047163,0.2097004,-0.527594,-1.429763,-1.1707677,-0.9299143,0.8100148,0.07912972,-1.9388705,1.2209663,0.5061743,-1.1346352,0.45229036,0.60213935,1.3904711,-0.54059356,-0.4044244,-0.9798139,-0.6222117,-0.61526614,-1.960153,0.76557004,-0.10714313,0.9020152,0.820067,1.3780061,-1.4440745,0.4367077,1.1118138,0.40906623,-0.9439719,1.988591,-0.6385262,0.974498,0.23038845,-0.8155471,-1.8396258,-0.17587674,0.99376446,0.28914344,-1.0429609,0.6441469,0.36822158,0.9463674,0.66987425,0.23598878,-0.8083405,-0.99929637,-2.0161982,-2.9565365,0.39635637,0.33244172,-0.06819611,0.7231973,0.70387274,0.013926053,-0.5311193,-0.6718211,0.7736186,1.7720805,1.3871493,0.90406185,0.49521938,-0.42022437,-2.2429824,0.1943421,-1.2620536,0.046393786,-0.75774527,-0.41869074,0.21374662,0.9888452,0.072225146,1.6189097,2.8284023,0.5942337,-1.9366354,0.8803493,1.0831807,0.6437532,-0.34109104,1.0744934,1.0817578,-1.0382336,1.0016497,1.0058817,0.90966713,0.9099117,-1.7826737,0.41557413,-1.6771293,-1.0691296,0.0072957566,-0.20207267,0.73470354,-0.12993932,1.0798746,1.0213814,-1.0517766,-0.40230045,-0.19875103,1.3296591,-0.79431826,-0.12156764,0.17181252,-1.0281954,-2.4320679,-1.9733632,-0.5930868,0.53391224,-1.5624772,-0.8051384,-0.44697767,0.25877762,0.3387936,0.33407873,-0.30499944,-0.076036155,0.014360426,-1.0782915,-0.32835305,-0.45023254,-0.42223302,0.69675887,-1.2829659,2.3924787,-0.36725384,0.5185278,0.33258215,0.123468295,0.6418878,-0.5162003,-0.35007066,-0.5956408,0.3965732,0.9730901,-0.78805256,-1.0219498,0.3412946,2.258976,-3.3526583,1.2456504,0.98271406,0.67419744,0.2151046,-0.92333055,-0.99110746,0.66495055,1.606058,-1.5882928,-0.22457956,-1.0480018,-0.5775434,-1.5239402,1.3295096,-0.39126217,-0.8418226,1.1980858,-0.75494653,-0.18280569,0.24620202,1.6256961,-1.9562002,-0.06937745,-0.077123664,-0.28110686,1.5765567,-1.1156598,0.4475218,0.59488505,-1.7069551,1.3227949,-1.7963034,-1.1853517,0.78180915,1.2066125,-0.41324535,-1.3109889,0.85288835,0.7375674,0.58357733,0.39882085,-0.24540079,-0.044364262,-1.8425323,0.006395419,0.41454205,-1.3993952,1.5906066,-1.0820781,-1.7502494,-0.7001745,0.56623536,1.0602092,-2.376647,0.6651677,1.609694,-0.014530073,1.5055337,0.7305173,0.5557401,-1.0169871,0.54725367,-1.0985185,2.5033941,-1.855833,0.9548645,-0.018111272,1.1078184,-0.7183263,0.70177764,0.26545492,-1.1039249,0.2565295,0.04320666,1.0266769,-0.7042797,0.42741573,-0.13427784,-1.4541534,0.7549513,0.38997418,0.20098026,-0.77934647,0.36207044,0.020683115,-1.8871917,0.83717984,-1.8042084,0.31051168,1.4713311,1.9369748,0.70325565,0.9190217,-0.67482424,-1.0692033,0.69416213,1.3187535,1.8192605,-1.6093163,-0.20503664,0.50519586,1.0221745,0.6142354,-1.3133454,-0.6259413,1.8083649,1.0466976,0.2043347,0.8946149,-0.12803103,-1.0557685,-3.1673934,2.1124787,0.30756196,-0.45032275,1.7724341,0.12815358,0.05529755,0.58200216,-1.2677776,-1.5474409,0.9695791,1.095562,1.7367153,-1.5717808,0.44257918,-1.2789391,-1.1072363,-0.32871103,1.9139524,-2.5398638,0.21275793,0.622319,-0.4704418,-1.3756102,-1.1618524,-0.23313531,1.4337595,0.9357852,-0.55759317,0.38750446,0.48032457,0.57530344,-0.90204746,-2.201405,0.6205477,-0.8846061,0.9869241,1.0408665,1.5326737,0.055788744,0.8931446,0.58109814,0.92763335,0.028234573,-0.4477128,-1.2884235,-0.41161162,-1.2302856,0.9562254,-0.44352707,0.46566853,0.7787678,0.26540378,2.7891526,1.8148421,-1.1191468,0.95080554,2.196643,0.8384262,0.3703348,0.10566264,-0.29087704,-1.1885822,0.45484197,-1.0854133,-1.375903,0.7341994,-0.3035982,1.9087636,-0.1933239,-0.14389355,0.08290989,0.2658073,-0.2366896,0.14959593,0.33292407,0.019894486,-0.19200046,-0.65321267,1.4909211,0.7540647,-0.73074174,0.17870805,-1.401244,-0.25149482,0.08796637,-0.5707364,2.2240803
CAPNS2,-0.7882221,-0.85780954,0.6560897,-1.3432978,0.09130718,-1.9874526,0.8060911,-0.13054024,-0.933164,0.35525092,-0.2942228,-1.4158272,1.0384656,-2.6437645,0.15950575,0.6743249,-0.16360983,0.5485971,-0.7537929,-0.61787856,1.0675775,0.7365938,-0.3016214,-1.3085649,-0.5283468,-0.5112223,-0.35792163,0.28672084,0.089033864,0.9764538,-0.17218469,-0.7389808,-1.213052,-0.4469307,0.47710544,1.6614699,0.35867044,-0.5568536,-0.17062503,-1.2078481,1.0465844,2.0229504,0.31021115,0.33625588,-0.2317904,0.0048839683,-1.2856022,-1.2274134,0.4711742,-0.037737817,0.65312827,-0.7805583,-0.97884595,-0.61476743,-2.205903,0.24067317,0.74848956,-0.54190683,0.9797194,0.3497926,-1.0533494,-2.056207,-1.1325616,-0.084696606,1.1717638,-0.028167015,-1.3573891,-0.78726393,1.2632278,1.7662704,0.26270044,-0.12109371,0.8539525,0.009600427,-0.18439749,0.44549298,1.1342672,-0.23673427,1.0987743,1.2397773,0.5710675,-1.2572868,-0.54602814,2.120128,-0.55788046,-0.49418944,0.35791957,-0.9372092,0.57524085,-2.2370777,0.17879075,1.5271356,0.47115508,1.2319506,0.19409846,1.5882671,1.3973109,1.8050869,0.8366877,0.29722118,1.4261513,-1.3531396,-0.10400223,2.7403152,0.18499635,-0.24158378,0.77556175,-0.98987854,0.7424389,-0.91286814,-0.36880273,1.3895819,0.5190585,-1.4233083,0.9497168,-0.29169872,-0.037448958,0.32986164,1.659307,-0.17836617,1.2586162,0.85923535,1.0927162,1.2601199,0.30820063,0.7377141,-1.522598,1.1500964,-0.57408077,1.2657958,-1.4132713,-0.25011122,-0.5407453,0.4168033,-2.5988302,1.2779576,-1.2752506,-0.38662326,-0.40596643,-0.6571895,1.6510953,0.8919106,1.880318,0.08183583,-0.48574877,0.18535188,-0.3006858,-0.0007814362,-0.2967896,1.5832322,1.8453795,-1.1073406,1.2870632,-0.16376998,-0.37448215,-1.5937322,-1.1406333,-0.89665496,0.41223982,-0.7337348,-1.3395689,0.47593185,1.699419,-1.8547122,-0.29811114,1.0676913,0.6889831,-1.234949,0.15964764,2.7924833,-0.06300219,0.61916834,0.7243331,0.870321,1.1936711,-0.5039085,-1.4996088,0.56292045,1.415534,1.2145302,-0.91748446,1.2663515,-0.1812258,1.343648,0.57697463,1.2186639,-1.9795121,-1.959435,1.1749122,1.797243,1.2677795,-1.5298421,0.41473797,-0.16180164,1.6209002,1.4718416,-0.26817584,-2.1328673,-1.0418347,-1.0906497,-0.83185303,-2.0495417,-0.5541906,0.9907849,-1.2536811,-1.7356303,0.67591417,1.7180101,-1.0489701,1.1757426,-1.0110222,-1.5132796,-2.3440268,0.6463544,1.7030821,-1.4448673,-0.6405498,0.33181256,-0.66972923,-0.1022192,-1.3595662,0.9271191,0.032413024,-1.2467281,0.13809972,-0.43004733,0.23331913,0.7220591,-2.1985006,1.0794699,-1.5113692,-0.27373603,-0.2851496,-1.723423,-1.0059699,1.412944,-1.3883578,-0.23653501,-0.9156964,-1.6919134,1.1069006,0.26346108,-0.41030237,0.7765911,0.8509566,0.27978143,-0.33286682,1.2363977,1.4635057,-0.053984683,-1.5283644,-0.73758143,0.1434161,-0.14527018,0.31656504,-0.094146766,-1.9501565,-0.107947245,-0.52226526,-0.26676235,-0.0022186267,0.7119609,1.4684536,-0.4060104,1.1562976,2.7889817,1.2088319,-0.096953124,0.46062693,-1.5181041,0.70495206,0.51199347,-0.38088638,1.7050884,-1.4909563,0.21584105,-0.11621461,-0.79390657,-1.3574553,1.3891784,0.8795901,0.5507174,-1.5887969,-0.046239406,-0.6927105,1.3178858,-0.28178272,-0.7377169,1.45136,-1.4493681,1.8001409,-0.9575954,0.94935864,-0.21724677,1.3434472,-0.29017225,0.6361544,1.8491628,0.7071973,0.86748576,-1.9287312,0.0698907,-0.83686,-0.7875866,2.0311575,0.47169808,-1.1194291,-0.7046832,0.8970038,-1.8070463,-0.96323985,-1.6714536,-1.218745,-2.187312,1.1860343,1.1038207,-1.5777167,0.33109123,-0.6084275,0.7463975,0.75521964,-0.8946756,1.0655289,0.4518697,1.0082017,0.115532905,1.6680334,-1.4677446,0.48678255,-1.3107649,1.0955966,0.745154,0.6572015,-0.6752123,-1.2318256,-0.32086068,0.15127905,-1.2091359,0.020753086,-1.6784989,1.2049637,-1.5899149,-1.013601,0.09365616,-0.645731,1.0430553,0.81092083,0.1899524,-0.838363,-0.75797004,-0.42602685,0.90227515,-0.34680805,-0.24276215,0.4577232,0.42197132,-1.5030996,-0.6404587,0.8659469,-0.48970428,1.1791623,-1.1775056,-0.94863814,0.15108651,-0.5625307,-1.5144682,-0.8467974,-2.045288,0.9856279,1.1485198,1.9937603,1.4440731,0.3113118,2.7804997,0.027639704,1.1057339,-0.017595572,-1.2048503,-0.80351555,-1.1837037,-1.5685195,0.10135802,-0.76223713,1.903515,0.32518122,-0.91741776,1.0757565,1.4180224,0.7125571,0.03128387,-0.68245435,1.123438,0.11234689,1.3923557,-0.14224985,-0.24231169,-0.98622966,1.5981055,0.67485327,1.0429322,0.12485778,-0.19665086,0.93763524,0.9218638,-0.7124972,1.4334033,-1.3922398,0.29766443,1.435884,-1.4007293,-0.13300791,-1.5325241,-0.3203377,0.78534096,-1.713676,-0.0024908017,1.2107531,0.19222948,0.8066884,0.47943074,0.9954065,0.14118655,1.4158053,1.0528955,0.52502817,1.393371,0.53189,-1.3774585,-2.0441742,-0.53456575,-0.52915514,-0.3848086,-0.43667564,0.8707011,-1.5816674,0.92235273,0.42924628,1.0940049,-0.6019175,0.10365783,-0.3653766,0.6102536,0.9692018,-2.230068,0.030009935,-0.08128522,-0.72022015,-0.49957547,0.46358675,-1.8344475,1.0338473,-0.1400363,-0.76456183,0.1390771,-1.4306322,-1.3467139,-0.2532466,0.35292974,-1.4162656,0.6896694,0.5832457,1.4910381,0.090325296,2.6224544,0.48675445,0.913024,-1.3811522,1.5680231,-1.079855,0.99626374,-1.0803998,-1.3651295,-1.7031941,1.5420492,0.5735206,-1.3810376,-2.1798527,-1.0483617,0.55589736,0.98230815,-1.3079739,0.40867522,0.9857122,-0.81840897,-0.069945596,0.9779281,-0.010981629,-2.0573442,-1.4619508,-0.5337356,-0.078953,0.99762595,1.5567021,0.43389052,-1.386789,0.56442916,-0.9618215,-0.17343257,0.25010592,1.5131396,-1.8147695,0.18708886,0.11913948,0.54886425,-0.9558874,-0.40689996,-0.8147673,1.2834212,1.2611027,-0.20628643,0.4379868,-0.11668736
CCL19,0.2340944,2.3464777,4.5458937,-1.7329427,0.20265491,0.45821545,1.8627896,1.293065,1.0885034,-1.3691672,-1.0387231,-0.6649888,1.5946268,-0.2191045,-1.1763885,-1.5924745,-1.059703,0.45243034,-1.1522638,0.11991844,-0.603463,0.34002042,1.5086726,2.3376307,-0.46572402,0.6544386,-2.4087505,-0.8826412,1.812672,0.27102217,-0.36198115,-2.9333978,-0.08324513,1.4379115,0.08629107,0.22544819,0.21118759,-0.61569506,-0.77479565,1.6301799,1.163311,-1.2798339,-1.7552545,0.98550737,-0.65549386,1.1774354,-1.9633551,0.12401632,-0.5718925,0.50361574,-1.4307947,-0.17759904,-0.17771533,0.22506699,-1.649847,0.009309751,0.35490566,0.11176499,-0.5803098,-0.18477356,0.6426055,-1.1466035,0.07024736,1.2273827,1.794869,1.018705,-0.039010912,0.21929511,-0.015919067,0.3470774,2.0155659,-0.40224192,-0.6153653,-0.84490734,-0.5583841,-0.7431291,-0.9536795,-1.1985841,1.9347653,-0.038330432,0.27637944,-0.7328434,0.24575911,-0.8745685,-0.22818998,0.16034928,-0.8606896,-0.91121167,-0.32207012,-0.25056416,-0.5771129,0.17519896,0.6648601,-0.06391263,-1.479482,-0.77288544,-0.011778398,-0.01205396,0.7349837,0.19582479,0.80484676,1.2779568,0.61670667,-0.81379014,1.38137,0.16986713,1.0921053,0.741872,0.36405405,-0.25642455,-0.7387723,1.5611573,-0.48216334,-0.43689716,-1.0530585,1.3415109,-0.8654271,1.2693002,0.33131185,-0.3141729,-0.32370755,-2.6710553,2.0136154,0.82323796,-0.8141602,-0.6984475,-0.10827504,-0.50984675,1.2391492,-0.4709251,0.4405953,0.74681735,-1.2626271,2.421229,-1.6297033,1.7882878,0.06358672,-1.0320569,-0.6247362,0.84397477,0.99031377,0.88054657,-1.628632,1.6661121,-0.3054297,1.1364204,-0.3187667,0.5830996,-0.6636635,-0.51421523,-0.46442994,-1.2439196,-0.4772522,0.4169708,-0.59981203,1.1840644,0.54971606,-1.8187445,-0.100587465,-1.3758378,-0.16848831,2.2331512,0.7291528,0.3951425,-1.2418166,2.9562454,0.7117469,-2.2791924,-1.6733673,0.4837881,-0.39020714,0.18127845,-0.96136326,0.6703503,0.3215489,0.25061175,-0.39551765,-0.16889895,-0.32809198,-0.7362711,0.7821743,0.8238039,-0.9970958,-1.6566616,-0.09936884,-0.78061783,0.53736615,-0.71166015,-2.1951072,-0.9249396,-0.30493644,-0.37959972,0.55710465,-0.9477132,-0.66911,-0.25281772,-1.265013,0.2037011,1.2379299,0.15973854,0.0042231297,0.40999177,-2.7093635,0.49767202,1.1163353,-0.20972398,1.5183631,0.44826442,1.1435779,0.3209356,-1.9632782,-1.1978142,0.80099386,-1.6219611,1.0477433,-1.1268162,0.74669194,0.06672177,0.21378769,2.2906642,-2.278431,-1.4974194,-0.045096762,-0.2889947,0.1923289,-2.3091185,-0.22602305,1.3572145,-0.49149653,-0.36887988,0.9725165,0.3290569,2.0149329,-1.4851724,-1.3575354,-1.0666294,-0.9730636,-0.1668143,-1.3688306,0.7641604,0.3279571,-1.1637964,0.652614,0.8100258,0.7453081,0.6409908,0.14089778,0.65848655,-1.2416952,-1.850526,0.62117684,1.8858645,-0.7721149,1.8067758,-0.027160227,1.5712516,1.1356804,0.01793947,-0.31726846,-0.99709624,-1.0202986,-0.08019724,0.6280087,0.5493495,-0.4652585,-0.32004157,-1.5917069,-0.6373742,1.8966147,-0.09710118,-1.3733526,1.6735995,-0.42759615,-2.578962,-0.5100027,-0.5665866,0.5086873,-0.8222035,-1.0550665,0.667703,-1.1770871,-0.04631273,0.99289215,-1.2441406,0.8521756,0.3607247,0.99759376,-0.6277464,0.23736106,-1.4933354,-0.1634904,0.090743124,0.48943913,1.4969454,-1.2034047,0.41843826,-0.5546034,-0.34441644,-0.3163323,0.929613,1.1906236,0.9674701,1.7150518,0.13594623,1.8337505,1.1796486,0.110680826,1.1857985,0.8260811,-1.3956902,-2.193338,1.5895023,-0.7695451,2.4171138,0.490472,1.5975512,-0.31243935,0.70607376,-1.0396564,-0.7877016,1.0381668,-1.2465317,2.2343626,-0.6810062,0.21804337,0.3688229,-0.40986902,-1.1866086,1.5461218,-2.2069857,-0.7977823,0.6578795,-0.3020048,1.0606469,2.9981992,0.26490512,0.09068187,0.41585603,-1.0066521,-0.23015821,0.39524043,-0.88542384,-0.001005671,-1.0107085,-1.563013,-1.3047972,0.7835375,-0.26877227,-0.29388675,0.76411635,-0.07370103,1.7969475,0.14338239,0.8061542,0.17493406,-1.5033249,1.2924584,-1.4577628,-0.30466726,-1.0335037,0.46911317,0.6236596,0.027571725,-0.9423076,1.3368618,0.6875953,-0.9523611,-0.11905149,-0.011130554,0.44073057,-1.6502596,0.6808778,-0.3946771,0.6549404,1.5119703,0.069247566,-0.12311459,-1.5815643,0.5566647,0.45516264,0.47582188,1.9206392,0.37813908,0.43581513,-0.28481913,0.40252572,-0.562183,0.9022577,-0.24196978,-0.96000385,0.03229141,1.7630317,-0.14266837,1.2765473,2.3556662,-1.7568357,0.31766194,0.46980157,-1.4104773,-0.23304553,-0.15501349,1.0137577,0.6399164,0.31957778,0.46626222,0.95657986,0.54926217,0.37741187,1.7525414,-1.3076288,-1.1028324,0.51890796,-0.7586733,-0.4231876,-0.6953413,0.007720364,-0.7044172,0.56809384,-1.0511023,1.2846107,-0.84345895,0.69522905,0.14930218,-1.1079574,-2.1986558,2.1061456,1.6188171,-0.685737,1.4533015,-0.22157347,-0.7439199,-1.0842371,-1.2080244,-0.9699873,-1.8274431,-1.0761852,-2.2960057,0.19102958,0.95545304,-0.46788177,-0.24907391,-0.65238893,-0.5016306,-1.6867738,1.537688,1.6091346,-0.95814675,-1.5632999,-0.8378252,0.15354346,0.3484442,-1.0850142,-0.588189,0.48776457,-0.94495225,0.81000876,2.239432,0.42080233,-0.82956594,0.0098428335,-0.867532,-2.1164787,-0.23094378,0.07056393,1.2465031,0.659336,-0.44065014,1.2006902,1.013935,-0.5820712,0.394458,1.005607,0.6406143,0.62262577,1.0864776,-1.2145163,0.025562482,1.8564563,-0.40312257,-0.45417377,-1.8765911,-0.8761477,-0.08318007,-0.24470735,0.9076388,-1.1109061,0.30993745,1.1171013,1.7368084,-0.30108598,-2.2590132,0.5511817,0.4437903,-1.0942999,1.2051867,0.18472399,1.793332,-1.5397602,0.94354993,0.7215341,-0.242278,0.8743708,-1.2691306,0.8986691,1.2907733,0.055332333,1.6729347,-0.34826916,-0.1468053,0.33476642,-0.3036534,0.50105023
CCL22,-0.5982718,0.25266472,-0.10855579,0.4052918,-1.1467793,-0.054787874,-1.3232203,-0.33144018,0.68512094,0.08688986,-1.6915066,-0.47953632,0.4417655,-1.4716316,-1.1461157,-0.7424,0.9730723,0.47518045,-0.7280899,-0.36221513,-1.8028542,-1.0994768,0.48240212,-0.61583036,0.041943554,-1.0285717,-1.291742,-0.9760167,1.2041214,0.093177035,0.5185595,0.35352883,-1.3888736,-1.2283828,-1.6134504,1.3805332,-0.9519797,2.3080356,-0.53406084,0.85838693,1.2098521,0.7810152,-2.0641716,1.1027371,-0.16668694,1.1759096,0.12738357,0.9569385,1.1576676,-1.2915918,-0.19050996,0.6585156,-0.61855155,-0.70670635,-1.2918391,-1.0419611,0.8088163,-0.507136,1.0069833,-0.1893849,0.96361846,0.79728884,-0.66392136,1.8097928,-0.8505073,-0.6140213,-1.5446744,1.0699943,-2.5311182,1.0136648,-0.40812853,-0.47255802,0.22424394,-1.5368067,-1.1225752,-0.48954234,-1.339997,-1.7653873,1.5377698,-1.8077103,-1.3990432,1.6555597,1.2652724,-0.36212194,-0.7910789,0.51315594,-2.5190592,0.050339866,-0.3884946,0.99892455,0.38728115,-1.05477,-0.37702385,-1.026822,0.3310449,-1.7665884,0.46791,-2.6407464,-0.37970725,-0.51669216,0.31243625,0.6506798,-0.23295712,-0.7907036,0.07806318,-0.91622466,0.14226706,0.9258395,-1.069235,-0.1450871,-2.1804833,-1.4033937,-1.9544966,1.0778459,-0.3265246,-1.9015644,-0.32961214,0.2976324,0.0065796757,1.1430614,1.7957727,1.8181138,0.004547478,-0.5300557,-0.7209036,0.34452918,0.44234666,0.31134805,0.595343,0.75100094,-0.30553365,1.2910204,-0.9453121,1.6442269,1.211397,0.6690362,0.29087153,-0.64763975,-0.16431405,0.507719,-0.30218896,1.0575745,1.2638747,0.9551664,1.394691,-1.0254229,-1.6095593,0.8886376,2.105496,-1.3095044,0.295995,0.48637864,-1.0235525,1.532817,1.0741297,-0.681103,-0.6544095,-0.20943691,0.12402708,-0.5239416,-0.08937327,1.0516909,1.412319,-1.833832,1.3051125,1.0561031,0.3890197,0.80414236,-1.7293437,2.0390084,-1.4520153,-0.5814048,-1.2037418,-0.2340033,2.205095,1.4186629,0.5535343,-0.31124654,0.47199467,-0.55163705,0.19656894,1.8197644,0.3272195,-1.0212395,0.9274804,0.6667932,1.4615873,0.5305646,0.85042334,-1.1709293,0.8158083,-0.5083322,-0.28445968,-1.6388427,-0.8417222,0.8455247,-0.11204855,0.05486019,0.91343474,-0.46116164,-0.05429189,1.0729879,1.0647374,-0.9591108,1.421009,0.44914803,0.5395944,-1.7150161,-0.36793607,-1.2054045,-0.6212188,-1.6507803,-0.71147406,-2.2638628,-0.1353515,0.8464289,0.20552541,-1.646033,-1.6877091,0.7494547,-1.5297331,0.5576563,0.31582424,1.3882434,0.49232188,-0.188816,0.8299899,-1.1295115,0.17468639,1.1311376,0.18017527,-0.6888964,-0.82792103,-0.5657441,0.4750969,0.029416094,-1.3512225,-1.7817327,0.69595754,1.4907631,-1.8218161,-1.2539945,0.08796284,-0.24154751,1.2101358,0.5283036,-0.13939092,-0.8205312,-1.5898006,-0.1750828,-0.12362506,0.20094106,0.9175585,1.8644882,0.4122892,1.0182387,-1.1376817,-0.33650908,-0.008854254,1.527927,-0.85731554,0.03471083,-0.10753336,-0.6448001,0.3758207,-0.10018837,-0.87933254,0.27243665,0.0399729,-0.13264695,-0.6694771,0.23027661,-0.30477557,1.0293888,1.2369094,-0.15719314,-1.1101794,-1.8809243,1.1273586,0.44042405,-0.40209082,-1.1391102,-1.6845893,-1.880644,0.77524394,-0.8272989,-1.6067632,1.8805282,-0.8707506,0.36255223,1.5499775,0.94205105,-0.86226434,0.55495316,0.91971153,-0.23912877,-1.825896,-0.9705524,-0.6121641,0.23999666,-0.011261188,-1.067726,1.0625806,0.222117,-1.1265506,1.0139025,-0.18621351,1.7561206,-0.64542437,1.3822372,0.7493075,3.083073,-0.018390238,-0.9171211,-1.9529089,2.1662855,2.036466,-0.21435884,0.5563689,0.25078708,2.7577293,-1.1689821,1.9575548,0.27873743,0.5521773,0.93576336,0.677836,-0.93903035,0.51573265,0.3377002,-0.6202997,-0.6426961,1.5359213,-0.5958692,-0.1083884,0.59822035,1.0261042,1.0925043,-1.2839268,-1.8320066,0.62000537,-2.0408945,-0.004203181,2.0960946,-0.8633736,0.7016483,1.3019131,0.5047912,-1.1310087,-0.3577059,-0.3824566,0.27571744,1.0673515,1.506043,-1.3630319,0.38514787,1.5385275,1.0469931,-1.4936932,0.14445004,-2.1182323,-0.09152076,-0.057510942,-0.6825914,0.6243171,0.5054188,0.21787298,0.83746046,1.3083478,-1.0658746,1.365147,0.84374213,-0.34084237,0.75609285,0.19997531,0.5462542,1.7579406,-0.26022148,-0.64790666,-0.9727026,-2.2801158,-0.71349555,1.4184453,-1.833403,-0.62317806,1.3738588,-0.24895729,-1.3122658,1.0240924,-0.023801634,-0.51587975,1.4258522,1.3707179,0.810538,-0.44942102,-0.4022331,-0.4851483,-0.23713714,-0.614501,1.169304,0.882619,1.1330452,1.8100624,2.4522974,0.32498154,0.7073033,-0.39812696,1.5679389,-0.910097,-0.3691729,-0.23428866,-0.5468531,-1.1107813,0.70700866,1.1027758,-1.3920904,0.97888714,-1.1254907,-0.17871678,-1.8618791,0.41029882,0.6674189,0.5013103,-0.67507017,-0.5817508,-0.80976045,-0.23597443,0.22521143,0.51929224,2.2286808,0.14973822,1.175977,0.4084527,-1.6087127,0.8761804,0.9181942,1.0253206,0.96688366,1.030591,-1.044837,-0.107861705,0.0846823,1.483559,-0.83312374,0.5282586,-0.43511173,-0.7270721,-0.44229153,-0.74753785,-1.4207425,0.5090286,-0.43364266,1.6307197,0.87520254,-1.7446203,1.0696732,-1.0123527,1.7293644,-0.9885222,-0.49559,1.6439688,-0.3267257,-0.7643649,-0.9710484,0.04124798,1.4015217,1.1926954,-0.20802693,-0.06728256,-1.2614092,0.4435551,0.6936048,-1.3237233,1.731918,0.010168337,-1.5871583,0.7088206,0.055868175,1.5039937,-1.9353033,-1.6375612,-0.9724399,0.5607407,1.8701452,0.9484091,-0.90868,0.2900212,0.32030314,0.9314912,1.4187104,-0.11677072,2.2128808,-0.8133907,1.1144092,0.7551703,-1.6511571,0.41235933,1.198294,-0.24026114,-0.75761735,-0.55764717,-1.7510417,0.6403585,-1.1615372,-1.2022105,1.281303,-1.3156441,0.8145633,0.3893175,1.3314666,-0.60422474,0.6421136
CD1B,-0.7034345,-1.4402347,1.3555413,-0.77334327,-0.0039861193,-1.4666586,0.7389007,0.16435072,-0.86210656,-1.111895,-0.96483,-1.8812616,-1.217871,0.045955803,1.0568887,0.46849012,-0.19189422,-1.3126484,-0.39058152,1.0558228,-0.9496036,0.61188495,-1.1738833,-0.17468828,-0.09592669,-0.45813623,-1.1578833,-0.27986008,0.45476815,0.8156864,-0.7753421,0.7409725,0.41963255,1.1715548,-1.029888,-0.4150724,0.1598873,-0.31668058,-0.9634266,1.1116844,1.3142117,1.1723542,-0.5411299,1.8599304,1.8285223,0.23081133,-1.606795,1.1920669,-1.7649994,1.3115369,1.4516056,-0.030904021,-0.60360354,0.0036600311,0.5551709,-0.40398085,1.4370196,2.6155412,0.81751055,0.063650146,1.4590183,-0.20466985,1.367901,0.15391105,-2.0887582,0.7543791,0.83257097,-2.090615,-0.13899225,0.35223967,2.229516,2.1106594,-0.6475968,0.23749651,1.3840662,0.062136978,-2.0571198,-0.18880586,1.4130051,0.9166156,-0.9780625,0.14606218,0.67719096,1.3736099,0.26603752,-1.4315084,-0.07551874,-1.4676727,0.9545211,-0.2651981,0.2687498,1.7344363,0.62625766,-1.424915,-0.3907525,-1.2307864,0.99139285,-1.1696187,1.169765,-0.61178046,-0.45066738,0.64140457,0.62745684,1.032331,0.2373681,0.062218558,-1.3484397,0.7724702,-1.5123147,-0.51416355,0.18573567,0.32475346,0.391869,-0.6146755,0.0841032,-0.8856227,-0.29200354,-1.5769109,0.2768849,-1.2986313,0.4097358,0.08044864,-1.1824527,0.09393922,-0.80648273,0.124310814,1.275491,0.9923384,0.14966127,0.6464475,0.922442,2.4382157,1.379843,-0.0063636187,-0.007180223,0.51019895,-2.0017831,-0.3882134,-0.4168979,-0.31866705,-0.54681283,0.68603677,0.84068286,1.2949494,-1.1859357,0.13025647,-2.01595,-1.4153961,1.4618002,-0.13021806,-0.44011915,0.74859786,-0.650889,-1.3189785,-0.32641983,-0.95724857,0.7467673,0.16961826,-1.7512724,1.06414,0.6745468,-0.9679821,-1.07206,-1.6855698,1.3064632,0.88935804,-0.6933887,0.10330453,-0.3511928,0.81282246,0.3628369,-0.58452946,0.93703216,-0.10853143,2.6155548,0.31947395,0.2981222,0.22833288,-0.009490947,0.23724665,-1.0273771,0.25755033,-0.9130981,0.17980514,1.7372992,0.07007643,-1.7635404,-0.78413445,1.3250488,0.99719733,1.4521034,-0.20471427,0.92204994,0.4313571,-0.80066186,-0.94819266,-0.7543481,1.4698554,0.9060523,0.299417,1.7260565,-1.4983358,-1.1950653,0.2687174,0.007115429,0.35785428,1.0561991,1.1226045,0.18983102,1.5337579,0.29628384,1.5185627,1.2708234,0.5438783,0.76213545,-0.37503102,0.13670836,0.2855743,-1.1124071,1.4627607,-0.7232243,2.2694423,1.5479821,0.0066414597,-1.6915625,-0.2635849,-1.1047608,2.01333,-0.38293076,0.18705593,0.2723804,-0.76678354,-1.8203483,-2.2954035,0.09789778,-0.5893687,0.95160985,0.20669596,-1.4260716,-0.052174967,-0.49871656,0.7581682,-1.816064,0.58924776,-0.6306044,-0.9936226,-0.7659764,-1.8416935,-0.9937384,-2.6616383,0.36774716,0.34839934,1.1406857,-1.8077738,1.2617184,1.2531191,1.4600253,-0.72614145,-0.21560067,0.23073976,0.08202799,-1.4967116,-0.58729994,1.0631086,-0.35928735,1.4471157,0.07692796,-0.10117684,1.9848728,-1.9829106,-0.49740964,1.5810702,0.44038668,1.0111434,-1.2682468,-1.7940298,-0.028395379,-0.8739838,-1.6672161,1.4505147,-1.1821461,-0.7569533,0.39163324,-0.9750795,1.2205446,-0.5947592,0.48061356,-0.41642568,1.1201667,0.97736025,0.7853536,-0.28831154,2.0554104,2.0814664,0.8576759,0.971603,-1.1757536,-0.23116334,-0.7555312,1.4277736,0.32650888,-1.1726868,-0.85645336,0.67260987,-1.1323024,-0.7153953,0.15912288,-2.8420625,0.66971636,-0.42018422,-1.8475926,-0.6014508,-0.14538689,0.3057332,-1.1431051,0.89601254,1.8887593,0.78382295,-1.7339928,-0.81232876,1.148037,0.21088949,0.9950385,-0.875706,0.8990524,1.4574546,0.8941825,-0.46710724,0.48815465,-0.47259015,1.0279876,-0.21494249,0.19442867,1.3118219,-1.4691122,1.165636,-0.73125464,-0.9879729,0.58172655,0.8378676,-0.53926194,-1.9510854,-0.18379243,0.48664355,0.32954434,-1.9432486,-0.62158936,-0.070682086,-0.5229759,-1.7400479,-0.5913265,1.5553805,0.2882134,0.7404038,-0.18886435,0.06008473,-0.24370939,1.5862578,-0.81165755,-1.4939041,-0.9466545,0.012774677,-0.30678162,-0.13817535,1.3860226,-0.4893571,2.783999,1.1066455,-0.56328493,0.6736948,-0.84626883,-1.0062544,-0.17715849,0.22512682,-0.5086098,0.014705447,-0.922697,-0.81636924,-1.7181773,-0.47975025,-0.84603465,-0.65278894,1.1932741,-0.4609448,1.184381,-1.1803184,-0.092748985,-0.5598221,0.33540317,-1.0113522,-0.0011668305,-0.43380997,0.6494861,0.28679755,-2.5674803,-0.1986744,1.9453908,1.3457638,-1.340718,-0.9624308,0.1507319,1.3157117,-0.529584,1.0531633,-0.28497893,0.17782229,-1.3432235,0.4474431,3.6381276,-0.6044582,0.09797951,0.87919104,-0.7093633,-0.025201913,-0.3032795,-0.1619077,1.2205913,-0.17600483,0.8957817,0.984191,-0.080889575,-1.4953123,0.34104005,1.8795702,1.5286635,-0.03407253,0.13950604,0.80463696,-1.121747,-0.08882,-0.4740451,0.8138062,-0.99272746,-0.66534317,-0.9026133,0.6219645,-2.0973322,-2.4033303,-2.125238,0.98468673,0.07003381,-1.108315,0.6561864,-1.7372063,-1.3190179,-0.06208503,-1.1783404,0.23458016,-1.2394098,-0.781185,0.42940205,-0.7578824,-0.5051692,1.4354175,1.60272,-0.9423989,-1.8635969,2.2218597,-0.7523944,-0.5214196,-1.6412284,2.2871652,-0.5095499,1.7485024,1.1404604,1.1488929,1.425494,1.0677217,2.1200266,1.3710423,-0.70358455,-1.1991519,-1.1122304,0.920391,0.027859984,-1.0610754,-0.9802465,0.9451343,-1.7291465,0.7112003,0.08649793,0.47914886,-1.2906053,-0.22263826,1.3174417,1.0488943,-0.7644244,-1.4005952,1.1617972,-1.3072358,1.3832499,0.27602753,-0.87694573,0.265946,-0.05059927,-0.31943107,-1.2854414,0.19815296,1.2571944,-1.232288,-0.49503306,-0.1265273,-2.1036203,1.235677,3.1927164,-0.28596213,0.30983987,-0.94868654,1.8926843,0.18007855,-0.13458489,1.3121063
CD52,-0.6025238,-0.7565798,-1.9708189,1.1739291,0.17486031,-1.5145911,-0.92756975,-0.8753049,-0.73093814,-0.16451694,-1.6759552,2.091083,-0.71758157,-2.2424853,0.9617401,1.1253929,-1.3793862,-0.4148149,-1.8599929,-1.1744493,0.9987629,-0.33519346,-0.19637242,1.2343382,-1.3969585,-1.1544074,-0.42009243,2.6339388,-1.1838034,1.0169575,1.3847525,-1.8919972,0.8288589,-0.5067193,-0.3962042,0.20622364,-0.76037145,0.341175,-1.4672012,1.0835258,0.23409231,1.2178705,0.37673357,0.31282395,0.54977065,-0.10464107,-1.2278069,0.319497,-1.0302103,-0.88396746,0.4409553,-0.35407808,0.036805388,0.47112602,0.9186026,1.698377,-1.4717299,-1.2280097,-0.0876663,0.1102038,0.37759417,-0.02988031,2.058488,0.39776027,1.710435,0.2720731,0.83555526,-0.119312145,-0.9028074,3.5917141,-0.42756,0.45529437,0.5364067,-0.22672401,1.3045553,-0.44722378,-1.759066,-1.6314774,1.4426652,-0.36055464,-0.1402547,-1.0823562,0.98910594,-0.61424243,1.084226,0.3709292,1.4208082,0.6187894,0.89931107,0.96994764,-0.8763479,-1.3648967,-1.493343,1.5475794,-0.83821076,0.23820151,1.3224219,0.75444305,0.71624506,-0.45536178,-0.8140008,1.7324443,-0.30832085,-0.35357997,-0.44506484,-1.5960336,1.3592339,-0.6463343,-0.95307904,-1.0866495,-1.6070476,1.4904555,-1.985789,0.36706814,-1.312882,-1.0784765,0.3270533,1.0614965,2.5541205,0.13330232,0.68913674,0.3003445,1.1800579,-1.5709335,-1.3476301,0.40953895,-0.7673381,0.80965257,-0.30494434,1.2741798,0.68099385,-0.5838625,-1.1494057,0.31458503,-1.5187421,-0.073743194,0.7001346,1.4768286,-0.62962043,1.9045357,-1.07293,0.14912003,0.04996862,1.2279514,-0.8994006,-0.6512224,0.3564494,-0.379687,1.1971371,-1.3116424,-2.4283533,2.2589688,0.67915237,1.5104407,0.834194,-0.17708737,1.4610238,0.8666217,-0.6514484,0.77856815,2.0109196,-0.6157303,0.65706396,-0.5424495,-1.9377052,1.2224723,-1.080006,-1.2192688,-0.69727105,1.4805096,0.12499609,-1.2691139,-1.3885617,-0.20040667,1.5970235,1.7459341,-1.8423249,-0.84542567,-0.97573173,0.6157503,-1.3179002,-0.40152496,-1.1770408,-0.2939419,-0.022637596,1.4947417,0.48662952,0.8937232,-1.3503224,-1.2371247,0.55946285,-0.08229143,-2.3581398,0.24481778,-0.0009830608,0.8330668,0.61714804,-1.7655139,0.9387065,-0.01567831,-0.43200535,-0.4369941,0.4491633,-0.23413356,1.531449,-0.3103129,-0.14639221,-1.2163442,-0.4654813,-0.9011023,0.5670123,-0.9359951,0.031908467,0.9222699,0.21721375,-2.5380523,1.6125151,-0.31415853,-1.2984998,-0.19278881,0.1504686,0.97132236,-0.4791093,-0.32352158,-0.02338844,-1.89712,1.0309954,1.249667,0.8877029,0.2465744,-1.9954606,0.76973313,-1.2157516,0.29605684,-1.0962663,-0.005032649,-0.1600915,0.3445524,-0.8971236,1.1785448,0.1996373,-0.83442926,0.24062395,0.07595525,-0.16948847,-1.6178404,0.19273077,0.8410353,1.2948627,-1.624208,1.3754578,0.68208873,1.449444,0.0752511,0.15677965,-0.03613854,-1.6310654,0.09904496,0.3819977,1.7646245,-0.30856904,-0.009197674,1.1141696,1.2031547,-1.2789767,-0.969562,1.7883213,0.17126486,1.0300109,0.70065975,0.28173554,-1.0952235,-0.59058404,-2.6111166,2.0847006,-0.9309257,-0.06956046,-0.7022567,0.10243492,-0.44450548,0.2842244,-0.7102802,1.2752881,-2.2111506,0.7465027,-0.5438013,0.71918494,-0.772935,-1.4139867,-0.076506294,-1.1905707,-0.23897739,-0.51330113,-0.5575626,-0.74435997,-1.464524,0.78484875,-0.7532893,0.019786054,0.36406586,0.5350671,1.1977974,1.3836423,-0.4377063,0.07290387,-0.0103550255,-0.30664173,-1.5768347,-0.2996449,0.13592537,1.2577205,-1.7994657,0.25073743,3.0149186,0.79632455,0.7786016,1.8481685,-1.3334645,-0.014660233,0.8381332,0.3970786,0.66691166,0.43269157,1.4464232,0.7357991,0.5241798,-0.29148173,-1.2847692,-0.202908,-0.62803084,0.09442695,-1.6902214,-0.43901598,0.6921223,0.6756959,-1.2410842,0.6027337,0.6976686,-1.7622905,-0.46274495,-0.5232354,-0.8643444,0.143458,-0.69856673,-0.31428188,-0.2171633,-0.17650601,-0.057141997,-1.1683104,-0.95548797,-1.4137713,1.257971,0.8266774,0.36844853,2.985078,-1.6376011,-0.25493357,1.9093943,1.1630979,-0.5215563,-0.012964461,-0.19789392,0.28394473,-0.28563583,0.45871434,-1.3595415,-0.6408254,1.7863077,1.713316,1.2343928,0.17432696,-2.2166202,-0.7790562,-1.0331954,-0.030652538,-0.023867408,2.7513862,-0.49282974,1.7409456,0.007924974,0.107334465,0.19369434,0.41700542,-0.0764416,-1.182833,-0.21991418,0.18840991,-0.6974597,-1.2768506,0.79415935,0.9843157,2.3255367,1.7741884,2.5119836,1.5662922,-1.9455931,0.20538615,-3.128421,-0.003730785,-0.5265951,-1.2064468,0.7302716,0.7723021,0.7786384,-1.582717,-0.96840835,-1.0715013,0.9103281,-1.048683,0.6462017,0.87509185,-1.7495366,-0.029135056,-0.15497136,0.33937976,-1.5226606,-0.56319827,-0.7409557,0.74160683,0.31832007,-1.0612271,0.5320998,0.28949946,-0.2661072,0.95387447,0.6425574,-0.20517638,1.4938236,-0.68586564,-0.33401498,-0.051722944,0.5944225,-1.5037224,-1.0230862,-0.26880848,-1.1883851,-0.07029431,-0.13729712,2.2796526,-0.36373463,-1.3911082,0.4801883,1.2192756,-0.87419385,-0.81651855,0.87143105,0.8794433,-0.92406327,-0.97450095,0.027630016,-0.92078906,-2.115316,0.2572132,0.9519275,0.08702825,-0.7560916,-1.0590185,0.326857,1.3908578,0.1744195,-0.62693405,0.49445155,-1.0930817,-0.4821276,-0.49466342,1.0211582,1.3398018,1.293899,-0.46446985,0.94001895,-0.50495875,-1.0160995,-0.86492366,0.9245713,-0.7811777,-2.0635743,0.45938227,-1.7921319,0.7847318,2.2659473,-1.1099764,0.8518342,1.089609,-0.92596847,1.9893812,-1.799158,-0.31996587,1.2107439,-0.61068755,1.1353502,1.7784784,1.0026244,1.1161878,0.74607086,-1.4420415,1.0006813,-0.28574848,0.057622325,2.5336688,2.597525,0.2509965,-0.15502766,1.3695072,-0.68401784,0.028309142,-0.844035,1.148086,0.7630283,1.2544962,-0.8691184,-1.3739437,3.4774487
COL17A1,-1.0886835,1.3051554,0.37182686,-0.026379704,-0.39910048,0.95674354,-0.5907806,-0.5108287,0.7859672,-0.19384931,1.1890888,-1.4183211,-1.0675313,0.39387405,0.6164187,1.8189929,-0.69997424,-1.882874,1.1806931,0.22004418,-0.438599,1.2113017,-2.8595436,-0.5882258,-1.3640811,-1.8167919,-2.1343124,-0.5785853,-0.044637304,-0.96460575,-1.6185224,-1.4508829,1.431607,-0.6888073,1.5551541,-0.9490819,-0.25544903,0.9242893,0.3827652,-0.1718613,-1.1735075,0.22468618,-0.18780904,-0.7077216,1.1539601,-1.6450016,-0.8931732,1.6098615,2.0654438,-0.4432029,0.20673338,-0.1245867,0.9704892,0.17813425,0.47477877,1.3355954,-0.14936775,1.354916,-0.20668389,0.46802604,1.6532683,0.6270445,0.08635655,-0.2993453,-0.36896303,1.0808188,-0.2711258,1.7423494,1.1972665,1.0526,0.9969622,1.6086994,0.9984176,1.0577136,0.2097753,-0.5363809,-0.6096017,0.41111594,-0.5121288,1.3224747,-0.21936306,1.3704005,0.32785082,0.4855009,-1.250065,1.3436434,-1.1369677,0.59057856,0.18205166,0.26232848,-0.54164106,0.24331436,-0.05312831,-1.6282742,-1.2866989,-1.415024,0.8135454,-2.387049,1.661487,0.96604,-0.6253197,1.1952512,2.315639,2.3998532,-0.41672575,1.4450364,1.5252504,-0.48306933,-1.6565548,-0.5407821,0.63230723,0.15271018,0.35448056,0.15882353,1.2204906,-1.0196297,0.87669766,0.18637738,0.8361219,-1.9304413,0.06358569,1.0887343,-0.12676252,0.22562599,-0.74069226,0.89355725,1.411933,-0.20508203,1.4065475,-0.56463146,-0.4325303,2.1229384,1.8052174,-0.45179665,-2.6707528,-0.81823754,-2.1629076,-1.7767892,-0.7427901,-0.4895307,1.2876318,0.5561839,-1.3332608,0.0813221,-0.90941113,-0.083937086,0.92271435,0.75993025,-0.5889941,1.2455204,-0.95396984,0.76883614,-1.0360913,1.0180895,1.9804169,0.62875646,-0.20408678,0.10847119,0.32108438,0.03948827,-0.37817207,-0.14663593,0.5851083,1.6381208,-0.6341459,-0.3866774,0.41694015,0.67206985,0.3552121,1.6710404,0.37709007,-1.1787021,-0.3844042,-0.5823746,-0.5104033,-0.48357075,1.5179849,-1.9484544,0.05969179,-1.1493601,-0.90533906,1.4399174,-0.11606146,-2.1049373,0.48739165,-0.5056307,0.6786957,-1.3322619,0.838623,-0.9226073,0.26025403,-0.5491163,0.32830828,0.71060854,-1.3979399,2.2568352,-0.6296498,0.39366204,1.4378052,0.32070476,-0.6478851,-0.5043047,-0.07725026,0.3029061,1.5407234,-0.06584778,-0.5591811,-0.43186533,-1.3858773,2.151771,-0.75920284,0.7391366,-1.301906,-0.77909607,1.6057396,0.031829454,-0.39578924,-1.0984384,-1.0033461,-0.45052922,-0.62204134,-0.4852776,0.57215726,1.9901124,-1.1023539,-1.8292626,-0.07819922,0.97970456,-2.009161,1.3516258,0.39373884,-0.88222766,-0.82014936,-0.40251032,-2.4851923,0.33695462,0.23913291,1.0613126,-2.1190343,-1.9019201,0.6329667,-1.8713963,-1.8535314,1.297732,-1.7622944,-1.023423,2.2393367,0.70902336,-1.2989993,-0.7673004,0.8799697,-0.36153424,0.57183486,-1.3549501,0.53541887,-0.31794026,0.88018364,0.16269782,0.12133018,1.4091688,1.6151239,-1.173818,0.462762,-0.26762688,-0.41110617,-0.4838615,-1.5976394,0.5135029,0.25984386,1.8708713,1.9052163,1.1783919,0.5138315,0.18340018,-0.46341896,1.3278276,-0.55474305,-1.8398273,0.18463527,0.50933474,0.018068613,0.19910496,-1.1809587,1.2200083,0.059969317,1.7518069,-0.8327866,1.8611416,1.0685532,-1.5287774,0.2935218,-0.36535233,1.8953441,-0.51603824,1.3447545,-1.0169029,-2.3571527,-1.2237433,-1.8323313,1.0750395,1.3086396,-0.7625021,0.2846028,0.17921036,0.3582169,1.1364671,-0.62297374,-1.9572098,-1.4529501,-2.1256242,0.816981,0.3067555,0.5416908,0.4601822,-0.97728765,0.1564275,-1.9509056,0.54962224,0.4390731,0.943454,1.8475572,0.8164704,-1.0681981,-0.3912345,1.0391234,-0.53103995,0.59449834,0.70409006,-0.5422144,0.2833046,1.2917038,1.6005284,0.95081145,-1.0967326,0.27278817,-0.45426327,-0.3083069,-0.6247286,1.0423065,0.7951065,-1.0071121,-2.0254843,-1.0447364,1.0712208,-0.09956889,-0.72776544,-0.45518515,0.6549145,1.507997,0.95194864,-0.7054237,-1.3222251,-1.4351268,0.91568613,-1.2074625,1.905928,1.4279493,-0.8351782,-0.14920989,0.6566619,-1.0244325,-0.39307815,-0.22007251,-1.2955933,-0.7502136,1.5549538,-0.16439071,0.892682,2.1619358,0.6849107,1.3304372,0.28249487,-0.782495,1.1175399,0.18084182,0.3315576,1.2741852,-1.0523982,0.7031741,-0.5455283,-0.087098934,0.7093198,1.3526891,0.86490846,-0.7861116,-0.30557647,-1.3136051,1.2792134,-0.24027242,1.9264879,-0.4258745,0.55694526,-0.69628835,0.16438551,0.37957639,-1.5422968,-0.8089902,-1.3816625,-0.8252013,-0.46666625,-0.9401911,-1.8530759,-0.5048854,0.35521027,-1.1200393,1.4725137,-2.3966765,-0.19558884,-0.6870513,0.41045186,0.41279006,1.0796434,-0.04607342,0.58990365,0.9784019,1.0713058,1.7546406,0.5539549,-0.7878817,-0.9074408,-1.8353728,2.0109282,0.3748568,-0.8245281,1.3033893,0.6213088,-1.4161814,1.6507823,1.187667,-0.29754794,0.66433537,-0.459044,-0.906968,-1.0969503,1.2511604,-1.1252441,-0.102831915,-1.071569,0.49138185,-0.8668794,-1.2000202,-1.3950418,-1.2636836,0.0014459509,0.3847164,-0.98366517,-2.4699218,-1.2496258,-1.2219828,-0.18012007,0.87045854,-0.013461871,-0.8028925,0.1833733,-0.5208107,0.95672625,1.7475892,2.164303,-0.58343095,-2.0256019,0.29976884,-0.18132305,0.18046807,-0.10934878,-1.4233097,0.71784365,0.09656262,1.731104,0.24292937,-0.29951304,-0.6614109,1.1120172,-0.46943003,0.9720672,-2.2170413,1.31018,0.35161287,-1.7702672,1.1721721,1.127923,-1.5195066,0.4700093,-1.3282175,0.55123794,0.5278301,1.4508532,-0.34396225,0.6549105,0.033879045,-0.61759734,-0.09749708,1.5440005,0.004328669,-0.49582955,-0.450899,0.20853081,0.54683983,-1.6606944,-1.359868,-0.71742356,-1.4660792,-0.0012018512,0.94261944,1.4934156,-0.022569915,-0.17833047,-0.20104061,1.6484303,1.5920439,0.14980759,-0.50275403,-1.2126125
CRABP2,-1.3422477,-0.39446577,1.6423284,0.16985267,-0.8661956,-0.11725638,0.3047012,-0.8968803,0.22279835,-2.8870716,-0.85005957,-1.2891033,-0.79604274,-0.75802255,-0.49545538,0.09580198,-1.6468229,0.31110796,1.2028341,-0.052577414,2.0674152,1.0973433,-0.98500764,-0.5302636,1.117962,-1.1871495,-1.2291031,1.3769048,1.9394108,0.47373646,0.8274106,0.1178242,0.98753977,-0.13270268,0.4558789,0.124920234,-0.6368427,0.9680187,-0.999262,0.62052613,-0.7609462,-0.058060627,0.8039206,0.19137523,-0.27251586,0.60119444,-2.085126,-0.9429967,1.1812408,-0.7116252,1.1625698,2.7244058,-0.6476189,0.6239701,-1.229391,0.14963847,-2.3209689,1.4105113,-0.27937788,0.5413436,0.27573475,-1.1804144,-2.275535,0.05192574,-0.79977244,1.2757787,-0.7101001,0.4344117,-0.42658618,-0.4338576,0.58991057,-0.9128051,-0.7080415,1.905931,0.13138023,2.206395,-0.7999336,2.0924516,0.25404665,0.14073849,-0.5741981,-0.7529986,0.046603188,-0.84664524,1.240873,0.27739996,-1.4631965,-2.4355683,0.20748734,-0.75666463,-0.90022105,1.1663177,1.444863,-0.20376909,-0.9877658,0.7913072,-0.7483629,-0.69160795,0.21957634,0.14803329,0.80408424,0.49205914,0.001065624,2.9495647,0.15468578,1.125522,-1.0026268,-0.49905843,0.80350477,-1.4842825,0.8972051,-0.42562917,-0.39261088,1.1353053,0.4975431,-0.08833176,0.095811285,0.6427025,-0.18431526,-0.7247973,-2.335595,0.23159876,-0.43534228,1.1934074,-2.1630437,-0.22205824,0.89967763,-0.10457739,-0.6200322,0.27072626,0.60807496,0.29882246,1.105662,2.1265078,0.2408324,-0.7240192,1.362752,0.7358076,1.1440725,-0.5008697,0.20279935,-0.3729082,-0.69494873,-0.41086364,-0.28741017,2.216403,-0.5908681,-0.70314234,1.2673032,-0.049328975,-0.76822656,-1.3282104,0.37634438,0.6227716,-0.23626833,-1.3553882,-0.45158947,-1.3195289,-1.8316616,-0.33216497,-1.2947202,-1.6285434,0.64125574,1.5360022,1.478598,-0.627109,-2.5965323,0.647708,-2.0932455,0.15879671,-0.25810042,-0.6920254,-0.09777117,1.3116033,-1.0832789,0.28173238,-0.55723053,0.8793198,0.82173556,0.43930408,-0.14520454,-0.48349485,-2.5643694,-0.50954956,0.87176335,-0.77168894,-1.0178977,-2.2482488,0.5784397,1.3433647,2.3738117,0.20908049,-0.7218728,1.372493,-0.2086914,0.62787676,-0.816698,0.6876447,-0.022421183,-0.47805327,1.1040771,-2.7880604,-0.19409138,-0.22119543,-0.8979491,1.6508017,-0.9782358,2.060115,0.04235672,0.97245234,0.54585075,2.4538236,0.06348816,-0.47857827,0.8301341,0.346565,-1.964943,0.9945524,-0.51751107,0.57270974,0.27004188,0.981964,-1.6365288,0.018266661,1.1141622,-1.5232122,-1.7183757,0.57800156,-0.027805556,-0.28401354,-0.633901,-1.0579754,0.113732785,-0.64066994,-0.4634346,0.030809276,-1.1771175,-0.26809666,0.7991004,-1.2020136,-0.940488,1.3305942,-0.14689502,1.9266487,-0.7760278,-0.9585868,-0.49813682,1.1522853,-0.66464055,-0.4215311,-0.3020919,1.1796134,0.4985945,-0.05991474,1.4473463,1.609502,-0.9884487,-0.7240552,0.8503037,0.18334387,-1.2733331,-1.1966949,-0.69436085,-1.3738474,0.98725873,3.0746539,0.20664379,1.0584868,-2.0697787,-0.94812673,-0.37492812,-0.5293052,-0.56379837,1.0897572,0.80459815,0.0855497,1.8832988,0.24985714,1.4405227,1.1855711,-0.26910356,2.1750617,-0.3383165,-1.1948454,0.003491471,-1.2884789,0.11715006,-1.237574,-0.7760361,1.2176418,1.6163408,-0.98487353,2.010214,1.1579162,2.0540779,0.64137685,0.8636101,-0.6355246,0.6140017,-0.33755803,1.6790931,-0.56441414,1.0372539,1.0381305,-0.9489323,1.6539767,-0.85442114,2.528177,-0.9631443,-0.1882099,0.65109634,-0.5313324,-0.088339314,2.5288093,-1.7172763,-1.1690532,0.05832116,-0.010251835,0.8528542,0.3390193,0.13027798,0.6776948,-0.47255674,-0.9377806,-0.24710713,-0.66148067,1.7422196,-0.103534214,1.9731152,0.39274883,1.2108932,1.1433426,-1.2350179,0.017030861,2.032863,0.5280411,-2.2316582,-1.1178976,-0.30418307,-1.333391,-2.5060833,-1.2806019,0.008491046,0.05874567,-0.35815036,-0.032921653,0.0025160715,-0.76922184,1.1390117,-0.049241763,-1.3308729,-1.1367366,-1.2212354,0.14640318,1.5221546,1.2176503,-0.26664728,1.0644786,-0.07948737,-1.1136562,2.629343,1.912012,0.4395816,0.47219232,0.61243004,-0.59474033,0.026065378,-0.38884953,-0.015008106,-2.029641,1.6457285,0.9700506,-0.64512944,-0.6211848,1.6003827,2.0086074,1.095447,-0.920019,-0.74700725,-1.3520265,-1.093536,1.964841,0.63090307,-0.6950043,0.93233734,0.61066055,-0.3329063,0.5488971,0.19558033,0.5297443,-0.6128381,-0.50582826,0.7946997,-1.2945496,0.85911113,0.74518937,-0.09283165,0.1111643,1.4553927,0.56243736,0.85915726,0.8817673,0.51410073,-0.8950312,-1.4952073,0.11990529,-0.2110076,0.41704044,0.68439686,0.1312295,-1.5774446,0.23804256,-0.51049536,-0.019796045,1.3701257,-0.50385994,0.1789137,0.33723524,-1.1352746,0.017476218,0.5907109,-0.7441717,-0.18493584,-0.112069875,-0.3896016,0.12972835,-1.191882,0.09112785,-1.1146619,1.5447931,1.0425404,-0.29655644,0.18607949,-0.6992376,0.4099568,-0.61748874,-1.3255391,0.9574536,1.389905,0.05536429,2.354393,0.33554116,0.17674604,-1.4893805,-1.1579,-0.5631269,-2.606582,-0.56098783,-0.847995,-0.8554065,1.1118052,-0.1405312,-0.17536837,-0.33395013,-1.4927756,-0.8098225,-0.0026731314,1.3376707,-0.58323103,0.21772882,0.5954067,1.4093109,0.5915778,1.3117378,-0.6701707,0.32092053,0.6590969,0.40801066,-0.31915626,-1.4549104,-0.3881607,-0.49452806,-1.6106324,-1.5317059,-0.26749527,0.69005036,-1.1831683,-0.31593305,1.1125726,0.14870954,-0.22827473,-0.8091713,-1.8031031,1.2339593,0.7127406,-2.2792044,0.33016387,-2.2997596,0.22789593,-0.73062724,1.9660208,0.72019994,-0.90569484,0.659284,1.1782492,-0.11527131,-1.4322969,-0.21614689,-2.1153774,1.5802869,-0.24238883,0.48571885,-1.1265147,0.100191474,1.3711776,-1.3935993,0.97924536,0.113338865,-0.5859113,1.2743144,2.3125436,-0.2924161
DEFB1,0.69948524,1.3084644,1.254821,0.61110115,-2.242374,1.2085861,-2.0656881,1.4191747,-0.6750841,-0.8675329,-0.43579254,0.6019064,0.14098945,0.6322248,0.8511554,0.48826006,2.040456,-1.4652538,0.5072424,-0.6009748,-0.08143184,0.57859164,1.6560507,0.52497524,-0.32756227,-0.5771407,-0.9908932,-0.58648336,-1.2563771,0.0031221115,0.056850873,-0.25397462,-0.74548584,1.2385129,-1.1635357,-0.7958943,1.3778644,1.0986292,0.74926573,2.2658265,-1.714596,0.9828555,-0.63741475,-2.2255795,-0.94430405,-0.9895495,-1.0868034,-1.3912865,-1.2824172,-0.42346784,0.3795036,-0.023502067,-1.2332144,1.6218532,-0.11564482,-0.08320437,-0.3855391,-1.3591093,1.7455798,-0.17573923,0.0043010586,-2.2216697,2.2981544,1.0986989,1.6960474,1.3265588,0.6370999,1.1077302,-1.7185577,0.34945753,-1.3880438,-0.21354029,0.24558257,-0.9807991,-0.55643636,0.11290825,-1.3763565,-0.0295401,1.0160801,0.08182409,0.61963844,0.8014095,-1.4913311,-0.16121027,-1.6986477,0.24059995,-2.9093683,0.55587167,0.5763218,-1.3025591,0.13875929,2.1903384,-0.05381406,0.71452534,0.25051102,0.5347339,1.1543839,-0.100308694,0.6237892,0.5346291,-0.26299074,1.2536935,-0.06524127,0.10568954,0.72141916,0.7165845,0.08811474,-1.0399734,-1.1215417,0.17560351,-1.0582933,0.41616926,2.0283055,0.6228761,0.89297104,-0.41860634,1.839586,0.39248815,0.49404714,0.83087176,0.6287218,-1.2955182,1.2736913,0.18307437,-1.4902914,0.10695431,0.48533997,1.4178313,0.06577568,1.1868606,0.81738055,-0.35713792,0.20569237,1.8187946,0.45493743,-1.2757238,1.2520934,0.75257695,0.5832694,2.0303195,-0.74764085,-0.2616644,-0.9668162,0.91555446,0.1285953,0.77814925,-2.2665434,-0.6578362,0.18077156,-0.60229623,1.363109,0.41779423,-1.3257327,-1.7189949,-0.37741107,0.3242577,-0.7221371,-0.38619137,-1.213973,0.123990215,0.16283412,-1.1274662,-1.2146751,-1.4846474,-0.35949922,-1.681316,0.11753419,-0.37321755,-0.6407825,-1.8825024,-0.5912118,-0.5355425,0.2578319,0.39719117,1.3740828,-0.30788743,0.1399484,-1.1262399,1.0052001,1.1947356,-0.8840602,1.3832734,0.34872997,0.10285723,-0.6906183,0.9270753,-1.2363119,-2.0730457,-1.9246821,-0.7683289,0.9103945,1.4366269,1.725968,-1.3746701,-0.028278194,-0.2276155,-1.723147,-1.0445334,1.671854,-0.5929876,0.87114364,-0.94376767,-0.25780398,0.87589854,0.97048336,0.66106004,-0.16040249,-0.38495678,-2.0153556,0.038888544,0.50863934,0.9348948,-0.9982514,-0.87757987,0.7454843,-0.18226318,0.07840752,0.036743395,-1.4761794,-1.2035902,-0.95326304,-1.526062,-0.38053766,0.8058256,1.3173286,-0.014408332,-0.85789895,0.7109095,-1.7675749,1.065237,-0.9076776,0.84744453,1.3363065,0.277042,-0.21460225,-1.509354,-0.01931289,1.1533175,-0.37841257,-1.7126725,-0.8582632,-0.53390574,-1.421607,0.84037495,-0.49812672,-0.23851095,-0.009947887,1.8262124,0.6305855,-1.90138,-1.5314615,2.103839,-0.24502431,-0.05664446,1.5369632,1.9131187,-1.4397502,0.58779085,-0.17363934,-1.0503029,-2.3790493,-0.83128464,1.074108,-0.91795033,1.0076542,0.7124339,1.0529577,1.4472995,-0.9631923,1.331258,0.0906474,1.4388402,-0.4209204,0.6835408,-0.87822354,0.11875047,0.52822053,-0.9665352,-0.5918157,-0.022336617,-0.7717957,0.96774036,-0.16800343,-0.94395894,0.22318096,-0.59239715,0.007961063,1.3543475,-0.66622734,-0.98326695,0.28112128,1.2982647,-1.0760568,3.9313304,0.32584596,0.038469344,-1.9458064,-1.9686961,-0.42725337,0.29671642,2.6342337,-0.75547004,0.068795145,-0.77513087,-0.25497678,-0.5907534,0.62626284,-1.0038996,0.76965266,0.6168155,0.34785375,1.4230177,1.0824654,0.0731919,-0.027460571,1.8740994,2.4329166,0.76094,1.169824,1.962994,-0.48230433,0.37751094,-1.6871055,1.2021754,-1.22622,0.2515694,-0.40409878,0.96079105,1.1470147,0.6284342,-0.6638816,0.12281409,-0.36567095,0.40360826,-0.74502844,-0.37593824,-1.6306249,0.11855424,-0.8459245,1.340597,0.43284515,-0.075652204,2.645793,-0.6064617,0.12113009,1.0216652,1.1637826,-0.11322255,0.8982341,-1.3865137,-1.0075434,0.51289934,-0.66007954,-0.31848565,-0.04867879,-0.46675295,-1.2711968,-0.069676764,1.2637342,-0.8563109,0.26226592,0.30584255,0.82049227,-0.2743432,1.739164,-0.78348106,-0.15808901,-0.5509691,0.42859328,0.7973523,0.2197307,0.33212724,0.4305715,0.75394607,0.39436913,1.1867151,1.79978,-0.49976513,0.31356427,1.1172782,-0.5519624,-1.1887075,0.2939204,-0.7138344,-1.4803255,-1.927149,-1.6442062,-0.29820898,0.18820128,0.77686465,-1.6604588,-1.2538576,-0.29420465,-0.82684624,0.08373451,-1.1836,-0.6071841,0.6051729,-0.7551673,-0.2984951,0.5101257,1.6049713,0.060967248,-0.4182133,-1.0911121,0.29293177,0.2825917,-1.4273671,-1.0287653,-0.6994857,0.17732549,0.24153475,0.7826598,0.041292902,-0.22963196,-0.64458436,-0.3086135,0.6767272,-0.35268715,-2.316857,-0.5043939,-0.81390154,-1.0393504,-2.1400664,0.19245026,0.3359778,-1.7784603,0.58909255,0.7848124,-0.59884083,0.773008,-0.25662902,0.3432233,1.3641479,-1.7595894,-1.051837,0.52436143,-1.5397674,0.9815188,0.5971653,0.6274211,-1.7643169,-4.306465,0.68647635,-0.4268222,0.6293929,-0.004414915,-2.326759,0.20426413,-0.38904357,-0.39092645,-0.89878875,1.7109003,0.53668094,0.1968813,0.05761564,-0.023788074,1.6088767,-1.7243226,1.2264688,-0.7741158,0.74436843,0.052589603,-0.53875476,0.34269446,2.111645,0.071945414,-0.11938107,0.5182076,2.9004543,0.1465394,1.0842121,1.2315851,-0.10360379,-1.173639,1.5599298,-1.2027711,3.2055287,0.3581435,-0.017861784,-0.8607072,-0.12518564,-0.62828314,0.3868445,1.3858162,0.44406343,-0.22654799,-0.5743819,-0.5063768,-0.768018,-0.8927938,-0.20860556,0.5160147,-0.79966617,0.5863416,-0.13734551,0.42990017,-0.8552456,2.560179,-0.7332237,0.6097549,-0.943573,-0.6318111,0.012927097,-0.04915902,1.6982454,2.3779404,-0.9359112,-0.41752186,-1.1046102,2.016165,3.057669
DMKN,0.6783634,-0.28617886,0.37717107,-1.0989736,1.1486858,-1.2311631,-0.11818825,-0.17076994,0.4351057,-2.0069804,-2.2223792,-0.5500164,0.40242195,0.88326263,-0.30009133,-0.85731304,-0.05759369,-0.68409306,-1.1270151,0.3167708,-0.03103933,1.6849607,-1.2707669,-2.391346,0.11280121,0.68479717,-0.7704526,-0.91868484,-1.1960994,0.64125586,0.07973876,-0.5029647,-0.19307077,1.4735628,1.5603551,-0.7783428,1.2431511,1.1323508,0.78324246,-0.07937738,-0.9820311,0.57825506,-0.25494456,-0.9529855,-1.1724691,0.43752468,-0.7926494,-1.22531,1.4527119,-0.5937317,-1.8258774,0.12792379,0.27078232,-2.2017698,0.2435438,0.3480963,-1.3448064,1.1275915,-1.032171,1.3540618,0.9362691,-0.1659783,1.8894569,-1.6773151,1.913299,-1.3250871,0.815869,1.0602201,1.8970239,1.1425012,-0.44571063,0.016672704,-1.0587703,-0.19296283,1.0394272,1.4702288,1.2355294,-0.155603,-1.6793085,1.2252542,-0.31027365,-2.6082075,-1.0503143,0.69655085,0.09181608,1.6938325,-0.9762896,1.7007122,0.8496846,-0.15649295,-0.6048486,-0.6288946,-1.3097091,0.16250221,0.89673144,-1.3476934,2.327295,1.0494195,-0.14736478,1.5272843,0.456083,-1.1277156,1.1223239,2.4093268,1.355103,0.8949072,1.8716384,-1.328727,1.0922717,-2.36238,-0.28873855,-0.14095375,0.081928656,-0.5780533,0.36691996,-1.2080573,0.5242464,-1.06196,0.36567447,-0.93411356,0.2977942,-1.3745972,0.044105995,0.30432498,1.3613682,1.4429789,0.18857338,-0.29437396,-0.1522653,1.3778291,-0.25036338,1.9558797,-0.99694043,0.9251248,-2.1129503,2.1310747,-0.86643773,-0.7150522,1.316935,-1.1701423,0.46465927,-2.1165519,-0.2538713,-0.9464637,-0.2266603,1.058175,1.787586,-0.8565705,0.044758584,1.2244804,0.018335193,0.06159376,1.2504458,1.108335,-1.0012746,1.1298468,0.46378192,0.7363665,-2.2347019,0.02040242,-1.4975584,-0.80033344,0.09586414,-0.6046928,1.4622215,0.0023386818,0.17869572,0.28767738,0.44260392,-0.68403876,-1.5125287,-0.6551252,1.2808785,0.51622367,1.4872963,-0.098567896,0.8798887,-0.66677564,0.29099217,-0.5317662,-1.3359386,0.6343316,0.05006207,-1.2460368,-0.48821396,0.51314825,0.97680086,-1.3277038,-1.6338824,-0.5832943,-0.86506146,0.68754977,0.6461928,0.2946464,1.3272656,1.1156942,-0.3911181,-2.0502288,0.6645892,0.99094194,1.8008443,1.2271987,0.9946483,1.1338651,0.9746662,1.4481647,1.547972,-0.81678206,0.002080647,-0.26358438,-0.7830167,-0.06333159,0.58840626,-1.1947776,0.9208379,-0.1713379,0.10071652,0.60114396,-0.14488792,-1.2811239,2.1256423,-0.8585938,-1.6701446,-0.62649214,1.3760245,-0.65759885,-1.1642506,-0.8612155,0.8916161,-1.0519702,1.2216374,0.9157018,-0.06422702,0.50655764,-1.1519216,0.32079783,-0.90246975,1.2384739,0.86428964,-0.091158405,-0.07484647,0.37556165,-0.71953595,-0.73285055,1.6650952,1.5009604,-0.4461053,0.37286896,-0.14228143,0.7797838,0.9322964,-1.7157087,-0.8179535,-1.2271255,0.23713928,-1.609261,0.5284837,-0.1341075,0.1536397,0.27366138,2.3948705,-1.7243128,2.2179482,0.6532887,-1.1028066,1.4621184,-1.6993271,-1.3233461,0.45568997,-0.21261725,0.47323066,-0.8003715,1.0585508,-0.66467273,0.25559345,0.48015982,0.37357354,1.1757555,0.28891537,1.5068319,-0.6975515,-0.8770488,-0.7494997,-0.055419356,1.3793513,-0.0061969156,0.4705041,-1.3469871,-0.36577573,-0.6863417,0.25469202,-1.8751358,1.1747204,2.3286455,0.9069239,-0.3788935,-1.7664909,0.597247,0.6109645,1.2909746,-0.7160332,-1.5759168,0.3333958,1.4394543,0.0833984,0.4522503,0.023883611,0.20880252,-0.1248141,-0.19500016,1.2962813,-0.91767234,0.57492965,-1.2425057,0.06419328,-0.44509333,1.5881728,0.60902756,-0.09912022,-0.44226426,0.592995,-0.79927427,1.9382491,1.448532,-0.4048094,1.187632,1.7283964,0.75504804,0.0020835947,-1.5636413,-0.033207458,-0.25855142,0.5387063,0.7338155,-0.22887288,0.84256023,1.0803856,0.16875257,-1.1975377,-0.04160675,-1.0450711,-0.5756987,-0.42170942,-0.63991237,0.74735564,1.1983194,0.34016028,1.467882,0.58216184,0.69899505,0.4207363,0.8164438,-0.44015253,-0.33950606,-2.0691252,0.889511,1.0470843,0.42345434,-0.06711536,-1.5647714,-0.95437515,-0.36720172,-0.7152224,-0.22213921,0.22821489,0.8522476,-2.1084855,0.45824373,1.4264089,-1.3666717,-0.675864,0.8394563,-0.0481898,0.99290043,-1.2051642,-0.49926737,-0.9193486,-1.9429026,-1.3490424,0.9903743,-0.5778205,-1.2888994,-0.7394936,0.51541936,2.290964,-0.8426775,1.7582493,-1.139994,-0.2717345,1.3284792,0.72708625,-1.2508436,-0.5434392,-1.1564227,0.7073638,-0.42386296,-1.0484548,1.0709884,0.27108717,-0.10729055,0.4555268,1.6258192,-0.9554976,1.1265626,0.5451398,1.1021388,0.725842,-0.023017347,-1.736956,0.37267005,0.68125105,-0.42103723,-0.64941835,0.45848924,0.104464464,-0.11590526,0.49607936,0.17005894,-0.40304884,-0.3857814,0.0125414,0.37807253,0.44037798,-0.79159373,1.2110076,0.96570444,-0.54860175,0.10972165,-0.2694399,0.76116294,0.31435516,-0.9550511,0.6437204,0.37043768,0.9327981,-2.3475351,-3.530111,-1.1598561,1.0724982,-0.68722564,-0.8673699,-3.6064131,-2.4976985,1.8906233,0.43803865,-0.67056865,-0.037493527,-0.29893604,1.4082655,-0.5908407,-1.0816736,-1.515687,-1.0537568,0.24835324,-0.41520956,-0.1064275,1.079016,-0.39886007,-0.3361572,0.07513009,-1.1226298,0.46911812,1.2187355,-0.71352047,-0.72317266,1.3585726,1.0281135,0.67511666,-1.4108372,-0.8294181,1.9607098,0.4892131,1.2856381,0.426751,-0.989787,1.4229501,-1.4842395,-1.9292998,0.11751715,-2.1629198,0.66692424,1.1001171,0.9954457,1.7155913,0.924712,-2.2064261,0.79963183,-1.5502517,-0.699057,0.5824634,-0.4083703,0.42663863,-0.8917514,-0.4229785,-0.73923784,0.9121954,-0.11476389,-1.3590164,-2.0847514,0.63439447,-1.7846993,0.36947265,0.5724554,-1.4859127,-1.7285808,-1.3109416,3.012731,-0.61304575,-1.3593364,0.85260606,-0.32483184,0.6929633
DSC1,0.92787325,0.63956714,2.3694706,-0.7724736,1.2881637,-1.1683449,-0.8561067,1.3483078,-0.07546667,-0.40381896,0.331493,0.9345087,-0.5798027,0.2648049,-0.38238618,-0.18494469,1.0572023,-0.63945293,0.716078,0.32458958,-1.1700282,-0.9373469,0.31819296,1.8533007,0.620548,2.2586958,-0.9626401,-1.5816742,-0.008063541,1.725617,0.69282454,-0.8293081,0.1878661,0.62130904,-1.0502324,0.28290963,0.6753523,-0.042031866,-1.5700297,-2.1857197,1.0967293,-0.04140035,-0.7765032,-0.02920105,-0.5540279,1.4960823,-2.5217562,1.0697385,0.6656808,-0.9899579,-1.7654809,0.32416445,-2.326173,-0.28138486,-1.7839459,-1.2687024,-1.5999767,0.8716788,-0.036425997,-0.8439156,1.1299071,-0.30709216,1.2646713,0.69637483,0.6906952,-1.9046264,0.60067,1.3514762,0.016036607,-0.80174136,-1.6490709,-0.08279827,-0.4835851,0.37034088,-0.60251397,0.43197507,0.32427064,0.6278257,0.7592895,0.038326416,-0.30405855,0.80535716,-0.047205817,1.3286562,-1.7882352,1.225564,-0.5686404,1.8482094,-0.7230114,0.3311954,-6.318461e-05,-0.051886234,-1.8252808,2.3055394,-0.865165,-1.1839287,0.67732126,0.16710496,-1.880064,-0.8863796,1.4387288,1.3134611,-0.27655703,0.74285424,-0.9789502,-0.9856654,-0.051962893,0.8061311,1.7283264,1.0455207,1.2649945,0.6128382,0.04480762,-0.14585744,1.0406404,0.83124834,-2.0536163,-0.7226873,-0.39658415,1.7795782,1.1971021,-0.36343056,0.1433305,1.2679948,0.18017596,-0.09993585,-0.3626387,0.6227705,-0.29783496,-0.47612688,-2.0526233,-0.6428511,-0.36111382,0.2753001,-0.42604226,-0.56098664,-0.20894718,-1.2218663,-0.25897565,0.23475035,-0.9945503,-0.4261803,-0.19076297,2.0472395,0.3866991,1.4711982,1.6707544,2.14484,-0.2314463,0.10270263,1.1829647,0.26665992,-0.34444878,0.5214057,-0.9027323,-0.09423434,0.18098207,-1.3128557,0.6311418,0.3014001,-1.0894216,0.55829114,0.40188253,0.49491745,1.3532422,0.6038658,0.5553435,-1.5318995,-1.653331,-0.6337246,-0.024998154,0.2431599,1.4888651,-1.6146232,0.7239265,1.6721486,-0.6485401,-0.9938624,1.2572079,0.50938475,-0.3589794,-1.7327503,-0.3884679,0.9668613,1.999658,-0.50679857,-2.4264238,-0.4023011,-0.97896016,1.4467636,1.8522743,0.48397484,-0.8996531,0.6764931,0.6166261,-1.504731,-1.6510121,0.00807393,-0.0229946,0.45321405,-0.73069775,-1.3206166,1.152364,0.9118604,0.9558439,-0.47443467,0.44369662,0.30841702,-0.9651778,0.35212672,-0.7980067,-0.8706361,0.11520106,0.43444452,0.42876387,2.263244,0.60937834,-1.4239638,0.38278213,0.55727124,-3.0550046,0.3924457,-1.9703358,2.0047905,-0.3586067,-1.1152948,-1.6230686,0.99367464,-1.0690844,0.13934243,-0.81507987,-0.38961884,-0.58750266,-0.46751314,0.14197382,0.0720851,-1.5807704,0.6622452,0.22365028,1.3104331,0.16201925,-0.855453,0.18614587,-1.3268801,0.51468223,1.419904,0.44669008,1.7329001,-0.6511952,0.6992651,-0.9607348,-0.897671,-1.2952104,0.37828118,-0.33898035,0.9429286,-0.6866261,-0.54901177,1.9642019,1.3872379,0.2739464,-1.0593438,-0.08916694,0.02112227,0.3424791,-0.50771815,1.1682278,-0.8257213,0.51008224,-0.09226994,1.065177,0.34325892,-0.3564716,-2.0230668,0.9934857,1.948029,-0.37637615,0.29255027,0.5021806,-0.06478195,-1.1443285,-0.5889128,0.21288012,-0.66305375,-0.22762105,0.39996675,0.072894774,1.0750527,1.8412849,-1.983832,2.7341824,-1.0797572,-0.028177366,-0.3519487,1.4657499,1.7638162,2.765813,0.1126343,-1.0114831,1.8728426,1.3250822,-1.9227432,-1.4994692,-1.4428027,0.23657396,1.2508597,0.8698207,0.6323338,-1.339267,-0.16074389,-2.259977,-0.07729648,0.22386494,-0.8163527,-1.0547996,-0.69719124,1.979785,-0.9400498,0.9062137,-0.45882693,1.4776973,0.037031557,-0.46916184,-0.93996197,-0.7177494,-0.03432735,0.8412035,0.121591404,-0.7941134,-0.98396724,-0.9449995,-0.022466592,-1.3422809,0.15569724,-0.14939746,1.2365147,1.5558821,0.5578213,2.0647638,-0.3288328,-1.211219,0.9049956,2.1100013,-1.2770666,-0.60917765,1.446266,0.08365406,1.3558472,0.8951583,0.6508437,-0.7975029,-0.12667815,-0.3184878,0.2328952,-0.3280333,-1.7173332,-0.0070562633,1.0669975,0.4200723,-1.3025934,1.945416,-1.3922751,1.4177597,-0.44395185,-0.6168058,-0.4996936,-0.9742615,-1.1546975,1.4904175,-0.7636583,0.21197514,-2.3729577,0.0050558136,0.15382273,0.79035497,2.4497359,-0.95810026,1.3762027,0.2161728,0.632013,-1.5280068,-1.5140451,-1.3773338,2.311039,-1.6376859,-1.4659806,0.09784424,0.25484517,1.660648,0.45763934,0.69812983,-1.8994703,0.70343995,1.5230801,-0.96688455,-0.4550894,-0.13755964,-0.34822834,-1.8079458,-0.13794492,-0.22925079,0.18744272,-1.1239736,1.537399,2.6345787,1.5275258,0.23941062,0.049482554,0.6737915,-0.4632707,-0.88648987,1.921445,1.2746344,-2.282123,0.8937654,0.74036723,0.024512418,-0.2169733,-1.350097,-0.27245748,-1.5421684,0.07476915,-0.39703754,0.7422014,1.2218441,-0.1309344,-0.2905421,0.19119841,0.50372475,-0.29492143,-0.54266715,0.8926908,0.23327692,0.7513035,-1.509776,0.45120817,0.74075955,-0.5584437,0.57867604,1.1666931,-0.77801305,1.289605,-0.24880055,-0.08951234,2.0259964,-0.2788812,0.37023476,-0.5294092,1.7595012,0.10508617,-0.68779,0.9895892,-0.40828457,-1.3644814,-0.9975743,0.795694,-1.0135335,1.0912024,0.5910989,-0.41972083,0.9011233,1.9950988,0.13855176,-0.058876254,-1.005894,1.1047567,0.6388997,0.31378183,-0.9265561,0.24826662,-0.4594703,0.84734625,0.05757494,2.3622603,-0.5031399,-1.1481755,-2.1119776,-1.8127954,-1.7926781,1.63634,-2.4817908,-0.66346246,-0.5134201,-1.133941,-0.334664,-0.37315205,-0.93893653,-0.92162555,0.52710575,-2.3868992,-0.7534257,-0.54146767,-1.6599246,-0.15358704,-0.7112204,0.24117616,-0.5539426,1.46278,-0.764817,-1.6569805,-0.6838537,-0.1439976,0.6420011,-0.38233548,-1.1440835,-0.26279622,-0.710878,0.7082094,2.7860098,0.26897997,1.4146384,-0.058625754
DSP,-1.1118096,-1.2090523,-0.35019183,-1.5966558,-1.4711648,-0.7806597,0.33245003,-1.1106725,-0.1744801,-1.0635176,1.0575159,-0.8282908,-0.45882824,0.36353752,0.40335253,-0.12932286,-1.1494817,-0.4602024,-1.064754,0.13813782,-0.88505936,0.9703939,1.1595355,-0.17084709,-0.0518947,0.49566767,-0.37390247,-1.9978185,1.6415952,0.21672285,-0.7434797,2.1560702,-0.14960872,0.27001628,-0.29137614,-0.7664391,-0.69077474,-0.76255995,0.17540272,-0.38892317,0.11039711,1.926693,-0.8345795,-0.80057746,0.48762912,0.175365,-1.1978651,1.6323353,0.65738875,1.3312618,-0.70251906,-0.44401073,0.54827744,0.3603056,-0.8712202,-0.40024003,-0.42937174,-0.06162999,0.2140023,-1.6319973,-1.2565587,0.08638836,0.38889778,0.93248075,0.6119437,0.67837685,0.65779114,-1.2190211,-1.8169421,-0.09452271,-1.5750322,2.6238205,-0.76413596,0.83940506,1.4287069,-2.0750723,0.74703217,-0.99929196,0.4135005,0.61044353,0.101392984,-2.2762008,-0.32038715,1.6019529,2.413501,0.404359,-0.5833739,-0.8582618,0.10955267,0.9258558,0.92540663,1.0919943,-0.8349868,0.07927498,-0.32089093,1.2806176,-0.7256303,-0.83420074,-1.1848598,0.82804364,-0.5242505,-1.4196203,2.210887,0.59443086,0.5262306,0.87256825,0.48332536,-0.1924874,0.34779435,-0.27257037,-0.47054598,1.1799741,0.82093483,-0.4425643,1.607604,0.29475555,2.1667776,-0.4942548,-0.65879834,-1.7739981,0.8148329,-0.49416497,-0.36956984,1.3000882,1.3801582,0.5130636,-0.3679105,0.55354637,0.3163918,0.09134884,-0.6655498,-0.54160506,0.2112337,0.35500368,1.3550417,0.3112816,1.2496816,-0.44550335,1.2757416,0.053127475,1.8198847,-1.7669686,0.472321,1.9218119,1.2469914,-1.1631278,2.228622,-0.27920446,1.0163352,-0.23652238,1.6887615,0.8502977,-2.4459643,0.92327166,-1.9766105,-0.5020423,1.3106222,0.692979,-0.22155261,-0.9617851,-0.5128451,1.5124108,0.8937741,-0.008941926,-0.32672557,-1.1474142,2.9708998,-2.0930963,-0.57869136,0.28200454,0.59702003,-0.29797724,-0.67299867,0.61604184,0.6834777,1.0719417,1.7805313,-0.34308496,-0.6650174,-1.5399083,-0.14628226,0.6438199,-0.1573152,-0.8905334,1.4486051,0.402541,-2.5194917,-1.9241784,-0.03231951,0.5076704,1.1586964,-1.0187372,-0.027228849,0.0687138,0.50511837,-0.5526961,-2.5469992,-0.60152596,-1.0692904,-0.84554857,1.1409397,0.60881823,0.91455275,0.16838184,-0.4865097,-0.19103436,2.1446373,-1.3179029,-1.7202559,-0.20616977,-1.136133,-1.1632537,-1.222125,-1.1389489,-0.10163772,-1.3032141,0.9911582,-1.2463005,-0.61364025,0.4881402,1.7049663,-1.8226938,-1.9548771,-0.32677147,2.346298,0.20321274,-0.30780104,1.4799129,0.5200773,0.30363208,-0.48546043,0.1371084,-0.293709,-1.352447,0.8880134,0.57744646,-0.92088485,0.6393533,1.1511647,-1.4353167,-0.043477044,-0.043170556,-0.46351597,0.32556787,0.42141905,-0.6586317,0.18917882,1.5816724,0.17779192,0.122315004,-1.2106639,-1.1356701,1.5186498,0.34276208,0.20937248,0.58877146,-0.5745569,1.1478112,-0.058296174,-1.6571501,0.10772271,-1.0364616,-0.5259128,1.0347521,-0.9808062,1.8442205,-1.3802469,-1.4245298,0.35068727,1.2394993,-0.31926414,-0.4927342,-0.06278724,0.406394,-1.3759332,1.259472,-0.6897411,0.7964604,0.10453115,1.078601,-1.8540589,0.93976825,-0.13677321,-0.6265352,-1.1200724,0.07833742,0.9095483,3.151974,-1.3821775,-0.78503937,-0.5512841,0.7393489,-0.0561194,0.6966937,-0.023954095,0.730441,-2.590629,-0.41027376,0.4060478,1.6614552,0.77469295,-1.8203049,-1.0765674,-0.80871725,1.4955028,0.30588898,1.2611102,1.1341431,-0.37736183,-2.9746482,0.5562332,-1.7921388,-0.9037473,0.124253504,-1.4118443,2.5803149,1.2064726,0.13287956,-0.7447253,1.1043935,0.41730383,-0.98468935,-0.9292233,-1.5140067,-1.905587,1.1802573,1.0817002,-0.3989188,0.9659621,-0.97108746,-0.53934824,0.4053116,-1.4353199,1.1853083,-1.6981002,0.7305715,0.010401364,-0.59236085,0.17102915,-0.44855863,-0.37298694,-0.27880484,-0.8132866,0.17144164,0.86193335,-0.5811124,0.13597815,0.32264268,0.30745173,-0.73099464,0.41406512,1.489963,0.2227284,-1.0857152,-0.3528141,-1.7779495,-1.3196981,-0.057148334,0.97341603,-0.18249965,0.73692364,-0.5013221,-0.5049226,1.8260981,1.490892,-1.1646162,-1.9342561,0.4951316,1.3878803,1.4973507,0.009587805,0.9646245,1.3986386,-0.84172857,1.041404,1.0450284,0.26032612,0.6702328,0.9785903,-1.3713529,-0.52423954,0.7681922,0.07496842,1.9395944,-0.57886475,0.7246008,1.2469391,1.0132751,-1.0037262,0.8988165,-0.8900682,0.801978,0.99598867,-1.4139025,2.3001764,-1.0132027,-0.48556277,-0.25197205,-0.040586855,1.1915798,-1.0924822,0.24552605,-0.15547408,0.96846473,-0.26687798,0.046562027,-0.9284047,0.99587905,-1.3052436,0.28720817,0.68473786,0.75887764,-0.568879,0.62253445,0.5954922,0.50797504,-0.050995998,-0.6541474,0.698104,-0.41199544,0.08114873,0.9114214,0.4623023,-0.5578236,-2.727983,0.3193066,-0.007988957,2.8031185,0.27049688,0.9008402,0.020738699,-0.89343697,-0.5175192,-0.36393854,0.91190076,-0.20118618,0.54924595,-0.36669368,2.2295706,0.40850198,1.5961871,-1.9415729,-1.5944256,-0.28648043,1.0947856,-0.38493392,-1.0725701,0.3225615,1.8322486,-1.6808144,0.6989421,-0.49513146,0.38646495,1.8651878,-1.019991,1.3610744,0.23065507,-0.5495133,1.0056787,-0.7705659,-0.5311038,-0.08709634,1.2998161,0.69338846,-0.2975403,-0.042620584,-1.4515419,-1.6342937,1.8795558,0.13742013,-0.99727833,-1.2567168,-0.12814096,-0.4497161,-0.8358462,0.5170137,0.20551997,1.8500494,0.7070937,0.9619114,1.2934493,0.015000555,-1.7277461,0.056134153,0.29961905,-0.9474023,0.1769831,-0.13798422,-0.8920074,1.348413,-1.611959,1.2329408,-1.5782878,0.57672393,0.8603158,-2.5971398,0.3348981,-0.34337032,0.8253557,1.4465153,-1.8484702,-0.7864148,-1.4540566,0.38378495,1.5585021,-0.015856616,1.0845883,0.0796215,-1.4893461,-1.5519332,0.19162866,-2.3759584
FGFBP1,-0.8520806,2.0820072,1.61076,-0.1974787,1.2324506,0.64999676,1.239885,-0.62163764,0.9223039,-0.27603796,-0.9104115,1.3775878,-0.27996022,-1.1693884,-0.7808307,-1.4425143,0.77910024,-0.5991638,-1.4972576,-1.4386029,0.34365034,-1.2388886,-1.7757353,0.16968708,-1.2413146,1.0872536,-2.9607348,0.4127515,-0.35062525,-0.13171715,-0.9654034,-1.2709908,0.8176511,0.2778604,0.8549545,1.0671281,-1.074991,2.1258526,-0.04296665,0.11500298,1.2119466,-0.5152139,-1.2466892,-1.4594711,-0.30409706,-0.06825312,-0.36061472,-0.28517804,-0.41742164,0.23763278,-0.8422542,-0.5283335,-0.49817342,-0.58302987,0.6437488,2.0371485,0.5281323,-0.43542224,-0.35951912,1.1824573,1.2736022,0.4764567,-0.758558,-1.7238533,1.0124482,1.2959532,-0.3547496,1.2538605,-0.0018901727,1.5211575,0.31091875,0.96532696,-0.64008063,1.6619264,-1.0185951,0.25068563,-0.914704,-1.5147005,-1.0664959,0.49107224,-1.2282288,2.1064534,-0.2275281,0.09634921,-1.2360181,0.038208127,-2.3084304,-0.38126576,-0.91162443,-0.48066327,-0.8178355,1.1808584,-1.2140648,1.6240999,1.0620134,-1.6067212,0.79093784,0.17247704,-1.2494094,-0.52679616,0.8683337,-1.1350436,-0.9983157,1.6964444,-0.72672075,1.2088494,-1.324667,0.7260127,0.8713158,-2.013844,1.2710028,-1.437251,1.9629195,-1.2152586,0.26640478,-1.7078636,0.292643,1.6489286,1.0630293,-1.2188389,-0.12383396,1.5761615,0.2643647,-0.55632013,-0.044392,-0.38551098,-0.61121005,1.1812832,-1.1700865,0.7992043,-1.5895025,2.1045923,-0.7139299,-0.3192263,-2.7578862,0.7057789,-0.56101054,-1.4486713,-0.05456287,0.37694952,0.095646665,0.8231923,0.4616164,1.5479264,-0.6666099,0.24827512,-0.9738156,1.533351,-0.62805754,1.0415196,1.1879202,-2.1404765,-0.27104378,-0.31044862,-1.2443923,-0.6673182,-1.1748886,0.96076113,1.2562863,0.3390602,0.3651715,0.74757653,-0.81241494,-0.7254374,-1.3391256,-0.14234316,-1.4403393,0.32804847,0.34410352,-1.000588,0.2775357,-1.6522528,0.85662156,0.6551753,0.2823677,-1.4297706,-0.57279193,-0.8593805,-0.75634307,-1.3614744,0.39975813,-0.53174675,1.0721095,1.0587269,-1.2374337,-0.30728194,0.69296366,-0.790249,-0.55200714,-0.6680685,1.7324332,-0.5399479,-0.71894073,1.6644906,-0.55597955,-1.0525345,-1.4275573,-1.7543606,1.0415039,0.13553867,1.0416256,0.48978075,1.5649269,0.3978004,-0.7180599,-1.1881136,1.2664614,1.1082114,-0.4177409,0.25393918,0.4898116,0.91188294,0.060688775,-0.9714121,1.1444837,-0.038592678,-0.6796306,-0.34590548,1.7491331,1.3211805,1.4457858,-0.40620726,0.676195,0.24545762,0.80529946,0.42106965,-0.85365885,-0.16153619,-0.19035856,-0.4836925,-0.54639786,-2.568383,-0.4149465,-1.1299247,-1.9759463,0.13527212,-0.55156606,1.5971572,-1.7091764,-0.05136139,0.87265843,-0.28006098,-1.8992488,-1.6251012,0.92250675,0.15510839,1.476489,-0.83993,1.1555521,0.7096079,-0.18307054,-0.56135994,-0.90797836,1.0041499,1.0545626,-0.7489539,-0.45870084,0.66834724,1.711104,-1.3577942,-0.75051343,-0.22674361,-1.8463025,-0.4320616,-0.95283854,-0.13275282,-1.8498248,0.88259685,-0.30063373,-0.892552,-0.94856894,1.9899558,1.0594847,-1.9437187,-0.5224009,-0.882317,0.6631916,-0.3422965,-0.13780557,0.49380875,-0.643262,1.7881798,0.86094266,-1.166089,1.590738,-0.6068253,0.1704114,1.643478,0.71515226,1.4597473,1.2260133,-0.02545567,-0.6824522,1.4972287,0.8758862,1.945284,-0.1816208,-0.9244644,1.2697682,0.84734464,-1.2080708,-0.20078951,-0.009159876,1.0897948,-0.592141,-1.8930911,-0.18168856,1.787134,-0.23740429,-1.421536,-0.42967844,-0.35900205,-1.077771,0.9282503,1.3663076,1.6418992,0.7580957,-0.8326214,1.2889259,1.9982811,-0.2256658,0.05898747,-1.5254098,0.81608135,-0.24029647,-1.6643186,1.7336315,0.4782526,-0.017670205,1.8761668,2.1217206,0.5726858,1.5932106,1.3676296,-0.30327827,-0.2043788,0.4832873,-1.2427673,1.3615041,1.4107871,-0.5072671,-1.3693722,0.32026762,-0.38146025,-0.61307687,-0.66268057,1.1788087,1.712986,0.5143005,0.13655405,1.3298507,-0.5780546,1.1877398,-0.44876507,0.45383316,0.63253075,-0.6590823,0.4980054,0.44878593,-0.19663905,-0.8482393,0.49982888,-1.7489401,1.0242112,1.1226554,0.32875994,-0.16926228,0.7448041,0.92391294,1.4773928,1.8006338,1.5275884,-0.300678,-0.10243642,1.4292946,0.95813394,-1.5316991,0.19388326,-0.79514277,-0.5405926,-1.7250143,0.46983173,1.2396007,1.0606054,0.077706486,0.6612259,-0.51196814,-1.4771626,0.9197757,1.0568115,1.0519896,1.5411065,-1.1597401,-0.16154957,2.4562082,-2.3920972,1.0827497,-1.4203562,-0.8474167,-0.93859965,-0.82140267,-1.5185481,0.39071023,1.4544127,0.84356374,-0.8346431,-1.4128071,1.4445864,-1.763204,-1.1721905,-1.5301489,-0.40879714,-0.32014197,0.060426563,-0.34271485,-1.7925086,-0.19324364,-1.1861975,-0.326257,0.33787283,-2.134295,0.6414433,-1.6174433,-1.5833918,0.4019809,-0.2906419,-0.5214853,0.63627374,-0.9260989,1.0110306,-0.027928079,-0.33727872,0.82164097,-1.8029273,-1.215876,0.26689756,-1.7485176,0.2464906,1.7461865,1.2667435,0.6114351,-0.9633558,-0.1293629,-0.33494103,1.0499395,0.8645465,0.058188308,-0.41151837,-0.024008198,0.53712255,0.6045265,-1.7937243,-0.61631185,0.87334067,-1.0064242,-1.1072525,1.3188136,0.7840995,0.6416603,-0.43291315,-0.58140135,0.15686198,1.9403379,0.35719755,0.0325372,-0.20121609,0.9657886,-0.46711114,-0.86811167,-1.2321967,1.0632756,0.016514238,-1.670425,-1.2411239,-0.5009066,1.1212785,-0.43936,1.4623053,1.3870786,-0.5023884,-0.64747554,1.5306875,-0.14030041,0.17018968,0.44088045,-0.40384263,1.429247,-1.7496833,1.9071305,1.0297475,1.1868329,0.8863817,0.85571873,-1.5146013,-0.46069884,-1.7109296,0.27134788,-0.40116367,-0.1592996,0.68877107,-1.6827648,0.39027333,0.012198415,1.7176019,-0.32560655,-0.7436708,-0.4320277,0.91498244,0.66193515,-0.35058588,0.6910218,2.314147
GZMK,0.4797745,-0.48164687,2.1743503,-0.94017285,-1.0934762,-0.225341,-1.1461451,-1.365555,2.2125952,0.04319776,0.8040234,2.3135571,-0.5768499,-0.1178021,-1.3116531,2.399713,-0.8520284,0.87576306,-0.13174927,-0.6552636,-0.37841696,-1.0912235,-0.7525988,0.28358734,0.7998706,-0.3826073,-1.3540694,2.4540632,-2.0780869,2.2150238,-0.4357289,1.4836915,0.7690849,-0.23499638,-0.6597059,0.14732619,1.3561875,-0.55527014,-2.5722113,1.4139421,1.4725066,2.0437021,-0.7039699,-0.111905225,-1.8677931,2.6852944,1.6113397,0.72748077,-0.6980267,-0.4894383,2.4334142,-1.8938898,-1.0466244,1.2155253,1.132271,-0.98182803,0.29844576,1.7975812,-0.40805918,-0.7457908,0.9774762,2.8931386,1.8862725,-0.34550163,-0.1683427,-1.1556307,0.10878454,1.3196619,-0.12625447,0.82765055,-0.54180765,0.044786554,0.080025725,-0.24708097,-0.13087791,0.8578004,-1.1351161,-0.21679275,0.16446503,-1.4940368,0.14989246,-0.47102654,1.8523341,-0.9312937,-2.1257818,0.893341,-0.5108877,-1.5861468,0.27282423,-1.0141431,-1.1412882,-1.8159486,0.33614555,0.028903315,-0.073062874,0.18799049,-0.7850373,-0.2172416,0.32514474,-0.0809613,-1.0348355,1.3678577,0.5817913,0.120549485,0.7522277,-0.21562992,0.78974056,0.83511454,-0.27406856,-2.2686088,-1.3555506,-2.1919115,0.37291133,-0.577877,-0.97325426,0.059675947,0.5196056,1.6681577,0.4053724,0.5222707,-0.86577183,-1.3925164,-0.8638828,-0.88393825,-0.8754577,-1.1755357,-1.3382307,0.668216,-0.1554712,-0.6643985,1.012068,-1.2484566,1.1149225,0.9416107,2.3811698,2.335356,-0.8615534,-1.1210365,0.8851163,0.07301652,-0.21007423,-1.501523,1.6679116,1.5594629,-0.1859775,0.26244256,0.036262404,0.803711,0.27153137,0.05015927,-0.4663352,-1.5332106,0.8964951,-0.35197285,1.276047,-1.6443286,1.3603579,-0.3693416,-0.9869964,1.2648368,1.2217895,0.8451009,0.8206452,-0.2508705,0.09134682,-0.33276388,-0.27981567,-0.71577334,1.2660011,1.7068594,-0.22735736,1.0414461,-0.6500948,0.78882104,1.8276511,0.81601244,0.40579176,-0.2696842,-0.82952577,0.63747126,0.94449556,1.9537624,1.4522446,0.23201771,-1.0387526,-0.21716702,1.7550547,-1.4471728,-0.031749073,-0.005570157,-0.02347195,-1.6838139,-0.2205142,0.41206732,-0.2710812,0.21284015,-0.8643496,-1.547015,0.04230687,0.33728564,0.6868535,-0.723583,-1.318771,-0.81476945,1.0590292,-0.44529074,-0.21078613,-0.45648172,-0.923803,-0.83683926,-0.3590175,-1.8552674,-0.7536449,-1.8726137,0.18921728,0.39187253,-0.62200946,-1.237173,0.50452244,-0.8894502,0.47949186,-0.8118648,1.1111139,-2.1329288,0.98081595,-1.1640289,-1.5525006,-0.52963996,-2.2051895,0.9462278,1.4960961,0.17512353,-2.1897845,0.8253775,-1.4791099,-1.7993829,0.3575898,-0.6470535,-1.7319896,0.3441993,-2.6993167,-1.1058,-0.69378304,0.31896827,-0.18011698,-0.69072586,2.167427,-1.6776558,-1.8414683,-1.6258457,1.4672189,0.099745505,0.28225532,-2.7965832,-0.24600609,0.39473838,-0.11463178,-1.4094541,-0.7840359,0.86298525,-0.10775014,-0.67908365,0.066622585,0.49489793,-2.960184,0.5529405,-0.9790205,0.92796296,-0.2502268,-0.15699075,0.9577431,0.3846411,0.90193087,-0.4525714,1.7288384,0.5385296,-0.48295894,0.08034068,-0.6544117,0.81078625,-1.283321,0.35014918,-0.5293213,-0.08518031,0.59719145,0.023248207,-1.684954,0.7565939,1.223377,-0.7286231,-0.63044196,0.94624984,0.63347286,0.5368949,-0.38096422,1.1168512,-0.70352703,-0.080854416,1.8477489,0.035353113,-1.1349502,-0.7214227,0.4854108,-1.6425691,0.35341194,0.116237976,0.8685158,-0.46567878,0.59192526,-0.0092803035,0.7140871,0.5001244,-0.09774776,-0.013058721,-0.19372658,0.092056036,-0.604045,0.43026406,0.06735572,-0.6241985,-0.20803887,0.21474184,1.4969529,-0.9422533,0.59635574,-1.646261,-1.0650775,-0.45679086,1.563691,0.91723776,-0.6455855,0.08334895,-0.35596,-0.7398758,0.71449953,-1.0245703,-0.1756852,0.8375855,-0.29135576,2.3929017,-0.0130059505,-1.4283022,-1.5266424,0.381985,0.86858344,-1.6628369,0.061373778,1.0654589,-1.3970584,-0.19646877,0.37934205,0.728524,1.4433805,0.6379109,0.45659015,-0.98009384,-1.3116139,0.39814198,-1.8588505,-1.0888835,1.4330517,-0.34241343,0.8631606,1.0805646,-0.0036119898,0.08818401,2.4173813,-0.025579764,1.2786423,0.58815324,-0.13238333,-1.2979944,1.0953826,0.57145995,-0.4940681,1.1302274,-0.3473689,1.1031709,-0.7608175,0.6593156,0.6136401,0.23281235,1.5773453,1.5000957,0.0058243787,0.2025922,-1.2571758,0.011821246,0.99367726,0.41540983,-0.5709536,0.07611686,0.23350613,1.2512614,-1.331198,-2.0959196,-0.6896701,-1.011731,0.0471478,2.0442774,-1.118114,2.0790508,-0.058707345,0.11307625,-0.0015698493,-1.403722,-0.41894335,1.2327236,1.3740963,-1.1909983,-1.0733353,-2.308926,1.2164029,0.50267625,-0.80471367,0.55901396,0.07916335,1.6482607,0.5529045,1.0206778,-0.044077937,-1.316461,1.1206883,0.19289893,-1.0611051,1.2761539,0.33578154,-0.190506,-0.4396551,-0.4532094,-0.70668286,-0.047122337,0.48783568,1.1419175,-1.2486141,1.3554177,0.011311941,-0.5765948,-1.1250193,0.22815047,-0.1821412,-1.05156,2.1022232,1.3188465,-0.49085975,0.33319783,-1.0039198,-0.73773855,-0.5918238,-0.50861675,0.33405656,-1.784965,-3.2135336,1.9005164,1.1230077,-0.51028997,1.8966917,1.5041097,0.06372928,0.64025366,1.5638698,1.0780473,1.2837193,0.50463116,-0.67411107,0.4099333,0.07705923,0.8795995,0.0024786394,0.545477,0.19856593,1.13951,-2.0232108,0.52044195,0.6846844,-0.4601544,-1.7485492,-1.0628871,0.99995667,0.6276876,-0.66402906,1.9478097,0.99429846,-0.99250895,1.992508,0.018700657,1.4232403,-1.3433954,-1.078716,-0.44038185,2.3779473,1.6406599,-0.28690168,-0.59094745,1.0158116,-1.0202112,-1.3500204,-0.0014460955,-0.6613591,0.78565645,0.38214338,-2.2197483,0.22115639,-0.56877446,1.452345,2.2485127,-0.4164489,1.2017491,0.4447468,-0.02707061,-0.50413007,0.35931894
