,dim_0,dim_1,dim_2,dim_3,dim_4,dim_5,dim_6,dim_7,dim_8,dim_9,dim_10,dim_11,dim_12,dim_13,dim_14,dim_15,dim_16,dim_17,dim_18,dim_19,dim_20,dim_21,dim_22,dim_23,dim_24,dim_25,dim_26,dim_27,dim_28,dim_29,dim_30,dim_31,dim_32,dim_33,dim_34,dim_35,dim_36,dim_37,dim_38,dim_39,dim_40,dim_41,dim_42,dim_43,dim_44,dim_45,dim_46,dim_47,dim_48,dim_49,dim_50,dim_51,dim_52,dim_53,dim_54,dim_55,dim_56,dim_57,dim_58,dim_59,dim_60,dim_61,dim_62,dim_63,dim_64,dim_65,dim_66,dim_67,dim_68,dim_69,dim_70,dim_71,dim_72,dim_73,dim_74,dim_75,dim_76,dim_77,dim_78,dim_79,dim_80,dim_81,dim_82,dim_83,dim_84,dim_85,dim_86,dim_87,dim_88,dim_89,dim_90,dim_91,dim_92,dim_93,dim_94,dim_95,dim_96,dim_97,dim_98,dim_99,dim_100,dim_101,dim_102,dim_103,dim_104,dim_105,dim_106,dim_107,dim_108,dim_109,dim_110,dim_111,dim_112,dim_113,dim_114,dim_115,dim_116,dim_117,dim_118,dim_119,dim_120,dim_121,dim_122,dim_123,dim_124,dim_125,dim_126,dim_127,dim_128,dim_129,dim_130,dim_131,dim_132,dim_133,dim_134,dim_135,dim_136,dim_137,dim_138,dim_139,dim_140,dim_141,dim_142,dim_143,dim_144,dim_145,dim_146,dim_147,dim_148,dim_149,dim_150,dim_151,dim_152,dim_153,dim_154,dim_155,dim_156,dim_157,dim_158,dim_159,dim_160,dim_161,dim_162,dim_163,dim_164,dim_165,dim_166,dim_167,dim_168,dim_169,dim_170,dim_171,dim_172,dim_173,dim_174,dim_175,dim_176,dim_177,dim_178,dim_179,dim_180,dim_181,dim_182,dim_183,dim_184,dim_185,dim_186,dim_187,dim_188,dim_189,dim_190,dim_191,dim_192,dim_193,dim_194,dim_195,dim_196,dim_197,dim_198,dim_199,dim_200,dim_201,dim_202,dim_203,dim_204,dim_205,dim_206,dim_207,dim_208,dim_209,dim_210,dim_211,dim_212,dim_213,dim_214,dim_215,dim_216,dim_217,dim_218,dim_219,dim_220,dim_221,dim_222,dim_223,dim_224,dim_225,dim_226,dim_227,dim_228,dim_229,dim_230,dim_231,dim_232,dim_233,dim_234,dim_235,dim_236,dim_237,dim_238,dim_239,dim_240,dim_241,dim_242,dim_243,dim_244,dim_245,dim_246,dim_247,dim_248,dim_249,dim_250,dim_251,dim_252,dim_253,dim_254,dim_255,dim_256,dim_257,dim_258,dim_259,dim_260,dim_261,dim_262,dim_263,dim_264,dim_265,dim_266,dim_267,dim_268,dim_269,dim_270,dim_271,dim_272,dim_273,dim_274,dim_275,dim_276,dim_277,dim_278,dim_279,dim_280,dim_281,dim_282,dim_283,dim_284,dim_285,dim_286,dim_287,dim_288,dim_289,dim_290,dim_291,dim_292,dim_293,dim_294,dim_295,dim_296,dim_297,dim_298,dim_299,dim_300,dim_301,dim_302,dim_303,dim_304,dim_305,dim_306,dim_307,dim_308,dim_309,dim_310,dim_311,dim_312,dim_313,dim_314,dim_315,dim_316,dim_317,dim_318,dim_319,dim_320,dim_321,dim_322,dim_323,dim_324,dim_325,dim_326,dim_327,dim_328,dim_329,dim_330,dim_331,dim_332,dim_333,dim_334,dim_335,dim_336,dim_337,dim_338,dim_339,dim_340,dim_341,dim_342,dim_343,dim_344,dim_345,dim_346,dim_347,dim_348,dim_349,dim_350,dim_351,dim_352,dim_353,dim_354,dim_355,dim_356,dim_357,dim_358,dim_359,dim_360,dim_361,dim_362,dim_363,dim_364,dim_365,dim_366,dim_367,dim_368,dim_369,dim_370,dim_371,dim_372,dim_373,dim_374,dim_375,dim_376,dim_377,dim_378,dim_379,dim_380,dim_381,dim_382,dim_383,dim_384,dim_385,dim_386,dim_387,dim_388,dim_389,dim_390,dim_391,dim_392,dim_393,dim_394,dim_395,dim_396,dim_397,dim_398,dim_399,dim_400,dim_401,dim_402,dim_403,dim_404,dim_405,dim_406,dim_407,dim_408,dim_409,dim_410,dim_411,dim_412,dim_413,dim_414,dim_415,dim_416,dim_417,dim_418,dim_419,dim_420,dim_421,dim_422,dim_423,dim_424,dim_425,dim_426,dim_427,dim_428,dim_429,dim_430,dim_431,dim_432,dim_433,dim_434,dim_435,dim_436,dim_437,dim_438,dim_439,dim_440,dim_441,dim_442,dim_443,dim_444,dim_445,dim_446,dim_447,dim_448,dim_449,dim_450,dim_451,dim_452,dim_453,dim_454,dim_455,dim_456,dim_457,dim_458,dim_459,dim_460,dim_461,dim_462,dim_463,dim_464,dim_465,dim_466,dim_467,dim_468,dim_469,dim_470,dim_471,dim_472,dim_473,dim_474,dim_475,dim_476,dim_477,dim_478,dim_479,dim_480,dim_481,dim_482,dim_483,dim_484,dim_485,dim_486,dim_487,dim_488,dim_489,dim_490,dim_491,dim_492,dim_493,dim_494,dim_495,dim_496,dim_497,dim_498,dim_499,dim_500,dim_501,dim_502,dim_503,dim_504,dim_505,dim_506,dim_507,dim_508,dim_509,dim_510,dim_511
ACE2,-1.4861937,-0.11429927,1.2261498,-0.77724767,0.9894434,0.32867393,-1.0913756,1.2973204,1.1406399,-0.11958815,-1.1423311,-0.6194286,-0.13489653,-1.3296072,-0.6758484,-2.1319041,0.8713199,-0.74006563,-1.5592296,-0.17700109,-1.9705163,1.3844627,0.5218562,0.41930676,1.0048101,1.997654,-0.006452812,1.1429582,3.0328836,-1.2240816,-1.2576667,-1.3948529,-0.83424336,0.37267518,-2.2681777,-0.774076,0.13542376,0.36634088,-1.6874472,1.8131869,-0.15615346,-1.4648668,0.22119792,-1.6357892,-0.45309538,0.8169136,0.63661695,-2.52503,1.1936995,-0.9797428,0.64086556,0.063130125,0.17562899,-0.45988792,1.786704,-1.0545774,-0.3595068,0.36135155,-0.9093695,2.0917127,-0.4477775,1.487682,-0.65282047,-0.03881707,-1.7399791,-1.0014895,1.7016267,0.2567538,0.76369494,-0.23403428,-0.16989468,-1.7558994,-0.07105316,-0.22724113,-0.6450146,-3.097827,1.7941154,0.74074316,2.012867,0.4847227,0.4526761,-1.1496804,-0.70584774,1.3988909,-1.3684714,0.8668652,0.46591964,3.0622084,-1.0544754,0.21534404,-1.7032732,1.5453252,-1.3279328,1.1592342,1.0188371,-0.7349618,-0.72860086,0.926703,0.030064177,0.40972006,0.22812976,-0.2876527,1.3499568,-0.53587955,-1.3490199,-1.0757496,-0.55395937,0.03562347,-0.5641997,-0.576366,0.68195873,0.26074886,2.0556736,0.23716083,0.506358,0.2785728,0.6273578,0.89984614,-0.9120073,-0.3076114,-1.2036295,-0.25430453,-0.84424466,0.46329045,1.0629814,-1.2094685,-0.17840518,-1.34868,0.6950734,-0.13287762,0.6508703,0.047556967,-1.1989688,1.2965477,0.37338734,1.0838265,-0.8062127,-0.97403914,1.6766449,-0.7776198,-0.14556105,1.1500382,-2.2546866,0.8484223,1.1809739,2.7127109,-1.2138203,0.7272051,-0.03558222,0.5032601,-1.0991623,-0.73360384,0.47319755,1.6513209,-0.7492179,0.6426674,-1.1903994,0.9710592,-0.19977973,-0.38681322,-1.0219915,2.3093297,-1.1086066,0.7565165,-0.5577946,-1.1956071,-0.737202,-1.324495,0.27421674,-0.40284866,-0.42724282,1.6011769,0.124200985,-1.4456463,-0.6533201,-1.3514632,-1.7650267,-1.0140029,-0.14427722,0.63729507,0.84103304,1.7085699,1.6052107,-0.5762623,-0.61062896,0.32042477,1.7295288,-1.1747229,-1.2887249,0.7159962,-0.51107204,-0.6203702,-0.80647296,1.6221627,0.122496486,-0.40185103,-0.6218436,-1.1099055,-0.6486349,0.9021201,-0.37879252,-0.688393,0.86302304,-0.2794066,1.0302334,0.62481165,1.0799296,-1.3847082,-0.18141693,-0.8513115,-0.35570055,-0.114835754,0.16310969,1.1435318,0.18279871,2.1539106,1.0655979,0.2546217,-0.17487963,1.0711703,-0.48824668,-0.2668338,0.69373137,0.69500566,-0.1267358,0.6195241,2.668109,-0.25261557,0.24947493,-0.37091243,0.34248862,1.1419847,1.1523683,0.7876591,-0.9735398,1.6745955,0.04112271,0.30161732,-0.10056668,1.0387667,0.9361553,0.7251856,-1.5349219,-0.89207923,0.49645805,-1.0910934,-0.0018243782,-0.91872627,1.0520977,2.5424302,-0.75094295,-0.31208396,-0.18691644,1.4507735,1.8736463,-1.0805295,-0.30660537,-0.7540987,0.36009195,1.2695973,0.69040084,1.1882046,-1.4763108,-0.85665196,-1.2110655,-0.23804328,-1.7574475,2.0623162,0.500951,1.4410338,-0.29241997,1.4536055,0.59635127,-1.7208374,-0.23867871,-0.41490337,-1.0924096,-0.77659065,1.8957374,-0.8508011,-0.9162977,0.83089685,-0.19807568,0.7181803,-1.4779861,-0.18351443,1.4015632,-0.5990092,0.1219988,1.5302137,3.9354753,0.3079552,-1.6165544,1.5435821,-0.7848551,1.0404798,-0.28037003,-0.96346605,-1.4071678,1.0023313,1.3205196,0.7262691,-0.18477024,-1.8544314,-0.8989124,0.9553601,0.7909513,-0.045746695,0.72961146,1.3988849,-1.411356,1.0782834,-2.571736,0.89766693,-2.3284206,0.3800103,0.9325092,0.19103786,1.8003485,0.1320809,-0.44967505,1.2147311,-0.96513534,0.48440987,-0.78793734,-0.6690693,0.7045676,-0.68064696,0.6453623,-1.3342749,2.0240753,-0.4405959,-0.007982529,-0.051785424,-1.1249983,1.6233709,0.5447763,0.4885382,-0.018472008,1.129819,-0.043177985,-1.5920538,-1.2108942,1.233078,1.279151,0.29540625,0.62568104,0.024456412,1.071401,0.34703127,0.96352524,1.0913852,-0.22618398,-0.22491023,-0.26421043,0.0805942,-0.6092531,-0.6076567,0.5714428,-0.17369433,-2.0590842,-0.50406307,-0.88135695,-1.0833011,-0.2652159,0.32782698,-1.120625,-0.19867785,-0.6410325,-1.0433152,-0.9785653,-1.0133698,-0.10058181,0.61972165,-0.45614025,1.2315862,-0.3779927,0.9879255,0.20243442,0.95934796,-1.0610783,0.13644955,-0.70385,0.9397996,1.372081,-0.7812692,1.3778037,-1.6446471,0.76091206,0.66700894,0.7402906,0.35965693,0.019013088,-0.6661606,1.012481,0.7982949,0.32573,0.76547706,0.4704929,1.9399263,-0.25238898,-0.41106015,-1.2254615,-0.21301425,0.56988263,-0.9611422,-1.373891,-0.5319909,-0.9455006,-0.33377177,-1.6883634,-0.90802217,-1.8729849,-1.0686798,-0.49011248,-0.5930107,-0.31818244,1.352846,0.8345022,1.1587967,-0.4885566,0.4191077,0.70212203,-1.6543849,0.38158587,1.4880208,0.9553516,-1.6657826,1.6216956,0.26231506,-0.06955865,-0.68006706,-0.588816,0.92606175,-2.0362647,-0.06803071,-1.306099,0.5533608,1.7843698,-0.80994755,-0.95446783,0.90295964,1.3428862,-0.9717319,0.77394783,0.12410627,-2.5236633,0.8495647,0.28558788,-0.5556284,-0.15949363,0.020679396,1.2809142,-0.66316295,0.5106988,1.6240966,-0.72531563,1.2688724,-1.0961337,-0.3624442,0.09074151,0.88904285,0.941753,-0.5126536,-1.9535435,-2.017444,-1.3904994,0.17596021,-0.61393166,-0.010837611,-0.62706745,0.020763556,-0.34655723,-0.49764445,0.6565767,-0.608626,0.141408,0.71664315,1.9680886,-1.3305101,0.41319937,-1.4462273,-0.6267291,0.053520463,-1.6891267,-1.049508,0.05266799,-0.4477065,0.70882314,1.4936619,-1.5942084,1.9338489,-0.54353774,1.5103933,-0.9677949,2.7996368,1.1415318,-0.09484651,0.15060094,0.11343074,-0.5169937,-0.9724312,0.29164228,0.6392076,-0.6669239,0.07389602,-0.6626614,-0.34798077,-1.7585466,-0.87803644,2.4317653,0.74851686
ALDH1A3,-0.95283514,1.5192916,-1.1135793,-1.3938104,-1.6271877,0.9946379,1.1273631,0.5789682,0.5507323,-0.508393,1.7329975,1.175713,0.84948176,-1.9368769,-1.1743854,0.5024191,-0.585839,-1.9481107,-1.9264108,0.11956802,0.40421918,0.79840904,0.3558817,-1.5959194,0.4087418,1.256336,-1.8485701,0.85475767,0.10296476,0.52805567,-0.52602917,0.6309048,0.9190268,0.40786722,2.1770053,-0.6805141,-0.33609205,1.3552488,-1.2106957,1.5457585,-0.93408114,-1.3925986,0.1312727,-0.66567427,-0.79449934,0.30948186,-0.94540817,0.5369223,0.116760895,-0.5556312,-0.76786566,-1.0063639,-0.7176039,0.37648207,-1.6035066,1.812786,0.49745575,-0.7606192,0.35874477,0.6985718,2.154181,0.2507744,-2.6830463,-0.9490316,1.513979,0.00010017723,-0.44513783,0.8925962,-1.8011185,1.1592199,1.368822,-0.4060502,-1.0911565,-0.6112675,-1.0758817,0.38742194,-0.4750119,0.019050285,0.8214552,-0.13274974,0.27356133,-0.42392623,0.47979176,0.23228626,-1.8993596,-0.5719148,-1.1889418,-0.48812172,1.5999967,-1.4793594,-1.1729894,1.5393492,0.7946741,0.1842266,-0.727652,0.15150006,0.36612904,-0.46271554,-0.1829385,0.8780941,-1.2784952,0.012250136,-1.8493123,1.2268686,0.09837974,1.530728,0.31361455,-1.1758157,-0.48348096,-0.9658091,-0.17884363,0.74135935,0.08620382,-0.86254036,1.2437098,0.03331487,1.2585883,-0.038627986,0.050256833,-1.2105223,0.083035804,0.20951092,-0.9663779,1.6258833,1.314217,0.2369643,-0.39555004,2.159429,-0.37260395,1.6217154,0.22513783,0.6701022,-1.0319473,0.7144695,-1.947606,2.166391,1.6284773,0.6675019,1.5201056,-0.5320925,0.08096659,-1.1120332,-1.4394537,2.2429888,-0.4677941,-0.7572831,1.1552233,-0.80064815,1.1291343,-1.8224252,-0.09968024,0.3640604,0.021191398,0.28115365,-0.8602154,0.8540505,-0.6149276,0.9308407,-1.2735265,-1.382579,-2.1279876,1.0374218,-1.1365365,0.3475335,-0.12065354,-0.44586483,1.105217,-1.0175273,-0.2858682,-0.8757638,-2.4276118,1.2069355,0.6895585,-0.006465815,-0.44579113,-0.8784042,-0.36837494,0.03250412,-0.72803336,-0.024552327,0.17827682,-0.025552385,0.26931643,-0.9540159,-1.5835221,1.6537472,0.79654473,-0.28714487,0.5447056,-0.3166077,-0.779485,-0.12982242,-0.36991227,-0.47417066,1.334481,0.7810677,-1.7260758,-2.2925823,-0.5131776,-0.8763303,1.1000222,0.14408393,-0.506296,-0.26450032,0.5938539,-0.5433313,-0.7289097,1.442159,-0.058375146,0.2698452,-2.0943527,-1.4386168,-0.253483,-1.5002183,-0.0048189554,-0.38953522,0.34437186,0.1863579,2.0409076,1.1406258,0.17297088,0.5979741,0.7104678,0.83850163,0.4688242,0.28760132,0.016896136,0.46811998,0.5901372,1.3031749,0.3955043,-1.8648878,1.1636312,1.7708223,-2.3065147,-1.5983412,0.7230444,0.38890648,0.95492303,-0.21375902,1.9559472,2.1798213,-0.40125212,0.1788559,0.8793326,-0.06859383,0.699687,0.33689868,-0.77932495,0.26613456,-0.5864467,-1.2795783,0.80147195,2.4471052,1.2425982,-0.34407172,0.5306553,-1.7654904,1.0590365,-1.3199115,0.4205996,-1.783627,-0.69229305,0.97266954,-1.3342631,0.14458883,-1.4337827,-1.2842036,-0.5932276,-0.10404989,-0.5727874,-0.44226116,1.1727852,0.9253778,-0.12141253,-1.4784908,-0.3937867,-1.7067617,0.8192166,0.47400048,-0.89748263,0.5882135,0.939631,-0.14051569,-0.8685083,-0.096979566,-0.34598762,1.0276939,2.045044,0.45256418,0.20468612,-0.97180176,1.0737555,0.8548053,-0.23496318,-0.017910238,-2.8991694,0.7402441,0.028552553,0.3879686,0.41397026,-0.5019494,1.7617171,1.3148324,0.5060676,0.45411697,0.74912584,0.48063138,1.031454,-1.9078268,-1.3687252,1.4934276,1.2266281,2.689605,1.1789587,0.11266861,-0.3237409,0.89882445,0.10351141,1.1996013,-0.30836913,-1.0343927,-0.40333202,-0.8638982,-1.3484334,-1.4228982,1.3213831,-1.1324848,-0.98028,1.6960496,0.76789325,-1.5053928,-0.49590722,1.0630481,-0.1398442,0.7048818,-0.5852864,0.30768493,-1.3513255,0.37464252,1.7746881,0.22136573,0.4934034,1.8847322,1.4609034,0.47545686,0.023320926,-0.27539733,1.0231807,-0.61602986,-1.2189564,-0.1886565,0.49823102,-2.0860944,-1.7306564,-0.6446411,-0.31077743,-0.5334497,-0.72217506,0.33313787,-1.6168926,0.027399857,-1.287208,-1.0733222,-0.5002514,-0.76748836,-2.7927423,-0.004417494,0.34119016,2.2199976,0.15851998,0.03259493,-0.9383925,0.7670497,0.5257037,0.9071821,2.031487,-0.9107315,-1.4229094,1.6011561,-1.3277525,-0.1752159,0.71578777,-1.0319384,0.3189876,0.12953791,0.44123113,-0.078159094,-0.4446933,1.4766378,-1.7474792,-1.0598912,0.008923935,-0.76450634,1.9973276,-1.1572409,1.6111356,0.69372064,0.8392113,1.6047455,1.2049584,-1.6180652,2.3947954,1.2057198,-1.8297166,1.6929321,0.4804863,-0.20342521,-0.35451353,0.7192427,-0.8140638,-3.1675243,-1.5264078,0.8143098,0.62635696,-1.049349,1.9689184,-0.4539061,-1.3076029,0.17449625,-1.0237333,-0.25406054,-2.0362785,-0.7321782,0.36039346,0.9382952,-0.7546495,0.18718648,1.0447111,0.74115807,0.56821877,-0.3663231,-0.74371547,-0.005638871,-1.2345874,-1.0666244,-1.0630871,-0.84029174,-0.067711286,2.0456266,1.48049,0.575978,-0.1490008,-0.5526214,-0.009524544,0.9933846,-2.147448,1.0147804,-0.03727749,1.3286147,0.75452334,-1.0279047,0.9697026,-1.6539046,0.38021317,1.4523549,0.663556,1.7521987,-0.811473,0.9452087,0.22446908,-0.06676904,0.06252457,-0.6797944,0.73089266,0.6873999,1.1201653,0.39092997,0.12271216,1.298881,1.7180569,-0.17131841,-0.6376934,0.06847846,0.4559771,0.7873748,-0.818139,-0.0426056,-0.7620153,0.71467555,-0.891377,0.940071,-0.6651179,-0.71432257,0.22995189,-0.5291125,1.3799515,-0.42427513,-0.8530517,-0.06701089,-1.5864371,3.052917,-0.7702753,0.107704215,0.018330593,-0.08889813,-0.68893516,-0.76615345,0.96305525,-1.1031473,0.9757123,-1.454888,0.25961864,0.5783723,-2.5248258,-1.0383127,1.4652617,1.1299049,0.07692247,1.482475,0.10368405,0.4218485
BBOX1,0.63945675,0.79251903,0.11280527,-1.1669445,1.0686377,-0.1732842,0.2535643,1.5564052,0.8189593,0.36833966,-0.2149446,0.46414742,1.725997,-1.6552768,0.030008104,0.26202,0.171127,0.40771037,0.6505729,1.6406239,1.1497171,0.79847306,-0.031211138,0.09795986,1.1040429,2.0792274,-0.7659637,0.84500647,-0.28652093,1.321052,-1.7994503,1.3696136,1.22437,-0.5220301,-2.6554244,1.1551229,-1.1261219,1.6524199,-0.10944407,0.33681175,-0.04750061,0.15766463,-1.2730968,0.20091873,0.8890262,2.3439863,-1.4441016,-0.7159755,0.09187896,-0.32594928,2.4427507,-0.99685115,-1.98679,-1.2374954,0.10367486,0.5136578,-0.5145351,0.17214441,0.59811056,0.29217654,1.6939479,-0.7203717,-1.3822671,-0.05859055,0.17770538,-0.71469474,-1.4727142,-0.97212374,-1.1341391,1.5784148,-0.7665239,-0.5278047,-0.43043095,-1.5968311,-2.6270869,0.84566766,1.4791188,0.101523496,-1.5065545,-0.40237314,0.12254645,0.39075127,-0.09488868,-0.7418014,-2.0338905,0.53992903,-1.0702816,0.06122249,0.07744344,-0.002242931,1.2736877,-0.6917786,0.19214769,1.3436916,-1.8821402,-0.9289601,-1.4594841,0.150063,-0.32584926,-0.8599846,-0.10142132,-1.2912716,-0.19010578,1.6718107,0.005396619,0.56911826,-0.3058088,-0.86198366,1.4470986,0.5751321,-0.46817186,0.8811657,1.0042313,-1.7143729,-0.8554401,0.9074545,-0.052789263,-0.6626912,0.06322332,0.64284366,1.9842178,1.5144606,1.326575,0.04913652,0.09514712,-1.0817077,2.1479893,-0.69543076,0.9516922,-0.13083845,-0.5673374,-0.6054583,-0.87726086,1.0823787,-0.06073991,-0.6349443,-1.5366248,0.25198394,-0.8900857,1.8459977,1.5801965,-0.48698428,1.0640905,-0.14148854,1.9017535,1.36423,0.67617124,0.7252849,0.83750546,0.9218283,-1.5165992,-0.6127917,-2.2580197,-0.7176684,0.4880044,-0.56427705,1.0700089,0.55221045,0.3081393,0.8304023,-1.4917859,1.6583415,1.1746738,-1.6180273,1.1203886,-0.7981584,-0.7929226,0.6342683,-1.7065792,-1.4732136,-0.48723844,-1.2773389,0.051138006,0.5286235,1.1253982,1.3975289,-0.40494817,-2.1983728,-0.27029362,-0.11356832,0.18295468,0.2309699,-0.41375244,-1.8530118,-0.93365335,1.2204825,-2.0413282,-0.12876602,0.6707226,0.058054626,0.68076,1.2867147,-0.5868356,-1.1195669,-0.96522343,-1.2856759,-0.14186905,-2.2442994,1.4335928,-1.9399254,-1.2222651,-2.4988773,0.77283794,-0.64768195,-0.19228765,-0.34047377,1.5700632,-0.20716874,-0.3563993,1.0755155,0.538842,-0.20709045,0.1770489,-1.5789381,0.951077,0.37724072,0.73593235,0.17267162,-0.28337002,-1.1588002,-0.62277925,-0.8757714,0.23570013,1.9395311,0.092078045,-0.7466624,-0.17391899,0.99934685,-0.977118,0.9243403,1.7563078,0.92660755,0.51105434,-1.1321902,-1.0275316,0.24709436,0.27837557,2.2523782,0.023734894,-2.2384357,-0.51041865,-0.9924665,-1.158111,0.34194076,-1.1360457,-0.57364845,3.4464018,0.2570426,-0.07784185,0.022189258,1.5355135,0.738872,-0.47010115,-1.7881227,-0.48128277,1.3702992,-0.58377373,-0.86167765,0.7407677,-0.7800204,-1.0335864,-0.36547816,-0.23294307,0.8304392,0.60581285,-0.62972665,-0.61516994,-1.5395839,-0.44457325,-0.49724585,-1.0344875,2.0351708,-0.40643433,0.54274374,-1.4804285,0.81071186,0.25767148,-2.803269,0.41848198,1.0924573,1.0901651,1.4849117,0.23660417,-0.7019653,-0.7473863,-0.3831688,0.1430824,1.4677192,-0.14311789,0.98076797,-0.5462054,0.62954956,0.42991722,0.6140322,0.098186724,2.328786,-0.9233696,0.92813843,1.3445743,1.4280965,0.25232643,-0.17371838,-0.6264135,-0.16869335,-0.63945824,0.24517685,-1.9740472,-0.8492842,-0.7514864,0.23898281,-0.8873215,0.7381465,0.59776074,1.1749406,-0.4421657,1.0044624,0.72757214,0.56159145,0.9742243,-0.20835088,-0.46182868,-0.7562565,1.1789079,-0.6568192,-0.87556744,-1.7293075,1.5471641,-1.9581844,0.30814838,0.6643291,-1.9280819,-0.64907867,-0.98607016,-0.34004515,0.95520705,-1.2851795,0.7195353,0.2390517,-1.1782671,-1.3326569,0.5989307,0.15281536,0.97916216,0.45689794,1.3632594,-0.27830458,-0.838796,-0.48073128,-1.5338631,-1.0285491,0.25942865,0.64529765,-0.5552224,-0.7315489,-1.2646806,0.05874056,0.4036863,-0.6397559,1.0278816,0.7799835,-1.5907326,0.08939379,-0.28663597,2.6770606,1.2663932,0.9146553,-1.764768,1.8502051,-1.2717172,-1.6608052,0.9074077,-0.06145672,-0.026693683,-0.4897454,-1.3345927,-0.5872823,-0.4288661,-0.919272,0.3074801,-0.0064096134,0.48920912,-0.32456267,1.3443198,-1.2741754,0.5796346,-0.049400933,1.5852492,0.44444174,0.14884579,-0.7707197,0.65713084,1.4593879,-0.2752353,1.347315,1.4308021,1.0302982,1.2157756,0.24621697,-1.3548465,-2.1570792,-0.97132474,-0.962826,-1.7409962,0.16447653,0.31139943,-1.479511,0.82930714,0.33378935,1.6407734,-1.4587563,0.558452,0.64462036,-0.053887468,1.4628587,0.6503711,-2.0017183,0.29465973,-0.08492483,-1.6036321,0.028397623,-1.1026958,0.38052535,-0.85511816,-0.015008295,-0.15814139,1.926809,1.1011289,0.47157967,0.4911382,0.1051166,1.5422486,1.5481662,-0.36530185,-0.7106318,-0.7778085,0.8258561,0.6566796,1.5056936,0.002277536,-2.5672176,-0.11909976,-0.082353786,0.7266089,-2.4605145,-1.7713894,0.22245248,-1.9525523,0.6622747,-0.3077383,-0.45749778,0.68193126,0.84341955,2.0726123,-0.45184132,0.7045524,-0.6168132,1.2700343,1.6758512,0.07068641,0.158686,-1.20208,-1.315113,1.3534944,-0.06343401,0.36190942,-1.2848195,0.45657417,-0.5785744,0.32287666,1.8413229,1.8124573,-0.80058485,-0.34617013,1.1360166,-1.1474631,1.8163956,-1.6734196,-1.8669165,0.5041339,0.30654442,-1.2451472,-0.41877615,0.683443,-0.728325,0.31146938,-1.169273,1.9357265,-2.64239,-0.21903779,1.0353799,1.3552467,0.18238105,0.995376,1.0443355,-0.6301354,0.38399422,-0.84472007,0.29953763,-1.2067752,0.6668985,-0.5360871,-0.19249968,0.82098264,2.2034736,-0.45760292,1.8419518,0.3249186,-0.062361524,-0.87166345,0.8374613,0.6590933,0.7776266
CAPN8,0.6280704,-0.51230955,0.7965154,-1.2778347,-0.6624086,-1.9139555,-0.57234716,1.6579434,1.6457368,1.3967478,-1.8157231,0.6941858,1.4348655,-1.5360208,0.3140236,-1.9110394,-1.9177905,-0.007776191,1.76291,-1.827597,-0.5404522,-0.19749919,-0.28604606,0.2950439,1.2535697,1.092897,-1.648596,1.6271691,-0.6940885,0.72922677,1.6383635,-1.0388125,0.5221808,-0.9633807,0.35638607,0.21794371,1.3587149,-0.004505818,-0.66788024,0.17181337,0.47037843,-0.49531415,-1.2407237,-1.3248373,1.4941058,-1.0178864,-1.5024723,0.9288611,0.7928029,1.512028,0.3134422,-0.46796036,1.214841,-0.39501423,-0.9475144,-0.033075992,1.1425445,-1.6707486,1.3366152,1.6854149,0.22389002,1.4257832,0.48256326,-0.1357207,-0.5693292,-0.46113694,-1.0504731,0.7362423,-0.85504085,-0.41673386,-1.0193452,0.36046666,-1.2392355,-0.32072264,-0.2606024,0.15939532,-0.010265496,0.29721668,1.1222675,-0.28443554,0.017938254,0.89202917,-1.787166,-0.8752229,1.9070807,0.60570824,-2.9351315,1.4511158,-1.1614424,1.9031326,-0.86211044,-0.8701215,-0.13697186,-0.014104285,-0.32995853,-1.2079316,1.0679917,1.8337884,-0.4734312,-0.4576206,0.3265285,-0.9789647,1.1738378,1.3290043,0.388218,-0.020645559,-1.7462298,0.5324362,1.0442271,1.1980036,-0.05095213,1.2729782,-0.75009525,-1.078501,0.3035739,-2.568495,-1.3201785,0.086201735,-0.028670395,0.24421097,0.26904857,-0.98689026,-0.72937447,0.59812844,1.0702784,-0.060210865,0.25935078,-0.51117575,1.3185048,-1.5871743,1.5183355,-1.5457679,-0.78031325,-0.5386554,-1.9877595,-0.15163226,0.19830738,-1.031765,0.70921534,-0.89049125,0.6986875,0.2219112,1.2604111,0.65342855,0.84915924,1.4638592,1.368512,1.5216433,-0.228253,-0.70262444,-0.5067586,-1.5227922,0.7614731,-0.6481274,1.036494,-0.32747483,0.23412606,-0.5006731,-1.4200158,-1.2319707,-0.47329706,2.8391404,0.91848296,-1.1276834,-1.0748734,-2.131456,2.7047656,1.9230753,-0.28146696,-1.0613943,-1.0246744,-1.1348909,-1.527734,-0.52077645,-0.6506326,-1.0919365,0.42638916,0.23804925,-1.5068337,-0.9972666,-0.08302043,-1.4197873,-1.9978137,0.031720843,-0.48251405,1.779616,-0.12023079,0.6242141,2.169344,-2.0243685,1.3526647,0.80926913,0.4331342,0.945538,-0.6623255,-1.3906187,-1.5956225,-1.3827229,0.5607279,-1.0009799,-1.8264393,1.1472536,-0.5267363,-0.3169451,0.7443695,-0.26581523,0.5479886,1.0315788,0.04498159,-1.712229,0.16506222,0.44164282,-1.1797677,0.44393533,0.5540046,-0.6621852,-0.84822476,1.3921499,0.4548121,1.3736349,0.54943186,-1.1205051,1.2242097,0.15848498,1.5810207,-0.38821062,-0.086877726,-1.5357171,-0.8911868,-0.89090836,0.15859085,0.4154553,0.5104946,-0.5926996,0.6342761,-0.27896166,-1.8440714,-1.7699673,1.1374934,1.4546838,-0.32032844,2.0972319,-0.5133361,-0.15388548,-0.939344,0.88792044,0.2703101,1.6804982,1.1561149,2.1479228,-2.0981011,-1.1611102,0.2976363,-1.1591105,0.7067997,-0.45500335,0.34997505,0.18827066,1.1825353,1.2559066,1.1834445,-0.63820964,0.30940756,0.17946637,-0.35606268,1.8612515,-0.53491056,-0.5117913,0.14231384,0.83297145,1.6772631,-1.7139319,1.6588966,0.9042459,-2.4395566,-0.41219893,0.89998406,1.3067051,2.0351195,-0.7927466,-0.6705728,0.9495512,-0.46318805,0.18370268,0.8149439,-1.074131,0.9557589,-0.1281633,0.9256019,-0.0780041,-0.99802727,-0.9613685,-1.8741546,-0.71002614,0.35210252,0.22178806,1.2211107,-0.51164144,-1.4091895,0.49527428,-1.0904845,0.16091363,0.053790897,-0.32746115,-0.4902017,-1.7595178,-1.6642956,-0.6951793,-0.46389228,-1.2412329,-0.49449962,-0.6400254,0.29768947,-1.2353549,0.4972695,-0.7590771,-0.72218776,1.0888102,1.5478468,0.4604224,-0.70003706,1.1653473,-1.5549444,0.13222511,-1.5487934,-1.564101,0.14823753,1.1173328,-0.5379933,0.33936906,-0.4248011,-0.42628393,1.0094781,0.70766234,-0.5363659,-0.20114568,1.8732128,0.68190914,1.096865,1.1920985,-0.47998795,-0.46321967,1.5272775,4.240696,0.34432644,0.9298004,-0.035130683,0.4272403,1.72726,0.66893303,-1.6085047,-0.26899958,-0.30098045,-1.0720689,-1.0844972,-0.63078237,0.76306885,1.1545699,1.1087084,0.7848898,0.5741368,0.5680251,0.4400148,0.5578003,-0.36789516,-1.1152372,-0.8696065,-1.275924,0.429934,1.675229,-1.0767933,1.2066576,0.34891093,0.7518478,-1.2564846,1.5264033,-1.4919025,1.0685636,1.8028027,0.63364667,0.46866304,1.0280492,0.47833157,-1.2442461,-0.42300192,1.6379656,0.7581844,0.87324935,1.0806681,-1.1469309,-0.59290725,1.1076554,-1.0707911,1.2834529,1.0178155,1.1508474,-0.22239585,-1.1956223,1.2052476,-0.86350155,0.6800542,1.2814503,-0.26911253,0.5176286,0.45366117,1.7722068,1.0164498,0.033851378,-0.15521435,-1.1478456,-0.9859087,-1.895128,0.2642819,-0.42348468,1.0869303,0.762974,-0.38695726,-0.822118,0.20638993,0.91675335,0.97652125,0.36122102,-0.78197706,-2.0395756,-0.53515965,-0.13344848,2.013415,-0.3322402,1.4631568,-0.13428283,0.3129164,-0.91784877,-0.7256916,-1.5361125,1.3309503,-2.5610764,-0.5296866,0.8859384,-0.9030264,-0.12673514,1.400015,0.98057956,1.2058877,0.47438446,-1.3671563,0.57558495,-0.89764935,2.0119753,0.68636405,-0.48918405,-0.97979164,1.4461119,0.55418235,-0.21441834,-0.257199,1.0745192,-1.7782153,-0.96333265,-1.498087,-0.78408206,0.029480983,-0.2527672,1.0383148,1.0697184,-1.4692905,-0.9221709,-1.1368688,1.334981,-0.23642749,-0.86173177,0.8732819,0.10124374,0.16409525,1.9499102,0.1564159,0.52618915,-0.03125881,-1.2634605,0.76019764,0.873706,-0.10578572,-1.5423244,-1.3106823,-0.10512615,0.9216102,1.599705,0.30580765,0.42063513,0.25972864,-0.47430387,-1.1836203,-1.3286874,-0.022559637,-1.0866896,-1.1272593,-1.4133189,-0.8446423,0.10519805,-0.6664197,-0.6548788,0.8306407,0.07029946,1.1927489,-0.7080316,1.9278389,-0.5550992,0.362371,-0.43976894,-0.07688454,0.30416623,1.6064934,-1.5463266
CCL19,0.2340944,2.3464777,4.5458937,-1.7329427,0.20265491,0.45821545,1.8627896,1.293065,1.0885034,-1.3691672,-1.0387231,-0.6649888,1.5946268,-0.2191045,-1.1763885,-1.5924745,-1.059703,0.45243034,-1.1522638,0.11991844,-0.603463,0.34002042,1.5086726,2.3376307,-0.46572402,0.6544386,-2.4087505,-0.8826412,1.812672,0.27102217,-0.36198115,-2.9333978,-0.08324513,1.4379115,0.08629107,0.22544819,0.21118759,-0.61569506,-0.77479565,1.6301799,1.163311,-1.2798339,-1.7552545,0.98550737,-0.65549386,1.1774354,-1.9633551,0.12401632,-0.5718925,0.50361574,-1.4307947,-0.17759904,-0.17771533,0.22506699,-1.649847,0.009309751,0.35490566,0.11176499,-0.5803098,-0.18477356,0.6426055,-1.1466035,0.07024736,1.2273827,1.794869,1.018705,-0.039010912,0.21929511,-0.015919067,0.3470774,2.0155659,-0.40224192,-0.6153653,-0.84490734,-0.5583841,-0.7431291,-0.9536795,-1.1985841,1.9347653,-0.038330432,0.27637944,-0.7328434,0.24575911,-0.8745685,-0.22818998,0.16034928,-0.8606896,-0.91121167,-0.32207012,-0.25056416,-0.5771129,0.17519896,0.6648601,-0.06391263,-1.479482,-0.77288544,-0.011778398,-0.01205396,0.7349837,0.19582479,0.80484676,1.2779568,0.61670667,-0.81379014,1.38137,0.16986713,1.0921053,0.741872,0.36405405,-0.25642455,-0.7387723,1.5611573,-0.48216334,-0.43689716,-1.0530585,1.3415109,-0.8654271,1.2693002,0.33131185,-0.3141729,-0.32370755,-2.6710553,2.0136154,0.82323796,-0.8141602,-0.6984475,-0.10827504,-0.50984675,1.2391492,-0.4709251,0.4405953,0.74681735,-1.2626271,2.421229,-1.6297033,1.7882878,0.06358672,-1.0320569,-0.6247362,0.84397477,0.99031377,0.88054657,-1.628632,1.6661121,-0.3054297,1.1364204,-0.3187667,0.5830996,-0.6636635,-0.51421523,-0.46442994,-1.2439196,-0.4772522,0.4169708,-0.59981203,1.1840644,0.54971606,-1.8187445,-0.100587465,-1.3758378,-0.16848831,2.2331512,0.7291528,0.3951425,-1.2418166,2.9562454,0.7117469,-2.2791924,-1.6733673,0.4837881,-0.39020714,0.18127845,-0.96136326,0.6703503,0.3215489,0.25061175,-0.39551765,-0.16889895,-0.32809198,-0.7362711,0.7821743,0.8238039,-0.9970958,-1.6566616,-0.09936884,-0.78061783,0.53736615,-0.71166015,-2.1951072,-0.9249396,-0.30493644,-0.37959972,0.55710465,-0.9477132,-0.66911,-0.25281772,-1.265013,0.2037011,1.2379299,0.15973854,0.0042231297,0.40999177,-2.7093635,0.49767202,1.1163353,-0.20972398,1.5183631,0.44826442,1.1435779,0.3209356,-1.9632782,-1.1978142,0.80099386,-1.6219611,1.0477433,-1.1268162,0.74669194,0.06672177,0.21378769,2.2906642,-2.278431,-1.4974194,-0.045096762,-0.2889947,0.1923289,-2.3091185,-0.22602305,1.3572145,-0.49149653,-0.36887988,0.9725165,0.3290569,2.0149329,-1.4851724,-1.3575354,-1.0666294,-0.9730636,-0.1668143,-1.3688306,0.7641604,0.3279571,-1.1637964,0.652614,0.8100258,0.7453081,0.6409908,0.14089778,0.65848655,-1.2416952,-1.850526,0.62117684,1.8858645,-0.7721149,1.8067758,-0.027160227,1.5712516,1.1356804,0.01793947,-0.31726846,-0.99709624,-1.0202986,-0.08019724,0.6280087,0.5493495,-0.4652585,-0.32004157,-1.5917069,-0.6373742,1.8966147,-0.09710118,-1.3733526,1.6735995,-0.42759615,-2.578962,-0.5100027,-0.5665866,0.5086873,-0.8222035,-1.0550665,0.667703,-1.1770871,-0.04631273,0.99289215,-1.2441406,0.8521756,0.3607247,0.99759376,-0.6277464,0.23736106,-1.4933354,-0.1634904,0.090743124,0.48943913,1.4969454,-1.2034047,0.41843826,-0.5546034,-0.34441644,-0.3163323,0.929613,1.1906236,0.9674701,1.7150518,0.13594623,1.8337505,1.1796486,0.110680826,1.1857985,0.8260811,-1.3956902,-2.193338,1.5895023,-0.7695451,2.4171138,0.490472,1.5975512,-0.31243935,0.70607376,-1.0396564,-0.7877016,1.0381668,-1.2465317,2.2343626,-0.6810062,0.21804337,0.3688229,-0.40986902,-1.1866086,1.5461218,-2.2069857,-0.7977823,0.6578795,-0.3020048,1.0606469,2.9981992,0.26490512,0.09068187,0.41585603,-1.0066521,-0.23015821,0.39524043,-0.88542384,-0.001005671,-1.0107085,-1.563013,-1.3047972,0.7835375,-0.26877227,-0.29388675,0.76411635,-0.07370103,1.7969475,0.14338239,0.8061542,0.17493406,-1.5033249,1.2924584,-1.4577628,-0.30466726,-1.0335037,0.46911317,0.6236596,0.027571725,-0.9423076,1.3368618,0.6875953,-0.9523611,-0.11905149,-0.011130554,0.44073057,-1.6502596,0.6808778,-0.3946771,0.6549404,1.5119703,0.069247566,-0.12311459,-1.5815643,0.5566647,0.45516264,0.47582188,1.9206392,0.37813908,0.43581513,-0.28481913,0.40252572,-0.562183,0.9022577,-0.24196978,-0.96000385,0.03229141,1.7630317,-0.14266837,1.2765473,2.3556662,-1.7568357,0.31766194,0.46980157,-1.4104773,-0.23304553,-0.15501349,1.0137577,0.6399164,0.31957778,0.46626222,0.95657986,0.54926217,0.37741187,1.7525414,-1.3076288,-1.1028324,0.51890796,-0.7586733,-0.4231876,-0.6953413,0.007720364,-0.7044172,0.56809384,-1.0511023,1.2846107,-0.84345895,0.69522905,0.14930218,-1.1079574,-2.1986558,2.1061456,1.6188171,-0.685737,1.4533015,-0.22157347,-0.7439199,-1.0842371,-1.2080244,-0.9699873,-1.8274431,-1.0761852,-2.2960057,0.19102958,0.95545304,-0.46788177,-0.24907391,-0.65238893,-0.5016306,-1.6867738,1.537688,1.6091346,-0.95814675,-1.5632999,-0.8378252,0.15354346,0.3484442,-1.0850142,-0.588189,0.48776457,-0.94495225,0.81000876,2.239432,0.42080233,-0.82956594,0.0098428335,-0.867532,-2.1164787,-0.23094378,0.07056393,1.2465031,0.659336,-0.44065014,1.2006902,1.013935,-0.5820712,0.394458,1.005607,0.6406143,0.62262577,1.0864776,-1.2145163,0.025562482,1.8564563,-0.40312257,-0.45417377,-1.8765911,-0.8761477,-0.08318007,-0.24470735,0.9076388,-1.1109061,0.30993745,1.1171013,1.7368084,-0.30108598,-2.2590132,0.5511817,0.4437903,-1.0942999,1.2051867,0.18472399,1.793332,-1.5397602,0.94354993,0.7215341,-0.242278,0.8743708,-1.2691306,0.8986691,1.2907733,0.055332333,1.6729347,-0.34826916,-0.1468053,0.33476642,-0.3036534,0.50105023
CCR7,0.11955438,0.2445536,0.93362534,-1.0571754,0.46657574,-0.8314548,0.41150802,2.1976569,0.15204948,-0.1863704,-0.14412126,0.6171237,0.57763755,-0.066534124,0.08836501,-1.1132697,0.4330551,1.2494344,1.2476115,-0.049137045,-0.90676594,-0.53322107,0.3424151,-0.21142505,-0.9701325,0.9334346,-1.5175556,1.5988235,-1.4761964,1.9761816,0.22470583,0.947739,-0.61010116,-0.08103378,0.23552968,-0.75188744,2.4778488,1.147,-0.5456432,-1.4897652,-0.7198429,-1.1818049,0.58183086,1.9807098,-0.054295104,-0.90033937,0.9776348,-0.8505892,-1.433241,0.99577385,0.6457094,-0.8047062,-1.6427909,2.872073,-1.2829163,-0.89259624,-0.9802451,-0.1096743,0.55088407,0.36108977,1.148841,1.455202,1.9987383,0.3269436,-0.6658887,-1.2139617,1.8354341,1.1617696,-0.6454016,-1.0298284,-0.797484,0.5649371,-0.31701216,0.76610607,0.6324282,-1.3996123,-1.8650736,-1.0477059,0.5438644,-0.19969931,2.212488,-1.1269934,0.73870564,-0.27873504,0.4854853,-0.40421763,-0.23685357,0.4255876,0.0655963,-2.7728434,-1.5752805,-1.0489813,0.1341722,0.48902577,-0.22478633,1.0393988,0.0594801,-0.4994272,-1.0037955,0.28295833,0.5230564,-0.38876727,0.66730493,0.84610087,-0.9725556,-0.89470583,-0.65568376,-1.0001125,-0.28971997,1.9897492,-0.12955567,-1.6693112,0.27056,0.5675938,-0.9513566,0.85917556,-0.6782123,-0.15034282,0.22415857,-0.48564804,2.1416178,0.9087841,-0.44886762,-1.4483552,-0.3676689,-0.08074316,0.5786623,0.29879037,0.7983347,1.117435,-1.1158128,0.07251783,-0.26625878,-0.9955839,0.34664133,0.124220714,1.5277015,-0.13316949,0.26769766,-0.61492383,1.2170316,0.65605676,-0.5825347,1.1467847,-0.15185274,-0.7527595,-1.2043494,0.130047,0.014730461,-0.9241991,0.95679355,0.027761986,-0.37426102,-0.18956152,-0.16281474,-2.2615173,-0.6448193,-1.0946214,0.26267257,-0.4002888,0.97887444,-1.1903167,-0.8309494,0.4679177,1.4581337,-0.110410705,0.29289743,0.7890624,0.27460644,2.6355166,-1.0450022,-0.19421987,-0.8001679,0.67312366,0.1661446,0.40850037,1.5888704,-0.39564154,-0.54930437,1.1860578,0.10445778,-0.2082069,-2.0269406,-2.369591,-0.32444283,1.5044447,-2.2833686,-0.4090472,-0.39204443,-0.45265964,1.2047881,-1.3315802,-0.9895483,-0.5308998,-0.35563266,-0.65951186,0.503246,1.8836454,0.18393457,-0.115052715,-0.4239001,-0.22047104,2.077164,1.2859753,-1.6660172,-0.043893676,0.07451696,-0.32762474,-1.1455337,0.35894954,0.7027986,-0.70122474,-1.4781591,0.9250803,-1.1908033,0.7490181,0.74766123,-1.2772425,1.4480243,0.26840013,-1.4604528,0.22060697,0.4349174,-0.26411968,0.098951384,0.24568084,-0.020837318,2.0577269,-0.91437614,1.2000335,-0.7150331,1.3532478,1.0919725,-0.35325798,-1.5457593,-2.5696833,-0.05257945,1.1780124,-1.3046511,0.22776085,-0.35259253,-1.24519,-0.297345,0.92241424,1.3961196,-0.094177306,0.5168576,0.8550773,-1.5696641,0.28616872,0.93409616,-0.09079895,1.6782259,-2.486344,-0.5050609,0.34475002,0.86632746,-0.43896136,0.88184583,3.5194924,1.0289358,1.7082719,-0.2622119,-0.22910868,0.22765142,-0.48779762,0.629961,0.738177,1.4244285,-1.4349376,0.12305956,-1.3431923,-0.822427,0.07874323,-0.83183753,-0.49840143,-0.9141034,-0.8101618,-1.5196036,-1.2783352,1.0523589,1.0047636,-0.8163163,-1.2650211,-0.97539955,-1.6477071,1.0185493,1.5051389,0.051364854,-1.2308099,0.42792094,-0.42056897,0.9146497,1.5931858,-0.29897723,1.0038551,-1.4777229,-0.5327067,0.8635826,-0.80897427,0.61115426,0.6435192,1.0497427,1.5041957,2.0523372,0.64872926,1.1392624,-0.188183,-1.1168605,-0.8951163,0.28527164,-0.8067698,-2.2647161,1.2323068,0.032398727,1.3642613,1.9618251,-0.81397855,-2.1665752,-0.31043768,1.1735855,0.5731452,-0.38052872,0.34403,0.6245768,-1.1770011,-0.14879128,-1.4548025,0.9656036,-0.8052861,-1.6683503,-1.8781401,0.33086646,0.82367307,-2.6493945,1.1725087,-0.72662413,0.88569796,1.0662576,0.087420136,-2.3039982,1.1058846,0.80493104,-0.32070124,-0.8378122,0.6745683,-0.06343151,-1.0144867,1.4510528,0.9383431,-0.6856043,-2.0177503,0.33830643,0.76755136,0.00740869,-0.5700559,0.1453692,2.2121427,-0.71038496,-1.7089219,1.0191137,-0.44697616,-0.058112532,-0.9234941,-0.19346869,1.0851171,1.3658967,1.4767133,0.4090533,0.093247406,-0.43773144,-1.5558214,1.5395299,0.9976227,0.060112447,1.4369295,1.0692017,0.837178,-1.7582302,0.6353407,-0.24094917,-0.71595603,1.816521,-1.1701325,1.3680985,-0.7399662,0.673697,0.5464561,0.32135427,-1.4514982,-0.3267759,0.08136346,0.24177673,-0.9599828,2.0503507,1.1868498,-0.94105774,0.6000005,-1.7123009,0.71444696,-1.3575138,0.9986561,-0.9834526,-1.0642818,1.8372675,-0.93506855,-1.6464196,-0.7439193,0.72311354,1.6775624,-0.22255637,-0.13459788,0.9040043,0.8094593,-0.46558118,0.6284855,-1.7466499,1.2411891,-0.6139526,-1.2297187,-0.6664662,0.75203234,-0.59089154,0.6919475,-0.78622454,2.3548489,-0.73203295,-0.69024605,0.8600595,1.1832241,-1.3595307,0.36637586,1.0903695,-0.8465669,-1.1542537,0.50423443,1.0926151,-0.8550253,-0.5823461,1.4600452,0.11941775,0.8730641,2.451197,-1.3248144,-0.27029344,-0.03405058,-2.1780903,1.3018767,0.8918287,0.54243225,-1.2253585,0.3941626,0.188398,-1.2883838,-1.3472832,1.198789,-0.7577224,-1.140403,0.42268935,-1.8021799,-0.4119442,1.4343822,-0.7927532,0.9125239,1.4153072,1.2572474,-1.0179211,0.8924198,0.19652708,1.4210113,-0.38821748,1.1872184,-0.030749004,-0.197136,2.6103842,0.030865343,-1.7897464,-1.854657,0.109633744,1.0860636,0.7759196,-0.08997428,-1.8269647,-0.28005436,0.5583729,-0.5667449,0.52717847,1.3573368,-1.9964433,0.27115077,-1.9428024,-0.83693826,0.42348364,0.7771576,0.22336932,-2.4497883,1.3578827,-1.263297,3.3098793,0.9929616,-0.9632624,0.043777652,-2.310219,0.30666777,2.5742512,-1.8541301,0.06379231,1.4557388,0.4380941,0.1392618,-0.6115525,0.104859
CD163,0.35685474,1.0089889,-0.8964718,-0.43650803,1.1174048,-0.3407776,0.7917188,0.7942444,1.2874695,0.29047778,0.66037595,-0.16052881,1.2958463,0.44903046,-0.35514462,-1.5736388,0.81895196,0.3297101,-0.37049803,0.50807047,0.9343219,0.3574819,-0.050278217,-1.0300578,-0.027779201,1.2081159,-0.68164825,-0.12460013,-0.4183438,1.0138792,-1.7161992,-1.3532251,-0.15715882,1.0677053,-0.093513064,0.53280944,0.53590506,-0.7206183,-0.95651656,1.0615886,-1.6538657,-2.0729356,0.77387065,-0.19542372,-0.07240112,0.81817114,-0.47396684,1.2892302,-0.29061264,-0.073459506,0.6397856,0.9717428,-0.8591216,0.11024476,2.2265897,-0.79166794,-0.52763605,-1.8837203,-0.5292176,1.7340837,-0.6366351,-0.96574944,-2.0785167,-0.118350066,0.4193441,1.7320639,0.53446794,0.9692394,0.53560024,0.70210695,0.5268283,-0.3924792,0.3135831,1.2943572,-0.74308217,-0.43553063,-2.1345592,-0.42758054,1.6322023,-0.027652668,1.1014445,0.62668025,-0.5294297,-0.9398538,-1.0284455,1.402489,-1.154225,1.3136922,0.6716268,-0.84269065,0.68421066,1.5973294,-1.3364427,0.19022413,1.8590534,-2.3321655,-0.7099028,0.639999,0.58638126,-0.22056234,-0.75782627,1.8755771,0.47073892,1.0526447,-0.635766,-1.2233442,-0.2562068,1.0771055,0.118655995,-1.3104423,-1.8665661,0.8480002,1.712909,1.2811483,1.9224699,-1.4588069,1.8765858,-0.48789313,-0.05915849,0.6748223,0.3980586,-0.569962,-0.82134706,2.1710882,1.708294,1.8331481,0.25571302,0.141029,0.03723208,-0.27063787,0.49788773,2.5264716,0.13182779,-0.893296,0.89050376,0.5907854,-1.0498729,-0.9213808,0.73461825,-2.546394,-0.80241615,2.0954587,-0.592455,-0.37021047,-1.1014127,-0.11545952,-1.9906089,-1.3016824,1.5951954,0.930312,0.09038017,0.8151617,-2.1867929,-1.5711932,-1.2975122,-1.9610564,-1.4298534,0.36423337,-0.22474948,1.1322594,-1.0847028,-1.25135,-0.047565397,-0.40908188,0.53412044,-0.42217875,0.24939305,0.040883567,0.8128614,-0.34279257,-1.3267629,-0.8222515,-0.9137046,-1.099973,-0.72508335,-0.85692626,-0.20727734,-0.0120991515,-1.2576628,-0.1894788,0.4497608,0.43195972,0.78241384,0.3138064,1.2448138,1.3249099,-0.5300671,-0.35230097,-1.0924499,0.8486284,-1.1129434,1.4782999,0.445019,0.018149847,0.6982477,1.0938907,-0.90514576,1.901748,-0.0013223118,0.7248759,-1.4197109,0.45914665,0.7082129,1.0313305,-1.4008404,-0.6595403,0.50928456,-1.4289427,-0.7307852,-0.42557287,0.20177329,-1.1712676,1.32333,0.6604414,-1.1587037,0.78885466,-0.6743347,-0.6424371,-1.8401091,-1.3351163,-0.6976938,-1.4490192,0.38865277,-1.7300793,1.5313128,0.3547865,0.96679515,-0.6808565,0.3994586,-0.8641166,0.39484313,0.39393142,0.030576369,-0.43740073,-0.3330532,2.2634482,0.057161283,-0.3815404,0.9496307,0.0077822884,-2.4429865,0.4404653,0.26060572,0.12887552,1.573988,0.6230806,-0.7700243,1.164024,1.0329108,-0.47530246,-1.535387,1.8275247,-0.48337674,2.3793867,0.38072672,1.656878,-0.784708,1.2333316,-0.8832482,-0.22167672,1.5221577,0.69386524,-1.0408545,-1.1179669,-1.1296964,0.9114904,-0.0807352,2.2074158,0.32252446,-0.83123106,-0.9966494,0.08245849,-0.30625898,1.9718714,0.9651748,0.7503913,0.5314913,1.3118693,1.2745931,0.7500909,1.7659284,-0.7952006,-1.0040623,-0.63745874,0.5633759,0.27543133,2.0448194,-0.22390549,0.4047656,-0.9085769,-0.37862232,-0.01136809,-0.3849097,-0.129897,-2.3489199,0.23566993,1.0088582,-0.6590901,0.37581888,-1.6675338,-0.80484986,0.9375495,-1.5817735,-1.4323914,1.0528746,-1.8333187,1.6245215,2.5694556,-0.09932292,0.22305012,1.3967111,-0.56972295,-0.082164876,2.0394363,-0.96462584,1.3745384,1.5288239,0.8857438,-1.4032118,0.23780388,0.12154967,0.6244581,-0.69555795,0.669865,0.33292288,-0.7290829,-0.29486302,1.9979193,-1.0495224,-0.11397883,-1.5594368,1.1879568,0.8550967,0.71238315,-0.086660646,-1.772309,-0.67360073,-1.4892585,0.65538716,1.6090223,0.025966454,0.2804176,-1.4443288,-0.5675562,0.040042806,0.18088894,0.68819946,-0.9689847,0.6183905,0.16743726,-0.26742986,0.5943271,2.1208172,0.18601874,0.598739,0.17171718,1.0226438,-1.9101641,1.6641316,0.5789147,0.06371311,-1.7909324,-0.3803916,0.45863438,-0.6423412,0.12814867,-1.6193371,-0.49748358,1.9300293,0.23728494,0.5556828,0.26131213,-0.2441328,2.006314,1.3959355,1.3512768,-0.25919175,0.42762685,1.2401571,1.4515443,0.04654537,0.30535707,1.616005,1.6238981,-1.0170203,-2.057215,-0.47239128,-0.85506135,-0.85150456,0.09642351,0.721752,-0.16169411,0.5034711,0.28199932,1.1386657,-1.542276,-0.9275656,0.29672363,-0.7093655,-1.1512163,0.087372094,-0.5073233,0.9358575,-1.1228077,0.45169896,-0.1484649,-0.41772544,-1.8217921,0.44217578,-0.14152762,-0.47936198,-0.48418832,-1.2217827,-0.4310672,-1.1895316,0.8228151,0.25391224,1.0365144,-2.50695,-1.1291437,1.1095544,-1.7893407,-0.4933539,1.0616995,-1.281226,-0.07003621,0.8199829,-2.0821285,-2.6875124,-1.5196441,1.8150725,-0.5614607,-0.53151804,-0.035342257,1.5865827,-0.9764184,-0.25992706,-0.2930476,-0.63768727,1.8608118,0.8925966,-0.3054007,-2.0267088,1.1379638,-0.049855795,-1.2592971,-0.19715428,-1.5901134,-0.99543107,1.5882651,-1.2602841,1.096313,-1.0718062,0.035389625,-0.41707465,0.760112,-1.0911767,-0.4347711,-0.78975046,2.6364202,0.5015947,0.22212735,1.0548968,-0.34169683,0.25366566,-0.14233612,-1.8189185,-1.4799988,0.1084114,0.45900825,0.7047553,1.3433015,2.041673,-0.5704985,-0.36440265,-0.088318355,0.27488995,1.4277833,0.03882459,-0.9390019,-1.4445885,1.4055096,-0.1258722,-0.63154846,-2.5421033,1.7551976,1.1364092,-1.9573457,0.55135715,-1.496158,-1.674302,-0.89951545,0.30922353,0.6260086,0.66715837,-0.69823134,-1.7065347,0.11428199,0.33210155,0.9427963,0.78470147,0.9654723,-1.0191865,0.26824227,-1.6597513,0.9416395,-0.5012113,0.59034276,-0.30428478,-1.5160471,-0.32693276,0.78253204
CD19,-0.8231432,-1.3291155,-1.548215,-1.4553899,1.5497483,0.7377116,-1.3769088,-0.117596105,0.815883,0.069385625,1.2264099,1.492026,-0.62375456,1.2162077,0.20354445,-0.87732583,-0.88181585,-0.56546646,-0.19601603,-0.64303654,1.0872482,-0.8817628,-1.0401572,0.18938512,-0.7400316,0.4289912,-0.90708756,1.1300443,1.5073647,1.2974367,0.6774653,0.11635825,-1.0008401,1.3511373,-2.0982099,0.24891686,-0.4403113,-1.3117132,-0.9503461,0.8096363,1.053108,-0.6015516,2.0334632,-1.1947713,0.36707604,1.4012231,1.1902577,0.0039460706,-0.50002515,-1.1540347,-1.7947408,0.093606964,0.2371723,1.2244797,-0.6799446,-0.5052176,-0.69319797,-1.4723105,1.919734,0.8841295,0.080722235,1.9982347,-1.3228297,-0.87702084,-1.4920933,-1.2521064,0.47817585,0.33274412,-0.32620203,-0.73057544,1.6382674,-3.133826,1.696467,0.6396756,0.07876382,1.4223131,-1.0191603,-0.96419156,0.60429406,-0.35179633,0.6414749,0.21603422,0.32704076,0.17020538,1.4204847,-2.1395476,1.7636836,0.24033108,0.6800255,0.5392914,2.3677285,-1.2657359,-2.0330284,0.9870032,-0.63166165,0.26513705,0.59371996,-3.172742,0.3157383,-0.06907053,0.8252497,1.596464,0.65180296,-0.47131988,-0.37974486,-1.0532191,1.2955979,-0.037141174,-0.2415716,-0.47055793,0.047308825,0.6494837,0.5921327,0.9685605,-0.28272533,0.69518876,0.2812028,-0.07228749,0.14327534,-0.16781637,2.673941,2.037918,0.21234861,0.40183935,0.025392063,-1.1055104,2.0126967,-0.31613752,0.8687773,0.20593806,-1.006568,-0.4903781,-0.54020756,0.6495313,-1.7070172,-0.49170136,-1.0498843,-0.46084544,0.6707242,1.7138019,-0.30409017,1.0584136,0.16055651,0.95801306,1.8347186,-1.1109169,-0.28195453,-0.08087633,-0.6203102,1.3828948,-0.42849937,1.5968714,-0.2978561,0.42077225,-0.94216335,-0.0034235485,0.40799776,-1.0430511,0.18996814,-0.663165,-0.57221925,0.4707703,-0.4784885,1.2017119,-1.8344054,0.0016283735,0.23835714,1.4952782,1.2763941,0.49992934,-0.9309175,-1.2911516,1.3209434,-1.3476503,1.420859,-1.3300134,-1.222365,-0.67208046,-0.49783576,0.3528376,1.1166385,1.7957717,0.697742,-1.8497512,0.69830906,0.667079,1.3297234,0.21557057,0.7864645,-2.597406,0.36254022,1.2002572,1.3402431,-0.26746476,-0.87594074,-0.4250283,-1.5908545,0.67217547,1.2098156,-0.3991829,-1.7563988,-0.79517806,-1.981632,0.32359123,-1.5232855,0.81628615,-0.38287205,-0.77960736,1.435947,-2.2092304,-1.0580274,0.73308307,-1.4784139,-0.4840783,-0.69052494,0.84784025,-0.20008424,-0.049890853,-0.94052887,1.0146484,-0.818589,0.19222164,-1.0180424,-1.1824101,0.52127457,-1.6712345,0.9968022,-2.1900706,0.12844218,0.078779966,0.011158451,1.287515,-0.30738384,-1.1143725,1.5118785,-1.1751796,-0.79939485,-2.0326724,2.430489,-1.6750866,-1.8929026,-2.1824398,-0.5087543,0.41079217,-1.1054902,0.90232515,-0.26419687,0.51612854,1.5166351,-1.4674869,-0.32857582,1.08722,0.09706988,-2.4943705,-0.7519561,1.4732293,0.38299808,-0.21209876,0.2963388,-2.274885,-1.2147005,1.4989963,0.56906193,-0.104500785,-0.9852878,-1.8946921,-1.2023746,-0.70552605,-0.9350049,0.45545566,1.1166261,0.5019282,0.84670764,-1.623435,0.35188806,0.6160438,-1.511892,0.12468168,-1.0058131,-1.0796454,-1.3932124,-0.81322324,-1.0888091,-0.5790801,0.034162622,0.68296355,-1.5213549,1.5518699,0.91014224,1.5866736,-0.38671923,-1.0906795,-0.06015271,1.72905,1.903963,0.22360218,-0.6036496,1.9618347,0.2089986,-0.98489696,-0.35906452,-0.6421788,-0.39717326,-0.5179863,0.50549626,1.2186729,1.0160213,0.435496,1.2432438,0.9732993,0.12176637,-1.5713826,0.2185258,2.6943038,0.21896282,-0.15255745,0.4142848,2.4170756,1.0804489,0.21028358,-1.026608,0.54619837,1.4346703,-0.58515733,-0.8488653,0.80562097,1.5786238,1.2132708,0.105479635,1.4521494,1.7288465,-1.4194645,0.105837315,-1.2433113,-2.5253494,0.59468263,0.12444848,0.24734287,-1.3223523,-0.7677766,-1.129906,-0.6121164,-1.0675694,-2.0024118,0.09878587,-1.1631237,-1.3967514,0.7201811,-0.5855844,-1.7856872,1.2290506,-0.20419966,-0.45724857,0.8686281,0.90133214,-1.8626441,-0.7810483,0.63415164,-0.44638178,-0.52842647,-0.9651798,-0.7540569,0.24076599,0.16312924,0.6492231,0.9890294,-0.8439527,0.7027286,1.1712158,0.2507976,-0.2774875,-0.04091521,1.4822528,-1.2884297,0.45600924,-0.32101488,-0.014301787,1.1733323,0.7620752,0.5062997,-0.40511784,-0.5928205,-0.89737594,0.82573164,0.24707423,0.16413873,-0.7863038,0.2999649,0.6183343,-0.10158899,0.6259915,0.04622808,0.17858374,-0.11884995,-0.4801784,-1.0480767,-0.4623064,0.1099961,0.54404724,2.4665475,1.0288788,0.66389316,-1.3797859,1.1500481,-0.09672054,-0.13518043,-0.06918411,-0.105418794,0.94607,1.2022032,-0.2308011,0.7818065,1.616662,0.42417726,-0.10303756,0.28014416,2.5935686,1.0758712,-0.46897453,-0.21682666,1.5822799,-0.8631419,1.8525758,-0.28295523,1.7583973,0.43758905,0.9669387,-0.6187874,-0.9508608,-0.28576013,-0.74930376,0.8569394,-0.2576046,-1.8563589,-2.0575469,0.79875886,2.690221,1.4924437,2.1767585,-1.2824329,-0.37775373,0.022039339,1.4822617,-0.88746285,1.2877551,0.5108289,0.01702684,-0.84795475,1.0388191,-1.941216,1.2834483,-0.7214555,-0.0035580825,0.8894503,-0.848972,0.06485844,-1.5605712,0.1916196,0.10448966,-1.2132968,0.39377886,-0.7909383,0.76669323,-1.482886,-0.36262152,1.5590665,-0.458675,-0.058366954,-1.333296,0.13354789,-1.7778227,-0.9345722,-0.5491822,0.008125045,-0.6485248,-0.32196462,0.42616925,-0.65361285,1.6314315,-1.315588,0.90790415,0.86433965,0.36493072,1.3712616,1.0693067,-1.2259728,1.2415493,0.33161592,-1.2304109,-0.22304067,-0.16162603,-0.19521123,-0.32116076,2.3278852,1.3340766,2.3523479,-0.51157075,-0.9033709,1.0101473,-1.4616864,-1.9436054,-1.3222506,1.1913534,0.68092424,2.3461294,-1.1455921,-0.7309102,0.6221675,1.1897984,-0.7451312,0.19559443,0.15049995
CD1A,-1.0682139,-0.47559297,-1.2240888,-0.25486583,1.1660138,-1.6936551,1.6444975,-0.3125972,-0.7687777,-2.1309633,-0.012500028,0.21264695,0.88423663,0.20000404,-0.16530451,1.1765463,0.4703337,0.0886477,-1.2506135,0.78946036,0.22947183,0.21133032,-0.4007536,-0.11269348,0.7380421,-1.5843059,-0.02700101,-0.81439245,0.3932525,0.20664237,-0.56000817,1.1859193,0.15986249,1.6915544,-1.609451,1.0765421,0.5169357,0.33192402,0.5790428,0.8883698,0.4484643,0.40537226,-1.2339271,1.4116063,1.0801926,-0.5971165,-2.1336174,1.0712719,-0.72237355,1.5512531,2.1252303,1.5703616,-0.010812045,0.7228132,0.29109725,-0.6522648,1.1433885,0.50284904,-1.3532565,0.64872324,1.0880574,0.25937733,0.4752187,-0.19911581,0.8727333,-0.1243826,0.1918728,0.17398171,0.16332011,0.58849055,1.0434145,0.7446745,-0.07743874,-0.51467705,0.74509436,-0.95945686,-1.7890294,0.46278745,1.5656118,0.21971172,1.5341365,-1.6169386,-0.9020819,-1.002622,-0.2552766,-0.32786092,1.6418551,-1.8462218,0.36010203,0.8271711,2.2823358,-0.72534513,-0.69945765,-0.523694,-1.7231143,-2.1050925,-1.0879598,-0.27071625,-0.15787247,-0.31866422,-0.021682994,0.5252463,0.28934044,1.6001143,-0.16581634,-0.49299628,0.6977778,0.45911765,-2.052293,-0.55659187,-0.6470716,1.1662447,-0.992286,0.3046271,0.29511315,-0.12169435,0.99198884,-1.4460342,0.30437055,-0.60630184,1.5133455,-0.9537676,-0.66470814,0.2519503,-2.0255322,-0.50309086,0.6292415,0.14678974,-1.2626659,0.6150549,-1.2935815,0.99205345,0.14009957,0.84661573,-1.5083387,0.7971396,-0.30822334,-1.0200614,0.99841917,2.4743845,1.3256857,0.22605689,-0.49317524,2.1302323,0.050395977,0.86439526,0.4981124,0.4756467,-0.5267784,1.0148413,0.80801433,-0.0020755476,-0.34402746,-0.5072364,0.32577544,-1.4548628,0.11638287,-1.2674814,-1.4511046,-1.0308352,1.4249448,-1.1336133,-0.47300607,-0.75925565,0.3680405,-0.71096253,-0.9387235,-0.806542,-1.6893147,-0.7671958,-0.2459895,-0.11895246,0.14058818,1.8542609,3.7418149,0.019921515,0.7755029,-1.0001216,-1.4775513,-1.1477561,-0.41590136,-0.041250747,-0.560739,-1.3407089,0.42117533,-0.61149585,-0.19104494,-2.4158514,1.138242,0.2695197,-0.05507879,1.2472267,-0.052992925,1.1249865,-0.22186325,-0.9370857,0.20375286,1.2264757,-1.5415974,-0.5494257,0.84115714,-1.3015445,0.9465206,-1.4654684,-0.8472782,2.4720821,1.1952534,0.19609721,0.013017676,-0.92837656,1.246724,1.0975116,0.012284121,-0.9779319,0.82759696,-0.042971034,-0.52264273,-1.1598198,-1.3430002,-0.9784393,-1.1908108,-0.44938004,-0.75505465,-1.3673762,0.37218967,-0.13455,2.053499,1.5458295,0.3556854,0.6764421,-0.14793015,-1.3767436,-1.8234297,-0.29466662,0.32782876,-0.32250416,0.98382825,1.2309076,-1.3708365,-1.3941385,-0.5258461,-0.2290377,-0.26896235,0.33170974,0.40995163,-1.6056614,-1.5724307,-2.1628325,0.64272016,0.7959489,-1.5496833,2.8624542,0.17148441,-0.91971505,1.0730213,-0.0923776,-0.110929646,0.03222807,0.67268336,-0.12944221,-0.08330329,-2.1035156,0.063836016,-0.3534765,1.6312525,-0.2500346,1.2761412,-1.4885048,0.8177756,0.18177415,-1.0918,2.3713226,-0.96876085,-1.2836897,-0.41690272,-0.07972609,0.8750284,0.30738103,-0.15356919,0.20821945,0.13848193,-0.34146398,-0.29049167,0.9245549,1.1676738,-0.8248237,-0.41514492,-1.145312,0.784,0.56159157,-0.81296754,1.7178712,0.6047907,0.42486787,0.46963438,1.083415,-3.0975552,-1.1537441,-0.09891841,0.47056302,1.0523778,-0.70622003,0.8271148,0.08093047,0.2381536,0.27623737,-1.4322249,-0.97183925,-0.537952,-0.8907855,-1.8669521,0.6505261,-1.3917692,1.7161816,1.6426306,0.44555458,0.79969746,-0.1950987,-0.38433295,0.8291687,1.4306017,-0.10465505,1.8555509,-0.5029152,2.311661,-0.5284976,-1.2134528,0.543549,1.5771531,-1.1718036,1.5324975,-1.0126369,0.94109094,-1.6005232,-1.4758186,0.95420617,0.115396895,0.17779575,0.781968,-0.61842734,-0.43620172,-0.40456653,-1.0281664,0.1275361,1.1190935,-2.5686374,-0.63168174,-0.36505553,-0.9543238,-1.1720753,0.7367085,1.2544134,-1.6067368,0.5122272,-1.7689112,-0.7129877,-0.94280463,1.4557141,0.8477685,0.21614859,-0.6503922,-0.3530912,-0.06574269,-0.048015043,-0.05475693,0.0081024375,1.9083309,1.0400499,0.8865453,2.0180137,-0.7635962,-0.082607456,1.4877337,-0.11609315,-1.6621487,1.7157773,1.7214292,-0.4626318,-2.1731863,-1.956467,-1.070062,0.03176776,0.9956006,3.0871863,-0.7716208,-1.2253423,0.713216,0.8407378,0.62401026,1.1083469,0.010985844,-0.38669214,1.0113918,1.6103094,0.027615387,-1.534781,0.79118276,0.534416,-1.7043762,0.34564275,-1.1752021,1.3299142,-1.890448,0.7023202,1.1799603,1.1568633,-1.2113591,1.6145355,-0.06978126,0.38342586,0.5356644,2.6089227,1.0200058,-0.9578205,0.95490324,-0.3789504,1.1126689,0.40055254,0.45813262,1.1754239,0.8626311,-0.083380386,-0.17898917,-0.8821712,0.63875777,0.14014795,-1.6351535,2.0448143,-2.469169,0.6530815,-1.4550147,-0.7967976,1.2209185,-2.1220038,-1.4982831,0.051214367,-1.0650723,-1.0642033,0.21359284,1.0898459,-0.438059,-1.1838388,-1.4935791,-0.7978368,1.2522842,-1.5312686,2.0491447,-0.10861953,-1.8086518,-1.3745992,1.3075163,-0.8699695,0.92812663,0.25715163,0.718586,0.024175387,-0.9880109,0.25906473,0.8245481,0.120150685,0.45691782,0.25990045,-0.819748,-0.57699895,1.1579129,0.37115884,0.52319074,-0.9940089,1.4694374,1.1086835,0.40785825,-1.2731166,-0.70855945,0.6064936,0.0013222689,-0.79536474,-1.0796322,2.4198096,-0.49729785,-1.7901671,-0.42002857,-0.24631818,-2.2184694,-0.003927762,2.4357355,-0.3964793,-0.5884756,-1.1060387,-0.48516145,-0.56242514,0.88980776,1.389221,0.9092828,0.44666418,-0.19378415,-0.40146607,-0.46715733,1.8116088,2.1323512,-1.0614188,-0.03232932,0.66098326,-1.489801,1.3068848,0.40633237,0.3915086,1.9107835,-0.5848632,0.16426651,-0.9638349,0.6279442,0.40056524
CD2,0.089366935,3.0346148,1.0499964,-1.9260932,-0.7858771,0.096341394,-1.9304582,-1.2998888,1.2123032,0.33372632,0.14326522,-0.6688367,0.016647052,-1.9111739,-1.7257872,1.6108983,-2.3835075,0.46480083,-0.3480237,-0.41123417,-0.2597515,-1.4496502,0.2410291,-2.2656248,-1.195135,0.6621664,-0.35302514,-0.76639146,-0.3881063,0.8028045,-0.22057626,0.90444803,-0.065669395,1.2294959,1.0736948,0.47426555,0.68041867,0.906998,-0.09752739,-0.7526812,0.110795714,0.97395456,-1.1039346,-0.4794568,0.5646659,-0.54490346,0.16809736,-0.19351876,-2.4693093,-0.038196947,0.24451663,0.43367225,0.9554573,-1.5181704,-0.27045533,1.105381,0.33083427,-1.1376518,0.5805186,0.41286147,-1.2011877,1.4415407,0.5770219,0.68545514,1.069892,-0.25137922,1.153591,0.22018656,-0.33240175,0.15694344,-0.061364386,2.1800075,1.6286398,-1.2586882,-0.9021904,1.1708862,-1.6575643,0.2236731,-3.099331,-0.70048755,1.2432872,0.58068144,-0.031290963,1.7205137,-1.1500878,1.2941241,-1.2997527,0.5510946,0.21445672,-1.5372357,-0.2881955,-2.3780863,-1.6027235,2.5826054,-1.3469572,1.3234105,0.62631285,-0.3187564,-1.5223203,0.7898818,-1.1602919,-0.5874463,0.5306048,0.83201504,0.34380454,-1.6774985,0.15806359,1.1018413,-1.0639982,-1.1164434,-1.679722,-0.63460726,-0.7307829,1.119294,-0.0946715,0.23132037,-1.1425284,0.09073667,1.5692271,-0.18724108,0.059730146,-0.8390496,-0.570229,0.7255735,0.7169187,1.8239832,-1.2567428,-0.14700736,0.429096,1.0467201,0.48487684,1.7267232,1.1504738,0.83462536,-0.43328413,0.8874766,0.07773888,0.58756095,-0.7186915,-0.56683916,0.6522486,-0.7632357,-1.3294319,0.5248429,-0.21122997,-1.0970742,0.75134736,1.6339034,0.1369535,0.34447697,-0.114319734,-0.72644633,0.2298758,-1.3969153,0.46749893,0.41428596,0.12411003,-2.0069618,0.9647697,1.114674,-0.1935619,-0.5909816,-1.2399054,1.1529542,0.2963602,-1.4680375,-2.684233,-1.1020063,0.47589666,-1.3334293,-0.29439387,1.852877,0.20644975,-0.2879805,1.2569066,0.7331064,-0.4359814,-1.0045403,0.2432945,1.7961099,0.55185336,0.025585074,-0.14532773,0.10227562,-0.15687194,-0.9725155,-0.9137054,-0.13868363,0.09652156,0.4904926,1.3796229,-1.2305716,0.68838954,-1.5366123,0.79371256,-0.20322856,0.54221857,0.21440744,-0.20214526,0.8212493,1.8286465,-2.0978212,0.7098041,-0.33642074,1.7732514,1.5748862,-1.0065501,-1.2911673,0.3464627,-0.5996498,-0.61114866,0.5773913,0.29733238,1.0171177,-1.2339358,-2.0870152,-1.5490885,0.05928105,0.49116024,-1.1260391,-0.11806857,0.9129683,1.2585331,-0.8696432,-1.471014,0.81675357,-9.929649e-05,-1.1258413,-2.141931,1.4166588,-1.457658,-1.2644184,-2.0561662,2.38667,-1.5271245,-0.27131853,-0.48937368,-0.7145425,0.15229805,-0.4258211,-1.7367123,-1.0806748,-0.7477794,-1.6776819,1.6911805,-1.2398,-0.67232734,-2.945508,-2.2241888,0.15430023,-0.5370033,0.4767906,0.4466825,-1.1761771,-0.6537916,0.92533225,-1.0839735,0.32000363,-1.3902742,1.5810529,1.0421293,-0.2629505,-0.57861,1.1584554,0.32789245,2.263229,0.8631812,1.6716504,-0.35085914,0.7921957,0.14074486,0.051592425,-0.27321747,0.28707647,0.9693769,0.51885253,-0.30501044,-0.6933215,-0.50404406,1.13159,-0.44329235,-0.5318244,0.76269543,1.3497603,0.42772987,-0.033323765,0.00961345,0.23137885,0.21173264,-0.037367247,-1.9835554,-0.67949474,0.51931065,0.5146018,-0.46478584,0.5697554,-0.5125383,1.0724881,0.6646347,-0.21554092,1.6761538,-1.0199983,1.4075578,-0.35831696,0.05630512,-0.9313063,0.7602079,-0.334134,1.0072584,-1.1406375,0.7955985,-0.7582445,1.2801391,1.4074795,-2.5340354,-0.6447433,1.1138251,-0.5711195,-1.0132627,1.5401754,-0.04873648,-1.2771099,1.0071875,-0.98164636,-0.5650153,-0.57226443,1.6026471,-0.7966827,0.1811357,-0.5877079,0.59838766,-0.36275998,-0.2017852,-0.85907054,-0.99717027,2.5969257,0.63347155,0.32599822,-1.2834203,-0.03828232,1.2591507,-0.06542894,-0.43376476,0.12797622,1.8921387,-0.33027712,0.8743546,-0.49659085,0.82053894,-1.7890239,1.2921851,-1.7296262,-0.6088002,0.023141261,-1.0614048,0.9480726,0.8675925,2.488562,1.4430892,-0.50134355,2.5421195,-1.4982312,-1.811572,-0.23436809,0.33216533,1.6716393,0.9243548,0.85190535,0.22364223,-1.1866834,-0.08151804,0.35326657,2.3068182,-1.0287822,0.79075366,1.8587283,1.7236384,1.051095,0.059708294,2.0973687,-1.2379407,-1.9047828,0.23029685,0.7407175,-0.5589843,-1.5044434,-1.1933268,0.34191483,-1.2314414,-0.74788994,0.42974907,-0.5029834,1.1977074,1.6261781,-1.6222403,0.8310762,-0.15290146,1.1278843,-1.4224193,1.7917023,1.0259478,0.056568302,1.5016892,1.4209946,-1.2062641,1.5269352,-0.13914345,0.8130547,2.1085453,-0.08415672,2.6861904,-1.2629437,-1.4710053,-2.2976034,0.49878722,-2.1582873,0.26223916,1.6679133,-0.5037965,0.9908251,-1.1700644,-0.5711212,0.7860904,-0.597291,-1.3621526,-1.1070243,-1.7248162,-0.38341945,0.80942464,0.7477431,-0.9125567,-1.455379,0.036216047,-1.3644694,-0.3558844,-0.64089847,0.7685676,-1.7876948,-0.22497538,-0.31290036,1.2055472,-1.0424277,1.4070168,0.86501795,1.7374591,-0.9470904,0.011227747,-1.1232628,0.10019193,0.31859618,-0.029637303,-0.5757805,0.11802251,-0.4886035,-0.3654965,0.4155638,1.6349362,0.70730245,0.59947205,-0.7763474,-0.19939284,0.24019204,0.75721544,-0.39968517,-1.1924729,-0.5143839,0.81105405,-0.99796826,0.882055,1.3057184,-0.55942905,0.5364243,-0.5034463,-0.26253176,0.06941392,0.7578163,0.4517701,-0.15965617,-0.40971178,-0.39719126,-0.13638707,-1.3136622,0.5537085,-0.15855823,2.257806,1.904729,0.503439,-0.6868672,-0.71122086,1.2602367,-0.2446969,0.9368631,0.9839567,-0.097068444,0.44462574,-0.80259395,0.826875,-0.31444958,0.45614442,-1.1697083,0.2663355,-1.5221455,0.0020242867,1.1431621,0.12235743,-0.69470775,0.9447726,2.111595,-0.081392184,1.3814808,1.1294174,2.5733485
CD274,-2.307354,-0.47195882,-0.35618514,-1.0210474,-1.7704669,-1.9492669,1.1025759,0.9685866,-1.0584319,0.8104312,1.2278687,-0.4443125,0.37595758,-0.7240362,0.18424717,1.3439977,0.1622152,0.08085355,-0.9501641,-0.64839685,0.13597071,-0.79231393,-0.921521,1.4292005,-0.5183902,-0.8743435,1.0531522,-1.9758936,0.3665731,1.0702945,-0.2071592,1.048069,1.158022,-1.029318,1.114433,1.1276543,0.7860933,1.1695776,-0.88787746,1.1203773,-0.4351662,1.0437973,-1.6113405,0.5143453,0.37497416,0.5830418,1.1576294,1.7924837,0.41975924,-0.11172561,0.6951096,-0.6704733,-1.6234239,-0.76153934,0.81877404,0.08473118,-0.871653,0.10111792,-1.5851122,-0.055248875,0.16630973,0.5118456,0.74020743,0.77702224,-0.27553463,-1.3095443,0.42937845,-1.1025479,0.0432543,2.095763,-2.1520185,-0.48724982,-0.7370617,-0.96786886,1.8578703,1.1641115,-0.7487416,1.0407217,0.3312877,-0.7270723,1.2150803,-1.7445813,-0.51027745,0.2014022,-0.16221341,0.78994143,-1.616172,-0.3465372,-0.26649755,1.2218555,-0.16593075,-1.5564715,-2.0666897,0.27022204,-1.6429493,-1.8939611,-0.5056848,-1.1109757,1.1348889,-0.21497154,-1.1190257,0.35728177,-0.09001541,1.0970871,-0.6806733,-1.6536921,0.018275028,0.7282153,1.5915195,-1.0759984,-0.2312558,-2.9046688,1.8767049,-0.10365564,-0.18800633,-1.2965459,0.9870377,-0.6238177,1.617196,-0.32743645,0.7934615,0.15852492,0.4933708,0.92503357,-0.018153628,0.04859806,1.5760958,0.6459916,0.9903767,0.8953055,0.06865015,-0.44886065,-1.3600678,1.3607707,-1.4726052,0.905621,0.6117967,-0.8537474,-0.28487954,-1.0464659,1.2714828,0.5254328,-0.53521806,2.986739,-0.5389944,-0.16103442,-0.039074752,0.717752,-0.9291639,0.18896776,0.8832214,-1.4270371,-0.80597615,-1.2347343,-0.30537325,-0.2896951,-0.6388729,1.2231147,0.50104225,-0.11554677,1.1590716,1.6251348,-0.08274691,1.7713034,1.7053028,1.899243,-0.2309253,0.13686998,-0.19221011,0.15927236,0.010573811,2.2630308,-1.9937791,0.91487163,1.2534623,0.90945804,0.8372138,-1.9600427,0.8035637,0.1451665,1.7624353,0.4661407,-0.20972286,0.4883696,0.33075508,-0.7401768,-0.93195736,0.6339578,-0.15156682,0.9877878,-0.2954885,0.66219044,1.610584,-0.7202609,-0.16969377,-1.6536968,0.46559104,-1.4531149,-1.0054036,1.1040937,0.5219765,-0.15408684,-0.19871949,-2.0699723,0.08847177,1.3765337,1.5465136,-0.67648613,1.1118811,-1.1727699,-0.3039257,-0.88009703,-0.07682989,-0.22286816,-0.44357905,0.9400109,-0.078206554,-1.1047968,1.485985,-1.5128576,1.5579833,-0.0066692964,-0.20190069,1.6680516,-0.6740169,0.03183495,-0.3369937,-1.6543415,0.042042047,1.7826656,2.9246297,-0.9027168,0.82603914,0.69122386,-0.6251697,-0.16493194,-0.15135883,0.42047992,1.1142843,0.2504723,0.8477236,0.35863382,-0.42707253,-0.63879234,0.2174337,0.65942276,-1.0342503,-1.5346643,-2.4012122,2.0861034,-1.4272405,-0.34098336,-0.6303556,-0.3557872,0.15648015,-0.7810717,-1.7434251,-0.8640072,-0.6565799,1.8269947,1.359171,-0.23634684,0.46680954,-1.3516395,-0.70240045,-1.886019,-1.748389,-0.8764249,1.5902891,-1.5226787,-1.3450315,-0.28038636,0.62873846,0.02373092,0.05939029,2.2610261,1.4934902,-0.6346037,-0.6551433,1.7027178,-0.103075325,0.3906887,1.295934,-1.6497316,0.82256144,-1.0155479,-0.33245862,0.6920558,-0.67720795,-0.815443,1.2154211,1.3086703,1.3053285,2.277122,1.6126175,0.58450174,2.112288,1.3553069,-0.5533225,-0.024940545,-0.28151923,0.622246,-1.1342974,0.70404375,-1.7747177,-0.90727586,-1.3109285,1.2084115,-0.486444,-1.2141472,1.2274083,0.05200189,-1.4253393,0.49995202,-2.3754303,1.3505898,0.11915587,1.2664201,2.489996,1.6933781,-0.07246713,0.83094776,-1.1633761,1.7012753,0.4178166,-1.0269945,1.3090631,-1.2231004,0.23370904,1.5322953,0.024286883,-1.1995056,1.9638005,0.72008824,0.36079803,-1.1526396,0.26946205,-1.0970665,0.40667078,1.3519863,1.106343,0.021303885,0.37417695,1.033283,0.08848667,-0.1502321,0.36873603,-0.36232913,-0.99000293,-0.49359217,1.0821956,-0.83787376,1.0827196,0.14346488,0.98027605,-0.4986428,-1.2608953,-1.2062128,-0.27792698,-1.8678226,-0.8808049,0.5290141,0.889382,0.1542884,1.1941926,-2.0090737,0.993629,1.6508893,-0.09095555,-0.50057006,-1.3444009,-1.5863081,1.6414441,-0.086638495,-0.7058761,-0.22362292,-0.39539558,1.2982883,1.2014831,1.2733071,-1.1971229,-0.8701507,-0.4611114,0.53117275,-0.65392315,1.6745508,-0.632899,0.16620521,0.5709859,-0.037860334,1.3461759,0.7382557,0.33024636,-0.27960235,0.13241407,-1.7202135,-1.0982326,2.168196,-1.5386397,-0.3684171,0.069639824,-1.2393239,-0.21471846,0.46967596,-1.2185624,-0.3882217,-1.2641762,-0.29127768,-0.093367554,-0.6440794,-1.1292508,1.3399733,0.8264303,-0.6446422,-0.3040567,-0.0217338,1.0791205,-1.3673629,-0.21217702,-0.42962807,-0.59033906,0.5219672,1.6175627,-0.71015567,-1.9307255,-1.7248617,0.06272242,-1.2939088,0.5884761,-0.25565344,-1.7001238,0.70890796,1.0263126,-0.1709753,0.19579586,-0.22703332,0.44149038,0.78605366,-0.63685787,-0.9031096,0.9600061,-1.816537,-1.1280767,0.054052945,-0.87576896,-1.9225565,-1.6583215,0.24736115,0.8816061,0.75308526,0.11536714,-0.107888475,0.21060993,0.15539332,-1.8476208,0.2100471,-0.42268398,1.5340478,0.16834837,-0.17708194,-1.0142809,0.36019558,-0.41431257,0.48772603,0.28089413,-0.07950265,1.7273419,-0.5891608,0.82962,0.9138618,-0.013010866,-1.5092928,2.461504,1.8347036,0.3271825,-0.62718266,-1.0671527,-0.12995471,0.040045474,-1.2759062,-0.20447986,0.25692052,0.33016473,-0.58239055,2.3877733,1.093376,-0.23060791,-0.91604656,1.0503501,-1.2707272,0.09830989,0.06838828,0.93847823,-0.08991417,0.98869646,-0.29618326,-0.30146754,-1.5019131,-1.1216233,-2.7575183,-0.090359665,-1.0466897,-0.6553784,1.4212396,-2.5831068,1.1437188,2.0605972,0.5870913,-0.061750982,1.2010845,0.537944,-2.2858264
CD79A,0.5153132,-1.5029142,-0.072810985,-1.4316101,1.6964117,-0.015927708,-0.7901742,-1.6965748,0.08676264,-0.28280416,0.53315103,0.08432979,-0.9127731,1.3954061,1.3239442,0.57575184,0.26240999,0.29592526,-1.4505231,0.025751889,-1.6138107,-2.7789497,2.2669933,1.8017662,1.1177677,0.22108911,-0.7639693,1.8663404,-1.258309,1.0743054,2.5658197,-0.49908555,-1.4880681,1.9028848,0.52811426,0.4008415,-0.51159364,-0.48527423,-1.5335784,0.21707971,-1.1948835,0.83937633,0.39441326,-0.7555672,-0.5145415,-0.5194227,2.0393157,-0.63966244,0.839104,-0.28662628,-0.99551034,-1.3068777,-0.20053592,2.1932065,0.8442591,-0.21542023,-1.349372,-0.39553967,0.59490055,-0.8631977,0.25990537,1.0983143,2.026458,0.34251472,-2.4826722,-0.81355804,0.006533623,-0.41883436,1.381808,-1.0544345,-0.8962215,-2.9246933,-0.10295812,-0.58955073,0.8594212,0.5113243,-0.24468374,-0.5756881,2.4239295,0.5882035,0.98193586,1.2992666,0.65720373,-1.1244669,0.161134,-0.7721081,-0.57471836,-2.162387,-0.4545487,1.8014498,0.6745836,0.06812293,-1.0839067,-0.4690969,1.3629694,-0.18611732,0.8485281,-1.8991797,1.0230354,-0.5255802,0.90771693,1.3578519,-0.22175482,-1.2310232,0.67374796,-1.2568263,2.1692595,0.24967897,-0.4220114,-1.0476948,-0.7874562,0.9606812,-1.8558646,0.5445341,-1.5469863,0.8537645,-0.24852489,0.010193741,-1.6329995,-0.39218736,-0.17411262,1.7385412,1.4402598,0.07428388,-0.94795704,0.5398346,1.0258222,-0.7603218,1.7630448,0.99133253,1.8362303,-0.08600997,-1.4370493,-0.8918541,0.042551283,-1.6458719,-0.19532987,-0.48009455,-1.6992186,2.0384574,0.34910882,0.030221622,0.5511968,-0.5438049,-0.08502112,0.1805827,0.6826819,0.06777726,-0.17437065,1.1485006,-0.31348655,2.212373,0.5743219,0.50694436,-0.375338,-0.04385645,0.7512852,-0.63577753,-0.3008464,-1.082253,1.2966061,-0.73052347,-0.55073464,-3.0340986,-1.6086527,-1.0027031,0.7479378,2.634304,2.0866652,0.32332152,0.3268755,-0.036918886,1.5275246,-1.8946791,0.96925056,0.48583528,-0.15708908,-0.25124252,0.87276727,-0.24995828,0.21461008,0.6287235,0.07320752,-2.0210187,0.70937896,1.3098184,1.2376946,0.6454994,1.1558938,-2.7908463,1.7494454,-0.24362001,-3.090577,0.14277682,0.13933887,0.44307393,0.7748829,-0.16897856,0.4100293,-0.5058678,-2.7377965,-0.080134936,-1.5827918,1.3206025,-0.8600996,-0.13026302,0.70454764,-0.24414445,-0.35322952,-0.19332054,0.30810982,-0.6279198,-3.4242904,-2.042512,0.1608742,-0.06839879,0.45561057,-0.5190478,-0.5713885,-0.2916335,-1.3709431,-1.6292781,1.0108184,-0.1693631,0.054290857,-0.70067644,1.9819014,0.5093964,0.6962223,-0.39606753,2.0900722,0.24279127,1.6255422,-0.5278358,1.5152763,-0.629154,0.5481584,0.44489828,0.63696426,1.0343239,-1.836134,-2.47094,0.31555542,1.5071537,-0.6983098,-0.8179148,2.9020224,-2.0755363,0.23112422,-2.6926906,0.9199993,-0.7359163,0.88908553,-1.0233954,0.055474356,0.3051711,-0.43229812,-1.0366384,-0.7386161,-0.8591961,0.5739918,1.9604894,0.32857603,-0.6366521,-1.208592,-3.110942,-0.97666115,-1.5371623,-0.25839904,1.2598743,-0.5222452,-0.3378732,0.5939154,-1.161995,-1.076885,1.0108783,-0.33690017,-0.43514806,-0.708124,-0.24822406,-0.80374306,-0.7597945,1.5874273,0.86812776,1.3315152,1.135867,0.2440298,1.186916,1.2838968,0.7465733,-0.37273952,-1.2729974,0.3400422,0.9154464,1.7987889,-0.40187168,0.5824658,1.0922308,-0.30307528,-0.12139622,-0.33791304,0.6835746,0.7528964,0.6417254,0.67927575,1.1144788,-0.08643156,-1.4876496,-0.47871286,0.7091113,-0.4966209,-1.7932506,-0.31054762,2.2928832,0.8244387,0.0956534,1.5590521,-0.1408844,-1.1107583,0.8907313,0.13476585,0.44933268,1.1084625,-1.3163044,0.220599,-0.14025679,0.62573165,0.7911792,-0.5222786,-0.48592016,0.83399844,-1.8582147,1.1687894,-1.3243246,-0.031133197,-1.1133971,-0.69640934,1.2055897,-1.2954123,-0.08674574,-0.8702708,0.18009534,-0.7727663,1.6937826,-1.7377113,-0.42199913,0.59742045,0.94018316,-1.0189317,-0.8775233,-0.54292434,2.1162686,2.8180065,1.0525424,0.53219515,-1.1318228,1.2072021,0.5684736,-0.44429857,-1.8919811,1.0395466,-1.4129786,-0.38598165,-0.079797305,-1.3627499,-0.48368144,-1.2092648,0.7713952,1.2305611,-1.3190243,1.8388487,-0.7789884,-0.7131005,-2.5206418,-0.46876067,-1.265552,0.92657346,-0.43267295,-0.17059392,-1.2694513,0.6603407,1.7006093,-1.6461577,-0.31793922,0.72834635,-0.14068896,0.43942696,-1.1724898,-0.9515097,0.44835407,1.2844715,1.358589,0.2283277,0.994862,0.5831959,-0.603872,0.06540647,-0.68764085,-0.37229103,-0.3106881,-0.6912706,-1.4473641,0.31046286,0.23691225,0.6828841,1.7881131,0.20898207,-0.5788813,-0.065237775,0.8970613,-0.48531207,0.5004506,0.36368608,0.8194003,-0.39859068,0.866578,0.5954574,-0.266347,2.1815712,1.4766082,0.42776626,-0.809104,1.0269514,-0.021615062,-0.14157441,1.3363633,0.19326095,0.42786086,1.4726688,1.3381878,-1.657544,0.42026484,-0.9814601,-0.8337647,-1.6125348,0.515721,0.18135323,-1.394915,1.3745619,-0.26282066,-1.0490625,0.015412308,0.63794786,0.50754774,0.26124412,0.4133739,1.0986161,-0.69919556,-0.38097337,-0.7978805,0.30620715,-1.208433,1.1401043,-0.15545763,0.00088704954,-0.8310574,-1.4759063,0.25249457,1.9170842,-1.0216782,-0.19056195,-0.13388357,-1.3134153,-1.5977494,-0.6435331,0.27984703,0.74451363,0.6694512,0.10095728,0.27587464,0.0844917,-0.9674351,-0.823266,-0.040624715,1.0747659,0.08623403,0.42045566,-0.3418481,0.39603946,1.1347928,0.103026725,-0.9725365,0.9328049,0.14538383,0.6235931,-1.7003646,0.5142097,1.1125469,0.2305129,-0.42118195,1.0870316,0.8105995,1.0303218,0.5245575,-0.5781719,-0.3642319,1.1703758,-0.83388895,-0.47864887,0.14599203,-0.20050596,-1.6355472,0.09309162,1.2485018,1.8819275,-0.8405921,0.07156778,0.9559025,0.89110297,-0.7280125,-0.038376775,-0.7427928
CDK1,0.06262897,0.8479942,-2.178201,-0.43440473,0.40405467,1.2818185,0.43509746,0.31792885,-0.056391504,0.12621169,2.225235,-0.14694043,-1.1421815,1.4597977,1.470767,1.1996148,-0.16319978,-0.8381902,0.18939611,-0.20373552,-0.17015548,0.26230493,0.93845177,-1.5088501,-0.11120489,0.3028205,-0.69898313,0.61567676,-2.3565133,-0.9754064,-1.2149376,0.24905041,0.6200562,-0.6902236,-1.4813824,0.43596905,-0.295991,-0.8117187,1.1088847,-1.5524318,1.9817575,1.5705808,-0.6227715,2.467227,0.90869766,-0.7315267,-0.1724036,-1.5572863,-0.6688403,-1.317765,-1.5780501,0.29695788,-0.41986957,0.6259202,0.9558226,1.5778118,0.97900754,2.7292988,0.79605025,0.1650582,0.15383841,-0.3279499,-0.09189415,0.71029806,-0.27667284,0.21569563,-1.9605774,-1.2900265,-0.15542279,-0.06529736,-0.90647805,-0.4748788,0.47740188,-1.5181916,-1.1388142,0.66870785,2.4571886,0.8144773,0.32112986,-1.5602044,0.58143836,-0.33120617,-0.8824913,-0.71066487,1.9642106,-0.25925058,-0.3773511,-1.260111,-0.4064286,0.4782028,0.645444,3.744773,0.19649729,-0.5213406,-0.58816063,-1.3444405,-0.25911063,0.99221224,1.7724408,-1.296583,-0.0787126,0.9496991,-2.239444,0.9294546,1.524495,-0.48241308,-0.83845156,0.7431666,-0.07499081,0.45175228,-0.0070534665,0.5120049,-1.2341138,1.8158289,-0.6321576,1.5978845,1.2045475,0.5191617,0.0908684,-0.5687809,0.5952202,0.9252566,-1.0360526,0.80401045,-1.2513657,-0.33661866,-0.61532825,-1.2682333,0.7446206,1.1484846,-0.9360383,-1.5710342,0.23038086,-1.5821818,0.8215347,-0.09211513,1.2487739,-0.59909034,-0.97388035,-1.0067745,-1.1406369,0.4067745,-0.0061532846,-0.5390219,-0.39284694,-0.54844075,0.09701935,1.0688106,-0.3728446,1.4354179,-0.2819174,1.0007174,-0.19760177,0.010983375,-0.30556768,0.80156446,-0.27243975,0.930193,0.4375694,0.4590061,-0.6213521,-0.74155885,-0.6551111,-1.4876032,0.30904675,-0.3161413,-2.078122,-0.4348744,2.6315098,0.38508725,1.2442898,-1.2255094,1.9425024,1.6317858,-0.37312043,-1.9623115,1.6174026,1.2119951,0.030875584,-0.031671677,0.5504548,-0.851642,0.26958787,-1.0755277,0.22193982,-1.4568518,1.099388,-0.31964144,-0.04828597,0.9662646,1.4750737,-1.5373017,-0.027489465,-0.7188066,-0.6153128,0.5337476,0.41719443,-1.3701642,-1.2796642,-1.2348794,1.4337256,0.84026444,0.025096448,0.73617697,-1.0558411,0.82308775,-0.3304749,0.8667099,-0.9836161,0.76704615,1.1805936,1.6460862,-0.085206255,0.43690294,-1.4140676,0.47798902,-0.27538604,-0.94565576,0.08184786,2.2173727,1.1875764,3.421657,-0.014945976,1.0419083,-1.9846411,0.57206357,1.3097024,0.21403323,1.0515172,0.9607216,0.35782206,1.4988761,0.307666,0.3900479,-0.7822864,0.45504305,-0.8199424,-1.3950303,1.7669085,0.5379222,-1.2271278,-0.6966765,1.69916,-0.81412065,-0.5042283,-0.48068157,0.62934494,-2.1133313,1.5481707,-1.3323401,-0.12084661,1.2181418,-2.3222308,-2.7653766,-0.20667347,0.17617962,-0.86842287,-0.035283223,1.1797062,-1.5413154,-0.68677944,1.6393572,-0.7417873,0.39148507,0.044718396,0.27784508,0.024311641,-1.4939815,-0.22044908,1.0538782,-0.42645842,-0.65502065,1.0400926,0.3868282,-0.48494846,-0.5036265,-2.0014431,-1.6589335,-0.18787593,1.2242756,-0.10237695,0.95956004,2.1508982,-0.16606781,1.3934028,0.26927304,-1.1913905,1.1651437,0.32883748,1.1642985,0.944061,-1.8446411,0.10929941,2.8339245,-0.91615444,0.4798958,-1.0957179,-0.71625924,0.012329927,0.5419392,-1.9557288,-0.7912789,0.25111264,-1.3122985,-1.7011493,-1.6339896,0.37567443,-0.773727,2.0916152,2.3353055,0.6384545,0.049973723,-0.1368476,0.6905416,0.83105665,0.659095,0.5780098,0.5691361,-2.1163075,0.23977886,-0.786155,-0.37487307,1.3347896,-0.96805567,-0.22073619,1.4162815,-1.2568272,-0.47061887,-1.0081782,-2.7994654,1.0720499,0.0062776906,2.02485,-1.3398488,-0.43971643,0.2550595,-1.0043073,2.0921946,0.9748913,0.07721546,0.34733126,-0.1946634,1.8983057,0.7060902,1.2688198,0.7440669,-0.5181183,-0.0039104633,-1.5088115,-1.1916527,0.24627413,-0.7752715,-2.0975463,0.8224682,-1.4263864,0.78892547,-1.2305505,0.8498695,-0.9408894,-0.6546375,-0.60481495,1.5563719,1.2741066,-1.6710339,-0.33970803,-1.7896937,-0.6096145,-1.3811764,0.48419276,-0.39334923,-1.390598,0.94882077,1.1258231,-1.4352374,0.63224655,0.1618964,-0.4263827,-0.2681172,0.87543267,-0.6775513,0.78479064,1.2073252,0.99301654,1.8005766,-1.9890418,0.30144045,-1.5494902,-1.3054426,-1.2408198,0.1088375,-0.40203598,-0.5357343,2.0756462,-1.1361592,-2.7528377,-1.0789313,0.5700677,-0.9609344,-0.491297,1.5785336,0.9695451,0.520776,-1.6055958,-0.29276073,-0.3009266,1.926193,-1.3783673,-0.783665,1.5064708,-0.43110237,-2.1087968,1.4086628,-1.253495,0.6433397,-0.66246444,2.0584064,0.33523864,-0.7973481,1.884248,0.9006364,1.1691669,2.3562498,0.8295527,0.6502091,-0.09771751,0.62905985,-1.4081379,-0.7236321,-0.6378448,0.68677515,0.34271172,-1.1135833,1.6828653,-0.86548793,0.1283932,0.3504656,-0.025878815,-1.1652769,0.16796094,0.20361695,0.20118782,-0.67924416,-1.7880859,0.8639125,-0.3103927,0.06306465,-0.65848184,-0.036073755,1.210498,0.82810175,0.52039003,-0.0619649,-0.02920331,0.44475248,-0.1772044,0.32144487,-0.748454,-0.59021467,0.14678726,0.60403204,0.46449623,0.27204213,-1.2077185,-1.4407007,1.1528959,-0.56265926,-0.18533053,-1.3717573,-1.2358816,0.76725054,0.7829232,0.50621873,-0.0478574,0.052617773,-2.881874,-0.6954609,0.520018,0.49136218,0.5066662,1.1519119,0.8904467,-0.3143774,0.5209906,-1.7369257,-0.83403033,-0.5306255,-0.28350762,-1.2798944,-0.017999182,1.3426766,2.1217787,-1.6234977,1.2655718,0.97708017,-0.9730999,1.660813,-0.86210746,-0.058345135,0.19259776,-1.5573169,1.0826955,-0.2848095,-0.36973092,-0.70636,1.2468039,1.3244177,-1.1877983,0.31548467,-0.7029452,0.95409274,0.07852056,-1.2752467
CNN1,-0.63216305,0.41557258,0.6599329,0.39322674,0.7797182,0.19216378,-1.0171175,0.022615222,0.4932037,-0.7630131,2.095711,0.82117206,-0.45744285,-0.2670224,0.016262563,-0.14560981,-0.13076223,-1.9422565,0.70162505,0.46558318,-1.2853141,3.0236108,-0.22194102,-1.9296478,0.5558063,-0.051997554,-0.3034365,-0.19574751,-1.7985715,-0.5517208,-1.1505777,0.7973955,-0.3315453,-0.52200824,-1.2559099,0.115710326,-0.6515888,-0.418107,-0.33521706,1.5406883,0.2739412,0.05848431,0.15936524,-0.515328,0.5348363,0.49147752,-1.4348624,0.11351404,-0.088380925,1.314594,0.6410834,1.0078121,-0.6914641,-1.5410866,0.6919561,2.5279555,0.28713736,1.5285825,-0.31270403,0.26646727,2.8504221,0.31707898,1.5062836,-1.7473071,1.3402872,-1.0965862,-0.398347,0.9811749,1.5297614,1.3930861,-0.3375691,0.87895554,1.4532981,2.2898264,-0.63089883,0.103852235,0.35374367,0.3775318,-0.37788817,0.86679316,1.2375053,-0.34731546,-0.24327028,0.43341872,-1.1066136,-0.20950916,-1.944309,-2.088759,0.41118982,0.11600269,-0.08510652,-3.2438872,0.4215489,-1.6871488,0.30139095,0.051426485,0.33106142,0.18692005,-1.0513171,-0.67321515,0.29387152,-1.2988752,-1.8338007,-0.25627354,-0.46490452,1.6269695,-0.33571973,-0.8360406,0.22444661,-1.2090133,0.021285102,0.935693,1.0919065,-1.6567268,-0.9761989,-0.8000799,0.2724812,0.17008302,1.4949524,0.13053441,0.86029613,-1.077639,-0.27183983,1.0095707,-1.65211,0.23815852,0.8432534,0.0048668357,-1.1088197,0.9889841,-1.0868162,0.14137152,1.8317826,0.38256475,2.174112,-0.3310535,-0.43128395,0.4809166,-0.06514789,0.7414354,1.5420635,1.6178428,-1.1623613,1.9613177,0.23337653,-1.7874874,-0.89834136,-1.1516999,1.569175,-0.08405765,-0.280981,-0.9448926,0.1477639,1.1156868,-0.43985885,0.20680057,0.6529496,-1.1844432,0.6780621,0.17773685,-0.71390486,1.5684025,0.63291335,-1.2784698,0.33223745,0.4826532,-0.57010734,-0.28108078,-2.9619915,-0.45302474,-1.2680947,0.95557123,-2.7861857,-0.38939995,0.16284725,-1.5258498,0.36779088,-0.5088827,-0.16243406,-0.7092939,-1.5702728,-1.5731645,-0.09925186,0.45913422,0.1835772,-1.2233293,-1.8784245,-0.91515094,-0.8214254,0.4835655,0.31534448,-1.8986987,-0.73309493,0.028076343,0.38336173,1.7262808,0.82752544,-2.6227717,0.18881881,0.012683572,-0.07040354,-1.8017647,-0.09990701,0.17835012,0.1196569,1.6704539,-0.7592127,-0.45811608,0.07390073,1.0632867,-0.6772457,-0.6528699,1.1328413,0.085805945,0.12361033,-1.4913284,0.7655156,-0.22659741,-1.3579572,0.19712351,-0.7495922,-0.98339814,1.0005481,1.3481327,-0.76976997,1.122333,-1.7802464,0.26565653,-1.6480778,0.7011608,1.0899146,-1.948402,-0.23197916,1.236203,-2.9287796,-0.6487062,1.1019058,0.6670737,-2.4868526,0.3412667,0.21167697,0.18267882,-0.64118576,0.13140756,1.0821617,0.12245515,-0.14905488,-0.7540097,1.0340097,1.5833584,0.7454323,-0.22379746,-1.5390989,-1.5258446,1.1084582,1.8562453,0.27972287,-0.036138326,-0.32771307,-1.8721344,0.38001746,-0.43233502,-0.4600417,1.1704257,1.6899012,2.585126,-0.33957902,0.55728555,2.0532498,-1.5239663,1.6282094,-0.16003254,-0.8808963,0.092057414,0.66288567,-0.12462517,1.6956384,-0.6292236,1.0777369,1.8108209,-0.54404217,-0.45330688,-0.54346234,-0.5056038,-0.05791723,1.2110546,1.3725537,-0.1870239,0.7489449,1.6208005,-1.0323759,-0.044464257,-0.142605,0.50862485,0.3487489,0.14876468,-1.7729422,-1.2730777,0.070763946,0.21081603,0.4294584,-1.0580103,-1.0683776,1.3245101,-1.2705872,-0.7940095,-1.6715598,1.4655868,-0.19662295,-0.4749773,0.06209592,0.2750698,0.80579984,-0.78166217,-0.29839087,1.7822759,-1.5929052,0.9848448,0.931436,0.6428251,2.833293,-1.6532891,1.8580791,0.6150254,-0.031937603,0.4699194,1.939836,-0.66949344,-0.7617521,-0.2722984,-0.5464288,-1.2644734,-0.71343374,-1.1320517,1.8968414,1.4896982,0.084873244,-1.6255038,0.46564338,-0.18604973,-0.15785474,-0.80276495,0.9065057,-0.60227096,1.3753004,-0.34830037,-0.6081054,0.117188826,1.2705035,-1.1120156,0.5615419,0.261583,0.08413307,1.3010153,-1.7682041,0.9021175,0.30016926,0.9614578,-0.7255629,-0.047435097,0.4097462,-0.9968258,-0.9548095,-1.4238768,-1.7025046,0.20315574,-0.30398142,-1.0569986,1.1602205,1.1687773,1.4824907,-0.5432734,-0.20147035,0.6195373,0.772418,1.820908,1.2611376,-0.14899999,-1.5719892,0.65138346,0.014757439,-1.4283242,-0.78836155,0.7779339,0.49149635,0.7371045,0.025412666,-0.31612024,1.3351009,-0.104916014,0.24597442,0.087760374,0.042838234,1.0863588,1.8643582,0.6908223,1.5067244,-1.7802582,-0.9857243,1.2042664,0.2642654,0.7422649,-1.6685599,-0.83081996,-1.4312874,-1.2291423,-1.3182228,0.44699574,2.8974307,-1.0149556,0.6864711,-0.7986278,-1.0351971,-0.099887274,-0.71712005,-2.143203,2.3512468,-0.8062319,-0.059329133,2.8414214,1.2410308,2.758276,0.7785801,-0.74871916,-1.3365359,0.8865276,0.7896258,-1.5006665,-1.5750152,1.3155358,0.05181373,-0.9357375,-0.5311648,0.85437053,-1.6260238,-0.27811232,-1.964105,1.3799008,1.1833448,1.3489798,-0.45060533,-0.18318799,-2.52887,-0.6593336,-0.88199985,-1.2987156,0.3439241,0.31753716,1.4326552,-0.30617568,-0.72452223,0.7225229,-0.54982567,0.11265233,0.8553733,-0.8213737,-0.13633236,0.5515594,0.5727283,1.8093994,0.7121959,-0.3038056,-1.2140293,-0.66511756,-0.28886038,-0.23012722,1.7343707,-0.35010862,0.5512957,1.2883562,0.7379379,0.80184394,-0.18792355,-0.2884091,-0.8210335,0.057090472,1.6698455,-0.583815,0.8582542,-1.4769528,0.026090475,0.6962804,0.8458995,2.3374422,-0.17591229,0.27589044,-1.1871886,-1.8144611,0.28319126,-0.5887423,0.46380845,1.6645428,0.01131783,0.096602954,-0.38750765,0.91530913,-1.3609377,-0.9300422,0.7293261,0.4402916,-0.5319936,-0.49052182,-1.227412,0.7500719,-2.2883587,0.13049234,1.6661144,-1.3424678,-1.339818,0.3262482,0.76311725,-0.7646118
COL5A2,0.7788,-1.3865477,-0.26109123,1.0340086,-0.82772493,1.582895,0.8766305,-0.5927255,-0.12940425,-2.040641,-1.082157,0.99397445,-0.7444728,2.2300618,-0.56005156,0.3171642,-1.4920787,0.09573289,-0.4627745,-0.4258971,0.3235043,-0.60025245,-2.3046143,0.25352785,-0.9451323,1.4361603,-1.516854,0.56952566,-0.22113736,1.5771991,1.2469748,0.45103806,-0.33275852,-1.0143017,-1.3055921,1.1326684,-1.5183297,-0.7037674,0.5434444,-0.04087674,1.6311547,0.82593864,1.0002027,0.97121143,0.42984855,-0.68434024,-0.86025596,0.9760013,-0.828232,-1.1261735,1.3439574,0.36860654,1.1170232,0.3939758,1.6566067,-1.2817442,-1.8367392,0.6653113,-0.48926935,0.5009003,0.40545642,-2.1619737,-2.443849,1.2873582,0.3710197,-0.008438715,-1.7941041,-0.3178774,-1.084354,-1.6994323,2.0407653,0.22592242,-1.3199147,-0.17482415,0.8924846,0.14743412,-0.0053341603,0.06523372,1.310327,0.73767257,-1.3437757,-0.45725003,-0.08810767,1.1971936,1.5327463,0.91956145,0.031650156,-1.077795,0.49779975,0.5979544,-1.0464598,0.8511588,1.5226848,2.0295532,-0.45960084,-0.4547123,-0.20046496,-1.3424187,0.9713177,0.5120469,2.0528615,-0.9233106,0.05137744,1.7035204,-0.55597115,-1.4739203,0.65965044,0.39658976,1.0582061,0.7394546,0.016446378,1.9934753,-0.694677,0.032281082,0.7131535,0.5354802,-0.8248011,0.08257058,-1.4169352,-1.55532,-0.70392764,-0.46117094,-0.110942274,0.3468297,-0.3684142,-1.6792964,-1.6691555,0.43073618,0.5588233,1.7996945,-0.6397704,-0.18785001,1.1332747,-0.4881796,0.5687431,1.4970833,-0.75044894,0.73029304,0.74344355,-3.2046916,1.643182,0.30478668,0.387056,-1.161779,-0.5864159,0.691852,-1.0861552,1.1414285,0.7007799,0.16102251,0.63211447,0.45558032,-0.6999566,-1.0036033,1.7085934,-0.44594467,0.19563748,-0.9721489,1.1856644,-1.0555186,-0.3788509,0.43821582,-0.4590211,1.9907182,-0.87830454,0.15148652,-1.472234,-0.9135931,-2.7649508,-0.56056434,0.65582955,0.53433913,-0.2752787,-0.36988524,-2.2970815,-1.2981467,0.57581466,0.5750033,0.06879973,-0.13428026,-0.14895344,0.55171305,-0.45400974,0.4351179,0.33683905,-0.9304103,-0.9272386,-0.26997498,2.9585905,-1.0488062,0.41019347,1.0666982,-0.05263719,0.58076096,-0.03204385,1.4028833,-1.2947664,-0.013525147,1.0290483,-1.3644435,-0.14407484,-0.44547024,-0.24046724,-0.83456707,-0.42485964,1.8177983,0.3226976,-0.7229654,-0.7722998,1.2865949,0.19053274,-0.42818448,-1.5890309,1.9238682,1.4394778,-0.007053764,-1.2776417,-0.0029421328,-0.9985609,2.3251922,0.7432171,-1.4651589,-0.331185,-0.28660858,-0.92200625,-0.6729549,-2.0913203,0.08921473,0.026576316,-1.166317,0.4604393,-0.0366759,0.33837733,0.5568245,0.1714437,-1.6080447,0.66132927,-0.42323405,1.3311201,-0.46178684,0.19404742,1.4400449,0.17732805,2.1025155,-2.4762137,0.69612736,-0.4350441,1.1227262,-0.25324178,-2.142167,-0.6640745,-1.9852428,-1.1779218,-1.7763621,0.37094393,0.21132554,1.175016,-1.0049272,0.64008623,-0.4303786,2.470605,-0.15797043,-0.66014075,-1.5471015,-0.056241695,2.29465,0.51267874,-0.3460836,-1.0931294,0.36054084,1.9209731,1.7374338,-0.99927044,1.5435954,0.100652836,0.05805535,0.54007494,-1.5916007,-0.35492295,0.024568072,0.36972454,0.41209835,0.77493924,0.1553429,0.2843242,-0.17674704,-0.49613008,-2.3742177,-0.5025485,-0.041913893,-0.6170366,-0.31538096,0.049479548,-0.19143233,-0.57047164,-0.14387906,-1.0480069,-0.4194955,0.9277513,-0.38343978,0.8905098,-0.4840308,1.4424877,-1.6066905,2.1765766,0.39588603,-0.44495097,1.703516,-0.7383288,1.2774619,-0.35394257,-5.2724757,1.7244554,1.151261,1.0334196,-0.5185626,0.41299817,0.015587232,-4.188916e-05,0.3344452,0.45051038,-0.03160144,-1.4971137,-0.19987926,-0.36707428,-1.2264242,1.3924334,-0.73966074,1.1332238,-1.1356425,0.67727447,-1.8943771,0.77658373,-0.66027373,0.8904677,-1.8842185,1.0756834,0.96789896,0.98935205,-0.29774272,-0.97470444,-0.9259646,-0.7901582,-1.4663308,-0.577307,0.107107185,0.12590449,-0.2926801,-0.41598687,-0.23993225,-0.7795628,-0.2754319,-0.3968847,-0.96518755,-1.991024,0.18578416,-0.28228948,0.15806161,-0.68628514,-2.3937724,-0.417372,1.5070876,0.095026806,1.3054148,-1.8236015,-0.28989428,-2.1526294,-0.35668573,1.2266641,-0.040912904,-1.2730266,-1.7725712,0.8190652,1.8265667,-0.9817866,-0.40831017,-0.5409332,0.026604006,0.10529783,0.9931989,0.6494481,-0.21330817,-0.51620394,0.58467925,1.1229358,-0.49836734,-0.9697425,1.0388489,2.5901587,1.2643875,-1.6697685,1.5705221,0.11473439,-2.276185,-0.4085604,-1.3978109,-0.26877502,-0.26649538,0.4707715,0.14773245,0.32371777,-1.0617684,0.14610004,0.16885284,0.38991567,-0.36870128,-0.9245997,1.1148401,2.3425226,0.59603626,-0.49619433,2.5152335,0.36852545,0.2708614,-1.7407346,1.0544689,0.61318886,-0.34729028,-0.17829238,2.3775067,1.8658065,1.0843252,0.56417596,0.57829773,1.0782367,2.1455884,0.9729007,0.15082929,1.3627834,1.0432968,1.4117568,0.03202234,-0.090189405,0.7661006,-2.3312247,0.37328362,0.14122918,-1.5245246,-0.88547826,-0.40296373,2.9456072,1.4123259,1.748589,-1.3156642,0.46093577,0.56764805,-1.3308471,-1.9982922,0.809209,-1.6176847,-0.88105386,-0.1980247,0.3245874,-0.95259136,0.016796457,-0.42705286,0.92174053,-0.5876759,1.3432323,0.6033179,0.7395057,-0.012444467,1.3979104,0.30331382,1.2249733,-1.0246923,-1.0856792,-0.7160807,1.7121906,0.14419046,1.7377633,1.652551,0.8915106,0.72797173,-1.204218,-0.23697941,-1.2023627,-0.34731695,0.95587593,-0.37867495,-2.6799748,0.51318705,1.0331341,1.1185685,-1.4152656,0.62351906,-0.5811911,-0.86707175,0.83428174,0.5547449,1.225302,1.4089035,-0.15275417,0.8096421,-0.30828813,-0.27666506,-0.23885052,0.20375632,0.3459249,1.3503402,0.41672182,-0.19675282,-0.40583754,-0.066797815,-0.05817537,-0.77475625,-0.9304293,-0.4987745,-0.4074933,1.8193568,-0.41502097,0.81980836
CTSG,-0.03479354,-0.55541897,-0.4346928,-1.3018488,-0.42596966,0.9884818,0.39657372,-1.6832341,-0.044440836,-2.6863003,-0.65882117,-1.7731977,1.0250833,1.3850613,-1.189537,-0.6540949,-0.021202207,-1.9338543,-1.3054255,-1.6326301,0.633114,-0.6037099,-0.3613328,0.037615065,-0.9170875,-0.4336842,-0.21143006,-1.3025429,1.073687,0.5750071,0.9263885,-1.0516484,0.57306474,0.9580344,0.36247116,-0.52598864,0.8143702,-0.09617003,-1.8661782,1.5529578,0.44555873,-0.48314032,0.1397426,1.010925,-1.0444365,-0.069089755,-0.48585308,-1.1497941,0.4363774,0.4875425,-1.240083,1.1473286,-0.48494154,1.716781,1.243081,1.4736142,-2.8460546,-0.9689906,1.7927223,-1.271135,-0.91002995,-1.4314063,1.8867892,0.5005623,-1.7677224,-0.49204236,-0.51763624,-0.42263955,-0.54823285,1.305164,0.19882682,-1.668822,0.2545643,-0.8955714,0.78326195,0.025541883,0.4478718,-0.39650574,1.574827,-1.1865884,-1.3396312,1.2052093,-1.3720642,0.31538823,-0.69776493,0.36355674,-0.3131764,-1.0537724,1.2495464,-0.742495,0.41646823,3.0149102,1.2008842,2.5489075,-0.213789,-0.7704426,0.28684023,-1.1244253,-0.8406572,0.8710111,1.1150365,-0.89850426,-0.54555184,1.4502004,1.4272531,-2.4090102,0.9551284,1.1925994,-0.83018976,-0.11683063,0.092100635,-0.66758615,0.3439051,0.76903933,-0.94246316,-0.755197,-0.6902154,0.73195946,-0.7371378,-1.5319763,-0.6801078,0.6151549,-0.13841385,-0.8093346,0.73584193,0.5344754,0.097592406,0.95157236,1.7559214,-0.7939445,-1.4400469,-1.3781438,0.69239694,1.0132648,-1.2506202,0.5581042,-0.8114974,-0.26822433,0.9278648,0.4799396,-1.2146242,0.19958198,0.1334192,-1.2401179,1.016946,0.16139191,-0.6606726,-1.114066,0.26831272,0.2557229,-1.9581198,1.41722,-1.9061902,0.11188132,0.0102728475,-1.8113031,-0.41271874,-1.4869789,-0.027530277,0.52124405,-0.74300927,-1.1147939,-0.46424752,1.7153014,-2.0069268,-2.1405141,0.26723894,-1.2345842,0.8446673,-0.5007271,0.031244598,0.9300306,-2.015816,-1.6514168,0.63267773,-1.1006472,1.928623,0.36260962,1.3818326,0.44763875,-0.44197917,0.11907859,1.0118204,-1.7135695,-0.61139804,0.914906,0.7518279,-0.721733,-1.3254262,0.23402742,-1.3515465,-0.7453383,0.037057348,0.4981481,-0.3347728,-0.12417702,0.05218624,-0.028020017,-0.39251003,1.2830693,-0.099103145,-0.75028926,0.53288364,0.6024714,-0.29158726,-0.17435472,-0.041849032,0.044294853,-0.27268052,0.75084203,-0.23300296,2.7266855,-0.45034996,-0.75281864,0.08132492,-0.7419282,-0.8803236,-0.32381865,-0.10996388,1.2437022,0.04621665,-0.3262345,1.470436,1.5245084,1.2142861,-2.4185805,-0.24250285,0.41312143,-0.48122478,0.8888702,0.6444971,0.2054042,1.2127979,0.12559754,-1.9698423,0.62713706,-0.18181446,2.0079417,1.593002,0.9538817,-0.68779135,1.9337565,-0.39950475,3.716091,-3.1042316,-0.94239783,0.9231713,-0.5780381,-1.8107786,0.13525158,-0.075765096,0.5764895,1.8321158,-0.39621225,0.9714926,-0.2969194,-1.7430164,0.4784894,0.51562184,0.21521708,1.3758659,-0.43011326,-1.0563846,0.4523198,-1.4142666,0.07223482,0.052789986,0.8283229,0.43432385,2.5347347,0.24275656,1.2423528,-0.46503046,-0.94986266,1.2689147,-0.41144204,0.31668454,-0.1502795,-0.8293644,0.36631632,0.053967696,1.0480157,-1.0361878,0.35357222,1.3408548,-0.27051345,-0.8130413,-1.7358888,1.6197499,1.6357781,1.0449536,1.1262807,1.7271395,2.2461534,1.0958468,-0.34800103,-0.30426195,-0.5845426,0.5762249,1.053345,0.54101944,-1.0197695,0.35593644,-1.0442957,0.81998855,-1.4609754,-0.108189784,2.6521304,0.98251975,-1.4611493,1.211296,-0.21334097,1.0070618,1.0882112,1.2580029,-1.3175412,-1.6544021,0.63850325,0.9017107,1.2969415,-1.1888961,0.8737718,1.9779823,-0.052056108,0.49837956,-1.261084,0.20140876,-0.24245328,1.2425585,-1.3258286,0.40383488,-0.4501096,-1.4803083,-1.0416652,0.09138425,-1.258629,0.39900556,-1.1062759,0.66847605,-0.8763915,-0.2577674,0.29559842,0.8805706,1.2001852,0.93842846,0.6918212,0.03949583,1.2585261,-1.3777119,1.028861,0.92437243,-0.60445434,-0.3510111,-0.16355604,1.8634853,0.091443546,-0.4676803,-0.3637225,0.79911214,-0.3725152,-0.07466204,0.5536996,0.753175,-0.34252873,0.5889749,2.7379289,-0.8592826,-1.1412368,-0.011642591,0.764139,1.0797169,0.26202688,-0.41252482,0.8978656,1.7683153,1.0360907,0.47211203,-1.2806686,0.15625297,-0.6157231,-0.7393194,0.3318229,1.0659993,-0.56735355,-0.7656662,-1.737155,0.23292963,1.2469976,0.95635486,0.6623747,-1.754989,0.55386883,-0.38851458,0.64000833,0.6659713,0.41892758,1.6138068,-1.1209719,1.3635305,1.273417,-0.09232336,-0.98183644,-1.9987935,1.2893684,-1.814241,-1.3050919,-1.1114719,-0.40707603,-0.07594937,-0.7204342,-1.5758137,0.36901438,-1.0163804,0.52635145,2.1486845,1.3333563,-0.783104,-1.7293533,-0.27762014,0.68758905,0.5915805,0.55378956,-1.6299541,0.30057153,0.1794844,0.20585266,-0.43909028,-0.49307016,-0.21537393,-1.2100571,-1.2231463,-1.7591316,0.22838399,-0.307201,-0.21152343,1.4859432,0.25795463,2.9666305,0.5165151,0.0972831,1.080429,-0.7884853,-0.59134644,-0.037519235,0.6896765,-0.0062013045,-2.0950336,-1.2429303,-2.1941268,-2.1579816,-1.7017276,1.0024539,0.38495734,-0.1853188,-0.79533607,-1.4275166,1.1251049,0.9719631,-1.3123192,-0.23761359,0.83840185,1.1307503,1.6239709,0.42260265,-0.55780965,-0.6265945,-1.5540161,1.3247896,1.487371,0.27518845,0.20461248,1.2559928,0.13886385,0.30466327,1.9162937,-0.21197627,-0.19076778,1.683965,-0.8656782,0.57127637,-1.2713025,-1.182222,0.29676667,-0.055537567,0.2093077,-0.8202894,1.3088953,0.52591324,0.9364212,-0.8096096,0.08040864,0.073640816,0.41100374,-0.33792248,-0.71669364,-0.7921083,-1.0041434,1.7077135,-0.88335574,2.5991793,1.1979783,-0.46232262,-1.8596023,0.0037089637,-1.6650206,-0.2433712,-0.76234365,1.0119467,-1.466906,1.1326487,2.5041726,1.5845432
CTSK,0.5707692,-0.5514496,-1.6362183,0.95853007,0.9332742,3.288221,-0.73292315,-0.49072066,-0.15883626,-0.8066573,0.6414665,-1.8836564,0.81785977,0.051385507,0.39159733,0.11106232,-2.3331177,0.94808024,0.2434297,-0.4886204,-1.036134,1.5575608,1.5195882,-1.2648891,0.59689784,-1.3229651,0.17405081,0.042176154,1.0196741,2.0113351,-2.950556,-0.7690244,-0.47784922,-1.7060691,2.0144393,1.040026,-1.2731893,-0.1808202,-1.6934823,0.975491,1.1174347,1.2183677,-0.37057292,-0.793606,0.019058263,0.30898756,-1.2881732,0.05089807,0.09960648,-0.7535075,-0.30559814,0.8079296,0.974236,0.2758505,1.6557916,0.016226038,-2.341267,0.7210743,-1.2339977,-0.55173635,-0.35455945,-0.96649814,-0.665896,0.9477266,-0.6124517,1.4813309,-1.2608101,1.589809,-0.2923703,0.8082226,1.7076952,-0.98968655,-0.6037753,1.3026445,-2.1531186,0.5625966,-1.1387123,-0.81063735,1.1723886,1.35751,-0.636998,0.86483586,-0.47725287,-1.476008,-1.0920744,0.8900716,0.46840104,-0.5701496,-1.0051703,0.47430846,-1.8649583,1.0064033,-1.914598,1.3783298,-0.2095357,-0.7853309,0.4978319,0.2596957,0.21557319,0.028139055,1.2163165,-0.93993825,-1.6243258,1.5099847,-0.9598608,-0.41372907,2.2653809,-1.7230327,-0.89228106,0.7283601,-1.3035249,1.6463596,0.67384595,1.5468997,1.362505,0.42204514,1.003437,0.15658818,-0.9149209,-0.3088282,-1.9931926,0.55668044,-1.3274615,0.44526646,-0.06918506,0.52351165,-0.29003888,-0.62267727,0.5269604,-1.2853425,-0.19062586,0.30186948,-0.2584535,0.6036445,0.58199275,1.513193,-0.23518859,-0.8630474,-0.8960922,0.64369285,-1.4110689,0.34587252,-2.6205363,-0.072438605,-0.38420397,1.4197317,-0.54595816,0.6146833,-0.30971593,0.6732362,-1.8602364,-0.7533409,-1.0144206,0.8249361,-0.7627076,0.010900469,0.14573443,0.5797401,1.1491507,0.41884887,-1.8619143,0.9152143,1.3338165,1.3072041,-1.0220922,0.5197849,-0.41632652,0.5108922,-1.6455454,-0.15041825,-0.5693363,-0.6896955,1.0870327,-1.434941,-1.6783475,-2.061154,0.45689872,-1.8569129,0.7618987,1.0552633,-1.4740884,0.5952018,-0.9965212,-1.5841306,1.0217862,-1.2364471,0.25299367,-0.44784686,2.2236369,-0.6849274,-0.012762558,0.30431437,-1.2466574,1.1490737,-0.619544,0.25138953,-1.2317111,-1.2386434,0.216635,0.4264445,-0.9179578,-0.057864834,-0.70895594,-0.80879956,-2.460034,1.2754928,1.0101795,0.5356005,-1.096927,2.6866207,-1.3871317,-0.51291364,-0.10138494,-0.66882294,-0.39740038,1.0969714,-0.93795806,-0.84688747,-1.1747655,1.0833614,1.4450788,0.97507906,1.4973062,-1.0853157,1.2816956,-0.08608861,-0.031614523,-0.16587561,-1.2944486,1.4448017,0.8413175,-1.3035105,-0.23527695,-0.11683958,0.18174687,-0.6395436,-0.42636946,0.0149086695,1.7723312,1.0104494,-1.0605599,2.4773636,-1.1399397,-0.88855565,-0.5791472,-0.371894,-0.7618531,0.7065403,0.5060513,-1.6178066,-0.29442677,-0.86075115,0.5523206,-0.7075886,1.6034613,-0.17680357,-1.4617003,0.79619205,1.3688945,0.105007686,1.0887452,-0.052864537,-1.5717444,-0.5010982,0.6190747,1.5247259,-1.0168672,1.9864308,0.20700708,-1.2311832,-0.041362133,0.30678087,0.3849448,-1.5058675,1.2013142,1.0488517,-0.89090466,1.6614665,1.7617215,-0.48898476,-0.37350428,0.3700377,1.3576703,-1.2077323,0.042314198,-0.23435609,0.68258506,-0.20743982,-0.057025805,2.5783293,-0.23382078,0.7080243,0.14835949,2.8254418,2.368643,0.90080726,0.99285275,-1.0828784,0.6455948,-1.4354297,-0.7156726,0.6298942,-1.1078681,-1.668342,1.2612064,3.8478158,-1.7351084,1.0934677,-1.4137735,-1.482499,-1.0279013,0.22912219,0.07246944,1.6126858,-0.32081422,0.003715756,0.077854246,-0.68558526,-0.088622436,-1.4686499,-0.46611473,-1.04198,-0.4809624,0.35568392,-0.55163854,-1.0625181,0.31532824,-0.6555388,1.086915,-0.42054114,1.3895979,1.0277311,0.096477635,0.12113348,0.23991394,0.50795656,1.986055,0.2941908,-0.70895344,0.52036923,0.7796594,-0.2689966,-2.0207145,1.2628103,1.8033316,0.7252462,-0.92661214,0.07061256,0.27224374,-0.08951815,0.17800736,1.2046951,2.0863533,0.4257801,0.22809206,0.22361231,1.3833477,1.1384255,-0.7898708,1.3234056,0.16589428,-1.1264794,0.0072063715,0.61644095,0.09658189,-1.3923725,0.20662974,-0.5853052,0.2890018,0.07485117,0.3367116,1.5394793,1.1812832,0.0073043196,0.7914885,0.66857004,2.0202053,0.8157312,0.6195799,-0.8496229,0.7276106,-1.112005,-0.818618,0.49977806,0.80473834,0.20311962,0.45939237,-0.14777507,-0.5239633,0.536533,-0.46161026,1.5373489,0.7088142,-0.97198415,2.2674017,-0.9376017,1.3135571,-0.26961535,-1.5036026,0.6686684,-0.072752684,-1.0020361,0.7778967,0.9434441,0.85621953,-1.0456439,0.23944962,0.62059075,0.45877996,-0.32566953,0.3371429,0.5427365,-0.06488475,1.770582,-0.7520662,1.0490414,-0.11580213,0.5843528,0.2076659,-0.43368456,-0.97699213,0.2427371,-0.57290816,-0.16182052,0.42203724,-1.0977546,0.14226289,1.103389,0.22528847,-1.8706921,1.8092303,0.35632968,-1.4136963,0.38427714,-1.5519964,0.56959045,-0.052561827,1.8006715,0.09553134,1.7897964,1.4722651,0.52848816,0.11812769,-0.5063079,-1.2768098,1.1026938,-1.336861,-2.23842,0.42088163,-1.4825853,1.0367738,0.13765518,0.23583297,-2.6337607,-1.1110815,0.9886728,-0.31991228,-0.9952636,-1.5052025,-1.104178,0.7920648,-2.3072598,-0.24839216,1.2637311,1.2519972,-1.1054502,0.25632432,-2.361944,-0.8123261,-1.3459587,-0.06819405,1.5976479,-1.073762,0.36106247,-1.760342,-0.9792221,0.545268,0.00059243717,0.9614351,0.34184763,1.2994099,-1.3648485,0.18338184,0.3651997,0.27108082,-0.563988,-1.0208951,0.16139102,0.1909416,-1.3971579,0.6067713,-0.0199876,0.19847788,0.38792244,-0.025794555,-0.43287042,1.0544215,0.6145355,0.41799146,-0.97065526,0.2183933,0.04627512,0.42085227,-0.9662352,-2.2220201,-0.35266188,1.365158,0.712808,-0.41060695,0.0019490438,0.5088096,1.7772548
