,dim_0,dim_1,dim_2,dim_3,dim_4,dim_5,dim_6,dim_7,dim_8,dim_9,dim_10,dim_11,dim_12,dim_13,dim_14,dim_15,dim_16,dim_17,dim_18,dim_19,dim_20,dim_21,dim_22,dim_23,dim_24,dim_25,dim_26,dim_27,dim_28,dim_29,dim_30,dim_31,dim_32,dim_33,dim_34,dim_35,dim_36,dim_37,dim_38,dim_39,dim_40,dim_41,dim_42,dim_43,dim_44,dim_45,dim_46,dim_47,dim_48,dim_49,dim_50,dim_51,dim_52,dim_53,dim_54,dim_55,dim_56,dim_57,dim_58,dim_59,dim_60,dim_61,dim_62,dim_63,dim_64,dim_65,dim_66,dim_67,dim_68,dim_69,dim_70,dim_71,dim_72,dim_73,dim_74,dim_75,dim_76,dim_77,dim_78,dim_79,dim_80,dim_81,dim_82,dim_83,dim_84,dim_85,dim_86,dim_87,dim_88,dim_89,dim_90,dim_91,dim_92,dim_93,dim_94,dim_95,dim_96,dim_97,dim_98,dim_99,dim_100,dim_101,dim_102,dim_103,dim_104,dim_105,dim_106,dim_107,dim_108,dim_109,dim_110,dim_111,dim_112,dim_113,dim_114,dim_115,dim_116,dim_117,dim_118,dim_119,dim_120,dim_121,dim_122,dim_123,dim_124,dim_125,dim_126,dim_127,dim_128,dim_129,dim_130,dim_131,dim_132,dim_133,dim_134,dim_135,dim_136,dim_137,dim_138,dim_139,dim_140,dim_141,dim_142,dim_143,dim_144,dim_145,dim_146,dim_147,dim_148,dim_149,dim_150,dim_151,dim_152,dim_153,dim_154,dim_155,dim_156,dim_157,dim_158,dim_159,dim_160,dim_161,dim_162,dim_163,dim_164,dim_165,dim_166,dim_167,dim_168,dim_169,dim_170,dim_171,dim_172,dim_173,dim_174,dim_175,dim_176,dim_177,dim_178,dim_179,dim_180,dim_181,dim_182,dim_183,dim_184,dim_185,dim_186,dim_187,dim_188,dim_189,dim_190,dim_191,dim_192,dim_193,dim_194,dim_195,dim_196,dim_197,dim_198,dim_199,dim_200,dim_201,dim_202,dim_203,dim_204,dim_205,dim_206,dim_207,dim_208,dim_209,dim_210,dim_211,dim_212,dim_213,dim_214,dim_215,dim_216,dim_217,dim_218,dim_219,dim_220,dim_221,dim_222,dim_223,dim_224,dim_225,dim_226,dim_227,dim_228,dim_229,dim_230,dim_231,dim_232,dim_233,dim_234,dim_235,dim_236,dim_237,dim_238,dim_239,dim_240,dim_241,dim_242,dim_243,dim_244,dim_245,dim_246,dim_247,dim_248,dim_249,dim_250,dim_251,dim_252,dim_253,dim_254,dim_255,dim_256,dim_257,dim_258,dim_259,dim_260,dim_261,dim_262,dim_263,dim_264,dim_265,dim_266,dim_267,dim_268,dim_269,dim_270,dim_271,dim_272,dim_273,dim_274,dim_275,dim_276,dim_277,dim_278,dim_279,dim_280,dim_281,dim_282,dim_283,dim_284,dim_285,dim_286,dim_287,dim_288,dim_289,dim_290,dim_291,dim_292,dim_293,dim_294,dim_295,dim_296,dim_297,dim_298,dim_299,dim_300,dim_301,dim_302,dim_303,dim_304,dim_305,dim_306,dim_307,dim_308,dim_309,dim_310,dim_311,dim_312,dim_313,dim_314,dim_315,dim_316,dim_317,dim_318,dim_319,dim_320,dim_321,dim_322,dim_323,dim_324,dim_325,dim_326,dim_327,dim_328,dim_329,dim_330,dim_331,dim_332,dim_333,dim_334,dim_335,dim_336,dim_337,dim_338,dim_339,dim_340,dim_341,dim_342,dim_343,dim_344,dim_345,dim_346,dim_347,dim_348,dim_349,dim_350,dim_351,dim_352,dim_353,dim_354,dim_355,dim_356,dim_357,dim_358,dim_359,dim_360,dim_361,dim_362,dim_363,dim_364,dim_365,dim_366,dim_367,dim_368,dim_369,dim_370,dim_371,dim_372,dim_373,dim_374,dim_375,dim_376,dim_377,dim_378,dim_379,dim_380,dim_381,dim_382,dim_383,dim_384,dim_385,dim_386,dim_387,dim_388,dim_389,dim_390,dim_391,dim_392,dim_393,dim_394,dim_395,dim_396,dim_397,dim_398,dim_399,dim_400,dim_401,dim_402,dim_403,dim_404,dim_405,dim_406,dim_407,dim_408,dim_409,dim_410,dim_411,dim_412,dim_413,dim_414,dim_415,dim_416,dim_417,dim_418,dim_419,dim_420,dim_421,dim_422,dim_423,dim_424,dim_425,dim_426,dim_427,dim_428,dim_429,dim_430,dim_431,dim_432,dim_433,dim_434,dim_435,dim_436,dim_437,dim_438,dim_439,dim_440,dim_441,dim_442,dim_443,dim_444,dim_445,dim_446,dim_447,dim_448,dim_449,dim_450,dim_451,dim_452,dim_453,dim_454,dim_455,dim_456,dim_457,dim_458,dim_459,dim_460,dim_461,dim_462,dim_463,dim_464,dim_465,dim_466,dim_467,dim_468,dim_469,dim_470,dim_471,dim_472,dim_473,dim_474,dim_475,dim_476,dim_477,dim_478,dim_479,dim_480,dim_481,dim_482,dim_483,dim_484,dim_485,dim_486,dim_487,dim_488,dim_489,dim_490,dim_491,dim_492,dim_493,dim_494,dim_495,dim_496,dim_497,dim_498,dim_499,dim_500,dim_501,dim_502,dim_503,dim_504,dim_505,dim_506,dim_507,dim_508,dim_509,dim_510,dim_511
AAMDC,0.12232209,-0.79437435,0.1762316,1.3064029,-1.8294314,1.2017757,-0.29032353,-0.008442264,1.0746129,1.0131526,0.74783546,0.8118252,-1.0456221,1.5746303,1.2394475,-0.7220584,-0.6491683,2.325467,1.560035,-0.5189128,-0.35239762,-0.27183452,-1.6331415,-1.1008382,0.044673905,-0.9374146,-0.31375372,1.4508708,-0.18667299,-0.6326077,1.230681,-1.226251,0.7588284,-0.6881443,1.8560457,-0.20158179,0.37322235,0.63853663,0.19247876,0.061181877,-0.04040198,2.3027458,0.35378763,-0.8251543,-1.5292656,0.93816924,-2.035782,1.2849118,0.13283385,-0.34192875,-0.27058512,0.7286504,-0.7253745,0.3987967,-2.5450637,0.5322175,1.2748933,1.1416731,1.4810835,-0.29100844,-0.89334136,0.5622233,0.8926785,2.2652762,1.639585,1.8137835,2.6938617,-0.8076086,1.5411394,-0.49866655,-0.43834752,1.3282641,0.723384,-0.275903,-2.0948157,-0.5653353,0.82903326,0.71756303,-0.5384468,-0.6941981,-0.4104017,1.4896824,0.85687894,0.43556976,-2.3706956,-0.0020384847,0.2941189,0.46993753,0.13339365,0.39862782,0.61782014,0.6814164,-1.3242458,-0.46525794,0.5137065,1.1573262,-0.6390066,1.2527915,0.52526814,-1.0361214,0.4298644,0.53488994,1.1175734,-0.36819947,-0.8529209,0.15143582,-0.59519976,-0.06956944,-1.0638981,0.20466751,-0.34368628,1.6669474,0.19876437,0.06694514,-0.9604142,0.24297427,0.11137013,1.131139,-0.62270916,-0.19101717,-0.22133078,0.28013235,1.03491,-1.54381,-2.5701103,1.5288424,-0.55722153,-0.6027465,-1.1402794,0.10037212,-1.5023913,-1.8017318,2.0539217,0.5631192,-0.12802172,-0.09545663,1.5688106,-0.69516385,1.3164283,-0.5493841,0.35045552,0.12285508,0.69342977,1.0884349,1.003795,-1.2526383,-1.4634271,0.5302681,-0.20287645,0.19786936,1.2926201,0.23913683,0.5306131,-0.009009473,1.461691,-0.37499687,1.1557461,-0.5241664,-1.0692315,-0.9061151,0.6322337,0.8965258,-0.9287989,-3.4220502,-0.9808763,0.71572113,-1.0525187,-0.2525533,0.5962902,-1.6167778,1.1571866,-1.1470805,-0.260274,-0.5161176,0.789756,-1.4924669,-0.158732,-0.77928954,0.03209956,-0.35684446,0.76246816,0.8255541,-2.0095034,-0.87016404,-0.55365163,-0.7151032,0.33870754,0.3410814,1.5035849,-0.63405067,0.19350494,0.5824168,0.33721396,1.6602626,1.8318559,-2.056405,-0.88429636,-0.6055582,1.5633478,1.0018966,0.526317,0.15617251,0.10282013,-1.0496628,-0.5064691,-0.118957385,-0.28559086,1.157835,0.86099035,1.1134809,0.8889963,0.86830574,0.85543656,0.7013625,-0.37442955,1.8028172,-1.0554042,0.78248906,1.3987721,-1.6130843,1.5428265,2.1922097,0.70823354,1.4863759,-1.5853096,-1.3327667,-0.16313446,0.32442337,-1.2808744,1.0850267,-1.5587659,-1.4968395,-0.5773817,-1.1079752,-0.041143678,-0.95709586,-0.79116875,0.4707084,0.3314102,-0.88561475,1.7209537,1.3579981,-0.044033136,-1.433123,-0.99124163,0.745592,-1.7472357,-0.6583798,0.42601544,-0.10659736,1.7347474,-0.5754817,0.3199832,0.61005795,1.0810808,-1.6649271,1.6469611,-1.1272961,-0.11688966,0.07184801,0.074244365,-0.5366069,0.94301254,2.050603,0.7243875,3.139469,-0.09605729,0.7826665,-0.55578023,-0.25456843,1.5441458,-0.45196116,-1.3542653,-0.10645599,-0.026509421,-0.7291906,2.4955692,-1.2655982,1.3244772,-0.0345162,-0.43422657,1.4918951,-0.15548371,-0.13309473,-1.07213,-1.5468792,-0.5270158,0.36429146,0.3162782,-2.16849,-0.48017564,0.965507,0.54670304,0.3197521,-2.6019776,1.155277,-1.6744038,0.29588878,0.5352373,-1.5480199,-0.86974406,1.1869844,-0.26075017,0.12681398,-1.716049,0.018471975,0.43584502,-0.106885955,-1.0841817,-1.1769294,0.8202871,-0.933856,1.2086759,0.4237144,0.9014382,-0.97340274,2.2609012,-1.2811857,0.69225496,1.5066702,1.5273848,0.5943212,1.946472,-2.034145,1.4640186,1.3389746,1.581598,-0.5881506,0.7662226,-1.2390071,1.167354,0.095271416,0.9041297,-0.18635759,-0.83616436,-1.4143592,0.47773477,-1.7991012,-0.992482,0.8654732,-0.896522,-0.47150594,2.3510857,-0.949999,-0.5725586,0.9078782,1.0066521,-1.0646327,-0.10769895,0.7163639,1.7838502,0.105809696,-1.4817501,0.2925648,1.7455014,0.8808675,-1.23666,-0.54452777,0.08098215,0.785186,-0.4493459,1.3409482,-0.35371235,0.072625674,1.3307769,0.78970826,-1.384545,-2.0425801,-0.04991902,1.0168382,4.6767695e-05,-0.28412336,1.1505188,-1.5843443,-0.34424916,0.050468706,0.42972654,0.6666065,-1.5226508,0.739553,-0.5933968,-1.5307516,-0.72403973,1.840565,-0.68865967,-0.7799648,1.3898711,-0.011714814,-1.150422,-1.6618392,1.1378566,-0.6879238,-0.54225504,0.25822777,-0.32881027,2.1531668,-1.4145658,1.3581986,1.5919281,-1.6468036,-0.05813234,-0.96240044,-1.7194116,-0.66542464,1.9773456,0.13833717,0.85223866,-1.4223546,0.3485326,-1.0396869,1.0183532,0.644565,1.3072827,-1.8709899,1.5091332,-0.16059372,0.4994309,-0.17547429,0.11793076,1.2559532,1.2277619,1.084377,0.109019116,-0.5779395,-0.9360129,0.79047835,-0.98429656,0.57721174,0.5955991,0.3936199,0.11199992,0.0127180815,-1.2013128,2.4147844,1.9099382,0.72465324,-1.2705886,1.2133378,-2.2799861,1.2382319,1.144544,0.49602446,-1.4499829,-1.1601824,-0.14304931,-1.758779,-1.9298007,0.8114327,0.09472994,1.259312,-1.8885224,-1.5597478,-2.0448382,-2.0078542,-0.39614233,-1.8856156,-1.6282177,-0.63631576,-1.6153853,-0.24099733,0.115640156,0.5290285,0.072529845,-0.3611706,0.30214506,-0.60527754,-1.1276939,-0.99432826,0.9168325,-0.8881044,-0.708226,-0.7875274,-0.34477934,-1.4411111,1.4199816,0.4011391,-2.0086937,-0.81821096,0.33142745,0.91692257,-1.6727039,-1.2069962,0.08994921,-1.4376999,0.3202283,-0.96633923,-1.7998289,-1.019734,1.2965437,1.432205,-1.8152609,-0.32004887,-1.769344,-1.4358774,-0.13640566,-0.4982408,-0.083187036,0.9547146,0.98929685,-1.1142124,-0.13210814,0.28461275,-1.1661919,1.5394222,0.9059575,1.463952,-1.2044302,-1.2534684,0.32750386,0.26057345,0.42798623,1.5051154
AKR1E2,-0.19523719,2.0673542,-0.096251994,0.18067783,-1.0899749,-1.4034535,0.050007246,1.533148,-0.63205796,-1.2672834,0.26303846,-0.33056936,0.2112355,-0.5576213,0.3663964,-0.7729559,-0.33869293,-1.6225452,-0.13306369,-0.76456976,1.3578382,1.6808842,0.4896265,-1.1575607,0.67955667,0.28549293,1.8164176,-0.40591758,-0.2302506,-0.5615296,-1.0728865,1.201408,0.23548341,0.3793482,-1.2469084,0.52924645,-0.24678268,-0.59963804,0.23436302,-0.21922891,-0.4061352,0.7575638,1.9849163,-1.1504128,0.9974524,-1.5031838,0.058943298,0.66262966,0.48923245,0.19369927,-0.6115201,1.6784163,-1.461128,1.1077815,1.2937014,-0.5173964,-0.22762045,-2.219588,-0.37119785,0.8472711,0.6436066,0.14766212,-2.0398686,-0.24250203,-0.64813554,-0.6363497,-0.39921477,-0.1173032,0.99910396,0.30442593,0.35725966,-0.4122059,-0.46971557,-2.3734622,0.3994704,-2.2082398,-0.8456474,-0.7920745,1.2013521,-0.03878393,0.6980406,-0.7856307,0.34943464,0.6282786,-1.5067118,-0.6309782,0.5570599,0.8456321,-2.336482,0.006614899,-1.1258777,-1.7435164,0.7865841,0.9685862,0.074356,0.042597573,0.08705281,0.24755214,-1.5323774,0.25253817,2.0928776,-1.1216468,0.5154584,1.0231435,0.80781466,-1.3182646,-1.4426949,-0.65117306,0.7797301,-0.12044225,1.1552937,0.49104846,0.4607515,2.0838273,0.1270369,-0.48947725,0.7494167,-0.8390769,0.60276157,0.24661386,0.42576417,1.93796,-1.3871576,-0.5531488,0.4507748,-1.1551099,0.61108017,0.9160303,0.05657185,-0.23476736,-2.325733,-0.81097573,0.8370913,1.2978008,-1.5355303,-0.83417165,-0.18678266,1.1456335,2.2663333,0.7432552,1.2608577,0.9213139,-1.5484326,1.9293909,0.035107326,2.631332,-0.6687479,2.0709743,-1.3673254,1.7728369,-1.0416453,-0.7896276,-1.4306176,0.6202537,-0.79132664,-1.363365,-0.58425224,-0.38008916,-0.5450827,0.07848361,-1.4342115,-1.0431417,-0.27922603,0.33370647,1.0736449,-0.94520366,0.11885066,-0.13181342,-2.0812979,-1.5317103,-0.6902347,0.123646975,-0.44349927,-1.2242976,1.4403031,0.4911424,0.89551383,-0.011266188,-1.4678041,-0.64317477,0.97350216,-0.8558397,-1.8089551,0.7465168,-0.2843856,1.1655233,0.36956668,0.562245,0.641187,2.0484529,1.3720967,-0.07275455,-1.6255237,-1.0699064,-0.44539544,0.30040768,-0.56331855,-0.44639266,-0.44835684,-0.84391224,-1.8016334,0.75484854,2.849234,-1.7896719,1.9405998,-0.8750874,-0.5257091,0.09127249,-0.7240073,-1.069021,-1.508082,0.44556743,0.7989457,1.3128654,-0.34143162,2.177415,-0.4054602,-1.4908285,0.17980732,-1.2537196,-0.86443067,1.5386378,-1.3111829,1.6081442,-1.7490543,0.3853589,-0.1420377,-0.006993148,-1.6512058,0.5926904,-1.4380503,0.18656929,-0.07105151,-0.03339093,-0.77374184,0.55794376,-0.5900471,-0.056358393,-0.287577,-2.1784575,-0.37290832,-1.3858081,0.20761403,-2.2915168,1.1072387,-0.22227693,-1.191513,0.28454405,1.1598256,-0.22469632,0.65239954,0.88800466,-0.75152063,0.40954524,1.82681,-0.051248632,-1.3852319,-0.910866,1.683867,2.0773666,0.85622734,-1.0544466,0.27231884,0.21094684,0.3540912,0.8106693,-0.9287955,-0.927846,1.1327426,0.03484037,0.8483807,-0.89241785,-0.7403337,-1.957874,0.99899936,-1.1128106,1.2178736,-0.4900318,0.6355515,0.9225764,-0.87093574,-0.49532077,1.291982,0.6848593,-1.5752791,-1.9411438,-2.9939148,1.090312,1.0614012,0.31926373,2.504487,0.31440523,0.7547889,-0.27343026,1.204443,-0.52198404,1.6264956,-0.89179724,-1.3104917,-0.031983655,-0.84012806,0.72071975,0.44723487,-0.061904307,-1.3923142,1.19219,-0.782386,2.1201057,1.3712164,0.26880145,-1.3547088,0.32614082,1.0257739,-0.29979903,-0.13102674,1.300898,-0.1287681,0.46398062,1.3698589,0.16345641,-0.16745995,1.0258886,0.37564096,0.62839675,-0.102319635,0.8794532,1.1231953,0.174476,0.8139721,-1.3463317,0.99498785,-0.4534193,-0.79679376,0.6283507,-1.6047006,1.1958913,1.168043,-1.4302876,0.20252608,-1.6466037,0.05934026,0.10960973,1.431398,-2.2090478,1.4693707,-0.50514597,0.80610067,-0.8386259,0.33908448,-1.6742944,0.86200523,0.39838186,-0.7382434,-0.19163589,-0.8351283,-1.8359861,-2.2446523,1.5021403,-0.94180626,-0.71849173,-0.50034875,0.11437491,2.4329944,-0.66750205,0.78067166,-1.314361,0.28230372,0.49055362,0.16452266,1.66175,0.8263451,0.492183,-0.28193846,1.9701967,-1.3416693,1.1914918,-0.5092589,2.095583,-0.012882566,0.26573,-2.4163973,-1.7773895,0.3086233,0.9530539,-1.0592002,1.2161881,-0.55127895,-1.0056257,-0.0342187,1.2319629,0.5998444,0.3624188,-0.9717769,0.7788726,1.2777548,0.13317639,0.2750111,1.1906135,0.5906397,-0.4646828,-0.868941,0.21296296,1.0084963,-1.1655408,0.20996715,0.659568,0.07789667,2.1218789,1.5531132,2.2381673,0.1167072,-0.58441687,-0.44814706,0.36626157,1.7629511,1.0508814,-0.41587108,1.0291195,0.6791724,-0.63314587,0.02036452,0.7429796,-0.40245336,-0.28205365,-1.1927515,-0.17865326,1.2828925,-0.9640124,1.9024392,0.57595766,-0.164873,-0.1675362,1.0800195,-0.7220452,0.35910425,0.3538096,0.28177166,-0.4553571,-0.4114236,-0.5773745,1.3190287,-0.11237996,0.8962814,-0.96490556,-0.21750726,1.5044085,-1.4951829,-0.673535,-0.027957873,0.82915115,-0.11507852,1.4348419,-0.42627406,-0.21759658,-2.2897053,-0.5356756,-0.55784214,-0.44923165,-1.7008194,-1.7970744,-0.97969854,1.1053993,0.1959633,0.69796944,0.11243989,0.30493668,1.116273,1.1228414,0.29219645,0.2315218,0.66629046,0.23130429,1.021641,1.5796754,-1.4005978,0.53007984,0.03594857,-0.6114515,0.91799456,-0.108801775,0.79486585,-0.34457406,-1.8431773,1.7819109,-0.6630795,-0.7719519,0.41906485,1.6008954,-0.53185636,-0.72292435,-1.1201,1.3390906,-2.3442185,0.8151501,-1.2818701,-1.523859,1.4303291,-1.2511181,-0.4963666,-2.0461078,1.0205873,1.9106199,-0.733876,0.16159104,-0.60901135,-0.7282503,0.08689109,1.1000276,1.7006745,1.8332038,-0.61302924,-2.462223
ANKS1B,0.8026727,1.7187266,-1.1351792,-0.0015894664,-1.7069427,-1.7981,-0.6443816,-0.56757575,1.5106261,0.84509456,-0.2579736,-0.19807397,1.3732097,0.086557716,-1.2666279,0.55624545,-1.865408,1.3515375,-0.12170157,-2.4513435,-1.7911485,0.48045567,-0.50163096,-2.4356492,0.36819038,1.7181761,-0.64470035,1.8108484,-1.1395282,0.63141894,0.7170852,-0.51549083,-0.97397995,-0.72588027,-0.4017528,1.5738869,-0.5596715,-0.93866813,-0.98815817,-0.28256086,-0.77575994,0.6919527,-1.1281984,-1.5961874,-0.67269593,-0.08683815,0.60967344,-0.059783682,0.8806927,0.7494813,1.1301327,-0.7332001,-1.9343678,-1.8429528,2.0526452,-0.030021079,-0.5368535,-0.41778448,1.4724137,1.0551182,2.174077,0.54064846,0.539378,-0.5169696,0.353653,-0.22675793,0.87151515,-0.9884627,0.9125572,-0.8570048,-1.5432087,-1.127449,-0.8536094,-0.9173305,-0.100663446,-1.4628834,-0.8292822,-0.31457525,0.5952916,0.40192974,-1.3550261,0.765827,-0.6107385,0.4556399,1.4130849,0.2711533,0.12518911,-1.4609205,-0.2974232,-1.609867,1.4714907,-0.46833473,-1.5446409,1.2898887,-0.0029643835,-0.109248415,-0.6182578,-1.2345456,-1.3792301,1.0546787,1.0145782,0.19641355,-0.53312594,-0.043141942,1.7655741,-0.7568253,-0.2613335,-0.012118885,0.3342955,-0.62945235,-0.91020966,-0.83244514,0.6661452,-0.9380805,0.7871702,0.74091464,-1.4757214,0.6405073,-0.03166534,0.5704145,0.74923795,-1.3637402,-1.6517397,-0.30446333,1.226488,1.1104583,0.97911227,1.6622303,1.6971275,0.9234773,-0.69580704,-0.0980369,2.35743,1.6888032,-1.2650824,0.8146443,-1.8437347,0.2191298,1.0562425,0.3061895,2.2435057,-0.18871722,0.8774339,1.8690937,0.6626721,1.5592551,-1.1789032,-1.2978231,1.2458827,1.8772498,-0.8367911,0.484765,-1.4015121,-1.5734235,-0.15028377,0.60320634,-1.6170597,-1.0678929,-0.2159672,-1.2302176,-0.5224426,-0.95730186,0.5229653,-0.62351745,1.6520929,-0.85394377,-0.8990933,-1.7894262,-1.7916759,1.1383772,-1.5147427,0.50852984,-1.6269815,-0.79192066,0.88632154,-0.5743753,1.3787831,-0.95579004,-0.95238584,0.62424433,1.8412589,0.98761296,-0.63261986,-1.573149,1.2547326,-0.43667752,-0.52475375,-1.4809564,2.4717958,-1.1256138,-1.0117131,0.84134877,0.57608724,0.4764846,1.1315497,1.0875751,-1.4675558,-1.251887,0.49728775,-0.66961336,-1.2725687,0.037787527,0.74309677,-2.280762,0.84139895,0.12519458,1.2420828,1.2827673,0.06786259,-0.82305497,-0.33888626,-1.2794294,-1.1208414,0.73072416,-1.4551466,0.15479614,-1.1950225,0.47781062,1.8869523,0.7926503,-0.049558017,1.2008216,-0.7168032,0.9420161,-0.19176595,-0.64071953,-0.2802932,-1.7655197,2.074647,0.9509426,0.6578225,-1.3120509,-0.88581854,0.30737174,0.23393224,0.088305905,1.5636319,0.072824456,-1.6409223,-1.7262206,1.6555976,1.8572611,-1.9033276,-1.726588,1.0941488,-1.2796612,2.5772364,0.53796536,-0.08517953,1.0553406,0.6795688,-0.53907305,0.30978358,-1.6261032,2.1262383,1.4890631,-1.2409825,0.06900768,1.5804704,-0.9611457,1.2511361,1.257923,-1.5690238,-0.16487631,0.20996928,1.6154795,-1.3843664,-0.28112793,1.5733079,-0.49773452,1.1314597,-0.17987067,-0.1708161,0.060097545,0.9095213,0.20050153,-1.7094963,-1.8942256,-0.103872456,0.999862,1.5489867,0.548529,-1.3579022,0.6616817,1.1041135,-0.64570755,1.0475649,0.17878132,-0.0009159805,0.60879815,-0.5610993,0.47010553,-0.21265212,1.3472586,-0.27829903,-0.10643356,0.8467341,1.6130505,0.4587377,-0.23350094,0.3644346,0.4080384,1.7857401,-0.8974954,-0.7586568,-0.48989064,0.72003704,0.8093459,-0.6111832,0.92830706,0.7382053,-1.3280001,1.1498535,0.031597547,-0.37682056,-0.6748614,-0.92825043,0.821353,1.0751165,-0.37583196,1.0981424,-0.1672456,-1.1076202,0.65661424,-0.4862241,-0.5381838,-0.992313,-1.4166014,0.049379136,1.0510864,0.25130224,1.2874502,-0.5441001,0.34883147,1.5865419,1.4211917,-1.6126138,0.060196824,2.1683588,0.4591246,-0.3252812,-0.27562055,-1.525825,2.0294495,1.0170243,0.6547451,0.62336385,0.4715393,-0.4059657,0.020502813,0.81738347,0.3932683,0.4504756,0.7322298,-0.062649295,1.0003179,0.84021884,1.9455273,-0.3882436,1.0091516,0.56161064,-0.21391448,0.5622396,2.8022814,0.6335653,-1.4381498,-1.9821495,-0.7321187,0.25366935,-0.023024373,-1.5765105,-0.5135399,0.31029308,0.06895827,0.6298016,1.2923251,0.030032234,1.3072646,0.7851072,0.73601305,0.7886512,0.8150851,0.17210051,0.46383092,-0.32728305,-0.4264965,1.9222152,0.24148539,-0.17517035,-0.5111205,-0.4913235,0.45498252,-0.07371859,0.005225628,-0.9342383,-1.0139377,0.4617531,1.5518564,-0.7160937,0.9955775,-0.47578007,1.1995615,-1.0961741,-0.3395906,1.3189381,-1.2258081,-1.31061,1.7049359,-0.97224325,-0.31221578,0.3112356,-1.7716695,-0.94681907,-2.1082013,-1.566606,-0.6769696,-1.0402316,1.1005049,-1.1879994,1.3742969,-0.2493823,-1.1189405,0.3874843,1.0784901,0.08214469,-1.821869,0.35746905,-0.51991874,-0.25983366,-0.4525972,-1.2875082,0.150701,-0.71022093,0.22719225,0.05581906,0.7947761,-0.8779583,-0.2875405,-0.2385594,-0.93860626,0.5834606,-0.6914923,1.7088147,-1.5047847,-0.769902,0.73323613,-1.9343388,-1.1601707,-0.7870207,0.4671097,-0.5203654,-0.22575064,0.33510825,-0.33010653,-0.47874895,0.6965411,-0.62961316,0.65638363,0.5665141,-1.2739863,0.9580909,0.68885404,-1.2081722,-0.73301774,-1.1793859,-1.5309021,-0.30705684,-1.4798647,0.16230687,1.0760497,-0.62100184,-1.1821641,0.010489369,1.2381212,-1.8794407,-0.24465667,-0.3164008,0.1110929,-0.5501095,0.7919035,0.5401465,0.8138169,-1.5470858,-0.8549709,1.7137837,-0.55312604,0.60717463,-1.8635873,-0.73738277,0.29027522,-2.0213368,2.2628295,-0.19310221,0.8455428,1.0600294,-0.50125164,0.022261964,1.1396015,-1.026171,0.06890376,0.597229,0.023512729,1.0218592,-1.5685364,0.19941893,1.6572285,2.300529,0.45812032,1.7939614,0.95276254,-0.74510074,1.3962463
ANO8,-0.6493009,2.0499802,-0.7955979,-0.89837986,0.05935012,-0.5292696,0.31449184,-1.595306,-1.001838,1.9247549,-0.2209467,0.81196064,2.0176094,-0.6401828,-1.2971191,0.016298333,-0.20450428,-0.39830253,1.2428384,-1.5054516,-0.7876399,0.06419131,-0.33100727,0.7758621,0.528583,-0.61279607,-1.0523285,-0.9918071,1.312623,0.14095579,-1.0578811,-0.935417,-1.4462801,-1.6966456,0.23978947,-0.37726077,0.15865847,0.7943399,1.0283977,-1.7459086,0.9484986,0.5982244,1.2746964,1.2265111,0.55280125,-2.175979,0.041111227,-0.14428242,0.14513801,-1.805707,1.6992189,0.79766405,1.281544,0.8011898,1.600362,0.3263579,-1.1444817,-2.279454,-2.3211195,-0.025795748,1.4937782,1.4429502,0.849511,-1.7154701,0.5021778,-1.4417683,-0.50751257,-1.2374707,1.221189,-0.9742742,0.3894916,-1.5014241,-0.3278117,-0.5099594,-1.558983,-1.3492286,-0.7241379,-0.9523125,-1.9744589,0.106193334,-2.5584834,0.9391043,-1.3013322,-0.34744287,1.5055592,-1.5695724,-0.32590982,-1.4631108,-1.122088,0.8241229,-0.058509808,-0.12243284,0.71377575,0.061290838,-0.54894984,-1.0638658,0.33741045,1.9172229,0.9719379,0.93026155,0.2740863,0.005493555,1.4594021,0.68436205,0.628769,0.64223844,0.3578474,1.1173286,1.17766,1.5005397,2.0947878,0.8298247,-0.3508829,-0.31085965,-0.3148532,-1.0575005,0.25894088,1.2786827,0.6663898,-1.5027031,0.23547804,0.5656226,-1.7547357,0.1303352,0.2477667,1.5383244,1.0357032,0.48316494,1.2950201,-0.5230773,0.65583646,-0.1345436,2.3009028,0.97067714,0.18460047,-1.0656551,-1.0209744,1.7617614,0.29948822,-2.0882058,0.048776418,1.2655443,-0.4380563,1.8294553,0.81569606,1.9749632,1.2950525,1.5671806,-1.0415756,1.6559572,-0.27976695,-1.4512783,-0.12962349,0.8812958,-0.936191,-1.360869,1.058296,0.9129298,-1.285783,0.7237087,0.8376664,-1.3700147,1.571438,-0.59018713,1.9343227,-0.016645033,0.116460055,-1.3494601,-0.7561601,0.9822027,-0.83718324,1.4661597,-0.3568404,1.5414077,-1.4643521,-0.92607653,-0.9084532,-0.5156203,0.2620284,0.8582341,2.0391448,-1.8471589,1.1680326,-1.0457771,-1.2352254,-0.825585,-0.9549024,-0.6548569,0.40884447,0.73004925,1.080022,-1.2564229,0.8774139,-0.40426072,1.5466217,1.0417095,0.111992925,-0.37082762,-1.4920304,-1.4212481,0.09019594,-0.10451483,-0.18018137,-0.25166148,-0.37402138,0.59446055,-0.7450792,1.9281499,0.15578787,-0.24764815,-1.1433034,-0.31059214,0.4255882,0.77315134,-0.0018664305,-1.2517499,1.749625,0.6150935,1.5027761,0.48984334,0.29092628,1.5042031,0.8968676,1.4664416,1.1988225,0.2123774,0.25660175,0.33179507,0.31210625,2.2666724,0.5466468,0.4633859,-1.723054,0.16483878,0.2715689,-1.239982,1.2219325,2.3143258,-1.3724911,0.06812894,0.56879306,0.2991283,-1.0375494,-1.5456395,0.72043884,-0.51630926,-0.9339138,-1.2002898,1.0803665,1.375968,-0.9320398,-0.20382033,0.3455566,1.7548409,1.7276385,-0.68681586,-0.29459706,-0.84237665,1.0611933,2.061034,-0.14373665,1.0644642,-1.0771599,0.17715429,1.9616247,0.6054935,-1.0768925,-0.05577973,-1.6600101,-1.5180745,2.0516036,-1.2249352,-0.39717892,-1.7775645,-0.15816712,-0.7226694,0.4436627,0.5157574,1.1044931,-0.09616429,-0.30511573,0.94663364,-2.0705445,0.6135661,-0.32428056,-1.1007642,0.8177264,-0.9488896,0.28204462,1.1116729,2.214397,0.0019292942,-0.6940921,-1.8363136,-0.8488937,0.2672722,1.6807343,0.09423147,0.49336928,1.3295271,-0.36647108,1.1469129,-1.4750394,0.11005106,0.35541362,-1.0698892,-0.5787008,-0.67627096,-0.8209713,0.51201224,-0.08474552,1.9794275,-0.20164596,1.2116568,-0.9548751,0.04914039,-0.7064267,0.7691679,0.6711191,-0.2834561,0.07835842,0.9936931,-2.4397824,-0.9571289,0.28229874,-0.4615173,-0.32494217,-1.792101,-0.8874141,-0.18769155,-1.1086348,1.1920573,0.13666943,1.1274799,0.17535998,1.5508288,0.27229896,-0.27432385,1.2434,-0.99923307,0.5054219,-0.069270514,0.3435048,-0.18216456,0.3381953,-0.49156305,-0.9065281,-1.7357055,1.4378873,1.5439457,0.4655495,-0.33234334,0.16253096,1.2810285,0.0066080843,-0.94156885,0.13395329,1.2011498,-0.18937348,0.33909318,0.41010988,1.0798521,1.9772941,-0.3194606,-0.41082713,-0.32027027,-1.2164371,-0.8447378,-0.4965318,1.3676906,0.36469415,-0.3972297,0.95314455,1.6269593,-1.0479188,-1.3269618,-2.4867797,-1.237707,-1.4198931,1.4128822,0.051853154,-2.9853227,-0.90791684,0.9457653,0.94608593,1.4256257,-1.2460173,1.2472814,1.6322101,-1.3289346,-0.31468216,-1.7510008,0.0877694,0.12873533,-1.2812147,0.68120867,-1.116251,1.6103187,-1.8728343,0.82079726,-0.06680969,-1.3430488,-0.081958115,-1.4417995,-1.2029225,-0.55914986,1.3354874,-0.45619497,1.4352355,1.3585012,-1.6873056,1.3453664,0.7111146,1.319908,1.32923,-1.5770605,-0.37846395,-0.06997732,-1.2889714,-1.0040286,-0.45431152,-0.97750694,-1.0748341,1.6616445,0.8354914,-1.4444387,-0.72377926,-1.1073481,-0.772031,-1.6293051,-1.2469885,1.4442757,1.0573528,0.16060126,-0.12178768,-1.8132676,-0.8498377,-0.8960756,-0.2129989,-0.42430937,0.6218203,-0.06599765,-0.06546107,0.39693108,-1.3561077,0.15140407,-1.9546139,-0.90514684,-0.16439034,-0.8224918,1.2149729,-0.19176342,1.594283,0.60457885,-0.06248146,0.5905556,-0.98304355,0.1967226,0.697488,-1.2905433,-0.4303276,0.21834299,0.8135829,-0.563073,-1.7269549,-1.1675522,-1.5665284,-2.040997,0.6244601,-0.09126987,-1.6991875,-0.42889678,0.22115855,0.52328473,-1.3472387,0.8630904,-0.28087217,0.42696583,0.36878407,0.38895798,0.092224695,-0.38903072,0.35774863,-0.2289375,1.2971213,-0.14083612,-1.1672214,-0.36781368,0.89526707,0.9936739,-0.49341643,1.3548554,0.17348215,0.17456284,-0.008678209,0.7563729,0.9070323,-0.56782186,-0.4758915,0.5234781,-0.8150633,1.586836,0.74726987,1.273638,1.6539037,0.010101583,0.8273591,-0.94443256,-0.80095136,1.0821856,0.4507045,0.7734328
AREG,0.7724449,-1.4331102,1.8044455,0.39163992,-0.40198877,0.42024302,2.4313354,-1.5414304,1.0963746,-0.49272168,-0.8344365,-0.7894599,0.39727074,-0.8103632,-0.9889376,-0.3887004,-0.09143314,-1.0914387,0.33939794,-1.0845177,1.363354,0.2745551,-0.087017514,0.7382472,1.6386269,0.4839378,-1.3998661,0.398161,1.8689473,0.259926,-1.9582257,-1.2887757,-0.9726437,0.51543736,-0.13122466,0.85489726,0.3125207,1.1906272,0.33623275,1.5069363,0.45804623,0.33448476,-0.55469793,0.4659344,-1.0040449,0.5075573,2.5374594,-0.6550348,0.24508938,-0.47624406,2.2066903,-1.2658324,-0.1355294,-0.44320497,-0.68267834,-1.7645954,0.43925792,-0.05341513,-1.5525565,2.1445212,-0.14898607,-0.5862338,1.3624003,-0.8841739,-1.2173035,-1.0452735,-1.2118285,1.3571025,-1.0898151,0.24442855,3.1049874,-0.346667,-0.030949123,-0.75152665,-0.06465277,-0.70014364,-1.9202021,-0.17740922,0.9246153,0.0042844275,1.1714216,0.6523347,1.401851,-1.3464063,1.86339,1.7581205,-1.5377892,0.497264,-1.3522296,-0.9878747,0.28320745,-1.4996432,0.8216591,2.135292,0.9339399,-0.674099,1.954704,-0.046324935,-0.10861678,-0.30767635,0.9505888,-0.87140876,1.334911,-0.12444492,1.0011396,1.2110958,-1.2234453,-0.4718742,0.2136137,1.5764523,0.3926597,0.85622257,-1.7260076,0.1029602,0.7135976,-0.88197374,-0.24478659,-0.75242954,-0.5526726,0.4539307,-1.0934649,-1.2719289,1.5347122,0.00070400635,1.5855842,1.5950544,1.0238842,0.8040556,-0.04903629,0.8130552,-0.7757689,-0.6204781,-0.5709137,-1.0051225,-1.2378992,0.21084553,-0.6175456,0.3100037,0.55278414,1.0081108,-0.27976367,0.97028977,1.2643402,-1.5505617,0.31665808,-0.6618204,1.5805613,-1.3316777,-0.07986646,1.6484302,0.654608,-0.067242,-0.36389777,0.11867764,-0.5315508,1.1490462,-1.367613,0.29625347,0.21793209,1.2999533,-0.08659806,-1.3948737,-1.189175,-2.0530007,-2.2960608,0.6290827,-0.21530204,-1.5582818,1.5450455,2.0661654,-0.45887733,-1.4185338,0.0066010254,0.27611396,-1.4615837,-2.4366388,1.0932842,1.6207666,-0.30138853,0.18952969,-2.2836616,0.7278541,-1.4455552,-1.7165538,0.92857945,-1.5637622,0.30190843,1.2662746,-0.3327326,1.0051128,0.5569066,1.5902904,0.6361414,-2.1900766,-0.12092232,-1.3529648,0.370788,-0.91174394,-0.7353634,0.016659072,0.44734535,-0.7193765,-0.61485755,1.1444645,1.4156812,-0.4772586,-0.69194543,0.12509021,0.59945446,-0.5535362,-0.53786796,-1.6823767,-0.15626685,0.3559525,-0.22886582,0.5816576,0.35667714,-0.12767191,-1.3895134,-0.82990336,-0.4356476,-0.5093492,-1.3061135,-1.1198641,0.5954382,-0.41057223,0.26917422,1.5737123,-1.1156007,0.81819093,0.9756935,-0.0402665,1.4074883,-0.26887324,-0.91817325,-1.6565205,-1.0593128,-1.8316025,0.6027743,1.1896715,-0.45682743,-1.0834223,-1.6076227,-0.7729426,-0.45379737,0.40840125,0.7023138,2.18507,-2.0531495,-0.9237894,1.0673944,0.5687571,1.9492061,0.04540354,-0.4210163,-0.7761751,-2.6598935,0.21518888,-0.23910573,0.016616337,0.2230163,0.49770024,-0.67279375,-0.8299727,-0.64179134,0.0038209236,-0.6833861,0.2496753,-0.53743434,-0.9464675,-0.51278514,-0.92653704,-1.3777338,1.6110023,0.7359882,1.5233629,0.66466516,-0.25807437,0.15798835,0.17238574,0.417908,-0.34232682,0.2674485,1.62151,1.8169603,0.29499,0.36128962,-0.51217455,1.0704495,1.8564957,0.25321075,0.3880275,-0.5398076,1.3002517,-1.5346746,-0.4112703,-2.4576528,0.54635525,0.5433072,-1.2302929,2.3651874,0.4149131,1.0188117,0.80494756,0.56276584,0.7277835,0.7313165,-0.25487766,0.43599564,-0.35364875,0.9608334,-1.3441839,-0.43270513,-0.7192373,1.2334136,0.5247235,-0.83017474,-0.05326594,0.40340757,0.6161039,0.825831,0.63412166,-0.35340303,-0.54619974,0.7008304,-0.5676716,-0.36827222,1.4275112,-0.8473279,-0.93205833,0.87446445,-0.679918,-1.1108919,1.0802014,-0.6036436,-1.2871825,-0.06697597,-1.2217152,-0.023835154,1.7639678,1.7149353,-1.8132772,0.77243453,-1.5856596,-2.1233962,0.28948802,-0.5449899,0.43104208,0.8143989,0.77686054,-2.2879343,-1.6922762,0.9836891,0.52706826,2.314655,2.1037638,1.632149,-1.5732491,0.5486896,-1.1264299,0.60145813,-0.43613526,0.7070333,-0.22779204,0.93720114,-2.1582515,2.307033,1.561667,1.5475627,2.392044,0.19148862,-0.72251076,1.3511081,1.8225486,1.1024607,0.8553231,0.20229009,-0.65612245,-0.7820035,1.2968636,-0.5866276,1.3688557,0.29988262,1.473701,1.8720134,-0.37134415,-1.6160698,-1.1346372,1.2525474,-0.082661316,0.31468967,-0.73776627,-1.6768169,1.2082429,-0.12115911,0.69554496,-1.8714231,0.5626727,1.0391809,-2.0954394,1.1805881,0.7017557,1.3944508,-1.8376245,-0.31603026,-0.15624827,0.9794311,0.05536748,0.11011446,-1.4642085,-0.8450372,-0.45085058,0.036151182,0.0012858256,0.9447957,0.22234423,0.6622795,0.66951793,-2.1589115,0.3648851,-0.50335824,1.398283,-0.22360083,0.5262124,-0.8676015,1.0336591,0.60522914,-0.26269683,-0.9193579,0.109478526,-0.09849895,-0.7198943,-0.80117714,-2.429131,1.3444124,0.113373086,0.43068743,0.021661447,-0.3068553,-0.19329722,-1.1202452,-0.46641123,0.35416445,-0.4206651,2.7833285,-1.5294375,-1.2151995,1.2076819,-0.3526535,-1.0887488,-1.374093,-0.10036802,-0.120088056,0.07282093,-1.2573514,-1.0749035,-0.057569906,0.47084203,1.2191801,-2.105527,0.19780152,0.105491064,0.8506355,-0.57033634,0.60736006,0.6694881,-1.8173004,-0.15529913,0.61246425,-0.21935679,0.60960644,-0.5678858,0.17455202,1.0590483,-0.42545253,1.2519226,-0.8372038,2.0012777,-0.11614068,-1.275213,-0.8888728,2.0903995,-0.0053050574,-0.29844686,-0.08106071,0.61574686,-0.21301596,0.6006249,-1.4815264,1.0245281,-1.466023,2.6818676,1.4317212,-0.22530657,0.9582116,-2.396555,0.89396775,0.98344284,0.23645152,-1.81001,0.6068051,-0.020388559,-1.9611872,0.35948983,-0.4081792,-1.7220404,-0.59400713,-1.2719012,0.048547123,-0.62498015,-0.45620537,0.18266886
CCL28,-0.8639578,1.1531698,1.5935836,-1.7411641,-0.85802513,0.021686211,0.20625724,1.7566198,1.0077294,0.7253593,-0.5784349,1.1079011,-0.68223804,0.40205294,0.6814593,1.7914824,-0.60383534,0.6279269,1.3553553,0.28933153,0.9658286,1.2380296,-0.37420252,1.569644,0.15402928,-2.012792,-0.7440484,-0.8361427,0.49903965,-0.73167574,1.58633,0.25928423,-0.5018476,-1.2720653,-0.43292987,-1.85921,0.50095683,1.1425905,-0.46288207,-0.58431035,1.7156646,0.18954408,0.67821264,0.8487107,-1.4501294,-1.3392103,-0.52948856,0.4662909,0.27061644,1.547112,0.62852424,-1.0701214,0.6330241,-0.12743592,-0.1901579,-0.6026891,0.09884302,-0.88618875,0.7625767,1.1770762,0.11756911,0.38619334,1.0181391,1.6566262,0.8678091,0.71643853,-1.134587,-0.23075105,0.3686242,0.77211136,-0.4607844,-0.67532754,-0.9120143,0.7023334,0.39973044,-0.5895205,-0.26335502,1.605647,-2.5443947,0.6286109,-0.8647889,-1.5349374,0.31436065,1.6557109,-0.46523595,0.26404476,0.34345725,0.5674509,0.44395334,-1.4471456,0.53746927,0.81317055,-0.07193146,1.3090423,-0.0042721885,0.8046578,2.0029898,0.36023015,-0.64480525,1.4872029,1.5628343,-0.5541831,-0.699573,1.3237599,-0.20311476,1.6473974,1.1349397,-0.53018844,-0.273127,0.45844597,-0.3757049,1.0828555,-1.0531871,-1.2273747,0.6120672,1.4246733,0.34325886,0.638398,0.99200165,2.3913286,-0.6211332,0.944075,-1.6119002,0.31119385,1.1836556,-1.2860665,-0.37094256,-0.82857054,0.46392384,2.5112257,0.46538287,-2.418767,0.098871976,0.34740683,-2.0080698,-1.3569155,0.9755408,1.5531815,2.7369714,-0.4439797,-0.033955306,-1.5173128,0.043331463,1.1057572,-0.35586864,-0.8638728,0.057003096,0.98105276,0.868949,2.1079438,-0.57823974,0.74120015,0.82737917,0.88235486,-0.76880145,-1.6681671,1.4885634,-0.41817307,-0.3438024,-1.4392406,-0.3330344,-0.5681566,-0.016417535,-0.30674887,2.2706954,-0.6669919,-0.12567528,-0.59274215,0.08110901,-0.6946088,-1.8304914,0.64621294,-0.8653373,-0.22389278,-0.9372865,1.0449226,1.193269,1.0886179,0.39404905,0.20362523,0.4532793,0.15094624,-0.14229813,-1.0639802,-0.108710796,-0.4507604,-1.7570856,-0.83124006,-1.1664108,-0.51950836,-1.0984538,0.533197,-1.5992053,2.7795994,-0.5410087,0.13781402,0.6863116,-0.5754249,0.06751734,-1.4819771,0.32164505,-1.6075615,0.6841057,-0.44478297,0.55266935,0.3235177,1.4602032,-1.0621599,-0.95491254,-1.6302323,-1.5262748,-1.9846922,-1.69707,0.13143401,0.05904912,-1.3613217,-1.6238645,-0.88601863,-0.36533043,-0.11000325,-0.723513,-0.49888018,-0.8105271,1.0775491,-2.089586,-0.4208409,-0.6139807,0.83447754,0.23420729,1.7911409,1.7835062,-0.46677798,0.109174095,0.51835126,-0.734464,-1.6259477,1.2667501,0.557909,2.0772226,0.37406963,-0.006891158,0.23586617,0.3139866,0.17834005,-0.2568457,1.8198383,-0.7009769,1.6326855,-0.7946357,-0.006321257,0.37567446,-3.0714006,0.2788289,-1.2396066,0.28245917,0.5313532,-0.89813375,0.81082743,-0.11875563,0.15015581,1.3418907,-1.4435066,-1.455384,0.3268589,0.28248066,-1.565519,-0.34398428,1.9087149,1.326774,-2.3346977,1.7835478,0.60193527,1.1701982,1.1319054,0.28509736,-1.5861098,0.9847662,-2.1142104,0.74004394,-0.9164632,-1.2084471,-1.7226435,-2.1313632,0.6409713,-1.55474,0.5733418,-1.3875006,0.3515726,-1.2194234,0.6706333,0.020413565,0.006287405,0.19849011,-1.0217302,0.9491079,0.017174179,2.0110219,0.24921583,0.006741492,1.817427,1.0296742,-1.1153085,1.5814227,0.30357754,1.562724,0.123823,-1.2492479,0.22704357,0.120489374,-0.7508339,0.3531361,1.5724751,1.2819536,0.90404195,2.5440378,-0.4883384,0.4649626,-0.50071985,-0.12564442,0.31421077,-0.8337943,-1.9850179,-0.19076285,1.3730837,-0.22470056,-0.86160886,1.1821767,-2.0320957,-0.15998954,-0.50328755,-0.6526067,0.15604632,-1.5595584,-0.40912327,-2.5473032,1.221159,-0.021481441,-0.16687417,-0.32898307,0.94849074,1.7288859,-0.8562841,1.9573141,-0.88366663,0.95795465,-1.4951179,-1.2214512,0.011778562,0.2095977,1.2976785,1.3545754,0.14555572,1.2961007,1.283087,0.42689306,-0.9757961,-1.4941868,-0.45408565,-0.19344091,-1.4228978,-0.14304271,-1.2814575,1.2660564,-0.25455123,0.8582392,0.15802708,-0.9816156,0.6190671,-0.38645995,0.30397967,-1.4148958,-0.69613874,-1.0312313,0.9720351,-0.32881713,-0.8281349,0.13016559,-1.0282844,0.552053,-0.27300793,0.70022035,-0.020291679,0.49505216,0.8300481,0.5079818,-0.55465454,-0.83862936,1.0471892,2.4450703,-0.2118248,1.3551018,-0.3733915,-2.2518103,0.39298335,-0.60502356,-0.07430247,-0.7945827,-0.20815523,0.08547415,0.5668955,0.79847515,-0.98930514,0.0051765162,-0.11388287,0.493957,0.23707879,1.4655466,-0.14614783,1.1081457,-0.2670943,1.6932082,-0.79764867,-0.7116558,-0.19138716,0.06284101,-1.8450202,0.69630516,1.6961305,0.04362421,-0.7757557,0.25857618,1.3420749,0.2707139,-1.9247967,-0.14374594,1.508078,-1.8876593,-1.5610234,0.7490245,-0.6014737,0.0012355864,-0.5863922,0.07024191,-1.0617361,-0.45824784,-0.90761983,0.5706922,-0.40958115,-0.6935795,-0.46044078,0.8614502,-1.5057003,-0.2871778,-0.61617935,1.5178227,-1.2414254,-1.0772864,-1.1103812,0.028782789,-0.7257265,-0.30025277,0.84818584,1.0452715,0.17062879,0.39564258,0.48204148,-0.019417753,0.5636885,-0.935687,-0.04940379,0.46857184,0.9798378,1.8509556,1.4952638,-0.94061714,0.5313242,-1.591259,-0.090206526,-0.97170115,-0.034208197,-1.662957,0.077376194,0.41306132,0.2053137,0.62949914,-0.5802589,2.3094685,-0.34383154,1.0209651,-1.1575989,1.3894855,2.2614303,-1.7938632,0.82639664,2.1481433,-1.0074158,1.791947,-2.0637274,-1.2726177,-0.5433651,-1.5469025,-0.361726,-1.8343606,1.232777,0.5574053,-0.5716914,2.1189828,-0.26143128,0.77521205,-1.8084472,-1.6170881,0.038556937,-1.3907548,-0.12050154,-2.973286,1.6960045,-0.6353126,0.9143113,-0.57486,0.7492507,2.1116326,-0.5419942
CCNO,-1.2254174,1.4728993,-0.45255664,-0.30899224,-1.6689757,-0.32860848,-2.0055716,0.56392866,-0.34416872,0.21786438,-1.4193794,-0.5569822,0.4608308,-0.23117262,-0.78098524,-2.0989435,0.47510326,-1.2651598,1.9432184,-1.1175511,0.9827434,2.1414566,-1.9293057,1.251932,-0.72276115,1.573824,-0.67858005,-0.9237884,-1.7851726,-2.1936324,-0.4735443,0.56708056,0.20868568,0.6366108,-1.2912091,-0.9267042,1.3638154,1.8346714,-0.26576576,1.4145418,1.232059,-0.32830802,0.99678963,0.8555888,-0.822816,-0.14763956,0.2041184,1.475269,0.2440405,-1.205445,-0.02703143,0.57601935,0.89637405,1.1273206,-1.0538797,-1.1489788,-0.42439353,-0.8030432,-0.7761865,0.45932427,1.4492314,-1.2754036,-0.90413797,0.6721172,-0.6202581,-0.5376381,-1.2201957,-0.0051998934,-1.2692242,-0.9815356,-0.13403681,2.5708797,-0.8156392,-0.029602636,-1.0408756,-0.57137156,-0.90828115,-0.13363953,-0.42684665,2.1256096,0.3748651,-0.007689138,-1.1180227,2.6520174,1.8528749,0.9010621,0.23835191,0.20769271,-0.72939855,1.1487266,-1.0302105,-0.04132723,-0.11004661,-2.0318444,-0.16227664,-0.31866068,-0.35830402,1.3812237,1.545833,1.3559384,0.21222216,-0.7443889,-0.075632595,3.3390367,0.44129103,-0.5103577,0.40385094,1.0874543,-0.31981203,-0.23455831,-1.3747219,1.1223826,1.9999377,1.0033154,1.1100342,-0.49642265,-0.32997882,0.38517287,-0.4421133,-1.4906328,0.4602766,1.1678182,-0.105168,1.1326382,-0.83471304,0.933315,0.36922577,1.2903068,0.13289744,-2.3749402,0.07220941,-1.1099359,0.19082992,1.1512119,-0.22985889,1.1085526,-1.4272786,-0.279986,0.9438696,-0.18261814,1.3882793,0.8664433,1.245968,1.0802032,1.503986,0.75239944,-0.72721684,1.2913803,0.9677239,0.3501478,0.5578478,-2.4118626,-0.4869818,-0.3731191,1.0458665,1.2052172,-1.5326616,-1.4325625,0.69060004,-0.33334592,-0.07357056,0.12321041,-1.8265486,-0.7811275,-1.7452912,-0.81365407,0.08296095,-0.58529556,0.6008738,0.83194095,0.3953996,0.2657544,-0.7425872,-0.40418127,0.5402604,-0.6042866,2.322642,0.78867865,1.4673008,-2.0738404,0.8229308,1.7157223,-1.2365963,-0.8415946,0.13505322,0.15118448,-2.331655,-0.40912074,-0.89851165,-1.1828289,0.7584465,-0.25161552,1.1659205,2.0613258,2.1765807,-1.3911965,-1.5400571,1.1483358,1.7424027,-1.38815,1.3761636,0.30187824,-0.4276696,0.880173,-0.84583706,0.20823167,1.4665914,0.9383338,0.6401282,0.08441633,-1.4561512,0.12615158,-1.2229087,-0.93229043,0.6759647,1.4584337,-1.8801576,1.2238094,0.08729318,0.47226346,0.7599315,0.68974435,-2.3341658,-0.6629861,2.5078602,0.62283325,1.3340275,2.2605598,-1.2461979,-0.66013783,-1.4404765,-1.6792159,-0.4434983,1.0595847,-0.10709726,0.93871653,-0.85246366,-0.38554925,-1.0430485,0.10523407,0.06465266,0.74502957,-2.2854545,0.79371077,0.8227238,-0.053116344,1.5253122,1.0527922,-1.4465765,-1.3104975,-0.8366594,-0.5969043,-0.78632426,-1.5271465,-0.9860346,0.10557872,0.065564506,-1.0729334,0.21687496,2.223049,0.4725998,-0.8346977,-0.7438168,-0.36963898,0.6575256,2.2569568,-1.1174673,2.403447,0.7162225,-0.71510434,-0.71487224,-0.1697641,-0.72526354,-1.571187,-1.2005013,-0.48634383,1.7585804,1.3771884,0.21765958,0.088494204,-1.9262586,-0.399035,-2.1020477,1.53806,-0.42421138,-1.13023,-0.7578472,0.74761504,1.4851986,-1.4968773,-1.2560208,0.9913705,-1.0623364,2.9947426,-1.3890331,0.6892015,-1.2543571,0.63855404,0.8382378,0.37144956,0.76865417,0.16226636,-0.32173383,-0.9869213,-0.570089,-2.4908967,0.3273111,1.7607862,1.1910135,0.43637103,0.22771731,-2.9328935,1.2327448,1.2756608,1.0438727,-0.5690283,0.4863688,0.44743192,0.84267205,1.1788905,0.19161889,1.5548555,-1.3803862,0.66008973,0.43501195,0.11318502,2.1104598,1.0662801,0.97519934,-0.18883568,-0.5802789,0.753884,0.03201604,-0.5579025,-1.9489195,1.1294967,1.3923384,-0.20863941,1.0858581,0.5842779,-0.023729052,-0.7956546,1.2056865,0.6384822,-0.84935486,-0.8122597,-0.58190686,0.19443524,-0.20798887,-0.6205248,-0.957326,0.123172544,1.1759313,-0.2522945,1.0465834,-1.5128572,0.5242038,0.19935568,1.2567022,-1.0225543,-1.2598506,-0.9085321,2.103834,1.5630585,0.073480375,1.6575452,0.9295776,-1.0459372,-0.16297448,1.3063867,-1.6126504,-0.9817516,0.11271348,0.15439221,-0.48535657,2.525159,-0.74166316,0.33507198,-0.7250067,-0.84047556,0.51209766,-0.26349452,-0.21488845,0.032152336,0.85939455,0.45234302,-1.4700525,0.9247157,0.13440645,-0.4518483,-0.7931616,0.007196632,-0.0015380823,0.12800834,1.0918322,-0.08300907,-0.17286813,-1.1956679,0.46635526,0.61033833,1.21436,-1.1529088,-1.4031528,0.36345324,-0.40964463,0.36306658,-0.5595391,0.9764946,-1.7875297,-0.056256525,0.15531632,-0.5819058,-1.294242,0.62014955,-0.70286983,0.60946536,-0.4026925,-0.9865992,0.06548819,1.0706344,-0.89025193,1.4186071,0.6817533,-1.4629155,0.604339,1.0607393,-1.186443,-0.32830718,1.7397289,0.9039873,1.1326785,0.28103068,-0.1792827,1.092916,-0.3634328,0.16414648,-1.6546545,0.43256795,-2.1150742,-0.842775,-0.2256165,-1.060066,-2.0903025,1.627853,0.37892506,-1.1449486,-1.6030916,0.82970744,0.6112757,-0.24612895,0.27909246,0.8675492,-0.5399592,0.18552269,-0.7931801,-0.24579881,-1.3173127,0.4760574,-1.5857269,-0.3863522,-1.7022195,-1.5838559,0.45296562,-0.47305244,-0.93394446,1.2310386,0.93631166,0.007573649,-0.9666801,-0.33241725,-0.5437863,-0.39027515,-0.5647347,0.8945734,0.26700488,-0.7523144,-1.2170306,0.8653936,-0.48640254,-0.7752099,0.24827786,-0.088593595,0.527977,0.80096596,-0.19397911,-0.748761,-0.79910356,-2.1207612,2.0397937,1.2369107,0.044776287,-0.30488834,-1.794513,0.81860805,-1.2928538,-1.4222277,-1.1652774,0.45003295,0.54579854,-0.45409262,0.27649343,0.9451456,-0.029740458,1.1068999,1.5917405,0.04672727,2.1738741,-0.8488866,-2.151954,0.9318894,-0.2698034,1.7826109
CD22,0.121968456,-0.23123766,-0.685251,1.0663562,1.8635615,-1.2535673,0.18120188,0.79106504,0.8352056,-0.47749382,2.1057677,-1.5871031,-0.5905202,-1.0350956,1.7387336,-0.2345193,-1.1353813,0.19349808,0.714716,-0.45997423,-1.0299177,-0.74025565,-1.5009613,-0.39749628,-2.3097289,-1.3540374,0.71827954,1.1427566,-0.10983005,2.9094489,-0.2526363,-0.15228459,0.2745663,0.31517214,-1.233962,-0.94389707,1.304665,0.72180516,0.034823094,-1.2920979,0.45136583,-0.1656802,0.13760442,0.8713363,0.78467363,-0.07844643,0.52359533,-2.719658,0.8375783,-1.3794216,-0.80959255,-1.5696248,0.04063599,-0.040495846,1.3193439,-0.21651828,-0.26638573,0.65339416,-0.38537863,-0.09257236,0.12226587,1.7068607,0.5341132,1.2366762,-2.5874252,-2.0886188,-2.296357,-2.2681732,-0.9189745,0.6156565,-1.091384,-2.459702,1.6971822,0.660868,-0.45181343,-0.3070594,1.3661916,-1.4713838,2.5888498,-1.7963428,0.06794105,1.0748953,0.49792832,-0.02095431,0.5206488,0.8686152,-0.69588757,-0.12342911,0.69707245,2.878128,-0.4018555,-0.24190244,0.7567826,-0.59724104,0.26380602,-1.0620718,0.17227505,-0.77803767,0.092257075,-0.8890442,0.61977094,1.4232473,-1.0500802,1.1604679,1.5061476,-0.11804626,0.04370577,-1.112784,1.8658667,0.2772962,-1.1778924,1.6153256,0.5953409,-0.27611342,-0.9257635,1.7296461,2.0543203,1.4977989,-0.20578374,1.2870741,-0.3235496,0.93285275,0.6789652,-0.19262914,1.2386826,0.29112312,-0.52331626,-1.7111036,0.20787586,-1.4192218,1.7576331,0.659338,-1.5343024,1.1182399,-1.2810954,0.98421293,0.07246612,0.6406479,0.9316523,2.2336326,-1.0730438,-0.71248436,-0.10004879,1.3890389,1.12862,0.21587543,-0.6886565,-0.4385744,-0.23403884,1.0753751,1.6743789,1.5796586,1.3573698,1.3605778,0.5820324,-1.4070696,-0.21943125,-0.84631234,-0.91038865,-1.271919,-0.5504292,0.8880527,-0.27642712,0.5001482,-1.0096353,-1.4048698,-0.16189566,-0.58223873,-0.55500275,-0.2089797,-0.30062637,-0.3501588,1.4912366,-0.9080131,-0.3065645,0.7929815,-1.4077599,0.18759875,0.5686618,-1.2446434,-0.4013004,0.47862414,-1.0514431,-1.5979244,-0.40375304,0.70230824,-0.30619246,1.6442426,0.3395627,-2.2404358,-1.0037868,0.8130396,-1.3856659,0.18466759,-0.44335997,-0.8420759,-1.8667414,0.63672966,-0.3283622,-0.5887465,-1.3019912,-1.3465186,-1.117946,0.06524382,-0.5375872,-1.0779637,1.2513734,-1.5734171,-0.002340907,-1.047013,-0.69476545,-0.6902601,-0.4637029,0.9264293,-1.2335213,-1.1865453,1.1410909,0.13896869,0.0509722,-1.2649438,0.23801552,-0.57909244,-0.26177877,1.0309093,-0.06945226,0.08256419,0.66611433,-1.5865052,-0.0856589,-0.9482622,-0.14480779,-0.05976263,-0.10719016,0.7501139,0.7309329,-0.8467158,-0.79351586,-0.49253765,1.3507273,0.11282119,-0.13079046,-0.38819858,0.69070464,-0.6194576,0.6821893,-0.94318956,2.3513157,-1.1463593,0.032762125,-0.5227,2.166873,-0.0132599985,-0.19376798,-2.6874473,-1.1717049,-0.1160536,-0.044168435,0.1660214,0.20726612,-1.1233974,-0.017338801,0.082172684,0.23718905,0.90249836,0.8230498,-0.90402424,1.2287949,-2.1721401,-2.252195,0.47239,0.09970666,-1.1827768,1.0479769,0.6874262,0.645209,-0.56625974,-0.06878651,-1.1063005,-1.8166573,-1.3827384,-0.7123354,-1.8105559,0.23020938,-1.478022,-0.290242,1.2737535,-1.6972226,1.4672478,1.0455498,1.6685383,1.9262096,-0.64660937,-0.9541807,-0.7270036,-0.7154355,2.7470562,-0.42959443,0.7449351,-1.1307218,-0.15599486,-0.10662438,-0.109488584,-0.05677719,-0.67369163,1.031435,2.0365598,0.73555225,0.11412696,0.56254435,-0.4082633,-0.9063906,1.2629833,-0.35534,0.31750655,1.1495932,-0.45313063,2.0551453,2.4146383,1.0292271,0.096735604,0.61179674,0.1716781,0.8570033,0.8990041,-0.7324503,0.16715878,-0.77656955,1.0140587,0.20025705,-0.69520736,-0.36040944,0.6042548,0.17325103,-1.2680633,-4.4509835,0.680977,2.3503432,0.18337129,-1.7536852,0.82592946,-0.316265,0.8785499,0.019573247,-0.7256962,-1.2988282,-1.1975169,0.029701157,0.7395459,-1.4132727,-1.206127,0.004747211,0.03211338,-1.2002544,-0.9779057,1.58478,1.168068,-0.24857986,-0.10159029,-0.054003093,-1.2030625,-0.67654973,-0.46213698,-1.0784028,2.1970346,-0.07057334,0.86024374,0.9412061,3.0690007,-0.73071724,-1.3645307,-0.41913354,0.62855375,-0.054888994,-0.08215835,0.34208784,-1.0754977,0.97080964,1.0494078,-0.75363564,-1.0453309,0.5005339,1.1083255,0.5200625,0.1433783,0.51425713,-0.1264984,0.6663213,-0.61692744,-0.48854905,1.6070777,0.96363604,1.2691264,1.6863631,2.4623237,1.715669,-1.2305408,-0.7480911,-0.86479974,-0.8523046,1.9645538,1.8300111,-1.725148,0.5029872,-0.08550126,1.8797548,1.6031353,-1.0128424,1.202355,-0.9761229,0.97345763,-1.4093652,0.7443521,0.033768643,0.531724,-0.68645257,2.017079,-0.24947822,-0.60717267,0.06409157,-0.6076702,-0.099524,-0.2673263,1.1371245,-2.1226547,0.83953637,1.5058687,-0.5537835,-1.514821,0.27277786,1.0791732,-0.7328514,0.622468,0.79948604,-0.6730627,1.4060568,-1.2123625,2.0091555,-0.7336707,-0.13930866,0.59132034,-0.77999353,-1.5874476,0.040304564,-0.6770826,1.0719706,-0.813242,-0.3831735,-1.5179602,-0.25708354,-1.3818781,-0.6775676,-1.3361127,-0.16392879,1.343885,0.91992444,-0.68753886,0.25015783,0.8254186,-0.30281043,0.47280863,1.730379,-1.5433756,1.7021881,-1.1362036,-0.101318516,1.0296115,-1.0801606,0.09420682,0.1044637,-0.5823556,0.79837227,-0.5535604,0.11932561,0.9516066,-0.5643945,1.4465821,0.21971357,-0.9894619,1.8661517,-1.1575688,0.8750542,0.5772647,-0.25148717,-0.2301285,0.7747826,-0.13038802,-0.06159085,0.09819591,0.7742947,0.111386396,-0.7613946,1.1651422,1.5345043,2.1138701,-0.42442453,0.52242994,-1.1675967,0.7797684,1.4083788,1.2816148,-0.452583,-1.894959,0.9130442,-0.22667101,1.4861045,-1.8403414,0.1086088,1.9652542,1.3864546,-0.95890546,-0.6075483,-0.13919304
CD72,0.33190364,-1.146056,-2.3014424,-0.23902848,2.9950624,-0.42348835,-0.6801942,-0.6920932,1.2419605,-1.2124242,-0.16608731,-1.3335844,-0.31635064,-0.5764567,1.741853,1.4677861,-1.0782579,1.780012,-0.9517911,1.335961,-0.8164746,-0.27804846,1.7481712,1.3533683,0.36127138,-0.4528519,0.056398403,1.1125159,-0.14296342,1.0649476,-1.1063795,-0.7807548,0.6133832,-0.515325,-0.16247907,0.81983835,-0.9531124,-0.65094775,-2.22806,-1.5990314,0.6010737,-0.114479125,0.8619066,-1.7002379,-0.49757907,-0.61834586,0.3431392,-3.369216,-0.5980487,0.8360172,-0.5434454,-1.2585948,0.8308735,1.9477997,-0.7395552,-1.1190215,1.2278143,-0.6817015,1.0349096,-0.91568625,-1.4277427,2.3541422,-0.7219128,0.49278542,-1.5114129,-1.3249819,0.6516445,-1.3663148,1.0160809,1.3205233,-0.8840111,-2.2093737,0.30868706,1.342836,-1.0132728,-0.68569165,-0.7226417,0.59338576,2.1213293,-2.500832,-0.27182692,-0.7115228,-0.14539337,-0.54973626,1.3991166,0.55013037,-0.67758083,-0.5970341,1.053519,1.2698063,-0.9462801,-0.45011902,-1.2802868,-0.633518,-0.020396667,-1.6262916,0.7973437,-1.3066651,1.0677985,0.8530841,-0.71314377,1.9091216,-1.3137555,-0.6369531,0.2794287,-0.48434132,-0.8709063,1.4531786,1.4542269,-0.34692928,-0.8048063,-0.18386847,-0.52650267,0.3278832,-1.8176541,2.0876977,-0.5048589,0.14189541,-1.7550149,1.3751006,0.33338624,0.8953465,-0.6938739,0.513799,-0.49752313,-0.86575496,-0.30166852,-0.6691246,0.10489427,-0.48826745,0.19901013,-0.63769627,-1.2890968,-0.33894822,-2.0075932,-0.5439176,1.5188177,-1.0367943,0.6215433,1.0214665,1.3888657,-0.10599628,0.4597347,-0.4191933,0.6575017,0.80987036,1.0272671,-0.9739659,-0.051477484,0.2878377,-0.46923548,1.118048,-0.15817495,1.0079924,1.3891083,1.004291,-0.11576038,-0.5690212,-0.21196929,-0.42918202,0.20835243,-0.58186704,-0.57772994,0.10053945,0.9390857,-0.45829684,2.8393247,0.7960967,2.302465,0.81847066,-0.07805318,-0.18504255,1.1578215,-0.4126396,1.1333512,-1.4924313,-0.8429806,0.59118456,0.9384469,-1.7168921,0.78514236,0.94868284,0.67729974,0.38307175,1.3927733,0.30977267,2.4149098,-1.0917195,0.044139713,-2.5512815,-0.019332053,0.6037286,0.41163513,1.5221812,-2.9485376,1.9719496,-0.11448792,1.2765996,-1.4118344,0.42449766,-1.4210759,0.3797407,-2.5655463,0.5622369,-0.9363078,-0.07778711,0.47040817,-0.8883706,-1.5141934,-0.035145994,1.6783963,1.2101871,-0.0032303133,-0.7355703,0.17177354,0.3925782,1.5838588,0.045305323,0.12009057,0.37013742,-0.78951246,0.09585665,0.779733,0.97862375,-1.4576119,-0.07137874,0.87859994,-0.70049363,0.9793154,-0.041598976,1.8788669,-0.41915572,1.036957,-1.7067021,1.8165169,-0.3218947,-2.4579737,-0.9162062,2.5404952,0.29100394,-2.4459205,-1.7637386,0.5621668,1.4972888,0.74636173,0.5463987,-0.9442302,-1.0937154,-0.6607949,-2.4837778,1.232643,0.086189836,0.26763323,0.6799907,-1.2138627,1.0299872,-1.0894295,-0.8882121,0.42739582,-0.43715566,-1.4234676,1.8988414,0.5729847,0.31176385,-1.4295373,-0.5847564,0.117222816,0.2582464,0.62652934,-1.3012228,0.43340147,-0.31171405,2.0248299,0.31879628,-0.6950433,0.61754775,-0.4921928,-0.2547632,-1.2768866,-0.6343232,-0.99890715,-0.3585224,0.3856979,-0.342491,1.8010398,1.502822,0.76058906,-0.32167318,-0.40467373,0.8341038,0.9348717,0.1896382,0.7593475,1.3962373,1.2337543,0.32326525,-1.0982813,-0.23474671,0.55252784,1.1180111,-0.8644076,0.6408136,1.1582309,-1.0093505,0.90010095,-0.11962225,0.9683818,0.025298368,0.44663486,-0.33775127,0.5718757,-1.1205152,-0.4943608,2.4896822,-0.88665795,-0.9639257,0.1983716,1.1401713,-1.6474493,0.12111249,0.5551306,-1.0774322,1.0089394,-1.1073076,-1.1407943,1.4182633,-0.13660891,1.5877177,0.14473763,0.041453622,1.4076065,-0.4349441,-0.4867973,0.79571956,-2.6885679,-0.48262605,-0.41879404,-0.01634586,0.51083744,0.98670775,0.056084037,-0.6830384,0.54722977,0.40307197,-0.022586102,-2.1600819,-1.3167224,0.7962918,-0.5601101,-1.0753679,-0.36423913,1.9804255,1.532398,1.1820357,-1.2565145,1.2687987,0.12260015,0.3461189,-1.1577154,-1.0315648,-1.4627138,0.40987295,0.3719462,0.46667325,0.41388422,-0.28036004,-1.7382021,-0.14256223,1.2174854,-0.621162,-1.021169,-0.43534613,0.36548138,-1.6386939,1.1200163,0.27259028,1.6987242,0.444962,-0.7318285,-0.82415724,-0.59423536,0.38503993,-1.4676822,-1.5021816,-0.28327373,-0.031200916,-0.7480283,0.75180537,1.647445,1.8029903,-0.07912727,-0.6677347,-0.476865,0.6804747,-0.3389087,-1.1488386,0.8264041,-2.0271835,-0.7255004,1.9114218,0.14025559,-2.6654835,-1.6921312,0.7358264,-1.5044811,1.1508572,-0.4149884,-0.42299166,-0.61756915,-0.079692505,-2.472141,2.119303,0.6516408,0.743723,-0.12734646,2.2586255,1.1905667,1.3700889,0.5981679,-0.646218,0.78881794,0.32161286,-0.66383785,-1.9275777,2.2003016,-0.41040742,0.5483147,-0.79036295,-0.7657702,-0.81466806,-0.08996092,-1.3125623,-1.7245712,0.63461226,0.03634696,0.7245002,1.5930874,-0.08498971,-0.22050235,0.18091345,0.23170143,-0.7970344,-0.74754626,0.38972953,2.8298564,0.6677679,-0.46490434,-0.66915023,-1.1879896,-0.42838842,0.5917987,-0.29145637,-0.37250355,0.17516576,0.6112735,-0.7527308,-0.039278433,1.2993902,0.1502742,-1.1889185,1.5730253,-0.8957552,0.22456878,-2.4105551,1.408648,-0.7380181,-0.9211199,1.162737,-0.16389276,0.5106721,-1.3116118,-0.080334574,1.541676,1.2549042,-0.06983581,0.63347,-0.18873337,-0.32660797,0.22325295,-0.7897994,-0.2801022,0.09068139,-0.73578316,-1.3184906,1.9405676,0.5351665,-0.51283556,1.7807304,-0.35176495,-1.5673877,-0.086972415,-0.3704971,-0.1313398,1.657255,0.86858904,2.21024,0.92446214,1.6105968,1.4913307,-0.5653926,-0.24182686,-0.9848945,-0.3347543,1.0084765,0.34157127,0.21833065,-0.13448289,-0.0675613,0.45012605,0.55006915,1.1602664,-0.3790737
CLNS1A,0.50713015,-0.12620492,0.94193876,1.1861728,-0.53349096,1.1815703,0.10712257,-0.9316813,0.85970277,-0.9487188,-1.3484911,-1.2586355,1.1843485,-0.5462612,-0.5515003,-0.32016706,1.181361,0.016217252,0.9379687,-0.70875144,-0.77954096,-0.6544591,-1.749221,2.0637355,0.32633746,-0.5985966,1.8863255,0.64903104,-1.6303301,-2.015027,-0.30608636,1.5719591,0.6540229,-0.4678935,2.5016198,-0.6094026,1.3160602,-1.745738,-1.6400372,0.37408242,0.9217614,1.5641297,0.6854871,2.5339031,-1.4315001,-1.7935016,0.4095169,-2.2404845,0.28996286,0.46804103,-3.1932166,0.37886453,-2.3956711,-0.26225108,-1.4840112,-0.6093436,0.33026436,0.049847532,-1.4596545,-0.9843252,-0.5737251,-0.72213537,1.0979328,1.5913033,1.5497873,-0.55791056,-0.3335894,0.33132282,0.1911301,-0.54276776,1.6359919,1.9323403,1.0296389,1.7040809,0.56161326,0.11141318,0.55570513,-1.2128053,-0.5285205,-0.9050159,0.54189116,-0.13802975,-0.7659783,-0.8425928,0.014507251,1.5236653,-0.30811492,-0.35377064,-1.4489044,-0.6320199,-0.18903445,2.7073054,-0.96024203,-0.8267059,0.2167163,0.4980816,-1.2810111,0.72889405,0.8829938,-1.5698819,1.0860465,-0.86276126,0.43213922,-1.8724965,1.3388143,-0.28687346,-1.6449246,-0.4859492,-1.0016618,-0.5696755,-0.36222738,-1.3507185,0.13145332,0.9994959,1.4810327,0.34173927,-1.0783556,0.104878366,-0.4917851,1.0309217,0.21935974,1.3291827,1.7456148,-0.8764027,-1.141694,-0.38046825,1.2884259,-0.08248854,0.7340908,-0.67512846,0.38262823,1.2944404,-1.3477364,0.048014387,0.07215358,-1.625271,-0.8149028,-0.1748043,-0.83629787,-0.29115757,-0.9481618,0.48772052,-0.34981483,-1.2107853,0.7220845,-1.3521023,1.449668,1.1946253,1.1248956,-0.4253975,0.008711489,0.35580668,1.4180933,1.4958192,-0.12784176,0.11512043,-0.67097414,0.9973621,0.68229073,0.5300902,-1.0559092,-0.69206655,0.2419525,0.38365975,0.21201384,-1.4359069,1.344213,0.15553014,0.15030786,-0.6815272,0.8033691,-0.4276977,0.98927927,-0.26648813,0.20202771,-0.8913734,0.82603514,0.7435139,-0.19994389,-0.99014664,0.13692832,0.80354905,-0.11790062,0.3549943,0.06831535,3.1074877,-0.46018574,-1.5569729,1.266171,0.96666205,1.0085603,0.12926717,0.1456705,-1.5963264,0.30226454,-0.6224694,1.7903515,1.4767885,1.4164842,0.32374302,-0.1877365,0.7787991,0.17175391,0.4391133,-0.65129626,-1.2213166,-0.31713843,0.72103256,1.7595767,-0.76936674,0.2252894,-0.21998303,-1.1492609,0.19717431,0.7469873,-0.31664148,0.31849262,-0.151394,-1.151632,-0.69424707,-0.9798981,0.56824976,-2.6231594,0.36297622,0.2687636,0.85436296,-1.4772319,0.29346114,0.98724306,0.8465044,-1.2355555,0.43218726,-1.9649556,0.77921456,-0.025531802,-0.7849828,-0.81931937,-0.9588423,0.8046114,0.07766906,-0.6401735,-2.2976332,0.7402164,0.025556404,-2.7272503,0.8528491,0.09121186,-0.50156015,-0.50528544,1.1934817,0.41700512,1.8601294,0.21780631,-1.4977212,0.34369612,1.3046029,0.44990042,0.45481288,-0.8605453,-1.3409764,0.54087466,-0.40196094,0.0121760415,-1.0666144,-0.13261175,-0.257055,-1.2244954,0.73413116,1.9469843,0.61738515,0.6540157,-2.2706459,1.2798914,-1.5300342,-0.7621907,1.0388932,-1.7530433,1.5770313,-1.3556708,-1.4011686,-0.4137404,-0.6215335,-1.8389918,-0.17073692,-0.48275602,-1.5332085,0.08229669,-0.07350085,-0.98546165,-0.5899687,1.5770034,-0.7088398,-1.4045427,0.14005664,-1.2466453,-0.109112516,1.428681,0.10515067,1.5558931,-1.3592259,0.62450564,-1.0658956,-0.9993898,-0.5653839,1.2150251,1.1132264,-1.4333607,-1.4834622,-0.6038328,0.2342994,2.0290527,-2.3425605,-0.82834035,-0.48640758,1.2553596,-0.12838694,1.5681617,0.6325903,-0.32622543,1.239633,-0.13318357,-0.5167713,-1.6983554,-0.98478264,1.4863226,1.3581119,-1.2776806,-1.1458018,0.6620021,0.9483124,-0.20623158,1.503197,0.74985594,0.28954232,-2.9355087,1.4095949,-0.40364304,-1.1790028,2.695421,-0.0129100885,-0.04234866,-0.4211182,-1.6007578,-1.6169368,-0.5136169,0.5207325,-0.6123483,-0.6438026,1.1165136,-0.54274833,2.436877,1.660765,-0.6745423,-0.23443337,1.4658548,1.4879309,-0.093229465,0.124206364,-0.7580639,-0.46171147,2.2291398,2.008011,0.77460545,-1.0695866,0.09960979,1.3816972,0.9941563,0.20184112,-0.19980896,-0.18071763,-0.20057961,0.5964464,-0.06342603,-0.7842714,0.4479681,0.7514624,1.3789103,0.51259077,1.5169832,-2.4629998,1.6725999,-0.83279604,-1.2090776,0.99513304,-0.43466377,2.432573,1.3763405,-0.026574558,-1.2490004,-0.7982787,-0.47097838,1.3737476,-0.13070495,-0.4095957,0.42414087,2.283436,-0.24853545,0.75895077,-0.43089923,-0.0154811,0.5156147,-0.10127304,-0.25015905,0.38061425,3.2053323,-1.5595276,-1.0410182,-0.1880584,-0.71882755,-2.0544138,1.1155903,-0.49244955,1.451239,0.4331079,-0.43714222,-0.6085922,-1.2601814,1.8660426,1.7072823,-0.8030267,-0.40504682,1.2587801,-0.45859692,0.46323368,-1.1099719,0.5497865,0.70008034,1.9556867,-0.4438322,1.5414084,0.8196019,0.67224216,2.5574555,0.32437983,0.7425029,0.7380745,1.4439334,0.5533867,-0.7016086,0.25669277,1.5030882,-0.44164228,0.021444691,-1.425368,-1.5090235,-0.0073264004,-0.36347696,1.71969,0.67233664,0.31619757,-1.3362836,-0.779353,-0.09689935,1.0260491,-0.7516016,-0.9712163,-1.4316729,0.6477121,0.4068701,-1.7180992,1.400226,-0.06164339,0.10496187,-0.3663277,1.1822653,2.4370718,-1.3721889,-0.75759614,-0.8146571,-0.37759078,-1.3193426,0.11869085,-1.1386244,-1.1483072,1.1897026,-1.0840803,-0.088013664,0.03591214,0.6402158,1.7576957,0.89467114,1.7435368,-1.2466655,-1.2022058,-1.2669402,1.3823134,-0.18323004,-0.71448153,0.14443466,1.5145489,-2.517406,-0.20866932,-0.8176243,-1.4795557,-0.6522471,-0.8618175,0.26698592,-0.51700777,-0.5403986,0.98224264,-1.4856067,-0.7784133,-2.2511837,1.3270553,-0.42859274,-0.497394,0.02944698,2.8238513,-0.5123275,-0.60348517,0.09099617,1.2257252
CROT,-0.31453797,1.6693146,1.9682242,-1.1329625,0.4820792,-1.2992668,-0.48709145,-1.4404218,1.8789002,0.84760606,-1.4444765,1.7849237,1.1417667,-2.3283339,-2.0222204,0.9780441,-0.8196916,-0.0767223,-1.0923908,-1.2786489,-0.23719208,0.83131343,-0.74263585,-2.0751998,0.4709617,-0.18894523,-0.9314699,-1.6730868,1.0242131,-1.5895139,-1.0923796,0.5240071,-1.0052981,-0.40987268,0.16684873,-1.1517746,-0.7090336,-0.8613502,1.168719,-0.0022450907,1.6853129,-0.19204551,-1.5270015,-0.07859932,-0.74485147,1.7756228,0.28576857,-1.2615285,0.41470653,0.4050464,-1.0354728,-1.23804,-0.6886625,-0.8451118,0.728656,-1.1183697,-1.2090076,0.705951,-0.5517486,0.5603373,-1.1486992,-1.9093939,0.76209384,1.1574708,1.05668,-0.03756233,1.3523322,0.28491762,-0.7939633,1.0432707,0.43692145,-0.39910972,0.12476738,-0.6654826,-0.15067117,-0.19916725,0.9961074,-0.54850703,-1.4347088,2.177797,1.1563846,-0.9227187,0.38977253,1.964238,-0.46001515,1.1857934,0.2871922,1.3658623,-0.726168,-0.23213078,0.10435991,0.5301288,-0.5980143,0.91094035,1.3501966,-1.3815491,-0.28612235,-0.10181853,0.47610182,-1.1591438,1.4828848,-0.5127537,1.1021369,0.22304632,-0.8733158,-1.021525,-0.7207721,-1.2430652,1.3372997,1.0032275,0.6258176,0.11800349,-0.73951066,0.50808674,1.6863837,1.491298,1.3367689,-1.0733547,2.008265,-1.3586434,0.5547884,-0.0124783395,-1.974727,-0.29405543,1.9095746,1.3902546,-0.5432435,0.6270497,0.86741835,-0.28024942,-1.6131725,1.5563775,1.1575106,0.6732063,-0.3120774,1.6007,-0.6085271,-0.30166903,1.8608953,0.22967885,1.1759834,-0.9634129,-0.044014204,0.77547306,0.20289782,1.2702527,-0.68758255,0.49289036,2.1381114,0.5539457,1.4485829,0.29750028,0.19640037,1.7795554,0.83897084,1.0081326,-0.83081704,0.444669,0.8932257,-1.7062804,-0.13259983,-1.0466312,1.5508174,-1.9428769,0.4672353,0.23804606,1.2341108,-0.83286214,-0.18117577,-2.6107588,-2.203095,2.0416162,-0.668647,-1.5562289,1.4636545,0.33761927,0.2243521,0.6024387,0.5916999,0.8675847,1.5155244,-1.8426615,-1.104989,-0.09261681,0.6841201,0.3353454,0.58995676,-1.7210366,-0.51048946,-0.81439674,-0.5110982,0.37946442,0.06802106,-1.0801294,0.820422,-1.3101532,1.0065001,-0.13121882,-0.800264,-0.025865745,-1.6292317,0.38982695,-0.5874115,-1.6520846,1.9471253,1.4292758,0.87821496,0.67288095,-1.1856995,0.85952455,-2.298924,-1.1554285,-0.061381567,0.16423902,1.304428,0.08853417,-0.8716334,1.4417816,1.8112203,-0.9399031,0.8207674,-0.5986312,-1.1528802,1.7317394,-0.8694319,-1.859717,-0.7648947,0.54385346,0.6527009,-0.74027276,1.1504312,-1.0733839,-0.37325493,0.9528638,-0.17000233,-1.5769678,-0.1977619,-0.003159792,-1.4394289,0.32423738,0.5828925,1.5141057,-1.7624342,-1.1789594,-0.7528615,-1.5726036,1.5354247,-0.11791052,0.07936076,2.1437905,1.2953886,0.683982,0.48109463,0.49704376,1.000533,0.41706172,-0.95146537,-0.4778516,-0.72737586,2.159053,1.809762,-1.1490008,0.3249032,1.041175,1.8071117,2.11165,0.832275,-1.1016183,-1.9117599,-0.9506089,0.39651346,1.435246,-1.2243888,0.14584723,0.59960014,0.1856923,1.2187793,0.58857834,1.3644586,0.2844108,-0.8136339,1.1060443,1.3373524,-0.5286437,-0.3543518,-1.3447976,-1.3494778,1.2759162,0.5143909,-0.23583767,-0.8525247,-0.14832096,-0.736573,1.2797269,-0.732456,-0.32064322,-0.3697908,0.24516805,-0.5831487,-1.7231145,-1.0605096,0.21009696,0.12156936,1.2610061,-0.85634744,1.4499694,0.14764,0.18205953,0.12434145,0.5778663,-1.8104438,-1.0199175,1.4059932,-1.9387867,0.4417498,-0.74639505,0.93276864,-0.26964542,-0.5408218,-0.5299195,0.038623568,-0.35972676,-1.4837912,-0.19230062,1.3967497,-1.8688036,-0.92561305,1.0280727,0.5501165,0.11361075,-1.321236,-1.7322763,-1.3512926,-1.3824767,1.1530458,1.3819425,0.84018004,-0.24533391,0.6221604,-0.37716356,-1.7095953,0.47408307,-1.3071977,-0.08204512,1.7405354,0.7697018,-0.1322978,0.37823802,1.4595464,1.0983936,1.5272989,0.28771895,-1.3625383,-0.42674044,-1.9517251,-0.98626316,-1.105624,0.37647736,-1.2822553,1.1745856,0.6329737,-0.6757962,1.499848,2.0847042,1.2907811,-0.35167876,-1.1998643,0.178888,1.1404086,-0.39338815,-0.5504113,0.0907583,-0.7898143,1.1148629,1.5995624,0.04177999,-0.55329454,-0.4732768,0.35985732,1.1144286,0.2735653,0.28010193,-1.6018294,-1.5203003,0.46000916,1.5728525,-0.8288623,0.036412235,1.6252091,-1.5538319,-1.3403587,-0.31052524,-0.037415247,1.1521937,-1.5444959,-1.0099614,0.6725314,-0.3030685,-2.2666705,0.18043524,-0.14768395,0.9323039,1.0882092,-1.2545605,-1.1611731,-1.1138604,1.5729403,-0.6816305,0.21980356,-1.7001666,-0.7302996,1.451069,-1.2248853,-1.0041469,-0.426136,0.81932074,0.82898897,0.009743281,0.5280393,1.1918865,0.40699294,-0.021518093,0.24371089,0.31563193,0.17832752,-1.2853024,-0.21772335,-0.23321506,-1.5136561,1.352582,0.05075035,0.9246904,-0.011307842,-0.82899433,-0.870648,-0.32594335,-0.041225825,0.5945618,-0.6919054,-0.91468316,-0.6700385,-2.127153,1.5808375,0.5987199,-0.85515606,0.8547611,-0.23815484,0.52801406,0.09286006,-0.25840917,-0.89948547,-0.60132414,-0.71404564,0.025408963,0.93824196,0.8993428,0.9236613,2.3894029,-0.038347185,-1.0304433,-2.2455413,-0.76170313,-1.1883669,1.6831155,1.144843,0.8840681,1.8540462,1.5601758,-1.9785191,2.6879964,0.56676525,1.25409,0.15778731,0.39959398,-0.4496114,-0.17721054,0.95645404,-0.27647197,-0.02263114,-0.39764488,2.0531397,-0.37694144,0.0114046885,0.20669328,0.2585696,1.1611059,0.5593481,-1.1234215,-0.09773576,-0.8381687,-0.3423545,-0.1449469,-0.7711379,-1.7531887,0.58874595,0.5036948,-0.38401526,0.7715261,-0.15615232,0.40427417,0.3616355,-0.02681289,1.203875,-0.86055964,0.9872262,0.22432493,-0.8833152,-0.5463242,-0.0050407555,-0.31205976,-0.41907778,-1.7051878
CSTA,-0.5376892,0.36935863,-0.24714746,0.33430687,1.0519774,0.2824741,-0.09401905,0.2556596,-0.49860996,-0.49576688,0.8451314,-2.0434952,-0.690122,-0.07324566,-1.2697426,1.7199719,0.07589742,0.7553759,0.07599151,1.0680106,0.9155311,-0.047188,0.73201954,1.0327718,1.5969772,0.39425668,-1.0629613,0.31718653,-2.7506251,0.28823435,-0.79003936,-0.5338392,2.3237064,0.6828665,1.1444227,-1.6470085,1.0071865,0.23360965,-0.27570146,0.33527315,-0.6147468,-1.1093034,-0.11521828,1.1347435,0.24970683,-1.2854673,-0.7807247,-0.3399072,-0.9059739,-0.7894002,-0.9108289,-0.20773931,0.18508436,2.155772,-1.0509555,0.2796612,-1.7043613,-0.54483294,1.4685991,0.10907397,-0.02599105,-1.5615529,-0.59406924,1.2284311,-0.15609981,1.4149476,1.157964,-0.85102004,-0.4326524,0.20844434,-0.8645002,-0.11544246,0.78097534,0.08511876,-0.4191797,1.6112632,0.18554857,-0.62824315,-0.11145123,1.5820335,-0.6299252,-0.64833546,-1.273201,-1.8464831,1.0663428,0.9635648,-1.6997101,-0.65487814,0.39706963,0.15145111,0.87683797,0.91627824,-0.53527075,0.4376583,0.19021204,0.05194599,1.8250332,0.2648172,2.709667,-0.36622608,-1.4406438,0.25054002,-2.4156377,-0.9546904,-1.0040419,-0.23897445,-1.2760189,0.99290675,0.34964973,-0.6953773,-1.2931569,-1.3211658,1.3269873,-0.9395769,1.4316247,0.6083873,0.38492307,1.2359792,-1.1072417,-1.3543348,0.9202213,0.5975756,0.56303155,2.0219429,-1.9143333,0.95927894,0.86563706,0.43284294,0.52527493,-0.11334295,-0.15070665,1.6624585,0.948898,0.09856246,-0.9414952,-1.7762727,-0.4161792,0.044777606,-1.615704,1.2029585,-1.1280756,-0.020279337,-1.2982018,0.17969495,0.98354125,-0.023525657,0.14464976,-0.3237927,0.40148145,-1.2737828,-0.72502553,1.3558849,-1.2365961,2.0381098,1.3991799,-0.9735478,0.5582638,-0.21485823,-0.2088783,0.4654326,0.9972889,-0.804977,-0.9215959,-2.382112,0.27997148,-0.445414,0.20982294,-0.4678315,0.288156,-0.39876878,0.116102666,-0.17085963,0.2003066,-0.85874146,0.85594356,0.30207425,0.04190372,-1.429602,0.34236744,-0.24762787,-0.45561814,-0.5503081,0.55901575,-0.7564371,-0.571328,0.18010777,1.0537359,1.6780716,-1.479971,0.7064634,0.8917242,0.09229886,-1.4328473,-0.7371651,0.8239245,-1.5504193,0.66737485,-0.041249286,0.9452308,1.4774278,-0.68731505,1.3263777,0.9248615,0.88213223,-0.56549335,-0.7530941,0.13435513,1.1891773,0.7385564,-0.5716462,0.74561346,-1.3519415,-1.2555834,-0.32369247,-0.8487771,1.2586955,0.72088885,1.4351307,1.9700423,-1.5959162,0.23545149,1.1932863,1.027214,-0.030223973,1.0366136,1.1354233,0.99796325,2.2363496,-1.5834461,0.106369205,-3.3950891,-1.4411249,-0.4264235,-1.6688749,-0.67464083,1.2792164,0.88326824,-1.2535337,-1.712256,1.2718558,-2.000117,-1.1448028,-0.53483474,0.64484733,-0.8832614,0.88934547,-0.36793038,0.41721457,1.2234045,-2.1014144,-0.10695469,-2.0088625,0.87629783,0.9698169,0.80250794,-0.1830585,0.20977993,-0.1204408,0.10502033,0.42213482,1.4552422,0.7306374,-1.5117669,0.60646814,-1.2593104,0.6371803,1.2796928,0.4286083,-0.93748385,1.5093775,-0.11011513,-0.8039527,0.13524707,0.54263175,-0.023937063,-1.0604016,0.8960756,0.27543664,-2.1899672,-0.90162766,-0.98081535,0.75189847,0.9658119,0.71508044,-0.23290814,0.24934965,1.619545,-0.5356711,0.95498896,1.909384,0.21229702,-1.8258263,-0.4157136,0.75343776,1.3736918,1.1353233,-0.13611966,-2.15151,1.9216511,-1.1873704,0.31493905,-0.30083072,-1.2996306,-0.6721225,-0.3494267,-0.90889573,-1.0939772,0.49372888,0.28691173,0.94692653,2.619789,-2.1489058,-0.38449618,0.16737248,0.38788182,-0.67988086,0.9277367,-0.16866806,0.7702081,-0.24363166,1.460088,-0.20444432,1.1872003,1.5597537,-2.0247834,-0.5439464,0.8725667,0.6823527,-1.279632,0.46305588,-1.0393597,-1.4606304,-0.09734194,1.8468708,0.26071697,-1.5330006,0.39283618,-0.073541306,0.7812757,0.42323542,1.9716287,-0.19940658,-0.28371316,-0.25569868,-1.0633465,-1.706216,0.93344504,0.47318628,0.09856119,-0.48462692,-2.3109076,-1.1634567,-0.055226386,0.29996893,1.8075539,0.3964084,-1.2698653,0.2579111,1.3641957,1.1011348,-0.052228797,-2.437257,-0.21689065,-1.6102115,-1.5307717,1.2786204,1.03607,-1.3020948,1.8033364,0.5923769,0.7794777,0.29404995,0.78363645,-1.101183,-0.5517072,-0.15780054,0.9681069,0.40214035,-0.6252787,-0.88630205,-0.10551098,-0.9738744,-0.07174118,0.4757477,-1.4542059,-1.3124789,-0.5799796,-1.850922,-0.60680705,0.031037092,-0.7784118,-0.16857092,1.5724236,1.7311931,0.36158952,2.1346848,0.7795839,-1.3724313,0.38160014,-1.7542013,0.111956395,-1.7872945,-0.53695154,-0.31004927,-0.735981,-0.5139474,-1.596173,-0.043891985,-0.16680868,-0.49259672,-0.59201103,-0.8811706,-0.8571019,2.279576,-0.5782792,-0.11657267,-1.5995587,1.3155756,0.2522661,-0.9961124,-1.1478715,-0.565808,-1.5383921,1.586353,0.38925332,-0.2538815,0.46552506,-1.1524163,0.73865956,-0.35818842,-0.2172366,-1.7322139,0.4962092,-0.8641668,0.78967124,-0.7035798,0.3965042,-0.6984938,1.346762,1.1436923,-0.76959646,-0.5013549,-2.1360807,-0.46823674,-1.0879066,-1.5761192,-1.9254491,0.13003816,-0.24598764,1.0572013,0.9961811,-0.8779066,0.6968846,-0.27852193,-0.6622749,0.18150073,1.2239119,2.070122,-1.2063633,-0.81219655,1.0078275,1.0935649,-0.6113018,0.15065113,1.349546,0.53721917,-0.9017304,1.5986592,0.3735695,1.2454416,1.4885517,0.24009855,-1.2541319,-2.2781663,-0.6092266,0.36213315,0.47193608,1.4351536,2.3267174,-0.4820758,0.69355744,-0.31636244,1.2060679,-0.50146407,-0.7826728,-1.9181483,0.63108814,2.177312,0.98261416,1.4564999,1.2542639,1.0865053,2.0902383,0.6644565,-0.32506463,1.6758311,-1.1718,0.4563286,0.35339057,-0.4472589,0.8130006,0.9235666,0.7836692,2.8332667,-3.0268242,-1.0656356,0.17814559,0.8883911,-2.4581058,-0.9170433,-0.2138987,3.9019103
CXCL10,-0.34390467,0.8980806,-2.0674574,-0.44419816,-0.43096188,0.63243574,-1.2791463,0.1593416,0.82765156,-0.8140962,-0.6020379,-0.8173354,-0.118561655,-2.5179927,-0.9140459,-1.1008524,1.2987394,-0.902483,0.05992191,0.9782547,0.18795167,-1.1472856,0.029061887,-0.8823071,1.3014574,0.6200872,0.23894614,1.1063453,-0.06908808,-1.5726262,0.63278395,-1.2982818,-1.4070637,0.169312,0.73845476,0.42971322,1.4530133,1.3664508,-0.959963,-0.12268829,0.075163804,-0.022855602,-1.2704221,0.7999267,-1.0446903,-1.2070786,0.16557162,1.3394651,2.214255,0.26618493,-0.17236926,-0.59853536,0.76073325,1.9126091,-0.00959349,0.47741032,-0.35525292,-0.58906615,0.14783578,-0.80008924,0.028989093,1.6455343,-1.8402852,-0.84580386,-1.4751168,-0.26384994,0.54642904,-0.58126354,0.29107788,2.4765315,0.43870926,-1.2477028,1.7006829,-0.037656758,1.7812407,-1.8222479,0.14192832,0.12036393,0.81412107,0.24977383,1.4634537,-0.22011003,-1.0934083,0.98304635,-0.7259861,0.30110404,0.05435015,1.5077682,0.92164874,0.9334379,-1.5482157,0.5857237,-0.351549,0.7901943,1.4747856,-1.5103704,-0.670772,-1.872818,2.205316,-0.13417321,0.07434619,0.5070712,0.14922202,1.1559879,0.5186161,1.0800102,-0.62533224,-0.9347544,1.0077477,0.22708516,0.8960973,0.16974339,-0.025178162,0.19571476,-0.23836134,-0.47608352,-0.4023189,1.4673384,2.8543377,-1.247745,0.21520388,1.7229767,2.2994516,0.42459208,-0.17121875,0.64735234,-0.59191,0.60893726,-0.27143437,1.0669477,0.90215147,0.86932707,-0.6752541,0.032854732,-2.6512048,-0.48311216,-0.44038212,-0.6133419,-0.038282152,0.15401313,-1.2173544,0.12959138,-1.0889975,-0.09976608,-1.2256765,0.53490716,-1.2106701,-2.175208,0.78533214,-0.06333553,-0.26142436,-1.729446,-0.7938887,0.15313032,0.22926037,0.8229229,-0.8479304,-0.65357536,-0.34617493,-1.0734507,-0.46712464,0.2910921,-0.5322908,0.2524214,1.3598994,1.3554422,0.4287907,-1.6074282,-1.1948586,2.5422184,0.23159406,-1.0774579,-0.08185453,0.61369187,0.51895183,-0.5681346,-0.31941333,-0.55214185,1.3432649,-1.3315682,1.388636,-1.7198771,0.5232671,0.51813924,-1.5870245,-1.757771,-1.7813607,-1.7289114,-0.64601904,-0.61992097,0.4700881,0.94990176,-1.237018,1.4669194,-1.3180144,2.0502536,0.34173715,-0.39362183,2.471482,1.2227455,-1.1463605,-0.56797904,-1.254756,-0.4605822,0.77212137,-1.7896763,-1.1296393,0.7236122,0.5606604,-1.1458585,0.4712862,0.067055926,0.09864853,-0.45190838,0.2022655,-2.1581187,0.9135739,0.5978251,-2.376843,0.6028312,-1.2348019,1.3777174,1.1698288,-0.61717385,-0.5800239,1.0222614,0.7127595,-0.5248765,-1.9909997,-0.13995184,0.41334727,0.9433386,-0.33432382,-1.2724891,-0.67002535,0.59887713,-2.1137958,1.4208205,-1.7816447,-0.11347012,0.3501897,-1.6644878,-1.2290125,1.8184776,1.1438578,-0.27498,0.4364873,1.4048533,-1.6436088,-0.16113015,-0.8532765,0.41379267,1.2913243,1.4708884,0.106006905,-2.0729756,-1.2840723,-1.3778127,0.18351571,2.6673422,-1.9289284,1.2960545,-0.21531141,1.0677199,0.08970559,0.20443311,-0.5657056,1.2479693,-1.4982166,1.0092661,0.56454104,-1.1061159,1.8976705,-0.11300414,-0.7668528,-1.5239526,0.42252558,-0.6747501,-1.372683,0.15918368,0.81714505,1.2190099,-0.18743378,-0.43486425,-0.30275396,0.20185201,-0.2718202,1.5265853,0.78578424,-1.2792276,0.9395669,1.0755178,-0.2914398,-0.4543796,-0.5175287,1.5461792,-2.2737064,-0.9568316,1.0021474,0.29703853,-1.2988997,-0.5025142,-0.35436046,-0.8303532,-1.8191208,1.5256414,0.54506636,-0.65120566,1.2504281,0.2663897,1.2798889,3.2203975,-0.3893674,0.699569,-0.872443,-0.17958075,1.675328,-1.9012479,0.418508,1.2408344,2.8419304,-0.71173847,1.4162122,0.22872156,1.1230369,1.8513007,1.2858406,-0.8382143,-0.096730016,0.26633075,-0.65350837,-1.1720045,-1.1743056,1.1775103,0.3723282,-2.3563626,-2.3587036,-1.2473915,-0.32740292,1.100988,-0.039307423,0.18502943,1.5031188,-0.81041735,-1.0996407,0.54540634,1.021555,0.57031673,1.4454252,1.5643146,-1.8430375,-1.5601217,-1.2030506,0.696524,0.29144874,-0.2025132,-0.9621702,-1.4808264,1.0281564,-0.69739974,-2.0402038,-1.1358764,0.56405383,-1.8722708,0.8462872,0.41340137,0.49176148,0.11030193,1.0770223,-1.8042794,2.9450166,1.7215209,0.4390751,0.49899673,0.3681234,-0.021758173,-0.058076598,-0.81298846,-0.8073352,-1.152636,-2.2462854,1.4783967,-0.17204674,-0.34174576,1.2788976,-0.96802676,-1.1170986,-0.24832098,0.9486365,1.1124003,-1.2042072,-0.800878,1.9130583,0.54846907,1.0972034,0.08574132,-1.7882044,-0.8005281,-0.59822726,-1.5937428,2.3152006,-0.21307907,2.4958732,1.0274506,0.6281113,0.76686263,0.6672752,0.57650626,-0.8472696,-1.3412662,-0.7151067,-0.81859225,0.6175438,0.35473484,-1.0073391,-0.38261276,-0.6320328,1.7099354,0.92155063,1.5240026,0.2210986,-0.10342748,0.29876247,-1.2593025,0.5861489,0.007586004,-0.107741795,-0.8817202,1.6393987,0.47032964,0.61877525,0.27427682,-1.1747174,-0.6499933,1.0248107,0.09999468,0.7393275,-0.15372804,0.312018,0.7262425,0.35761586,-1.3808119,-0.33365938,-0.52232295,-0.45602793,0.6222113,0.38199037,0.02948012,-0.5520607,-0.19810207,-0.41442356,0.9880714,-1.5692501,0.9311093,0.39231378,0.9219189,-0.30139422,1.3700283,-0.15836957,-0.9197512,0.80571514,-1.5712427,1.2931147,-0.70406675,0.1217038,0.2316939,0.87639314,1.7445133,-0.54569775,-0.3394336,1.3075174,-0.02280819,0.6500109,0.8886267,-0.6116582,1.4097978,-1.2177724,0.48566303,-0.53426665,0.79118896,-0.1330857,0.1085639,-0.10590261,-1.4348066,-1.0358773,0.25087294,0.80459577,-0.5800257,0.5721239,-0.35006225,0.7651773,-0.5801733,1.8723835,-0.6184974,0.81080335,0.4677547,-0.012290123,0.4947699,1.6914017,-2.1856244,-0.06630183,-1.5220844,-0.115512446,0.15680695,-1.034186,1.3530663,0.16914853,-0.9690076,0.8531719,-1.2778143,-0.6743648,1.591358
CXCL11,-1.0248027,0.48392108,-0.79396206,-0.70733356,-1.0757984,-0.07326206,-0.4907865,0.8153761,0.20777157,1.0610092,-1.4817264,0.5530753,0.5673083,-0.8737701,0.7254212,-1.9964029,-0.18371853,-1.921964,-0.8303912,0.2798909,-1.2385551,1.4732829,-0.78240544,-0.7255037,-0.24734001,1.4719179,0.97383267,-0.70733714,-1.1495652,-0.93304443,-2.6708658,1.649152,-0.46337825,0.26055115,0.67702013,0.46546534,0.110581234,1.83891,0.41353574,1.527712,0.7628144,-0.9841255,-1.4575732,-0.44112083,-0.4370124,-1.3599042,0.46454778,0.6455555,-0.123451956,1.1607981,-0.23974948,0.1710531,-1.1604575,1.6540468,1.0367695,0.8122291,0.23452984,0.21021593,1.0459058,1.2967854,-0.50075793,-0.27043858,-0.8195729,-1.1935295,-0.88446456,-0.036096342,1.0323728,1.1567097,0.23184015,0.4300982,0.77577907,-0.654797,-0.05909838,0.21021634,1.794296,-0.9092818,0.6434989,-1.0492293,2.1099842,-1.5305402,0.71855175,1.0397525,0.84795874,1.099217,-2.3957725,-0.059573047,0.8105046,0.4405467,0.39989918,-0.27084118,-0.27289858,-1.4409062,-1.4701834,-0.1481116,0.4916585,-1.0968546,-0.37168595,-0.77124476,-0.85562986,0.1684175,0.60062927,-1.0315433,1.2057369,-0.024429005,-0.10153214,-0.72958887,0.11161778,-1.2136718,0.4983071,0.9297089,1.310711,0.7255981,-0.6323632,-1.8082561,-1.3438572,-2.0476885,-0.361447,-0.50747824,0.82429856,-1.6736798,1.2195151,0.43949798,1.1418191,1.7003632,1.5163949,0.108472355,1.2537957,-0.9831909,-0.6951905,1.2667704,-1.4259835,1.7951256,0.47083518,1.4045911,-0.18693154,1.0444493,0.24755692,-1.2828372,0.49919483,0.5168477,0.22151305,-0.91946185,0.577169,-0.026267022,-0.5891567,1.70407,-0.38659045,0.19327582,1.5881724,-1.5526013,1.0531073,0.5712612,-0.37928057,-1.3084047,0.9162929,-1.6262405,1.6140842,-1.2534791,0.111067116,-1.3339696,-0.8126301,0.6624591,-1.8063432,0.14259426,1.04735,2.4207442,0.1137819,0.33496863,-1.4904289,0.7693932,0.25771558,-0.38946953,0.43535617,-1.2665365,1.1328954,1.2754197,-1.6288553,-0.9987703,-0.29222482,1.4604554,1.3830752,-1.6922879,0.5016007,-0.48509297,-1.611596,-0.91753274,0.5419766,-0.20559299,0.5762015,0.8485923,0.6617296,0.5576484,0.56477255,1.5828323,-1.087277,1.0668048,-2.2402644,-0.80729246,-0.053235967,-0.5263899,-0.9537526,0.21871741,0.5280407,0.9589024,0.35794404,0.31784177,0.95703673,0.77026194,-0.91900295,-0.10007768,-0.9154616,-1.1053748,0.74286574,-0.13790765,1.1713102,-0.25525057,0.49345595,-0.45100036,-0.3221317,0.6351848,-0.439334,-1.2816662,0.5575714,0.5905816,-1.2715905,-1.1799221,1.0491301,0.31326732,-1.3459584,0.41819754,-0.61843455,-1.7467438,-1.0558771,-0.25135317,0.14382446,-0.80465645,-1.6183336,1.0698436,-0.0364409,-0.10701454,0.3702128,-2.4235852,-0.28077868,2.256114,1.8759917,-1.2435484,-1.1563002,-1.1705967,-1.4732417,1.3366532,1.6758642,-0.2648258,-0.9220277,1.1755673,1.0549191,0.97872674,-0.34961495,-0.8789647,0.24777888,1.4172066,-1.8930215,1.0424163,-1.7303059,-0.92924327,-0.03859455,1.5091889,0.18256909,1.1330585,-1.4249803,-1.362295,-1.1147215,-0.63209635,-0.32028154,1.6144061,-0.4109845,-1.0554763,-0.6574818,-3.0855,1.7465323,-1.1643412,-0.28979543,-0.96796066,-0.86482155,-1.7816122,1.3730648,-1.219522,-1.7622955,0.07691513,-1.2334771,-0.85562617,0.19874866,1.3894153,0.44289818,0.068536855,-0.9818746,-0.9537371,1.378677,-1.0527009,-0.046073858,-0.8209857,0.9312326,-0.76262987,-0.36454156,0.8249345,-0.39185467,-0.17345396,-1.3481673,1.3754739,-0.58821774,1.4600043,0.96334857,2.4806097,0.01950107,-0.40649158,0.8718419,0.48170057,0.4940893,-1.3555558,1.0020262,1.1910793,0.8928213,-0.8499156,0.7226458,1.4709387,1.2745332,-1.6388857,0.024585502,0.5052536,1.8225036,0.3350999,1.4833713,-0.08032529,-0.062233023,-0.6583629,-1.2606373,0.9943392,-0.9699021,-0.03655389,-2.2337809,1.449798,1.9266174,0.9321045,1.2626607,0.69521165,-1.6730947,0.41658038,1.0261906,-1.11228,-0.37948442,-0.33534878,-0.29860282,-0.5386303,-0.13041823,0.8394235,-0.9714416,-0.11259852,0.4912077,0.3323663,0.5193499,-0.5008616,0.48849797,-0.363509,0.20023279,-0.82901347,-0.009287669,-1.4598781,0.11395193,1.6955072,-0.4297796,0.66026527,2.2123635,-0.82014877,-0.9773113,2.234209,-1.351454,0.554043,0.97133625,0.46258354,-1.1695704,0.09669465,0.6071912,0.6028468,1.7219948,-1.1643795,-0.3338134,0.554284,-0.888152,-0.31686017,-1.4343313,0.93641394,1.3042792,1.8130282,1.5117985,1.9204762,1.4211059,-0.9990106,0.011702938,0.7807995,-0.67356926,0.6050876,1.7587974,-1.4992199,-0.19788992,-0.37877172,1.3196856,-0.78384435,-0.7896678,-1.3558937,1.1986399,0.9196117,0.20594811,-2.305978,-0.38484472,0.65122265,-0.75331306,-1.6930463,1.1025256,1.0257033,-0.68514246,0.6454624,0.7506,-1.6121686,0.7801396,-1.0077529,0.69487447,0.99102485,-1.2566642,1.0167052,1.2244471,1.7753128,-1.4078209,1.4296309,1.1343435,0.49546474,-0.7075583,1.680916,-1.3657026,0.8821773,1.5676696,0.27835307,-1.3294994,0.7540271,-1.6436439,1.5294825,-0.9382418,1.2034312,1.4134505,0.9554715,-0.68515986,-1.2617046,-0.7154268,-0.3523081,-0.85919785,-1.3968813,-0.9309206,1.1851445,-0.6449756,1.3568226,-0.529567,1.314823,-0.25828072,1.0631114,2.1019373,0.32726088,0.41155457,-0.8840045,-0.13775398,1.7660383,-1.0017052,-0.48827744,1.9916707,-0.48618984,0.10062962,1.5023458,-0.6952761,-0.21231061,1.01171,-0.61138624,-0.37300277,-0.40287092,-2.0870173,-1.7674749,1.350388,-0.9794525,0.98519075,1.6193979,-0.3234416,-0.38185796,0.13555248,0.12169906,-1.3663473,0.7021613,0.49497205,1.3415558,0.3147479,0.11909689,-1.4701473,-1.6269923,0.44341263,-2.2238293,0.9986358,-0.9396166,-1.7961109,1.0970861,-0.45318133,-0.31215376,-0.41902405,-0.6449821,0.07522947,-0.36469433,1.1835024,-0.9893077
CYP4Z1,-0.8766265,1.3259389,1.0860943,1.578735,1.0762134,-0.8704767,1.2649364,0.45316616,1.2201428,0.21719904,0.061895065,1.420277,-0.64860195,-1.7101223,0.3156363,0.50343406,1.0129511,1.3672035,-0.9853185,0.8931762,-1.5257186,-1.6415265,0.29984707,1.4304749,0.5141942,1.3488034,2.1038535,1.111236,-1.7477095,1.4872881,-1.4933115,1.7753812,0.66991067,0.5108335,-0.40809378,0.68045336,-0.5419968,-1.2005692,0.40196383,0.6949536,-1.1300348,-0.52840847,-0.5496944,-1.367507,1.6138347,1.0876871,-0.57171285,0.45785245,1.2593936,-1.155678,-0.18250945,1.5763128,0.47284418,1.1291825,1.7688831,1.3144536,-1.5645189,0.76770025,0.327234,1.0755402,0.60465586,1.8244317,0.90245897,-0.29195467,-0.16785812,0.3228902,-1.3077078,-0.13652003,1.8954219,-1.9742563,-0.4440365,0.64979136,-0.19503185,-0.88641423,-0.2445135,-1.1547685,-0.25874394,1.4405664,1.1904238,-0.86847913,-1.2865599,-0.6088194,-1.1079568,0.047959164,0.06230789,-1.9022849,1.6008852,-0.7999063,-1.8050894,-1.5474637,0.6008184,-1.0307679,-0.077922665,0.61269194,-1.7366738,-1.7390894,-0.5747201,-2.1667538,-0.31347093,-0.14511248,1.5382547,-0.33472493,1.7668626,1.9962413,-1.0437675,0.97352755,0.8325946,-0.8591095,0.13324422,0.775698,-0.9538455,-1.2069303,-1.7293754,-0.5222352,0.8523536,1.6229638,1.3637841,-1.5241461,1.5661458,1.7185742,-0.42612824,0.467216,-0.71989477,0.60039395,1.1342249,-0.48966098,1.1518499,-0.48332423,0.40848398,-0.76804763,0.79891735,-1.5198494,-0.19458033,-0.5725435,-2.0107548,0.3128578,-1.5040329,-1.0472394,1.114209,0.5118094,0.05894721,0.87714106,0.29420373,-1.0710052,-0.5744957,0.4270071,0.24391688,1.2575712,-0.076972075,0.66908985,0.13937661,-0.112580664,-1.4531127,-0.080998786,1.8483322,-0.20791605,0.4909686,-1.4333076,0.9845964,1.2760214,-1.074634,-0.3479029,-0.45490077,0.7028044,1.5025662,2.149912,-1.4146304,0.9678473,0.20986877,1.7713797,-0.08638291,1.3712058,0.9723956,1.6871158,1.4145803,-0.63692635,0.31496155,1.20049,-1.5237961,0.03500251,1.6522391,2.1694272,-0.5158374,-1.1974899,-1.6088403,1.6755139,-1.2702091,-0.48144415,-0.62987846,1.0744344,-1.4881998,-1.4708508,-0.82464415,1.0153884,1.8177016,-0.6706745,-0.008506455,-0.41547617,-1.5927597,0.70646846,-1.102386,-0.15544635,1.262754,0.41441014,0.51453614,0.5445132,-0.914859,0.14118809,-0.669472,0.04567973,0.73107034,-1.555568,-1.3418283,-1.2470597,0.32483926,-0.14163084,-1.9919851,-1.1955341,-1.0203687,-0.5650867,0.94570965,-0.8079536,-1.4041008,-0.55528367,1.7635189,1.0884874,-1.0147732,1.2749543,1.3561584,1.0894599,0.6304367,-1.3058193,0.92377543,0.8260062,-1.6631132,-0.99918693,0.5846649,0.790319,0.9327548,0.45542568,0.4516526,-1.7268629,0.85915804,-1.0799311,-1.768471,0.37032145,0.7964979,-1.7593389,-0.8197527,1.2792383,-2.0963285,-0.5803327,-0.11945486,-0.0078121037,-0.76675355,0.78501815,-0.7431676,0.45386517,-0.48840055,-1.6840171,-1.171206,0.9067333,0.9587946,-1.4468813,-1.0946639,-0.08045625,-0.019003127,-0.6131663,0.74624336,-2.012982,0.12492354,2.1927013,-0.8086637,-0.2992344,0.6461342,-1.2698802,0.42376027,0.12177882,0.28539172,-0.618891,1.0711174,-1.3924236,0.0102313515,-0.8347565,-0.4633055,-1.4434663,0.53761125,1.0030304,-0.90489674,2.1778417,-1.8812122,-1.1742008,-2.0336928,-1.1746553,2.453878,0.43503124,-0.66810876,1.164411,-1.1710582,-0.62692636,-1.0707186,-0.5648018,0.46551126,-0.86880815,0.12609686,1.8217375,-0.16908851,-0.3689745,-0.63710743,1.7094582,-1.7049779,0.53395605,-0.39149186,-1.9392893,-0.26434103,-1.1954297,1.682639,-0.68147063,-0.44856036,-0.4623428,0.7266124,-0.13445741,-0.17363936,-0.15462628,-0.21547961,1.4598525,-1.0918885,-0.1261663,-1.9033517,-0.027217463,0.42145464,0.6539582,1.2491055,-1.5326993,-1.7130785,-0.18634734,0.7193571,-0.70999116,2.0118785,-1.1043217,1.1503825,-1.1293688,-0.08566217,-0.36053422,-0.5676142,0.25588086,-0.21767084,-0.36731037,-1.8084655,-1.189123,1.027408,-1.4872097,-1.5139906,1.3824909,-1.1691083,-0.4793094,0.70121217,0.5321378,1.604701,-0.012212823,0.13400665,0.09885768,0.79954803,1.5018078,1.0017141,-0.03672762,-1.6952122,-0.6318261,-0.8479045,-1.7226392,0.71435547,0.13780038,-1.1910913,1.105556,0.39454573,-0.8701161,1.7042408,0.38993102,0.8596023,1.251013,0.49222824,-1.929707,-0.3326789,0.12589975,-0.21732779,0.44816133,-0.007893546,0.9076301,1.4332929,-1.0708684,0.8313406,1.2131522,0.6688442,-0.74207294,-0.19319087,-1.6341883,0.74494386,0.55440956,0.5474206,-1.5739503,-1.3031862,-1.3950018,-0.7782728,0.015154909,-2.4543319,1.2584509,-0.8283065,0.39400864,0.931621,-0.96026796,-1.1093851,-0.64335096,0.57864153,-0.8270527,1.2806377,0.051449005,1.1990689,-1.9349408,-1.2301271,1.7475007,-0.9847026,0.018452888,-0.6736744,0.6838471,1.4788473,0.43309647,0.5650792,-1.5521045,0.6760835,1.2120546,-0.9687682,0.67022717,-0.1840075,0.81085515,-0.99329895,-1.499982,-1.0592203,1.7825133,2.2328298,0.64472795,1.4346403,-0.7345115,0.45960265,-1.4765644,-0.2792689,1.3882734,-0.9536422,0.94334817,0.85303843,1.0828648,0.46578872,0.40026718,-0.45135885,-0.022604248,1.3496299,1.4658412,-0.39589462,2.0915508,0.6166307,0.806272,1.283625,0.2417269,-0.3837727,1.169978,-1.4517578,-0.57158214,1.7526723,0.55537754,-0.9422508,1.00103,0.16446963,-1.5326929,0.04039626,1.6379399,-0.004195792,1.4689337,2.0761573,-2.0782194,1.4795301,-1.5594385,-0.881342,0.7059506,0.9517881,-0.36495462,1.2727573,-0.46710023,-0.42980418,1.2535145,0.37088057,-0.15373783,-1.0178101,0.84077483,-0.49026603,0.8242054,-0.6861731,0.77418417,-1.2744484,-1.3485215,-1.1508143,-0.8198788,-0.5552212,1.0406758,0.4708857,0.81627065,0.15261538,-0.4526783,0.23591599,-0.48752284,0.04077151,0.38769382,-1.1754353,-0.11544936
DAPK1,0.7035601,-0.7884109,-0.64685994,0.1970702,0.665275,0.7828958,-0.4337384,1.6466175,-0.3638056,1.2644602,1.3446062,0.13523616,0.16583985,-0.7591747,-0.7778851,0.45389757,0.5550558,0.94724095,-0.72136885,1.4619259,-1.5605168,-0.51538706,-0.32793027,1.2669047,0.3045799,0.9042187,0.13379794,1.2441821,1.5413243,-0.5949055,-0.6415738,-2.0678005,-0.271668,0.9384868,0.76352435,-1.2179908,-0.031084426,-0.28713864,1.0944207,-0.27513903,-0.62960666,0.012301747,0.85163975,-2.0404267,0.31769952,-1.2527928,-1.1912538,-0.7276814,-0.43450877,1.2906985,1.6462314,-1.84817,-0.5812483,1.2480229,-0.26080203,1.0469364,1.699673,-0.27952784,-1.2068459,-0.41205114,-0.07478769,1.1894807,1.7122816,1.5038081,-1.0209677,1.7527399,-0.7596562,-1.038306,-0.02230973,0.042018566,1.6748344,-0.2078157,-0.45040104,2.4939067,0.50671595,-1.3773694,-0.19676967,0.19120824,1.6662887,1.023782,-0.21099919,1.0421747,-2.1590273,0.20444672,1.6447526,-0.44158548,-2.6264,0.23129217,0.66812134,-0.37605768,1.1982558,0.18603832,1.49329,-0.675548,0.44170877,-2.030152,-3.4233613,1.2525885,1.8567086,1.1391643,-0.2946213,1.0660975,0.96767837,1.2950143,-0.54480046,1.6162704,0.0886164,-0.26178235,-0.97989565,-0.63838106,-0.14514157,2.9942117,-0.34140044,0.29204598,-1.0881155,-0.5693046,0.73807156,-0.1889592,0.84010243,-1.081138,-0.3218475,1.8389009,0.3853971,-0.8821601,-0.30191413,1.1496178,1.4599907,-0.043354508,0.7088346,-2.9296372,2.822979,0.079434924,0.24807502,1.7827108,0.97429395,-1.2169378,0.4532611,-0.5409135,-1.4511331,1.0307419,-1.488497,-1.1054944,-2.2449398,0.64140636,-0.73511654,1.869392,-1.3230116,-0.23309198,0.76425236,-2.4459734,-0.07815551,-0.36186063,0.44461653,-1.1436079,1.5967833,0.41411573,0.59602576,1.9307392,0.5764975,-0.9300388,-0.1619963,0.72740406,-0.7349177,-0.30731758,0.25801516,-0.6179399,-1.708095,-0.97585404,-0.40693766,2.7289321,-0.58458024,0.86329323,1.218124,-0.045830708,1.6883157,-0.96955985,-0.8280458,0.5940983,-1.1498494,0.49438897,-1.3738717,0.902664,1.2405665,0.21113329,-1.8717856,1.7736223,-0.49043122,-1.4482518,0.9014439,-0.94091946,1.4838874,1.4474803,2.5556428,0.07688825,0.023436073,-0.43421286,0.18525524,0.20150767,0.53443265,1.0218544,-0.09565062,-0.15249805,0.35398522,1.1047634,-1.0239822,0.6866994,-0.7662947,0.38103244,0.5599462,-0.87607217,-1.4987642,1.1397598,-0.062911965,0.97943497,-0.050964214,-0.22484134,-1.6423485,0.38165125,0.6695628,-0.26692578,-0.7812625,3.8898938,-1.0531586,-0.84022343,-0.4632255,1.1928169,-1.6168475,0.556139,-0.9640576,0.5253284,-0.987615,1.273111,0.90896606,0.92524457,-0.036482945,0.12508035,-1.498475,-0.12059573,1.0100522,2.2576847,0.06667505,-0.9861648,0.93163365,-0.0008717911,0.7023392,0.19041048,0.6550958,-2.825094,0.41391912,0.6537327,-0.12809764,0.98349726,-0.7260088,0.502702,-1.1219094,-1.3286656,0.2330954,0.45671308,-0.9654284,-0.66235137,-0.8240595,0.5750916,-0.5992052,0.8661067,0.59250253,-1.6843799,1.5370796,1.251441,-0.35683316,-1.5688205,-1.1680712,-2.447513,-0.9296059,0.091906235,0.53318655,0.9183879,1.1262661,0.31743258,1.244826,-0.39431992,-0.56697255,0.9006048,0.441259,0.9228259,-1.212584,-0.7949281,-0.7037132,0.71402603,0.8253798,-1.2012897,-2.0880172,0.028952377,-0.9068237,0.47370106,-1.4886006,0.49689606,0.37604108,-0.49237677,-0.85400367,-0.13748604,-0.39422446,-0.20233428,-0.79701465,0.52237093,-2.0362186,1.1883868,-1.0245792,-0.58722997,-0.65559465,0.51011586,1.102296,-0.62259656,-0.9808989,0.69370246,1.4179888,0.5152256,2.7381105,0.05000929,1.4642093,0.7572047,-1.0494204,1.2687557,0.8812826,-0.37492147,-0.597784,-0.5832781,0.06276321,-1.0559117,-1.6355069,-0.6634624,-1.2475442,-0.5719573,0.13048024,0.4825243,-1.0600303,1.6480818,-0.6530439,1.2367033,0.1870734,0.96563256,0.9941502,-0.38305274,-0.913551,0.8672542,-1.4220078,-0.7871234,1.4936842,-0.45452437,0.5418335,1.8361592,0.53689724,-0.21550553,-0.67261565,1.2972994,-0.6292342,0.14218123,0.5099934,0.09559798,-0.46208858,-0.5774917,-1.4806682,-1.4669807,1.2726629,-0.48034802,0.16119893,-2.0072746,-1.7662132,-1.3764158,-0.16917798,1.2209692,1.1056844,0.23201162,0.73759645,-1.899263,-1.2472286,2.4163744,0.11528569,-1.0949955,0.21607095,-0.52619934,-0.8309869,-0.18646464,0.9179194,1.552433,0.72035855,-0.71857786,0.6497104,-0.68260133,-0.26146773,1.7288021,-0.52376264,0.03244447,-0.7260493,1.9941447,0.07375192,0.89084756,-0.99430245,0.944063,1.4304389,-1.6741991,-0.64922607,-1.1468933,-0.19434258,0.50552845,0.009589826,-0.39903593,-0.053014886,1.3200932,0.17942704,0.053042203,-1.8885099,-1.2843059,0.889831,-0.37478977,0.23339535,1.5808455,0.06170869,-1.6090531,-0.7207654,0.123274036,-0.48848745,-1.9471688,-0.010380098,0.18526182,0.9968877,0.4157068,0.44979662,-1.3079058,-0.23324785,1.0295453,-0.8323474,0.59305906,-0.8982311,1.645275,0.4013997,-0.41971305,0.19210918,-1.5910331,-1.5931108,1.0952406,-1.507682,-0.115589224,0.53662986,1.066556,0.101269394,0.72837657,0.02013939,0.45173994,-1.6008304,0.8276616,-1.0302866,0.39370325,-2.4716382,0.18238913,0.9857916,0.13468295,-1.4188032,-0.11496342,-0.032113843,1.9329371,-1.1538603,-0.5173178,0.47031313,0.13912547,0.39414442,-0.50981563,0.9933013,-0.95382434,1.7790402,-1.9394202,1.4527131,-0.03259926,0.7714597,1.0548017,-0.5973474,0.87943774,-0.8669824,-1.4915237,-0.7248574,-1.6341256,-1.2456832,-1.7643698,-0.061111283,0.49837103,0.49880263,1.4570812,-0.5730212,0.08083563,0.3397169,1.4009919,-0.71894765,0.010353776,-0.3913237,0.8769963,0.009999641,-1.2577009,-3.0360389,-0.48251468,1.8377148,0.9163106,-0.23837657,1.4510841,-1.002225,-0.8030765,-0.50438046,-0.7236054,0.49950504,-0.85578144,-0.40601978,-0.111457735,-0.20761795,-1.253101
EPHB3,-0.026224557,0.3109565,0.6853874,-0.21656746,0.1851282,-1.4286664,-0.32837626,-0.18594849,1.0209007,-2.0608304,0.60370606,-1.0380412,0.08121504,0.1056368,1.014363,-0.77018553,1.372409,-0.65922636,0.43978295,0.39455336,-0.28528693,-1.2484245,-2.4689283,-0.6418708,-0.52057153,1.0344007,-1.1376438,-1.3353373,0.44718513,-1.374651,0.123049416,0.8170256,0.003977439,-0.43992072,-1.0268134,0.49040422,-1.2172469,0.3846669,0.5022488,0.53066343,0.6345627,1.3845384,0.4918651,0.45109618,-0.023543254,-1.6344825,-2.168057,-0.722544,1.0236058,-1.5838172,-0.5291993,-0.19087735,-1.0850588,-0.9357783,0.09920104,1.5519618,0.018380638,-0.47801495,-0.41858968,1.8548607,-0.250794,-1.1817404,0.049145862,0.32530364,-0.13977532,0.35328877,-0.9902353,-1.1431304,0.19170411,0.80047476,-0.14688756,0.46109524,-0.70542216,1.09921,-0.98226726,0.3397027,-1.5104065,1.2259619,-0.22601458,-0.5893425,-1.0076946,0.92928886,-0.73608917,1.4404217,1.642918,-0.023663793,-0.576416,-0.90240026,-1.0756829,-1.1196356,1.3865994,0.11128916,0.5467587,-0.5162076,-0.75488853,0.6749289,-0.92206,-0.63770974,-1.1751149,-0.18643385,0.69719785,-0.48410067,0.6780574,2.1655953,-0.5210118,-1.1347457,-0.44085205,0.0548779,-0.21667229,0.93111527,1.916432,1.5688051,0.79507464,1.9581537,0.93578196,2.2124696,0.8207788,0.9797503,-1.910506,-0.2564211,-0.0755867,1.2860564,0.13721508,1.309447,-0.16708192,0.74116147,1.3259931,1.8668154,0.8696924,-0.7911889,0.6796367,-0.030306675,-0.17810555,-0.20156981,-2.5701175,1.048734,-0.023765538,1.3387282,1.8076304,-1.9559468,-0.19657527,0.23729248,-1.1838791,1.4374743,0.16636102,2.3538704,-1.410978,-0.9045751,-0.12764998,1.1538491,-1.5214512,-1.3577298,0.24882795,0.13599178,-0.9004498,-1.2284435,-0.40442073,-1.2128131,0.34411788,-1.2848403,-0.54632294,-1.7148876,-0.16931695,0.25832903,-1.7255175,-1.5191035,-1.3855176,0.23358577,0.6291193,-1.7457483,-0.5573107,-1.1966298,0.8623616,1.1028633,0.62428874,-1.8495299,1.894084,0.8664402,0.2682907,-0.23185718,0.66477793,0.7535175,-0.7262674,-1.2527658,1.1297709,-1.1727474,0.70132697,-3.3668382,-1.3216598,-1.0493242,1.2830753,1.1991757,-1.934392,0.12339324,-0.04215428,0.3365686,-0.5188278,0.47149345,0.4450242,-1.314667,0.51535565,-0.557539,0.8180905,0.42736334,0.9815674,0.8952206,1.405563,-0.11059352,-1.5225024,-1.4304066,0.2717463,-0.49300182,2.49904,-1.9841418,1.5643878,0.5477133,-1.4262367,-0.1869976,0.25202176,1.6811548,-0.31925496,0.674258,-1.1372583,1.9804548,-0.5637642,-0.8059871,-1.9077442,-0.5641646,0.96755725,0.17856053,-0.06564716,-0.27211264,-1.1375483,-0.12875535,0.7048004,-0.07935664,0.7846741,0.4939957,-1.0856571,-2.0038211,0.6587209,-0.36227405,-0.2341328,-1.6716213,-1.6881176,0.42944816,1.1933721,1.9828473,1.6058116,0.89971906,1.1081574,0.11300696,-0.8833019,-0.56858355,0.54420817,2.7098577,-0.031858936,-0.78993326,1.2242754,-1.3772182,0.49598572,-0.5917697,0.60972685,-1.0218388,-0.0823404,-0.736145,-1.0082767,0.2879721,-1.6465262,1.0047505,0.17665821,0.06893065,-0.42633215,-0.16313769,-0.57158333,-0.14445974,-1.8118672,0.17340164,0.07087058,0.66665035,-0.5772589,1.8193114,-0.7066706,-1.3063016,-1.7562243,-0.4952782,-2.8321497,-2.1083572,-0.14579013,-0.92270577,-1.2561672,-1.7297816,1.3522044,1.9108154,0.28102064,0.14457439,0.55820674,0.35958022,-0.042360257,0.5069985,0.49084887,1.643237,0.7391431,0.19618112,-0.45381612,1.0532749,0.031041265,2.6505759,0.40987313,-1.5956115,0.08422127,-0.99129087,0.75184876,-1.8653468,1.3335822,-1.3066624,1.9149269,-1.4471991,2.0606785,-0.5334497,-0.6216782,-1.6182463,0.07947115,-0.52908856,1.447333,-0.49660105,1.7814438,-0.6777751,-0.8455486,0.96701336,-0.059652455,1.7262156,0.9127512,1.435283,1.3297087,1.0012568,-1.164329,-0.06824408,-0.56278837,0.9629849,-0.32905573,-0.633534,1.0519732,0.5839242,-0.5774476,-0.5253003,0.3382094,0.71326286,0.33519223,0.18292558,-0.44576228,-0.6176634,-1.5751885,-0.73149574,0.85472715,-0.26497906,-0.67121774,0.7993697,-1.1115401,0.33796632,-2.0279937,-0.47133678,-1.0724677,0.9737937,0.44121662,-0.15257922,0.22525463,-1.9641874,2.036667,1.4633434,1.9793049,-0.116592765,0.8002361,2.2208972,-1.0110582,1.346617,-1.1088518,1.6003487,0.24768707,0.20870739,-2.494876,-0.34751406,0.37448737,0.69058096,0.7878622,-0.62054485,0.9610926,1.595415,0.5234314,-0.31259182,-0.018231899,-0.34373382,1.4619329,0.6274061,1.4170047,-0.50586987,1.5309783,0.24264506,-0.5193168,1.8416053,0.24714975,-1.3845836,-0.23163177,1.224837,-0.560758,2.0956318,0.6774401,-0.97060275,1.0640054,0.46589887,0.8275746,1.8566167,-0.794923,-0.869568,-0.49929565,1.0720294,0.5818338,1.1908175,-0.19598812,-1.7964028,0.9504228,-0.17049111,0.040478572,-1.4841717,-0.16020967,1.0934817,-0.2929106,0.96250224,-0.8772348,-1.3033347,-0.89759946,1.2218851,-0.0008232582,-1.3988973,-0.82344294,-1.6842309,-2.1681426,-0.18089002,0.55567336,-0.22326058,0.046763074,0.23195054,-0.12155468,-0.6260196,-0.6376382,-0.28924608,-0.75373584,-0.74384284,0.12055227,-0.21323262,1.2307513,0.07559186,1.4087708,-0.83053124,0.72711015,0.12611854,1.6568636,1.2785852,-1.8955972,0.42075136,0.9831252,1.4620568,-0.18928742,0.3389584,-1.7348726,1.5388163,-0.69991493,-0.65834194,1.06223,-0.665319,0.7479367,-0.11386961,-1.8062261,0.579304,1.1465188,-0.29423103,-0.30151388,0.9946237,-1.3515358,0.5149661,-1.5254415,-0.23070304,-0.68231124,0.5195444,0.59205663,1.4123526,-1.8775426,-1.4097205,1.460077,0.8253674,-1.5909437,0.3261516,0.653944,0.9851796,-0.2991912,-0.80757165,0.9615825,0.2307172,2.7801657,1.7176262,-1.1204604,1.1902276,0.939729,-0.50706035,-1.3253418,0.33944383,2.314637,1.5901383,-1.5484031,-0.65285796,0.3412882,-1.6145545
