,dim_0,dim_1,dim_2,dim_3,dim_4,dim_5,dim_6,dim_7,dim_8,dim_9,dim_10,dim_11,dim_12,dim_13,dim_14,dim_15,dim_16,dim_17,dim_18,dim_19,dim_20,dim_21,dim_22,dim_23,dim_24,dim_25,dim_26,dim_27,dim_28,dim_29,dim_30,dim_31,dim_32,dim_33,dim_34,dim_35,dim_36,dim_37,dim_38,dim_39,dim_40,dim_41,dim_42,dim_43,dim_44,dim_45,dim_46,dim_47,dim_48,dim_49,dim_50,dim_51,dim_52,dim_53,dim_54,dim_55,dim_56,dim_57,dim_58,dim_59,dim_60,dim_61,dim_62,dim_63,dim_64,dim_65,dim_66,dim_67,dim_68,dim_69,dim_70,dim_71,dim_72,dim_73,dim_74,dim_75,dim_76,dim_77,dim_78,dim_79,dim_80,dim_81,dim_82,dim_83,dim_84,dim_85,dim_86,dim_87,dim_88,dim_89,dim_90,dim_91,dim_92,dim_93,dim_94,dim_95,dim_96,dim_97,dim_98,dim_99,dim_100,dim_101,dim_102,dim_103,dim_104,dim_105,dim_106,dim_107,dim_108,dim_109,dim_110,dim_111,dim_112,dim_113,dim_114,dim_115,dim_116,dim_117,dim_118,dim_119,dim_120,dim_121,dim_122,dim_123,dim_124,dim_125,dim_126,dim_127,dim_128,dim_129,dim_130,dim_131,dim_132,dim_133,dim_134,dim_135,dim_136,dim_137,dim_138,dim_139,dim_140,dim_141,dim_142,dim_143,dim_144,dim_145,dim_146,dim_147,dim_148,dim_149,dim_150,dim_151,dim_152,dim_153,dim_154,dim_155,dim_156,dim_157,dim_158,dim_159,dim_160,dim_161,dim_162,dim_163,dim_164,dim_165,dim_166,dim_167,dim_168,dim_169,dim_170,dim_171,dim_172,dim_173,dim_174,dim_175,dim_176,dim_177,dim_178,dim_179,dim_180,dim_181,dim_182,dim_183,dim_184,dim_185,dim_186,dim_187,dim_188,dim_189,dim_190,dim_191,dim_192,dim_193,dim_194,dim_195,dim_196,dim_197,dim_198,dim_199,dim_200,dim_201,dim_202,dim_203,dim_204,dim_205,dim_206,dim_207,dim_208,dim_209,dim_210,dim_211,dim_212,dim_213,dim_214,dim_215,dim_216,dim_217,dim_218,dim_219,dim_220,dim_221,dim_222,dim_223,dim_224,dim_225,dim_226,dim_227,dim_228,dim_229,dim_230,dim_231,dim_232,dim_233,dim_234,dim_235,dim_236,dim_237,dim_238,dim_239,dim_240,dim_241,dim_242,dim_243,dim_244,dim_245,dim_246,dim_247,dim_248,dim_249,dim_250,dim_251,dim_252,dim_253,dim_254,dim_255,dim_256,dim_257,dim_258,dim_259,dim_260,dim_261,dim_262,dim_263,dim_264,dim_265,dim_266,dim_267,dim_268,dim_269,dim_270,dim_271,dim_272,dim_273,dim_274,dim_275,dim_276,dim_277,dim_278,dim_279,dim_280,dim_281,dim_282,dim_283,dim_284,dim_285,dim_286,dim_287,dim_288,dim_289,dim_290,dim_291,dim_292,dim_293,dim_294,dim_295,dim_296,dim_297,dim_298,dim_299,dim_300,dim_301,dim_302,dim_303,dim_304,dim_305,dim_306,dim_307,dim_308,dim_309,dim_310,dim_311,dim_312,dim_313,dim_314,dim_315,dim_316,dim_317,dim_318,dim_319,dim_320,dim_321,dim_322,dim_323,dim_324,dim_325,dim_326,dim_327,dim_328,dim_329,dim_330,dim_331,dim_332,dim_333,dim_334,dim_335,dim_336,dim_337,dim_338,dim_339,dim_340,dim_341,dim_342,dim_343,dim_344,dim_345,dim_346,dim_347,dim_348,dim_349,dim_350,dim_351,dim_352,dim_353,dim_354,dim_355,dim_356,dim_357,dim_358,dim_359,dim_360,dim_361,dim_362,dim_363,dim_364,dim_365,dim_366,dim_367,dim_368,dim_369,dim_370,dim_371,dim_372,dim_373,dim_374,dim_375,dim_376,dim_377,dim_378,dim_379,dim_380,dim_381,dim_382,dim_383,dim_384,dim_385,dim_386,dim_387,dim_388,dim_389,dim_390,dim_391,dim_392,dim_393,dim_394,dim_395,dim_396,dim_397,dim_398,dim_399,dim_400,dim_401,dim_402,dim_403,dim_404,dim_405,dim_406,dim_407,dim_408,dim_409,dim_410,dim_411,dim_412,dim_413,dim_414,dim_415,dim_416,dim_417,dim_418,dim_419,dim_420,dim_421,dim_422,dim_423,dim_424,dim_425,dim_426,dim_427,dim_428,dim_429,dim_430,dim_431,dim_432,dim_433,dim_434,dim_435,dim_436,dim_437,dim_438,dim_439,dim_440,dim_441,dim_442,dim_443,dim_444,dim_445,dim_446,dim_447,dim_448,dim_449,dim_450,dim_451,dim_452,dim_453,dim_454,dim_455,dim_456,dim_457,dim_458,dim_459,dim_460,dim_461,dim_462,dim_463,dim_464,dim_465,dim_466,dim_467,dim_468,dim_469,dim_470,dim_471,dim_472,dim_473,dim_474,dim_475,dim_476,dim_477,dim_478,dim_479,dim_480,dim_481,dim_482,dim_483,dim_484,dim_485,dim_486,dim_487,dim_488,dim_489,dim_490,dim_491,dim_492,dim_493,dim_494,dim_495,dim_496,dim_497,dim_498,dim_499,dim_500,dim_501,dim_502,dim_503,dim_504,dim_505,dim_506,dim_507,dim_508,dim_509,dim_510,dim_511
ACE2,-1.4861937,-0.11429927,1.2261498,-0.77724767,0.9894434,0.32867393,-1.0913756,1.2973204,1.1406399,-0.11958815,-1.1423311,-0.6194286,-0.13489653,-1.3296072,-0.6758484,-2.1319041,0.8713199,-0.74006563,-1.5592296,-0.17700109,-1.9705163,1.3844627,0.5218562,0.41930676,1.0048101,1.997654,-0.006452812,1.1429582,3.0328836,-1.2240816,-1.2576667,-1.3948529,-0.83424336,0.37267518,-2.2681777,-0.774076,0.13542376,0.36634088,-1.6874472,1.8131869,-0.15615346,-1.4648668,0.22119792,-1.6357892,-0.45309538,0.8169136,0.63661695,-2.52503,1.1936995,-0.9797428,0.64086556,0.063130125,0.17562899,-0.45988792,1.786704,-1.0545774,-0.3595068,0.36135155,-0.9093695,2.0917127,-0.4477775,1.487682,-0.65282047,-0.03881707,-1.7399791,-1.0014895,1.7016267,0.2567538,0.76369494,-0.23403428,-0.16989468,-1.7558994,-0.07105316,-0.22724113,-0.6450146,-3.097827,1.7941154,0.74074316,2.012867,0.4847227,0.4526761,-1.1496804,-0.70584774,1.3988909,-1.3684714,0.8668652,0.46591964,3.0622084,-1.0544754,0.21534404,-1.7032732,1.5453252,-1.3279328,1.1592342,1.0188371,-0.7349618,-0.72860086,0.926703,0.030064177,0.40972006,0.22812976,-0.2876527,1.3499568,-0.53587955,-1.3490199,-1.0757496,-0.55395937,0.03562347,-0.5641997,-0.576366,0.68195873,0.26074886,2.0556736,0.23716083,0.506358,0.2785728,0.6273578,0.89984614,-0.9120073,-0.3076114,-1.2036295,-0.25430453,-0.84424466,0.46329045,1.0629814,-1.2094685,-0.17840518,-1.34868,0.6950734,-0.13287762,0.6508703,0.047556967,-1.1989688,1.2965477,0.37338734,1.0838265,-0.8062127,-0.97403914,1.6766449,-0.7776198,-0.14556105,1.1500382,-2.2546866,0.8484223,1.1809739,2.7127109,-1.2138203,0.7272051,-0.03558222,0.5032601,-1.0991623,-0.73360384,0.47319755,1.6513209,-0.7492179,0.6426674,-1.1903994,0.9710592,-0.19977973,-0.38681322,-1.0219915,2.3093297,-1.1086066,0.7565165,-0.5577946,-1.1956071,-0.737202,-1.324495,0.27421674,-0.40284866,-0.42724282,1.6011769,0.124200985,-1.4456463,-0.6533201,-1.3514632,-1.7650267,-1.0140029,-0.14427722,0.63729507,0.84103304,1.7085699,1.6052107,-0.5762623,-0.61062896,0.32042477,1.7295288,-1.1747229,-1.2887249,0.7159962,-0.51107204,-0.6203702,-0.80647296,1.6221627,0.122496486,-0.40185103,-0.6218436,-1.1099055,-0.6486349,0.9021201,-0.37879252,-0.688393,0.86302304,-0.2794066,1.0302334,0.62481165,1.0799296,-1.3847082,-0.18141693,-0.8513115,-0.35570055,-0.114835754,0.16310969,1.1435318,0.18279871,2.1539106,1.0655979,0.2546217,-0.17487963,1.0711703,-0.48824668,-0.2668338,0.69373137,0.69500566,-0.1267358,0.6195241,2.668109,-0.25261557,0.24947493,-0.37091243,0.34248862,1.1419847,1.1523683,0.7876591,-0.9735398,1.6745955,0.04112271,0.30161732,-0.10056668,1.0387667,0.9361553,0.7251856,-1.5349219,-0.89207923,0.49645805,-1.0910934,-0.0018243782,-0.91872627,1.0520977,2.5424302,-0.75094295,-0.31208396,-0.18691644,1.4507735,1.8736463,-1.0805295,-0.30660537,-0.7540987,0.36009195,1.2695973,0.69040084,1.1882046,-1.4763108,-0.85665196,-1.2110655,-0.23804328,-1.7574475,2.0623162,0.500951,1.4410338,-0.29241997,1.4536055,0.59635127,-1.7208374,-0.23867871,-0.41490337,-1.0924096,-0.77659065,1.8957374,-0.8508011,-0.9162977,0.83089685,-0.19807568,0.7181803,-1.4779861,-0.18351443,1.4015632,-0.5990092,0.1219988,1.5302137,3.9354753,0.3079552,-1.6165544,1.5435821,-0.7848551,1.0404798,-0.28037003,-0.96346605,-1.4071678,1.0023313,1.3205196,0.7262691,-0.18477024,-1.8544314,-0.8989124,0.9553601,0.7909513,-0.045746695,0.72961146,1.3988849,-1.411356,1.0782834,-2.571736,0.89766693,-2.3284206,0.3800103,0.9325092,0.19103786,1.8003485,0.1320809,-0.44967505,1.2147311,-0.96513534,0.48440987,-0.78793734,-0.6690693,0.7045676,-0.68064696,0.6453623,-1.3342749,2.0240753,-0.4405959,-0.007982529,-0.051785424,-1.1249983,1.6233709,0.5447763,0.4885382,-0.018472008,1.129819,-0.043177985,-1.5920538,-1.2108942,1.233078,1.279151,0.29540625,0.62568104,0.024456412,1.071401,0.34703127,0.96352524,1.0913852,-0.22618398,-0.22491023,-0.26421043,0.0805942,-0.6092531,-0.6076567,0.5714428,-0.17369433,-2.0590842,-0.50406307,-0.88135695,-1.0833011,-0.2652159,0.32782698,-1.120625,-0.19867785,-0.6410325,-1.0433152,-0.9785653,-1.0133698,-0.10058181,0.61972165,-0.45614025,1.2315862,-0.3779927,0.9879255,0.20243442,0.95934796,-1.0610783,0.13644955,-0.70385,0.9397996,1.372081,-0.7812692,1.3778037,-1.6446471,0.76091206,0.66700894,0.7402906,0.35965693,0.019013088,-0.6661606,1.012481,0.7982949,0.32573,0.76547706,0.4704929,1.9399263,-0.25238898,-0.41106015,-1.2254615,-0.21301425,0.56988263,-0.9611422,-1.373891,-0.5319909,-0.9455006,-0.33377177,-1.6883634,-0.90802217,-1.8729849,-1.0686798,-0.49011248,-0.5930107,-0.31818244,1.352846,0.8345022,1.1587967,-0.4885566,0.4191077,0.70212203,-1.6543849,0.38158587,1.4880208,0.9553516,-1.6657826,1.6216956,0.26231506,-0.06955865,-0.68006706,-0.588816,0.92606175,-2.0362647,-0.06803071,-1.306099,0.5533608,1.7843698,-0.80994755,-0.95446783,0.90295964,1.3428862,-0.9717319,0.77394783,0.12410627,-2.5236633,0.8495647,0.28558788,-0.5556284,-0.15949363,0.020679396,1.2809142,-0.66316295,0.5106988,1.6240966,-0.72531563,1.2688724,-1.0961337,-0.3624442,0.09074151,0.88904285,0.941753,-0.5126536,-1.9535435,-2.017444,-1.3904994,0.17596021,-0.61393166,-0.010837611,-0.62706745,0.020763556,-0.34655723,-0.49764445,0.6565767,-0.608626,0.141408,0.71664315,1.9680886,-1.3305101,0.41319937,-1.4462273,-0.6267291,0.053520463,-1.6891267,-1.049508,0.05266799,-0.4477065,0.70882314,1.4936619,-1.5942084,1.9338489,-0.54353774,1.5103933,-0.9677949,2.7996368,1.1415318,-0.09484651,0.15060094,0.11343074,-0.5169937,-0.9724312,0.29164228,0.6392076,-0.6669239,0.07389602,-0.6626614,-0.34798077,-1.7585466,-0.87803644,2.4317653,0.74851686
ACTA2,-1.0050008,2.9091272,-0.8761981,0.91414064,0.013249833,0.23970337,1.0823114,-0.91839176,0.48552778,0.1825116,1.6181622,-0.13182366,-0.93497545,-1.137596,-0.033458848,0.4872858,-0.27958786,1.0523447,-0.10079101,0.31816098,0.011672131,2.7035098,-0.93000615,0.119909056,0.63554597,-1.7265773,-0.83908147,0.37844336,-0.3452983,-0.56072533,-1.3889862,-1.1636851,-1.878351,-0.04175847,0.20633486,0.025205659,-0.42574477,0.062111586,-1.3669051,-0.12229233,1.2024616,-0.15668471,0.00043613097,-0.8472187,-1.6367286,3.4716134,0.5249692,-0.21591955,1.8027146,0.75276077,-0.4105477,1.5390872,0.2933111,-1.4531475,-1.3589965,2.0227597,-1.4259173,0.92033225,0.33822507,-0.87269217,2.1700594,0.66940236,-0.0055787954,0.25858253,3.4909632,0.56750494,-2.9612186,2.3843136,-2.0129638,2.9590616,1.0942615,0.059770066,0.16733953,1.2130952,-0.81259036,0.61011255,-1.003857,-0.6913215,-0.43727118,0.7970151,0.6238107,-2.5474725,0.73131466,0.22405176,-0.23792623,-1.005784,0.663313,-1.8615391,-0.02841285,-0.5695485,0.021011837,-0.49057356,0.47391668,-2.5128105,-1.51873,-1.2451086,-0.94050163,0.09472306,-1.0075536,-0.32365823,-1.2044629,-1.2237238,-1.2724737,2.5025976,1.5468512,0.32040834,-1.3713083,1.0487523,-0.22788857,-1.9147257,0.68544966,-0.12376568,0.5722543,-0.07253879,0.12149801,0.42589125,1.7106953,0.75834244,-0.0066229454,-1.1245369,1.5238773,-0.9289913,0.008281138,-0.45222104,-0.3353828,-1.0480493,0.17625785,1.2756425,-0.45287427,0.30300885,1.5646368,-0.067942426,1.8346415,-0.6356717,0.38801974,-1.6825913,-0.0988813,-0.4212918,1.1896547,2.12319,0.014377572,0.52308977,0.3772198,0.5379697,0.1176483,-0.5054809,1.1835237,-0.3871586,1.0290703,-0.12983552,-1.1641243,-1.752743,-1.9171954,0.8281165,0.493604,0.017877461,-0.036283813,0.4566793,-0.30101797,-0.14213412,1.1907278,-0.36906672,-1.2164129,-0.13558665,0.31481224,0.44411618,-0.8830408,-1.9670998,-1.6652238,-1.0943078,1.1796738,-0.70008844,-2.5542517,-0.6889198,0.24899974,-1.688395,-0.7362885,-0.8911787,-0.55865806,1.2174343,-1.4896939,-1.1719459,1.3634696,0.62103695,-0.10923003,-0.9394633,-0.8808965,-0.2954096,0.07460667,0.57239485,1.0170536,-0.38790318,1.1494191,0.42183557,1.6633496,-1.252745,-0.73854387,0.038600057,-0.49876925,-0.16552453,1.5961859,-0.39908144,-1.0137061,0.43094254,-0.017441534,1.0018975,-1.8595554,0.42703307,0.0032351972,1.40648,-1.6215743,0.41609693,-1.8941419,-0.7193492,-0.71456987,-1.5418589,0.4224728,0.02433967,0.041647915,1.0166886,0.7151724,-1.7149692,1.9833405,1.1645623,-0.74372226,0.46507263,0.4670045,-0.13210602,0.23576064,0.4247917,-0.26167047,-1.285568,0.6865169,1.2719238,-1.4117414,0.57385755,-0.40674943,-0.07526402,-1.804713,-1.1155891,0.9636589,-1.4580064,-0.15474077,-1.7170628,-0.13759646,-0.21000205,1.6175424,-0.885208,-0.3404301,0.8945933,-1.616387,-0.30814505,-0.13111362,0.63670135,1.0945926,0.9628145,-0.4195276,-0.95097053,-0.44489652,-2.2722526,-0.85767436,-0.5410447,0.35360804,1.2065375,1.8452721,1.2490058,-0.0046475576,0.40008846,0.8208003,-1.6243557,-0.928522,0.267542,0.15137446,0.2327513,0.81358784,-0.9264647,0.6492022,-0.6159009,1.3643869,1.6480038,0.14834444,0.02819064,1.3029739,0.14259873,-0.8334319,-1.0957448,-0.41103074,0.7082818,-0.47534433,0.017423112,-1.0597279,0.76432604,0.91615736,0.82554317,-1.4978583,-1.163803,-0.47165036,-1.019928,1.0436317,0.34367543,-0.39128244,-0.085857876,-0.98253924,-0.5662539,-0.6052165,0.6669258,-0.35755944,1.3402778,0.14967912,-0.17181568,-1.7181652,2.0090706,0.48824367,-1.9031322,-0.8939708,1.5358251,-0.037232503,0.42613626,0.038532928,0.4563599,0.005861057,0.3514632,1.0531564,-0.10273365,1.0539198,0.18642153,0.81271905,0.85017556,1.0940148,-1.43077,0.74013793,0.5815898,0.7213679,-0.3371622,1.6387012,-1.1031358,-1.1773856,-0.22580074,0.6573452,0.81150657,-0.69909465,-0.67118204,-0.18102394,0.5289009,-0.40657228,-1.7003958,1.8756058,-0.4409461,-0.079201356,-0.7599946,-2.4582748,0.33264035,-0.2044367,-0.026106875,-2.0811644,2.795823,-0.81174755,0.2852702,-0.5381142,0.37363037,-0.95618695,-1.008164,0.5011002,1.4234648,-1.3905195,1.1927967,-0.4292006,1.5136967,-1.2137239,0.61324406,-0.82697105,-1.5542852,0.7797709,1.758325,1.2209724,-0.11546053,2.1224322,-2.4415307,-1.7544023,-0.6366552,1.6725862,-0.20605819,0.13574217,2.3934636,-1.4306884,0.49409643,0.023946002,1.5703629,1.3068556,1.5757565,0.93287414,-0.56819355,-1.9104179,-0.03599719,0.49725068,0.8183376,1.65548,0.40214828,0.970812,0.60594183,-0.84925866,0.05942056,-0.1544384,0.9972873,0.23495974,-1.1307626,0.03344289,1.3772644,2.3864794,-0.87774384,0.037232507,-0.16854508,-0.09318929,0.31072068,0.03843715,-2.368497,2.0300703,0.40284222,-0.70570755,1.4322673,0.29975805,2.022221,1.7322268,-0.6286666,2.1525655,-0.9532163,-0.4544063,0.18222198,-1.4355296,-0.7319653,1.1217096,0.8090951,-1.0372063,-0.99496406,0.1598251,-0.14545116,-0.87591153,0.096004896,0.13697201,-0.033116553,0.20911269,1.0715629,-0.39298192,-1.1685688,-2.6377513,-1.0888233,-0.6273369,0.09440238,-0.39537358,1.3559151,-1.0394177,0.9388384,0.64407474,-0.18562473,0.8115204,-0.60372084,-0.56322557,0.62824625,0.71031606,2.1139657,-0.60827947,1.3558083,-0.087911576,0.2729408,-0.6367193,-1.581189,0.54366267,-0.20190689,-0.0092002265,-0.10025256,0.347431,1.7967894,-0.2516307,-0.015925042,0.013138363,0.42154297,1.3346537,-0.5024146,1.1694944,-2.1923397,0.52004135,-0.57330376,-0.82163054,1.6520032,-0.27634287,-1.0446221,-0.07554516,-0.77684194,-0.5488459,1.5515445,-2.1841187,0.8294692,1.11136,0.5121252,1.1943918,-0.41127256,-0.22241788,-0.4493283,0.29811758,0.7387326,-1.8760947,0.22863731,1.4743371,-0.67019916,-2.416538,-0.5562521,-0.931894,0.1830692,0.14344802,-0.41131896,0.44505903,0.03377677
AIF1,-0.72466934,0.061642252,0.2804199,0.49857515,-0.4740991,-0.4305845,-1.0394928,0.2363246,-1.3300831,-0.3013601,-1.1287373,-2.0843885,0.55151564,-1.5068212,-0.08812359,-0.20251061,1.3678848,1.213259,-0.56947213,-0.4406315,0.59052086,-0.58892035,1.9640542,-0.53461516,1.703257,1.0911555,1.2182713,1.6742367,-0.36448923,0.8403835,-0.7286439,-0.08024508,0.45379478,-0.36775774,1.9656589,-1.6230242,-0.026545083,1.690649,-0.5541659,-1.734128,-1.135124,-2.027279,-0.38324222,2.4833705,0.45869687,1.6154759,-0.9705123,-1.2580243,-0.4774105,0.691854,0.17044656,-0.34896657,0.36727396,0.077361815,-1.5729129,0.93066454,2.3567672,-2.4051397,1.0016296,0.95514077,0.60142714,-1.9660552,-2.0050528,2.7365623,-1.8001933,-0.05414074,0.8839972,-1.48904,-0.6852884,0.11804955,0.36911896,0.5568263,1.1843754,2.2157776,-1.0958848,0.08180854,-2.6530569,-1.4061313,0.6957801,0.091256276,1.3983287,0.5928135,-0.9946797,-1.3593967,2.0066545,0.47057155,-1.0235853,0.8088536,0.09639736,0.46607178,2.396417,-0.85909444,0.25999874,0.07069711,-0.93349695,-2.9070687,0.7262804,0.34473372,1.5276421,0.5785527,-0.37270185,0.37569183,-0.98841834,-2.8025312,-0.8964048,-1.0051217,-3.3342485,-0.8174123,-0.4753999,1.2951002,-1.1306252,0.4101304,-0.48653355,0.3029685,1.4267371,-0.10091749,1.4490846,0.29126942,0.3189224,-0.48442432,0.4973506,-0.46774778,0.19404061,0.027214685,0.0358478,1.540204,-0.12236186,0.96762735,0.30522966,-3.1092105,-0.07015612,2.2795236,0.22668508,-0.055216033,-1.0290374,-0.8921656,1.9608305,0.2762328,-0.9635173,0.87145865,-1.6636491,-0.46990907,-0.10511975,-1.0444292,0.9701545,0.44594488,-0.20574503,-1.7586461,-0.11955862,-1.3158857,0.68934214,1.2978578,-0.032707576,-0.11864258,1.4332112,-1.8073466,-0.3758578,0.76221436,0.8527591,-0.8023165,1.3891575,-0.6364678,-0.4235877,-2.883051,0.8985619,0.9058838,-1.3312196,-0.19279304,-0.97724503,2.1655858,-0.32175454,0.1143981,0.7482147,-0.8239296,-0.71922505,0.36034286,-0.948813,0.04845085,0.8971535,0.06683876,-0.98253703,0.29682902,-1.187812,-0.79330254,-1.4615284,0.79681206,-1.1742576,-0.19602141,-0.27262852,-0.050198514,-0.099059805,0.14870384,-0.6357142,-0.07618215,-0.9269321,-0.32216537,1.3326886,0.0710859,1.1516374,-0.45408836,-0.98473287,1.1232053,-0.8104853,1.6538231,-1.3624542,-1.8803577,0.048068073,-1.8821771,0.6525863,-0.19325025,0.7353626,-0.124528535,0.114266105,-0.8145421,-0.91392654,-0.76288867,0.7172734,-0.18431318,0.5366935,0.3479521,-0.87874085,1.1384126,0.057151753,-1.5907977,-1.6248064,1.9574765,-0.29572308,1.8516853,-0.9354452,0.019944783,-2.135219,1.7634861,0.30075964,-0.6185354,1.4988947,1.7353628,-0.067449756,0.07970651,-0.17022733,-0.29520324,-0.16676626,-0.92538583,1.7199472,0.35328788,-0.13485003,0.11642457,0.53185326,-0.82226324,3.595263,-1.1795391,0.784691,0.8054877,0.23186292,1.4050385,-0.982729,-0.41201442,0.29616296,-0.15394622,0.11925404,-0.12643059,-0.6879838,-0.46161366,0.09341647,1.6499915,-0.89122504,-0.5622587,0.43699282,1.4282084,0.4588275,0.8219088,0.3759482,1.0852103,2.1345818,-0.6444077,1.3385727,-0.6993475,0.14204204,-0.7072499,-0.8342969,-0.40724143,0.63217145,1.2776015,0.3355087,0.8105352,-0.62222147,-0.3220328,-1.2716208,-0.16188104,0.49220103,2.0641768,1.0464563,1.052521,-1.4909161,-1.2019184,1.0590699,-0.019991618,-0.83384156,-1.1991806,1.0568128,0.09997921,0.62019235,0.6456658,-0.62469274,1.0613565,-1.6535361,0.6864802,0.691217,0.65907604,1.8534119,-0.4259149,0.17722182,0.50352496,-1.9484961,0.6315284,-0.46953112,-1.1052693,0.5965215,-0.21222532,0.75505596,1.1715037,-0.39257333,-0.091543555,0.88502645,-0.8714769,1.4641043,0.9952481,-1.4236366,0.8446579,-1.2708207,-1.1674163,-0.21494293,-1.3213738,-0.66272104,0.09351289,-0.5216587,-1.8822603,-1.2524085,0.07307379,0.7651777,1.917554,0.028668638,1.4177973,1.4382832,-2.3103151,-2.084991,-0.62041247,-0.08460551,-0.3405052,-0.3521662,1.3986766,0.74613655,-1.7246338,0.65795237,0.09417054,3.5090926,1.7857156,0.43153334,-0.029456405,1.6767155,-0.73416615,-0.20459183,-0.85617954,0.13576475,0.17055532,0.23429157,-0.76269263,0.8120893,0.0903308,1.0361308,-0.40164804,0.89606464,-0.3938302,1.3974739,2.7779057,0.27671924,1.1673162,1.6457305,0.35666543,-0.3578056,1.4834733,-0.42481256,0.053462487,0.42609078,1.0588696,0.71929723,-0.87290853,1.3584292,0.3533218,-0.5391147,-0.9341433,0.8648495,2.1132343,0.5818932,3.0968347,-0.016277986,-0.67926675,-0.70786947,0.8728042,-0.18225136,-2.125379,-0.26762488,0.35903043,0.8504337,2.274337,-1.0439265,-1.3829345,-0.39098486,-0.05850856,1.2953393,-0.42648393,-1.0932062,-0.62802225,0.004388001,-0.20433907,0.85671204,-0.52118045,-0.5428149,-0.36150107,-1.2184076,0.011568997,-0.12424372,-0.3039646,-0.104913116,0.94576305,0.24511176,-0.026052993,-0.57219917,0.36787075,-0.14700326,0.60571367,1.455124,-0.8370222,-0.03325365,-0.5889946,-1.1168277,-0.07055703,1.7843661,1.6992882,0.9967334,-0.83122617,-0.5668509,-0.25285327,-1.1762985,-0.3130193,-2.3663697,1.0384277,-0.37557217,-1.9924542,-1.1348743,0.39776665,-1.27414,0.6215962,-0.581566,0.20208782,-1.0841323,-0.053732596,-0.25889754,-0.202223,-0.27793974,0.13213564,-0.48946357,-2.2836251,-1.683662,-0.45994133,0.6532143,-1.7505286,-1.0489076,-0.042724337,1.0792394,0.64491445,-0.56443256,0.22375292,-1.1921538,-2.409377,0.4457368,-1.2634586,0.82328993,0.24858648,0.7834299,0.3900678,1.5763975,-0.39273682,0.26683497,0.35891235,-0.20776546,0.64630693,1.1834334,1.0661106,-0.3941657,1.8360888,0.39494067,-0.64068514,0.94723505,-1.1582128,-0.5571301,-1.383419,-1.1032399,-1.573466,2.162407,0.032709666,1.5387532,0.29018494,0.2685409,0.47185653,-1.1777848,-1.4368414,2.3565807,-0.80214757,0.8538787,-0.5342912,0.03930712,1.1916575
ANPEP,-0.07124549,-0.5137645,-1.3414059,-0.08134774,-1.4302336,0.7376326,1.6364027,-0.21582897,-1.9222699,-1.8968928,-1.1096722,1.1041747,1.482623,-1.4151027,-1.094436,0.27832666,1.0196801,0.21344076,-1.1750278,-0.12349681,-1.1595944,-0.33064592,-0.34730667,0.694347,-0.44223848,0.33288172,-0.5518097,-1.1333187,-0.1559609,-1.1334156,-2.3077786,-0.77144414,1.6578592,-0.098235324,0.55981743,0.14626609,-0.5806998,0.0068633445,-0.951276,0.056230053,-0.65822864,-0.24243784,-1.2171885,-0.759503,0.7449103,-0.34305334,0.0787667,-0.5253103,-1.8486148,0.0065036705,0.48963127,-1.1099094,0.24737407,0.8265068,-0.8837992,0.0044177016,-0.20849577,1.2027706,1.2351032,0.6474744,-0.9660462,0.21826716,-2.7416868,-1.4974873,-0.12016271,-0.026437365,0.31557176,-1.7352841,-1.741976,-1.6292082,-0.14787559,-0.702233,0.72817826,-0.7496443,-0.87145185,-0.124758,0.09682773,-0.79075617,-0.57203275,-0.251262,0.7365627,1.1875249,-0.962372,-0.79810154,0.1682914,-0.8493633,-2.0523963,1.6692238,0.52945,0.14751701,-1.331613,-0.23651516,-1.3955867,1.0805082,-0.15836395,0.64402884,1.0329103,-0.52733755,0.003976789,0.9751867,-0.3727573,0.23137207,0.28210557,0.2859392,-0.97864866,0.005503081,-0.57568,0.09709221,-0.54919016,0.19239178,-0.15754652,-0.02566675,0.41147628,0.97518885,0.31695098,-1.1226542,-0.32877797,1.3578432,0.32692584,-1.850377,0.8499734,1.9536468,-0.43763942,1.4664505,0.15851118,-0.51916784,-1.0307977,0.83038396,-0.9336346,-0.32706028,-0.7523268,0.9073525,0.08539663,1.2344618,0.68802124,1.5738852,-0.85643923,-0.6816484,0.0579297,1.7368764,-1.1993989,0.32820252,-2.1567895,1.3783038,-0.3933434,0.16811301,0.07803725,-0.055183508,1.584297,-1.525092,0.06851695,1.898213,-0.15845053,-0.042942584,-2.2109535,-1.9186902,-1.1172404,-0.66053003,0.51620084,-0.54355186,-1.1149148,0.8332071,-0.33772174,-0.29017097,-2.4949625,-0.5124831,1.8724468,-0.2908032,0.3177894,-0.53682035,-1.1868141,0.20459914,0.59609437,-0.4619627,-0.9202996,0.49717656,-3.0673666,-0.4926577,-0.8733357,-0.8774379,0.22779389,-0.07059875,1.8083249,-0.50499916,-1.9428674,-0.16997616,-0.71173114,1.2888609,0.9929016,1.305871,-1.646242,0.25805727,0.15980756,-1.0258902,1.2665484,-0.0031821998,1.6196237,-1.0101824,-0.8198872,0.9164315,0.84834534,0.928286,0.09770108,0.4445234,-1.4226595,-0.41628072,0.13643757,-1.0795515,-1.3440228,0.9354001,1.071619,-0.084104925,1.0997423,-0.2721437,-1.3201017,-0.44341183,1.2305672,-0.14720863,0.49145395,0.33608136,0.92988706,-1.7740132,0.31431302,-2.0267408,3.4536998,-0.3924921,1.4943095,0.4208058,-2.2648597,-1.264309,-0.6477674,0.09706311,0.3900566,-1.1118306,-0.70499706,0.7041257,0.061736256,-0.64195335,-0.58347213,1.0581803,0.087584175,0.3418301,-2.160422,1.9023575,-0.988758,1.5168166,0.47310692,0.7076278,0.5938334,-1.6415639,-0.0419116,-0.28099337,-0.455755,0.7620694,-0.1935861,1.4749058,1.114978,1.6096708,0.30505443,-1.7173234,1.2590364,-0.30788258,-0.7801099,0.9143429,-0.7159388,-1.0414679,1.8194517,0.059972588,0.40407708,1.0357411,1.091574,-0.8325545,0.8264194,-0.45004764,1.2186459,-1.0205549,1.1535984,0.6568701,2.6356585,1.5314082,1.7551523,0.42479175,-1.2853541,1.1271962,-1.2855974,0.91561335,2.7191727,0.15967456,-0.825719,0.9521537,0.1474022,-1.4031653,0.797221,2.2862682,-0.24225554,0.7734487,-0.41470003,0.49120238,-1.5465053,-1.8566841,0.24476685,0.41902167,-1.4412471,-1.3693184,-0.6058667,-0.5167827,-0.45056042,2.1129959,-1.5128398,1.477636,1.6848681,0.2918045,-2.4777703,-1.767713,0.8498654,0.58237654,2.3969374,0.27205294,0.770602,1.1258736,0.1593631,1.4923855,0.3817455,0.35837352,-0.76707596,0.61705,0.118228294,1.0436088,0.38177195,1.0980377,0.5512611,-1.071879,-0.12055212,1.2968239,1.4095114,-1.1918012,0.11273825,-1.6369839,-1.0250853,-0.9277658,1.1342543,-1.5201867,0.8442231,0.5672541,0.893644,-0.790991,2.5556781,0.67776936,0.78822345,1.9929274,-1.6837941,-0.36468363,0.7215525,-0.7752534,1.5223273,-0.7537714,0.9845426,-0.6721961,2.0023363,0.13425633,-0.9727519,-1.584256,0.91893333,0.7927349,0.7155479,0.5832617,-1.8855996,0.069306254,0.9786486,0.95485175,1.6197358,0.86537933,-0.1556802,-0.52236146,-0.23997228,1.6693616,0.07175346,-0.80166644,0.83342594,1.0832855,-0.44878533,-1.8232836,0.55076134,0.6856335,0.65393543,0.06435658,-0.6705308,1.8614068,-0.079574004,-0.8363103,0.33227074,1.3974977,-0.6881936,-0.6380635,0.6447047,1.3755081,0.40232262,0.13952607,1.2007989,-0.8353175,0.5846571,-0.46238908,1.9525723,0.6282749,0.87406754,-0.26123285,-0.8839165,1.6208571,-1.5062797,0.42821836,0.5700252,-1.8906926,0.23937212,-0.9236117,-0.05913493,1.4047931,-0.39808455,1.3403912,0.54501736,0.054784853,-1.7135208,0.15500546,-0.32166597,0.22607437,-0.79968274,-0.34868446,-0.06660782,-0.059749495,-1.9173441,0.091239214,2.8224385,-1.4606158,-0.6610692,0.2498443,3.027598,0.525323,0.07389382,-1.7734007,-0.52912086,1.5984943,-0.95401484,-1.3574535,0.28575626,-0.21656846,-0.53867376,0.4929005,0.20137581,-0.263436,1.9897145,-0.4340122,-0.7457916,-1.7739651,2.5930216,-0.3583529,0.9694626,0.6543957,0.37852374,0.22733444,0.30749416,2.4213345,0.37026688,-1.8909663,-0.7104292,0.24049844,-0.8395552,-1.0995382,0.64588064,-1.5698774,1.6751046,0.8496527,-0.8056799,0.21163931,0.4897021,0.44844165,-0.67968136,0.095689334,-0.2538208,1.3309379,-0.3440506,-0.51359916,-0.37149796,-1.1747371,0.6182755,-0.3045414,-0.13811606,-0.6444975,0.41531235,2.0493429,0.818314,-0.043968905,-0.14251372,-0.37806368,-0.94616145,0.969864,0.21825688,1.0741847,-0.22733101,0.4445472,-0.7947884,0.91654485,0.14725143,0.75162965,-0.3907879,-1.6427739,-1.8945233,-0.4228681,1.1717919,0.6094015,-0.5407544,-2.3467426,1.2387227,-0.09806544
BANK1,-0.5301649,-1.4495238,0.4343193,-0.15067853,0.92793524,-1.4509493,0.35761765,-1.3538973,2.0590906,0.34556392,0.3900361,-0.7945459,-0.90162146,-0.035985116,0.10464927,0.98974246,-0.4629296,0.08177044,-1.9096977,1.4125977,-1.5853778,-1.1454033,-0.12717319,0.9692985,0.438408,-0.3373375,-0.6840864,2.2782238,0.30631706,1.2140666,-0.17600538,-0.8638074,-1.27722,0.09464831,-0.74664795,-0.61994284,0.09726889,0.76526725,0.8918591,-0.3010896,-0.49580455,0.059306085,0.5550795,-0.49102184,-1.2185625,-0.029299837,2.7542174,-1.0583315,-1.0097542,-1.6135842,-0.6798796,0.40392125,-0.9006179,0.938667,-0.5587437,-0.9271865,-0.3396297,-0.16629341,-0.3387187,-0.16061929,0.2798441,1.8999738,2.3867102,-0.87042904,-0.76439947,0.73252577,-1.6091665,-1.47518,-0.952959,-0.4207248,-0.03801404,-2.6091404,-0.1340701,1.2049533,0.2966609,-0.8072527,1.137714,-1.1487372,3.193784,-1.4812856,1.4777367,-1.4023981,0.46131316,-0.3969164,1.5239005,-0.49834576,-1.3644948,1.7957354,0.9867508,2.2318687,-1.3869902,-1.0691267,-0.70291173,0.64696103,0.5617615,-1.6037182,-0.16720659,-0.6508179,-0.0765328,-0.5263396,1.2397966,1.9640247,-1.313137,-1.7862933,0.8524905,-0.4165842,0.4351,-0.55487883,-0.2953648,-0.66888213,0.4930506,0.37209067,-0.8399887,-1.5370256,1.8595959,-0.8343171,0.96829635,2.137378,0.73371905,0.21163824,0.60489416,2.3465931,-0.5278547,-0.5370902,-0.1521081,1.0286505,-0.33115378,-0.6393568,0.26130137,0.18323705,-0.09309908,-1.3660126,-1.05206,-1.0172169,-1.5643122,0.24667619,-0.7330089,0.53371763,-0.20715047,0.3959627,0.7528872,2.0602834,0.39163175,1.0270057,1.0970829,2.272579,-0.7225457,-0.60451794,0.44329035,-0.76527673,-0.7582318,0.9454955,0.28414208,0.24388096,0.66445374,0.8743145,1.3751844,-0.20584263,-0.9383486,0.9399138,0.39037162,0.9498781,1.1610167,-0.14687578,-1.2150279,-1.4821494,3.012556,1.5950458,0.4265112,-0.2498452,0.5039696,-2.1168168,1.0978,-1.8684714,2.46981,-1.0230732,-0.63351053,0.2941411,1.179046,0.6463401,-1.8777854,-1.0443443,0.7130261,0.3161845,0.9343109,-0.4520987,-0.2970238,1.7650384,-0.44865122,-0.30028176,-0.64038104,0.8564693,-1.0531784,0.5998018,-0.2980245,-0.61568135,-0.754456,0.11900847,-0.88953763,0.43233982,-1.2727244,0.21190079,0.37335804,0.50770104,0.9906964,0.6104305,-0.57788455,-0.27725786,-0.46220386,0.45496428,-0.28908572,0.8734726,-3.4876864,-1.4857287,-0.6882345,0.081072986,0.6836385,0.38734975,0.12025706,0.102136,-0.57344544,-0.12604731,-0.8135097,-0.1685433,0.3582018,-1.0126134,0.20264807,-1.0860487,1.9082478,-0.081588365,-0.9648619,-0.5755702,-0.7300618,-2.0333295,2.1981657,-2.384351,-1.4995202,0.19946815,0.12036255,-0.1559183,-0.68778956,-2.2918103,0.6225876,1.6279706,1.9567478,-1.298493,2.2457206,0.5555245,-0.24705353,-1.1446146,2.7233837,0.9242268,0.81055707,-1.9056311,0.15190423,0.70028776,-0.88829505,0.73445207,0.06758911,0.31830576,-0.17710876,-0.48066092,0.47623286,-1.2652959,1.741598,-1.9950244,-0.0753417,-0.9892216,-0.18883346,-0.35678664,-2.1266994,-0.10788894,0.4432663,0.69599533,-0.20086986,-0.5553365,-1.9365522,0.124617316,-0.30426267,-1.1614095,-0.7814866,0.6774516,-1.5803357,0.9868341,0.25047442,1.4134121,0.766419,1.2218008,-0.048313737,-0.16874072,1.8968982,0.38230628,0.9545449,-0.6323934,-0.4434491,0.2504196,-1.0675539,1.0753597,-0.43270606,0.28482696,0.08158528,1.159884,0.9187047,-0.45910132,1.7275885,1.0926968,-0.66439766,-0.22799729,0.77090436,-0.050306115,0.30161047,-1.4648863,-1.5613968,0.78821987,1.6319481,-0.91272897,2.289118,-0.30539733,0.78926903,0.26957154,-0.8060629,-1.4477321,2.0032854,-0.16048479,0.77348566,-0.4313789,2.1921089,1.4879674,0.98879856,-0.5616676,0.33663446,0.9920448,-0.76279265,-0.7496068,-2.1900408,-2.4427733,0.19787377,0.6499088,-0.009582414,0.011112571,-0.5904253,-1.3015708,-1.7206683,0.07093763,-0.41253126,-0.18323858,0.670578,-0.7171259,0.004965284,0.03545112,-0.46200097,-0.3752136,1.2971107,1.5617976,-0.9351544,-1.0921804,1.4792902,-1.2005004,0.22136721,-1.051037,-1.2239397,-0.32954875,0.0004381746,-0.714378,-0.07791895,1.0681194,-0.33602566,3.4124804,0.71897393,-0.51124334,0.046751507,-0.55216366,2.3148363,-1.5685003,1.3095927,0.5015306,2.2725184,0.024525633,0.60919213,-1.1978326,-1.0562843,-0.6177019,-0.41319233,0.9220136,0.34998792,2.4938965,1.0948746,-0.65458006,1.222134,-0.44632614,-0.26744702,1.3242635,1.1770972,0.84535855,0.85441804,0.15465832,-0.9944042,-1.6213504,1.7623724,-0.43173048,-1.0307564,-1.1957734,0.14247084,1.4187459,1.425578,1.58051,-1.1600734,-0.0844403,0.48774165,0.29988655,-0.24789624,0.26230296,0.90551686,-1.6153978,-1.9037954,-0.56313246,-0.9784758,-0.9596121,-1.0103599,1.166353,0.2753527,0.46631765,1.8805038,-1.1836417,1.186169,0.5972406,-0.98363024,0.7598859,0.35564125,1.7508274,-1.8806185,0.6446942,-0.12027232,-1.4378216,-0.3562906,-1.5233384,-1.6987582,-0.83718896,1.6873579,-1.5393629,-0.0814948,-0.98206043,2.8657951,0.613124,-1.4920974,-0.7726033,-0.13006496,-0.8859895,0.2530036,-0.9514833,0.9426397,0.9630422,-0.30485752,1.290111,-0.90782046,-1.7659683,-1.1779034,0.38745615,-0.33104685,0.27447787,-0.9122647,-1.3973831,-0.23667634,-0.027024409,-0.18349688,-0.17472804,1.0344408,0.9563379,0.30984017,-1.9598818,1.2162318,-1.357075,-0.087719984,1.5508113,1.8779117,0.16942628,0.4604209,-0.02859167,1.2924489,1.5086133,-0.9176593,0.070886776,1.134696,-1.4954484,-0.041176382,-0.23306906,0.32758656,2.2537615,-0.6148215,-0.7568658,0.5582538,-1.3192902,0.062019408,0.65363795,-0.71783704,0.12039306,0.083787255,1.3975631,1.6143854,-0.0072951815,0.5835858,-0.654031,-1.4599626,0.57596546,1.554736,-1.6575472,-0.04717106,-0.23449649,1.0962132,-1.4149368,-0.59825915,-1.0819023
CCL19,0.2340944,2.3464777,4.5458937,-1.7329427,0.20265491,0.45821545,1.8627896,1.293065,1.0885034,-1.3691672,-1.0387231,-0.6649888,1.5946268,-0.2191045,-1.1763885,-1.5924745,-1.059703,0.45243034,-1.1522638,0.11991844,-0.603463,0.34002042,1.5086726,2.3376307,-0.46572402,0.6544386,-2.4087505,-0.8826412,1.812672,0.27102217,-0.36198115,-2.9333978,-0.08324513,1.4379115,0.08629107,0.22544819,0.21118759,-0.61569506,-0.77479565,1.6301799,1.163311,-1.2798339,-1.7552545,0.98550737,-0.65549386,1.1774354,-1.9633551,0.12401632,-0.5718925,0.50361574,-1.4307947,-0.17759904,-0.17771533,0.22506699,-1.649847,0.009309751,0.35490566,0.11176499,-0.5803098,-0.18477356,0.6426055,-1.1466035,0.07024736,1.2273827,1.794869,1.018705,-0.039010912,0.21929511,-0.015919067,0.3470774,2.0155659,-0.40224192,-0.6153653,-0.84490734,-0.5583841,-0.7431291,-0.9536795,-1.1985841,1.9347653,-0.038330432,0.27637944,-0.7328434,0.24575911,-0.8745685,-0.22818998,0.16034928,-0.8606896,-0.91121167,-0.32207012,-0.25056416,-0.5771129,0.17519896,0.6648601,-0.06391263,-1.479482,-0.77288544,-0.011778398,-0.01205396,0.7349837,0.19582479,0.80484676,1.2779568,0.61670667,-0.81379014,1.38137,0.16986713,1.0921053,0.741872,0.36405405,-0.25642455,-0.7387723,1.5611573,-0.48216334,-0.43689716,-1.0530585,1.3415109,-0.8654271,1.2693002,0.33131185,-0.3141729,-0.32370755,-2.6710553,2.0136154,0.82323796,-0.8141602,-0.6984475,-0.10827504,-0.50984675,1.2391492,-0.4709251,0.4405953,0.74681735,-1.2626271,2.421229,-1.6297033,1.7882878,0.06358672,-1.0320569,-0.6247362,0.84397477,0.99031377,0.88054657,-1.628632,1.6661121,-0.3054297,1.1364204,-0.3187667,0.5830996,-0.6636635,-0.51421523,-0.46442994,-1.2439196,-0.4772522,0.4169708,-0.59981203,1.1840644,0.54971606,-1.8187445,-0.100587465,-1.3758378,-0.16848831,2.2331512,0.7291528,0.3951425,-1.2418166,2.9562454,0.7117469,-2.2791924,-1.6733673,0.4837881,-0.39020714,0.18127845,-0.96136326,0.6703503,0.3215489,0.25061175,-0.39551765,-0.16889895,-0.32809198,-0.7362711,0.7821743,0.8238039,-0.9970958,-1.6566616,-0.09936884,-0.78061783,0.53736615,-0.71166015,-2.1951072,-0.9249396,-0.30493644,-0.37959972,0.55710465,-0.9477132,-0.66911,-0.25281772,-1.265013,0.2037011,1.2379299,0.15973854,0.0042231297,0.40999177,-2.7093635,0.49767202,1.1163353,-0.20972398,1.5183631,0.44826442,1.1435779,0.3209356,-1.9632782,-1.1978142,0.80099386,-1.6219611,1.0477433,-1.1268162,0.74669194,0.06672177,0.21378769,2.2906642,-2.278431,-1.4974194,-0.045096762,-0.2889947,0.1923289,-2.3091185,-0.22602305,1.3572145,-0.49149653,-0.36887988,0.9725165,0.3290569,2.0149329,-1.4851724,-1.3575354,-1.0666294,-0.9730636,-0.1668143,-1.3688306,0.7641604,0.3279571,-1.1637964,0.652614,0.8100258,0.7453081,0.6409908,0.14089778,0.65848655,-1.2416952,-1.850526,0.62117684,1.8858645,-0.7721149,1.8067758,-0.027160227,1.5712516,1.1356804,0.01793947,-0.31726846,-0.99709624,-1.0202986,-0.08019724,0.6280087,0.5493495,-0.4652585,-0.32004157,-1.5917069,-0.6373742,1.8966147,-0.09710118,-1.3733526,1.6735995,-0.42759615,-2.578962,-0.5100027,-0.5665866,0.5086873,-0.8222035,-1.0550665,0.667703,-1.1770871,-0.04631273,0.99289215,-1.2441406,0.8521756,0.3607247,0.99759376,-0.6277464,0.23736106,-1.4933354,-0.1634904,0.090743124,0.48943913,1.4969454,-1.2034047,0.41843826,-0.5546034,-0.34441644,-0.3163323,0.929613,1.1906236,0.9674701,1.7150518,0.13594623,1.8337505,1.1796486,0.110680826,1.1857985,0.8260811,-1.3956902,-2.193338,1.5895023,-0.7695451,2.4171138,0.490472,1.5975512,-0.31243935,0.70607376,-1.0396564,-0.7877016,1.0381668,-1.2465317,2.2343626,-0.6810062,0.21804337,0.3688229,-0.40986902,-1.1866086,1.5461218,-2.2069857,-0.7977823,0.6578795,-0.3020048,1.0606469,2.9981992,0.26490512,0.09068187,0.41585603,-1.0066521,-0.23015821,0.39524043,-0.88542384,-0.001005671,-1.0107085,-1.563013,-1.3047972,0.7835375,-0.26877227,-0.29388675,0.76411635,-0.07370103,1.7969475,0.14338239,0.8061542,0.17493406,-1.5033249,1.2924584,-1.4577628,-0.30466726,-1.0335037,0.46911317,0.6236596,0.027571725,-0.9423076,1.3368618,0.6875953,-0.9523611,-0.11905149,-0.011130554,0.44073057,-1.6502596,0.6808778,-0.3946771,0.6549404,1.5119703,0.069247566,-0.12311459,-1.5815643,0.5566647,0.45516264,0.47582188,1.9206392,0.37813908,0.43581513,-0.28481913,0.40252572,-0.562183,0.9022577,-0.24196978,-0.96000385,0.03229141,1.7630317,-0.14266837,1.2765473,2.3556662,-1.7568357,0.31766194,0.46980157,-1.4104773,-0.23304553,-0.15501349,1.0137577,0.6399164,0.31957778,0.46626222,0.95657986,0.54926217,0.37741187,1.7525414,-1.3076288,-1.1028324,0.51890796,-0.7586733,-0.4231876,-0.6953413,0.007720364,-0.7044172,0.56809384,-1.0511023,1.2846107,-0.84345895,0.69522905,0.14930218,-1.1079574,-2.1986558,2.1061456,1.6188171,-0.685737,1.4533015,-0.22157347,-0.7439199,-1.0842371,-1.2080244,-0.9699873,-1.8274431,-1.0761852,-2.2960057,0.19102958,0.95545304,-0.46788177,-0.24907391,-0.65238893,-0.5016306,-1.6867738,1.537688,1.6091346,-0.95814675,-1.5632999,-0.8378252,0.15354346,0.3484442,-1.0850142,-0.588189,0.48776457,-0.94495225,0.81000876,2.239432,0.42080233,-0.82956594,0.0098428335,-0.867532,-2.1164787,-0.23094378,0.07056393,1.2465031,0.659336,-0.44065014,1.2006902,1.013935,-0.5820712,0.394458,1.005607,0.6406143,0.62262577,1.0864776,-1.2145163,0.025562482,1.8564563,-0.40312257,-0.45417377,-1.8765911,-0.8761477,-0.08318007,-0.24470735,0.9076388,-1.1109061,0.30993745,1.1171013,1.7368084,-0.30108598,-2.2590132,0.5511817,0.4437903,-1.0942999,1.2051867,0.18472399,1.793332,-1.5397602,0.94354993,0.7215341,-0.242278,0.8743708,-1.2691306,0.8986691,1.2907733,0.055332333,1.6729347,-0.34826916,-0.1468053,0.33476642,-0.3036534,0.50105023
CCL5,1.0517101,2.2481914,0.9181318,-0.9917398,-0.55017495,-1.2797178,-0.93970716,-0.029843835,0.53419966,0.8635797,-0.8252869,1.9153165,1.3364854,-0.4392786,-1.2355036,0.9467975,-0.20896241,-0.7386504,0.37429896,-0.323058,1.7619827,0.0070971353,1.0609198,-0.10212126,0.6426088,-0.39850873,-0.1386527,2.7378244,-0.56543547,0.42604712,-1.3482008,-0.9412844,-1.4203491,0.8140585,-2.731394,-0.3113067,0.57599103,0.16870645,-1.1296844,-0.44125906,1.2623786,-0.3504288,0.16169274,-1.617985,-1.9131031,1.5570126,0.4723519,-0.7465266,-1.3076744,-0.21886037,0.9266089,0.3804498,0.90939885,-1.5739833,-0.1876087,1.0529758,0.83399534,0.064490415,-0.53050107,0.30054447,-0.12525038,1.6586474,1.7156574,-1.7380358,-0.49627325,0.32227227,-1.2114245,-0.93286455,-0.7275198,2.0763235,0.88483334,-1.373552,-0.15492798,-1.2584351,1.8012476,0.45113248,-0.15193711,1.0884664,-1.3091763,-0.18293934,0.56942517,0.79559964,0.5992299,1.0530075,-0.898587,-0.99694246,1.656617,-2.7925432,0.6601678,0.6197679,-0.010992129,-0.6355672,-0.27144477,0.58394057,-1.7465296,0.4185569,-0.80344766,0.20202908,0.068036065,0.396601,-1.5204638,-0.63742155,-1.6644324,1.8013704,0.7214347,-1.4615234,-0.623582,-0.5940887,0.29570898,-0.514313,-0.7447514,0.78277147,-0.7262148,-1.0855583,-2.2316146,1.7986588,0.3161349,1.5110815,2.7678597,-1.1857493,-1.4094977,-1.3876995,-2.0028355,-1.1908281,-0.24757236,1.9253428,-0.9329119,0.48411766,-0.86154383,-0.5483749,-0.44404167,-2.0208292,1.7920192,-0.59147584,2.5587518,-0.50342244,-0.7831631,0.26231322,-0.49041557,1.5535312,0.6074579,0.14756212,1.5396888,1.3193786,0.624976,-1.5695539,0.27856404,-0.8188097,0.8716342,-0.27265584,-0.4003375,-1.1425251,0.21414049,-0.22552648,-0.3141521,-0.17166369,1.3726133,0.8702876,0.7141147,0.9929237,1.134941,-0.030964028,-0.8375361,0.64551765,-1.0056071,-0.9679993,-2.0793052,-0.6956329,2.578684,0.6589284,-0.6807731,-1.3865743,-0.26515898,1.0989918,-0.19947563,0.95870143,-2.3740075,-1.8327011,-0.4660139,-0.44253463,0.5743469,0.8306926,0.9021591,-0.44039968,-0.4930519,-1.4874939,2.061528,1.0509415,-1.2995509,-0.6204989,-0.75098115,0.86983293,0.6514684,-1.7150204,-0.015570209,2.0391028,1.0664829,-2.1720583,-0.545505,0.73377156,4.376155,0.26221436,0.80584055,-0.31157157,2.3238218,0.7320684,-0.7814181,-0.1892114,0.18671198,-0.9907516,-0.530229,-0.7718353,0.66044,-1.1148648,0.5308893,0.1706848,0.016294029,0.05841365,0.26777184,-1.9990927,0.1556365,-0.6323148,-1.9957017,-0.9118605,-0.7434972,-1.0592544,0.030915625,-0.7549959,-0.54870033,0.9438626,-0.66409624,-2.1153646,0.49876863,0.52296275,-1.0755746,1.1625366,1.3506414,-2.4445226,-2.1582787,1.2651929,-0.6456501,0.8863269,-0.43131015,0.2534129,0.0055238744,-0.35602015,0.34925428,-1.0881283,0.16444625,-1.2685621,1.2905246,-0.6855716,0.52143,-1.5195744,0.34803003,-0.52528673,-0.0144144045,-0.4673789,0.22211257,0.06725102,-0.1613982,0.16748878,0.15655054,0.30592299,-1.2284607,1.9646808,-0.3537538,-1.382775,1.8407009,0.331219,-1.1851423,1.067809,-0.35523534,-0.3022141,0.9185135,0.45896465,1.8334627,-1.1499592,0.1396156,0.028355386,0.4958354,-0.308056,0.4752089,-1.3596324,1.290998,-0.44044676,1.1065966,-0.3705482,-0.080816165,0.94934523,-2.4122474,-1.5084654,1.666082,0.13488594,-1.1983393,0.20893463,-0.11537491,0.9625962,1.441345,-0.15393114,-0.59371734,0.68616927,0.82190853,-0.5643101,1.0041786,-3.651479,0.724461,-0.7758547,-0.42996857,-1.555222,-1.3313894,0.028229684,0.67436975,-0.787834,-0.9791623,0.6867493,0.7127935,0.25366017,-0.79704964,-0.719887,-1.9849175,-0.47659504,0.95866114,1.6272043,1.3311317,0.40275937,1.8309377,0.31146032,-0.85415053,-0.5910269,-0.0211264,2.0053508,0.52798086,-1.2497277,1.2992948,1.6342416,1.0053762,-1.7491353,-0.559879,1.3461674,-1.1861995,0.24998088,-2.1748981,0.0023515963,1.9326854,-0.14684038,0.120611995,0.92758405,-1.3878027,-1.6381376,-1.6465962,-0.79943013,2.1404042,-0.062239844,-0.7543074,0.050481897,-0.081902534,-0.29847944,0.3842473,0.013116451,0.30018952,-0.563815,0.7715826,0.027533673,-0.6769895,0.083953306,-0.30494395,0.6943627,1.9859656,-0.25287357,-0.89064246,-0.61896384,1.0742167,-1.1378316,-1.230824,-0.49022564,1.9896566,-0.58628196,1.1497232,-0.14577617,1.2494862,-1.5352013,-1.0935804,0.8218804,0.58752143,0.10357838,0.043101713,-0.41557705,-0.29070893,1.2852066,0.36415252,-1.8065993,-0.83408684,0.98615307,-1.6892072,-2.2666945,-0.03789401,-0.7379977,-0.8536211,0.48365566,0.2753113,1.038743,0.8058699,0.70747435,-0.5800065,0.72128904,1.3089681,0.7271941,1.4212732,-0.6624309,0.48692504,0.46766594,-1.6203378,0.5389972,0.1805853,0.18183699,1.3252649,0.32537124,0.051176842,1.2125899,-0.17529039,0.9096867,1.0215207,-1.0682096,-0.116602,0.28692085,0.26377982,-1.21664,1.5672314,-0.27472702,0.19444107,-0.6340499,-0.13226539,-1.3880922,-1.1614356,0.45231655,-3.0582776,0.14374675,-0.82189876,0.28666916,0.976835,0.53147686,0.11666669,0.8758376,-0.37924916,-0.72445256,1.9045718,0.39284536,-0.064811125,0.95457464,-0.28325754,0.1283263,-1.6917682,2.0133157,0.2825234,-0.61495525,1.426757,-1.5089949,0.41544312,0.6664495,-0.7129179,-0.6459309,1.3958063,0.12029922,-0.9661328,-0.7764411,1.132597,0.098773405,0.11413688,-0.65487015,-0.5108338,-0.6488028,-0.8463675,1.7782279,0.10275555,-0.53674597,-0.050603893,-0.11983405,1.7102828,-0.5333215,-0.65641016,0.33726388,1.4856358,0.06280473,1.9328982,2.7923157,-0.79881227,-0.163306,1.9926254,1.0670096,-0.65401727,-0.042080965,-0.54902,0.11964454,1.2583522,0.53027886,0.11960331,-0.15670201,0.2605065,0.65182275,0.34782344,-1.7608687,-0.26536667,-2.309577,1.0998756,3.120169,0.35355866,-0.792299,0.36355367,1.6318512,0.22183077,0.9200357
CCR7,0.11955438,0.2445536,0.93362534,-1.0571754,0.46657574,-0.8314548,0.41150802,2.1976569,0.15204948,-0.1863704,-0.14412126,0.6171237,0.57763755,-0.066534124,0.08836501,-1.1132697,0.4330551,1.2494344,1.2476115,-0.049137045,-0.90676594,-0.53322107,0.3424151,-0.21142505,-0.9701325,0.9334346,-1.5175556,1.5988235,-1.4761964,1.9761816,0.22470583,0.947739,-0.61010116,-0.08103378,0.23552968,-0.75188744,2.4778488,1.147,-0.5456432,-1.4897652,-0.7198429,-1.1818049,0.58183086,1.9807098,-0.054295104,-0.90033937,0.9776348,-0.8505892,-1.433241,0.99577385,0.6457094,-0.8047062,-1.6427909,2.872073,-1.2829163,-0.89259624,-0.9802451,-0.1096743,0.55088407,0.36108977,1.148841,1.455202,1.9987383,0.3269436,-0.6658887,-1.2139617,1.8354341,1.1617696,-0.6454016,-1.0298284,-0.797484,0.5649371,-0.31701216,0.76610607,0.6324282,-1.3996123,-1.8650736,-1.0477059,0.5438644,-0.19969931,2.212488,-1.1269934,0.73870564,-0.27873504,0.4854853,-0.40421763,-0.23685357,0.4255876,0.0655963,-2.7728434,-1.5752805,-1.0489813,0.1341722,0.48902577,-0.22478633,1.0393988,0.0594801,-0.4994272,-1.0037955,0.28295833,0.5230564,-0.38876727,0.66730493,0.84610087,-0.9725556,-0.89470583,-0.65568376,-1.0001125,-0.28971997,1.9897492,-0.12955567,-1.6693112,0.27056,0.5675938,-0.9513566,0.85917556,-0.6782123,-0.15034282,0.22415857,-0.48564804,2.1416178,0.9087841,-0.44886762,-1.4483552,-0.3676689,-0.08074316,0.5786623,0.29879037,0.7983347,1.117435,-1.1158128,0.07251783,-0.26625878,-0.9955839,0.34664133,0.124220714,1.5277015,-0.13316949,0.26769766,-0.61492383,1.2170316,0.65605676,-0.5825347,1.1467847,-0.15185274,-0.7527595,-1.2043494,0.130047,0.014730461,-0.9241991,0.95679355,0.027761986,-0.37426102,-0.18956152,-0.16281474,-2.2615173,-0.6448193,-1.0946214,0.26267257,-0.4002888,0.97887444,-1.1903167,-0.8309494,0.4679177,1.4581337,-0.110410705,0.29289743,0.7890624,0.27460644,2.6355166,-1.0450022,-0.19421987,-0.8001679,0.67312366,0.1661446,0.40850037,1.5888704,-0.39564154,-0.54930437,1.1860578,0.10445778,-0.2082069,-2.0269406,-2.369591,-0.32444283,1.5044447,-2.2833686,-0.4090472,-0.39204443,-0.45265964,1.2047881,-1.3315802,-0.9895483,-0.5308998,-0.35563266,-0.65951186,0.503246,1.8836454,0.18393457,-0.115052715,-0.4239001,-0.22047104,2.077164,1.2859753,-1.6660172,-0.043893676,0.07451696,-0.32762474,-1.1455337,0.35894954,0.7027986,-0.70122474,-1.4781591,0.9250803,-1.1908033,0.7490181,0.74766123,-1.2772425,1.4480243,0.26840013,-1.4604528,0.22060697,0.4349174,-0.26411968,0.098951384,0.24568084,-0.020837318,2.0577269,-0.91437614,1.2000335,-0.7150331,1.3532478,1.0919725,-0.35325798,-1.5457593,-2.5696833,-0.05257945,1.1780124,-1.3046511,0.22776085,-0.35259253,-1.24519,-0.297345,0.92241424,1.3961196,-0.094177306,0.5168576,0.8550773,-1.5696641,0.28616872,0.93409616,-0.09079895,1.6782259,-2.486344,-0.5050609,0.34475002,0.86632746,-0.43896136,0.88184583,3.5194924,1.0289358,1.7082719,-0.2622119,-0.22910868,0.22765142,-0.48779762,0.629961,0.738177,1.4244285,-1.4349376,0.12305956,-1.3431923,-0.822427,0.07874323,-0.83183753,-0.49840143,-0.9141034,-0.8101618,-1.5196036,-1.2783352,1.0523589,1.0047636,-0.8163163,-1.2650211,-0.97539955,-1.6477071,1.0185493,1.5051389,0.051364854,-1.2308099,0.42792094,-0.42056897,0.9146497,1.5931858,-0.29897723,1.0038551,-1.4777229,-0.5327067,0.8635826,-0.80897427,0.61115426,0.6435192,1.0497427,1.5041957,2.0523372,0.64872926,1.1392624,-0.188183,-1.1168605,-0.8951163,0.28527164,-0.8067698,-2.2647161,1.2323068,0.032398727,1.3642613,1.9618251,-0.81397855,-2.1665752,-0.31043768,1.1735855,0.5731452,-0.38052872,0.34403,0.6245768,-1.1770011,-0.14879128,-1.4548025,0.9656036,-0.8052861,-1.6683503,-1.8781401,0.33086646,0.82367307,-2.6493945,1.1725087,-0.72662413,0.88569796,1.0662576,0.087420136,-2.3039982,1.1058846,0.80493104,-0.32070124,-0.8378122,0.6745683,-0.06343151,-1.0144867,1.4510528,0.9383431,-0.6856043,-2.0177503,0.33830643,0.76755136,0.00740869,-0.5700559,0.1453692,2.2121427,-0.71038496,-1.7089219,1.0191137,-0.44697616,-0.058112532,-0.9234941,-0.19346869,1.0851171,1.3658967,1.4767133,0.4090533,0.093247406,-0.43773144,-1.5558214,1.5395299,0.9976227,0.060112447,1.4369295,1.0692017,0.837178,-1.7582302,0.6353407,-0.24094917,-0.71595603,1.816521,-1.1701325,1.3680985,-0.7399662,0.673697,0.5464561,0.32135427,-1.4514982,-0.3267759,0.08136346,0.24177673,-0.9599828,2.0503507,1.1868498,-0.94105774,0.6000005,-1.7123009,0.71444696,-1.3575138,0.9986561,-0.9834526,-1.0642818,1.8372675,-0.93506855,-1.6464196,-0.7439193,0.72311354,1.6775624,-0.22255637,-0.13459788,0.9040043,0.8094593,-0.46558118,0.6284855,-1.7466499,1.2411891,-0.6139526,-1.2297187,-0.6664662,0.75203234,-0.59089154,0.6919475,-0.78622454,2.3548489,-0.73203295,-0.69024605,0.8600595,1.1832241,-1.3595307,0.36637586,1.0903695,-0.8465669,-1.1542537,0.50423443,1.0926151,-0.8550253,-0.5823461,1.4600452,0.11941775,0.8730641,2.451197,-1.3248144,-0.27029344,-0.03405058,-2.1780903,1.3018767,0.8918287,0.54243225,-1.2253585,0.3941626,0.188398,-1.2883838,-1.3472832,1.198789,-0.7577224,-1.140403,0.42268935,-1.8021799,-0.4119442,1.4343822,-0.7927532,0.9125239,1.4153072,1.2572474,-1.0179211,0.8924198,0.19652708,1.4210113,-0.38821748,1.1872184,-0.030749004,-0.197136,2.6103842,0.030865343,-1.7897464,-1.854657,0.109633744,1.0860636,0.7759196,-0.08997428,-1.8269647,-0.28005436,0.5583729,-0.5667449,0.52717847,1.3573368,-1.9964433,0.27115077,-1.9428024,-0.83693826,0.42348364,0.7771576,0.22336932,-2.4497883,1.3578827,-1.263297,3.3098793,0.9929616,-0.9632624,0.043777652,-2.310219,0.30666777,2.5742512,-1.8541301,0.06379231,1.4557388,0.4380941,0.1392618,-0.6115525,0.104859
CD14,0.32138988,0.49232534,0.49843258,1.4274192,-1.0177677,1.1310519,-1.8508353,-0.0490445,-0.20962055,-0.24337551,-1.1609207,-0.36711535,1.4735523,-0.8395903,-0.87709653,-0.72538227,0.9982796,-1.1458092,0.82001853,-0.30059415,0.66482985,0.5265015,0.113421075,-0.47909743,0.6066698,1.2986225,-0.29954642,-0.6615102,0.87972796,0.65651214,-0.8985838,-0.8811849,1.785621,0.53124267,0.71979403,-0.82409567,1.4222058,-0.6817969,0.4912235,1.1832614,1.1250476,-1.9335581,-1.0294853,0.55163467,-0.94758797,0.089775115,0.2425916,0.38987318,0.2781802,-1.2412972,3.432383,0.10635255,1.0759109,2.9706821,0.40734252,1.4017015,-0.56750435,0.3348464,1.4548502,1.5994594,-0.2476083,-1.5040977,-2.1103537,-0.11704032,-0.9823142,-0.1472693,0.048933536,0.24214467,-1.1522644,0.8607583,-0.7621805,-1.4813583,0.60925865,-0.811627,-1.5091609,-0.32909933,1.0410318,-1.0627198,-0.42566666,1.1701424,0.12635005,0.07195645,-0.34370816,0.8139468,0.94047546,0.710104,0.9098627,-0.11376042,1.0972438,2.7752976,0.4146192,0.60793084,0.74876183,1.151062,0.574641,-1.7746533,1.4971972,-1.6400238,1.2615807,0.53232336,-0.38324058,0.967913,-0.46215296,0.46755332,0.53141594,-0.8488811,-2.2106628,-0.3838329,-1.3548379,0.88770163,-0.46502697,-0.86281973,0.44612977,-1.3217149,1.7040013,1.1595088,0.021196319,1.703914,0.44618675,-1.3631455,-0.47519976,0.8011969,-1.1575145,0.45870206,-0.30533564,-0.31802088,-0.27408913,-1.585733,1.0547631,-1.7332947,0.7985583,1.839001,0.3129484,0.26571947,-1.7350618,-2.2951915,2.2552798,-1.2785126,-0.0029731316,-2.3635697,-1.9649967,2.8720129,-1.6357042,-1.6693879,-0.4229537,-0.04399689,-1.261593,-0.4064016,0.14933164,-0.15685679,0.89051074,1.4889052,-0.3432859,-1.1739441,0.29846692,-1.2553025,-0.6065452,1.7606492,1.2893667,0.61851424,-0.15672958,-2.0072966,0.32142615,-0.79614913,-0.92996055,0.88176584,0.47607666,0.9048393,0.999307,0.18001178,-0.07185762,-2.4704382,-0.974553,0.91335,-1.1637341,-0.18986602,0.11865249,0.19786301,0.45302778,-0.17104766,0.73077816,0.28593346,1.7879045,-0.6810905,-1.8350121,-0.06600738,0.28654268,1.5112526,-0.26315778,-0.17820646,-1.71248,-0.64484096,-0.68103766,-1.1435912,-0.7517406,-1.070209,0.8609634,0.7623409,-0.24925227,0.5867578,0.2613752,-0.061233394,1.1525773,0.83116835,0.16240315,-1.3099092,1.1086293,-1.3673998,-1.0167279,0.6481969,-0.40831593,-0.45829657,1.2643572,-0.9271628,-0.21470703,0.43327653,1.0715046,-0.46719393,-0.015447488,-1.0344201,0.95211536,-0.97782344,-0.6483047,-0.1912788,0.3288105,-0.2948663,0.7396135,-1.0220484,1.0838026,0.4144418,-1.2282907,-0.32257515,1.4409384,-1.0016707,0.47331658,0.7121187,-0.26085663,-0.6457877,-1.5782374,-1.594806,-0.11245667,-0.06808521,-0.62228274,2.2372818,-0.95311594,0.39852932,-1.5009707,1.3556173,1.3911558,0.12785685,1.2683538,0.6077431,0.098128065,0.9586363,-0.7162762,1.2600942,0.5785594,0.28035745,1.663713,0.06337771,3.7005804,-0.83306843,-0.5473399,0.99874264,-0.6759697,-0.9383762,-1.6078539,2.601156,-0.022217315,2.1619825,-0.41410753,-1.0180455,0.8377532,-0.3678791,-0.29498708,1.2392434,2.3391151,-1.7056143,-0.74694586,-0.28149915,2.1765397,0.5427971,1.4595488,1.7804478,1.2340585,0.30091268,1.6848578,-0.18004197,-0.043340474,0.13454634,-1.0525413,0.30173633,-1.1068012,-0.61657137,-1.5150394,0.05738709,0.21046124,-0.56213385,-0.07560508,0.69905394,-1.4749342,-0.7959836,-1.1227716,-1.4601701,-1.057927,-0.43575245,0.61524445,2.8796396,-0.44646317,1.0397539,-0.157002,-1.7893203,-1.5081851,2.0688527,-1.4398968,0.7455359,-1.4185772,0.8001757,0.36011514,1.0049059,0.014094398,0.038052384,-1.4429864,-0.38943675,0.851399,0.47592494,-0.5268934,-0.2619642,-1.024425,0.061422475,0.33930054,-0.77222174,0.7935219,0.571539,-0.58076036,-0.02906104,1.1210867,0.98784333,-1.2243226,0.73178464,1.6698657,0.28296807,-0.65037054,-2.3036368,0.09724829,-0.23155096,0.31117466,-0.21127006,0.33754402,-1.1052573,-2.8366504,-1.0903257,-0.46990952,-0.25058022,1.0215108,0.021459483,2.2061915,-0.48181468,0.094906494,-0.007214664,-0.3456553,-1.5297003,1.6290736,-0.81330705,0.11086748,-0.4866006,-0.9620917,-0.073798195,1.0429617,-1.1135538,0.24352948,0.3528156,1.4755651,0.038031932,1.707379,-0.23507954,0.42068648,1.0793197,1.4124657,1.4838285,0.22465315,-0.28901795,1.6497005,-0.24249011,-0.5878091,0.5983155,-0.73477656,0.70656526,0.055968743,0.6211718,0.14542493,1.7657392,-0.23694497,-0.10137272,0.11115807,-1.4087809,0.9690239,-1.2684011,-0.8806054,-1.0964751,-0.5569699,-1.7751039,-0.9766324,-0.5080662,-1.5508758,-1.0245037,-0.37368312,1.102578,2.6048527,-0.0110131875,-2.4636552,-0.7976391,-1.8868858,1.2197542,-0.29177818,-0.72013277,-0.4761032,0.19807176,-1.6594826,-0.59795535,-0.8192312,-2.1763546,-0.92795074,1.4790474,0.2509394,0.056915976,1.6165382,-1.1160249,-0.4902455,-0.31237298,-0.97258925,-0.79093283,-0.90206665,1.978671,3.1435792,1.8996749,1.3268826,-1.7608382,0.46199894,0.76733625,-0.9515803,2.0451894,-0.5996331,0.063081704,-0.29032847,-0.578519,0.20284626,0.3712716,-0.4441865,0.071286015,-1.863479,1.3112323,0.47713634,0.94129467,-1.3575633,0.3311744,-0.68929476,0.92508096,0.5059094,1.3620734,0.65559244,-0.15112087,0.8878123,0.5466605,0.8804491,-1.204441,-1.4981788,0.635905,-0.45147514,-0.9604775,-0.041959982,1.29761,-0.85810685,-1.3225454,1.9712639,0.059603885,-1.1776365,0.33108282,-0.32109708,-0.07857303,1.0930891,-1.246346,0.36388314,1.3555225,-2.0883954,-1.0531255,-0.5250618,0.8517231,-0.4416556,0.08985771,-1.6217449,-0.11727727,2.5236108,0.6923375,-0.91811436,0.5617558,0.079439916,-2.5358026,-0.9011242,-0.28843138,2.0415132,1.0761778,-0.7485642,0.028945388,-1.5249587,0.4020227,-0.5526878,0.44546822,-1.2143784,-0.9071413,1.2183976,-0.45494556
CD19,-0.8231432,-1.3291155,-1.548215,-1.4553899,1.5497483,0.7377116,-1.3769088,-0.117596105,0.815883,0.069385625,1.2264099,1.492026,-0.62375456,1.2162077,0.20354445,-0.87732583,-0.88181585,-0.56546646,-0.19601603,-0.64303654,1.0872482,-0.8817628,-1.0401572,0.18938512,-0.7400316,0.4289912,-0.90708756,1.1300443,1.5073647,1.2974367,0.6774653,0.11635825,-1.0008401,1.3511373,-2.0982099,0.24891686,-0.4403113,-1.3117132,-0.9503461,0.8096363,1.053108,-0.6015516,2.0334632,-1.1947713,0.36707604,1.4012231,1.1902577,0.0039460706,-0.50002515,-1.1540347,-1.7947408,0.093606964,0.2371723,1.2244797,-0.6799446,-0.5052176,-0.69319797,-1.4723105,1.919734,0.8841295,0.080722235,1.9982347,-1.3228297,-0.87702084,-1.4920933,-1.2521064,0.47817585,0.33274412,-0.32620203,-0.73057544,1.6382674,-3.133826,1.696467,0.6396756,0.07876382,1.4223131,-1.0191603,-0.96419156,0.60429406,-0.35179633,0.6414749,0.21603422,0.32704076,0.17020538,1.4204847,-2.1395476,1.7636836,0.24033108,0.6800255,0.5392914,2.3677285,-1.2657359,-2.0330284,0.9870032,-0.63166165,0.26513705,0.59371996,-3.172742,0.3157383,-0.06907053,0.8252497,1.596464,0.65180296,-0.47131988,-0.37974486,-1.0532191,1.2955979,-0.037141174,-0.2415716,-0.47055793,0.047308825,0.6494837,0.5921327,0.9685605,-0.28272533,0.69518876,0.2812028,-0.07228749,0.14327534,-0.16781637,2.673941,2.037918,0.21234861,0.40183935,0.025392063,-1.1055104,2.0126967,-0.31613752,0.8687773,0.20593806,-1.006568,-0.4903781,-0.54020756,0.6495313,-1.7070172,-0.49170136,-1.0498843,-0.46084544,0.6707242,1.7138019,-0.30409017,1.0584136,0.16055651,0.95801306,1.8347186,-1.1109169,-0.28195453,-0.08087633,-0.6203102,1.3828948,-0.42849937,1.5968714,-0.2978561,0.42077225,-0.94216335,-0.0034235485,0.40799776,-1.0430511,0.18996814,-0.663165,-0.57221925,0.4707703,-0.4784885,1.2017119,-1.8344054,0.0016283735,0.23835714,1.4952782,1.2763941,0.49992934,-0.9309175,-1.2911516,1.3209434,-1.3476503,1.420859,-1.3300134,-1.222365,-0.67208046,-0.49783576,0.3528376,1.1166385,1.7957717,0.697742,-1.8497512,0.69830906,0.667079,1.3297234,0.21557057,0.7864645,-2.597406,0.36254022,1.2002572,1.3402431,-0.26746476,-0.87594074,-0.4250283,-1.5908545,0.67217547,1.2098156,-0.3991829,-1.7563988,-0.79517806,-1.981632,0.32359123,-1.5232855,0.81628615,-0.38287205,-0.77960736,1.435947,-2.2092304,-1.0580274,0.73308307,-1.4784139,-0.4840783,-0.69052494,0.84784025,-0.20008424,-0.049890853,-0.94052887,1.0146484,-0.818589,0.19222164,-1.0180424,-1.1824101,0.52127457,-1.6712345,0.9968022,-2.1900706,0.12844218,0.078779966,0.011158451,1.287515,-0.30738384,-1.1143725,1.5118785,-1.1751796,-0.79939485,-2.0326724,2.430489,-1.6750866,-1.8929026,-2.1824398,-0.5087543,0.41079217,-1.1054902,0.90232515,-0.26419687,0.51612854,1.5166351,-1.4674869,-0.32857582,1.08722,0.09706988,-2.4943705,-0.7519561,1.4732293,0.38299808,-0.21209876,0.2963388,-2.274885,-1.2147005,1.4989963,0.56906193,-0.104500785,-0.9852878,-1.8946921,-1.2023746,-0.70552605,-0.9350049,0.45545566,1.1166261,0.5019282,0.84670764,-1.623435,0.35188806,0.6160438,-1.511892,0.12468168,-1.0058131,-1.0796454,-1.3932124,-0.81322324,-1.0888091,-0.5790801,0.034162622,0.68296355,-1.5213549,1.5518699,0.91014224,1.5866736,-0.38671923,-1.0906795,-0.06015271,1.72905,1.903963,0.22360218,-0.6036496,1.9618347,0.2089986,-0.98489696,-0.35906452,-0.6421788,-0.39717326,-0.5179863,0.50549626,1.2186729,1.0160213,0.435496,1.2432438,0.9732993,0.12176637,-1.5713826,0.2185258,2.6943038,0.21896282,-0.15255745,0.4142848,2.4170756,1.0804489,0.21028358,-1.026608,0.54619837,1.4346703,-0.58515733,-0.8488653,0.80562097,1.5786238,1.2132708,0.105479635,1.4521494,1.7288465,-1.4194645,0.105837315,-1.2433113,-2.5253494,0.59468263,0.12444848,0.24734287,-1.3223523,-0.7677766,-1.129906,-0.6121164,-1.0675694,-2.0024118,0.09878587,-1.1631237,-1.3967514,0.7201811,-0.5855844,-1.7856872,1.2290506,-0.20419966,-0.45724857,0.8686281,0.90133214,-1.8626441,-0.7810483,0.63415164,-0.44638178,-0.52842647,-0.9651798,-0.7540569,0.24076599,0.16312924,0.6492231,0.9890294,-0.8439527,0.7027286,1.1712158,0.2507976,-0.2774875,-0.04091521,1.4822528,-1.2884297,0.45600924,-0.32101488,-0.014301787,1.1733323,0.7620752,0.5062997,-0.40511784,-0.5928205,-0.89737594,0.82573164,0.24707423,0.16413873,-0.7863038,0.2999649,0.6183343,-0.10158899,0.6259915,0.04622808,0.17858374,-0.11884995,-0.4801784,-1.0480767,-0.4623064,0.1099961,0.54404724,2.4665475,1.0288788,0.66389316,-1.3797859,1.1500481,-0.09672054,-0.13518043,-0.06918411,-0.105418794,0.94607,1.2022032,-0.2308011,0.7818065,1.616662,0.42417726,-0.10303756,0.28014416,2.5935686,1.0758712,-0.46897453,-0.21682666,1.5822799,-0.8631419,1.8525758,-0.28295523,1.7583973,0.43758905,0.9669387,-0.6187874,-0.9508608,-0.28576013,-0.74930376,0.8569394,-0.2576046,-1.8563589,-2.0575469,0.79875886,2.690221,1.4924437,2.1767585,-1.2824329,-0.37775373,0.022039339,1.4822617,-0.88746285,1.2877551,0.5108289,0.01702684,-0.84795475,1.0388191,-1.941216,1.2834483,-0.7214555,-0.0035580825,0.8894503,-0.848972,0.06485844,-1.5605712,0.1916196,0.10448966,-1.2132968,0.39377886,-0.7909383,0.76669323,-1.482886,-0.36262152,1.5590665,-0.458675,-0.058366954,-1.333296,0.13354789,-1.7778227,-0.9345722,-0.5491822,0.008125045,-0.6485248,-0.32196462,0.42616925,-0.65361285,1.6314315,-1.315588,0.90790415,0.86433965,0.36493072,1.3712616,1.0693067,-1.2259728,1.2415493,0.33161592,-1.2304109,-0.22304067,-0.16162603,-0.19521123,-0.32116076,2.3278852,1.3340766,2.3523479,-0.51157075,-0.9033709,1.0101473,-1.4616864,-1.9436054,-1.3222506,1.1913534,0.68092424,2.3461294,-1.1455921,-0.7309102,0.6221675,1.1897984,-0.7451312,0.19559443,0.15049995
CD1A,-1.0682139,-0.47559297,-1.2240888,-0.25486583,1.1660138,-1.6936551,1.6444975,-0.3125972,-0.7687777,-2.1309633,-0.012500028,0.21264695,0.88423663,0.20000404,-0.16530451,1.1765463,0.4703337,0.0886477,-1.2506135,0.78946036,0.22947183,0.21133032,-0.4007536,-0.11269348,0.7380421,-1.5843059,-0.02700101,-0.81439245,0.3932525,0.20664237,-0.56000817,1.1859193,0.15986249,1.6915544,-1.609451,1.0765421,0.5169357,0.33192402,0.5790428,0.8883698,0.4484643,0.40537226,-1.2339271,1.4116063,1.0801926,-0.5971165,-2.1336174,1.0712719,-0.72237355,1.5512531,2.1252303,1.5703616,-0.010812045,0.7228132,0.29109725,-0.6522648,1.1433885,0.50284904,-1.3532565,0.64872324,1.0880574,0.25937733,0.4752187,-0.19911581,0.8727333,-0.1243826,0.1918728,0.17398171,0.16332011,0.58849055,1.0434145,0.7446745,-0.07743874,-0.51467705,0.74509436,-0.95945686,-1.7890294,0.46278745,1.5656118,0.21971172,1.5341365,-1.6169386,-0.9020819,-1.002622,-0.2552766,-0.32786092,1.6418551,-1.8462218,0.36010203,0.8271711,2.2823358,-0.72534513,-0.69945765,-0.523694,-1.7231143,-2.1050925,-1.0879598,-0.27071625,-0.15787247,-0.31866422,-0.021682994,0.5252463,0.28934044,1.6001143,-0.16581634,-0.49299628,0.6977778,0.45911765,-2.052293,-0.55659187,-0.6470716,1.1662447,-0.992286,0.3046271,0.29511315,-0.12169435,0.99198884,-1.4460342,0.30437055,-0.60630184,1.5133455,-0.9537676,-0.66470814,0.2519503,-2.0255322,-0.50309086,0.6292415,0.14678974,-1.2626659,0.6150549,-1.2935815,0.99205345,0.14009957,0.84661573,-1.5083387,0.7971396,-0.30822334,-1.0200614,0.99841917,2.4743845,1.3256857,0.22605689,-0.49317524,2.1302323,0.050395977,0.86439526,0.4981124,0.4756467,-0.5267784,1.0148413,0.80801433,-0.0020755476,-0.34402746,-0.5072364,0.32577544,-1.4548628,0.11638287,-1.2674814,-1.4511046,-1.0308352,1.4249448,-1.1336133,-0.47300607,-0.75925565,0.3680405,-0.71096253,-0.9387235,-0.806542,-1.6893147,-0.7671958,-0.2459895,-0.11895246,0.14058818,1.8542609,3.7418149,0.019921515,0.7755029,-1.0001216,-1.4775513,-1.1477561,-0.41590136,-0.041250747,-0.560739,-1.3407089,0.42117533,-0.61149585,-0.19104494,-2.4158514,1.138242,0.2695197,-0.05507879,1.2472267,-0.052992925,1.1249865,-0.22186325,-0.9370857,0.20375286,1.2264757,-1.5415974,-0.5494257,0.84115714,-1.3015445,0.9465206,-1.4654684,-0.8472782,2.4720821,1.1952534,0.19609721,0.013017676,-0.92837656,1.246724,1.0975116,0.012284121,-0.9779319,0.82759696,-0.042971034,-0.52264273,-1.1598198,-1.3430002,-0.9784393,-1.1908108,-0.44938004,-0.75505465,-1.3673762,0.37218967,-0.13455,2.053499,1.5458295,0.3556854,0.6764421,-0.14793015,-1.3767436,-1.8234297,-0.29466662,0.32782876,-0.32250416,0.98382825,1.2309076,-1.3708365,-1.3941385,-0.5258461,-0.2290377,-0.26896235,0.33170974,0.40995163,-1.6056614,-1.5724307,-2.1628325,0.64272016,0.7959489,-1.5496833,2.8624542,0.17148441,-0.91971505,1.0730213,-0.0923776,-0.110929646,0.03222807,0.67268336,-0.12944221,-0.08330329,-2.1035156,0.063836016,-0.3534765,1.6312525,-0.2500346,1.2761412,-1.4885048,0.8177756,0.18177415,-1.0918,2.3713226,-0.96876085,-1.2836897,-0.41690272,-0.07972609,0.8750284,0.30738103,-0.15356919,0.20821945,0.13848193,-0.34146398,-0.29049167,0.9245549,1.1676738,-0.8248237,-0.41514492,-1.145312,0.784,0.56159157,-0.81296754,1.7178712,0.6047907,0.42486787,0.46963438,1.083415,-3.0975552,-1.1537441,-0.09891841,0.47056302,1.0523778,-0.70622003,0.8271148,0.08093047,0.2381536,0.27623737,-1.4322249,-0.97183925,-0.537952,-0.8907855,-1.8669521,0.6505261,-1.3917692,1.7161816,1.6426306,0.44555458,0.79969746,-0.1950987,-0.38433295,0.8291687,1.4306017,-0.10465505,1.8555509,-0.5029152,2.311661,-0.5284976,-1.2134528,0.543549,1.5771531,-1.1718036,1.5324975,-1.0126369,0.94109094,-1.6005232,-1.4758186,0.95420617,0.115396895,0.17779575,0.781968,-0.61842734,-0.43620172,-0.40456653,-1.0281664,0.1275361,1.1190935,-2.5686374,-0.63168174,-0.36505553,-0.9543238,-1.1720753,0.7367085,1.2544134,-1.6067368,0.5122272,-1.7689112,-0.7129877,-0.94280463,1.4557141,0.8477685,0.21614859,-0.6503922,-0.3530912,-0.06574269,-0.048015043,-0.05475693,0.0081024375,1.9083309,1.0400499,0.8865453,2.0180137,-0.7635962,-0.082607456,1.4877337,-0.11609315,-1.6621487,1.7157773,1.7214292,-0.4626318,-2.1731863,-1.956467,-1.070062,0.03176776,0.9956006,3.0871863,-0.7716208,-1.2253423,0.713216,0.8407378,0.62401026,1.1083469,0.010985844,-0.38669214,1.0113918,1.6103094,0.027615387,-1.534781,0.79118276,0.534416,-1.7043762,0.34564275,-1.1752021,1.3299142,-1.890448,0.7023202,1.1799603,1.1568633,-1.2113591,1.6145355,-0.06978126,0.38342586,0.5356644,2.6089227,1.0200058,-0.9578205,0.95490324,-0.3789504,1.1126689,0.40055254,0.45813262,1.1754239,0.8626311,-0.083380386,-0.17898917,-0.8821712,0.63875777,0.14014795,-1.6351535,2.0448143,-2.469169,0.6530815,-1.4550147,-0.7967976,1.2209185,-2.1220038,-1.4982831,0.051214367,-1.0650723,-1.0642033,0.21359284,1.0898459,-0.438059,-1.1838388,-1.4935791,-0.7978368,1.2522842,-1.5312686,2.0491447,-0.10861953,-1.8086518,-1.3745992,1.3075163,-0.8699695,0.92812663,0.25715163,0.718586,0.024175387,-0.9880109,0.25906473,0.8245481,0.120150685,0.45691782,0.25990045,-0.819748,-0.57699895,1.1579129,0.37115884,0.52319074,-0.9940089,1.4694374,1.1086835,0.40785825,-1.2731166,-0.70855945,0.6064936,0.0013222689,-0.79536474,-1.0796322,2.4198096,-0.49729785,-1.7901671,-0.42002857,-0.24631818,-2.2184694,-0.003927762,2.4357355,-0.3964793,-0.5884756,-1.1060387,-0.48516145,-0.56242514,0.88980776,1.389221,0.9092828,0.44666418,-0.19378415,-0.40146607,-0.46715733,1.8116088,2.1323512,-1.0614188,-0.03232932,0.66098326,-1.489801,1.3068848,0.40633237,0.3915086,1.9107835,-0.5848632,0.16426651,-0.9638349,0.6279442,0.40056524
CD1C,-0.25247508,-0.20458953,0.29653475,-1.1936594,0.5882934,-0.45442364,1.216954,-0.48338765,-0.49211785,0.25683773,-0.7915905,-1.754044,0.6783154,1.1721584,0.215713,2.2427402,0.9417355,1.2818979,0.1811368,0.8001222,1.2376951,-0.6073842,-1.5314214,1.7267855,0.19300376,-0.0063589546,-1.362471,-0.36588496,0.096021555,-0.08748326,-0.29837957,-0.6806801,-1.519274,-0.49427557,-1.3790789,0.19584496,2.4511378,-0.93501514,-0.4335111,0.6400287,1.2162436,1.3401424,-0.35087785,0.9920675,-0.24104719,0.2844218,-2.671361,1.6531268,-1.2650398,-0.39893717,1.2869,0.24754988,1.0225712,-1.4310215,-0.23062167,1.4398363,-0.28345257,1.3684174,1.0621493,0.6891693,0.81631315,1.1680937,-1.4419378,0.6005645,0.022896294,-1.4991652,0.2167198,-0.54585373,-0.3951654,-0.27806973,0.66760457,-0.700598,-0.4644671,0.33483925,0.70612204,-0.8373273,1.0644081,-0.5788961,2.779259,1.99542,1.8309195,-0.744151,-1.4226353,-1.3875617,1.6983837,0.20689633,0.7500292,-0.7650655,-0.054917965,1.3205465,-0.45691338,0.29415682,0.6081479,1.6847612,-0.1948619,-1.6001571,0.3685248,-0.6743741,0.5092268,-0.65306896,1.0564454,-0.6014555,-0.4283177,-0.24782771,-0.64346945,0.32219997,0.48445818,-0.20831837,-0.56513554,-1.4033943,-0.37694317,1.4009495,-0.97111154,1.6138859,-1.5459354,0.33003414,2.0309346,0.5837295,-0.70886445,1.6419718,-0.28513107,0.5264831,-1.0176727,1.855669,0.9621582,-1.2944633,1.5802705,-0.2383809,1.4918098,1.83334,-0.2048699,-0.14040111,0.6557669,-1.2962623,0.22852159,1.5213256,0.47593927,-1.0812696,0.4040336,0.6538137,1.1693723,-1.2451587,-0.93458754,0.8807343,2.3019462,0.6729101,-1.6013769,-0.2674367,1.4000123,0.5709209,0.5925172,-1.2337358,-1.4815916,-0.079672106,-0.7921778,-1.3015443,1.3222271,0.41119042,0.4506729,-0.60602754,0.81332326,-0.13280265,0.3583549,-1.2494448,2.0261917,-1.7014798,0.8719426,-0.69743824,2.3518429,-0.7534833,0.059516154,-1.4545115,-0.02298877,0.58828175,0.105158366,0.9919969,-0.062197242,-0.66502905,1.1228796,-1.596415,-2.4646413,-0.41209278,-1.4948952,-1.5730457,0.5405212,-0.73467314,-1.0560693,-1.0682223,0.13431701,-0.11146038,0.4390789,0.087804094,-0.89596313,0.27315095,0.93863595,0.25830463,-0.7294579,0.7245429,-0.9474321,-0.96435034,-1.2502345,1.120604,0.46874824,1.0661922,0.9381082,0.163985,-0.93302864,-0.7391109,0.91855735,0.5336563,0.043713663,-2.804631,-1.5759307,0.398237,0.69157845,-1.4350889,2.2239094,0.7887948,-0.110577814,1.3383114,0.46045363,0.4713515,0.23609927,-0.8800347,-1.1508936,-0.6746332,0.6195899,0.9929905,1.1312356,0.3066754,-1.3374321,-0.40095076,-1.1729327,0.8707964,0.07899275,-0.47741938,-1.0848663,-0.86386687,0.45357504,0.124347374,-2.1654582,0.95852965,-0.9098606,0.6454579,-0.29595032,0.14621098,1.7249783,-1.1980727,-0.21253574,-0.79996765,0.5877804,-0.7311574,-0.022869565,-2.3647118,0.020196458,-0.7452193,-0.029210564,1.1514168,1.2645286,-0.031997524,-2.551114,-1.5281049,-1.2147638,0.4057467,-1.2710651,0.5252639,-1.5133708,-0.6499729,0.19197464,0.2115986,1.3175895,1.876916,-1.4439478,-0.09574387,0.7081939,0.13650915,-0.39859763,-1.253768,-1.6942976,-0.016338103,0.12549083,-1.7219315,0.073052324,-0.22448409,1.0045462,-1.08711,-1.5736064,-0.32413423,-0.61797994,-1.0003473,-1.445941,1.495869,-1.1787636,0.5751776,2.6444952,1.5492703,-2.220663,-1.2586509,-0.23118854,-1.1199297,-0.97096145,0.54161835,0.1955927,1.1605817,-1.0070821,2.1050994,-0.4788518,-1.0538151,-0.33392894,0.7152336,-1.0095571,-1.2575421,-2.4981651,1.160035,-0.101117246,-0.7741342,3.0703065,0.3513859,0.15256864,-0.31908974,0.47436735,1.7381812,2.1702673,0.6744948,1.6637099,-0.94800216,0.10074632,-0.9282053,-0.28349847,-0.29706192,1.0352187,1.4299924,0.5034896,0.71247935,-1.38156,-0.46440196,-1.1270741,-1.1698607,1.1822447,0.26995936,0.750082,-2.1999185,0.28639,1.3544068,-1.0794922,-1.8174381,0.44674218,0.62450355,1.3731984,-1.4179118,-0.81779575,0.48128897,0.3955019,0.5279069,1.1449234,0.5476988,-0.12539227,1.2102779,0.5785646,0.33861116,0.1705523,0.45236138,0.6339274,1.0236392,1.4784771,0.070124894,1.8240446,-1.9234571,1.1944729,0.7981831,0.9811151,1.3426468,-0.8946724,-0.1429075,0.95323676,0.17519996,-2.5406823,-1.6661351,0.96583205,-0.8474224,-0.38092327,1.5626459,-0.43592733,2.1352742,-0.10139064,-0.77869815,1.2300173,0.41190967,0.26576927,-0.83746785,-0.30743942,1.7701905,-0.7806559,2.162333,1.0624609,-1.4842472,-1.0786953,-1.253059,-0.07295795,-2.3453372,-0.91197765,0.80790263,1.5611889,0.3644673,0.53378123,0.12991285,-0.6166855,-0.35364103,0.7035489,-0.48775476,-1.1234845,-0.91109574,-0.7228085,-2.2939,0.25614747,-0.57886034,-0.05882804,-0.3437628,-1.2237109,-2.1550856,0.9622576,0.42617935,-0.10767849,0.16413844,1.3074462,0.22567223,-0.8530869,0.45478553,2.2559066,-0.23132643,-1.4435978,0.36230606,-1.4044155,0.43742704,0.6840259,-1.1544317,-0.6330348,-1.5120027,1.81041,-0.19614497,0.8507605,-0.19607823,0.39985958,0.2526711,-0.3550727,-0.85580903,0.6384731,-0.7232092,-2.0592136,1.0647001,1.4233955,-1.3640838,-0.83005476,1.5723939,-0.82616216,0.09211369,-1.0420797,1.6367425,-1.2373443,1.0498538,0.88505983,-0.1077873,-0.8164484,-0.9996409,0.23917282,0.05006594,-0.10191172,-0.2905852,-0.90340436,1.005477,-1.7417015,0.7207682,-0.21945797,0.94073224,-1.4485366,-0.6982469,0.2951279,0.82855797,1.4564129,-0.88178635,2.3376324,1.1469427,-0.9304183,-0.27928776,-0.09217977,1.2315675,0.22060269,-0.22435248,1.5981629,1.004162,-2.875807,-0.7636727,0.30241227,0.55619,0.5380788,0.99745154,1.3769412,-0.5169593,-0.06385652,-1.9443595,-0.14692686,-2.2516527,-0.9477964,0.26067242,0.039817005,-1.0598245,0.21395111,2.2215526,1.4385554,1.3668529,-0.31701404,-0.15491973
CD2,0.089366935,3.0346148,1.0499964,-1.9260932,-0.7858771,0.096341394,-1.9304582,-1.2998888,1.2123032,0.33372632,0.14326522,-0.6688367,0.016647052,-1.9111739,-1.7257872,1.6108983,-2.3835075,0.46480083,-0.3480237,-0.41123417,-0.2597515,-1.4496502,0.2410291,-2.2656248,-1.195135,0.6621664,-0.35302514,-0.76639146,-0.3881063,0.8028045,-0.22057626,0.90444803,-0.065669395,1.2294959,1.0736948,0.47426555,0.68041867,0.906998,-0.09752739,-0.7526812,0.110795714,0.97395456,-1.1039346,-0.4794568,0.5646659,-0.54490346,0.16809736,-0.19351876,-2.4693093,-0.038196947,0.24451663,0.43367225,0.9554573,-1.5181704,-0.27045533,1.105381,0.33083427,-1.1376518,0.5805186,0.41286147,-1.2011877,1.4415407,0.5770219,0.68545514,1.069892,-0.25137922,1.153591,0.22018656,-0.33240175,0.15694344,-0.061364386,2.1800075,1.6286398,-1.2586882,-0.9021904,1.1708862,-1.6575643,0.2236731,-3.099331,-0.70048755,1.2432872,0.58068144,-0.031290963,1.7205137,-1.1500878,1.2941241,-1.2997527,0.5510946,0.21445672,-1.5372357,-0.2881955,-2.3780863,-1.6027235,2.5826054,-1.3469572,1.3234105,0.62631285,-0.3187564,-1.5223203,0.7898818,-1.1602919,-0.5874463,0.5306048,0.83201504,0.34380454,-1.6774985,0.15806359,1.1018413,-1.0639982,-1.1164434,-1.679722,-0.63460726,-0.7307829,1.119294,-0.0946715,0.23132037,-1.1425284,0.09073667,1.5692271,-0.18724108,0.059730146,-0.8390496,-0.570229,0.7255735,0.7169187,1.8239832,-1.2567428,-0.14700736,0.429096,1.0467201,0.48487684,1.7267232,1.1504738,0.83462536,-0.43328413,0.8874766,0.07773888,0.58756095,-0.7186915,-0.56683916,0.6522486,-0.7632357,-1.3294319,0.5248429,-0.21122997,-1.0970742,0.75134736,1.6339034,0.1369535,0.34447697,-0.114319734,-0.72644633,0.2298758,-1.3969153,0.46749893,0.41428596,0.12411003,-2.0069618,0.9647697,1.114674,-0.1935619,-0.5909816,-1.2399054,1.1529542,0.2963602,-1.4680375,-2.684233,-1.1020063,0.47589666,-1.3334293,-0.29439387,1.852877,0.20644975,-0.2879805,1.2569066,0.7331064,-0.4359814,-1.0045403,0.2432945,1.7961099,0.55185336,0.025585074,-0.14532773,0.10227562,-0.15687194,-0.9725155,-0.9137054,-0.13868363,0.09652156,0.4904926,1.3796229,-1.2305716,0.68838954,-1.5366123,0.79371256,-0.20322856,0.54221857,0.21440744,-0.20214526,0.8212493,1.8286465,-2.0978212,0.7098041,-0.33642074,1.7732514,1.5748862,-1.0065501,-1.2911673,0.3464627,-0.5996498,-0.61114866,0.5773913,0.29733238,1.0171177,-1.2339358,-2.0870152,-1.5490885,0.05928105,0.49116024,-1.1260391,-0.11806857,0.9129683,1.2585331,-0.8696432,-1.471014,0.81675357,-9.929649e-05,-1.1258413,-2.141931,1.4166588,-1.457658,-1.2644184,-2.0561662,2.38667,-1.5271245,-0.27131853,-0.48937368,-0.7145425,0.15229805,-0.4258211,-1.7367123,-1.0806748,-0.7477794,-1.6776819,1.6911805,-1.2398,-0.67232734,-2.945508,-2.2241888,0.15430023,-0.5370033,0.4767906,0.4466825,-1.1761771,-0.6537916,0.92533225,-1.0839735,0.32000363,-1.3902742,1.5810529,1.0421293,-0.2629505,-0.57861,1.1584554,0.32789245,2.263229,0.8631812,1.6716504,-0.35085914,0.7921957,0.14074486,0.051592425,-0.27321747,0.28707647,0.9693769,0.51885253,-0.30501044,-0.6933215,-0.50404406,1.13159,-0.44329235,-0.5318244,0.76269543,1.3497603,0.42772987,-0.033323765,0.00961345,0.23137885,0.21173264,-0.037367247,-1.9835554,-0.67949474,0.51931065,0.5146018,-0.46478584,0.5697554,-0.5125383,1.0724881,0.6646347,-0.21554092,1.6761538,-1.0199983,1.4075578,-0.35831696,0.05630512,-0.9313063,0.7602079,-0.334134,1.0072584,-1.1406375,0.7955985,-0.7582445,1.2801391,1.4074795,-2.5340354,-0.6447433,1.1138251,-0.5711195,-1.0132627,1.5401754,-0.04873648,-1.2771099,1.0071875,-0.98164636,-0.5650153,-0.57226443,1.6026471,-0.7966827,0.1811357,-0.5877079,0.59838766,-0.36275998,-0.2017852,-0.85907054,-0.99717027,2.5969257,0.63347155,0.32599822,-1.2834203,-0.03828232,1.2591507,-0.06542894,-0.43376476,0.12797622,1.8921387,-0.33027712,0.8743546,-0.49659085,0.82053894,-1.7890239,1.2921851,-1.7296262,-0.6088002,0.023141261,-1.0614048,0.9480726,0.8675925,2.488562,1.4430892,-0.50134355,2.5421195,-1.4982312,-1.811572,-0.23436809,0.33216533,1.6716393,0.9243548,0.85190535,0.22364223,-1.1866834,-0.08151804,0.35326657,2.3068182,-1.0287822,0.79075366,1.8587283,1.7236384,1.051095,0.059708294,2.0973687,-1.2379407,-1.9047828,0.23029685,0.7407175,-0.5589843,-1.5044434,-1.1933268,0.34191483,-1.2314414,-0.74788994,0.42974907,-0.5029834,1.1977074,1.6261781,-1.6222403,0.8310762,-0.15290146,1.1278843,-1.4224193,1.7917023,1.0259478,0.056568302,1.5016892,1.4209946,-1.2062641,1.5269352,-0.13914345,0.8130547,2.1085453,-0.08415672,2.6861904,-1.2629437,-1.4710053,-2.2976034,0.49878722,-2.1582873,0.26223916,1.6679133,-0.5037965,0.9908251,-1.1700644,-0.5711212,0.7860904,-0.597291,-1.3621526,-1.1070243,-1.7248162,-0.38341945,0.80942464,0.7477431,-0.9125567,-1.455379,0.036216047,-1.3644694,-0.3558844,-0.64089847,0.7685676,-1.7876948,-0.22497538,-0.31290036,1.2055472,-1.0424277,1.4070168,0.86501795,1.7374591,-0.9470904,0.011227747,-1.1232628,0.10019193,0.31859618,-0.029637303,-0.5757805,0.11802251,-0.4886035,-0.3654965,0.4155638,1.6349362,0.70730245,0.59947205,-0.7763474,-0.19939284,0.24019204,0.75721544,-0.39968517,-1.1924729,-0.5143839,0.81105405,-0.99796826,0.882055,1.3057184,-0.55942905,0.5364243,-0.5034463,-0.26253176,0.06941392,0.7578163,0.4517701,-0.15965617,-0.40971178,-0.39719126,-0.13638707,-1.3136622,0.5537085,-0.15855823,2.257806,1.904729,0.503439,-0.6868672,-0.71122086,1.2602367,-0.2446969,0.9368631,0.9839567,-0.097068444,0.44462574,-0.80259395,0.826875,-0.31444958,0.45614442,-1.1697083,0.2663355,-1.5221455,0.0020242867,1.1431621,0.12235743,-0.69470775,0.9447726,2.111595,-0.081392184,1.3814808,1.1294174,2.5733485
CD27,1.0353314,0.93896335,0.3959221,0.57537526,0.010359365,-0.48258322,-0.76146555,0.25034818,1.835419,0.70466405,-0.17685282,0.5726782,0.7975701,-1.0559736,1.1268455,2.575816,-0.77872485,-0.19551402,-1.4008746,-1.1454834,-0.1343773,0.9606728,-0.89945936,0.24983718,-0.08461627,1.5873152,0.35314715,-0.44258165,0.57292736,0.8160772,0.3625703,1.6540582,1.0723017,-0.2023859,-0.24044757,-1.2049853,1.1049689,0.017048435,0.7972262,-0.14142615,-0.5015313,1.0616186,1.1931524,-0.7006413,1.3991724,-2.1111844,-0.9124097,1.260703,-1.4069318,-0.83301085,-1.7565125,0.67900604,0.3294176,2.2679913,-1.6269355,1.337383,-0.05917383,-0.96482545,1.7207457,0.18982324,-0.84195477,1.4932698,-0.676437,-0.21164186,-0.6441532,-0.58070785,2.1443892,-0.37359658,-1.0928494,-0.25743246,-1.6834852,1.7507814,0.4866691,-1.3171147,-0.019239673,-1.0519032,1.3808657,-0.21761847,1.2657139,1.3693416,2.0320094,-1.0588622,1.5801255,-0.6811376,-0.4190373,0.7770916,1.2131653,1.2640929,-1.2989888,0.2666786,-0.83937895,-0.30200875,-0.79795974,-1.1309364,-1.8019865,1.2799015,0.3556127,-0.37278762,0.25715712,-0.7503867,1.6554106,-1.5333661,-0.68155897,-1.0633382,1.2308071,-0.28218663,1.4324107,-0.7733328,1.0680106,0.9599058,0.16364145,-0.9607778,-0.34995103,0.8663304,-0.992969,0.6343248,0.19799264,-2.2210193,0.953617,2.1567447,-1.1602445,-1.3583537,0.41129413,-1.5954126,0.8102176,0.24313991,-0.53973293,1.0472124,0.5762492,-0.28503498,0.030990234,-0.27437156,-0.77364355,-0.17842245,-0.25779966,-0.010521463,-1.2516305,-0.45651025,-1.0530745,0.90751547,0.41863364,1.3820072,0.39807862,0.9172629,0.0046846927,1.0569896,-0.20629883,1.8638339,1.0149059,1.1206906,-0.32660556,0.46862814,1.4616047,-1.853369,-0.2996275,-1.7208328,-1.0471982,0.14758198,1.1409236,-0.22538795,0.8376123,0.029426211,0.08834077,-0.93721855,-0.1946345,-0.10311476,-1.0398709,-0.013035042,-0.6429749,0.026575554,-0.37440813,-0.03637946,1.0991145,0.36011565,0.030632546,1.9509293,-0.48334634,-0.32762918,-0.3061944,-0.25229046,2.1506302,0.47282016,0.99722236,-0.54690045,-1.5431923,1.4714001,-0.7914254,0.019458886,0.50128233,-1.4195706,0.8593858,-1.1001297,0.47949648,-1.3688387,-0.95599896,-0.49616936,-1.553189,1.7809292,1.3194919,-0.52608544,-0.8439653,0.13164125,1.9974991,0.9543871,1.7094787,0.30744073,0.48291937,-0.10074122,-0.20707785,-0.4593311,0.116482615,0.21762061,-0.64154655,-1.5103642,-0.780789,-1.4592016,-1.2641901,-0.57765055,-0.7849394,-0.460604,-3.024828,-1.6819412,0.86107635,-0.09932509,-0.13228348,0.46920276,-0.79215556,-1.222131,-0.086050294,0.07526186,0.1754477,-0.017011236,-0.36970145,0.11356659,-1.6443592,-2.00461,0.9440173,-0.11178448,-0.783832,-0.96105206,0.25919542,-2.0573227,-1.1145816,1.4467039,0.5104809,0.15740128,-0.5830626,-1.2246481,-2.0364916,-1.4917538,1.651952,0.9735914,-0.6636059,-2.4790008,-1.0066732,0.53128994,2.3339465,1.2940048,-0.5727077,3.7982202,-0.7061275,-1.1333778,-0.6402237,-0.490785,0.18481722,0.99444395,0.83333874,1.1216241,1.3369696,0.9157111,-0.4537136,-1.105072,0.7486508,-0.26274312,0.030731354,0.63273287,-0.33595076,-0.44536388,-0.731603,0.8761036,0.30079496,0.79554594,1.0764956,-2.3986542,0.042028166,-0.8988872,0.33968565,1.528202,1.6888353,-1.8828442,-0.06407288,0.015771613,2.4284763,-0.12889673,-2.4702973,0.05542454,-0.1313686,-1.3153864,1.2916448,-0.16937165,-0.73614264,0.4406145,-0.5431597,-0.852466,1.9323578,1.4050225,-0.7979026,1.4184787,-0.0059252153,-2.2114754,-0.58166367,-0.12205011,0.31943867,2.4278405,0.6349195,0.23643984,1.7286652,1.4829198,1.1893151,0.4601611,-0.10916376,-0.40455115,-1.5285013,-1.7526814,-0.4851732,0.71940863,1.7571441,-1.73866,-0.46983418,-1.0327711,-0.75765854,-1.160289,0.043514952,0.49975002,-0.17681798,1.0383517,-1.1945412,-0.49477565,-2.388128,-0.27175826,0.48127908,0.7916833,-0.2004455,0.9170528,1.4463979,0.51662385,-0.576203,1.1752907,0.28282267,-0.61643064,-0.71011305,-0.2706951,-1.1046138,-1.458467,1.0877099,0.10238171,-0.7814939,1.3703628,-1.1704495,-1.5685341,2.218731,0.3227955,0.2701096,-1.5270194,0.46316245,-0.82505894,-0.7696526,-0.7646956,1.0879916,-2.2168937,-0.87133396,-1.0232348,-0.7484869,1.1660606,-0.6574456,2.1944022,-1.4974296,1.4519148,-1.0158895,-0.47571087,-2.2117107,-0.27691948,2.251686,-1.2198304,-1.1645654,0.33253023,0.25772458,0.60221606,0.6967721,0.6254037,-1.0501575,-0.2829859,0.81903833,1.4988478,2.1296167,-0.6508173,-0.422994,0.18150133,-0.9791217,-1.1479071,0.43576092,0.51243544,-0.20670654,0.076004684,-0.47859505,-1.673415,0.24346477,-1.1971104,0.14342165,1.2874043,2.5379448,-1.4391853,0.084707946,-0.70420974,1.4080179,-0.4688115,-1.2160193,0.99225295,2.129254,1.7125703,-1.1310384,-0.20538373,-1.7187357,1.4790516,0.9789602,1.3721367,-0.833734,-0.8913817,0.8878496,1.7735257,0.067976795,0.39644408,-1.1850836,-1.2960545,0.54943234,0.018523969,-0.8813739,1.056172,0.109659016,1.6680588,0.7957579,-0.34108606,2.0361094,-0.845562,-0.8291656,1.0499185,-2.0448287,-1.1602252,-1.0186383,-0.19988185,0.45320392,0.070210814,-1.4077907,0.065724984,-0.20860416,0.8172132,-0.17306277,-1.0210431,1.0504867,-2.148771,0.22858946,0.33029276,-1.5232188,-0.090040766,0.22969522,0.92615134,-0.86582977,-0.17199056,1.286716,0.2552447,1.0225161,1.0805827,-1.1918466,0.7065712,-0.6847115,0.03688507,-0.3121886,0.20995365,0.75049895,2.3133721,-1.7685145,-0.8522087,-1.4581655,1.4227473,1.5931264,-1.556587,-0.4987573,0.41286293,-1.5226105,0.74582016,-0.80722994,2.4515443,0.8649214,-0.97467047,0.22374232,-1.6179976,0.86437565,0.7438963,0.688515,-0.46116167,-0.9421604,0.8318566,-0.26581106,0.4472667,0.72035587,-2.1636236,-0.85691,-0.018149868,0.20777258,0.94967806,0.2073551,1.5354614
CD3E,0.17252035,1.9274743,0.5351776,-0.39332068,-1.9513985,0.10627996,0.2409517,-0.9638713,-0.94940436,0.9978002,0.07812732,0.16959508,0.09322915,-2.118919,-0.53110874,2.1294065,-1.9957168,0.22995172,-0.24057016,0.6288955,1.139998,-1.1174197,-1.256684,-0.39530024,1.3142822,-0.5725124,-0.73453546,0.8198846,-2.1494215,1.5162786,0.67158955,2.7581751,-1.6019416,0.5531485,-1.0264757,0.8550753,1.8662515,-0.73816705,-0.8791291,0.25817692,-0.4684537,1.5105228,1.0908732,0.6638049,-0.98461497,1.2062999,-0.4973114,0.9915979,-0.53456485,1.1178051,-0.6070961,0.14271928,0.94376194,-0.16857946,-0.39973357,0.28866774,0.8642508,1.9949167,1.3111517,0.124498904,-0.83210564,0.46141493,1.0279686,-2.103309,0.87530094,0.28056142,-0.40532824,0.570581,1.1402206,2.4361944,0.38347852,0.50106597,0.043145757,-2.1666505,1.8788824,1.139631,-2.7813396,-1.2629563,-2.2349052,-0.49144167,1.2424614,-1.3355919,0.9215618,0.4198619,-1.4541591,-1.2566885,-0.16319607,-1.0410852,-0.6978591,-3.0310762,0.54905915,-1.4569116,-0.8571551,1.5174594,0.3543,1.5020717,-2.141856,-0.22028588,-0.31376803,-1.5335413,0.6266722,0.6043361,0.6515886,0.03282449,0.7935941,-1.670122,2.6725974,0.07927221,0.21888319,-0.38754177,0.9363732,0.23175554,-1.1448212,0.31555122,-1.094341,0.3394656,-0.065881014,-0.7901414,1.597641,-1.6729641,1.0608053,-0.018403294,-0.7117245,-0.16816011,-0.13484555,1.8568491,-0.5480955,0.3163747,-0.8683186,0.50005096,-0.17267007,0.107976586,2.2737699,1.2400824,1.2495217,0.66544265,-0.15613672,1.1891011,-0.2908336,1.1688346,0.116766885,-1.4524719,-0.6495751,1.1683476,-0.033459235,0.010753166,0.16034658,0.4398466,0.18692243,-0.5052023,0.05321965,-1.3239181,1.4695671,-0.11638509,-1.4607571,-0.7444954,-0.886841,0.87508833,-0.1590356,-0.12818791,-0.03220468,-0.1040204,-1.3473381,0.45676267,-0.399581,0.8719254,-1.1053904,-1.7319283,-1.2066082,0.39526087,-0.68310237,1.4323809,1.2179008,1.0576704,0.9999912,2.3388104,1.2700174,-0.44243982,0.26385015,1.4893883,0.12256583,-1.0018034,1.217913,-1.8788868,0.1440204,0.018254232,-0.49204618,-0.8285011,-0.1517442,-0.608711,1.0678679,1.0437484,-0.48812395,-2.3951316,2.3251836,1.3505887,1.342934,0.47074008,1.2105457,0.0011974355,-0.43656638,-0.6025165,0.7525442,-1.0250201,-1.0122387,-0.25027853,1.0456705,0.74709094,-0.1689946,1.0227064,-1.1985174,0.07114482,-1.0000671,0.85976654,0.19168456,-1.6652833,0.23883088,-1.157686,-1.1970838,1.3245769,-2.2793927,0.08753567,-1.0633488,-0.19230795,0.4942308,-1.1302793,-1.2959988,0.40742168,-0.781045,-0.54107964,-2.2454867,-1.8192115,-2.1539748,1.2666508,0.57774436,1.1009572,0.7470661,-1.1561396,-1.9305686,-0.05253597,-1.1715477,0.9465225,-0.09118617,-3.3549883,0.21605782,0.3321546,-0.0016000954,0.9306832,-0.84276277,-0.38148996,-1.6261412,-0.41153526,-0.20312344,-1.441074,-0.7728764,-0.60894024,-1.7249825,0.6927667,-1.2049031,2.0134587,0.7595725,-0.48091885,0.40136388,0.57997334,-0.4582723,1.3159493,-0.31675127,1.0173624,1.2803977,-0.4573481,-1.2833437,-0.15494929,-0.18881813,-0.29494584,1.9926752,0.9297673,2.010673,0.7147346,0.00015056701,1.0205971,-0.08631846,1.0697442,0.26777577,0.24449608,-1.1990314,-0.6489873,-0.8979183,1.9212778,-0.8402391,0.37706503,-1.5358704,-1.0417241,0.47361314,-1.0155216,0.3780403,-1.6140487,-0.18226492,0.777667,1.9479172,-0.3726256,0.14495192,-0.8744868,1.031061,0.42354587,0.2949199,-2.5575688,1.2338002,-1.7594779,1.0974579,-1.9350452,-0.02745992,-0.64028597,1.4455855,-0.1991526,-2.353281,0.6949198,1.4665165,1.3228103,0.14039126,1.5639768,-0.22278851,-0.091662616,0.6112743,-1.5350213,-0.956373,0.36697677,1.8965908,-1.3348576,-0.3945892,-1.0045358,0.7688637,-1.4718783,-0.6098802,-2.0855365,1.1957734,1.9445941,1.2696034,0.16110705,-2.1074913,0.40684098,0.4887291,-0.98051316,-0.73905253,-0.937893,0.8492058,-1.5604022,0.35898706,-0.5530112,-1.2476401,-0.94641536,2.2944722,-0.19786786,0.48403248,-1.0073619,1.6391904,1.0995536,-0.0295336,1.4159414,0.6702663,-1.4372913,1.2885082,0.892004,0.30218875,0.16653605,-0.1916946,0.1014235,0.85428977,1.2074293,1.8327192,-0.5634441,-1.1143456,-1.1636143,1.5187956,-0.25435066,-0.7480246,0.33412737,-0.7110951,0.702183,0.94420063,0.40555382,-0.5125478,-0.7615487,-0.093164906,0.35029337,1.6578574,-0.124335356,-1.5474775,-0.6229412,0.87003326,0.19069229,0.2509119,1.6771325,-0.32928926,1.4976789,1.2713565,-0.7117712,-0.058880784,0.9654757,0.07784942,0.1888326,0.2963277,2.2551036,0.6693078,1.0670599,-0.5991438,0.65625185,0.49441624,1.3046601,1.5372379,0.4962501,0.67885286,-0.007295173,-0.015845926,-0.30025896,-0.32483363,-1.4286087,-0.15964739,0.035968482,0.44371396,1.8255409,-1.4839369,0.29936707,0.2874206,-0.06172574,0.2434223,-1.890163,-2.2109494,1.4993298,-0.39211705,-0.87818235,0.47343218,-0.021085074,-1.04481,0.6238665,-1.8960563,-0.32568467,-1.3220967,-0.75546867,-0.52958995,0.2897212,0.4445015,-0.4258705,2.3197196,-0.61907655,-1.2388601,1.1807941,-1.8152331,-1.4744822,-1.3714813,-0.61571264,-0.74966437,-0.5004624,-0.77299756,0.20154357,-0.5390567,-1.5264132,1.6305436,0.41311377,-0.9189424,-0.17050461,-1.1840012,0.008479129,-0.5516359,1.4189655,-0.12555858,-0.3970152,0.39033067,-0.41014582,1.6220375,0.459571,1.1020889,0.4451302,-0.48385072,-0.389836,0.13902943,-1.4857575,-1.5595602,-2.24218,-1.5630722,1.1675165,-1.3209308,1.6058358,-1.6862427,0.13087113,1.7795714,1.4376651,1.3758152,0.4265575,-1.5492527,0.14328922,-1.7852854,0.7700366,0.8241019,0.39888483,1.021654,0.3156941,1.7122147,0.05359496,-0.17255294,-0.43700668,0.19955619,0.16312523,0.2893719,0.6684204,1.0223442,0.9312052,1.153057,1.9212185,-0.14902976,-0.2718251,-0.7588333,1.5742562
CD79A,0.5153132,-1.5029142,-0.072810985,-1.4316101,1.6964117,-0.015927708,-0.7901742,-1.6965748,0.08676264,-0.28280416,0.53315103,0.08432979,-0.9127731,1.3954061,1.3239442,0.57575184,0.26240999,0.29592526,-1.4505231,0.025751889,-1.6138107,-2.7789497,2.2669933,1.8017662,1.1177677,0.22108911,-0.7639693,1.8663404,-1.258309,1.0743054,2.5658197,-0.49908555,-1.4880681,1.9028848,0.52811426,0.4008415,-0.51159364,-0.48527423,-1.5335784,0.21707971,-1.1948835,0.83937633,0.39441326,-0.7555672,-0.5145415,-0.5194227,2.0393157,-0.63966244,0.839104,-0.28662628,-0.99551034,-1.3068777,-0.20053592,2.1932065,0.8442591,-0.21542023,-1.349372,-0.39553967,0.59490055,-0.8631977,0.25990537,1.0983143,2.026458,0.34251472,-2.4826722,-0.81355804,0.006533623,-0.41883436,1.381808,-1.0544345,-0.8962215,-2.9246933,-0.10295812,-0.58955073,0.8594212,0.5113243,-0.24468374,-0.5756881,2.4239295,0.5882035,0.98193586,1.2992666,0.65720373,-1.1244669,0.161134,-0.7721081,-0.57471836,-2.162387,-0.4545487,1.8014498,0.6745836,0.06812293,-1.0839067,-0.4690969,1.3629694,-0.18611732,0.8485281,-1.8991797,1.0230354,-0.5255802,0.90771693,1.3578519,-0.22175482,-1.2310232,0.67374796,-1.2568263,2.1692595,0.24967897,-0.4220114,-1.0476948,-0.7874562,0.9606812,-1.8558646,0.5445341,-1.5469863,0.8537645,-0.24852489,0.010193741,-1.6329995,-0.39218736,-0.17411262,1.7385412,1.4402598,0.07428388,-0.94795704,0.5398346,1.0258222,-0.7603218,1.7630448,0.99133253,1.8362303,-0.08600997,-1.4370493,-0.8918541,0.042551283,-1.6458719,-0.19532987,-0.48009455,-1.6992186,2.0384574,0.34910882,0.030221622,0.5511968,-0.5438049,-0.08502112,0.1805827,0.6826819,0.06777726,-0.17437065,1.1485006,-0.31348655,2.212373,0.5743219,0.50694436,-0.375338,-0.04385645,0.7512852,-0.63577753,-0.3008464,-1.082253,1.2966061,-0.73052347,-0.55073464,-3.0340986,-1.6086527,-1.0027031,0.7479378,2.634304,2.0866652,0.32332152,0.3268755,-0.036918886,1.5275246,-1.8946791,0.96925056,0.48583528,-0.15708908,-0.25124252,0.87276727,-0.24995828,0.21461008,0.6287235,0.07320752,-2.0210187,0.70937896,1.3098184,1.2376946,0.6454994,1.1558938,-2.7908463,1.7494454,-0.24362001,-3.090577,0.14277682,0.13933887,0.44307393,0.7748829,-0.16897856,0.4100293,-0.5058678,-2.7377965,-0.080134936,-1.5827918,1.3206025,-0.8600996,-0.13026302,0.70454764,-0.24414445,-0.35322952,-0.19332054,0.30810982,-0.6279198,-3.4242904,-2.042512,0.1608742,-0.06839879,0.45561057,-0.5190478,-0.5713885,-0.2916335,-1.3709431,-1.6292781,1.0108184,-0.1693631,0.054290857,-0.70067644,1.9819014,0.5093964,0.6962223,-0.39606753,2.0900722,0.24279127,1.6255422,-0.5278358,1.5152763,-0.629154,0.5481584,0.44489828,0.63696426,1.0343239,-1.836134,-2.47094,0.31555542,1.5071537,-0.6983098,-0.8179148,2.9020224,-2.0755363,0.23112422,-2.6926906,0.9199993,-0.7359163,0.88908553,-1.0233954,0.055474356,0.3051711,-0.43229812,-1.0366384,-0.7386161,-0.8591961,0.5739918,1.9604894,0.32857603,-0.6366521,-1.208592,-3.110942,-0.97666115,-1.5371623,-0.25839904,1.2598743,-0.5222452,-0.3378732,0.5939154,-1.161995,-1.076885,1.0108783,-0.33690017,-0.43514806,-0.708124,-0.24822406,-0.80374306,-0.7597945,1.5874273,0.86812776,1.3315152,1.135867,0.2440298,1.186916,1.2838968,0.7465733,-0.37273952,-1.2729974,0.3400422,0.9154464,1.7987889,-0.40187168,0.5824658,1.0922308,-0.30307528,-0.12139622,-0.33791304,0.6835746,0.7528964,0.6417254,0.67927575,1.1144788,-0.08643156,-1.4876496,-0.47871286,0.7091113,-0.4966209,-1.7932506,-0.31054762,2.2928832,0.8244387,0.0956534,1.5590521,-0.1408844,-1.1107583,0.8907313,0.13476585,0.44933268,1.1084625,-1.3163044,0.220599,-0.14025679,0.62573165,0.7911792,-0.5222786,-0.48592016,0.83399844,-1.8582147,1.1687894,-1.3243246,-0.031133197,-1.1133971,-0.69640934,1.2055897,-1.2954123,-0.08674574,-0.8702708,0.18009534,-0.7727663,1.6937826,-1.7377113,-0.42199913,0.59742045,0.94018316,-1.0189317,-0.8775233,-0.54292434,2.1162686,2.8180065,1.0525424,0.53219515,-1.1318228,1.2072021,0.5684736,-0.44429857,-1.8919811,1.0395466,-1.4129786,-0.38598165,-0.079797305,-1.3627499,-0.48368144,-1.2092648,0.7713952,1.2305611,-1.3190243,1.8388487,-0.7789884,-0.7131005,-2.5206418,-0.46876067,-1.265552,0.92657346,-0.43267295,-0.17059392,-1.2694513,0.6603407,1.7006093,-1.6461577,-0.31793922,0.72834635,-0.14068896,0.43942696,-1.1724898,-0.9515097,0.44835407,1.2844715,1.358589,0.2283277,0.994862,0.5831959,-0.603872,0.06540647,-0.68764085,-0.37229103,-0.3106881,-0.6912706,-1.4473641,0.31046286,0.23691225,0.6828841,1.7881131,0.20898207,-0.5788813,-0.065237775,0.8970613,-0.48531207,0.5004506,0.36368608,0.8194003,-0.39859068,0.866578,0.5954574,-0.266347,2.1815712,1.4766082,0.42776626,-0.809104,1.0269514,-0.021615062,-0.14157441,1.3363633,0.19326095,0.42786086,1.4726688,1.3381878,-1.657544,0.42026484,-0.9814601,-0.8337647,-1.6125348,0.515721,0.18135323,-1.394915,1.3745619,-0.26282066,-1.0490625,0.015412308,0.63794786,0.50754774,0.26124412,0.4133739,1.0986161,-0.69919556,-0.38097337,-0.7978805,0.30620715,-1.208433,1.1401043,-0.15545763,0.00088704954,-0.8310574,-1.4759063,0.25249457,1.9170842,-1.0216782,-0.19056195,-0.13388357,-1.3134153,-1.5977494,-0.6435331,0.27984703,0.74451363,0.6694512,0.10095728,0.27587464,0.0844917,-0.9674351,-0.823266,-0.040624715,1.0747659,0.08623403,0.42045566,-0.3418481,0.39603946,1.1347928,0.103026725,-0.9725365,0.9328049,0.14538383,0.6235931,-1.7003646,0.5142097,1.1125469,0.2305129,-0.42118195,1.0870316,0.8105995,1.0303218,0.5245575,-0.5781719,-0.3642319,1.1703758,-0.83388895,-0.47864887,0.14599203,-0.20050596,-1.6355472,0.09309162,1.2485018,1.8819275,-0.8405921,0.07156778,0.9559025,0.89110297,-0.7280125,-0.038376775,-0.7427928
CD8A,0.004627288,0.5921098,-0.707621,-1.5256014,1.0207958,-0.8379913,0.3850509,-1.370162,-0.2186948,0.26258892,0.8154722,0.2446781,0.86416847,-1.131426,0.6440454,1.2943264,-2.85217,0.46505418,1.0472481,-1.6107391,0.84862745,-1.3179928,-0.5773625,-0.6431624,0.12589537,-1.4437627,0.73895496,0.53847367,-1.0715244,1.0116842,-0.3789025,2.1235545,-0.6955116,0.46278337,-1.8523787,1.0040042,1.0593455,-1.0883707,-0.8441116,0.76116353,1.2067397,1.7530779,0.87727964,-0.13072267,-1.6318724,1.2763231,0.13270862,0.36113897,-2.3069637,0.3318839,2.0835278,0.5324886,-1.1531361,-0.31395078,0.4628153,-0.9229834,1.4810647,-0.91443175,2.0450175,-0.109460905,1.4846151,-0.9375613,1.5014107,-0.53690666,1.7760179,-0.9520496,-1.58706,-0.55920833,0.08038133,0.28474107,0.70251566,-0.53727674,-0.25284675,-2.1903687,1.7633679,1.5219965,-0.25048578,-1.4801953,1.3391632,0.47812963,1.5325173,0.5388645,-0.006595941,1.3788017,0.20754196,0.19468227,1.482052,-0.7841047,-0.6752391,-0.85661453,-0.69527715,-1.6368351,-0.39915395,-0.14540102,-1.7768669,-0.57275945,-0.089821376,-1.3838493,0.5963744,-0.688377,-0.7469113,-1.1246531,-0.48236522,0.14491318,0.8015571,1.165491,1.899686,-0.31953794,-0.31536978,-1.7183912,0.20207752,-1.643395,0.28373185,0.5213174,-2.4358735,-0.73243004,0.59126323,-0.58857846,1.6359562,-1.0053606,1.0054654,-0.4302584,-2.4961247,-0.2143058,1.8006965,-0.14239542,-0.7508973,0.61026514,-0.9941261,1.5823123,0.042800814,-0.17814717,-0.62215674,0.3537926,2.0412567,0.50082177,-1.2762583,0.96982694,0.23083608,1.7300017,0.07256492,0.59298396,-0.3623714,0.9822911,-0.66306233,-0.47995904,1.0516135,0.15675889,1.9533691,0.49938557,0.525609,-0.987417,0.65317017,-0.01776695,-0.5093915,-0.02273594,-0.9689009,-0.94028467,0.9885219,0.021441031,-0.21387093,-0.73407406,-1.4153771,1.2905422,-1.4896077,0.072731756,0.40224692,-1.110706,0.43500063,0.4127219,0.66651785,-1.6964853,-1.113379,-0.046272434,1.8462324,0.64224994,-1.0066668,-1.3944763,0.30255285,1.0730045,0.5104141,-0.6243707,1.5183944,-1.2594962,1.8259474,0.5578016,-0.18126816,-1.0378909,-1.3132293,0.10696622,1.9418751,-1.189581,0.66654634,-2.3795938,0.63554025,-0.5569388,1.3181379,-0.07322647,-0.12918608,-1.3366007,-0.3809565,-1.2101469,1.2531177,-0.12708561,0.28839564,1.4473786,0.371098,1.1412692,-0.40398762,0.8720544,-1.2548232,1.0782155,-0.5615728,-0.045316346,0.7341825,0.3915701,0.85218006,0.3685102,-0.22267792,-0.12630495,-1.3405693,-0.09589311,1.265333,-0.75188494,-0.10190534,-0.85915905,-2.7911148,-0.7510879,-0.20398645,0.6536624,-2.319559,-0.5419699,-1.9386276,1.4973373,-0.87649953,-1.1301076,1.2008696,0.27855214,-1.6299027,0.97905666,-1.1171118,-0.89540315,1.1150872,-1.9372799,-0.38965914,-1.9904913,1.960942,-1.8387408,-0.040109824,-0.5576721,1.9435685,-1.8503197,-0.63935626,-1.2742211,-0.20739377,-0.25597423,0.36769295,0.28522024,0.1346898,1.5575548,-0.78538585,-0.9098124,1.1600788,1.3927293,-0.26024958,0.30586222,-1.7622173,1.8824182,1.3039389,0.18869132,1.4736065,0.16816793,-0.18255767,-0.8010265,1.4214699,1.5617602,0.70300066,-1.8483652,0.9276522,0.80132973,0.107517645,-1.0601267,0.29620463,-0.49356318,-1.0166221,-1.7688118,0.9965537,0.6326872,-1.3923253,-0.35770383,-1.6926581,-0.7408524,0.8365444,0.6413111,-0.9497044,1.4714926,-0.94157386,0.73165804,0.40211785,1.1574177,0.85739374,1.1275007,2.1672661,-0.794712,1.5450258,0.067469105,-0.9036268,-1.407036,1.8700094,-1.617367,-2.0342164,-1.4669553,2.2729998,1.1283752,0.52886224,0.9792951,-1.0448896,0.4213328,-0.8790019,1.3780545,0.5310401,-0.15205766,-0.5205257,-0.19806163,1.025695,1.4927076,1.2327144,0.69684273,0.07491244,-1.4192102,1.0495048,-0.0933951,0.2018017,-1.0564353,-0.74445975,-1.0990517,-1.2016588,-1.177662,-0.36293125,0.39417076,0.82658136,0.59660584,-0.4839529,-0.15992796,0.51973206,-2.225683,-1.1556085,0.9816095,-0.085034475,-1.8830141,-0.94305784,0.12565961,1.9798051,0.31056145,-0.59611017,-1.7292922,0.82423276,0.63175994,-0.09705146,-1.1765786,0.4086113,-0.47366345,1.1981063,1.2398983,-1.3786827,-0.6452615,0.3507215,-0.39929858,1.6507645,-0.5732454,-0.11327254,-1.6400793,1.8256804,-0.5310928,-0.9209546,-0.18639179,-1.5796494,-0.9937996,0.95242625,0.034417395,0.30911866,-1.2654803,0.031786907,1.3073493,-0.1817599,-1.0594411,1.047025,-0.62529314,0.69472396,-0.44234204,-0.6868202,-1.6724998,0.3516975,0.6836235,-1.9123249,-1.0833998,0.6549432,0.94779664,-0.3796345,0.17469205,-0.75070834,2.1472478,-0.124232434,-0.5515741,-0.28010672,0.20330794,-0.71116245,0.8433304,1.0145224,-0.32136127,0.70570207,0.116127126,0.22642945,-1.4245625,0.6455224,-0.38503912,-0.50050086,0.96028554,1.9852471,0.13341343,0.16264424,-0.031398974,-0.24901421,0.11906762,-0.07027651,-1.5954447,-0.7129952,1.3527877,-0.17235911,0.09021484,1.6691363,0.14827794,-1.3152524,-0.62280667,0.20358326,0.54423803,-0.0028667506,-1.8251094,-0.97441506,0.51943076,-1.116044,-0.99952716,1.3748887,1.3050936,0.13138105,0.7301559,1.4509507,-2.0719612,0.4808405,-0.5600695,-1.2690942,-1.1040974,-0.5804169,0.5348266,1.3303624,-0.4069391,0.03943581,3.1224077,-0.03388272,-1.5386643,0.10790076,1.6455711,0.7369242,1.6435432,0.17672868,1.0003256,-1.0076326,0.48969018,0.99839365,1.3942192,0.49298006,-0.30314374,0.26516655,1.5554926,0.034522787,-1.0210758,0.8575584,0.04328152,-2.4139235,0.8313724,-1.712775,1.8141012,-0.5605507,0.79798865,3.0767455,2.164639,-0.15307096,-0.14301698,-0.98285353,-0.029016614,1.4297817,-0.7493384,-0.3521908,1.6389674,1.0224286,0.40873277,0.8503963,-0.14762737,1.7282654,-0.56374276,-0.9332088,-1.3690785,-0.86264193,-0.19242023,-0.7334018,-0.50174665,1.3857934,1.4659218,-0.79816407,-0.917031,-1.0276544,2.1734643
