,dim_0,dim_1,dim_2,dim_3,dim_4,dim_5,dim_6,dim_7,dim_8,dim_9,dim_10,dim_11,dim_12,dim_13,dim_14,dim_15,dim_16,dim_17,dim_18,dim_19,dim_20,dim_21,dim_22,dim_23,dim_24,dim_25,dim_26,dim_27,dim_28,dim_29,dim_30,dim_31,dim_32,dim_33,dim_34,dim_35,dim_36,dim_37,dim_38,dim_39,dim_40,dim_41,dim_42,dim_43,dim_44,dim_45,dim_46,dim_47,dim_48,dim_49,dim_50,dim_51,dim_52,dim_53,dim_54,dim_55,dim_56,dim_57,dim_58,dim_59,dim_60,dim_61,dim_62,dim_63,dim_64,dim_65,dim_66,dim_67,dim_68,dim_69,dim_70,dim_71,dim_72,dim_73,dim_74,dim_75,dim_76,dim_77,dim_78,dim_79,dim_80,dim_81,dim_82,dim_83,dim_84,dim_85,dim_86,dim_87,dim_88,dim_89,dim_90,dim_91,dim_92,dim_93,dim_94,dim_95,dim_96,dim_97,dim_98,dim_99,dim_100,dim_101,dim_102,dim_103,dim_104,dim_105,dim_106,dim_107,dim_108,dim_109,dim_110,dim_111,dim_112,dim_113,dim_114,dim_115,dim_116,dim_117,dim_118,dim_119,dim_120,dim_121,dim_122,dim_123,dim_124,dim_125,dim_126,dim_127,dim_128,dim_129,dim_130,dim_131,dim_132,dim_133,dim_134,dim_135,dim_136,dim_137,dim_138,dim_139,dim_140,dim_141,dim_142,dim_143,dim_144,dim_145,dim_146,dim_147,dim_148,dim_149,dim_150,dim_151,dim_152,dim_153,dim_154,dim_155,dim_156,dim_157,dim_158,dim_159,dim_160,dim_161,dim_162,dim_163,dim_164,dim_165,dim_166,dim_167,dim_168,dim_169,dim_170,dim_171,dim_172,dim_173,dim_174,dim_175,dim_176,dim_177,dim_178,dim_179,dim_180,dim_181,dim_182,dim_183,dim_184,dim_185,dim_186,dim_187,dim_188,dim_189,dim_190,dim_191,dim_192,dim_193,dim_194,dim_195,dim_196,dim_197,dim_198,dim_199,dim_200,dim_201,dim_202,dim_203,dim_204,dim_205,dim_206,dim_207,dim_208,dim_209,dim_210,dim_211,dim_212,dim_213,dim_214,dim_215,dim_216,dim_217,dim_218,dim_219,dim_220,dim_221,dim_222,dim_223,dim_224,dim_225,dim_226,dim_227,dim_228,dim_229,dim_230,dim_231,dim_232,dim_233,dim_234,dim_235,dim_236,dim_237,dim_238,dim_239,dim_240,dim_241,dim_242,dim_243,dim_244,dim_245,dim_246,dim_247,dim_248,dim_249,dim_250,dim_251,dim_252,dim_253,dim_254,dim_255,dim_256,dim_257,dim_258,dim_259,dim_260,dim_261,dim_262,dim_263,dim_264,dim_265,dim_266,dim_267,dim_268,dim_269,dim_270,dim_271,dim_272,dim_273,dim_274,dim_275,dim_276,dim_277,dim_278,dim_279,dim_280,dim_281,dim_282,dim_283,dim_284,dim_285,dim_286,dim_287,dim_288,dim_289,dim_290,dim_291,dim_292,dim_293,dim_294,dim_295,dim_296,dim_297,dim_298,dim_299,dim_300,dim_301,dim_302,dim_303,dim_304,dim_305,dim_306,dim_307,dim_308,dim_309,dim_310,dim_311,dim_312,dim_313,dim_314,dim_315,dim_316,dim_317,dim_318,dim_319,dim_320,dim_321,dim_322,dim_323,dim_324,dim_325,dim_326,dim_327,dim_328,dim_329,dim_330,dim_331,dim_332,dim_333,dim_334,dim_335,dim_336,dim_337,dim_338,dim_339,dim_340,dim_341,dim_342,dim_343,dim_344,dim_345,dim_346,dim_347,dim_348,dim_349,dim_350,dim_351,dim_352,dim_353,dim_354,dim_355,dim_356,dim_357,dim_358,dim_359,dim_360,dim_361,dim_362,dim_363,dim_364,dim_365,dim_366,dim_367,dim_368,dim_369,dim_370,dim_371,dim_372,dim_373,dim_374,dim_375,dim_376,dim_377,dim_378,dim_379,dim_380,dim_381,dim_382,dim_383,dim_384,dim_385,dim_386,dim_387,dim_388,dim_389,dim_390,dim_391,dim_392,dim_393,dim_394,dim_395,dim_396,dim_397,dim_398,dim_399,dim_400,dim_401,dim_402,dim_403,dim_404,dim_405,dim_406,dim_407,dim_408,dim_409,dim_410,dim_411,dim_412,dim_413,dim_414,dim_415,dim_416,dim_417,dim_418,dim_419,dim_420,dim_421,dim_422,dim_423,dim_424,dim_425,dim_426,dim_427,dim_428,dim_429,dim_430,dim_431,dim_432,dim_433,dim_434,dim_435,dim_436,dim_437,dim_438,dim_439,dim_440,dim_441,dim_442,dim_443,dim_444,dim_445,dim_446,dim_447,dim_448,dim_449,dim_450,dim_451,dim_452,dim_453,dim_454,dim_455,dim_456,dim_457,dim_458,dim_459,dim_460,dim_461,dim_462,dim_463,dim_464,dim_465,dim_466,dim_467,dim_468,dim_469,dim_470,dim_471,dim_472,dim_473,dim_474,dim_475,dim_476,dim_477,dim_478,dim_479,dim_480,dim_481,dim_482,dim_483,dim_484,dim_485,dim_486,dim_487,dim_488,dim_489,dim_490,dim_491,dim_492,dim_493,dim_494,dim_495,dim_496,dim_497,dim_498,dim_499,dim_500,dim_501,dim_502,dim_503,dim_504,dim_505,dim_506,dim_507,dim_508,dim_509,dim_510,dim_511
AMD1,-0.3438647,0.083133645,-0.39513692,1.2050073,0.9661929,-1.2400622,-0.21857405,-0.14128155,-1.2915915,0.5881939,1.2770836,-0.54903585,-0.6326121,-1.6485325,1.8448522,1.7915536,0.05176086,1.50112,1.5867761,-0.34277058,0.35254195,0.69422144,0.22885926,0.9227689,-0.18354058,-1.6839874,-0.34191144,0.7664628,-0.45304847,-1.1184086,-1.1933926,0.6915259,1.7534919,-0.41206217,-0.05357509,-0.6717625,1.3263478,0.7128141,-0.16877294,-0.62906367,-0.4717502,-0.9848621,1.1556735,1.3703792,1.7895403,0.06788755,2.0501387,-1.7917038,0.32492992,-1.0803462,-1.2819476,0.88551825,-1.9181204,-0.7340457,1.489348,-0.44187483,1.0010637,0.8277967,-1.2446162,0.2819152,0.27815896,1.3499781,-0.44163504,-1.6480794,0.17694694,0.95397604,2.0415657,-0.54883224,-0.213845,-0.94330126,2.641526,2.0157242,2.3371608,0.7092806,-0.92107373,1.1248872,-1.508435,-1.110055,0.772117,0.69214386,1.8070055,1.5500406,0.4100281,0.0026494323,-0.38393152,1.0041416,-0.25347504,1.2408824,-1.0540078,0.4062621,-1.5260546,-0.5297709,-0.99067146,2.0237064,0.61056614,1.3849266,0.10536352,2.390351,-0.418949,0.6468092,-1.6932602,-0.7958334,-1.1347547,0.5652225,0.6133881,-0.6951313,-0.7976004,2.3434136,-0.33859318,0.5254953,1.1745294,1.6697642,-2.1896894,-0.25706184,0.34062785,2.3203547,0.9929134,1.1466393,-1.198363,-0.16031638,1.4667892,1.3663539,0.6950971,-0.40550357,-0.91417587,-0.07675132,1.7554706,0.33260906,0.5988365,-2.7368076,-0.95915854,-0.58024204,-0.602026,0.44213295,1.47463,-0.582507,1.5254363,-0.014755976,-0.23037647,-0.82160634,-1.6975737,2.5603685,-0.9403216,-0.06986184,0.39350215,-0.5926366,0.86376655,-0.2022609,-0.922478,-0.069729485,1.3963472,-1.4968364,0.78124267,-0.22603601,0.3981018,0.70004267,0.18765546,1.5484387,2.50611,-0.47029844,0.25944218,0.38955247,0.17558104,0.06876066,-0.09893105,0.3354397,-0.7969391,1.2452358,-0.6301031,2.7461736,0.84640175,-0.1794205,-0.7310235,0.06125435,0.56998265,0.5782656,2.06085,-1.3852717,-1.3977187,-0.26997808,-1.3091819,-1.2879809,0.88330203,0.42717758,-1.6424729,-1.010285,0.53649354,1.612832,0.050383627,1.4727852,2.0088294,1.3879485,1.1246649,-0.3707928,1.102941,0.54766136,-1.1535709,-0.75935566,1.1468914,-1.3170424,0.6165283,0.071025945,-0.77001774,-0.09098334,-1.7771238,-1.1997575,0.15859257,1.2832551,-0.88393694,-0.90678054,0.74514544,1.9128615,0.459194,1.385771,-0.18482675,2.2834115,-0.04991743,0.54142857,-0.8931195,-0.4603854,0.3772833,-1.295289,-0.34552413,0.6127433,0.066000216,-0.889671,-1.5397615,0.39336666,-1.77359,-1.1652297,0.0013669659,-0.5250183,0.510576,-0.80411106,-0.80947024,-0.60650617,-0.36000898,-0.012932672,-0.7654806,1.149856,0.29460675,-1.7540385,-0.88765943,0.50969446,-0.057385664,-0.6200512,-0.98760784,-0.5508272,-1.3095474,-0.095887706,0.5218617,1.0481163,0.48987153,0.39448804,-0.21762647,-2.1080496,-1.6797543,1.3559186,-0.37168655,-1.5319567,-1.0933248,-1.0460385,1.006572,-0.6068692,-1.6170845,1.0805104,0.03261489,-2.1872237,-0.34306154,0.012087538,-0.24129567,0.14668402,-1.5102232,0.4256643,-1.9446114,0.94329715,1.099222,-1.3999833,-0.011972265,-0.5106653,-0.6579973,0.85198957,-0.9862696,-1.2743076,-0.7358389,1.2293477,0.833803,0.5092183,-0.20225815,-0.510948,-0.8495046,-0.33891165,0.48602435,0.09261703,-1.9758372,-0.31965137,2.22481,-1.5224568,1.5018033,-0.5185406,-0.053636275,-1.004247,-1.0814749,-1.2712114,-1.3128839,0.7858221,0.6259454,1.1667311,-0.46527168,0.7813473,1.9009868,-1.0870876,-0.31330904,-0.2217683,0.5788405,-0.021973504,0.22299542,-0.51628053,-1.879124,-1.3504502,-0.71382546,0.6512635,1.1335199,0.4163787,-0.4678648,1.0494171,-0.26342955,-1.5414889,-1.0123969,-1.1831849,-0.8086631,0.011014038,-0.7355778,1.6759108,-1.6065178,0.76469475,-1.1765769,-1.7228585,0.796,0.017464876,-1.3185064,0.12218432,0.5479331,1.1819496,-0.94007486,1.8196847,0.3757801,-0.35106835,0.20584403,0.15732777,0.65378505,-0.3802609,1.1180241,-1.4660839,-0.24023297,0.28443077,-0.41829395,0.63236207,0.30878302,-0.6558371,-0.40999737,-0.48885053,-0.077128366,-0.8876305,0.088974856,-1.0772761,0.97223806,-0.08280392,-1.7288104,-0.49651983,0.1002058,0.8921691,-0.351913,0.38454956,-0.17930284,-0.14376561,1.730389,-0.55858266,2.503981,-1.5578358,1.0386013,-1.7071631,0.7409892,-1.334194,0.49895647,2.9451985,0.47219285,0.904595,-0.6405973,-0.06528467,0.97073644,0.3245679,0.97255665,1.1513591,0.2685945,2.9375038,-1.4867862,-0.707813,0.69748074,1.7909945,-1.4907986,1.9971831,0.307305,0.8504901,1.2483017,-1.3058127,1.1519276,-0.17754881,-0.54226995,0.3022493,1.0745157,2.2949023,0.9193991,-0.7957139,0.7625472,0.4913467,0.94404894,0.5805344,-0.8371545,1.1039257,1.8177235,0.83503616,-0.025158726,0.07203036,-0.2635931,-0.2763021,-0.9761141,-0.76237255,0.54687905,0.29623473,-0.78323257,-1.3418199,-0.23226225,-0.572826,0.86442584,-0.8435567,1.043277,-1.0421638,0.4153962,-2.5796473,1.7625129,-0.46166566,0.44477475,1.2921778,-0.9250038,-0.45038667,-1.3290858,-0.7710149,1.4069004,-0.6230547,0.6010606,0.12101068,0.9984049,0.9122238,0.9434963,-1.3364712,-1.7274222,-0.86683846,0.19085914,-0.9292725,-1.4504089,1.3323895,-0.03301788,0.38394067,-0.30807132,-0.2506196,-0.48096275,-0.1542316,-1.830454,-1.5387646,0.9767567,-1.2674705,-1.7440715,0.91888064,-1.2457225,-0.46106705,1.4086249,1.9377092,-0.22078143,0.9238123,-0.029575855,0.040220343,-0.12006046,0.1469779,-1.9926468,-2.2290187,-2.1755621,0.5530433,-0.15784578,-2.2086513,-1.3455426,-0.021685155,-0.8949279,-0.8355163,-0.14549594,-0.7146559,-1.0443974,-1.113679,1.5033633,-0.2443869,1.5595901,-1.3240116,-1.462909,-2.5250936,0.0832789,0.19124193,-1.9617488,1.7936352,1.0983098,1.6099418,-0.6268481,1.953555
C1orf43,0.9930398,0.63590777,0.41307124,1.1960508,1.1998599,1.4231358,0.9442168,-1.1153504,1.0246583,-1.259392,0.91017044,-2.465486,0.47584802,1.0133846,1.5418282,0.56335574,1.0843263,2.7764528,2.0455432,-0.55566025,-0.25427338,0.8122739,-1.7535543,2.3537214,-1.263754,-0.5839206,0.13845854,1.0669135,-1.1481295,-2.601469,-1.0492314,-0.58602786,0.5111894,0.58234215,-0.009034208,-0.11684404,0.13397732,-0.7117391,-0.9551034,0.66054386,-0.76563495,2.1132236,-0.18546525,3.101632,-1.4510663,-0.3823663,0.6517665,0.37936136,-1.0830585,-0.4777575,-2.645753,0.78647745,-0.38193217,2.0584505,-0.54868037,0.5042325,1.1335437,1.5611417,0.5671231,-1.4558764,0.41157869,2.034058,-2.1824734,0.71539575,0.70816755,0.6531347,0.27346486,-1.351564,1.4595481,-1.726077,-0.11528969,-0.25932825,1.0087191,1.4505562,0.688176,0.2798158,0.48254743,-0.34720588,1.6402634,0.543529,1.7114156,-0.3101215,0.5068324,-2.18037,-0.12123682,-0.2772993,-0.37939456,-0.64773405,-0.15802693,-0.91413873,-0.56068313,-0.41839343,1.3194532,0.39743945,0.3550976,1.9963758,1.2767293,-0.8019941,1.4170136,-0.120098084,-2.1604037,-0.89237213,-0.82740754,-0.15494147,0.25596678,-1.4128208,1.0284547,-0.08403868,-1.2313424,1.345359,-0.2646944,0.70416784,-0.77653843,-0.4817739,-0.34356895,0.95881546,-0.3183409,1.6293162,-1.661215,1.9773512,-2.217678,-0.5116274,1.1588176,-0.100925654,0.50802857,-1.3775791,0.65159154,-0.38791475,-2.7185023,0.51240444,0.21176004,1.3047131,-1.9734466,-0.25882745,-0.14116494,0.7909327,-0.38989338,-0.8500462,-0.009383277,1.1096636,-1.990312,-0.7782656,-0.98477155,-0.33932716,0.8154023,-1.0929327,-1.8422679,-1.0054384,1.4540727,-0.5527175,-0.63463455,-0.55608,1.0053067,-0.6879235,1.2517521,-1.4091516,0.103833094,2.184119,1.8606098,-1.4070927,1.5323426,-1.965412,0.70328563,0.68439066,0.3927726,1.0395765,1.5622352,-0.22622675,1.1258085,-0.6281483,0.09480002,-0.60971785,-1.1685764,0.6601027,0.25854746,-2.3275259,-0.1580252,-0.51647514,0.381045,-1.3802835,0.37352023,-1.763254,-1.6310155,-1.3394961,-1.8889956,1.0880173,-0.53988075,0.31143075,-1.2643745,-1.116891,0.7071757,0.48911452,-0.75665444,-0.06311153,0.9455563,-1.276444,1.1553167,1.544275,1.1316731,-0.29528084,-1.092624,0.8793453,1.3216527,0.3467478,-2.5675502,-0.7618175,0.16286907,0.63538545,-1.0848916,-0.8315954,0.968127,0.110531375,1.4224031,1.1883882,-1.4253526,-1.3496447,1.1315402,0.006249943,-0.13447393,-1.4198043,-0.9982467,1.0091958,0.640999,0.38808703,0.57651204,0.25031766,-1.1603714,-0.3697299,-0.9746271,0.6861621,0.10664456,0.76478094,-0.6710493,-1.178829,0.5061788,0.5185762,1.2077765,-1.6505477,1.8101473,0.47583956,-0.19534193,-2.1205904,-0.17634922,-1.569782,-0.98784256,-0.6560544,-1.8882872,2.1526184,-0.6321313,1.2910888,1.2574652,0.25149485,1.773831,0.7452462,-0.8650638,-0.48098058,0.47402912,0.26202598,0.03317631,0.03958403,-0.18401125,0.4237712,-0.44755867,-1.6191725,0.82983017,-0.93002945,-0.5742264,0.025445407,0.35232383,-0.92330444,1.3908223,0.69360405,1.5383599,-0.3088839,0.574631,0.5554101,0.9755399,1.095009,-1.0722272,0.31553763,0.3676588,0.52377015,-0.6770698,-0.1927518,-1.2071126,-0.35418057,0.74081033,1.0912939,-1.4342139,0.04910914,0.6191953,0.08294108,-1.4711198,0.42455718,-2.9920278,-0.08421107,1.3330905,-0.38164854,-1.3492818,-0.060019277,1.1701204,-0.8437809,-0.50196105,-1.2455255,-1.4702929,-0.87289083,1.9095122,-0.07501351,1.3576176,0.3851874,0.3192567,-0.8674318,-0.2848587,1.9211662,0.38663,-1.0987086,1.4547815,-1.1072758,1.4533173,0.7495436,-0.5691514,-0.29283848,1.5932903,-0.35914642,-0.19446906,1.4696004,-0.066523045,-0.3366556,-0.18994668,0.58240426,-0.038872514,0.57004505,-0.8203021,-0.5405769,-0.115056224,0.085180014,-1.2546409,-1.0851728,-1.6081254,-1.6737393,-1.4812194,1.0569266,1.3460574,1.2809931,0.7161753,1.1159884,0.07145278,-0.8654216,0.056420773,2.0059516,1.5264233,0.24534361,1.1940746,0.50777996,-0.082191095,-1.1146407,0.55240995,-0.23754384,-0.61875767,1.0248541,-1.3927817,0.31793988,-1.4576278,-0.18069059,1.3099123,0.68168795,0.58965266,-1.7480223,-1.5669498,-0.848101,0.41463456,-0.6769177,-1.3440137,-1.0867792,1.9350114,1.5284013,0.44148293,0.13709666,0.11210911,-0.04564261,0.7493963,0.89899933,1.5097013,0.32102004,1.2129565,0.24239741,-0.8252032,0.92389464,1.278565,0.4976994,0.8473356,1.7561834,-1.4626317,-0.38218507,-1.318087,2.1980345,-0.33756143,-1.0044577,0.15840979,-0.8020597,-0.3668829,0.79023916,-1.6405686,0.52368116,0.9687708,0.35723785,0.59198296,0.8620611,-1.6594169,0.0691705,0.57912284,1.141095,0.33720598,-0.729822,0.044840295,0.11805723,-0.41514945,-0.43503314,-0.044156514,-1.6725036,0.71375275,-0.0384528,2.00017,-0.94014716,-1.0846531,1.5431935,-1.365444,-0.6353863,-0.017041177,0.5523688,0.8350716,0.3411415,0.08965436,-0.32292762,2.4013638,1.051843,-0.28754368,1.5016009,1.6629608,-0.71253175,-0.8473346,2.2227137,-1.3398843,0.73706126,-0.9575577,-0.32683653,-1.1860708,-0.0009810772,-0.56589466,-1.2208668,-0.3056284,-1.0786735,-1.073304,-1.5078888,1.3455193,1.892214,-0.6214998,-0.33657086,0.51980144,0.95976156,-1.0641215,-0.571157,-1.2600497,-1.1914904,-0.71048445,2.3120353,0.45831022,-1.2226647,-0.18077826,-1.8857359,-0.8661853,1.0938013,-0.38801247,-1.1103051,0.98975414,-2.586824,1.0831169,-0.27971536,1.6177847,0.32065082,0.10169895,-0.6902041,1.4455297,0.38426712,0.44079703,1.1072016,-1.4023757,1.6525837,0.24573317,1.0599687,-0.7083983,0.88338953,1.848635,-0.5305602,-1.4253036,-0.7390941,-1.9244704,0.8903247,-1.5544444,-0.9330844,2.455885,-0.65339524,-0.7214982,-0.18410695,0.40884376,-2.6426568,0.9025165,0.07944653,0.24010947,-0.2665016,-1.5021857,-0.7958266
SNHG32,0.877125,-1.8876616,1.701863,1.9666425,-0.7517587,-0.2674246,-1.4480778,0.74103487,-1.3010569,0.17356676,0.73134553,0.33121538,0.013375219,-0.079255894,-0.69108176,-0.5016758,-1.2405509,2.228154,-0.7900688,0.22898372,1.8998462,-0.01223273,-2.4071105,-0.010207463,1.2913682,-0.086322226,1.9355094,1.44234,-2.2191,1.7173182,2.1391573,1.8552728,-0.46663213,-0.536814,0.08581398,-0.04004117,0.9354394,0.81571656,0.10030675,0.05193862,-0.5433599,0.8624623,0.47143474,0.44878703,0.25908464,1.3216599,1.0817788,-1.8329993,-1.3844475,1.472211,-0.56601036,0.13204062,-0.39243704,-0.09076305,-1.2165228,0.44075707,-2.9273214,1.6645136,-1.7082375,-1.7792486,0.29182678,-0.5290925,1.6241263,1.1874802,0.49351645,0.23172535,0.33213356,0.63001454,-0.46369037,-2.6206403,0.6455777,0.9672998,1.7063596,-0.22934812,-0.1467901,0.02040912,-0.8080784,0.6513521,0.08058926,0.113241166,-0.49294645,1.1299074,-0.7653756,-1.1356586,0.08602736,-0.15435897,1.2532406,-0.6482019,-0.062349662,-0.4754652,0.0443167,0.94351214,-0.5712912,2.513371,0.42462096,0.87947875,2.3301268,2.9320848,0.51501775,-1.2746478,1.1105603,-1.1951467,0.09729543,-0.47633857,0.9658163,0.34899744,-0.5337365,-0.25687686,0.07355668,-1.3955787,0.7675248,0.4149852,0.4770411,0.5084641,1.6878514,2.7754834,0.47364885,-1.249047,-2.2568889,0.9552457,0.4859635,1.7548224,-0.773472,-0.702424,-1.4701692,-0.08284037,0.5131664,0.64520264,-0.6253653,-0.7376029,0.37685952,0.32420558,0.2535542,-1.2959466,-1.3606253,-0.21240091,2.3886428,-0.5565912,-0.5790624,0.34759468,0.18937127,0.38107145,-0.79672706,-1.7515303,1.4812728,0.69307476,2.1093943,-0.52038896,-0.22690225,-1.2668198,-1.0867267,-0.34291336,0.5939934,0.4234255,0.14984901,0.58075655,-1.497126,0.5025707,-0.2238163,-0.26517597,-0.3895838,0.29202998,-0.79937816,-0.73045903,-0.9023836,0.49924007,-0.6553043,-0.40207082,-3.1247668,-0.47157553,-0.84938663,-0.54537755,-1.1381084,-0.3140193,0.36711812,0.74975204,1.2953197,0.4700019,0.45994574,0.31465027,-0.1572989,-0.2508277,-2.3283727,0.07160426,0.61643565,1.9159828,-1.6493721,1.293553,0.043084376,-0.8183032,1.9798745,-1.1291903,0.05478808,1.4372414,0.68984926,-0.1175839,-0.47555763,1.8177763,0.23548755,1.7606441,0.6661308,-0.2026743,-1.0875533,1.4077111,0.2374435,-0.41892278,0.19126216,1.2387422,0.03385262,1.6927682,0.5621235,0.85082644,-1.6552991,0.5260594,-0.60507554,1.2225139,1.0359105,-0.638438,-0.35149693,0.65684474,-0.96225536,-0.02833543,0.3253308,0.12570605,-1.8623408,-1.1701525,-1.2447767,1.0474446,0.5653126,-0.7133459,-0.39511704,-0.008647173,0.21170162,0.58506095,0.5095458,-0.9301435,0.7891364,-1.8052722,-0.1550743,-0.73916763,-2.5775237,-2.447519,2.828192,0.31674826,-1.4017717,0.81483245,1.6159358,1.597588,-0.4272368,1.5708325,1.1867887,0.8654182,0.9402449,-0.94560957,-0.88017577,0.8007915,0.22610793,0.31517178,0.38754514,-0.521635,-0.78199625,0.059015196,0.39173138,1.5729482,1.1142433,-2.5001876,0.1598281,1.2857338,-0.08885684,-0.24005964,0.7299665,-0.26985696,-1.3196421,0.16980141,-0.93122226,1.2003291,-1.6123976,0.96112007,-1.0303538,-1.9431479,-1.4558815,-0.5209303,-1.5773906,1.1749632,-1.325263,0.048159316,-0.9625799,0.8383185,-0.11824359,0.63011855,2.2331986,-1.4550756,-0.29260573,0.9436377,0.27160728,0.103244364,2.5284517,-0.8596214,1.3927077,0.14953175,1.8955728,-0.30928704,-0.7020812,-1.869163,-0.17827788,-0.70801324,0.9727159,-1.1930077,-0.72282356,-1.1113578,0.58336717,-0.78380543,-0.07234319,0.5613239,-1.5276731,-2.3609018,0.2887442,-0.07035716,0.27441812,1.8682495,-0.051365666,-0.5023408,-1.2015532,-0.87418526,-0.27416164,0.46015227,-0.7571752,-0.5193941,-0.041290335,-1.2536864,0.7695843,-0.91069406,-1.5361439,1.1438293,-2.6962,-0.9160609,0.97127485,0.7383118,2.3612802,-0.15622546,0.5445045,1.0746385,0.6426105,-1.1712091,0.95670325,0.13905688,0.24185665,0.42905623,-0.7723734,-0.7107165,2.2835004,0.77087957,-0.25977543,-0.36071903,1.7223266,0.46181375,-0.49346298,1.4070601,-0.55666745,0.31330836,0.55622107,0.31661958,1.0159955,1.4968708,0.13535705,1.4198892,0.09251077,1.5932301,-2.4436257,0.41723496,-0.17827593,0.16937995,1.0802171,-0.18844157,-0.60546225,2.529324,1.0998902,-0.1728651,1.392483,0.11631317,-1.0278466,-0.21202138,0.62824565,1.9216353,0.8279178,0.006968664,-1.37214,-0.5688165,1.3159491,-2.1454942,-0.6530742,-0.3692083,0.2492915,0.25195903,0.6436408,1.5433522,-1.7971113,-2.4791818,-0.47130042,0.43498015,-1.1986977,0.6543801,-1.1638976,-0.7296038,0.19073814,0.03585124,0.70465636,-1.6630328,-1.3901621,-1.8974276,-0.90678704,0.2732004,0.4741999,-1.1013316,-0.36477256,0.6786144,-1.319268,0.4007492,1.4399271,-1.4449776,0.81479186,-1.7149642,-0.5023479,0.10068432,-0.72305065,0.12103035,-0.28571448,1.8754916,0.22835477,0.47591415,-0.88629025,-1.7095764,0.7112171,-1.0371826,0.83786196,0.4045339,-1.0992427,1.2273632,1.2793955,0.60031307,-0.07913143,-1.008469,0.10844015,-2.3055394,0.7623,-1.1064254,0.37487912,-1.1176608,-0.00071359077,0.33115557,0.3092913,-0.8188333,-0.14825447,-0.113852225,-0.9676616,-0.50090045,-1.988388,-1.8727044,-0.47785428,1.1877365,-0.865856,0.08231969,-1.1547124,0.51023996,0.17462772,0.9815305,-2.0160272,0.55044043,-0.77283764,0.4889364,1.1312988,-0.10577548,-1.5000855,-1.3877854,-0.4281248,-1.2029359,-0.17521329,1.7470808,1.3590423,0.64472556,-0.4894634,1.5996332,-1.1565963,-0.6000603,0.8938218,-1.8984832,0.08952966,3.2605035,-0.8658463,-1.2788413,-1.7117838,1.0965849,-1.1705787,1.1702152,0.41129816,-1.7129246,-0.19819313,-0.7707715,0.29936728,0.6518438,-0.63118136,0.79275674,-1.1772795,0.026357325,0.6298499,-0.54076684,-0.99374425,1.3435214,0.64834607,-0.3681661,0.11163621,3.1163247
RBIS,1.2547102,-0.9519592,-1.6966845,1.3561963,-0.6538717,2.3501108,0.9186358,-0.32147303,0.2350266,-1.509897,-1.6214263,-0.5504581,-0.6719467,1.6189075,-0.35921824,-0.63086706,-0.7971916,1.172415,1.2959421,-1.4431533,0.9584698,-0.8816216,-0.00056165055,-0.32472605,-0.96785563,-1.2346098,0.124558374,1.8713304,-0.8252244,-1.4363594,-0.5108675,0.46203366,-1.4023046,-1.077106,-1.1429912,-0.89250135,1.5571502,-0.5217306,0.25684693,0.055220943,0.9269465,1.8574866,0.24899127,2.3753428,-1.1520909,0.045009825,0.8289247,-1.4465041,-0.8878856,0.072217986,-1.0567905,-1.1850435,-1.4034809,0.7438409,-1.5494608,0.5951758,-1.5560058,-0.008081215,1.0641339,0.35582462,-1.02127,-0.93359166,-0.44298393,0.8222741,2.4597034,1.9418023,2.3429794,0.42336026,0.18008259,-1.5995636,0.5780083,1.742503,0.15976273,0.5863525,0.07884878,-0.19920565,-1.579995,0.30463007,1.4746914,-0.4386986,-1.1024162,-1.6505803,1.0939485,0.69547635,0.8369929,0.41437808,0.12874238,-0.19004989,1.815928,-0.054428443,-1.2011642,1.7209934,0.9156505,1.9684337,-1.4707646,2.3997078,-1.1376213,-0.5090746,0.31332663,0.3190575,0.09026563,-0.5495771,0.53264755,1.5439178,-0.32679954,-0.3002126,-0.15930168,0.16047981,-1.3142759,0.49107477,-1.3825142,0.5667911,0.65674853,-0.49343467,1.8654466,2.8182275,0.44779062,-1.3487104,0.48719367,1.1929244,-0.0935864,0.18813562,1.2621855,-1.0543268,-0.57229614,-0.5308849,-1.4743277,1.1170712,-1.4678477,-1.5445615,-1.3841788,-0.574236,-1.9086506,0.9531587,-0.092957795,2.187947,1.4788417,-0.7766107,-1.5821668,0.48393387,0.23891683,-0.22842707,-0.6942089,-0.72803897,-1.0599904,0.13138884,-0.44456762,-0.19733295,-0.38415956,-0.7349943,-0.29803613,1.0920129,1.1540345,-0.2323704,-0.40362054,-1.4884713,1.0015222,1.8810531,0.08065635,-0.24197751,-0.33749908,-0.3299204,0.15863879,-2.4611893,0.070223846,-1.3010004,-0.78948474,0.9960866,0.6488662,-1.6480587,0.65472287,0.71068496,-1.2613759,0.9928638,0.38898674,-1.1357735,1.3995132,0.15502472,0.49128368,-1.2040102,-1.0714618,-0.59238183,-1.5871875,0.040784694,-0.35209405,2.251474,-1.929509,-1.2698776,-1.3338721,-0.39347112,1.3291638,-1.0949035,-1.4747337,-1.1035728,-0.6011446,1.2245797,-1.262215,0.9876648,1.3020409,0.015472605,1.6240008,1.4982421,-1.1539229,0.56681055,-1.278699,0.4324469,0.16639088,-0.82815576,2.2676756,0.73515713,1.4246409,0.334951,-0.81404835,0.7582825,1.4147527,-1.3542428,1.6755147,1.0584191,-0.06982224,0.49194676,0.94185615,0.7660929,0.84695405,0.6023009,1.6938262,-0.03945323,-1.1582699,2.2896216,-2.2280686,-0.49926886,1.2618902,-0.24696879,-2.78907,-0.18120167,0.6401562,0.23776197,1.117095,1.2291616,-0.41283372,-0.3095186,-1.8476139,-0.6235467,0.20755726,-1.8749644,-0.12845995,-0.77837414,-1.7805288,-0.013468645,-0.14034536,0.073926106,0.10433976,-0.49096918,-0.44607964,-0.7661737,-1.1533422,-1.3176514,-0.7316174,-0.05797104,1.4103812,1.8135858,-0.0081270635,0.22469825,-0.5730162,-0.63775665,-0.22242531,-0.40352342,-0.19894868,2.0471117,1.2594234,-0.22437276,-1.003757,-1.2194859,-1.2161103,0.37649056,1.3094248,1.5577625,-0.021564906,-1.2381663,0.21621689,-0.6650487,-0.51080483,0.5448133,1.2294165,0.0724546,-0.84377676,0.39418167,1.2423404,0.8563192,0.9717974,1.5900043,2.404151,0.9356485,0.8976574,-0.43641725,-0.659725,-0.1371413,-2.2021825,0.8630271,0.3054491,-0.7561649,1.4065728,0.46330807,-1.7250203,-1.1020536,-0.6397427,-0.9938963,-0.537473,1.3462595,0.050496694,-0.36404964,2.5047655,1.0820723,0.5772204,-0.196924,0.043352205,-0.3412964,-0.27683085,-1.4872961,-0.22073007,0.8592914,1.3765799,0.48487422,0.90424037,-0.5478831,-1.261462,-0.23406835,1.0420152,1.3287481,-0.76708215,-0.111408524,-0.7981297,0.095252395,-1.2716832,-0.8790404,-0.69781446,-0.12772116,0.1930347,-0.5410432,0.9817233,-1.9262186,-0.7567528,-1.403522,-1.8024225,-0.25982407,-2.2809381,1.386805,0.963685,-0.7997605,0.050408676,-0.8970032,1.2119392,-0.3270889,-0.42416617,-0.1250755,1.0480664,-1.0149943,0.60174465,1.2607192,-0.24855886,0.036330424,-0.9903525,-1.4133933,1.8023359,-2.9603088,1.2721281,1.6152488,2.9104955,-0.7837726,-0.7973201,0.13299334,-0.06625928,0.67923963,-0.5090634,-1.5969105,-1.6086414,-0.74906516,1.2189418,-0.20470114,1.9572176,1.1915976,-1.0554127,-1.0145422,-0.6064171,1.2136704,-0.004527289,1.8210157,0.008241479,-1.3032633,1.2186997,0.39400584,0.2014012,1.080507,0.3489701,-1.1852192,-1.0563812,0.5383501,-0.80673975,-0.26725706,2.0556939,-1.7458109,0.30216643,-0.31581208,-1.6942803,-0.37177423,0.64119935,-0.15749161,-0.59074706,0.63131475,1.2430118,0.4845772,-0.59525573,-0.9998688,-0.2908227,-1.5536021,0.9611106,0.43565282,0.03780168,1.2782637,0.54204607,-0.80710024,0.86706626,1.36338,0.9266489,-0.91492516,-0.036318894,-0.6133636,-0.053980935,0.28207496,1.7750257,1.4053152,-1.407833,-1.4458495,2.2539194,0.519073,2.5638146,-0.39327994,-0.2924773,0.6357753,-0.5925836,1.004895,1.3528004,0.7912291,0.16644906,-1.0470061,-0.35822377,1.289142,-1.2091955,0.48423782,-0.284172,-1.2115573,-1.4319546,-0.012068243,-0.31134504,-0.6978932,0.4863661,0.7426856,-1.910937,0.30576214,0.7302603,-1.7740926,0.052198682,2.0835342,0.47801548,-1.4667549,0.8971879,0.7765389,-0.8692983,-1.1610525,1.0692166,1.0182904,0.92192686,0.69142634,0.36015245,1.2408566,-0.25115374,-2.8217716,-1.6101179,0.7108325,-0.7112734,1.7100965,1.501587,-0.58621484,-1.5744342,-1.6852303,-2.1335864,-0.91902596,-0.4220795,0.25226113,0.46360886,0.40122277,0.4647441,0.5923199,-1.1503224,0.5128539,-1.9268467,0.058035232,0.7182729,0.67292297,-1.4589432,-0.94167864,2.0138626,1.4134663,-0.038404573,0.20546171,-1.4224131,-0.13437669,0.7248664,1.9033396,0.945921,-1.1644516,1.3784244,0.48272163
CAT,-0.77005297,-2.072364,-0.35721162,0.7793886,0.08311096,2.7366626,-1.3697933,0.34122142,-0.13526943,-1.2664717,0.39786336,-0.89219904,0.22015585,1.7047862,-0.20843735,-1.5618503,-0.28198054,0.17373869,0.48275593,1.9672458,0.09928387,1.3807139,1.602245,1.1530683,-1.8411443,-0.58789605,0.6783992,-0.30261844,0.8205043,-0.41762066,0.4786504,-0.32117805,-1.076976,1.506484,0.5270698,0.11052079,-0.4822142,0.85358375,-1.4416145,0.71079695,0.7429183,0.1742164,1.119713,0.51127225,1.5475818,1.5971351,-0.9991629,-0.5995253,-1.3497376,0.47596997,0.22791702,0.78840595,-0.35955334,0.96460575,0.06873442,-1.2373196,0.6283888,-0.47036594,3.3096466,-0.4771739,-0.7204562,-1.128482,1.756269,0.9403823,-0.4787982,-0.7735107,0.1374658,-0.4974194,-0.69803053,-0.80388725,0.5583114,-1.1362786,-0.9504221,-0.6601352,0.13715443,-0.7141437,0.6746882,-0.6129344,0.65875804,0.2503716,-0.28859773,-1.3404227,-0.01871796,-1.2279232,0.08799021,1.2998418,0.0030989011,0.84009117,-0.8699385,1.350061,-0.015996942,3.0250566,0.2036355,-2.0743275,-0.7473692,2.303576,0.92079455,1.6318201,-0.033078704,0.3969521,-0.94021875,0.49264923,-0.349689,-0.7212742,0.6430077,-1.1713483,-0.22648309,1.3108014,0.4695814,0.8917046,-0.36315745,0.19091731,0.16195318,0.39053208,1.6548488,1.1719453,-0.88063115,1.4610448,-1.3139113,-0.41751185,-0.0073877373,2.5472763,-1.0333526,0.11349538,1.2022634,-1.0991894,-0.6965799,-2.0491512,-2.3967438,-1.1517649,0.052553393,0.21431485,-1.3806744,0.88230675,1.849306,2.1525557,0.46749592,1.7214679,-1.2358712,1.0216652,-0.9881825,2.3979945,0.13601823,-0.69969815,1.341366,1.05318,-0.9616992,-0.5569793,-1.045097,0.37850413,0.06574052,1.1292915,2.404034,0.28228304,0.4014382,-2.6484015,-0.6092505,0.1850647,-1.3819615,-1.2327851,-1.3194498,0.19987425,-0.21362862,-2.077304,-0.85785705,-0.23990184,0.34767523,0.59778243,-0.084719494,0.7952026,-0.79625374,-1.1276752,0.35753623,0.7955464,-1.0814079,1.7762576,1.5227377,1.4216323,-1.4854773,-2.212149,1.7391093,-0.05107312,-1.4441985,1.2682732,0.5542784,0.15307342,-0.2362467,-0.60471326,0.6467425,-0.30617404,-1.0924118,0.24361563,-1.3661369,-0.25166553,-1.8957103,-0.90672153,0.4212184,0.00020366852,1.1078594,0.59000283,-0.88304496,2.4498048,-0.41297835,-1.0105567,-0.59573156,-0.66520333,0.60729486,-0.1307058,0.622607,-1.2570783,1.9937221,0.6051086,1.9080454,0.43739936,-1.5702403,-0.75952405,0.037242197,-0.9419159,-1.6032817,-0.09205017,-0.04467137,3.7819378,-1.3023019,1.4461793,-0.5023897,-1.1894817,2.5807478,0.9183003,-0.29795712,-1.1856245,-0.2577322,-0.08522343,1.7608103,-1.8563678,0.3779128,-0.064287595,1.8634714,-2.6381114,0.17293684,-0.45466593,1.5178076,-0.8988369,1.2891043,0.77103764,-1.3412586,-1.7355378,-0.010789835,-1.0266477,-1.2620019,1.1592091,1.96797,2.54534,0.7094419,2.108735,-0.51901454,-1.2826073,-0.39843425,0.8979342,-1.6988939,-1.0216767,-1.0535665,-0.0752366,-1.0711722,-0.5625126,-0.8689628,0.7711286,-0.6508126,-0.46181628,-0.40528393,0.6552478,-0.7446175,0.66673154,0.23111184,-0.25153917,-1.1574812,0.5373339,-1.0258026,0.3981088,0.67574024,-0.23166417,0.20209141,-0.25876898,0.7601342,0.046587188,0.243907,1.15877,-0.92351145,-0.86969864,-0.6689247,-0.05345605,1.0363309,-0.94897735,-1.6774633,0.2632503,0.90621215,-0.5132024,0.9147915,-1.4126432,-0.21090838,0.1916376,-0.79759794,-0.8749493,-0.39412788,0.3022294,-0.081027284,-0.4841409,2.266566,-0.59900963,0.73899376,-1.1098603,1.8912294,-1.5958457,1.2566135,-0.43448767,0.23270409,-0.19345242,-0.07460676,-1.2914383,-1.7518027,1.195727,0.6107873,0.7934623,1.4477279,0.7096558,0.5249109,1.0068674,-0.87804043,0.23499875,-0.5954906,0.16921905,-0.40030986,0.84029764,1.0494282,2.0472875,-1.9555326,0.77048516,1.248885,-1.2525917,1.749518,-0.22824362,-2.4739523,-0.8393337,-0.24027131,0.050227556,-1.5512854,0.52732015,-0.19008492,0.9239182,-1.4547532,-2.130042,-0.71852094,1.8442872,-0.7984439,0.7306477,-1.1212044,-0.9728804,0.54222304,1.2947028,0.9767026,0.7365582,0.014188981,0.8035876,0.94613546,-0.29931644,1.3544906,-1.0076386,0.18443286,-0.9267899,-0.51458436,1.6489425,-1.4846182,-0.33745444,0.74107903,-0.36141,-0.35622424,-1.8051103,-0.25378546,0.9580426,0.6466558,-0.04475016,1.7710786,-1.244181,0.1532464,-1.0394647,0.31092313,0.89652956,-0.60226643,-0.13649902,1.2734559,-0.34332767,0.84363735,0.46046895,0.319775,-0.617561,0.12063842,1.4435158,0.6392899,-1.607827,-0.19655661,0.28594658,-0.017395968,-1.135564,-0.78404194,-0.98161656,0.054875985,0.19502291,-0.26159185,-0.80517155,-0.18964316,-0.32754955,-2.6049519,0.22330491,-0.9745195,0.41632503,-0.33786142,0.14869896,-2.1950417,1.2761362,0.030080788,-0.4303906,0.7923421,0.25043604,0.08366012,-0.4738018,-0.16615044,0.7463405,-0.47634202,-0.3483017,1.075106,-0.075168096,0.7351229,0.60520166,1.1280173,2.0780506,-0.8680367,0.5504216,-0.4290243,0.45189792,-0.26830792,-0.662439,1.2345605,0.3882708,-0.58185536,-0.083158195,-2.2101307,1.0699577,1.7424445,-1.1114854,0.267587,3.205404,-0.62547463,-0.41256797,-0.6512562,-0.00975325,0.28565836,1.034916,-1.9872729,-0.80555665,-0.9556708,0.32481822,-0.5583927,-0.45803285,-2.379624,-1.5085361,0.117286675,-0.4654833,-0.30286133,-0.91829896,0.4556371,1.3956217,-0.16219124,0.16923553,-0.39365712,-1.1624696,0.5262663,-0.47720122,-0.78989166,1.5684351,1.4419813,-0.24745628,2.527938,1.4575111,0.8625945,-0.7145673,-0.046062976,-1.4861954,-0.56316906,0.20784591,0.36417243,-0.32978532,-0.61152583,-0.4677118,2.2376661,0.3569421,-0.606969,1.9833685,-1.0710813,-1.7442434,-1.861845,1.025436,2.3061178,0.76603967,-0.442937,-1.5829935,-0.5638735,0.30140084,-0.11688821,0.14149427,-0.6534166,-0.40502536,0.58617604,1.822444
CCDC47,-0.34551534,-0.9259051,-0.47243744,-1.2587606,-0.0012347462,1.9115322,-0.29094318,0.047232497,0.8694525,-0.1293135,1.0037922,0.18958595,0.6076712,-0.77587247,1.0705236,0.21306524,-0.9117214,-0.6143854,-0.69602716,-0.60094845,-1.2169356,-0.8782613,0.8515482,2.1560345,0.60371095,-0.6353082,1.2325935,-1.0764921,-1.5130007,-0.41536045,1.3707285,-0.9367524,1.4513642,2.214339,1.9664273,-0.69599694,0.0025058384,-0.124864765,0.70369923,0.24694121,0.35398832,0.23556398,-0.397076,1.7974671,1.3990623,-2.144099,0.119564235,0.2916701,-0.5867286,0.07718754,-1.7263303,0.19404542,-0.28458735,-0.8037582,1.5276706,0.93525267,2.1046925,0.94106805,-2.7073348,2.1062489,-1.4305884,1.1144753,0.11606328,-1.3491019,-0.80186445,-0.10717573,-1.4434607,0.6112946,-1.8227316,-0.14376386,-1.6231688,-0.78602475,0.6555122,-0.6850804,-0.8182641,-0.25063807,2.9272144,0.8955156,1.387964,0.51312083,-0.20064838,-1.6004264,-1.6846746,-0.057160795,1.0124339,1.5661917,0.9782478,0.9261428,-0.37950692,0.011457634,-0.4137344,2.6903691,0.5526985,0.5570853,0.57516885,0.12976709,0.80489403,0.86359704,-0.9734904,-1.2610123,-2.3199952,2.756278,-2.092888,0.031732477,0.6736217,-0.36276704,0.47806844,0.20918387,-2.5455208,2.1419778,-0.23193479,-0.5312254,0.32385048,-1.8002663,2.3819108,0.8165824,0.81406206,1.386062,-1.7096932,-0.15532853,1.1782252,-1.1293817,-0.0084388815,1.6695381,2.0549254,-0.1638372,-0.326964,0.20873497,-0.022247566,-1.370911,-1.2195044,-1.2130715,0.4887113,-0.9062318,-1.6771929,2.2262938,1.2154605,-0.18314464,1.3673413,-0.75278395,-0.8964048,1.2035874,1.2480288,-0.33017263,-0.5702972,-0.9930873,-0.12635194,-1.2880961,1.3238007,-1.8085055,-0.05111416,1.2227541,1.1611645,-2.0540948,-0.02816129,-0.027159333,1.4964099,0.24572405,1.8858376,0.6831165,-0.23182218,1.0564488,-0.24791779,1.2109272,-2.2957203,-1.8217211,1.5024545,-0.216516,0.8194236,-1.4068909,0.58216095,-0.13932502,-1.5937842,1.1511251,0.3646909,-0.7146452,-1.3059845,1.1087904,-0.47708818,0.43410906,-0.31866387,-1.4450245,3.346627,-0.7198156,0.33004618,0.48095724,-0.47485542,-0.67517656,-0.2518325,-0.44963837,0.99084336,-1.5118259,0.09119302,-1.3823345,1.1318319,0.7913853,-1.2764313,1.3876486,-0.12234518,0.94937533,-0.55223596,-0.067856334,-0.062042005,0.35988277,-1.108003,2.4673393,1.123799,1.4870379,0.8199262,0.69911736,0.53528726,-0.54299897,2.345366,0.26571587,1.1930892,-0.013026936,-1.0325298,-1.2768737,0.4856988,-0.060528733,2.2787654,-0.96367925,-0.59269077,1.2342623,0.5490681,0.023411911,-0.15691082,-0.0043559754,-0.03928284,0.52493423,0.2881777,-0.05992065,1.9353759,0.64456993,-0.19989896,-0.024101518,0.28265804,-0.6808761,0.06309437,2.204387,-2.475942,2.421515,-0.012688614,-0.5766022,1.4045665,0.46698895,-2.7296968,0.84681773,-0.29247144,-0.27626422,-0.2836991,-0.3610254,-1.1327986,-0.026912803,-1.0849732,-0.57016957,1.8448485,-0.2575556,-0.33294222,-1.2150515,0.16642459,-0.8962658,1.4674016,-0.7101484,-0.742927,-0.2844278,0.77263975,-0.14692044,-1.2266667,-0.8698524,1.5625042,-1.3674489,0.47603166,-0.38185766,-2.4547026,0.8589077,1.719598,0.26975417,-0.74708563,-1.1867952,-0.18837662,0.117805526,-2.2682276,0.060611207,-0.24508975,0.23033567,-0.11252959,-1.3326334,-1.1670266,-0.17546107,-2.5272439,-1.4147513,1.4975567,1.7204047,0.0026831834,1.3432393,1.1840026,1.2227038,0.05186882,0.04683019,-1.2629154,-0.0686843,0.9293927,0.65841264,1.843126,-0.6218719,0.8771236,-1.2248027,-0.9589537,-0.5796469,0.078899376,1.577232,0.7582436,-1.1697541,-0.029262474,0.24585384,0.5192033,0.75316167,-1.310135,1.2487662,-1.5223022,-0.14116946,0.2992966,-2.1821406,-0.36977836,-0.61213154,-0.9625889,1.2023975,1.2372259,1.6809211,0.4406243,0.010852522,0.2858782,-1.2783669,1.4756703,0.0361115,-0.50929266,-0.45108172,0.27954388,-0.17916934,0.4445151,-0.008338476,-0.34157422,0.050219256,-1.2541239,0.51203394,0.3444404,1.185581,-0.004860547,-0.57355964,-1.3965439,0.88738704,-1.1006757,-0.49327362,-1.4910334,-0.40016472,-1.5575541,-1.1829209,-1.6443863,0.6326493,1.191469,0.95016986,0.6541231,1.2522278,-1.5643122,0.70188314,0.7967457,0.022683172,0.67055917,1.4218382,1.1606439,-0.62099105,-0.09220605,-0.84913826,-1.0572002,-0.5123835,-1.7550738,0.7635424,1.417536,-0.18837778,-0.5936742,-1.2110791,0.4775874,-0.77019185,-1.0594292,1.3391858,-1.6245258,1.7589879,-0.4317321,0.3092751,-0.06066748,-1.0035628,0.48501965,1.8858621,0.27448133,-1.3657243,-0.69997597,-0.77983683,0.12502302,0.7647992,-1.8205597,-1.2527548,0.04313366,-0.86878777,1.3652413,1.0398998,2.941507,-0.40630877,0.14947084,0.21457018,-0.3747005,-1.672636,0.5783338,1.5146496,0.4999684,0.32942143,-0.6236307,-1.3075277,-0.321469,0.23963952,-0.837982,1.2524507,0.8254751,-0.63005996,0.3893829,-1.3248974,1.4176159,0.051663227,-0.85327107,-0.8918337,0.5267933,-1.3187442,0.1497808,1.3360548,-0.11680485,0.029429074,0.050920576,-0.22004782,-0.60786045,-0.3504294,-0.1850008,0.90504545,-0.29553634,0.7000348,-2.0778747,-0.22115758,-1.0262243,-1.0496458,-0.6303484,0.46790156,-0.24307103,1.7594435,0.53568643,2.008899,-0.31364125,1.7616452,-0.46519947,1.1488445,1.1461587,-0.08358754,0.9645576,-1.0178244,-1.0684605,-1.1196262,0.7668034,0.35782108,-1.0242627,-0.03514832,0.9535194,-1.4928949,-1.4072142,0.3661747,-0.10279562,0.5567599,-1.0732093,0.33732536,1.5096663,1.3969961,-1.7696382,-0.83049136,1.4862424,0.9853143,0.5524932,-1.6802993,-2.357681,1.9094427,-0.024737583,0.5501367,-0.700171,-0.6905453,-0.41422483,-2.3715181,-1.131186,0.68464327,0.13457136,-0.127475,-0.2288879,-0.8091722,0.28758904,-0.93772215,-0.28448582,0.3746627,0.7912104,-1.0687186,-1.8784664,-0.29354152,-1.6084121,0.40245995,1.1963773,-0.13131791,0.0878251,-0.8647921
COX17,1.7591727,-1.356613,-0.691126,0.72055745,1.0150807,2.024796,-1.1243212,0.5198169,-0.955658,-0.12898086,0.5762914,-1.9186815,-0.48737735,-0.09323921,0.9563687,-0.7259806,-0.87644243,-1.0870957,-0.100920685,-0.17761387,-0.59586453,0.25044024,0.4211216,-0.68859404,-0.31869343,-0.92506737,1.4325283,-0.36696592,0.7889932,0.0994447,-0.29621866,-0.08598555,-0.8064849,-1.292696,-0.009365153,-0.16262381,-0.6243478,0.37136185,-0.7392226,-1.0664572,0.08311838,-0.753894,-0.9765058,-0.48578948,-1.1250094,0.030904496,2.8893375,-0.95797515,-0.676172,-0.10029098,-2.0050907,-0.2831384,1.3886346,-0.03246726,1.9506866,0.9114762,0.46209985,0.14306442,0.16350982,-0.95892894,-1.1841108,1.2372853,1.0690558,-1.5683222,-0.15602021,-0.4863133,-1.2585459,-0.34693986,1.7102925,-0.13121074,-1.2139686,0.56848824,1.6621368,1.7058022,0.1077351,-0.3945491,0.56024873,1.2518127,-0.45255712,0.5358321,-0.049865823,-1.5094914,-1.0316961,0.7016246,0.41912544,0.119628616,0.7452673,0.30927193,0.12134595,-1.395379,1.0957451,2.5157802,1.0679663,1.833983,-0.29103756,-1.1479788,0.26981243,0.94413555,0.5710525,-0.80600685,-1.8844516,-0.25898147,0.40919262,-0.018254997,0.6045707,0.07123988,1.115775,1.1131835,1.0897729,0.029983,-1.3092024,0.786916,0.07250913,-0.24780221,0.7841492,0.10330556,0.8864666,0.26904842,1.9524033,1.1804633,-0.18566883,-0.64463997,1.3519156,0.94358176,-1.9986721,1.4492975,-1.3723255,0.673938,-1.171275,0.7057057,0.5604884,0.9346391,1.2309937,0.037116844,-2.7577229,0.5605606,-0.11330785,-0.42029628,-1.4921573,0.9657907,0.30229703,1.2160947,-0.8362442,-0.46654812,-1.6827492,-0.37394458,-0.22095807,0.41976407,-0.8562736,1.8470775,0.5449319,2.5246136,0.8236626,-0.2329346,0.38439322,-1.3075075,0.80690277,0.61877173,-0.8030701,-0.88305306,0.17667557,-1.0319762,-0.8837423,-2.6886559,0.03828027,-1.7459835,-1.5773621,0.45476803,0.7249485,-2.537587,1.3244237,1.1185181,-1.3176488,0.27680793,-0.15146828,-0.65087694,-0.6922196,-0.437738,-0.90282774,-0.11290039,-0.22438553,1.6061549,-0.17656699,-1.2010645,-0.7212751,1.2152929,-1.4877542,1.3683681,-2.8143039,0.6148974,-0.1602421,0.25273898,1.611083,1.3095717,-0.85521764,-1.0406058,1.0300728,0.39159402,0.16502567,0.2634291,0.35291103,-0.16081937,-1.4972069,-0.7848577,-1.5037532,1.2221172,-0.6154669,0.048859615,-1.70421,-0.81298614,0.93280166,-2.0771163,-2.0911388,-0.1943258,0.38061762,0.25580618,0.49115506,-1.3354888,-0.21957904,-1.20955,-0.28730735,1.0333567,-0.15384114,0.9896184,-1.8202729,0.18862621,2.673037,2.2581654,-1.7328218,-1.6735245,0.35423207,1.3487493,-1.9613549,-2.7557366,-0.39805815,2.0696974,1.1515492,1.03176,1.221608,1.7773106,-1.0029505,-0.5575276,0.1094338,-0.20774318,0.1766658,-0.12055686,1.1129295,-0.4486845,-0.42119187,-0.7167923,-0.4264516,0.5424943,0.23828965,0.27157506,-0.43018037,-1.4852049,1.3233407,0.33838278,-1.6275951,-1.2862492,-1.1785675,0.68172383,1.1578201,0.5358961,0.60589325,-0.44219705,0.50559646,-1.1353501,0.87677777,-1.1898289,-1.2302811,-0.20355682,0.059780873,-0.30845028,-0.62700456,-1.6224909,1.1525532,1.3430284,2.1069117,-2.236086,-1.7078577,0.33797863,0.37206274,-0.7192058,-0.59434897,-1.15711,-0.60770553,-0.7519356,1.8850313,-0.43201002,0.12871328,-0.5983256,-0.7033102,2.4844441,-0.1631868,-0.045601644,0.78947014,0.5517898,2.1549277,-1.488723,-0.43444347,-0.68266994,-2.341916,-0.6243807,0.38207027,-1.7486349,-0.85535985,-0.519052,-0.53970945,-0.6784194,-0.7387983,1.3863772,-0.30865955,1.1386814,2.1353924,-0.13194326,0.8367071,-1.8096616,-0.016967306,0.94726884,1.3600086,0.18358614,2.6251264,0.5179394,-0.21071473,0.8263267,-0.43812642,2.0243566,-0.19960412,1.2127146,-1.0312321,2.4367256,-0.35620216,0.24822403,-2.1027744,-0.58270776,-1.1130334,0.6672292,-0.5958261,1.8047624,0.61537385,0.5487184,0.54238254,-1.0056102,1.0998287,0.2223644,1.0018944,1.2192985,-1.6115457,-0.041662637,0.9182509,0.31099445,-0.044644743,0.44635034,0.7592486,-0.48367694,1.0241506,-0.10278071,0.6014434,1.3634224,-1.6470339,-1.0433702,-1.1459837,-0.98563176,0.5209945,-0.528378,1.8971868,-1.6249338,-0.69398904,0.50617486,1.9293522,0.16373292,0.9165016,-2.1432528,0.7953631,0.40371555,0.89677477,-1.4271121,0.91124004,-1.2653177,0.20585328,1.7517796,1.0206405,1.6539732,-0.49906284,-0.7320937,-1.4204834,-0.7176419,-0.25949565,-0.029604653,1.0358887,0.90065753,-0.65852576,1.2856148,-2.6614199,0.4713527,0.24882872,-1.8632094,0.14161062,-1.7795558,-0.17623161,-1.2574947,1.0052161,1.2277598,-1.4800332,-0.29789612,0.9626299,-0.46392363,0.46528587,-0.10421897,-0.43169487,0.49668884,-1.0177581,1.1720657,0.22396405,-0.636971,0.2697075,-1.0527402,1.8567729,-1.0649881,-1.8536538,1.2196088,0.29905054,1.1459548,0.86316,-0.8934745,-0.49654305,0.8464129,-0.36141247,-1.2133877,0.087628685,-1.221562,-0.50942135,0.34799623,0.44966415,-0.9417567,0.2588911,-1.1596287,0.2926915,-0.23633388,-0.30381116,-0.6399816,-0.5897252,1.5637283,0.3788997,0.8333332,1.5949296,0.4045311,-0.3518468,-0.54222554,0.34272265,-0.22546414,0.8972642,-0.78899753,1.4459535,2.0001528,0.63367325,-0.64821017,-0.19081518,-0.116005614,0.5290272,2.3758929,0.5287251,-0.92343855,0.548217,0.19135359,-1.8867751,-1.0203892,-0.88801944,0.5326169,0.79586303,-0.7210601,0.22195135,0.22660963,0.79149824,0.11758534,0.49261203,1.350736,1.7261127,0.91106504,1.0193151,1.2028005,1.5519404,-1.5125313,-1.559454,-1.431602,1.8873076,0.52996206,0.012316402,1.4318167,2.730167,-1.1228416,0.976497,0.9232335,-1.4202733,0.835386,-1.5740813,-0.64590544,-0.092898786,-0.17962518,2.045845,1.1155115,1.7501049,-0.5061241,-1.6375448,-2.5050938,1.8430221,-1.5714803,-0.9249975,0.52559304,-0.3769888,-1.2820227
COX5A,0.9499497,-1.3070402,-1.5073202,-0.9100593,-0.12532125,-0.674523,-0.59539706,-1.589553,0.1100913,-0.43055528,1.345273,-3.1892138,-0.16445729,-1.250207,0.16295895,0.4060661,1.427525,-0.73312914,0.9109347,0.8869123,1.0343341,2.3934157,-0.22996008,1.0891905,-1.3383378,-1.5394951,2.3569787,-0.43421385,-2.907405,-1.123924,0.92960155,1.302999,0.1584937,0.99966997,-0.7535529,0.19277494,0.47581136,0.016989179,-0.6083687,0.13183706,1.013672,-1.4050329,-0.5761979,0.9680272,-0.49363145,-0.55639106,-1.0647976,-1.1271709,-1.7831904,-0.23512548,-1.893511,0.8101678,1.7765273,-0.13133977,0.14109719,0.7437121,1.5829499,0.831483,-0.80328023,0.81885356,-1.8657826,-0.9121673,0.80266553,0.04102857,0.87803406,0.95628095,2.229975,1.4243753,-0.7462769,-0.21814983,1.637018,0.5949658,-0.88256055,1.9761173,0.5827173,2.4464877,-0.57355887,-1.1389049,0.2412407,1.8254737,0.71518826,-0.018512363,0.49344432,-2.0597205,2.6946986,0.27202424,0.2738602,0.58079,1.0513287,-0.17320557,1.1467117,-0.65389615,1.9435751,-0.6599783,-0.9688964,-0.6294298,-0.8847883,-0.8443038,0.60148805,0.3401765,-0.31144318,-0.96365535,-0.69244695,1.2648005,-0.8290788,0.8399667,1.173667,1.5594031,-0.090681225,-0.49614418,-1.7487447,0.0011091259,-0.011640628,-0.40293586,-0.18463859,0.2771236,-0.7870663,0.976964,0.3890596,0.7509564,0.34932864,1.543972,2.0091462,-1.2668906,1.3016225,1.7185897,-0.23554087,0.5890663,-0.87302667,-1.0178484,1.1251072,2.6430123,0.26104683,0.10309575,-1.482549,-1.2059189,-1.0646292,-0.83975637,-2.0697842,-1.0596807,0.14926806,-0.23312138,1.2624469,-2.7665024,0.31621763,-0.4892677,-0.28364775,-0.86453724,1.0311105,0.27635643,-0.16636784,0.5536982,0.18104069,-0.85981584,1.6641647,-0.3312622,0.5833201,0.41328382,1.2952926,0.49021578,1.4706726,-1.0595137,-0.28175896,-1.1743624,1.931839,0.35083997,0.5219318,-1.1213124,1.9964374,0.4109458,0.2654252,0.32061902,1.2401135,1.0920929,0.10023608,1.3086659,-0.6715483,-1.1296773,0.25033116,-0.45877555,0.34412515,0.9658776,2.355115,0.58721757,-0.6083731,1.6228862,-0.61023784,0.02446337,-0.61691695,-1.3700218,-0.32236183,-0.10118455,0.32786232,-1.0503592,0.73656327,-1.2815293,1.1147145,-0.1999289,0.8992865,1.8512036,-0.45417464,-0.05917224,1.700468,-1.5417904,0.13984753,-0.89560324,1.0911236,0.7961876,-0.35660478,-0.7266186,2.07458,-0.3859163,-0.6332604,1.3836925,0.6422095,-2.575948,-0.56701386,-1.1003164,0.22494063,0.5919184,0.13056992,0.14684638,0.27706397,-3.1368463,1.5594333,0.5903295,0.37004504,0.65906084,-0.31083223,0.60648954,-0.43719673,0.34293523,-1.571852,-1.8577005,1.1844265,1.8282028,0.97957474,-0.5272288,-0.9301298,-0.06595866,0.298544,0.3532104,1.0954365,1.7673044,-1.3183008,-0.6312321,0.18932615,-0.5820614,-1.3979405,-0.9442641,2.0469227,0.9917232,1.1857551,0.44057125,0.16028528,-2.038495,1.2862375,-0.103316724,-1.0444134,-0.062865816,-0.86407655,-0.14789498,-2.0506225,-0.5129395,0.8267142,0.52765113,1.4551742,-0.5000374,-0.554144,0.019583642,-1.2284029,-1.2487824,0.1733233,0.7364285,-0.70304686,-0.19679254,1.0880135,0.16427031,-0.44548672,0.028968917,1.0490003,-0.526613,-1.2423494,-0.7069246,0.33636224,0.96439606,-0.2737255,-1.1039234,1.0689106,1.6265552,0.59106886,-1.3840692,-1.1800823,1.4291326,0.007983767,-1.804717,-1.5272356,-2.16364,1.6981122,-0.07557482,-0.34135944,-1.495231,-1.5007107,0.1573272,1.2573556,-0.36067292,1.0809708,-0.12967439,-0.03811574,1.2007614,2.0312893,-0.9339467,0.5924516,0.8775402,-0.01382985,0.5752722,2.684205,0.8787196,0.602871,1.3347895,-0.82427776,-1.2047632,-1.2534639,0.62788516,-0.63829434,-0.6999911,-0.08575579,1.020914,-0.9125229,0.44134542,0.4699424,-0.7089074,-0.21930543,-0.5313568,-1.3040339,-0.28985932,0.8389405,0.89112294,1.4517678,0.4592654,-1.1720206,0.8147327,1.5805385,-2.0067797,-2.1744645,0.10353947,0.7010299,0.8372733,1.3177817,-0.7898097,1.0425785,0.70264626,-0.308029,1.6383374,0.63143194,0.6838945,-1.3561847,-0.26648954,0.9332578,0.6397997,-0.5130127,1.0703745,-0.2612619,-3.757849,-0.041501287,-1.7793005,2.1037624,-2.200722,-1.3865402,-0.14257647,1.012103,-0.11736962,0.2680696,0.7799119,-0.59734446,0.92514586,-0.7731429,-0.5764905,2.0019255,-1.3540385,-1.1523517,-0.9667662,-0.67381096,-0.3556473,0.6328905,-0.58315706,0.22674066,0.03226714,-0.48091197,-0.42410958,-0.8297001,0.6033896,-1.0309052,-0.21682937,0.06474784,0.39050615,-1.847201,-0.961912,1.0420337,-1.4823749,0.6950719,0.96417034,-0.7181253,0.6068561,0.6733601,-2.3765347,-0.25353852,-2.6054225,-0.87034774,-0.80048215,-1.4364079,-0.15881477,-0.7995767,-0.47067744,0.99188465,-0.11754557,1.0859245,1.4457594,0.406638,-0.26726887,-0.89063966,0.6928996,2.0635803,0.33012652,0.96293235,1.9206849,-0.51352215,1.0099514,2.3782797,-0.512126,0.4293618,-0.9560474,0.7944515,0.2749652,1.2353905,-0.66913956,1.045169,0.07655189,1.6025003,2.1029081,-1.0282775,-0.43325227,-0.4002984,-0.6365991,-1.6969135,-0.6377313,-0.049538612,0.22440438,0.83898836,-1.2300156,0.4826437,0.42503777,-1.9605473,-1.0804999,-0.39739573,0.08496557,-1.5536047,1.4111087,0.44781727,0.333402,-0.22863154,-0.30160624,0.07246035,-0.72434396,0.03171313,-0.4219306,-2.1525357,-0.22023939,0.7825139,0.91490936,-2.2204866,0.07492119,-1.8163671,-0.28672388,-0.13966064,-0.31130677,-2.0454373,1.1285892,0.46037382,0.33231673,1.5743575,-0.68777925,-0.5871263,0.2140756,-1.9280668,-0.4409839,0.5878333,1.0227704,-1.9934964,1.8529819,1.2173913,-0.34821355,-0.5647602,0.7796646,-0.08616055,-0.23176147,-0.0678772,-1.2131928,0.014159467,0.9429899,0.42223033,0.17896351,0.1421915,-0.8233745,-1.8900046,-2.4764838,-0.003880632,0.7532373,-0.31394556,-2.351953,-0.045768995,1.2611059
COX7B,0.98812115,-0.62475675,-0.6971347,-0.5089461,-1.3422055,1.8839802,0.43732888,-1.826613,-2.2175226,-0.4767231,-0.58136606,-0.92649883,1.0896355,-0.039120898,-0.9389192,0.43092513,0.4836847,-1.8850138,-0.8887258,1.3688924,-1.1269649,0.7333241,0.956343,0.283003,-1.3631116,-1.8983963,1.3165716,1.5157942,-2.5126143,0.35561112,0.6848856,0.7088839,-0.44583455,-0.30677295,-0.95025945,-0.9209758,0.8191706,1.0243081,0.66090286,0.49153018,0.69096226,1.4757451,0.7819748,0.6941498,-0.19077337,1.5722146,0.44308308,-1.5275189,-2.0532303,0.27712357,0.29107165,1.4200878,1.9414356,1.1626533,-0.24906766,-0.63699687,-0.2656346,0.94197065,0.48352468,-0.74315983,-2.280191,0.089608535,-0.03778589,0.5707785,-0.17056532,1.1649722,2.241987,-0.22650205,-1.2841837,-1.0809498,-0.5559595,0.5936932,-0.46255004,2.2620087,-0.75095963,1.269662,0.7856047,-0.42555666,-0.22712544,-0.2398715,-1.785649,1.1456859,0.8069579,-1.3982525,-0.026387665,-1.3479097,-1.5510489,0.57568526,0.68121374,-1.3526964,-1.1976866,1.8418342,1.0915163,-1.8607126,0.11987769,-0.18792269,1.7301096,2.4430866,0.8844756,0.4070222,0.600657,-1.0813069,-2.0604386,-1.1684651,-1.5581717,0.4713982,-0.64770305,1.4252687,-0.46017742,0.4287647,-0.33629864,-0.7433047,1.628289,-0.5637506,-0.2251595,1.062766,1.2929205,0.6384792,0.27446368,1.4615905,-1.0735898,0.37819004,0.31434637,1.3791136,-0.3652574,-0.7644643,-1.3913034,-1.418692,-1.7035425,-1.1149676,-0.2580667,2.039844,-0.006126071,-0.42068842,-2.0410326,-1.010262,1.6543723,1.2969751,-1.86956,0.20344545,-1.5252268,1.3460804,0.8950927,-1.259273,-0.44162148,-3.1906798,-1.1549706,-1.2511379,1.0228662,0.89108884,0.299765,0.62012136,1.1282557,0.66826797,1.312995,-1.6055483,-0.5114655,1.3457568,1.0012388,-0.005809921,0.49737552,-1.007667,-0.46084374,0.04189317,2.629302,-2.2205071,-0.84093297,0.98170346,-0.8375372,0.20723097,0.46012664,-1.0881104,0.41461653,-0.44286317,-0.6912894,0.9079931,-0.13789994,0.3964765,-0.37734228,-0.08098417,0.2962525,0.9639114,-0.5572952,1.0723963,-0.46591088,0.039919116,0.87019885,1.6677635,-2.0800877,-0.74445117,0.9404691,0.6414619,-0.98047584,-0.5031074,-0.098439194,-1.0087796,0.26801372,1.8233188,0.45858252,0.4019235,0.38696927,1.5095844,0.099945426,-0.056359775,-1.7051566,0.60209507,1.1515101,0.89240617,0.34584323,1.1032894,-0.21154225,-0.8014201,0.4391757,1.8110625,0.7304614,0.13316354,1.2303479,-1.5315824,-0.71700937,-0.712484,-1.2717993,1.0545926,1.0892147,-1.5917366,-1.1089998,-0.61515427,0.78680515,2.8394296,-0.50328183,-1.2764097,0.5590486,1.7591348,0.21491002,-2.7607117,-0.22468673,1.8857688,0.0829448,0.6721764,-1.1224543,0.8641821,-1.0786355,0.7292791,1.3571137,0.66349983,0.6522504,-0.32114848,-1.0295804,-0.20766371,0.1318052,0.81672883,1.5061249,0.79598415,1.0242798,0.6666595,0.8472753,-0.120496705,0.73494375,0.60947627,-1.4618359,1.1384254,0.42525232,-0.37942928,-1.9271927,1.0112214,0.92983234,0.5926509,-0.5977293,1.2391058,-0.23703454,1.4712775,0.33155796,-0.23259638,0.86082715,0.9606368,1.762701,-1.4009982,1.2713118,-1.1724689,-0.8353846,-1.704628,1.7969861,-0.44314292,-0.9553391,-1.9461895,0.2538088,0.66490537,0.031107938,0.65607065,0.120369315,1.6817447,0.66700494,-0.028107062,-0.3829384,0.102864094,-0.66987073,-2.2980294,-1.3000332,-1.2491189,1.3324704,0.7774916,-0.73337805,-0.7527247,-1.7634696,0.3331479,0.30563527,-1.13792,-0.3703957,1.4548719,1.1239859,0.38988236,-0.73909616,0.8100004,-0.8405603,0.048443552,-1.1314837,0.20670554,2.097284,-1.2445107,-1.8373374,1.173562,0.0062863515,0.62734145,-0.6891389,-0.6684716,0.6304896,1.0460736,-2.1470294,-0.95140934,0.4495099,0.82148546,-0.10128707,-0.8280467,-1.5666121,-0.6332874,0.28475636,0.3706438,-0.04018919,-0.84034514,0.76515126,-0.5937909,-0.37799117,1.6881217,-0.37760606,0.24085402,-1.2752267,0.6099752,0.93956864,1.4558127,0.67737406,-0.2812765,-0.024153301,0.6644484,0.5852143,0.61758363,0.068964005,-1.0576164,-2.1962,0.5214494,1.3792921,0.30795452,0.7186721,0.82036215,1.6537433,-2.735829,0.89531994,0.9706697,-0.3788624,-2.4543262,-1.2374194,-0.6567824,-0.4827845,-1.2524482,-0.24484839,-0.14837724,-0.86301327,-0.60248125,-2.7562222,-0.8932874,1.0722471,-0.17883824,0.83717126,1.4467618,0.3428586,-1.2950151,0.66594684,-1.2596104,-0.87108785,0.108879626,-0.95845366,-1.4204278,0.9161306,2.1755974,0.3632024,0.8282133,-1.4623183,1.0094259,-1.2256963,-1.5219638,1.5341573,-1.3382912,-1.4039432,-0.0014040628,-0.3254418,-0.25452167,-0.32750726,-0.86357945,-0.7829741,0.39535847,0.07528161,-1.2286508,1.8345997,-1.7833651,0.49985608,0.6945342,-0.27198502,-1.5137641,0.2879152,0.31592685,-0.187222,0.09698422,-0.46224427,-0.5750455,-0.52616954,1.5946082,1.6245608,0.6392879,0.27349705,-1.3899972,1.536651,1.4005451,0.94361466,-0.6090991,-0.3879828,-0.5586847,2.2639945,0.6679003,1.7896919,-0.43252754,1.0446267,-0.6324061,0.38756308,-0.97928375,-1.1267425,0.59985507,-2.4381075,2.1162734,-0.2755809,-1.820453,-1.1472431,1.40052,-0.13494965,-1.9722724,0.4003317,0.5825191,-0.7603395,-0.2252197,0.1799725,-0.70170635,-0.7650913,-0.17558055,0.5300187,2.059923,-0.6389542,-0.7612609,-0.15596975,0.5599679,0.800193,0.3105829,-0.6176974,-0.8059552,0.82037127,-1.036839,-0.43543795,-1.9804224,-0.2363232,-0.021087974,-2.242222,1.9122523,-0.009492871,1.7791097,2.610918,0.1503295,-0.042935546,0.6377629,-1.1182461,-0.24807958,0.798436,-0.088806346,-1.4650253,0.006853209,-0.90088856,-0.8021053,0.9419189,0.12966079,-1.3350953,-0.12525885,-1.5656959,-0.55768317,1.5446217,1.2794976,1.5266887,-0.1313109,0.7753052,0.9354318,0.8762664,-1.700417,1.4437915,1.0073428,-0.54892653,-0.9556468,0.5258923,1.5406071
DNAJC3,-1.5888555,-0.18395832,0.9878286,0.038430043,0.08386816,3.014556,1.4434042,-0.2563752,0.088614605,0.898585,0.24399838,0.7010144,-0.4489039,0.26935127,0.748056,0.106297076,1.0453485,0.7632819,1.3122042,-0.95666385,1.8823406,0.6195966,-2.0918808,-0.014266883,-0.561807,-1.0864688,-0.87543106,2.1918166,-1.619849,0.5902546,-0.06968918,-0.57313746,1.8082283,-0.029519582,0.16460694,-1.5717237,1.8485895,-1.0225387,-0.9251176,-1.2587675,-0.9294603,-0.6037151,-1.0630877,1.1092916,-0.6200199,-2.64086,-0.8469197,0.63110113,0.27646074,-0.8541514,0.506908,-1.2992002,-0.28434578,-0.81580496,1.5486599,-1.0002464,0.77795434,-2.3114734,0.7732363,0.33560073,-1.5501801,0.9165991,1.3291787,-1.3910284,-1.4758672,-0.94948286,-0.68604743,-0.42216414,-1.3057036,-0.631384,-0.70279014,2.3689537,-0.9971047,1.5580565,0.07964565,1.41953,1.0711215,-0.9478243,0.37545568,-0.23629656,0.39051148,0.34204257,0.59077907,-0.9058824,1.2130942,-0.22986832,1.0707047,-0.7194747,0.52660453,0.745372,0.5383158,0.5893223,2.1407726,0.30509028,-0.9357306,-1.9585913,-0.4081456,-0.38023585,0.24041492,-0.15199286,0.21097676,-0.44124448,0.6880038,1.1535723,0.5031229,0.7967391,-0.74582225,0.34573224,-1.4434437,1.0084938,0.16585723,-0.5221327,0.3760172,-0.4617581,1.8742694,0.91811997,0.3620251,0.011871228,-0.19860545,0.74641436,-1.7564118,-0.965369,0.3914082,-1.0360773,-0.19044705,0.8250091,0.64913887,-0.58602774,-1.0164696,0.11589729,-0.22097321,0.5306165,-2.136295,0.14051303,-0.11035095,0.90156865,-0.06326417,-0.719357,-0.6185975,-0.6741114,-0.71500933,-1.3891251,1.3169618,0.054928914,-0.4797085,-0.43558392,1.1475503,0.8106141,0.4137473,-2.0481055,1.569637,-0.022022089,-2.824675,-1.0347719,0.24015391,1.0551627,0.26308936,0.9736741,0.75844646,0.33398917,-1.2284999,-0.49930063,-1.6596369,-0.72088003,-2.6618128,-2.303964,0.6998041,-1.1083137,2.2908583,-0.35821623,1.3933645,0.14070445,0.8385314,-1.670098,-1.1411359,-2.9548264,1.4002144,-0.6330115,-1.5512937,0.33775806,1.6707393,-0.5265888,1.5795743,-0.44644395,-1.4065353,-1.0921994,1.5402527,-0.6939019,-1.0875608,-0.23941405,-1.3913101,-1.0633669,2.393537,0.6280152,2.2398834,0.011604548,0.7634229,0.95956755,-0.21751077,-0.8761216,1.0170716,0.84970003,1.6030089,0.84599304,0.25758013,1.875385,0.23844479,0.22354914,0.83885443,0.44560477,0.73505473,2.053841,0.16637856,1.3467759,1.5182312,-0.5629237,-1.1480887,-1.5400867,-1.8428805,1.0729624,1.1642736,-1.6214132,2.2704494,-1.5382384,0.13446969,-1.2123121,0.1272773,-0.07503745,0.11947284,-1.063463,-2.0123084,-1.2490016,0.80053884,-0.9915243,-0.8045376,-0.28451294,-1.1319251,-0.5544906,1.9093015,-0.09339857,-0.34778553,1.5395249,0.73573285,0.047980845,-0.98010266,-1.2592201,-2.8717988,0.655249,-3.0241437,-0.014578493,1.4501259,-1.9924554,-1.2689487,-0.0349209,0.64287347,-0.70077187,0.2638061,0.5748139,-1.4887528,0.42122597,0.40809676,0.6916298,0.13781857,0.8460054,-0.23074138,1.6870875,-0.5146459,-0.62015516,-1.9473536,-1.4361404,-0.44448906,1.2084794,0.71085906,1.7098535,1.3279608,1.5750862,2.1909587,0.14694224,1.7290468,-1.1153935,0.5849418,0.79592544,-0.08198988,-0.6389268,-0.33363208,1.2943194,1.0668323,-0.5180825,-1.0603518,-0.89707464,-1.5567377,1.5260705,-0.34592208,0.82884467,0.6097077,-0.38631263,-0.43158913,0.9294723,-0.21505438,-0.85680574,-1.3395932,1.7158457,-0.06590377,-1.183214,-0.35728177,1.4011165,0.48742807,2.3277845,0.08205222,-0.11330943,-0.7984783,0.29939342,-0.85782623,0.63768655,1.4013664,-1.5546837,-0.13678412,-0.35932177,0.4727723,-0.8808281,0.2292983,0.52938396,-0.6477107,-0.36928305,-0.7214417,-0.7365264,-0.01705886,1.5391595,0.8257365,-0.24106824,0.43981782,0.23634744,-0.5462937,-1.3783172,0.8120544,1.2916586,0.5902907,-0.7669499,-1.7694542,-0.37861323,1.1240063,0.16729333,0.881901,0.9318338,2.2628686,0.27056178,-0.3659186,0.93920636,-1.2776369,-0.3713263,-0.90189207,0.998444,0.18482307,0.55245245,1.3203931,0.076857135,2.1369982,-0.90895903,1.2160718,0.16463935,1.1845278,-0.38272434,-0.52794635,-0.790339,-0.8186402,-0.39453092,-0.8708127,-0.23721881,0.4122305,-0.57179064,0.25756678,-0.4254651,-1.2393956,0.6028775,2.0790262,-0.0751265,-1.1685966,1.0783105,0.8420547,0.20183468,0.93559986,0.47152078,0.74253964,-0.14006278,0.21996588,-0.35378522,1.2451612,2.5267909,0.086455815,-0.34873754,-0.78213364,-0.4394286,-0.22593027,-1.1620106,-3.014851,0.9115281,1.0413101,-0.52720255,1.730994,-1.4883759,0.3294295,1.8843758,0.39009264,0.26919848,0.4691172,-1.5931221,0.7308482,0.08898254,0.5820791,0.9394679,-0.018821748,-1.5089719,0.6439718,0.5932369,-0.39017278,-0.868397,0.6399844,0.83737487,0.45262665,0.5784547,-0.5958403,-1.7502654,1.0124482,-1.2826035,-0.21321261,-0.29687068,0.18372835,-0.74469846,2.0202994,-1.0125,-1.3965534,0.31447065,1.2803305,-0.020987066,1.0912669,0.5265143,-1.3523015,0.5654037,-0.35422027,-0.30014926,0.062121414,1.8293278,0.41066852,1.7739584,-0.6582329,0.50626856,-0.40633667,0.5352991,-0.19182654,1.0472928,0.63570356,-1.0534452,0.30295113,-0.27647254,1.6468277,2.6187963,0.045954183,-1.1056186,0.037379738,0.33339876,-1.4625332,1.0453709,-1.3210791,0.2921068,0.2951381,0.088781275,0.2864593,-1.4467607,-0.8224134,-1.1944249,1.8570297,-1.1338484,1.6136687,1.7895502,0.23358814,-0.80769426,-1.1502001,-0.6324029,0.8566592,-0.5545692,-1.0741377,0.8498124,0.69615424,1.1581355,-2.3708434,-1.8475525,-0.1196085,-1.6649069,0.7505535,-1.4765017,2.571878,0.5573492,0.87238246,-1.0588708,-0.8948593,-0.94903356,-1.7633425,-1.9593723,-0.27276635,-1.9677106,0.11532183,0.11280026,-0.7773104,-0.39201555,0.46217325,1.7378043,1.0447254,0.14517209,-1.7259943,-0.88994944,1.4636726,1.1011348
EIF3E,-0.20087782,-1.0861019,-0.16748108,0.41816336,0.69331896,-1.1792976,-1.6258135,0.0519312,-0.9947583,0.45376498,-1.2421064,-0.6394286,-0.9582568,-0.95303446,0.53527117,-0.58664,0.588598,1.094111,-0.1618601,0.8573967,0.80551374,-0.28524807,-1.4327598,0.0432411,0.5753852,0.6078766,1.2391592,1.5174259,-2.4393692,-0.19367851,1.2444642,1.0999134,0.014399509,-1.0646002,1.9512613,-0.6782312,1.8495185,-1.9567927,-0.5718905,-0.26017985,-1.5508366,0.6449724,0.24427511,0.90931505,0.34202942,-0.5830815,1.278191,-0.36359882,-1.8060656,1.0760272,-1.3053144,-1.3212315,0.6957439,-0.1038552,0.13394876,-1.3052046,0.16897872,1.3211236,-0.48260695,-1.1529745,0.1596227,-2.7330966,0.64007586,0.49341348,0.58358824,-0.5571719,-0.686849,0.20773715,-1.6140176,-0.3595852,2.090409,-0.7303541,2.3775337,0.28435817,-0.44374445,-0.57522696,1.3211073,0.18324745,0.6713891,0.14091215,1.3427124,-0.6296935,1.7356644,-2.004214,2.493927,-0.2025235,-0.8286133,-1.2113299,-0.08831557,-0.80439556,-0.14615789,-0.70555925,-1.1706607,-0.73765886,0.91170335,2.0717084,0.5099963,0.7349399,0.470268,-0.5859042,0.53207946,-1.1816362,-0.26995584,0.39852273,0.19486651,0.82588977,-0.5598359,0.7393253,-1.8548561,-0.46567556,0.66226804,-2.6577075,0.23136964,-0.48990312,0.076971374,-0.3163213,-0.357486,0.39313483,1.2548465,1.8280773,0.09734671,-0.020977153,0.049594548,0.2365268,0.41777125,0.12554507,-0.42182615,1.0514252,-0.41319555,0.89167404,0.38173372,-0.10562092,-1.2202158,-0.7326903,0.49967507,1.1406364,1.9196149,1.4199845,-1.699872,-1.4604564,-1.2037544,0.43801153,-0.24190891,-1.1044058,2.4323642,1.2687701,0.32264057,0.0152332,0.3557561,-1.1742663,-0.8342488,1.5282521,0.9188966,1.0004396,0.39396918,-1.066334,0.8706262,-0.48008722,1.6167194,-0.01967722,0.57821107,-0.4090278,0.50771046,-1.5935647,1.0767214,0.39936665,-1.3854785,0.008030561,-2.2951822,2.100421,-0.081634805,0.99780655,1.3539209,0.109925695,-0.9005994,0.09935354,-0.06437857,1.4775708,0.8278657,0.8162754,1.2057036,-1.1014894,0.66516715,-0.72027075,0.28011513,0.005599603,-0.32491067,0.36144432,0.37171772,-1.292665,0.28533658,-0.792414,-1.2979226,0.8428806,0.046500213,0.69040656,-0.8134463,1.3953588,0.2686244,1.4821224,1.5628862,-0.63827455,0.5740493,-0.66059196,-1.202096,-0.3844398,0.739779,0.98122525,1.7016234,-0.3224191,1.6646005,0.79241735,-1.4172088,2.0534284,-0.435217,-2.970268,1.5379853,-0.3074623,-0.31263253,0.64639413,-3.3292015,1.1828876,-0.08368579,-2.123423,0.23737057,-1.2197781,-0.6630723,0.9985947,-1.194451,-0.14983515,-0.7253621,1.1486034,-1.6782858,-0.18960063,-0.1612839,0.23121539,-0.24420309,1.2262008,-1.858601,0.3206564,-1.3947934,-1.3341634,0.90977407,0.7467718,-0.22632615,0.45212358,0.54081815,-0.24169905,-0.18059954,-0.50855416,1.3330951,1.5759556,0.68172216,-1.122317,0.49945912,-0.30942696,2.3093016,0.13950332,-0.59061325,1.2993138,-0.56366706,-0.8711915,-0.15484099,0.16686791,-0.7368423,-1.9173429,0.64012283,2.2064939,-0.8992234,-1.4303398,-1.5297002,-0.23457383,-1.959515,-0.7099904,-0.33985093,1.345618,-0.5507798,0.5980437,0.66481286,-1.6923517,-1.9707474,0.31757653,0.99469954,-0.30849135,-0.7052956,0.1579607,-0.2582114,-0.516348,-0.15978113,-1.058528,2.2508445,-1.1462337,0.03469839,0.55474055,-0.56267965,-1.1943117,-0.06341706,-1.0784819,0.10716392,0.4162974,1.9146796,-0.1908955,-0.21589386,0.4289315,1.2414442,-1.6201531,-0.06757028,-0.13039322,1.2240964,-1.7454967,0.7842633,-0.89263463,0.042508338,-0.03786382,-1.4386667,-0.97181296,-0.2783366,0.6088996,-1.7505451,-0.6714204,1.4704375,-0.5391245,-0.1261457,-1.9274429,0.05840267,0.7932731,-1.6279454,-0.52861893,0.92444104,-1.0381883,0.70763135,-1.4921575,-0.8578281,0.1848325,-0.7747906,0.49178568,-1.0064471,-0.5398603,0.3127969,0.29553768,0.52946824,0.69858754,0.20371865,-0.30090156,-2.1484692,0.86768067,-1.2322235,0.6425058,0.8737962,-0.9742637,0.25543687,-0.17573664,-0.74637103,0.79937327,1.5493734,-0.79842544,0.88200843,1.0105222,-0.23926967,0.09966073,3.6219304,-0.379791,-0.29508373,-0.7131676,0.12635933,-1.5335538,-1.1422491,2.4035363,-1.514292,1.2893,0.23532009,-0.542352,-0.14523882,-0.8665926,-0.80037975,1.588341,0.4517292,0.4567577,2.0255017,-0.36420116,0.8440272,0.33692297,1.1131856,0.39396557,-0.53037757,-0.25513342,-0.75838894,-0.55554944,-0.416193,-1.792933,0.38600957,-0.25548598,1.1284816,1.0623881,1.6904758,0.5355986,0.6795193,-1.3209201,1.0048153,-1.417351,-2.438377,0.3674639,0.9233286,0.012899288,-0.9351038,-2.0156713,-2.328708,-0.9702456,1.3405625,0.15249483,0.1680095,0.1502763,1.8229254,1.0338584,-0.15772411,-1.172966,-0.67407894,-0.0037566412,2.1361516,-1.5065085,0.6714006,0.30139464,1.5857339,0.61165935,0.96505874,1.7856013,-1.8961735,0.115935445,1.2966278,0.1677044,1.7611488,-0.28837085,1.5969858,-0.8609448,1.702887,-0.30997223,0.13783285,-0.7645341,-0.24033551,-0.35757324,0.56332153,-0.38085365,1.8050635,-2.287755,1.2366432,1.0988191,-2.788699,0.32595345,-2.2322805,-0.33550203,-1.2882751,0.12397287,0.51200795,-1.2425094,-0.97918534,1.5455403,-0.8958125,-2.6314037,-0.6969474,-0.41819274,1.3467845,-0.25116226,-0.24339648,0.25207883,1.7315395,-0.3207718,-0.904987,-0.89129764,1.09802,0.13439935,0.23995858,-0.6094666,-0.24970645,-0.56010526,1.5168226,-2.2059758,0.39476994,-0.026069678,0.31469494,0.89028424,1.1671363,2.0042648,0.4540646,-1.0202178,-0.86630166,-0.95223045,0.8008929,3.500809,-2.181978,-0.029485637,-1.5683476,0.74706286,-0.33582214,-0.25091055,0.4086978,-0.59423375,1.2845278,-0.31706658,1.716276,1.9035033,0.870822,-0.28279182,-1.1640543,1.1400542,2.1359763,-2.5539088,-0.5422659,2.181193,0.6022546,0.04191233,0.7196486,2.4878836
EIF3H,-0.936687,0.47633755,-0.05910864,0.05132254,1.5149674,-0.2951521,-0.6879254,-1.6747637,-0.20926666,-0.27687383,0.28883246,-1.214451,-1.3936371,-0.08991362,-0.8098132,0.9888881,0.90468025,1.0909151,-0.43425122,-0.7605011,0.66050965,1.1159475,1.1634325,0.8930003,0.7770846,-0.35013717,0.4744934,1.6985676,-1.3210615,-0.2659151,0.9070467,0.7551982,-0.7050118,0.4870341,0.63365036,-0.5968961,0.860312,-0.5279451,0.15687428,1.1294264,0.93027467,2.0500488,0.033041254,1.8833492,-0.2400374,0.47015,-0.19897625,-0.57576734,0.6304682,0.46914032,-0.9071667,0.75045764,-0.39022326,0.673284,0.31875882,-2.019863,0.029181985,1.0483221,0.3294368,-1.0812387,-0.28524426,-1.7276639,0.37430605,0.26947618,1.5502596,-1.0392561,0.28336337,0.45517772,0.52339256,-1.0469446,0.38714042,-1.3161532,2.5179338,-0.060521983,1.7279793,1.525359,-1.1163987,-1.6627716,0.8118781,0.49360928,0.31613192,-0.6012103,0.0570448,-1.9583782,1.8762603,0.2233784,1.3911378,0.29512987,-0.21489313,0.1345486,1.5037663,-1.3222352,0.22485755,-2.133771,-0.30860376,1.690362,0.5348138,1.6099895,-0.046794206,-1.8138621,-0.9720737,-0.12166036,0.011038958,-1.0686673,-0.1896937,-0.74116427,1.6101003,0.65887696,-1.9577345,0.23353975,-1.0394092,-0.6720451,0.33151245,-1.5995828,0.15250503,-1.1662301,-0.74606204,0.95193666,0.81560135,0.48942897,-1.476274,0.5194713,0.52525634,-0.09657203,-1.7817441,0.083539106,0.1412597,-0.20140035,-1.2577397,0.41348562,0.0426236,-0.52638197,-1.4389328,-0.9869805,1.7087407,1.2998018,1.8576347,-0.3366121,-0.33958086,0.121224254,-0.8218372,0.36788732,-0.70548123,0.22861469,2.5911431,-0.107501626,0.9205645,0.49886608,-0.9213384,-0.33701003,-1.362836,3.2198534,-0.3454594,2.0126867,0.35361937,-1.5387253,0.9214854,0.48340932,0.68983436,1.6021981,0.44733915,-1.1221397,-0.8385044,-1.6250595,2.0831654,-0.8821463,-0.97488725,0.053671557,-0.4831665,1.775162,1.140469,-0.6413963,0.7506182,0.44354385,-0.5615356,2.0417473,-0.2135658,1.9468547,1.4293941,0.16476277,1.3822037,-0.14102036,-0.44622728,-1.891747,-1.3194424,-0.79975003,-0.24411273,-0.43468928,2.1770418,0.53768325,1.9482026,-0.2720327,-2.738464,-0.67671436,-0.7057457,-0.5404043,0.28849018,1.0913478,1.7760097,1.5690601,0.23844503,0.39442238,1.1102092,-0.72265595,-1.1405058,-0.9901795,0.5915404,0.642865,0.47876585,-0.61021346,0.8218992,0.2838897,-1.8441561,0.5823257,-0.97340083,-0.5659259,-0.35964456,-0.0994555,-0.66028064,1.3002185,-0.106320985,1.5849197,-1.0106214,-2.108326,-0.19575043,1.2516788,0.17805536,0.05355756,-1.8230922,1.0321803,-1.3517858,1.2310251,-1.4607176,-1.0499983,-1.1092212,-0.5598658,-1.6035907,-1.3450556,-1.6935751,-0.9648671,-0.800689,-0.6643498,1.7122514,1.3037674,-0.7184872,-1.1500988,0.94149494,0.69507635,0.4594849,-0.3020173,1.4594983,-0.4276786,-0.56432766,-0.67299515,-0.4758581,-0.4025391,1.1180403,-0.3324999,0.030771652,0.53872865,-1.0810883,0.3327821,-2.3140383,1.7191175,-1.4148936,-1.2457618,-1.2407681,1.9197603,2.2891479,-0.3621313,0.56153005,-0.94568413,-0.027599094,0.99043816,-1.0510342,1.9551704,-1.5912429,-0.4271597,-1.6079005,-1.6196873,0.3519219,-1.0524199,-1.4523443,-0.49339092,-0.035873525,-1.0709095,1.0208858,-0.05042426,0.17380469,-0.08427208,-0.8743114,-0.7677947,-0.14105104,1.432284,-1.1161901,-0.039207716,0.27757245,-1.4175825,-0.86196023,-0.75758255,0.41950515,1.0885136,0.8123716,0.5290591,0.47590658,-0.65001297,0.48641515,0.26183596,-0.03333547,-0.87821466,2.1672611,-1.3666704,-1.0011075,1.559491,-2.1708455,-0.034406833,1.0561047,-0.28839985,-0.85438913,-0.53371114,1.5014741,-0.74931246,-1.4579294,-1.3896434,1.5046644,0.45682746,-1.7825693,0.26876268,0.8521714,-2.3246639,-0.14470106,-0.22923219,-1.1143668,-0.30826718,-0.7504605,0.12828812,-0.9247928,0.06979715,0.92714787,-1.043893,1.1359943,-0.07688316,-0.6897303,0.2939707,0.15735021,0.5179292,-1.1059076,-0.5036924,0.029607013,-0.39798874,2.6052759,0.6542396,0.56073684,0.37551206,1.755999,-1.4494009,1.0383785,1.3078984,-1.0150615,-0.77188396,1.9524587,-0.5876061,-0.41141668,-0.962689,-0.6046087,0.7780323,-0.848992,0.16591787,-0.858925,0.272183,0.7113433,1.1904459,0.08965361,-2.1661034,0.066116616,2.287321,-1.7266597,-0.6009985,0.22089936,-0.15610713,1.1663039,-0.6718319,0.5172404,-0.75044394,0.7483895,0.34398794,-1.2078899,-0.99367857,-0.2718022,-3.4970868,-0.9420267,0.77038914,1.6747364,1.2781277,0.10352974,1.9179362,0.34499294,-1.1382322,-0.5713089,0.33910498,1.0581421,0.302125,1.5649819,-0.89755934,0.089915454,-1.600657,0.94762677,0.3495621,2.4608018,1.5179255,2.3374007,0.61163163,-0.018456854,1.6335306,-1.1436547,-1.1270354,-2.2170599,2.1974638,2.2787926,-1.154798,-0.54238474,-0.55163157,-0.5004982,0.55029124,-0.5380613,0.8783663,-1.4757314,1.212577,0.92559654,0.9637095,0.41644698,-1.4848126,1.6265446,0.18855776,0.1227033,1.5948843,1.0274802,0.36783922,-0.31457052,1.7580153,0.61674,0.14708802,1.3818017,-0.6254855,0.10234024,2.001532,-1.6190683,-0.9114727,-1.1936519,-0.43774208,0.26205894,0.14808671,0.15231134,0.8267439,0.69406444,1.3058665,-2.1317732,-2.663864,0.12398568,0.5166897,0.6725382,0.77952987,-2.1611128,1.1487455,1.6093053,0.50355667,0.16353917,-0.19854146,-0.10275133,-0.70508236,0.04031925,-0.24508469,-1.7514514,-0.66629887,0.06883912,-0.64506435,-1.0912313,-0.93642306,-1.8254982,1.5495356,0.327373,-0.5206551,-0.7908704,-0.89367646,-0.019958729,-0.13813291,0.062397044,0.73980874,-2.8664365,0.30695143,-0.6293938,0.33847356,-0.050401106,-1.6292453,0.77167267,-0.5518694,0.44637182,-0.98745173,1.535907,1.2693194,2.1125581,1.1051852,-1.8895189,0.64418006,-1.3103933,-1.5289326,1.3111094,1.4663069,-0.61670643,0.36550647,0.22462647,1.4262214
GLO1,0.7089182,0.50260705,-0.93347716,0.21064101,0.19306798,-0.34330258,-0.4785401,-0.7653121,0.2927571,0.36586872,-2.110996,-1.9202014,-0.63534814,2.0467455,1.9566566,-1.1414568,0.80610776,1.3514211,-0.70787495,-0.90643847,0.35992154,-0.95631385,-0.17985329,-0.5999114,-0.85523117,-1.5352045,2.0171053,1.6318302,-0.11983682,1.063367,-0.27030912,-1.071262,-1.7114605,0.47258523,-1.30448,-1.6674975,-0.68473303,-1.2357159,0.08747135,1.0478317,-0.48275685,1.3137208,1.3029437,0.16751646,0.9170443,1.707377,2.9005578,-0.35936114,-0.06277235,-0.4268371,-1.611745,0.2346296,-0.050729077,0.06281008,-1.0569391,1.5712532,-0.34089708,-0.57279915,-0.03819814,-0.8311929,1.4815308,-0.7861251,1.9117762,-0.23199077,-0.5751422,-0.48805803,-0.34918568,1.8088748,0.8300185,0.43586004,1.7996922,0.641782,1.0232972,1.1159935,1.4581845,2.5451653,1.3486314,0.641167,-0.71622574,-0.6224943,2.3026946,0.39866105,-0.28415066,-1.5528845,-0.7283504,-0.024983704,-0.501313,0.35957924,0.50090384,1.3435323,0.28243324,0.26434112,-0.73794293,-2.0706925,0.37215567,1.1356337,-0.57677233,0.20241678,0.530287,-0.88878894,0.37070227,1.3870378,1.3054259,0.17257674,0.2451372,1.5707393,1.4631946,2.0900438,0.44824255,0.5614079,-0.692411,1.8048577,0.6764804,2.035535,0.15693541,-0.06933136,0.7406622,-1.0674926,-0.24192053,1.7314434,-1.4901602,1.0924662,0.1847375,1.2972267,1.0685838,1.5676473,0.22604625,-1.7108285,-1.6618277,-0.2219155,-0.2963368,-0.8255251,-1.8587978,-0.16882426,0.8202442,-1.617142,-0.80821395,-0.08918238,-0.17450559,-0.34211376,0.9498913,1.2163621,-0.9282977,-0.18204597,0.5634752,-1.1092575,-0.2984593,-1.0320075,-0.48290694,0.36686888,-0.034570757,1.4388998,-0.25674066,-1.1159116,-0.5250535,-1.7019417,0.9987246,1.3603193,-0.72583216,-0.93876356,1.3112319,-1.7543051,-1.3959936,-0.06491712,0.72972536,-1.4660122,-1.152792,-0.31381795,1.6382722,-1.1874238,-0.37645832,1.5335866,-1.8468046,0.7748376,1.296291,-1.2141609,1.8865685,-0.28494015,0.15318543,-1.3281125,-1.7147902,-0.6018704,-1.1994683,-1.6521387,0.74649644,-0.7313354,-0.78906965,0.10708985,-1.2252027,0.3581315,1.92695,-0.53979963,0.5454932,0.65041023,-1.9707603,1.536684,1.6286429,-0.77262974,-0.69752455,-0.66361237,-0.9902744,1.8289802,-1.5166874,-0.16083859,-2.2498736,-0.7529782,-2.0140772,-1.729959,0.41530913,1.723462,-0.29046413,1.7020638,-0.8705429,0.58838814,-0.9010925,0.093510985,-0.8436679,-0.81303984,0.39554387,-1.3587209,-0.3719724,-1.6738721,0.31730172,1.5743793,-0.75069726,-0.08980991,1.9199572,-0.412882,1.8460597,-0.8827916,-0.14356549,-0.36403942,-0.15117343,1.4354209,-0.49107027,0.7373656,0.03487144,0.5629938,2.2118807,0.4738846,0.9386343,-0.16210572,-0.7873104,-0.6588304,0.18059565,-0.81367636,-0.31413677,-1.2470974,0.19172715,-1.9650972,-0.5102457,0.91456753,1.0221969,0.8977823,-0.7775829,-1.0373805,-0.20255096,1.2247266,1.0801394,-1.4765456,0.1152648,-0.7913711,1.7041706,-1.4023452,1.5612165,0.19747075,0.23089102,0.11796631,-0.4118972,-0.9232998,0.24651015,-2.6865249,-1.5337187,-0.35780048,-0.47569364,1.6079955,-0.23038769,-0.16719434,-0.16269796,0.73758096,-0.15043339,0.024208413,-1.1738337,1.6209584,0.35228938,0.55624187,1.1890521,0.75318295,0.29314023,-1.3350776,2.3946579,-0.22653188,1.1628568,1.5408818,2.5717807,0.63938,-0.20491453,1.3707402,-1.5554771,-0.9211707,-0.878377,-0.7990849,0.5312708,-1.4953363,-0.4691035,-0.8003005,-0.17062707,0.8520146,0.41512412,-0.4785894,-0.7473033,-1.3983723,1.2096066,-0.15377155,-0.43226337,1.2247959,-1.2658001,-0.9150332,0.7110988,0.20380664,-0.9176681,-1.8195602,-0.46804017,0.7453789,-1.60205,1.274913,1.219485,-0.8736969,-0.47964063,-0.34475532,-0.5339214,2.2821398,0.028866457,0.09797594,-1.5364556,-0.91217494,-1.1084414,-1.1269826,3.3799636,-0.74172384,0.3953189,-0.20330389,-1.4670321,-1.7761407,-1.3663088,0.6161636,-0.8166244,0.6803135,0.789267,1.3069643,-0.63378125,1.5159211,0.07992333,0.18269356,-0.63634956,0.10756728,0.58194804,1.467964,-1.0801247,0.4697915,-1.1064408,0.66996336,-0.42928544,-1.3892733,-2.0752363,0.67195195,-0.5595575,-1.2188073,-1.9864919,1.4008415,0.3625855,0.31222904,1.3577473,0.49104452,1.0394024,-0.5665643,0.13068926,-0.059098262,0.6224306,-0.11340429,0.361732,1.5328581,0.9376196,-0.58316463,-0.9559759,0.08576163,-0.09311387,-1.3926414,0.6100213,-1.2868171,1.4525015,0.14070815,-0.555986,0.9276383,-1.3015878,1.784779,-1.0066952,-0.92584974,-0.30612648,-0.5020056,0.8889175,1.9407402,-2.2401478,-1.3179734,0.49653727,0.010131519,0.9820211,-1.2648867,-2.6451073,-1.1766571,-0.83014154,2.2196949,-0.4208394,-0.7454716,-0.8121169,1.2338352,-1.1866379,0.11933828,1.6596364,0.32535872,-0.61424273,2.0218801,0.054620344,-0.19609249,-0.46236658,0.9580395,-0.37665486,0.06495105,0.108922385,1.2673424,0.599008,-1.9273229,0.01509637,-0.47553527,0.2759653,0.98681235,-1.4600149,0.15312842,1.0979066,0.64581645,-1.2249827,0.89424956,0.43059355,1.992375,-0.8202046,0.62330383,-0.44982395,1.7547652,1.8896129,-1.1426119,-1.0416441,-2.0501437,-0.2454854,0.45397136,-1.01202,-1.1510693,-2.6089034,-1.3660668,1.5525028,-0.7143437,0.97399306,0.33586314,-0.77564275,1.0682912,1.423537,0.044045493,-0.88442373,-0.3549995,0.50813127,0.034990694,1.2513368,0.39766687,0.96055084,-2.5194886,1.0655959,0.9929888,-0.7820842,0.70052826,-1.6163384,0.43130332,2.0396874,-0.11168269,-0.03741906,0.99405575,-0.045594502,-0.30257446,-0.80513203,1.5014895,-0.5804548,0.08865936,-0.73508584,-0.85085326,-1.2762314,0.6893615,-2.095208,0.28445467,0.7822338,-0.114518605,0.11355677,-0.5116038,0.14740019,-0.9892544,-0.07268057,0.74505943,0.9094679,0.501091,0.08300024,1.1628197,1.2088124,-0.5622939,1.2306378,2.1587436
GNG5,-0.062834755,-0.69949234,-0.52550286,-0.1899409,-1.5298733,0.132591,-1.028567,-0.13370872,0.45115787,-1.9275532,0.15204012,-0.08996945,-1.102865,-0.037652764,-2.080966,-0.93880427,1.4882569,-1.4779314,-0.8370982,-0.62529117,0.5195414,-1.8436623,-0.28565866,1.5554253,0.41445756,-2.0304499,-0.4387761,2.3497589,-1.97024,-0.05845029,-0.5941986,2.2885878,-0.25288704,1.5125064,0.021700736,0.33560428,1.1259962,-0.0036966088,-0.17573768,-1.5909103,0.35121998,-0.24111237,0.83731216,1.2452259,-1.1563127,1.394789,0.15761733,0.55730546,0.7112588,-0.34850547,-1.1969563,1.8008143,-0.99301696,0.2647277,-0.5386715,0.3529627,3.1898556,0.31048626,0.33638066,-1.0926299,-0.98823565,0.8254216,-1.7500741,0.053213064,-0.12400667,1.181483,2.8305254,1.1443146,1.2091234,0.91900146,2.404587,-0.5271257,-0.62921286,1.7392803,-0.9336625,2.501673,-0.41913092,-0.9842464,1.0565034,0.037058864,-1.009712,1.144286,0.8236163,-2.044127,0.086889826,0.61807394,0.26926342,0.5164736,1.306919,0.8412078,1.2570971,0.11498067,-0.68871784,-1.2635654,-1.4261825,0.87400424,-0.40693256,0.98860204,0.77090454,0.12549081,-0.6487557,0.29417735,-0.25348923,-2.1538718,-1.2837601,0.3548995,-0.7855525,0.45875165,1.287979,0.11049994,-2.0451984,-1.6255736,-0.2362155,-0.5746261,0.11021121,-0.017609598,0.58374226,1.7567706,-0.60597986,-0.32026672,1.638655,-1.1571659,1.3078226,-1.1064277,-0.13173482,1.6081539,-0.64452785,1.0944809,-0.7022476,-1.9350902,0.27051833,2.8030217,-0.15997402,-1.1912194,0.801017,1.3454968,1.3256818,-0.53624165,-0.93494964,1.2194083,-1.5074831,-0.1733562,-1.6414945,-1.9801196,-0.9168363,-2.238531,-0.86054677,-0.55109465,0.6897601,-0.28396818,0.9999042,1.2566565,0.47270367,-0.8137358,1.0620706,-1.1870763,0.7078982,2.241266,1.2411119,0.10407102,1.3475034,-1.5214065,0.11573403,0.26534587,1.7244405,0.6568854,1.0354556,-0.24678703,1.1444976,-0.024983712,-0.62872934,-0.1659813,0.5978298,1.328572,-0.12736607,0.22966497,1.0302386,1.919463,-1.06756,-0.94060194,-0.6376479,-0.14800252,-0.28068647,0.20898576,0.5961529,0.45695513,-0.15322849,0.5533638,0.12201654,-1.0970074,0.61250687,0.7081987,-0.0043598586,-1.3874577,-1.3184314,0.6898084,1.4733965,0.040623344,2.4196987,-0.0681793,1.3518196,-1.867001,0.4949255,-1.2000477,-1.1155654,0.55996084,-0.5247097,-1.38059,0.098317966,0.38484114,-0.11908444,-0.5880218,-0.35182378,-0.2803119,0.26858535,0.10038304,0.7773039,-0.40985274,0.32445976,-0.27953124,1.2024293,1.7906873,-0.06245669,0.22533707,2.1863499,0.08409982,2.9054337,1.0500935,-1.1963214,-1.9319917,-1.0597718,1.6326787,0.7828909,-2.6366863,0.19034019,1.9880404,-0.6974339,-0.29449984,0.5919199,-0.43311465,-0.9846561,1.2453438,-0.053907346,-0.2826998,0.92949945,0.40312013,-1.8888943,-0.7127818,0.08431106,0.43903908,-0.10251752,0.6289042,1.3320156,1.7067052,-1.6599382,-1.3973293,2.210397,-0.2504852,1.1187928,-0.7018673,-1.1914265,1.364545,-0.177054,0.2209962,-1.0581242,0.48612508,0.8812032,1.4704812,-0.29908428,-0.848186,-1.2659135,-0.7393179,2.3302155,-0.65790254,0.5719805,-0.015363883,-0.3608191,-0.9588492,0.25918892,-0.31865942,-0.55916786,0.8654272,-0.4916936,0.36774248,-0.95974344,0.40096337,1.365979,0.36723182,0.12683308,3.171062,-1.473034,-2.3328602,-0.41108406,0.13017166,1.2902377,-1.2023842,-0.66842943,-0.35955772,-0.9142489,-0.5777698,-1.00777,-0.9363419,0.02607823,-0.85901654,-1.455496,-0.73328686,1.0540569,0.89760554,-0.32390824,0.57872874,1.2219617,-0.9131057,1.4960989,0.3197968,-1.5085142,0.84011525,0.027871314,-0.27217817,1.3198909,0.58656096,-0.17812936,1.0290936,-0.5072732,0.22251317,-0.37338838,-1.2345123,-0.59784675,1.3351275,0.061907344,-0.87659574,-0.52829945,-2.209927,0.13127579,0.4777236,-0.118132524,-0.15460622,-0.14454527,0.69187945,-1.7862948,-1.0934582,1.1355234,0.6153866,0.68712616,-0.49266565,-1.0373752,-0.8533484,0.74775153,2.0844665,-2.0064123,-0.9154522,0.71688604,-0.3706832,-0.8281417,1.1715468,-0.27594215,0.624095,-0.6279248,-1.4103945,1.1974353,-0.046774086,0.13784209,1.3744253,-1.0015405,-3.268566,-0.24494989,-1.458579,0.69976515,-2.3248715,-0.96505404,-1.3079797,-0.41925558,-0.6377046,-1.1423821,1.0069257,0.012530344,-0.2919622,-1.8382581,-1.2308637,1.3100656,0.44793624,-0.64451855,-0.026929585,0.89893353,0.8010673,1.0120128,-0.32405895,-0.45418796,-0.47424123,0.049792834,-1.3334242,-0.5398946,2.6346965,1.3817376,-0.19546926,-1.1107944,0.7489779,-0.39217633,1.0307711,0.9982157,-1.2183087,-0.4185252,-1.0643582,-1.7532197,-0.30164185,-2.2232041,-1.453059,-1.7249385,0.20175308,0.30612496,-2.1691356,0.18703991,1.3916951,-0.7432905,1.6378777,1.0671225,-0.2917261,-0.07146505,-0.72093517,0.32477093,-0.115463875,-0.92031544,0.7707135,0.13789345,1.5364479,1.4248875,0.8806396,-1.6512326,-0.7464782,-1.004203,0.3325037,-0.3276833,-0.12802587,0.09005441,0.3084672,0.6012225,1.1182469,0.026163379,-0.37422684,0.10985559,1.1871705,-0.7362307,1.6803193,0.59340525,1.1730675,-1.6551783,0.39529374,1.2573042,0.12203521,-0.67479414,0.85156566,-0.61195755,-0.4927441,0.29675895,0.08138353,0.51322246,1.1822922,0.7574132,0.51041245,0.79818845,1.2095417,2.0277328,-0.48859906,-1.6811355,0.64628667,1.43004,-0.07682846,0.47333515,1.2459408,1.103951,-1.7185107,-0.2747949,-0.5731418,0.64865637,-0.42529237,0.3092388,-1.9992545,-0.794832,2.3850946,-1.6683414,1.2752819,2.6860626,-0.2937765,0.30682313,0.028402926,-2.3281326,-0.48297846,-0.49213362,1.4748397,-1.8735288,0.10985933,-0.93949443,-1.800073,1.2109301,0.00720106,-0.506585,0.33883935,-0.4781087,-0.6548819,0.014887986,1.5308135,1.7148473,-0.882343,0.6175135,1.3960924,-0.15863866,-1.8859187,1.2464117,0.41317013,0.14973895,-2.4226258,-0.29398516,-1.110651
HLA-DRA,1.1928093,0.42308885,-2.0362566,0.4929781,0.101204686,0.009873793,-0.9059264,-1.7867954,-1.1748924,0.8645209,0.1368451,1.0446554,0.20090488,-0.37934476,0.19630831,-0.6252701,0.604029,0.48331767,-0.9709698,-0.5323435,-0.82925075,-1.5216265,0.88333386,-0.09659488,-0.0516922,0.74231905,-0.7007997,-0.31200254,-0.18073034,-1.3444216,2.4974365,-1.7280583,-0.3158564,-0.19500728,0.7120445,-1.2133279,-0.09891401,1.0780936,-1.8506012,1.1544932,0.17412783,-2.4625137,-0.76232404,-1.5344347,0.25253,-1.6654444,0.94747704,-0.5576794,0.37731272,-0.7030281,1.8269689,0.74038947,0.21636777,0.739723,-0.91520244,-0.31919375,1.3751785,0.039526906,1.01896,-0.81119347,-1.0908155,-0.006513229,-0.2585024,2.3660321,-1.2020961,-0.5614781,1.261419,-0.2750859,-1.0490655,0.1938748,0.29788557,-1.3607663,0.81911796,1.3753548,-0.1713138,0.9058567,-1.1241051,-1.1683568,0.43235707,-0.565959,-0.05380453,-0.38529578,-0.13591495,-1.4248525,1.5787115,1.7400689,-0.57022995,0.18990904,-0.036320455,2.5934894,-0.74707365,-0.5493346,-0.57636076,-1.2562628,0.50691026,-1.7451632,1.5080609,1.5802466,0.68118477,-0.9556684,1.2498162,0.93329453,-0.03273018,-2.7562234,-0.28945333,-0.68036467,-0.7924988,-0.88064367,-1.605593,-0.30040318,-0.3052236,0.25104323,-1.1304666,0.16771172,1.4485046,1.6942505,-0.43327278,1.1853759,-1.0179933,-0.13705245,-0.20035261,0.6438938,0.56770337,-1.5549595,-1.8952291,0.9250385,0.34935978,-0.29110098,0.5398092,-1.2037911,0.16101833,1.4484795,-1.701928,0.03282953,-1.026398,-0.05030248,2.1039858,0.6532206,-0.75011307,2.0660136,-1.1402007,0.94518536,-0.18412986,-0.12905268,-0.15186042,1.411562,0.2150702,-0.4771719,-0.09484211,0.013116078,0.5212288,1.4669198,-1.1381917,0.5934027,0.3263508,-0.43656954,0.014366625,0.036895785,-1.448488,-0.29535955,1.2468486,-1.7910426,-1.1991187,-1.1473743,-1.0376923,1.8341141,1.150804,1.4501951,1.0013119,2.1179464,1.1393754,0.76460826,1.8269454,-0.119309396,-0.19394746,-0.6267944,-1.7742071,0.47205877,0.8873455,0.59754133,-2.5472305,-0.44984543,0.061637886,-1.9944144,0.9016902,0.30478057,1.155268,-1.2484388,1.5584208,0.010448385,0.3950859,0.91835254,-1.5363601,0.12009074,0.17056598,-0.1514181,0.11598565,1.727055,0.87365353,0.617242,-2.6650863,1.2248838,-1.6639901,1.1041253,-0.81753343,-1.5884364,0.12355586,0.07943604,0.98644984,-1.3273516,0.3627588,-0.9184789,0.14285395,-0.66430336,0.80074126,-2.8664317,1.5050312,0.34087518,-0.8461736,0.49778545,-0.2910673,1.8603928,-0.17258334,0.23100437,0.9267973,-1.6311488,3.0487986,1.1111863,0.37227872,0.55085105,1.3055633,0.15315147,1.2515371,-1.0548067,2.558087,-0.5473423,0.100498274,-1.4317915,0.27190942,-1.0367597,-2.5382752,0.36720985,1.1882213,0.59444064,0.09885661,-0.6559315,-1.3822294,-0.7236603,-0.975997,0.21349704,1.9269238,1.0965546,0.1749222,0.4155307,0.19836538,-0.086503595,-0.72262895,0.64873296,-0.78718156,0.23883581,-0.30657125,0.5784862,-0.09711441,1.827319,-1.3126922,-2.1779745,-1.3962101,0.55150795,0.49624348,0.54816985,-1.044678,-0.5615487,0.952305,0.1786849,-1.019023,1.5027387,0.35088626,0.25059885,-2.0913985,0.63135535,-1.414713,-0.8194985,1.3170751,-0.18034708,0.5837948,0.15282413,-1.728995,-1.2459056,0.49203536,0.11092695,0.28498143,-1.9195116,-0.32177007,1.1678813,2.3586292,-0.2891946,1.4502834,1.4386533,-1.0587994,-0.7598116,-0.012153638,1.1678903,0.06640026,0.90209365,-0.98559153,0.6835335,1.2965157,0.69939137,1.0347149,-0.020637238,0.77396655,0.43738723,1.2671192,3.1850824,1.6134342,-0.19237785,1.6723801,-0.980366,-1.3580679,-0.1723943,-1.6179459,0.22406392,1.4846839,-0.95601124,1.622155,-0.73756737,-0.9463736,0.42921314,1.1365377,-0.5101327,0.896428,-0.15237983,1.0291587,0.85591745,-0.26745662,-2.9702258,-0.08352925,1.5693316,-0.85010254,1.6668,0.070687644,-0.35873234,-0.6286679,0.41104367,-3.178462,0.04701407,-0.9600617,0.07429015,-0.27639902,-1.3753039,-2.006503,1.3274754,1.3718239,1.3239052,0.08270551,-2.4254277,-0.64566106,-0.8073402,-0.4374255,0.5535928,0.3933624,-0.9903587,0.15630925,0.49627644,0.610157,-1.035231,-1.3684793,-0.46301132,-0.18939358,-1.8700666,1.2908452,0.36862752,0.887413,-0.2915847,-0.1983547,-0.36449602,0.5261644,-1.1264142,1.3965629,1.1516559,-1.4216423,-0.5200767,0.38497907,-0.6051499,-0.43356806,-0.6202571,1.0066918,-1.1121162,-1.0551738,-0.35232666,1.324117,2.027566,0.7793783,2.579138,2.2075303,-1.0787543,-1.4883544,-1.7020549,0.8377924,-0.7077825,0.7439199,-1.4273809,0.15243468,-0.05364428,1.4214195,0.33057657,-0.37442362,-0.86000574,-2.7257833,0.1635934,0.29268315,-0.2297229,-0.9934088,0.43150175,0.33075795,0.82463664,-1.6800079,0.7972743,-0.3472936,-0.23717365,-1.1843606,0.15483001,-0.80229604,-0.14194351,0.8133489,1.7290136,-0.14063686,0.898916,0.39581257,0.3255701,-1.4210135,-0.108675666,0.45501965,-1.0418923,0.22331382,0.23083512,0.56268364,-2.4408617,0.94513625,-0.8123177,-0.5230476,-0.96847963,1.3491243,2.3472977,0.02073404,0.573345,1.5998499,0.18344158,-0.97822326,0.26777717,1.0833918,0.33731496,-0.14500247,1.4696624,-0.33783424,-0.51768184,-1.594237,1.1787559,0.6181107,-1.4079719,-0.8062092,-1.3220402,-0.72334254,-0.68671143,0.44868067,1.1688918,0.12598759,0.39201534,-0.40192363,0.11899295,-0.11377577,1.009748,-0.58573794,0.21133207,1.8443208,-1.0112722,1.0123233,1.0820688,1.4914757,0.26352504,2.309296,-0.85554004,-0.3047321,-0.15218657,-1.2143738,-3.0170796,-0.29340124,2.4199383,-0.69254774,0.6484033,1.2895179,0.2678626,-0.83394337,1.237751,-2.1015973,-0.21355776,0.7324098,-0.6678455,0.7670687,1.2940277,-0.40238595,-1.2162462,-0.88937026,0.25966942,0.23269202,-0.054320164,1.1612545,0.65984493,0.582711,0.37534562,-0.9611717,1.1484966
HSPD1,0.46442407,0.009473755,0.4639597,1.5765334,-0.16212931,-0.5440719,-0.5083754,1.0643162,-0.69903547,0.6123203,0.11333259,-2.4049456,-0.33191168,0.87564415,-0.14551099,-0.9215646,-0.0617125,-0.80760723,1.0922228,0.18245968,0.24952269,0.98073125,0.11435258,1.4196305,0.08914106,-0.6539846,0.69465905,2.3652747,-2.3140707,-1.882568,-0.75865114,-0.39225334,-0.5702397,2.0655982,0.118715934,0.77248335,1.3630216,-0.07410418,-1.1079113,0.21148568,0.47156307,1.8934592,-0.6797258,3.4706783,0.8977091,0.08263287,0.6680676,-1.0902001,-0.46734855,1.214442,-1.3391982,2.337543,-1.606244,0.8592936,0.19433244,-1.1107916,1.1131861,2.1448016,0.88377786,0.18962291,-1.357877,0.17734249,0.04523446,0.27572516,0.28466335,1.2735652,0.03304232,0.6229812,-0.8872187,-1.0822439,1.2928023,0.04480743,0.2168314,1.2809851,2.0242264,-0.38466293,0.29953095,0.83592284,1.0021583,0.2188812,-0.23321071,1.121934,1.3081379,-0.3074956,-0.578329,1.865968,-0.5393224,1.1345761,0.3336843,-0.66271657,-1.4866108,0.4591252,0.57675785,1.3902477,-0.14088982,-0.1480644,0.123515636,1.1320719,1.8374219,-1.742968,0.69097054,-1.80527,1.4759772,-0.3028229,-1.1131967,0.53949887,0.06961858,1.4337659,-1.7447516,0.35676762,-1.0577781,-1.3480288,-0.16098589,-1.9834262,-0.22108318,0.5363743,-0.922737,0.57440424,0.42373335,-0.08489523,-0.5550441,1.6399424,0.06707183,0.3378652,0.6919587,-0.13907549,-1.7265539,0.40413067,1.533978,-1.3725045,-0.46845186,0.23266885,1.0110806,-0.4607471,-0.23259558,1.3113573,-0.009369446,1.177155,-1.2270387,-0.24426244,0.3599203,1.5540044,0.1644977,-1.3300436,-1.1556902,-2.311153,0.2078561,0.201878,-0.25457525,-0.4688119,-0.18924516,1.1228787,1.2866435,-0.9331696,0.12188054,-0.3957359,-1.3564042,1.3931428,0.98472613,-0.08752086,-0.8380701,0.4464569,-0.36913663,-1.1157591,1.5263903,1.1493502,-0.5855362,-0.9650119,-0.89179635,0.42605692,-0.14319205,-1.1048815,0.9737028,-0.010090893,-0.84830785,0.7312841,-0.757285,-0.5352909,-0.57758874,1.3578707,0.96755564,-1.6255376,0.8447561,-0.120464005,-1.2792026,-0.021221258,-0.5343534,0.033569507,-1.7365388,-0.73268336,1.3437003,1.0950756,-1.1988354,-0.4139305,1.160148,-0.42940357,0.6669317,1.7216815,-1.7327714,-0.52827746,-0.30950543,0.3003338,0.31306317,0.43863904,-0.48751038,-0.8179267,0.90593547,0.20644706,-0.15697001,-0.51699555,1.2067722,3.3073843,-2.0227714,0.7815661,-1.1376555,-0.32422125,1.9360354,0.44376317,-0.18148409,-1.0624574,-2.7392313,0.692312,-0.5875439,-1.6326783,0.80202776,0.90973324,-0.96747917,0.79842824,0.34868127,-1.8928834,-0.68877834,0.3087951,0.21413027,-0.64892596,-0.1648357,1.4773595,-0.59968543,-0.5877849,1.246711,1.0806636,-1.0876168,-0.79297954,-0.18816803,1.2401149,-0.4784017,-1.470653,0.78492254,-2.1147485,-3.012455,1.5266806,1.7884396,2.521982,0.6739878,-1.1628584,0.24704732,-1.359625,2.5641599,-0.61619246,-0.38491324,-0.62068206,-0.9424305,1.6673195,-0.35608137,0.530715,0.7870644,-0.42105883,1.0555847,0.3081191,-0.84911907,1.24358,0.9647725,-0.96642226,1.50675,2.5616982,-0.12817107,-0.3954122,-1.343494,0.1079513,-1.0380279,-0.6236304,1.723719,0.5201452,-0.01616267,0.32804066,0.99096435,-0.62557644,0.010715906,1.7169249,-1.4247721,1.2437611,2.093297,-1.6231294,-0.20009431,1.8948096,-0.19546719,-0.6819376,-1.8053166,-0.5010737,-1.3775778,0.2039537,-1.7560366,-0.6520219,0.20440128,0.71189576,2.1238399,0.05075852,0.87421846,-2.0683427,1.1685193,0.28404567,0.46296212,1.2671764,0.25513232,-1.4124075,0.95930415,-1.4435964,0.5851505,-0.22342834,-2.8363836,-0.07968994,0.5859082,-0.5915109,-3.5790946,0.23525067,0.8455577,0.46894246,-1.2492715,-2.2012053,0.17081048,0.12011654,-0.9174311,0.1489688,-0.1149227,-0.7690258,-2.3134403,-1.7779372,-0.054921757,0.40704206,1.573305,-0.7627561,-1.2922,2.0559804,-0.8323741,1.3455739,0.7200042,-0.16601649,0.33828354,1.1778342,-0.6303744,-1.5651355,1.4203383,-0.9408205,-0.07301519,1.2182806,1.4065053,0.6602497,0.019250013,0.17631888,0.34411767,-0.5243339,1.4751773,-1.0264249,-1.2741387,-0.53857267,0.24668667,-1.9513742,-0.09207056,-1.1736436,-1.3353708,-0.36254287,0.42230663,0.9185711,-1.3172772,-0.1754416,-0.36355767,0.06231823,-1.0571352,0.80779564,1.1324743,-0.40688488,-0.7806045,1.1088028,-1.0472032,0.06194676,-0.47964275,-0.3904308,1.1998302,0.4870939,0.12621541,-1.0534675,0.6800649,-0.8175066,0.66941124,-0.18696477,-1.2707069,-0.065231256,-0.8772294,-1.1226931,-0.32625705,-0.8506363,-0.3876352,0.76851934,0.33607927,-0.011852266,-0.92969394,-0.30831587,-0.090277396,-1.3901348,0.6850715,-0.33647814,0.1748962,0.5004232,-0.04269183,2.0198767,-0.3545452,-0.0074794907,-0.7715588,0.26173225,0.7327716,0.17618921,-0.26235485,0.8328632,1.8327379,0.66332364,-0.5939058,0.87094885,0.30472183,-0.4206932,1.8576037,0.07049324,2.4497035,-1.8456471,0.04969261,1.6069802,1.5723184,-0.46687505,1.1544306,-1.7915827,1.8271824,0.9383711,0.5146599,-1.2008522,1.2685418,-0.09486758,-0.5854174,0.53905165,-2.7282588,-2.0955596,0.039342705,0.34489807,0.08461336,-1.3309771,1.6709716,0.76072717,-0.19818589,0.5234468,-1.5457249,-2.0775666,-0.21219592,0.29636896,2.0290358,-0.77101743,1.1007043,-1.5688131,2.179158,0.77493685,-1.5691469,-0.3859026,0.22200261,-1.1984674,0.30809268,1.2003471,-1.8390545,0.77255994,0.1031641,0.11619482,-0.33486268,-0.0001389824,-0.0443548,0.42542988,0.50079685,-1.2042338,-0.80256283,-0.66408587,0.19369017,0.61239827,1.0490427,0.7571205,-0.82783896,1.5341082,-0.5184222,-2.9351838,-1.7022603,0.5889212,-1.8207339,-1.0989196,-1.3328574,-0.109977946,0.33755878,-0.61129504,-0.5911078,0.39592153,-0.5977868,-1.5345742,2.0170262,-1.8332978,0.7687328,0.8661848,-0.03424498,-0.6050146,0.5137667,1.1239378
IMPDH2,0.67233026,-0.30761784,0.7202269,-0.7396437,-0.8286678,1.4782571,-1.887191,2.381071,-1.1130229,-1.1595011,0.95509243,-1.3834863,0.103074215,0.026841637,-0.88081837,1.0485306,-1.7855244,0.587476,0.31529617,-1.4451153,0.29746938,-0.85610247,-0.5907523,0.8754495,0.7007947,-0.3750943,1.3565764,-1.3862139,0.98004305,-1.3158189,0.35284653,3.1924312,-1.3487653,0.9255964,0.47961846,-0.60755074,1.7960502,-0.97704345,-0.4350555,-1.3666415,0.9586249,0.98215395,0.18984497,3.1927977,-0.16484651,0.25998837,-1.3764324,-2.3004816,-0.83439934,0.21762906,-4.2556434,-0.16150919,-1.4166783,-0.0356295,-2.1605475,-1.2575566,-0.34490058,-0.98673487,-0.16406934,-0.87704813,0.6519748,-1.2409086,-0.53147584,-0.79645497,0.7296437,1.3647505,1.2574561,0.13960609,0.9771508,-2.0476744,1.6589224,-1.6264473,1.5395772,-0.36571148,-1.021798,-2.4699063,-1.9390622,-1.0350955,2.2839234,1.1671801,0.36573327,-1.0613097,0.33600265,0.00775814,0.7739961,0.67236835,1.510757,1.0491378,-0.84380287,0.17478962,-1.0799696,1.5604304,0.6658644,-0.025571741,0.7485986,1.6998752,-0.07356582,-1.1203171,-0.94222873,0.12730192,-0.6775836,0.54552543,0.7672301,1.0365263,0.73618084,-0.5179474,0.15688157,1.2811056,0.31161383,0.98949456,0.5907504,0.141771,-0.22125857,-0.20395902,-1.4052997,1.0477198,0.053843852,-2.2128725,-2.053161,1.7090791,-0.33005655,2.1097596,-1.2186463,0.7699575,0.6509255,0.71737754,0.2018648,-0.32808363,0.38413984,1.6240618,-0.6303,0.8048147,-1.7655456,0.0325443,0.6501123,-0.0509604,0.78722453,2.036802,-0.18904455,0.7148757,-0.5942966,-0.5198832,0.3820935,0.15988563,1.7637601,0.29165152,1.6360803,-0.6568389,0.71698564,0.5096719,-1.8418393,-0.6959057,0.5072908,1.2099441,0.8551751,-0.1372202,1.1889663,0.27421132,0.8463385,-0.44051772,0.5835989,1.1684736,-0.95340955,0.41991344,0.52812386,-0.19068453,-0.82683754,-1.134204,-1.0492508,-0.008927294,-0.7403896,0.07704997,-0.54703826,-0.08585481,-0.4437725,-0.27820522,2.0248883,-0.62628037,0.929068,0.9298455,1.3418975,-0.7939467,0.6449595,-1.0623034,0.2739943,2.6174786,0.080010034,-0.024367854,1.3024024,0.7962752,2.594682,1.0255721,-2.0449657,0.7939796,-0.71269995,-0.30753624,0.8677696,0.23790412,0.9298199,0.4574143,0.29497316,1.3724008,-0.17373146,1.1547606,-0.87711275,0.5607895,0.7971905,1.562948,-1.3471528,-0.6678009,1.6736292,2.3282845,-1.5014186,0.85035664,0.9029077,0.023444932,0.51883185,-1.3244141,0.5153535,1.0776882,-0.31948358,0.922409,-1.8597206,-1.198493,-0.9491013,0.587689,0.40855977,1.8190801,1.4852822,1.1337429,-1.305374,-0.4881173,-1.4955852,-1.1252835,-0.20161644,1.7950361,-1.0949531,-1.1032614,0.5444324,-0.85844696,0.7290783,0.34253907,-0.25764948,-0.2748108,-2.8432407,-1.9944458,1.642142,0.49242172,-2.6615982,-1.4224657,0.26021948,0.05049992,0.8334272,-0.22153787,0.74517846,0.24166888,1.8646314,-0.22811969,0.5920746,-0.8929946,0.5957354,-0.24370787,-0.75271547,-0.52072465,0.65600216,-0.24907058,0.41820246,-0.6369261,0.705256,0.019850884,-0.330553,-2.331582,-0.42489982,-1.5557308,-0.34758684,0.40335923,-2.6262693,-0.32711482,-0.9906558,-0.13553628,-1.8824877,-1.4646845,0.0072007487,-1.3106041,0.60456216,0.9337677,-1.2837428,1.7752254,-0.057962704,0.7246402,0.6190207,0.4710841,-1.1174735,1.4718896,0.5934794,-0.55757385,-0.2992761,0.3808504,0.6778147,-0.003191403,2.0202053,0.63622594,1.1836604,-1.5974979,0.9780257,2.002336,0.33461335,-1.4155401,1.3056699,0.056123186,1.2934405,-1.3435365,0.43673974,0.31753445,1.4901692,-1.1775302,1.4694679,0.17193887,0.30626854,0.8170366,2.4092293,-0.51135224,-0.3871229,-0.26472995,1.098161,0.59823424,-0.9903275,0.6611819,1.6125478,0.7925268,1.3320168,-0.58074886,-0.00275867,-1.0337002,-0.7719386,-0.4938005,-1.1698265,-1.2044222,0.45940855,0.036739543,-1.6407063,0.56967485,-1.2186174,0.18132912,-1.6575503,1.2301627,-1.54733,-0.08570049,0.18459451,-0.36041787,2.1009226,-0.31542087,-0.3097954,0.8811357,0.7347408,0.6324438,-1.4340208,1.6178968,0.07489963,1.3973297,2.3206618,2.162824,-0.62270796,-1.3729705,-0.27953857,0.5110336,0.097097486,-0.18615669,-1.3484068,0.6418047,0.69087654,0.31817073,-0.6943949,-0.48301497,-1.4268352,1.6590182,0.7230885,2.2669392,1.0058229,-1.394688,-0.25882843,0.24081637,-1.256088,-1.4600037,0.20073713,1.3828847,0.61245495,-1.0783018,-0.65992856,0.4963377,-0.6801343,1.3639405,0.97017646,0.6355919,1.0523992,0.59651923,-0.82255626,-0.0499988,1.131546,0.6947894,-0.5304623,-0.61028534,-2.072106,-0.3280028,0.58805186,-0.78758126,-1.9071456,-0.64419633,0.39072382,-0.6927465,0.44865978,1.1202875,-0.08625646,0.8665395,-1.1041142,0.9432806,-2.8358257,0.34070036,0.5717418,-0.6100409,1.2289329,1.4336643,1.2162869,-0.0029911217,-0.7970074,1.099622,-0.8506256,-0.22734857,1.0853037,0.89507765,0.82189834,-1.2807987,2.0929918,-1.5905813,0.5561688,-0.3347238,-1.5459968,-0.17170715,0.7854577,0.37117594,1.7524831,0.22973107,0.59171486,-1.96703,0.32556608,-0.58081776,-1.9630021,1.178079,-0.78640074,-1.6622766,-0.7690708,-1.371402,-0.23684126,-0.06370024,-0.24767293,-0.9118806,-1.6911997,-1.948349,1.0732776,-0.8748862,0.41387212,-2.281001,-0.67810506,-0.52740574,0.14407797,-0.058925707,-0.97316504,0.2970223,-0.574777,0.7221076,-1.0789986,0.9216445,0.07243172,0.38426995,-0.22048473,-0.26446798,-0.5701577,-0.37719107,-1.0394325,0.0516714,1.9298788,0.6454776,-1.2446256,-1.2405608,-0.6400513,0.11708515,-0.40682873,0.7845745,-0.20788889,1.0189015,-1.6218575,0.3335693,0.20030825,-0.7308442,-1.1546469,-0.30738986,-0.3075423,0.2421796,0.27333018,-1.3866279,-0.4634048,-0.3090124,-1.9420428,-0.10880084,1.1123154,-1.6441519,-1.8608204,1.1111553,0.35750887,-0.3573672,1.1455463,0.9810848
