,dim_0,dim_1,dim_2,dim_3,dim_4,dim_5,dim_6,dim_7,dim_8,dim_9,dim_10,dim_11,dim_12,dim_13,dim_14,dim_15,dim_16,dim_17,dim_18,dim_19,dim_20,dim_21,dim_22,dim_23,dim_24,dim_25,dim_26,dim_27,dim_28,dim_29,dim_30,dim_31,dim_32,dim_33,dim_34,dim_35,dim_36,dim_37,dim_38,dim_39,dim_40,dim_41,dim_42,dim_43,dim_44,dim_45,dim_46,dim_47,dim_48,dim_49,dim_50,dim_51,dim_52,dim_53,dim_54,dim_55,dim_56,dim_57,dim_58,dim_59,dim_60,dim_61,dim_62,dim_63,dim_64,dim_65,dim_66,dim_67,dim_68,dim_69,dim_70,dim_71,dim_72,dim_73,dim_74,dim_75,dim_76,dim_77,dim_78,dim_79,dim_80,dim_81,dim_82,dim_83,dim_84,dim_85,dim_86,dim_87,dim_88,dim_89,dim_90,dim_91,dim_92,dim_93,dim_94,dim_95,dim_96,dim_97,dim_98,dim_99,dim_100,dim_101,dim_102,dim_103,dim_104,dim_105,dim_106,dim_107,dim_108,dim_109,dim_110,dim_111,dim_112,dim_113,dim_114,dim_115,dim_116,dim_117,dim_118,dim_119,dim_120,dim_121,dim_122,dim_123,dim_124,dim_125,dim_126,dim_127,dim_128,dim_129,dim_130,dim_131,dim_132,dim_133,dim_134,dim_135,dim_136,dim_137,dim_138,dim_139,dim_140,dim_141,dim_142,dim_143,dim_144,dim_145,dim_146,dim_147,dim_148,dim_149,dim_150,dim_151,dim_152,dim_153,dim_154,dim_155,dim_156,dim_157,dim_158,dim_159,dim_160,dim_161,dim_162,dim_163,dim_164,dim_165,dim_166,dim_167,dim_168,dim_169,dim_170,dim_171,dim_172,dim_173,dim_174,dim_175,dim_176,dim_177,dim_178,dim_179,dim_180,dim_181,dim_182,dim_183,dim_184,dim_185,dim_186,dim_187,dim_188,dim_189,dim_190,dim_191,dim_192,dim_193,dim_194,dim_195,dim_196,dim_197,dim_198,dim_199,dim_200,dim_201,dim_202,dim_203,dim_204,dim_205,dim_206,dim_207,dim_208,dim_209,dim_210,dim_211,dim_212,dim_213,dim_214,dim_215,dim_216,dim_217,dim_218,dim_219,dim_220,dim_221,dim_222,dim_223,dim_224,dim_225,dim_226,dim_227,dim_228,dim_229,dim_230,dim_231,dim_232,dim_233,dim_234,dim_235,dim_236,dim_237,dim_238,dim_239,dim_240,dim_241,dim_242,dim_243,dim_244,dim_245,dim_246,dim_247,dim_248,dim_249,dim_250,dim_251,dim_252,dim_253,dim_254,dim_255,dim_256,dim_257,dim_258,dim_259,dim_260,dim_261,dim_262,dim_263,dim_264,dim_265,dim_266,dim_267,dim_268,dim_269,dim_270,dim_271,dim_272,dim_273,dim_274,dim_275,dim_276,dim_277,dim_278,dim_279,dim_280,dim_281,dim_282,dim_283,dim_284,dim_285,dim_286,dim_287,dim_288,dim_289,dim_290,dim_291,dim_292,dim_293,dim_294,dim_295,dim_296,dim_297,dim_298,dim_299,dim_300,dim_301,dim_302,dim_303,dim_304,dim_305,dim_306,dim_307,dim_308,dim_309,dim_310,dim_311,dim_312,dim_313,dim_314,dim_315,dim_316,dim_317,dim_318,dim_319,dim_320,dim_321,dim_322,dim_323,dim_324,dim_325,dim_326,dim_327,dim_328,dim_329,dim_330,dim_331,dim_332,dim_333,dim_334,dim_335,dim_336,dim_337,dim_338,dim_339,dim_340,dim_341,dim_342,dim_343,dim_344,dim_345,dim_346,dim_347,dim_348,dim_349,dim_350,dim_351,dim_352,dim_353,dim_354,dim_355,dim_356,dim_357,dim_358,dim_359,dim_360,dim_361,dim_362,dim_363,dim_364,dim_365,dim_366,dim_367,dim_368,dim_369,dim_370,dim_371,dim_372,dim_373,dim_374,dim_375,dim_376,dim_377,dim_378,dim_379,dim_380,dim_381,dim_382,dim_383,dim_384,dim_385,dim_386,dim_387,dim_388,dim_389,dim_390,dim_391,dim_392,dim_393,dim_394,dim_395,dim_396,dim_397,dim_398,dim_399,dim_400,dim_401,dim_402,dim_403,dim_404,dim_405,dim_406,dim_407,dim_408,dim_409,dim_410,dim_411,dim_412,dim_413,dim_414,dim_415,dim_416,dim_417,dim_418,dim_419,dim_420,dim_421,dim_422,dim_423,dim_424,dim_425,dim_426,dim_427,dim_428,dim_429,dim_430,dim_431,dim_432,dim_433,dim_434,dim_435,dim_436,dim_437,dim_438,dim_439,dim_440,dim_441,dim_442,dim_443,dim_444,dim_445,dim_446,dim_447,dim_448,dim_449,dim_450,dim_451,dim_452,dim_453,dim_454,dim_455,dim_456,dim_457,dim_458,dim_459,dim_460,dim_461,dim_462,dim_463,dim_464,dim_465,dim_466,dim_467,dim_468,dim_469,dim_470,dim_471,dim_472,dim_473,dim_474,dim_475,dim_476,dim_477,dim_478,dim_479,dim_480,dim_481,dim_482,dim_483,dim_484,dim_485,dim_486,dim_487,dim_488,dim_489,dim_490,dim_491,dim_492,dim_493,dim_494,dim_495,dim_496,dim_497,dim_498,dim_499,dim_500,dim_501,dim_502,dim_503,dim_504,dim_505,dim_506,dim_507,dim_508,dim_509,dim_510,dim_511
AKAP8,1.5620359,-0.8035853,0.05874898,-0.43410695,-0.40930077,-0.49838525,-0.22489324,0.0667716,-1.0038962,0.60033923,-0.13988325,-0.6920228,-0.2529336,-0.57197344,-2.1309314,-0.32385665,-0.36525047,-1.3193082,0.8199731,-0.5804823,0.3418802,-0.387331,1.4497877,2.1963468,-0.21626842,0.77211535,1.4749326,0.07022976,-0.7300915,-0.662882,0.5715781,1.7906814,-1.1448385,-1.2383367,0.4614111,-0.41827726,-1.1741459,-0.41142794,0.13060604,0.7857231,0.27095395,1.4106315,0.45821643,0.3577257,0.69126225,-1.7713125,-0.5646109,0.93807507,0.8132596,-1.3731557,-1.9034929,1.1244706,2.2260118,0.32072783,-0.28274068,-0.30866727,-0.55313855,-1.2496531,-2.1944861,0.82632977,1.6261544,1.0324705,2.335922,-0.3684931,-0.20087196,-0.54430723,-1.5193448,0.79213625,0.082971945,1.164712,0.40275759,1.0130275,-0.6304158,-1.1545564,-0.5499431,0.37837967,0.32313332,-0.18133093,0.04881034,0.32668644,1.2516478,-0.5132909,-0.7043518,-0.07338183,-0.9513538,-1.2951344,0.17296514,-0.9363596,0.1540654,-0.8704353,-0.10669175,-0.15041804,-0.3584769,1.5705427,2.1161032,-0.26637557,0.99150354,1.8061258,-0.3116128,0.48093,-0.71759415,1.8816154,1.0394207,-1.2946023,-0.9220883,-0.98115546,1.2047352,1.1537422,0.12103563,-0.89137703,0.05030134,-0.2882936,-1.963836,0.4530388,1.0708231,-0.40957445,0.38250995,1.6484214,-0.7605406,-0.29103383,-1.0484217,2.4738853,0.92503166,-1.0460676,1.6851168,0.50278497,0.43686032,1.2729249,0.29499516,-1.4855727,-1.1817869,-2.1042516,0.55132717,-1.2026352,-1.9340581,-2.0834687,-0.6947061,0.8572038,0.45177454,0.48516342,1.143033,2.0239768,1.4581707,0.65675414,-1.8096972,-0.62831515,0.698928,0.063160725,1.3439704,0.89732814,-0.33938435,-2.3747268,0.7292224,0.21936303,0.23990983,1.4869424,0.934814,1.2973542,0.7583224,0.78349185,0.13092417,0.038366377,-0.053345438,0.19438049,1.9190342,-0.2056128,-0.8169923,2.5521493,2.0703595,-0.30700555,-0.9681859,-0.956686,-1.0745059,-0.9475384,1.2279761,-0.11677112,-0.6599662,-2.1694055,-0.49702206,-0.22298862,-0.77923876,1.2449456,0.13023143,-0.058163278,-1.8116701,1.5482374,0.1406145,-1.2633348,0.018301887,-0.769362,-0.12003995,-1.0612841,1.0400815,0.73097193,0.16089894,-2.8837655,-0.15210152,0.5615138,1.2449273,-0.45507395,-1.2662327,-1.98311,-0.6697383,-1.2953458,0.3568009,-0.8354993,-1.0364188,0.74280566,0.6032874,-1.2329751,-1.0137234,1.1623777,0.33938336,1.3740896,0.062784374,1.8874308,1.0536039,1.1636205,1.8475667,-2.676299,1.448567,-0.99684,0.54033,1.0541317,-2.4515326,-0.55930173,0.10109568,-1.3351656,-1.3913534,0.29417583,0.089724906,1.5034611,0.07401698,-0.048006803,1.0405039,-1.7559037,0.0437588,-0.5984685,-0.075983904,-1.2734702,-0.42020914,1.3900961,-0.74485046,-0.089062445,0.8043048,1.2308544,0.27798787,-1.5302538,-0.08052782,-1.1137413,-1.8019047,0.8286255,-0.55214894,1.7845875,0.6010455,1.0015024,0.27577704,-0.17423902,-0.77485067,-0.19045919,0.07959484,1.5370464,-1.3622931,-1.9344115,-1.1470853,-0.5177969,0.06367525,-2.300242,-0.42271772,-1.9750808,-0.1837317,-1.8745549,-1.1536964,-2.2705743,1.325407,1.2968142,1.1144718,0.0059172814,1.8819164,0.85351396,-0.9135608,0.7645601,-0.86167186,-1.0666837,-0.46156585,-0.009179423,-1.5208508,1.0380818,-0.89339554,-1.6958445,0.27813968,0.5098039,-0.105004184,-0.12492611,0.7326266,0.929399,0.89329296,0.988296,0.08679778,-1.0330421,-1.7548547,1.2222973,-1.2010939,-1.7271194,1.1029241,1.2541155,0.21258427,0.21898228,-0.04838539,0.08070498,0.32527035,-2.6051538,-1.686429,-1.8027846,-0.6070475,0.86876756,-0.60601425,-1.7895795,-0.7423524,1.015032,-0.27126458,-0.92626274,1.7556441,-2.1119237,1.607097,-0.59517246,1.1579099,1.143972,-1.4305519,0.98833084,0.4332244,-0.057140674,-1.7189713,-0.43844295,1.2199436,-0.6466851,0.69211316,0.97880715,0.73390824,-0.33087212,1.2306396,1.068618,1.4606686,-2.3186023,-0.2112847,0.25231862,0.95737857,-1.5579313,1.6937623,0.686497,0.38822937,1.4230494,-2.0035648,-0.9030156,-1.0448445,-1.709993,1.4906176,0.16535239,-1.2099167,1.321613,0.39266163,-1.2247827,1.9116994,-1.1243598,0.96125335,-0.33512664,0.13713259,0.302088,0.48453167,0.0013625821,0.34121034,-0.16450654,0.025149662,0.040860064,-0.046999246,-0.0006671751,-1.389153,-0.3816158,-0.79538596,-0.09553741,0.92274976,0.9002208,1.1556981,0.71856165,-1.3474213,1.9357269,0.90803516,1.4650005,0.54097605,1.6115104,-0.09765047,-1.2305804,0.13919945,-0.107187696,0.04468929,-0.9237277,1.3605592,-0.25486282,0.76155984,0.12566708,0.0030196332,1.0986384,0.33087417,-0.24004269,-1.066915,0.29254353,-0.21335451,0.32454315,0.056086678,1.4837325,1.5890312,1.3116995,-1.5314639,0.28630516,0.7620828,-2.3924632,-0.7565456,-0.37201867,0.4259988,-0.88216513,-0.3750444,0.9745674,0.48289242,-1.135134,1.3900177,0.9151266,0.5156191,-0.23093121,1.5914371,-0.70450085,-2.3036408,-0.08242697,0.24959908,1.7789048,-1.1447009,-0.3954397,1.5025526,1.302029,-1.0064338,-0.3112382,-1.4154181,-0.49395925,-0.3716843,-0.2023709,0.54838395,0.19246872,-0.46043515,2.397565,-2.0823102,1.3745408,0.27913967,1.9873867,0.8558853,-0.7013885,-1.7492013,1.2800204,-0.3691089,0.7194861,-0.50860804,-1.0509148,1.0910007,0.59449965,-1.3235226,-1.1433834,0.99871576,-0.012093124,-0.39903057,-1.6864371,1.784532,-0.56036294,-0.32079628,0.35772845,1.0212427,2.6889327,-1.9573727,-0.59627974,0.7623596,1.1998943,-1.3241861,0.18764772,0.22107323,-2.0113363,-0.36168793,-1.6001376,1.363095,1.3186479,0.5006201,-0.076340586,-1.4751567,0.52428347,0.9625528,1.7840717,1.158782,0.2685762,-0.10173414,0.7658385,0.40600678,1.1287096,-0.10964251,-1.3132895,-0.090633065,-0.3558611,-0.67916864,0.35575503,-0.56340474,0.3118585,-1.5510272,-0.5899318,1.5216773,-1.4881041,1.7698294,0.04371267
BLVRB,-1.0046774,0.5205052,-0.61724705,1.1832546,-1.3034388,2.0079937,-1.3028886,-0.27358323,0.5878314,-0.030700343,-1.0439649,-1.0552409,0.8574024,1.4349271,-1.0108367,-1.153871,0.07407132,-0.9139216,1.2040653,1.9267392,2.262086,0.6159562,1.9567971,0.026337484,1.0933282,0.41389492,0.7816185,1.9766423,-0.82635516,-0.33630478,-0.4643587,-1.1680657,1.0651916,-0.051085684,-0.6993256,0.4477852,0.542652,-0.18374336,0.05896694,0.17315452,1.4634632,0.22847646,0.23082843,1.4719875,0.086892456,3.8665953,-1.3381135,-1.4397972,-0.9171865,0.5282128,0.37924597,-0.32233882,-0.3396627,-0.2717117,0.77168566,-0.6414679,-0.1852659,0.68751484,1.8787436,2.2240272,-0.88367337,-3.3735693,0.6817694,0.2513048,-1.4297929,-0.34048524,1.580107,0.24419951,0.25629574,-0.7741728,0.44598106,-0.36920726,-0.024597261,0.7852587,-0.99500865,0.21163468,0.50145245,-1.3557034,-0.0078004696,-0.008125036,-0.4139558,-0.625438,-0.4315666,-0.32713377,-0.52591854,1.2837976,0.43520507,0.43947724,-0.13810301,1.445743,1.2180833,1.8810164,0.8883363,-0.9358954,1.2744787,-0.28914183,0.0040521407,0.31164548,2.1424298,0.17940949,-1.913868,2.3783102,-2.1552775,-0.16129999,-0.9265683,-0.56949174,-1.5378028,-0.3304742,0.7814249,0.37833366,-0.6867927,-0.51546293,-0.10809361,-0.51062965,1.1634145,-1.0330225,-0.31959912,1.2663273,-2.2179883,0.9140582,-0.29570627,1.0500276,-0.84541327,1.0771054,1.63552,-0.25369373,-0.025039317,-1.0050435,-1.9065875,-2.2181008,-0.3107646,0.43857953,0.011616814,-0.35705936,-1.0646034,0.23919645,1.6647375,-0.74923944,-0.65141535,-2.2695277,-1.2321998,1.279364,-1.3890744,-2.4618998,1.4553777,-1.0156906,-1.9489838,0.52972585,0.46780658,0.4910976,1.7992417,-0.6927808,0.3087362,0.9853699,-0.26808178,-2.1264973,-0.6019392,1.4054421,0.49687898,-0.6153917,-0.18657257,-0.046615142,-0.62123936,-2.8535082,-0.7029458,0.06449968,0.017170733,1.12409,0.73429775,0.80987746,0.5706812,-0.7503268,1.9989184,-0.3821073,0.7623624,0.5826285,-0.24450378,0.29827952,0.65665054,-2.074391,0.76225555,0.7788538,2.0039077,0.09208504,-1.2500784,0.7089332,-1.3182312,0.23445484,-1.0692524,1.443368,-1.1169188,0.42109865,-0.88172054,0.86908484,-1.0225654,1.6501275,0.8914999,0.39288348,1.2633425,-0.22416063,-0.54523164,1.1998888,0.4884665,1.0921612,-2.0340965,0.74100506,-0.77815455,-1.2304672,1.6877927,-0.031461596,1.2202476,-0.5571493,-0.031710964,0.2023588,0.19331384,1.350088,1.7949874,-0.72937316,-0.7621665,-1.8071074,-0.63384604,-0.25113088,0.39544573,0.29695264,1.1642632,-0.051766362,-0.37837332,1.837618,-0.52869034,-1.6783129,0.1843174,0.755508,0.107674114,-1.9693191,0.33532315,2.6547241,0.686898,-1.6132094,-0.3854857,-0.6635651,0.40138415,2.3547058,0.33137122,0.9697867,-0.5105724,-1.3008496,-0.013804578,-1.1858355,0.6315937,-0.05270697,1.4543883,2.2880118,0.21734598,2.1487687,1.458188,0.91491526,-0.13823505,-0.5956825,0.50093603,-1.8235493,0.38844705,0.9464059,-0.67361736,1.5259715,-0.91838413,0.59024924,0.09764773,-0.64347607,0.19655618,2.3596332,0.0859293,-1.3611549,1.256175,-0.17305595,0.4592457,-0.2523746,0.1847601,0.58700365,-0.9639675,0.09931324,1.3840044,0.1217655,-0.31601,-0.3065654,-1.1320069,0.41798484,0.31068206,0.15791124,-1.2828029,0.29489458,-1.2512177,0.28985113,-1.851538,-1.6821723,-0.7497408,-0.31522632,3.7115252,-1.1721048,0.9426735,0.881578,-1.8743576,0.09722458,-0.3305122,-1.6401484,0.17831478,-0.99733573,0.9148199,1.4528862,1.4765247,0.45674798,1.5354608,-0.24632551,0.68343633,0.41862732,-0.47958884,-1.3365116,1.6187555,-0.84543085,0.8236963,0.3255177,-0.27763394,-0.024192605,1.0878421,0.31730965,1.5091319,-0.42635083,-0.04293812,-0.35304037,-1.3331804,-0.3886356,0.7017214,0.7958013,0.650081,2.082441,0.045608513,-0.6841623,0.8720686,-0.702378,-0.18252029,0.7795943,1.7161463,-0.20338817,-1.7453749,0.36934432,-3.2138646,1.094974,-0.09079069,0.23237371,0.051505797,-2.8809502,0.5385821,-0.29344442,-0.18981752,1.3098811,-0.98978305,1.0979757,-0.0028931326,-1.312503,2.1523318,0.03203098,-1.9071419,-0.20664376,0.7589206,-2.436302,-1.0095439,-0.33208185,-0.8909106,-1.3149004,-0.32752302,0.0138149,0.5408516,-0.63389874,-1.5134056,-1.0293335,1.3207817,-0.61535215,-1.6611454,1.2190897,-0.6708655,0.49639502,-0.27055782,-0.44282126,1.0350956,0.30248347,-0.5766368,0.20862135,0.19263358,-0.8706717,0.29434025,-0.97578865,-0.7098355,1.295817,-0.08189215,0.37010202,-0.55767995,2.550732,-0.5983037,-0.49512273,-0.17849265,-1.1245494,-0.9973302,-1.8202015,-1.1291375,-0.09618226,-1.3315212,-1.1021707,-0.89649665,0.7760331,1.6365942,0.074961476,-0.9323129,-0.8171573,-0.8537014,0.31290466,-0.14507735,1.3991325,-0.6710636,0.2974137,-0.71956563,-0.7194588,1.9077905,-0.39459577,-1.104367,0.37325388,1.0931326,-0.4790264,0.4701762,-2.0118043,-0.0017163787,-0.7358733,2.230425,0.21600989,1.2921629,-0.108216025,2.4126322,-0.14448111,-2.1671946,-1.6151339,-1.1063,-0.22377387,-2.124947,0.6518647,-0.89676124,-0.29241797,-1.2847178,-0.2500052,0.38832846,-0.6608926,0.07422104,2.3491373,-0.4057084,1.4305775,-0.2995812,0.321574,0.37463406,0.049814906,-1.3187073,-0.93676394,0.8644092,1.068855,-0.20617814,0.70232564,-1.6457113,-1.4544843,0.37303555,-1.1915714,0.87780267,0.0817487,0.709946,0.6510634,-0.12182268,0.15820995,-0.8204712,-0.68118554,0.19734041,0.3279825,0.13477631,0.77985394,1.894007,0.43565494,1.5631409,-0.65289783,-0.15066408,0.60556096,-1.5003653,0.9012075,-0.34702784,0.04085081,-0.11325721,1.5770855,-0.61243665,-2.716093,2.0773304,-1.2866415,-0.28273937,0.5623742,-1.2318379,-1.7180939,0.13919783,0.029775169,2.7682958,0.39764768,-0.0445555,-0.54567385,-0.19195867,-0.6650028,0.28003964,-0.98275167,-2.113857,0.29171985,0.18061289,-0.74979585
BTF3,0.5459347,-0.4281505,-0.18444893,-0.12550369,-1.6389818,1.6124203,-0.3447471,-1.6641511,0.64989674,-1.0418055,1.1380485,-0.76785755,0.9731673,-0.03961792,-0.88493294,2.5083807,-0.034966104,1.2665521,1.3039019,-0.09148555,1.5706129,0.8651932,0.6269185,0.55887204,1.3138186,-1.903936,0.59583914,1.1587769,-0.65347266,-1.0342205,3.496515,1.4626046,-0.31191027,-0.5678037,-0.12471378,0.5738833,1.4357951,0.90926725,-1.1693088,0.1467894,-0.47464353,1.3389661,0.19477929,1.1372187,-0.0910305,1.1240286,-1.7510278,-1.4264809,-0.5648706,0.8962768,0.03127691,1.099432,-1.7846533,-0.023448527,-0.5586645,-0.16982979,0.7223482,0.84570557,0.25039202,-0.066700935,-0.6501397,-2.9025478,-0.032595508,1.9696491,1.8985769,0.85193443,1.4931852,0.6051127,0.16773805,0.5434852,1.5979434,0.6456847,0.0066839554,1.8113503,2.0040798,1.3363173,-1.0461017,-0.55803573,-1.3393623,0.2819278,-0.11351668,-0.1906549,0.03270703,0.39077103,0.8692602,0.4873126,0.07835073,-0.82936907,-0.8712127,-0.61328006,0.20497522,-0.69254386,0.026756572,-1.2126592,1.2458944,-0.54251516,0.7707392,1.5879517,-0.6284213,-0.63353425,1.2362769,1.4143693,1.0901176,0.6082067,0.5567509,-1.0666758,0.092795625,0.17214225,1.0550704,2.3099852,-0.6517077,-2.0177078,0.46113604,-1.0424267,-0.9201545,0.008579663,0.33893228,-0.08414057,0.5019613,-0.28473917,-2.2108111,-1.5377698,0.81673867,-1.4917115,0.055471398,0.91670984,-0.17719556,-0.24158865,-1.2508616,0.34317118,-0.080470175,0.1848571,1.012919,1.2490574,-0.7103031,0.60358113,1.0838058,1.6237684,-1.0849856,2.1869314,-1.0388981,-0.70942956,0.7913507,-1.104699,1.9222015,-0.986301,-0.93167794,-0.0058327164,0.06348023,0.2171074,-1.4792869,0.28988063,-0.07048378,0.16397165,-1.9299691,-1.7804284,-0.2403387,-0.423069,1.2625084,0.752181,0.16081683,-1.8855613,-0.45016578,-1.0440766,2.265264,0.4272116,0.93706554,0.46314898,-1.5727255,-1.2791536,-0.92573476,-0.21479812,0.14070424,0.96720314,-0.7303786,1.1405907,2.610965,1.1165257,-0.88275546,-0.57571846,0.5715539,-2.5621252,-0.48309562,-2.9203856,-1.1179601,-0.7356231,-0.21986921,-1.4344804,-0.4918811,-0.2173249,-0.45549846,0.34082344,-2.2943134,-2.0320656,1.4233102,2.3072271,-1.4654137,0.023928087,3.349499,0.8905902,1.4833663,0.23790395,-0.6164859,0.27537635,0.6219535,-0.23508422,-0.24766113,0.18376867,0.45438993,-1.4276696,-0.7071346,1.8342748,-2.8131216,-0.8059224,1.3441008,-0.9581299,1.6201108,-1.1729573,0.9250682,-0.14071283,0.26982588,0.9598458,0.060793374,-1.8348267,0.62575936,0.88460964,-0.48104775,0.6709543,1.2949731,-0.40490302,-0.38144717,-0.23166469,-1.6154563,-0.6222165,-0.5208142,0.6992134,-0.13695543,0.20701657,-1.4839134,-1.5027167,0.0668916,-0.033014983,-1.1434964,-0.72686785,0.27940866,0.53696585,1.2302506,1.0179735,-1.430929,0.92702705,-0.5577535,0.8622746,0.8185681,1.1572478,0.6207062,-0.07009931,-0.8680764,-0.121010505,0.8946653,0.6233334,-1.849577,-1.8113868,-0.37259263,1.7173626,-0.80261177,-0.8026963,-1.5858954,0.3050525,1.3536786,-1.1448416,-0.17155586,-1.896823,-0.6441339,-1.7222503,0.2312928,0.55775183,0.86765057,-1.0122526,-2.0133717,1.2531933,0.59674025,0.8057904,0.13289668,0.64984035,0.31479785,0.5700928,-0.40066805,-0.8675857,-0.80481213,-0.17956139,-0.46024793,0.5393769,0.43270993,-0.35891512,1.2265708,-0.8948769,-0.5310202,-1.9607757,-0.9166867,0.26176316,2.0654902,2.382648,0.4179673,0.3681062,0.75241125,1.2039729,0.98720586,0.5800635,0.73414874,-1.501253,-0.91908276,-1.523805,1.4783264,2.0601344,-2.120011,-1.4922605,3.116144,1.1614821,0.67935115,-0.3375281,0.19094431,-1.4774939,0.9584281,-0.4739343,-0.5666894,0.9205991,0.65802413,-1.0973933,1.5921478,-1.79681,0.22541942,-0.03461984,-2.317182,0.3829371,0.4865856,-0.21106036,1.1885026,0.6627764,-0.6374215,0.6429366,-0.3024956,-0.89372087,-2.4074278,-0.46344844,-0.4113217,0.1946135,0.26214266,0.4519093,-0.13067922,-1.3936847,-0.4779617,-0.752256,0.80620843,0.5191339,0.27538913,-1.7151475,0.24458861,-0.41204068,-0.86697525,1.212214,2.3946934,-0.18134764,-0.35345444,0.056442276,1.1501696,-0.1359235,-1.1285315,-0.4609045,0.3627316,0.5542995,-0.6280952,0.3267491,1.4965851,-0.86160123,-0.721505,1.444055,-1.6452802,-1.102262,0.9332514,-0.6604301,0.20096831,0.74626315,0.7094582,1.4600736,-0.02547926,0.5180031,-0.5138833,-1.1785396,-1.4407473,-1.6194857,0.53461236,2.3877294,1.3067858,1.7884818,0.65326816,1.1300477,-1.9648064,-0.9879148,-0.1309522,-0.8354927,-1.9692158,1.2329664,0.26996145,-0.8643358,0.6370417,-1.8449118,-1.8821951,0.9827943,1.699189,-1.3954339,0.9380601,0.41498837,0.8722301,-0.6886048,0.3493444,-0.47360313,-0.7166031,1.6851028,1.3687403,-0.49397984,0.50484407,0.90117466,2.042426,0.9487834,1.8252555,0.57753146,-1.5656309,-0.036317527,0.14786644,-1.1476599,-0.2489149,0.30728385,-0.31435397,0.72034734,-1.6189342,-1.0114658,-0.746998,-0.6272591,1.5506781,0.5554163,0.37258023,-0.37629685,0.5939858,0.10565193,0.53624743,1.0826501,0.15878116,-0.98438776,-1.3573142,-0.24640346,0.2300131,-1.8133078,-1.8051586,-0.3435912,-0.30138165,-0.23093456,-0.3843554,-1.6595533,-0.5003303,0.66608155,1.6484952,-0.50484425,-1.8175535,-1.1431801,-0.92718905,-0.344284,-1.0925,-0.53008556,1.2842675,0.19067924,0.6857661,-0.35391247,-2.2133186,-1.4376748,1.0477059,-1.8531593,-2.1490846,1.255693,1.1548895,1.4420788,1.3976787,1.7666252,-1.496479,-0.2607136,0.719958,0.93769807,0.53327304,-0.19524206,-1.7574956,-0.5917922,-1.2571071,-1.1469305,1.3785101,-0.57368684,-0.82672185,0.7096461,1.4682899,-0.8449001,0.5553165,0.6926127,0.53273565,0.14110655,-0.0043808552,0.18804589,0.6483517,-0.9876281,-0.4972147,-0.45557696,-0.32909432,1.2548232,0.07115261,1.3256247
CD109,-0.101878956,1.1141491,-0.6448489,-0.30350232,-0.13541454,-0.18347837,1.4455547,1.0654565,1.0089082,0.11265383,0.29253632,-0.7953134,0.937037,-0.58533996,-1.9795743,-1.4581661,0.11806057,-1.8000765,0.64532214,0.30909604,-0.14348099,1.182909,-0.6842225,-0.19996585,-0.20805843,0.3453595,-0.9598329,-1.312009,-0.9145078,-0.912524,-1.1761522,-0.035191577,0.7716018,0.55202466,2.488814,-0.3812891,0.2699789,0.6583087,0.32264715,-0.34496447,0.91069704,-0.830454,-1.9584702,0.54403144,-0.74659216,-1.2543181,0.35738683,2.6876905,1.0586351,-0.72430056,-1.5658628,-0.8392419,-0.63765615,-0.3056976,-0.32830477,0.2500014,2.4505806,0.15247476,-1.7460179,-0.9136033,0.2735386,-0.598411,1.179773,-0.11115608,0.2647647,-0.7766358,0.015282316,0.8812412,-0.86727875,0.038790934,-0.9448132,0.87049913,-0.51146924,1.7013986,-1.107633,-0.73828155,-1.5618184,0.29362088,1.2045655,0.32832965,-2.4262633,2.7596552,-1.0499424,-0.4346115,-0.6197377,-1.5820109,-0.20239729,0.44774306,0.16506566,-1.7658204,2.176752,0.083940245,0.114266604,0.23733619,-0.5460132,-1.2134229,-1.0322446,0.8142468,0.73764247,0.5931897,0.57272863,2.006208,-1.0585577,1.654114,0.32324067,-1.0412954,0.47029626,0.17866085,0.8511686,-1.0504744,1.3936886,1.6245466,-0.86620015,1.2313343,-0.8008032,0.6363152,-0.29275993,-0.04268769,0.053745173,-1.2186416,-0.6578064,2.3680036,-1.0551695,0.2794133,1.3564187,0.4694739,-0.40965176,1.5031269,-1.6357309,-1.1752291,-0.2638641,-1.1769493,-1.1229109,-1.0087175,1.3420353,0.5888281,-0.26118776,-0.95082647,0.5961506,-2.2189653,-1.0804043,-1.1666731,-0.89688694,2.1781049,1.0907894,-0.10731478,-0.19043964,0.8874421,-0.6734549,0.5844101,0.27685025,-0.026527368,1.3599591,-1.1420757,-0.66194576,-0.7000607,-1.2887064,-0.84391963,0.3138815,-0.009690352,0.0574875,0.34335276,-2.0825613,-0.6870221,1.3653244,-2.3048046,1.1389745,-0.3859581,-1.8400934,-1.0618236,-0.110348165,0.398332,0.17901686,-0.27117532,0.26460096,-0.28752613,-0.2719788,-0.85685706,-0.92931324,-0.36301556,-0.68421113,0.7619662,-0.59037685,-1.5317105,-0.0332707,-1.4955232,0.23304716,-0.9591317,1.3622102,-0.72914654,-0.39929104,2.221163,0.8210828,0.19224527,0.27834663,-0.43737718,-1.1506757,-1.5378718,0.52123934,0.6121093,-1.6539623,1.0777763,-1.155512,0.027904399,0.66436464,0.55586016,-0.22313294,1.570661,0.97446877,1.6654465,-1.5624799,-0.07187116,-0.20111674,0.43492842,-0.9960985,-0.88126916,0.9990421,-0.7177251,-1.4178884,0.5157928,0.7733392,0.19939671,0.18553177,0.18630828,0.08093919,0.9008764,-0.43591753,1.348624,0.06493158,-0.42466265,-1.684717,-0.95631766,1.6753653,1.5824673,0.3891655,-1.2048979,-1.3552412,0.70760065,-0.6003119,1.962086,-0.5317187,-1.7470852,-1.5866092,1.3257462,-2.2173364,1.0717071,-1.8952942,-1.0551395,-0.33159512,-1.9735332,-0.28035843,2.0584412,0.40238285,-0.41305134,0.16212426,-0.40002057,-2.05324,-0.40209028,0.6659936,0.036724735,0.7616599,0.88994706,-0.36784652,0.39013645,0.7338663,-1.0450367,-0.98177,-0.3890935,1.6273595,-0.7127375,-0.4654314,-1.8715369,1.1720905,0.040392917,0.32821557,0.13270612,0.1395847,0.87461525,-0.5017448,0.83635455,0.13896693,1.0422779,1.3172132,-0.7975563,0.60329896,-0.09271768,-1.6059024,-0.95419806,-0.60276854,-1.2425818,0.4215868,-0.63216066,0.4223287,0.45795387,1.1929547,1.1611612,0.11433301,-0.89389455,1.1017667,-0.3507337,1.6337512,-1.9733915,1.9440117,-1.1194448,0.13758971,1.5191104,-0.9831738,1.022768,2.1603956,0.8820275,1.6339886,1.7879311,-1.1889628,2.351233,0.11601507,1.9578305,1.7070645,0.48412386,-0.029580783,-0.13287647,1.8654244,0.48555493,2.0805686,-0.1340416,1.3436278,-2.085102,-0.24403505,0.059535842,0.43963853,1.940894,1.8296945,0.7134677,1.3081894,-0.11216343,1.2798238,1.0436738,1.7068526,-0.600562,0.4334113,-0.5234415,1.983267,-0.70237374,1.6581591,-0.65502447,-0.93437773,0.87707156,2.0375447,0.53568465,2.0881972,-0.8523495,1.3161696,0.14057305,-1.9071536,1.0874693,-0.010233918,0.56740767,-0.35243157,-0.35157543,-1.1078471,0.37065774,-1.7948147,-0.6648222,1.2214481,-0.27602834,-0.771295,-0.7901314,0.13772571,1.22976,0.038497854,-0.08314074,0.6327115,-1.054041,0.9899112,0.4709374,1.5528948,2.6670463,-1.569629,0.096003234,-0.5548671,1.4993145,0.5960343,-0.5374825,0.51639074,1.2429208,-0.7893872,1.1068114,1.1330549,0.06414259,0.33170483,-0.6707075,0.029196829,1.6602699,-0.6163601,1.5661353,1.3256149,0.13078098,-0.9773834,1.4107298,-1.0543492,0.50304717,0.9936337,-1.1089731,-1.0350235,0.03527908,1.3399893,-1.4481318,0.666515,-1.3168714,1.4586378,-0.2059869,-0.1677582,-1.1901946,-0.4070411,1.269639,-0.7062225,-2.2955048,-1.3252816,0.31436247,0.22719857,-1.1403922,0.051125523,-0.31392115,0.3380023,0.36898318,1.0583123,-0.50483435,0.043920267,0.292631,-0.4178381,1.255541,-1.0449607,1.026928,-0.31875867,-0.8091306,-1.163249,0.7142196,-2.1376295,1.9481263,-0.64482206,0.70230126,-0.5882039,-0.10797717,0.783352,0.8035845,1.5171851,-0.6049464,-2.1762912,0.32351533,0.7117105,-0.7601149,0.04948685,-1.1140146,0.55058604,-1.1743093,-0.17155895,-0.86362857,-1.8821881,-1.372037,-1.617991,0.9573516,0.61391824,0.1528925,1.3370004,-1.1024028,-0.73208714,-0.56314063,-0.5504355,-0.6572273,0.3509119,-0.7900488,1.5392936,1.4806595,-1.5042183,0.6848422,-0.7365047,0.2147885,-0.24261652,0.91464746,-1.1426362,0.32623503,-2.410191,-1.7918811,-0.24737144,0.1726509,-1.8910282,0.09463836,-2.3791785,0.90903306,-0.63203335,-1.0234499,0.9434725,0.32227242,1.4903737,1.5736616,0.6751954,-2.1355412,0.60348725,0.82003725,1.7999862,-1.6793997,-1.0937161,1.7083726,0.33436897,-1.2151302,1.0826352,2.1079688,-1.631596,1.0258764,1.2117462,-0.58568305,-0.063463725,-1.9020302
CD14,0.32138988,0.49232534,0.49843258,1.4274192,-1.0177677,1.1310519,-1.8508353,-0.0490445,-0.20962055,-0.24337551,-1.1609207,-0.36711535,1.4735523,-0.8395903,-0.87709653,-0.72538227,0.9982796,-1.1458092,0.82001853,-0.30059415,0.66482985,0.5265015,0.113421075,-0.47909743,0.6066698,1.2986225,-0.29954642,-0.6615102,0.87972796,0.65651214,-0.8985838,-0.8811849,1.785621,0.53124267,0.71979403,-0.82409567,1.4222058,-0.6817969,0.4912235,1.1832614,1.1250476,-1.9335581,-1.0294853,0.55163467,-0.94758797,0.089775115,0.2425916,0.38987318,0.2781802,-1.2412972,3.432383,0.10635255,1.0759109,2.9706821,0.40734252,1.4017015,-0.56750435,0.3348464,1.4548502,1.5994594,-0.2476083,-1.5040977,-2.1103537,-0.11704032,-0.9823142,-0.1472693,0.048933536,0.24214467,-1.1522644,0.8607583,-0.7621805,-1.4813583,0.60925865,-0.811627,-1.5091609,-0.32909933,1.0410318,-1.0627198,-0.42566666,1.1701424,0.12635005,0.07195645,-0.34370816,0.8139468,0.94047546,0.710104,0.9098627,-0.11376042,1.0972438,2.7752976,0.4146192,0.60793084,0.74876183,1.151062,0.574641,-1.7746533,1.4971972,-1.6400238,1.2615807,0.53232336,-0.38324058,0.967913,-0.46215296,0.46755332,0.53141594,-0.8488811,-2.2106628,-0.3838329,-1.3548379,0.88770163,-0.46502697,-0.86281973,0.44612977,-1.3217149,1.7040013,1.1595088,0.021196319,1.703914,0.44618675,-1.3631455,-0.47519976,0.8011969,-1.1575145,0.45870206,-0.30533564,-0.31802088,-0.27408913,-1.585733,1.0547631,-1.7332947,0.7985583,1.839001,0.3129484,0.26571947,-1.7350618,-2.2951915,2.2552798,-1.2785126,-0.0029731316,-2.3635697,-1.9649967,2.8720129,-1.6357042,-1.6693879,-0.4229537,-0.04399689,-1.261593,-0.4064016,0.14933164,-0.15685679,0.89051074,1.4889052,-0.3432859,-1.1739441,0.29846692,-1.2553025,-0.6065452,1.7606492,1.2893667,0.61851424,-0.15672958,-2.0072966,0.32142615,-0.79614913,-0.92996055,0.88176584,0.47607666,0.9048393,0.999307,0.18001178,-0.07185762,-2.4704382,-0.974553,0.91335,-1.1637341,-0.18986602,0.11865249,0.19786301,0.45302778,-0.17104766,0.73077816,0.28593346,1.7879045,-0.6810905,-1.8350121,-0.06600738,0.28654268,1.5112526,-0.26315778,-0.17820646,-1.71248,-0.64484096,-0.68103766,-1.1435912,-0.7517406,-1.070209,0.8609634,0.7623409,-0.24925227,0.5867578,0.2613752,-0.061233394,1.1525773,0.83116835,0.16240315,-1.3099092,1.1086293,-1.3673998,-1.0167279,0.6481969,-0.40831593,-0.45829657,1.2643572,-0.9271628,-0.21470703,0.43327653,1.0715046,-0.46719393,-0.015447488,-1.0344201,0.95211536,-0.97782344,-0.6483047,-0.1912788,0.3288105,-0.2948663,0.7396135,-1.0220484,1.0838026,0.4144418,-1.2282907,-0.32257515,1.4409384,-1.0016707,0.47331658,0.7121187,-0.26085663,-0.6457877,-1.5782374,-1.594806,-0.11245667,-0.06808521,-0.62228274,2.2372818,-0.95311594,0.39852932,-1.5009707,1.3556173,1.3911558,0.12785685,1.2683538,0.6077431,0.098128065,0.9586363,-0.7162762,1.2600942,0.5785594,0.28035745,1.663713,0.06337771,3.7005804,-0.83306843,-0.5473399,0.99874264,-0.6759697,-0.9383762,-1.6078539,2.601156,-0.022217315,2.1619825,-0.41410753,-1.0180455,0.8377532,-0.3678791,-0.29498708,1.2392434,2.3391151,-1.7056143,-0.74694586,-0.28149915,2.1765397,0.5427971,1.4595488,1.7804478,1.2340585,0.30091268,1.6848578,-0.18004197,-0.043340474,0.13454634,-1.0525413,0.30173633,-1.1068012,-0.61657137,-1.5150394,0.05738709,0.21046124,-0.56213385,-0.07560508,0.69905394,-1.4749342,-0.7959836,-1.1227716,-1.4601701,-1.057927,-0.43575245,0.61524445,2.8796396,-0.44646317,1.0397539,-0.157002,-1.7893203,-1.5081851,2.0688527,-1.4398968,0.7455359,-1.4185772,0.8001757,0.36011514,1.0049059,0.014094398,0.038052384,-1.4429864,-0.38943675,0.851399,0.47592494,-0.5268934,-0.2619642,-1.024425,0.061422475,0.33930054,-0.77222174,0.7935219,0.571539,-0.58076036,-0.02906104,1.1210867,0.98784333,-1.2243226,0.73178464,1.6698657,0.28296807,-0.65037054,-2.3036368,0.09724829,-0.23155096,0.31117466,-0.21127006,0.33754402,-1.1052573,-2.8366504,-1.0903257,-0.46990952,-0.25058022,1.0215108,0.021459483,2.2061915,-0.48181468,0.094906494,-0.007214664,-0.3456553,-1.5297003,1.6290736,-0.81330705,0.11086748,-0.4866006,-0.9620917,-0.073798195,1.0429617,-1.1135538,0.24352948,0.3528156,1.4755651,0.038031932,1.707379,-0.23507954,0.42068648,1.0793197,1.4124657,1.4838285,0.22465315,-0.28901795,1.6497005,-0.24249011,-0.5878091,0.5983155,-0.73477656,0.70656526,0.055968743,0.6211718,0.14542493,1.7657392,-0.23694497,-0.10137272,0.11115807,-1.4087809,0.9690239,-1.2684011,-0.8806054,-1.0964751,-0.5569699,-1.7751039,-0.9766324,-0.5080662,-1.5508758,-1.0245037,-0.37368312,1.102578,2.6048527,-0.0110131875,-2.4636552,-0.7976391,-1.8868858,1.2197542,-0.29177818,-0.72013277,-0.4761032,0.19807176,-1.6594826,-0.59795535,-0.8192312,-2.1763546,-0.92795074,1.4790474,0.2509394,0.056915976,1.6165382,-1.1160249,-0.4902455,-0.31237298,-0.97258925,-0.79093283,-0.90206665,1.978671,3.1435792,1.8996749,1.3268826,-1.7608382,0.46199894,0.76733625,-0.9515803,2.0451894,-0.5996331,0.063081704,-0.29032847,-0.578519,0.20284626,0.3712716,-0.4441865,0.071286015,-1.863479,1.3112323,0.47713634,0.94129467,-1.3575633,0.3311744,-0.68929476,0.92508096,0.5059094,1.3620734,0.65559244,-0.15112087,0.8878123,0.5466605,0.8804491,-1.204441,-1.4981788,0.635905,-0.45147514,-0.9604775,-0.041959982,1.29761,-0.85810685,-1.3225454,1.9712639,0.059603885,-1.1776365,0.33108282,-0.32109708,-0.07857303,1.0930891,-1.246346,0.36388314,1.3555225,-2.0883954,-1.0531255,-0.5250618,0.8517231,-0.4416556,0.08985771,-1.6217449,-0.11727727,2.5236108,0.6923375,-0.91811436,0.5617558,0.079439916,-2.5358026,-0.9011242,-0.28843138,2.0415132,1.0761778,-0.7485642,0.028945388,-1.5249587,0.4020227,-0.5526878,0.44546822,-1.2143784,-0.9071413,1.2183976,-0.45494556
CHST15,1.0762777,-0.42643276,-1.5774612,0.1353501,-0.3327639,-0.7453331,-1.1162673,-0.47160944,-1.4898849,0.20582126,0.7378714,0.9918155,-0.63587075,-0.7241978,0.8607612,-1.1738355,0.5409264,1.345631,1.1392484,1.6344126,0.78876084,-1.7604331,0.52201587,0.047142316,0.11160866,-0.467623,1.1423157,0.6995484,-0.033266746,-0.53932416,-0.64335,3.4383538e-05,0.045893773,-0.85147786,0.4685255,-0.28281146,-1.1137595,0.25838834,-0.1623971,-0.58375496,0.62386775,-0.31832775,0.28919232,0.047935862,-0.08458424,1.4739033,-0.9352138,0.35299304,1.185649,0.39658305,-0.52424353,-0.777325,0.92877555,0.7621545,2.345325,1.2965226,2.1071658,0.90030026,-0.6311662,-0.36756212,-1.2566029,0.0803798,0.868987,-0.85393953,-0.3445643,0.91881055,-0.08540699,-1.2883382,1.2532551,1.2436627,-0.49489975,-2.8344173,-1.6444973,-0.62044203,0.027902877,0.20636603,-0.63658285,-0.80257106,0.7657232,0.09190116,-2.0002854,1.1336175,-0.7611087,-1.7732178,0.5784279,-0.43674585,-0.52104837,0.11354134,2.245084,1.3646301,0.014304675,0.27008477,-1.3901066,0.833273,-0.9933389,0.4552651,-0.5445361,-0.589103,1.1200879,0.8861387,-1.3243408,2.3462389,-1.4459751,-0.17232415,0.6164692,-0.32950243,-0.50172484,0.008560301,0.17021883,0.70159584,0.78869516,0.28847632,-0.7883306,-0.29705653,0.679999,-2.0356007,1.6820725,-0.45139998,-1.1438456,1.1344457,1.2297292,1.0244522,-0.9162669,0.05784032,1.8484348,-1.8797222,-1.1511588,0.025033552,-0.6712904,0.6170022,1.620145,0.47180736,-0.38710946,0.6533663,0.5142385,-0.7741766,0.47976977,-2.1337306,-1.4127858,0.20628262,0.19803153,0.9750014,-1.5477005,1.9112009,-0.563343,1.8797661,0.0664498,-0.14091703,-1.3603842,0.45915234,0.82501036,-0.2991464,-0.23465894,-0.041305017,-1.4325149,-1.1103017,0.43431556,0.59960985,-0.765193,-0.61120033,-1.154748,0.6343838,-0.11078286,-0.8675103,-2.4007556,2.1679156,1.3020681,1.400806,1.8124181,1.2757164,0.24900395,-0.17018378,1.7841829,-0.6495026,-0.17391185,-1.1382178,-0.94719607,-0.29728165,-1.2207476,-0.4695586,1.6789168,-0.25355825,-0.4731668,-0.8515918,0.41945323,-0.83015347,-0.032878496,-0.9787324,-0.041670933,-1.2762278,0.77629095,1.9561425,0.112581305,0.8055018,0.837147,-1.3349925,1.3164406,-1.0344032,0.17385548,-1.0280625,-1.4179759,0.70231265,-1.0450385,-0.2948422,0.79995537,0.78280246,0.8840483,-0.22697867,0.7282887,0.47564888,-1.1753713,-0.37481403,1.9380847,-0.36542684,0.02093313,0.21342573,-1.2569805,-1.731786,-1.9345318,-0.63710546,0.36576834,-0.5355165,1.8729775,1.3123721,-0.8003931,0.95735425,0.10044378,2.1202455,0.30651605,-0.46558022,-0.5020921,-0.048412494,-1.3988177,1.3138485,-0.5494182,-1.2902441,0.30458653,0.92931604,0.17231429,0.671747,0.11294656,-2.4660566,0.0025583578,2.294711,-1.9133127,2.0544252,-2.0808928,0.78312147,2.0045948,0.54968494,1.2026029,-1.2432969,-0.57243526,-1.2741408,-0.28300983,-0.6202118,-0.51571757,-0.6301748,0.35466462,-1.8337783,-0.2591462,1.1768008,-0.30015928,0.92585635,2.0717096,0.124735296,1.0526379,-0.45958984,1.3888233,-0.971786,1.4577034,-1.9068648,0.46650776,-1.9114913,1.9891293,-0.4826461,-1.5984825,-1.071784,-0.57862204,-0.5310004,1.1800015,-0.21190922,-1.9463918,0.7115901,0.20817651,0.7800255,1.7329756,-2.1480858,1.6800203,-0.3547858,-0.250853,-0.24296427,0.06234674,-0.30661348,-0.54760194,1.1690984,-2.5105588,0.393184,-1.5001346,-1.2977605,-2.1839938,1.2801379,-0.1849468,-0.66850996,-3.0465846,2.0878077,-1.2023723,0.6280836,-0.4385782,-0.13701382,0.1555151,0.42052707,-1.3036191,-1.1617589,2.3244977,-0.25915495,1.2043251,2.313201,-0.58939326,0.6090442,-0.55058455,-0.891401,1.425816,-1.5067732,-0.00125552,-0.6720086,0.5576418,0.8986063,-0.13571343,0.1890589,0.39042935,-0.7616503,0.25272432,0.85550237,-1.0395584,-0.86845505,-0.69475347,-0.16877949,0.22925633,0.9235622,-0.64375585,1.6045284,-0.7988547,-0.90935564,-1.3840624,0.018802367,1.6115873,-1.2286612,0.15139858,0.5941461,1.8226779,-0.40350688,-1.2966542,-1.0650661,-0.39537382,0.48796397,1.4414711,-1.9235351,-0.54002047,-0.67332816,-0.32836297,-0.25161597,-0.67209595,0.92361593,-0.41206783,2.027218,0.67354685,-1.5091501,0.073899895,0.6638279,0.84487724,-1.6683055,0.99775773,0.70172477,1.3161868,-0.586732,-0.43112487,-0.18572366,-0.2567925,1.804044,0.48103344,0.14675288,0.23770198,-0.25329003,-1.8626087,0.6069055,-0.48412576,1.1830422,-1.2096834,-1.0767261,-1.9465631,0.44288242,1.4342923,-0.9826086,0.2863296,1.6272357,0.5164117,0.0586183,0.9600064,-0.22682346,-1.5592442,-0.25835067,-1.2515737,0.09567034,-1.7429461,0.057394017,-0.80079037,-0.20672949,1.1018536,0.86991084,-0.078721635,-0.64093596,1.7061924,0.12807935,0.82386833,-0.3501805,2.4893951,0.5709772,-1.3886492,-0.6445916,-0.8422766,-2.5226686,0.046677276,0.752903,0.4063842,0.33576056,0.8519592,-1.008205,0.6699561,-0.55174553,1.5440462,0.3675239,-0.15046476,-0.7528284,-1.6095477,1.1703005,0.5599203,0.47593,0.5854105,2.4435608,0.38520834,-1.5630693,-1.4747496,-1.1179127,0.53365666,0.3176813,0.2134271,-0.909076,-0.31497872,1.1919392,-0.07478015,-0.8457253,-0.0495809,0.30771384,0.692911,2.6592214,-1.6253221,-0.72069216,0.7157722,2.2650454,0.1100976,-0.41352305,-1.3899437,0.02283615,0.70328104,-0.3207806,1.1949245,-0.800984,-0.824451,-0.043290127,0.3716529,-1.5375683,1.0824643,1.2142111,-2.201925,-0.67146105,0.47971976,1.873456,1.0138747,-0.49345675,-1.5803285,-2.1033826,1.3648391,-1.0456003,0.6918789,1.2455919,0.6768447,1.354201,0.32084784,1.3995134,0.19240534,-0.192023,-1.2193379,1.8076297,0.38358197,1.0469195,-1.7386588,-1.9221951,0.2008055,1.2508582,0.5880079,1.2887481,0.015125864,2.22401,-1.7706833,1.9274237,0.4527691,-1.7750506,-0.17963547,1.2327105,0.11602812,1.4156165
CIB1,-0.090837054,0.44378516,-0.24061617,0.9923704,0.17328094,1.5653116,-1.3149383,1.3022335,-1.0513409,0.29055208,-0.9849322,-0.7319739,0.83175665,-2.1120834,0.5285313,0.94605696,-0.6350461,0.46239567,0.046636257,-0.15595461,-0.3624219,0.24802949,0.42807347,1.4269642,0.3642887,0.036802266,0.79455423,-0.77172995,-0.06789174,-1.2510538,2.098024,2.4937162,-0.13915092,1.2838076,-0.06787013,-0.96412814,2.4715726,0.4638289,0.017687015,2.2389834,-1.598347,1.0778819,-0.4871597,1.0650034,1.3929958,-1.22453,-1.6707929,-3.7295866,0.87978566,0.07089597,-0.26822606,0.60743934,1.5419847,-1.1220907,0.36711645,-0.8796817,0.6373264,0.4053976,1.3034941,-0.82243955,0.23451854,1.1176852,0.15287478,0.09459823,1.295084,0.36296627,-0.338595,-0.6884422,0.9590509,-2.0036464,-0.026855271,0.6430402,2.3519783,-0.3866115,0.7327335,2.0348527,-0.17846751,0.5105233,-1.5850993,-0.4990311,-0.83125997,-1.6040978,1.5066352,-1.273605,-1.8816738,1.7779605,-0.2681313,1.4979696,0.6813562,-2.333607,-0.16277277,0.6474861,1.3311629,-0.03512379,-0.12947102,-0.07225816,-1.1085702,1.817982,-1.0995243,-0.14628781,-0.6810833,0.8997203,0.7532398,0.034541916,-0.51466805,-0.14171192,0.32067984,1.1151899,-1.1250863,0.5878045,-0.27845764,-0.8847425,-1.4858372,-0.08116012,0.9442654,-0.8060562,-1.0623963,-0.31920892,2.404843,-0.18958573,0.24068356,-0.027944066,0.90934753,-1.4502889,-0.5805224,2.1682165,0.5474772,1.123564,-0.50100297,2.1286845,0.42705065,-1.7218708,-0.5555317,1.164526,0.22565973,1.7825376,0.63256407,0.5511305,-0.0051173116,1.89273,-0.56995296,-0.26838928,-0.33795384,-0.59885997,0.9442115,-1.39804,0.8702258,1.484676,0.4776762,0.6021519,-0.6035088,-1.0759003,0.4702362,1.4901879,-0.58615935,-1.0133467,0.8676272,0.014593566,-0.41581556,1.4022925,1.1874644,0.6326811,0.49905223,1.9033062,-1.4488819,-1.567363,0.45569438,-0.24776945,0.707499,-0.831809,0.5743173,-1.7086865,0.22702734,2.2129724,-0.60315186,-0.5418219,0.08850852,-1.1703904,-0.74858356,0.6530391,0.3817931,-0.9363032,1.6997257,-0.13990285,1.430589,-0.20459026,0.030098077,0.72748566,-0.29975513,1.3536185,0.17897841,0.3895707,-1.8707285,-1.174753,-0.82346046,2.8191934,1.5905502,-0.7712587,-1.2255062,2.0729024,-1.5637983,1.759272,-0.21952862,0.48613152,-1.6822002,0.13216992,-0.66698164,-0.26847768,-1.3980756,-0.72800726,1.7455872,-0.66314465,0.734618,-0.45939955,-0.65547746,-0.24842419,1.329892,-0.049105827,0.79070145,-1.4632583,-0.3111445,-1.0525343,-0.18575129,0.31123623,-1.3027717,-0.19771343,0.08297814,0.92404217,-1.8124382,0.6666801,-2.1541007,0.30719408,-0.2849755,-0.5519432,0.2911525,-0.9776368,1.0272915,-1.5916027,0.3177582,-0.23897389,0.8153971,-2.4946961,1.0266166,1.194655,-1.2450513,0.6472413,-1.0096406,2.0865085,0.26146814,-2.4971213,-0.3436216,-1.1986326,1.8959113,-0.42056155,-0.44684234,-1.0727037,-0.70102984,-1.0298985,-0.2814335,-0.07893635,-0.9568512,-0.25366125,-0.5259857,-0.95090705,-1.5107298,1.613571,2.0943089,1.1704135,-0.91623604,0.3702689,0.76214236,0.4495912,-0.951477,-1.4282076,-0.87472355,-0.15482163,0.7973235,1.3179518,0.68586314,-0.98511696,-0.7540028,0.90998024,1.163122,0.4330449,-0.30215353,0.7475884,1.7715927,-0.5070755,-1.0330428,-1.2545813,0.83159643,-2.5035126,0.07824135,-0.26118794,0.5627861,-0.14489704,0.8102659,0.581308,0.59418017,-0.7413801,0.50036186,-1.4215982,-0.8776967,-0.48362154,-0.49371955,-0.5931162,-1.8093863,-0.49056083,-1.1751201,0.60408646,-0.23403528,-0.13162768,0.7163289,1.1724933,1.954365,0.18140079,0.6605409,0.17912431,-0.8803641,1.2324995,-1.9001187,-0.24217153,1.8091322,-0.3134122,1.0842974,1.4149972,0.8478641,0.959131,-1.7787812,-1.0793417,-1.4796215,1.0931929,-1.0728163,0.87640274,-1.090547,-1.41206,-0.37693614,-1.2658126,-2.1016002,0.06289486,-0.593412,0.9016628,1.2974037,-1.1232353,0.4553652,-0.5728745,0.22677793,1.8163598,-1.7619512,0.25847206,1.192276,-0.5792105,-0.29916462,-0.94628304,-0.13697399,-0.3079127,0.6192912,0.01098081,-0.08157526,1.558112,1.0082351,-0.4972159,0.27028033,-0.7103143,0.93718296,0.9409834,0.81699413,-0.8813814,-1.1516767,-0.18939067,1.0037553,0.67555,-0.7208676,-1.9609927,-1.7165072,-0.24100253,-1.5362695,0.78524,-0.4926406,0.24917845,0.779873,0.19545884,-0.4739698,0.01197271,-0.36299983,0.71565086,0.6987266,1.0642365,-0.25676906,-2.3280907,-0.31573823,1.637817,1.4214622,0.92001086,0.8606715,1.8273538,-0.34586576,-1.4631939,0.83310956,-1.9608526,0.3598597,-0.5784016,0.16065367,-0.86549264,-0.82907295,-2.0181105,0.12507913,-1.2946656,-2.3162315,1.6025976,0.82903826,-1.1117327,-0.31231087,-0.22365524,-1.1464688,-2.5459533,1.6693407,1.0256023,-1.5518763,-0.2913407,-0.85140985,0.39556625,-1.0795553,0.5587916,0.28869164,0.6485435,-0.6636074,2.358359,0.7388602,0.869003,-1.6753219,-0.028982399,0.5563922,-0.69401866,1.8747936,-0.1808012,-1.1889513,-2.103724,1.7805142,0.24556302,-1.8721205,-0.39618218,-0.6266119,1.4662864,-1.0204575,0.2224899,0.15788537,-1.1744244,0.6379621,0.33416167,-0.25806487,0.5552865,0.7022216,0.5312246,0.37020674,-0.19514772,1.3478386,0.45693162,0.6999327,1.8393701,1.3082129,-1.6767153,0.33040887,-0.3687637,-0.52173084,1.526626,-0.09153872,0.55004907,-1.3906804,-1.5610778,0.4788516,-1.4021158,-2.4201005,-0.4011269,2.519625,-0.13672778,1.0720108,-0.86489934,0.0026006617,-0.6164836,-0.20388478,1.6013157,-0.271425,0.36304417,1.503523,-0.55173475,-0.14792469,-0.6271172,-1.0994028,1.6912847,0.23174228,0.85583335,-1.1753757,1.047526,-1.0231025,-0.046374213,0.58526295,0.8492622,-0.6363107,2.6145375,0.4718586,0.46456423,-0.35865238,-1.1332743,-1.6995536,-0.531968,-0.2661085,0.35654923,0.64954895,-2.083614,-1.4009331,0.58189446
CKB,-0.078698516,0.62087446,-1.8197558,-0.35954407,0.79565394,0.00037723148,-0.59909004,1.179187,-0.81498975,-1.9475082,1.0732496,1.5889553,0.811649,-0.7718302,-1.1083412,-0.42966703,0.8276697,1.7335805,0.105199,-0.2869966,-1.6623828,1.0462449,-0.011783105,0.541787,0.55727214,-1.4107051,-0.75077593,0.21338864,0.25732398,-1.5981543,-0.13255675,0.5264555,-0.7217879,0.87178737,1.7649735,-0.9579954,-1.3962965,-2.3923013,-1.087247,2.3678284,-1.5169415,0.19791895,0.5360989,-0.6210301,-0.8652005,1.1009092,1.3595209,0.816984,1.499519,-0.1680408,0.030183213,-0.37292016,-1.15686,-0.1609628,-1.5186894,0.48675492,1.0392641,1.5448414,-0.005507529,0.7776476,1.2984021,0.010120634,-0.6014984,0.110121846,2.1782296,-0.018772868,-0.5931397,0.5732535,0.9064419,1.1985545,0.29094765,-0.24054477,-0.43446705,0.46488225,-0.99268675,1.391725,2.251479,-2.223438,-1.2613571,-0.44606277,0.12033097,0.463321,-0.51113325,-0.124048024,2.061634,-1.3194512,-0.80920863,-2.3382401,0.56437147,0.4139992,0.39206097,-0.99697846,-2.1030424,-0.1067977,-1.2792064,-1.0221577,-0.5680104,0.22180934,-0.88937545,1.2413893,0.96198815,-0.93959224,-1.5276452,1.4632967,-1.04111,0.9321052,-1.3940027,0.89945245,-1.9634807,-1.680246,-0.44964743,1.7856469,1.2980062,1.0671512,-0.29506442,-0.63874245,1.5915706,-0.5667331,0.24462429,0.7915212,1.0719697,1.1907047,0.12506025,0.07949597,-2.185477,1.4059076,-1.9537566,-1.015019,0.5968814,-1.4035474,-0.22107269,0.7123698,1.0826111,0.52130246,-0.62686306,-0.8646796,1.3040767,0.67519903,-0.13625817,1.9830753,-0.13718528,-0.31892833,-0.56377053,-0.42914587,2.456313,0.2508966,1.113666,-0.6057797,1.4110955,0.793653,-1.064722,-1.187862,-1.2836412,-0.71417207,1.2103215,-0.8149184,1.7663782,0.24458736,-0.019364806,-0.59375906,1.1547896,0.5893297,1.2485754,-0.08294861,-0.4361252,1.2489765,-0.26304054,0.6868749,0.5805349,-0.322959,1.3178731,-1.2360319,2.0906415,-0.1665552,-0.49311873,1.5220847,1.3462924,-0.19410144,-0.08464319,1.0085157,-2.5908878,1.5458918,1.3761339,0.6330976,-1.0978816,0.8771393,0.1292055,0.6955162,-3.1674695,0.21346577,0.5573374,-0.2099524,2.0724792,-1.1088955,0.66256934,-0.6373538,0.23782213,-0.39618292,-1.7845747,0.55903816,-0.9762425,1.4926213,-0.13092051,-0.18060002,0.018519767,-0.51171803,-0.9841308,-0.97402924,-1.1512833,-0.8606616,-0.92584085,0.21022333,-1.1768444,0.59767187,-1.1563237,-0.14914955,0.77224255,-0.44474575,0.57924724,0.86171687,-0.2776314,-0.89770645,0.6734762,-0.7776827,-0.681915,-0.63807,-0.02442349,-0.47185054,0.05623137,0.59168434,-0.51974094,0.26150218,-0.71140397,-0.5522292,-0.40662482,1.2883223,0.64223915,-0.7750989,-0.28362584,0.20181148,1.9630002,1.0484817,1.9898632,0.72026235,-0.12813298,-0.14626779,1.8375425,0.3933121,-1.132717,-0.6231311,-0.75033736,3.2833405,-0.83374274,0.98651284,-0.4855799,0.67372847,0.67878425,-1.4429656,-0.080686584,0.0063891006,0.5516242,0.9033752,0.9606798,0.44633725,-1.0112014,1.0643183,1.7573961,-2.0968654,0.3100108,-0.5342545,1.0118927,-0.102650985,-0.0270281,-0.4795475,0.69806314,-1.1837715,-0.28255832,1.9147594,1.2854522,-0.08288274,1.1167634,-0.8838471,0.65704197,0.87221056,-0.8385711,0.5174207,0.090385705,0.86537737,1.2181596,2.8648431,0.34951007,0.10614362,-1.5545748,2.4459698,-0.5893506,0.83978575,-3.028407,-1.626481,0.5953808,0.23997864,-0.9754296,-0.06327006,1.9739041,1.3269018,1.4798008,0.89385575,-2.348179,-1.3397585,-0.74909395,1.0996623,0.29143503,-0.14426571,-1.0955313,-1.5721924,0.9186471,-0.68460137,0.62818253,-1.0780172,0.71959054,-1.1062802,1.3379152,0.089463614,1.7263552,-0.016918408,0.60099256,1.0319068,0.71768886,0.4833804,-0.34702697,-2.219355,1.031655,-0.77918196,1.6273522,-0.14794557,-0.87546575,0.68942344,0.042739693,0.09621937,-0.005109339,1.0588644,-0.12969816,-1.0904136,0.044419874,-0.76876605,0.8301549,-1.6419662,0.3658792,1.4767408,1.4988307,0.7610945,-0.7323932,1.163329,-0.2174203,-0.7069052,2.0144775,0.344525,-1.3921621,-2.0472593,-0.99507326,-1.2539597,-1.0356089,1.7046002,-0.5916774,1.8184978,-0.22359654,0.60365754,0.5987525,-0.667323,0.7680184,0.8273342,0.25621194,0.37973198,-0.8715826,-1.8224272,-0.29708764,1.3847401,1.2024841,-0.61568415,-0.81464344,-0.72272575,1.2244576,0.93147767,-1.0660609,0.6653491,-0.19050314,-1.5188873,1.3427879,0.25079525,-2.0476153,-0.37378845,0.16923933,1.4328225,-0.3729916,0.8183015,0.17043966,-0.09737541,-0.5008159,0.30580595,1.0925088,-1.440262,0.72151375,-1.5583149,0.534444,0.4731346,-1.402803,-1.1620572,1.3096808,0.16346185,0.31282127,-0.78999645,-0.13722377,0.15480818,0.8556378,2.0170264,1.4591038,0.5027322,-0.14857885,-0.6956117,-0.36039987,1.0582163,0.037796754,-1.28457,1.282172,-1.2125349,0.111036874,0.7576739,0.68683636,-0.011726976,0.0048836344,-0.7483132,0.29013374,0.3784238,0.71912396,-0.13257316,1.2323778,0.5624366,-1.9102259,-0.8493216,-0.7922096,0.75237596,0.09073429,-2.4241939,-2.0880206,0.4373229,-1.6780144,0.5617449,2.0978506,-2.6362584,1.4812697,-1.0761923,-0.9581406,-1.4527036,-0.94802886,-0.68979263,-0.28748646,-0.19629967,0.42553452,-0.7331968,-0.2329876,0.4574407,0.07923636,-3.7745953,-0.874604,-1.1251925,-0.21822706,0.016429547,-0.35303247,-1.7425939,0.40981272,0.33286956,0.7965174,0.04739588,0.13971911,0.08289459,0.659652,-0.663771,0.81863254,0.55937725,-0.9853722,-1.49845,2.1024716,0.087572716,-0.3978738,1.2279664,-1.4502804,-0.3627172,-0.7358368,-0.8792227,-0.5623753,0.50003636,-1.8420519,-0.18913747,-0.18469709,1.376174,-0.6902679,0.26752296,-1.3999829,1.2570387,-0.38486382,1.3117875,-1.299537,-1.1600592,-0.36602265,0.60708624,0.841487,-0.82240206,1.5182335,-0.837355,-1.6482258,-1.6115332,1.1451871,0.34873852
CPD,-0.06409573,0.8786219,-0.3245868,0.362367,-0.07725881,-1.267648,0.6638212,-1.2488538,-0.122744,-0.7559995,0.27931842,0.54941314,1.1099863,-1.0562687,-0.018734813,-1.3789394,-0.8961082,-0.51087135,2.1094587,-0.18004628,-0.61382157,-1.08631,-2.9517605,-0.7737616,1.9946588,0.9629254,-0.1587579,1.0450356,0.26551446,-0.40084156,-0.95999914,0.08874861,0.5576449,-0.47396454,1.9219677,0.10200313,-0.05064467,0.5102033,0.15395375,0.7138154,0.7211791,-2.168878,-0.19077203,-0.8958229,-1.8817886,-0.68044424,0.84300935,-0.67752814,-1.3021667,-1.1579823,-0.7805576,-1.6462586,0.19055034,0.8054135,-0.29870123,1.2633408,1.1908958,0.7551414,0.7583286,2.3644972,0.9783041,0.57968,-1.9481816,-1.7492317,0.24905665,-0.16399626,0.69014037,0.42728418,-0.10931628,0.16335233,0.5956371,1.2757674,-1.0194736,0.93849975,0.94530225,0.8516413,0.36139584,-0.0703864,-2.13392,0.947067,1.035838,-0.09412846,0.927244,-1.2165186,-1.1980815,-1.3136489,-1.7760392,-0.04637538,1.1572305,0.45870394,-0.3434181,0.49862978,2.0513487,-0.6526904,0.23583508,-1.5038699,0.13478963,1.0926116,-0.07309907,0.9943765,0.37082878,-0.5467808,-0.73501486,-0.4107563,1.4851923,-0.9515036,0.28164893,1.0694185,-0.18014534,1.225529,-0.4425021,-1.2536771,-1.7783092,-1.056328,1.4302036,1.5868695,-0.18553118,0.57535094,0.33939078,-0.9699104,-1.1281644,-0.9685687,-0.31755885,0.9157681,0.20348789,-0.13320556,0.90032524,1.7563242,0.6544983,-2.1089604,0.9636636,-0.040481377,1.5600928,-1.627003,1.5338273,2.6892927,1.2757373,-1.5037981,-1.2135011,1.0983627,0.10201209,-0.70042574,1.0135436,-0.44082922,1.3361502,-0.8922275,-0.2227044,-1.4128779,0.40617585,-1.451483,1.6315193,-0.04363571,-2.1714087,-0.100284435,-1.2380463,-0.42778754,-1.7664663,-0.0550814,0.36658496,-0.026620632,-1.0729398,-0.28914675,-0.022427082,0.53504217,-2.130837,-0.0039458666,-0.014001767,0.536304,1.3017044,1.1902308,0.45890132,0.70244384,-1.3328148,0.12636936,0.5091145,0.7177274,-0.33170906,-0.17289563,-0.8934828,-1.7251354,-0.96315277,-1.2582725,-1.721669,-0.5130814,0.7386939,1.3583729,2.1406162,-0.7783795,-1.6727475,-0.23602788,0.54278374,-0.25972292,2.800392,1.2249314,1.3600006,-0.3219448,0.5153055,-1.5100626,0.6953892,0.12241494,1.367487,-0.9216032,0.40231353,0.5615388,-0.31115833,0.6859538,-2.3057125,-0.16537745,0.20163779,-1.3126326,0.14285274,-0.32984486,0.68426186,1.2957175,0.5388413,1.478002,0.44875377,0.9720898,1.4550934,0.21447214,0.43076625,0.5086015,1.433788,0.24248268,1.887669,0.55835366,-0.8319264,0.11898903,-1.8765414,-1.2822286,-3.099354,-0.7370834,2.331566,1.1075515,-1.6603988,-1.6234297,1.1402696,0.27474084,0.60083115,-0.6494555,0.033596534,1.0689095,-0.48789716,0.43562263,0.4607938,-0.17079517,-1.8171402,-0.16488048,1.0369177,-0.020667454,0.21368481,-3.5005193,-1.5646183,-0.18690597,0.46463192,1.9497819,-0.97952425,-0.24481632,0.692192,-1.0290409,0.7570561,0.24884595,-0.19244795,-0.53530824,0.6121368,0.666509,-0.5751363,-0.09424078,-0.0040518465,1.167222,-0.5368353,0.03641886,0.8271121,-0.039629046,0.36608535,0.75967443,-0.22670141,0.98087424,1.1920476,-0.51406413,-1.3814297,0.04942177,-1.4053371,1.1467499,-1.4925084,-0.51198727,1.2239188,0.6226908,0.51635414,-0.3008202,0.533374,0.12418242,2.019848,-0.12717345,-0.5968415,1.8633486,-1.3038609,-1.3131679,0.07466526,-0.4630017,0.84153926,-0.8417212,-0.6655701,0.6045737,-0.1376188,-1.5057125,-0.827901,2.769352,-0.6069882,-1.5563858,-1.2634263,-1.2107898,1.9323045,1.768559,1.5401402,0.8700268,-1.1296728,0.10401392,1.4856145,-2.00669,-1.635654,2.1707134,-1.0295968,-1.284701,0.2259892,-1.5339586,0.39043096,0.7343391,0.2551965,1.2759874,1.5440377,-1.0697163,0.06922757,0.3346503,1.9602779,-1.6805898,0.9986535,0.048667748,-0.22353286,-1.3307402,1.6095508,0.07541481,0.85981387,-0.5942069,0.6234385,-0.74649817,1.6041644,-0.7662088,0.31619835,0.47210875,-1.4312708,0.7819264,0.039722353,-0.4776716,1.2090305,-0.09155166,-0.074166015,-1.8753564,-0.44642198,-0.61444503,-1.0982739,-1.0645509,0.2725484,1.4348937,-2.49525,0.7045775,1.2039398,0.45609048,0.3361007,-0.3704552,0.6498034,-1.6814612,0.03657341,-1.1919147,0.14077137,-0.67922455,-0.31662452,1.4230995,1.0735059,0.025176069,1.0001104,-0.4833413,0.47542042,-1.4483285,-0.65206134,0.80503374,-2.5781934,0.40390116,1.4154257,-1.0237945,0.24170661,-2.2837462,-0.82999915,-1.1156207,-2.1384034,1.7368324,-0.7589963,-0.18819828,-1.336491,0.023077896,-2.5663874,0.6789885,1.9917938,-1.0660559,-1.3703618,-0.77577776,1.6495829,-0.4060615,0.39301723,0.29476586,-1.0502505,-0.86588913,0.8343638,-0.0676447,-0.6178733,0.315806,2.5814848,0.057235505,0.12664929,0.9790159,0.34466007,-1.8281803,0.360193,-0.34478348,-0.16833888,-2.8689082,0.9414815,-0.5305011,-0.8379405,0.11468338,1.5548955,-0.18395388,0.08520379,1.1755245,-0.9181949,-0.12189354,0.66146183,-0.15679121,-0.672911,0.3765723,-0.505814,1.0236614,0.13909966,2.1548417,-1.2119156,0.7652193,0.8187088,-0.18723951,-0.5001579,1.3589848,-0.53203416,1.2257226,0.86709666,-1.1336765,0.85962164,-1.1482188,0.45355543,1.0664898,0.943866,0.8686623,-0.13803643,-0.7807337,-1.4904698,-0.43430007,-1.7714927,0.9414291,1.9633079,-1.3311143,-1.0650153,0.9466501,0.4996734,0.46538055,1.1802957,-0.09682116,-0.44560564,2.050202,-0.7837515,1.0349116,-1.2353945,-2.366707,0.6642805,-1.2819891,1.2841263,-0.07484111,-1.6754274,0.76537275,-0.35143283,-1.0628278,1.2180326,-0.30197385,2.467132,-0.15922077,1.0143371,-0.43237942,0.73448837,1.6010071,0.42276666,-1.2717121,-0.24636818,-0.9849079,0.026558056,1.0121537,0.10516959,0.963057,0.66848445,0.54518986,-0.18133716,0.29165044,-0.86156917,0.6511078,0.80689883,1.9799441
CPE,-0.32986662,1.3341488,-0.7798085,0.52164024,-0.74172074,1.075215,0.0075579025,-1.1892099,1.9345639,-0.54881203,0.32054484,0.18227275,1.4634714,-0.79339856,-1.2745119,-1.411757,0.6138723,0.30309418,-1.4344299,-1.4561732,-0.36539754,1.3954489,1.9151088,-0.14850047,-0.88770884,-1.0148759,-0.50202936,1.0388241,-0.9895433,-1.4280431,-0.22682327,-1.1626914,-0.76506716,-1.0383554,0.8617795,-0.006980116,-1.8228406,0.9286242,-1.6691369,0.9939353,1.2258283,-0.6469886,0.4116463,1.4208789,-0.53933674,1.1882863,0.76838094,0.69050115,-0.17662588,1.0318573,0.18168505,1.9373134,-2.0536075,0.8835404,-1.4438682,1.8952955,-2.120604,0.9876268,-1.3195704,-1.5111314,0.0021091471,1.830957,-0.32613832,0.34078124,2.506596,1.625677,-0.39376208,1.7581828,0.49103102,0.2395549,-0.4282083,0.13270168,0.29929683,2.0825915,0.49477795,0.34779686,0.6050159,-0.98497283,0.5419308,0.20637499,-1.0411922,-0.47541326,-1.0283042,1.7174317,0.18690383,0.9657823,1.1147562,0.5193577,-0.65375084,0.56011647,0.7943371,0.67767036,-1.0480978,-1.3682112,-1.3989357,1.5765433,-1.4340239,-1.7986456,0.04698138,-0.93091685,2.0656404,-0.09333824,1.0701151,1.0484816,0.46491322,-1.2317097,0.20711094,-0.33815652,1.6266071,-2.3920028,0.48809525,1.2841003,1.0517789,-0.49721453,-0.6477129,-0.10525148,-0.22090732,1.0718027,-0.2041421,-0.93816984,-0.8248458,-0.27051374,-0.26733056,0.29830053,-0.884457,-0.89817196,-0.72652453,0.505214,-0.024437401,0.4854916,1.1286657,0.7387284,2.1300523,-0.34330222,1.3213179,2.1030955,-0.46216643,-0.63269836,-0.29728472,-0.55812746,-0.7673859,1.125736,-1.5507988,0.61094284,0.26536438,0.70768964,0.19619302,-0.12962106,-0.8451074,-0.15722099,-1.6400566,-0.36476797,-0.884345,0.8594428,-0.8899269,0.37006885,0.23471753,0.40756577,-0.7962258,1.1469611,0.7655587,0.9617017,1.4883192,1.4012817,-0.6345532,-0.20090431,0.6884003,-0.8445439,-1.8080218,-1.5719279,-0.3464507,-1.7605894,0.85113174,0.20342568,0.74193245,-3.7694669,-0.93606204,1.1123966,-1.5555558,0.2789187,1.3374112,0.19257742,-1.8895146,0.76138735,-0.20696571,1.057626,1.6010535,-0.84403014,-0.8290414,-0.60709107,0.037279837,-0.5711227,0.62098277,-1.6895106,0.47434154,0.073879704,-0.91649973,-1.5236607,-1.0411575,0.66100675,0.29316106,-0.392106,0.9020941,0.11619917,2.179271,-0.6554743,-0.8883032,0.235744,-0.36227894,0.8493188,-0.45215237,-0.634079,0.75824,-1.2728441,1.1228019,0.44853392,-1.086963,-1.1113949,0.9089499,0.72081786,1.8493793,-0.17637244,1.5266737,-0.91892666,-0.8322167,-1.6201252,-0.25816584,-0.45795682,-0.20289713,-0.39159453,2.080216,1.2637309,1.2277303,-0.30974668,-2.434413,-0.057378445,1.4320341,-1.278785,-0.5477434,-0.43059728,0.018429892,-0.4378974,-0.002531839,0.5200336,0.6427743,0.71475947,0.39450637,0.3113087,-0.090551555,0.92119247,1.7909144,2.3862662,0.980242,-1.6323277,0.8994196,1.6018726,-0.07244414,-0.31421563,2.2286215,0.72733,1.8792844,-0.92675596,-1.4385566,-1.3255049,-0.3188161,1.4144367,0.093427815,0.849828,-0.069120176,0.3952181,-0.20059459,0.69973373,-0.7454392,-0.33301413,0.69111186,-0.8428945,-1.2108918,-1.8408422,1.4937255,0.28812167,-0.40907004,1.9590533,-0.6518272,0.09223473,-0.58473605,0.14901929,0.84638065,-0.76611906,-0.36670744,0.7178775,0.7430853,-0.2608546,1.1670897,-0.867202,1.5099766,1.5093732,-1.223089,-0.9054332,0.59721553,0.6575033,1.8607538,-0.60641325,-1.6434978,-1.2713953,-1.1134485,-0.41620257,-0.9476725,2.2521296,1.7715318,-1.1445084,-1.047848,-1.4661007,-0.58569974,-0.25946382,-1.0352867,-0.775721,-0.3747818,-0.5436405,1.5997969,1.3729272,0.2684181,-1.7967235,-2.0115979,-1.5831324,1.2926092,-0.23778196,1.001201,-0.9267943,0.44303316,-0.015205418,-0.15179582,0.04654485,-1.7120773,1.0381197,-0.686432,1.330488,-0.15944935,-1.2680442,-1.6017919,-0.52996475,-1.385695,-0.2735271,0.7617251,-0.28500873,1.3278058,-0.5418166,0.65919566,0.92767584,0.79596025,1.430256,0.7508863,-0.33156842,-0.41372874,-0.35258308,-1.1545588,1.0634781,1.8900648,-1.5473115,-0.8572137,0.18392508,0.6047139,-0.5731303,0.3543216,-1.6975203,0.10773078,0.88174444,0.56878227,-0.46884343,0.8526822,-0.11503582,0.9000854,0.36636913,-0.4071926,-1.0984483,0.04922922,0.8292464,0.4976252,1.5563205,-0.5365142,-0.7110622,0.29110733,0.32401994,-0.13403465,0.36942017,-1.8610927,-1.0170789,-0.6448102,0.8877803,0.73398894,0.3378632,0.1284572,-0.20114543,2.1593444,-0.13372318,-0.46097273,-0.35942435,0.33514482,0.23437169,-0.34703198,-0.83886707,-0.2801919,1.3460923,-1.0468943,-1.067992,-0.06725333,0.99382806,0.7305389,-0.651882,0.311792,0.89183,0.9713757,0.9428965,-0.7625108,1.0001249,-0.14594755,0.9556108,1.7372408,1.3746098,-0.86360586,0.43023273,-0.6000935,1.3559713,-0.36672732,0.8987883,1.1816499,-1.0570794,1.526408,0.6017278,-0.8340846,-0.9580104,0.773382,0.12757175,-2.036946,-1.0453982,-2.6207225,0.96232224,-0.058344483,0.6562884,0.22362152,2.022796,0.36242196,1.1369182,1.1962742,-0.26300222,0.33444828,0.7573774,2.0519621,0.6792241,-1.3969871,-2.1885655,1.3635544,1.1571083,-0.9802767,-0.31145912,-2.637274,0.73985994,1.4025596,0.68840605,0.3835206,-0.35189414,-0.74084324,-0.5434966,0.90321237,0.061038885,-1.2015566,0.29723927,-0.13618697,0.7828295,-0.14230002,0.7896724,2.0971766,-1.7106755,-0.2762578,-1.6757313,-0.8141475,-2.0266917,-0.29788586,-0.8119935,-0.06998777,-0.36921397,-3.2983642,0.6025575,-0.39785302,-0.35239962,0.37541902,-1.4661764,-0.13100159,-2.74049,1.1883196,-0.049720403,-0.8635232,2.1318357,0.240735,-0.2555869,-0.023665614,-0.044324763,-1.0341421,-0.5678711,0.2233862,-1.0310022,-1.3591462,-0.61031795,0.54489046,-1.6740562,-1.4143506,0.8326586,-0.5524739,-2.1108775,1.1212765,0.17468776,2.1810236,-0.7217073
DERL1,0.93110776,-0.24131717,-1.8059747,-1.8688082,0.98946595,0.2909381,1.2434391,-3.2475367,0.33905536,-0.93128055,-1.3132114,1.1193726,1.296138,0.48077822,0.6817196,-0.5767536,0.7446901,-0.08031993,-1.9940434,-0.53307056,-0.49440277,1.6332113,-2.1312602,1.3437235,-2.7339652,-0.78142947,-0.9853438,1.9354291,-1.0346377,-0.43393466,1.3216357,0.72412795,0.9809717,-0.396128,1.1456009,0.38478354,0.85012126,0.40361577,-1.5026734,0.31497335,0.77499926,-0.87568593,1.7186083,0.31812608,0.35372552,-0.51000905,0.18588674,-0.85031354,-0.595327,1.2809467,-1.2364908,-1.5225301,1.5211082,0.8066392,-1.2777482,0.53211457,1.2578232,-2.6685753,0.22590739,0.6701222,0.5115142,1.9110119,0.43378296,-0.06376812,-0.24595088,-0.73295003,-0.7109376,-0.11759931,0.9092409,0.36807543,0.19805619,-0.09536659,0.29065982,-0.22763367,0.62305343,2.5266728,2.1802974,0.29616386,-1.6942707,2.0798573,-0.4811262,0.9078864,-0.26093003,0.30933252,-2.0074635,-0.67589533,-1.227518,-1.521546,0.9730525,-0.25071824,0.5396724,-1.2825773,-0.57338995,0.26124123,-0.6187733,-0.89321107,0.4428763,0.5288431,0.31532606,1.6888783,0.38406926,2.085904,-0.5714825,1.4826097,1.22945,-1.2137897,1.0801021,-0.21292795,1.1547545,0.5755317,-1.1236023,-0.28850815,0.5218234,1.4362278,-0.97766924,-0.46155354,-0.085775666,-0.928233,0.8135363,1.8586881,-0.29304972,-0.9607221,1.2699095,0.3210261,0.84067017,0.072983265,-1.3475064,-0.22837147,-1.1195885,-1.4082857,0.317198,-1.3831998,-0.4477436,-0.858337,-0.28766394,0.8321253,-0.13029775,0.92746675,0.89579046,1.3585253,0.107281774,-0.7117773,1.9055272,-1.9073391,-0.22512586,-1.5504099,-1.1304961,0.0029653183,1.6393532,0.82052875,0.41850692,1.6428276,0.8423691,1.3294607,0.18059169,-0.034092527,0.30438516,-0.54313314,0.24352124,0.75016767,-0.42082685,-0.065355,1.7762432,0.74134606,-0.5778236,0.3579986,-1.074971,-0.92647094,0.73778415,-0.5231774,1.0084652,2.092082,0.5458763,-0.83714134,0.70237076,-0.6528853,-1.4631996,0.54177064,-1.683876,-1.3868222,-1.1882255,1.3261805,0.41522026,-0.4996716,-0.3747956,0.9787045,1.6180769,1.1695391,-0.6684899,-1.8485434,-0.61110145,0.22573693,1.8179715,0.20822367,-0.21475089,-1.0774971,-1.7876424,0.4634021,-1.5523249,-0.91945565,-0.6011003,-0.9458443,1.2668229,-1.0108304,0.08913208,2.2424378,1.0349033,-1.443449,-1.7682081,0.27688116,-1.2434893,0.326138,-1.1470325,-0.8033701,0.059839748,-0.055614177,-0.21169777,0.30288768,-1.0542208,0.60531694,1.6876645,0.45754203,0.36739513,-2.0538948,-0.5231711,1.133322,0.23653376,-1.8902072,0.6267057,1.3547027,1.9990165,-0.9061627,1.3698587,-0.89782083,0.07725156,-1.4763832,-0.9083252,1.2140594,-0.26825914,1.3686944,-0.6601241,-0.513614,1.3830346,-0.05851804,0.63027984,-0.017845865,-3.1982198,-0.3079591,-2.2532642,-1.0473925,1.6955723,-2.463401,0.9691327,0.005162135,-1.0412848,0.5099959,-0.65281457,0.1218398,-1.8004925,-1.8527458,-1.6566886,0.92803425,0.2991178,-0.83556545,-0.313672,1.0567232,0.8050878,1.583021,-1.1844531,0.94195473,-0.5491076,-0.058369346,-0.8848084,2.2517412,-0.8424692,-0.18518761,1.0009118,0.08273379,-0.6644279,0.6599726,1.396295,0.03021076,-0.90539116,-0.32530203,0.015034635,-0.5761318,1.0638677,-1.2075638,-0.93056256,-1.3772669,-2.0909257,1.2527838,0.72643375,0.66649216,0.1576754,-0.54485077,1.6560575,1.0006601,-1.578379,-1.1143465,-0.56848997,-0.39195088,0.14671837,0.41673812,-1.4796089,0.26329073,-0.35663489,-0.39153036,-0.8717463,0.021339625,0.85777074,-0.007465005,0.22971196,-0.3101711,0.85567516,-1.0818673,1.919319,-1.0259044,1.50798,-1.5700918,-0.45385644,-0.098373,-0.3804746,-0.09533763,1.4151305,-1.4824711,-1.4316562,-0.79017776,0.4258054,1.0598943,0.52032614,0.7022979,-1.7049396,-1.9961199,0.597318,-0.93849605,-1.366027,0.80874705,-0.86967546,-0.5769493,-1.754438,-1.1608005,-0.031055083,-1.915883,-1.6550493,2.0604508,0.026196199,0.19412626,2.4853969,0.8946909,0.52096367,1.0574391,1.9473876,0.2356837,-1.4911816,-1.9656528,-0.13030198,-1.6501935,-0.8629109,1.5841272,1.0250027,0.61581993,-0.63169044,1.3246478,0.21812594,1.5315925,1.5492288,0.9213192,-0.7156875,0.61841625,-1.2448663,0.14585006,-1.5935757,-0.24699481,0.9206234,-2.615438,-1.0463442,0.5436189,2.2907264,1.6810993,0.8582778,0.077753484,1.7725314,-2.283231,0.16797186,-0.8708491,-0.4753022,0.93052155,-0.6063031,-0.7917778,-1.755996,0.25956133,0.4246642,-0.2919405,-0.88559,0.38786143,-0.8110597,0.34312174,-1.2272512,1.3960543,-1.7203134,1.8417543,1.1924839,0.5146843,-1.6547072,-0.08732932,0.26088884,0.7188686,-1.0836821,-0.7163202,0.47720063,-0.6821062,-0.055840336,-0.69537437,0.7519893,-0.7466611,1.6316789,-0.75036514,-0.9020447,-1.6138043,0.3941006,-1.7653629,1.4346975,0.47703424,0.5652934,0.24537425,0.39463592,1.7982938,0.28408816,-1.2106514,-0.38069162,-0.8548487,-0.007520628,0.5950357,-0.87313575,0.029568508,2.1680222,0.005625892,-0.120420635,-0.20188235,-1.4215614,-0.29063213,-1.4527678,1.8430362,1.3950793,1.1587336,-1.0167296,0.53044534,-1.8460498,0.1168237,1.3162003,0.68351334,0.17557386,0.9615827,1.1534263,-1.7622241,1.102596,-0.66173923,-0.70397174,0.644742,1.3707916,1.1947342,0.85325307,-0.5250767,-0.44451505,0.30565143,0.22698471,-1.0245649,0.8821124,-0.08866643,0.15314363,1.7820443,0.04403974,1.2144488,-1.4639605,1.0477148,0.73255306,1.3697927,0.2113921,0.73882836,-0.54314077,-0.6837515,-0.16038984,0.54084384,-1.332277,0.9461143,0.8774991,0.18625838,0.31026042,-0.60427445,0.28387052,1.5031383,-0.36651227,0.36242834,0.6672031,1.6678228,-1.752431,0.9115818,-0.43735254,0.4360038,1.9655114,-0.91941243,0.08201361,-0.53945047,-0.09001215,1.2308525,-0.30636567,0.6393376,0.14567906,0.865601,-0.07558607,0.5204358
DNAJB12,0.9972108,0.9798647,0.75898933,0.6723605,-0.12573385,0.10119327,0.249538,-0.17149808,0.19242328,-1.2162755,-0.12663323,-0.56324595,0.9415092,0.003161399,-0.73404926,-1.0048714,-0.7105288,-0.89311814,2.1396885,1.3097839,-1.4066749,0.06056342,-1.325184,0.06244734,1.3077279,0.7331106,1.0191107,-1.2561132,-1.4532791,-0.36181232,-1.7220304,1.363734,-0.9697673,0.57359344,1.901191,-0.028531766,0.4070334,0.402694,-1.0065087,0.38363922,0.9848495,-1.2012694,1.7402648,1.3986988,1.6092932,0.087326236,-0.7444589,0.8941659,-0.34967938,-1.7118778,0.54046947,-1.0037508,1.7181356,-0.7974488,0.90401465,-0.48281196,1.8840011,1.5703143,-0.19720806,0.8051728,1.0858738,-1.0642955,2.0012236,1.3849636,-2.9821124,0.976091,1.0129483,-1.438804,0.2610746,0.42195886,-0.6607552,-0.8719366,-0.6179027,-0.25709847,-1.0941342,0.08687622,1.6248972,-1.6487377,1.2657102,1.7620231,1.5468192,-0.047097635,0.45605603,-1.425871,0.95573705,-1.0061562,0.11105178,1.7103248,-0.359094,-0.18894608,-0.9626861,0.79632205,-0.012787551,-1.7482551,-0.08018393,0.25053915,-0.1679011,0.8019877,0.8321962,0.7156657,0.5149908,1.9642813,0.8281003,-0.66097766,0.781852,0.5280305,-1.5903549,-0.50739646,-0.07614023,2.1309981,0.20882885,-1.6407576,-1.9008839,2.5952365,-0.6440322,0.78819746,2.0623572,0.92340916,1.954111,0.35698035,-1.1570058,1.8743558,-1.4483099,0.6902297,-0.19235104,-0.9225036,-1.4311699,-0.6366575,0.3433843,-1.0000683,-0.4653942,-2.0549977,-1.173207,-0.512802,0.16144975,0.82504433,0.11087083,-1.1543142,-0.50249726,1.642421,1.0489163,0.918899,0.94464636,0.011603957,0.5575599,-1.2675226,0.5218169,-1.2475721,0.23738456,-1.8654387,-1.2777158,-1.388229,-0.54462135,0.16063903,0.44762167,0.43842512,0.9276027,-0.12793747,0.2655495,0.12731674,-1.3226721,-0.5861564,0.014585562,0.74033636,0.14559872,0.6231583,1.5744795,0.96516603,1.1100318,1.290429,0.5128542,-1.4218,0.8123076,0.030904716,1.1568538,-0.80108786,0.45342425,-0.23246968,0.35561594,-1.4878644,0.5339358,0.5214211,0.4017372,-1.1354992,-0.9528772,0.25054726,-0.77765906,0.9586211,-2.8464615,-0.9401157,1.692981,-0.7162461,-0.30835447,1.4022795,0.9832345,-0.01176768,-0.07384231,1.0459871,-1.0171219,0.5048965,-1.8523318,0.7965258,-0.5766496,1.2913326,-0.53032345,1.3422318,-0.3975381,0.09175069,0.5066037,1.6803025,1.5244709,-0.46772972,1.9361,-0.46172258,1.5801497,0.4069505,-0.23698626,0.20142598,0.28163436,-2.4450054,2.4600194,-0.31384924,-0.70047873,-0.49836135,-1.9501623,0.0023682571,-0.88450277,-0.1293168,-1.6939799,1.1603835,-1.4338186,0.9202437,-0.8497169,-1.6619421,-0.42649195,-1.3162631,0.87013996,-0.59005207,0.7706065,-0.040939268,-1.2212776,-0.657197,-0.2869592,2.643038,1.1518412,-0.14685416,-2.466853,-1.5383943,0.30393803,-1.7908452,-1.1643571,0.8160947,-0.16416743,-1.1868755,-1.4955658,-0.13111803,-1.6177198,-0.12375365,-0.19779474,-0.79657286,-1.1119102,0.23741584,1.5213852,-0.03959934,-1.0691468,1.1755104,0.8833627,0.44824466,1.6603777,-0.2432511,0.7127882,-0.18633138,0.8100596,-1.3485434,1.6599538,-0.006183936,0.9921414,-1.13866,-0.6215921,0.44267017,-0.28771707,1.7489537,0.41959497,-0.6570136,0.3504282,0.09358746,-0.64050174,-1.4108673,1.6564074,-1.2588096,-0.6640849,-0.07276778,-1.9704872,0.8254123,-0.5066025,-1.3706875,-0.21569057,0.9037226,-1.7572514,-0.668249,0.5032684,-1.3978151,0.06275675,-1.0985569,-0.8907441,0.2837943,0.677034,0.8496763,-1.1822442,-1.385208,0.8954444,-1.229309,-1.7910962,-0.01695646,-0.505273,1.2565941,-0.054944564,1.0851644,-0.6227275,0.7583447,-1.9342307,1.342514,-0.39913037,-1.5961634,1.0136882,-1.787578,1.7727342,0.45770475,-0.80954933,0.85717744,0.620905,-1.4448475,-0.37604716,0.9864602,2.0061078,1.6290407,0.7366053,0.49081427,0.41525662,-0.10260132,-0.9049626,-0.36488846,-0.3959171,0.014314031,-0.36777312,-0.50599664,1.0699806,-1.6570858,1.548498,-0.065322004,0.66890025,0.085914634,-1.4098006,0.014589918,0.27967906,-0.6412317,1.0923848,-1.2435739,-1.317561,0.64126456,0.22692066,-1.4568518,-0.5740519,1.4506254,0.21361741,0.94340223,1.0886391,-3.160147,-1.2650074,-1.0127013,0.5669969,1.447828,-0.130613,-0.019047039,0.19801264,-1.6594753,-2.0963967,-0.956489,0.572843,0.79291373,-0.1116254,1.1804163,-1.5730014,-1.2129707,0.7862014,0.48428854,0.2160988,2.7597253,-2.2917914,-0.8933752,-0.7070019,0.63932174,1.2689964,1.1116993,1.3162868,-0.10881002,0.8259332,0.42131034,1.4513046,0.97282225,0.45201313,-0.8292024,0.67374945,-1.4488958,-0.9792173,-0.10696203,-1.0618428,0.80729634,-0.32680005,1.3769269,0.10584869,-0.40175655,-0.93597275,-1.3182868,-0.2958109,-0.68328303,0.046499766,0.29954943,-0.8144438,0.16423386,-0.44184807,0.26078597,0.0013150636,-2.7377048,-0.57734525,-1.4042815,-0.29882565,-1.0011549,0.74355084,-0.9355218,0.9467675,-0.92351323,-0.70365465,0.6104374,-0.5331328,-1.380949,0.92806786,1.1629871,0.89261734,2.013576,0.54882157,-0.12261478,0.6708664,-0.02813255,-1.9470209,0.027565846,-0.14480714,1.3398805,-2.3593724,0.7038113,0.84944093,0.33339873,-1.7170789,-0.6460862,-0.20360138,-0.71520215,0.4663226,0.25784507,0.8833888,1.4346727,0.80524975,1.6639833,-0.8731165,1.2835829,1.1997255,0.4511517,0.6520653,-1.5463784,1.5957134,-1.4493049,0.48036054,1.056744,2.0045128,1.9425449,-2.092909,1.1753561,1.1198456,-0.31842265,-0.96095926,-0.3111013,0.33749348,0.111699276,0.98155314,-1.8355988,-0.6586932,-0.5400483,-0.4074079,1.3945853,-0.9412241,-0.35117447,2.62496,0.67886853,1.6239852,1.3436686,-0.5940396,0.18491893,-0.18854517,-0.82187474,0.21077925,-2.060234,0.32277074,1.2236103,1.7474536,-1.4949898,-2.0171258,1.5270205,-0.21208337,0.28003392,0.033766724,-1.4889227,0.2099015,-1.6638122
EGFL7,0.6795173,0.5468745,1.9057387,-0.27583385,-0.01986653,0.6051668,-0.7779668,0.63513064,0.51320606,0.11900008,-1.2078273,-1.2779051,0.7814301,1.4734635,-1.4671868,-0.9419579,-0.5017499,-2.5784092,-0.7620071,1.6730403,1.7287201,-0.4866891,1.5574732,-1.0757214,0.513928,0.89286894,-0.2460629,1.9171946,1.200098,0.99469507,-1.9589006,-1.5036097,-1.4722743,-0.5211655,1.5280188,0.61960304,0.87189007,0.28336242,1.4654737,0.537707,0.7062743,0.45974985,0.4962758,0.4614989,0.119644426,2.371183,-0.3660261,1.0441546,1.2703636,-0.44670334,-1.2744215,-0.26768303,-0.5597843,0.77924865,-0.03165092,-1.9996232,2.6889029,1.8793151,-1.6524459,-0.2763185,0.8631341,1.4488748,1.3556864,1.1352339,-0.92578804,-0.27464825,-0.9409048,-0.5792695,1.1869849,0.8179839,1.3989409,-1.3844419,0.75700563,2.214698,0.7747879,-1.2092288,-0.25517526,-0.516953,0.5366389,0.39586547,-0.103200905,1.6036534,-0.27500075,-0.08730382,0.8599537,-0.91073513,1.5946149,0.49740905,-0.61938965,0.46268085,1.0737454,1.1445312,1.7003597,0.8770195,-2.5960357,-2.1728678,0.21196519,-0.85417265,-0.7533886,0.46281564,1.0536249,0.9091205,0.8921976,0.16932617,0.26645836,-0.5062225,-2.1510987,-0.2689246,2.0022395,0.89529234,-0.94935626,0.1316286,0.41833788,-0.5541765,0.83468044,2.2645614,-1.5736254,-0.27083334,-0.6594173,0.2697869,0.24569711,0.35513186,-0.42168364,-1.630947,2.2863023,-0.17819792,-0.6729339,-1.4318402,-0.17839088,-1.646892,-0.41531006,0.9698409,-0.7302527,0.9547489,-0.19491926,-0.46682012,1.7497196,-2.9909813,-1.2021413,-0.065523945,-1.2613806,-0.0071827127,0.010242957,-1.2988288,0.95347506,1.3359925,-0.91344094,-0.3421679,0.48461735,0.78638315,-1.5881774,0.12883005,-0.30453885,-0.6524465,0.38855866,-1.2940005,0.065781586,0.12953274,0.23789491,-0.29563951,0.4512402,1.5957326,-0.056599144,-0.24755678,-0.6489291,-0.10780986,0.2828657,-0.77665037,2.6483808,-0.4837878,0.8839744,-0.69056624,1.2726729,-0.24655274,-0.4724421,-0.6854883,-0.21998605,0.055284385,0.1271901,-1.0924811,-1.0825164,1.1765635,0.77135015,0.008169243,-1.3243668,-0.7629974,-1.3693075,-0.97167796,-0.35121813,0.26898536,-0.6650161,0.5437104,0.69509465,-0.77917814,-0.060789723,0.16345541,1.4746584,1.4243422,-1.0622923,0.96167254,0.45260876,1.9853818,-1.1960185,1.5421548,-1.8466884,-1.5469034,1.2030452,-0.9433215,-1.056841,-0.9564922,-0.6545749,1.2096753,1.6712819,-0.07848004,-0.68018186,-0.6896615,0.036620397,-1.1487309,-0.8124324,-1.4085,-0.31463897,0.86976546,0.14207931,1.0403167,0.5454419,-1.4549197,-0.46580765,0.17708947,2.3997648,-1.1751136,2.2241786,1.6738453,2.2305212,1.0315453,-0.15786949,0.1709999,-0.88864213,-0.62901586,0.81224203,-0.19171274,-0.85301834,0.29606614,0.800182,1.9572409,-1.4008137,-0.07159649,0.2741607,-0.98811,0.1606906,-1.532016,1.4397284,2.424842,-0.027489878,-1.7465605,-0.79544616,-1.8255748,0.42225856,-0.12832125,-0.23867752,0.30529946,0.1409537,-0.35209963,2.3814573,0.4591823,0.461678,-0.674628,1.2796261,-0.2515688,2.1925123,-0.5523809,0.15556999,-0.36858875,0.5490508,0.025741434,0.43809587,-0.5447597,-0.85095763,-2.1524777,-1.1539439,1.0299926,0.58360064,-0.75989527,-1.5033199,-0.909832,1.6798303,-0.35793936,-1.9246964,-0.7418689,0.1536714,0.085479155,-0.64960206,-0.0027348225,-0.94420606,-0.7598572,-0.059143465,1.6429722,0.64892,0.285902,0.8368495,0.24631996,-0.09322994,-2.1737895,0.32445502,1.0179031,0.6274157,0.5908181,0.565245,-0.7377001,-0.12385274,0.080042645,-0.48772815,2.0776503,0.25436762,1.5172621,-1.5664282,0.40102142,0.47942662,0.82720643,-1.5696322,1.0845202,-2.2784438,-0.5845309,1.121022,0.11743198,3.2480664,1.1922653,-0.9165941,-1.406405,-1.1024156,-1.1492606,-0.13894269,-0.03500131,-0.41073757,0.64352804,0.8196971,-1.1054142,-0.9936898,-0.16141053,1.0122584,2.0157745,-0.73040736,0.018100608,0.5114892,-0.11196996,-0.5548137,-0.96618336,0.28580227,0.57229376,-1.9288089,1.1398674,-0.00644344,-0.29876515,-0.2814325,-0.3404384,-0.016682617,1.0558379,-0.5918199,1.1554983,1.2443925,-0.380309,-0.26422086,1.8627179,1.9360929,1.2712266,0.6820044,-0.62864554,0.6535846,-0.28697428,-0.6786549,-0.8234166,0.61628336,0.9669596,-0.23389323,0.58343774,0.35413852,0.77193314,1.3063474,-1.3568791,-0.16380629,-0.7557539,1.2230104,-0.27008843,0.25094166,0.2359354,1.5474266,-1.0800529,-1.6900289,-0.99270475,-0.29630503,-0.5062208,0.26260772,-0.9951239,0.013757562,-0.16438892,-0.40594614,-0.26647627,0.38462442,-0.80644125,0.8635467,1.8400213,-0.059288874,-0.7161732,1.1668686,-0.2557849,-0.76696426,-1.2882912,-1.9914583,-1.054416,1.2624122,-0.7006138,-0.9755329,-0.8281416,1.7121159,0.532588,-0.71838605,0.8584414,0.17750193,-0.8624966,0.8345839,0.62728435,0.14433786,-0.29446593,1.0649974,-0.85332197,-1.5368726,1.3780061,0.0815843,-1.5034705,0.6822444,0.13275036,-0.17348814,-0.71193725,-1.3623732,1.7312547,1.3568004,0.115139656,-2.5506926,-0.078608975,0.8006413,1.2711711,-1.8017278,-0.684337,0.07834639,-0.52000135,0.3131494,-1.3734144,-0.3669507,1.6942666,-0.97339576,-1.5369992,-0.851027,1.150615,-1.2410958,0.03412136,-0.83481044,-1.0604879,0.6419039,1.4388877,1.1224444,-1.347884,0.39528975,-2.0704832,1.6097733,-1.0925385,0.6354557,0.42136142,-1.0978142,-0.8206423,0.70069784,-1.4586139,1.0286697,0.18366852,0.52902365,1.7020394,0.6215972,-0.054525435,-1.3556247,2.006622,-1.4644624,1.1429935,-0.8132605,-1.6479055,1.116323,-0.4151567,-2.8944345,0.14570658,-1.0114913,-0.56552285,0.66335297,0.9405129,-1.8295305,-1.047098,-0.62271,-0.34322897,-0.6742834,-1.6779723,0.6056957,0.6058151,0.15263957,0.72339803,2.0631268,-1.0207014,-1.7344292,-0.2747539,1.9366578,-1.0931876,-1.5221505,0.24893385,0.9784562,1.5362535,0.4613177,-2.5274665
FLNB,0.14703515,0.4424393,0.65199363,-0.96344435,-1.4239086,-1.0121138,0.23482953,0.015449434,0.8007522,-1.651834,-0.5718801,-0.10801717,0.088626936,-0.8659956,0.14208,0.66244644,-0.12466634,-0.38036588,1.2847687,0.17465387,0.75422364,-1.8670318,-1.4134073,0.9644004,-1.4238876,1.4917052,0.64632124,0.31253812,-1.174642,2.5824118,1.9099357,1.1232761,-0.8169644,-1.0097399,0.9663407,-0.7709936,0.97587764,-0.24886385,-0.66444385,-1.024035,-1.2955371,1.949437,2.208532,-1.185708,0.34663147,0.71841645,1.0247041,2.0828903,-1.0339867,-1.6570684,-2.0199323,0.8887857,-0.79268795,-1.3115057,-1.5005418,1.7113588,-0.42735532,-0.05928896,-1.6106,0.7868204,-0.34065598,1.0800304,0.059264243,-1.7053279,0.122990884,0.9618406,0.68356967,1.234988,1.0569072,-0.3301173,1.3089902,0.30154556,-1.036075,0.054802712,-1.092629,-1.3296651,0.54585737,-0.2627829,-0.9754079,-1.3693935,-0.93329144,1.6367555,-1.907864,-0.8175317,0.033731457,-0.007115441,-0.22309354,0.7590994,-0.36975047,0.17826807,-1.9102869,1.5641,-0.06003781,0.37951517,0.88616556,0.8890948,1.4100459,-0.1538611,-1.2836514,-0.31007904,0.9131443,-0.56595206,0.045581102,-0.9076445,0.0950272,0.078839086,0.08641353,-1.1108543,0.31246546,-0.57291967,1.9871281,2.0519965,-0.724827,0.19381854,-0.45724404,1.6486212,-0.9469844,-1.6820611,0.07033363,0.27597904,0.06495286,0.559228,-0.99135476,-1.1915462,-2.0767994,1.535078,0.75476366,-0.6021475,0.7970443,-0.03270922,-1.2975035,0.3593644,-1.3646675,-0.9978974,0.24236733,1.1642569,0.9088476,0.85845345,-0.43787387,0.60565585,-0.5048713,0.18181503,-1.6770477,0.07450428,0.9917704,1.6987755,0.96075696,0.34496,0.11890308,-2.0343897,0.0031910213,1.5669427,-1.0015315,-2.2672625,-1.2360463,-0.7282228,-0.31349817,1.096108,0.023634892,-0.1903383,-0.35523117,2.1146266,0.043602053,-0.63161194,2.1593015,2.6105626,-0.15106858,-2.4780016,-2.2748468,-1.4987175,-0.48710072,-1.4923737,-0.8534559,-0.07338614,0.119614534,0.00054563786,-0.42927372,0.09312189,-0.8559511,0.6348903,-0.22635223,-2.3265884,-0.7221011,-0.24822271,-1.3967998,-2.427627,-1.5672153,-1.4810197,0.58125454,-1.184116,-0.78551453,0.5618991,-0.8343922,-0.61396074,0.28878105,-0.04288985,-0.080566876,1.2843428,0.27860117,0.37133166,0.0887259,-0.79861695,1.6631446,-0.39851007,0.11703551,0.52241886,0.369772,1.0552152,-1.533069,0.32968715,-0.20608814,1.3254054,-0.6178119,2.1969485,0.4860943,0.41938,0.28235456,-1.043246,-0.64814234,3.2336872,0.28953934,-0.6811497,0.0018909889,1.1821024,-0.203055,0.06493542,-0.21579158,1.383628,0.22067358,-0.93929005,-1.3535142,-0.6390606,0.74648273,0.7140489,-1.8255278,0.8365501,-0.66015106,0.28768173,1.7162262,0.68796825,-1.3286312,-0.20161463,1.1500436,-1.1506355,-0.13719977,-1.0222163,0.6237586,1.56226,-1.0756804,1.2117083,-0.34738186,0.35714,0.7655535,-2.2467465,1.4617553,-1.7302723,0.30054906,1.047793,-1.0823421,1.1341794,2.0635946,0.81577796,-0.40671974,0.18354324,1.119936,0.38642737,0.4703505,-1.5138502,-0.8402344,-0.8643555,1.2864336,-0.2088215,0.7783141,0.9913816,-1.2887152,0.6770313,-0.4117331,-0.063563064,0.1480202,0.77095395,-0.14325246,-0.30364424,1.1698757,-1.4225813,-1.1093664,0.81478995,0.3802899,1.7282494,-0.13610049,1.2521063,-0.5381408,0.808549,1.9593326,1.846035,-0.7853823,1.610868,-0.50234455,-0.03824987,-0.09631043,0.6090897,-1.91274,-1.6332358,0.20984907,2.1166508,-1.0167471,1.7345835,-1.6805583,2.2064495,0.19917065,-1.0000759,1.9899136,-0.22028767,0.9472464,2.7394226,-0.8807933,-0.5736191,0.4462606,0.14380975,0.99421024,-0.6359509,0.3957491,0.958046,-1.7833462,1.0765728,-1.0148407,-1.2184854,2.1112795,-1.7026709,-1.0260165,1.4969866,0.048195694,-0.079410486,-0.33752954,-0.08229666,0.5872948,-0.2538259,0.5921587,-0.20424633,-1.6819123,0.35062265,-0.50954247,1.9592751,1.5512205,0.76087135,-1.5197241,0.4092213,0.28257874,-2.1917675,-1.178308,1.1955159,-0.3245969,1.0978917,-2.1125927,-0.68316716,0.5959669,-0.8836116,-2.030775,0.7698837,0.5996314,-1.9276617,1.2634754,-1.6056206,0.09699147,0.3204476,-1.5541809,-1.9546593,-1.7716192,-1.2348876,0.49929821,-0.0018885016,1.3985785,0.8099918,0.5812139,0.5738042,-1.1953101,0.35344714,-0.90006286,0.159913,-0.7744196,-0.70938426,-0.41016164,0.5286123,-0.21429017,0.36821136,0.34357578,1.2846859,0.14203247,1.7285984,0.38801262,0.31755957,0.15969546,0.11638738,0.97848845,0.632544,-0.16995966,-1.7397422,-0.3057725,-0.24666019,-1.2072564,1.3917323,-1.3195801,-1.6853399,1.5006431,-0.47683024,1.1404809,1.8147542,0.5480546,-0.6601749,1.5399108,1.7784196,1.1468531,-1.1764091,-0.66438043,1.0880389,-0.55997014,2.4064524,-2.5264087,0.018138533,-0.17544687,0.8794116,-0.26108494,0.05752972,-1.3348252,0.7040741,0.21670826,-0.5360799,0.8586214,1.0629001,-0.82266647,0.60884386,-2.0355642,0.7555927,1.1115772,-2.3820176,-2.1529198,1.5182579,-0.5122715,1.9460428,-1.1443474,1.2859643,-0.27531382,1.3163488,-1.1977586,1.1946656,0.09155476,0.5851521,-0.7703058,1.2718626,0.044105377,-1.1002419,0.21049093,1.1038153,0.094868176,0.2142191,0.79161406,-0.77990776,-0.14309481,0.9453504,-2.0581505,1.0570096,0.037894674,1.1359514,1.1625019,1.4130948,0.91722405,-0.6180673,-0.9257179,-0.57265395,-1.2627892,-1.5999349,-0.771694,0.7620047,0.2785738,-0.72849876,0.101467036,-0.5778973,-1.0931833,-1.7174928,1.1647674,0.55421555,0.62424976,1.0281957,0.78022105,-0.9425376,-0.16071722,0.32796317,1.0001159,-0.40062818,-1.7054211,1.3350773,0.9455114,-1.0972079,0.36663583,0.5385802,0.45276466,-0.49477077,-0.27356216,0.90368235,1.7411083,-0.7625833,-0.6439254,0.10263497,-0.8317766,0.1749648,2.51558,0.9453354,0.48498872,0.47067216,0.8101702,0.4452694,-1.4068264,-0.4891967
GADD45B,0.53096,0.15188612,0.870838,1.0066502,0.9568399,-0.5217473,-2.144261,-1.3605751,-0.27474287,0.7958333,0.8401851,-2.124066,-1.5119551,-0.9385203,-1.2386798,0.8075021,-0.3884465,1.535092,0.4845137,0.44692183,0.8460889,-2.3112602,-0.17009658,-2.172623,0.2832503,0.025759144,-1.0607688,2.397887,-1.2288513,0.8922229,0.89759517,1.3324964,0.5994254,0.012332514,0.66473913,1.3427473,0.23399815,-0.5279275,-1.047951,0.9987101,1.163435,1.0297425,-0.09243909,0.046402175,-0.30813777,0.96764904,2.5136986,0.60948414,-0.07688929,-0.38293123,2.0228584,-0.3319005,0.16856767,1.6381886,0.52293336,1.7800426,-0.8556807,1.2893063,1.0432193,1.5042715,-0.43296942,0.2611796,-1.9918741,2.0499413,1.3484863,-0.21146424,-0.37931326,0.7838674,-0.20594785,-0.08587117,1.5135851,0.62609625,1.3388922,-1.7483221,-0.23749746,-0.17334689,0.22229469,-0.89779115,0.19068241,-0.5855428,0.67975456,2.2890484,-1.092002,0.33297884,0.4383328,0.08246658,1.0505011,-1.372368,-0.27880663,-1.3111838,-0.08806098,-1.0417405,-0.2591286,0.7109321,-1.4598118,-0.8829877,-0.13898621,0.972886,2.027496,-1.2199609,0.32473966,0.6968484,0.40504795,-1.7237792,0.5098457,-0.5796768,0.12971549,0.4425551,0.59301144,1.8260391,0.8895037,-1.4851704,-1.2548774,0.020293994,-0.5446,2.1327205,-1.4448816,0.010622545,1.6385218,0.68418866,-1.3396138,0.8834869,-1.243432,0.8239554,-0.8024382,1.391925,-1.2579381,-0.8200378,1.1583536,-0.80724335,-1.2936182,1.2489388,1.132139,0.107841976,1.4492599,-0.8356705,0.38258445,0.49580342,-1.3923408,1.0014155,-1.9716065,1.5041243,0.83005136,-0.017562378,-1.1324409,1.0832839,-1.3122392,-0.18999028,-1.2968938,-1.9308428,0.3808379,-2.1592238,1.58824,0.5752586,-1.2018304,-0.27655566,0.10914376,-0.8125365,0.16485259,-0.5207092,1.1100459,0.6137962,0.7425412,-1.1837956,0.51793236,1.8586096,-1.6248448,-0.13384035,-0.49780318,-1.2982147,-0.015123962,-0.94515646,-0.027934227,0.9359077,-1.6442026,-1.2699947,-0.4362449,0.026854599,-0.7565182,1.0923477,-1.8995825,0.80514735,-0.35597524,-1.7560674,-0.81503993,-1.4318035,2.2644281,-0.092515044,-0.9813533,0.77623016,-1.2510468,-0.8167362,1.069821,0.24347015,-1.3787432,-1.1756648,0.41588864,-1.6092803,1.479178,-0.20086016,-0.19755791,-1.0292444,-1.3420829,0.19542785,-0.69977283,-1.3753363,0.39991277,-1.2432679,-0.33636254,-0.35086775,-0.38667583,2.1256702,0.37111124,1.2641445,-0.057951797,-0.438871,0.35253277,-1.1924977,-0.46640366,1.726761,-0.14818513,0.4902104,-0.17051879,-0.78719234,-0.18282586,0.34998056,-0.6854781,-0.54382145,-0.4387325,0.47114164,-0.038867656,2.0507963,1.9167135,-0.39910847,-1.4625146,0.81831455,-0.24488388,-0.84212035,-0.09801311,-0.87153137,-0.9375893,1.5862005,-1.1188706,1.0862048,0.42481858,-1.8883991,0.7065495,1.3047793,0.8599579,-2.4382484,1.3093598,1.578293,-0.42467606,-0.4470237,-1.0384932,-1.0758432,-1.5269002,-0.390837,0.06614269,-0.7899644,0.4510896,0.9664867,0.7137191,2.061265,-2.7445579,-1.0935414,0.10270066,1.3330793,-0.37273306,-0.11613672,0.25948432,1.2790235,-1.3126937,0.45899448,1.1602429,-0.20441253,-0.80784553,-2.1963131,1.2777902,-0.12591173,-0.93828154,-0.44652653,2.0113268,-0.18596402,1.0518959,-0.23030475,0.8390071,0.09896801,-1.1599135,0.7345237,1.4409854,-0.92993987,-0.6909979,-1.536706,-2.054226,-1.572015,0.34415317,0.9164579,-0.5554721,-0.5238607,0.34202012,-0.5074401,2.3733575,0.15181595,-0.28576082,0.8577224,1.3307302,1.3003486,0.6377133,0.72275656,0.016409848,-0.012955618,-0.2059118,0.55396265,1.5069212,-0.23232543,-0.2764305,-1.5929577,-0.955026,-0.04832454,-0.1708931,-1.4082755,1.4207193,-1.639468,1.6975813,0.9239212,-1.9642448,0.11243876,-1.2401825,-0.3879283,0.9478412,-2.477491,0.95490247,1.0201705,2.0787039,0.7475318,0.9243534,0.33503804,0.45304906,2.4563224,-1.1214092,-0.5026082,0.97877806,-0.5213082,-1.0991906,1.4089054,-0.5488373,-0.93138117,0.55854124,-1.8171641,1.4644816,0.13706435,-0.89583737,-0.9034361,1.8044673,0.2247435,2.2436159,0.689217,1.2951705,-0.085746236,-1.9465629,-0.9983888,0.5260046,-3.101796,0.03872135,1.6825924,0.8828862,-0.572767,2.1055784,-0.38391587,-0.37060693,1.2709328,0.6712791,0.53149116,0.6878385,-0.32652792,-1.551926,-0.41584757,-0.53227305,0.35366514,-0.31181613,1.4783702,1.5391898,1.0488453,0.3277909,-2.1624646,-1.0947745,0.59560627,0.07286443,0.06772105,1.0705155,-0.8075891,0.9529108,1.1261653,-1.4660794,0.023376323,-1.0358948,0.049288873,-0.711539,-1.1353736,-0.42492506,1.1447324,1.5372893,0.83707565,-2.9343379,-1.5611956,-1.2403569,-0.5038915,-0.84154344,-0.56514007,0.9455235,0.5634768,-0.4764909,-0.988512,-0.18227121,0.2133917,1.4330621,1.5575656,-0.9024591,-0.3268446,-0.1635412,1.2352774,-0.6950533,1.7251881,1.4555205,1.848684,-0.21506715,-1.1279337,1.8630799,-0.97053057,-0.6536305,-0.48285592,-0.2609323,1.3059518,1.1364679,0.00015339513,-1.496815,1.9267241,-0.78542656,1.1543356,-0.6832694,1.6628137,0.74588865,-0.8096608,0.78253216,-0.1589055,-0.73158175,0.39631316,-0.5856814,0.38284704,0.559371,-0.16133995,0.6488087,1.2059149,-0.27998477,1.714762,-0.6287951,-1.9987265,1.2095448,0.17344336,0.58737665,-1.4712977,-0.75480664,-0.35652605,-0.42548496,0.95263964,-0.6972516,-0.7654335,-1.0608975,-1.5812005,-0.58558387,0.89038664,-1.4600683,1.1468203,0.027788954,1.328335,0.36638516,-0.65065277,2.5872757,-0.9557121,-0.37982768,-1.5086591,-0.2818714,1.19434,0.044349775,-0.859281,-0.240856,1.439226,1.378286,0.40214512,-0.27786806,1.6418436,0.6569924,1.0761209,0.09778954,-0.46982673,-1.3387886,-1.9910808,-0.3334732,-0.21094517,-0.48216695,0.67997736,-0.024780303,-1.1587579,-1.1428037,0.35811117,1.0978281,0.3883627,-0.517158,-0.90993,-0.78506535,-0.5896602
GPNMB,-0.32865304,0.87846345,0.862626,-0.48098066,-2.1747377,0.12631404,0.019459737,0.7081519,0.5644188,-0.5723028,1.081114,1.023919,1.1155399,0.64667445,-0.85496515,-1.4536444,-1.0068417,1.3586694,0.3581439,1.9080079,-0.82212013,0.9786409,0.19018802,0.59418553,-0.7461248,-1.2093645,0.14967051,1.751842,0.09238896,-0.8941714,0.7128711,-1.5898682,1.7522714,-0.25273606,-0.3492532,-0.5330385,0.813894,1.1244994,-1.6086174,1.4964404,-0.6481918,-2.2710292,1.2932286,0.31838605,0.29946473,-2.3335733,-1.2995919,-1.6266255,-1.6275613,1.8257201,0.060415767,-1.7338457,-0.031374875,0.39612588,1.4704843,0.20635194,-1.6849736,-1.0784045,1.6640928,0.40100142,0.46777537,1.5133191,-0.6170414,0.5069207,-1.0142977,-0.106944926,0.74948823,-1.3932029,0.05918172,0.24063045,1.356648,-0.0074207042,-0.14920236,-0.008198518,-1.3679733,-1.054922,0.01152802,-0.93751675,1.754545,0.94763464,-1.2216717,-1.017715,-0.23138295,0.028080711,1.3866261,1.3913113,-0.8149718,2.044675,-0.94476074,1.3247921,0.42153984,0.8383129,-1.1538209,1.321804,2.2880733,-0.31776536,-1.0357882,-0.7138817,0.38056156,1.0666653,0.9797991,-0.21403928,-0.4632931,-0.8205645,-0.7356103,0.2797851,-0.55474156,1.2322932,0.1652809,-1.1602551,-0.44207615,0.5235143,0.14873092,0.6696285,-0.018825714,-0.6133722,0.5865151,2.2814164,1.2504334,-0.06968595,-0.21917108,-1.1957413,0.5739313,0.4794268,-0.3801352,2.005381,-1.5300059,0.6648813,-0.83609766,1.4447457,0.25794885,1.6498451,0.03619849,-0.6224772,-0.45524615,2.2682328,-0.15496375,-0.19152756,0.9382482,-0.26894805,-1.4639161,0.93899167,-1.8556391,0.15778717,-1.105067,-0.9155755,-0.5726396,-0.81398076,-0.4022169,-0.31232414,1.2715523,1.551922,-0.65189546,-0.7548111,-0.041471552,1.9282899,-1.2064838,0.5292454,0.51435316,-0.0036706382,-0.8269883,-1.5678861,-1.8032019,0.20935075,-0.05999531,1.1721197,-1.8465259,0.40950233,1.7620018,-0.8436056,0.4375682,-0.82396805,-0.9334457,-0.8019618,1.2918994,-1.0996673,-1.3523363,1.1880596,0.7708086,-1.691747,-1.0367582,0.5452883,1.3857125,-0.3984236,1.7942972,-1.1255705,-0.19566387,-0.8994015,-0.15677938,0.4448064,-0.9477991,1.1318791,0.15931134,1.7628366,-1.5031142,0.28405067,0.63596094,1.5721397,1.0597752,-0.5141165,-0.6676747,0.96839726,-0.75019705,-0.61674917,-0.94098353,0.70479435,0.6596072,1.3993427,-1.9901583,-0.17933151,-1.2244426,-1.4513516,-1.2525666,-1.1596154,-0.2034522,1.535349,0.9523713,-0.81506884,0.14613986,1.2899302,0.34169996,1.3270788,1.2313023,-0.63389355,0.6184775,-0.3329713,-0.71625143,-0.24473624,-1.6288323,-1.3397439,0.9698892,-1.0439153,1.4579192,1.5358756,0.41145065,2.4504044,-0.13530907,-0.4343551,-0.45052776,1.4125378,-1.156285,1.2839092,-1.0550578,0.49635798,1.5294027,0.7873946,-2.0642076,1.5202926,-2.3450444,0.9642132,0.8173697,1.0006406,-1.5361798,1.1213712,1.5963153,-1.3886585,-0.7633537,1.047708,-0.18292613,0.5991903,3.7114737,-1.5143387,-1.1263187,-0.27766407,-1.5230165,2.8354654,0.16206318,-0.65293545,0.7538608,-0.97048813,1.1151708,0.40427634,-0.8447042,2.65743,-1.0698954,-0.972393,0.791121,1.4351392,-0.783795,-0.19604231,-1.0632542,-0.055246256,-0.8557151,-0.1026827,0.3520425,-1.1270323,1.1519272,0.4876618,1.1910025,1.246208,0.12467306,0.6350098,-1.6305529,1.9931707,-0.85993785,1.2372682,0.27925643,-1.5780685,-0.2712601,-1.2132136,-0.90411395,0.8027064,1.395979,-0.62246364,-0.7970787,-0.34176314,0.15304329,0.39361075,-0.82039976,-0.64318943,1.0347993,0.7608031,-0.0074137743,-1.0897808,-0.24832438,0.5753251,-0.42993736,-1.2368411,-0.6625937,0.7918499,-0.86403936,0.8217766,-0.527769,1.1961068,-0.28615505,0.5470095,0.15152046,-0.46376657,1.2219638,0.6910257,0.54275036,0.13910529,-0.4489611,0.96597064,0.7040872,0.09282351,1.193055,-0.8862298,-1.0106272,0.14348796,1.1049291,-1.2128294,0.36598355,0.16584879,1.7146634,1.1655886,0.7232936,-0.51113594,1.2080593,0.63130593,1.2444067,0.4227589,-0.33428878,1.1781521,1.1813713,-1.3342208,-1.0029416,-2.209888,0.15722948,0.04631414,-1.7204528,0.7951568,-0.39838132,0.32283,0.062532835,0.54402304,-3.7099764,-1.6230813,-0.8197681,0.596826,1.9801929,1.1946434,-0.17392975,-0.801101,-0.8415319,1.0584369,-0.56457824,-1.0365331,0.13905342,1.1116068,-0.37197557,1.2635113,0.5280018,-0.3056165,0.06307391,-2.5554204,-0.6518677,0.680631,-1.4657036,-0.58832616,0.9218726,2.0675952,-0.5579786,0.03281993,-0.3127254,0.45954758,0.7321716,-0.9261307,-0.732018,-0.115106516,-2.2668777,-2.2379634,1.5430888,-1.4501894,0.8979532,-1.3771484,-0.10178309,-0.6393682,-3.0908976,-0.6994176,0.47752595,-0.5536772,-0.2595397,1.2306662,-0.554126,-1.0028547,-0.29299593,1.4313743,0.10695442,-0.70070016,0.7006255,-1.0493447,-1.393559,1.372368,0.07710437,-0.118772775,1.2671784,-0.9334401,-0.08863057,0.5209004,-0.6266903,0.34802234,0.129739,-0.35876215,-0.1469691,0.78969955,0.8100851,-1.1483617,0.26847944,-0.03655862,-0.87659574,0.8460926,-1.6192012,1.2557353,-1.587656,-0.34246644,-0.8317083,0.8235338,0.54636335,0.2847248,-0.40544868,-0.706973,-1.0040673,-0.041003812,0.013835642,2.2276776,0.3714532,1.9011806,-0.89974344,1.5641533,-0.116573006,0.22534022,1.0661536,-0.66424936,-1.020489,0.54009783,-1.1485193,-0.89014536,-1.2798785,-1.5754727,1.34819,0.15993507,-1.0837045,-1.3939747,0.8561697,-0.02265267,-1.0259213,1.339807,0.44505683,1.4408821,-1.2632488,0.7805144,1.9798312,-0.9387455,-0.9766539,0.6145164,0.20416687,0.07456625,-0.837487,-0.3163284,-1.4581196,1.0471988,0.2958891,-0.23995762,-0.62321615,-1.1030324,-1.4653305,0.3918684,1.3477356,2.2554462,-1.0692949,-0.6410454,0.8430939,-1.0570534,-1.705646,2.0969923,0.36081344,0.6310227,-2.2949402,0.0963486,1.1941409,0.10115494
H3-3A,-0.4086644,0.33295232,-0.24594869,-0.23197402,-1.2537218,-0.58199394,-1.8014799,-1.7036628,-0.58414197,-2.2670417,0.26271126,-0.22699115,-0.6167572,-0.2674203,-0.8998618,1.0330846,-0.5456951,-0.18156417,1.3268802,-0.9888948,1.3307053,-1.3400581,0.4247039,0.7109027,1.203484,-0.40649503,2.510415,1.3955036,-0.1565904,-0.95734483,3.2905037,1.6586686,0.9195628,2.5135353,1.0429093,0.9836305,0.96942806,-0.046527177,-0.039876353,1.4072096,1.0244871,-0.9909298,-0.5363908,0.9084224,0.91856813,-0.89913416,-0.917275,1.8896288,-1.0825555,0.9975791,0.022962691,2.0588439,-0.71107495,0.8266657,-0.37433955,-1.0838071,0.886661,0.97337085,-1.3498161,0.027542884,-1.1683236,-1.014055,1.519721,-0.046664346,0.027757613,1.6911709,-0.062407445,0.09925034,-0.4555899,0.76011086,0.8110758,0.47684062,0.8832854,0.16194789,0.26190633,2.2748766,-1.0777254,0.41168877,0.082351215,1.9611645,0.46417382,0.2234887,0.022324318,-1.9056987,3.4509568,-1.1617768,-0.39650393,-2.0873978,-0.76378214,-0.8296962,0.91931605,-1.2983782,-0.49427655,-0.52608883,-0.17012149,-0.29565763,2.8884006,2.0279357,0.46397507,0.642954,0.95220083,1.067246,0.82904637,-2.1967714,0.32729834,-0.31933618,0.09935538,-0.24953294,0.49984607,2.2530763,-0.7551879,-0.64426214,-1.6037735,0.5428164,-0.063014284,1.2255335,0.9825002,-0.5981408,-0.7038054,-0.23531012,-0.0080581065,0.113537386,-0.6997005,-0.95734286,0.4483231,2.0398548,-1.6382469,-1.2747705,-0.7748169,0.023637047,1.2400073,2.0100224,-0.4021481,0.21061736,0.41559553,2.5439785,2.4491534,-0.7576919,-0.3947164,-0.20464982,-0.4093723,-0.12378024,0.3729748,-0.85791916,0.44503054,0.31699994,-0.93552023,-1.2257372,0.83328027,-0.9039939,-1.753125,1.6717076,0.75750786,-1.1369485,-0.049721316,-0.412237,0.34555548,-0.698763,1.1172307,-0.75832516,1.5395018,-2.3659136,0.32091194,-0.47402287,1.3027104,-0.07192756,-0.5099753,-0.9118466,0.107864745,-1.119632,-0.9901175,-1.5589035,0.7815229,-0.21494961,1.3968822,-0.9565821,0.33493984,3.2259414,1.0500933,-1.2504857,-0.016146934,-0.8870685,-1.6332994,-1.9876095,-0.8032149,-0.38828757,-0.81535083,1.2734811,1.038553,-1.5580631,-0.7641242,1.2978302,0.18433431,-2.721315,0.592273,0.28715602,0.5152794,0.09209213,2.2415695,-1.4668669,1.1051743,-0.4522892,-0.4204057,-2.074927,-0.39206678,0.48881912,-0.75296825,0.053012438,0.07833717,-0.57974356,0.79350716,0.71899205,-0.040788263,-0.74186194,-1.0560275,-0.23656249,-0.34687734,1.1592609,0.16803648,0.5109061,1.6907692,1.0524378,-0.6098217,-0.28872797,0.44989198,-1.3751224,0.20880961,1.4955386,1.1113245,-1.2247267,-0.071065396,-0.96618307,0.26041955,-1.7127069,-0.9714536,-0.598502,-0.44697425,0.058734216,-2.3323743,-0.50957286,-0.15879707,1.1117005,0.68212354,1.2947886,0.8388991,-2.72716,0.8834155,-0.34621438,0.33306915,-1.2281108,0.74223274,1.1011524,0.34437808,-0.9366611,-0.8231659,-0.50286293,0.77812755,-0.21426137,-0.84174997,-0.6146331,-0.6600655,-0.033636358,-2.3788311,1.6480023,0.69097316,-2.3307862,-1.0323629,0.63501436,0.6045151,-0.046410672,-0.69203556,-1.1834074,-0.3610216,-1.9225276,0.69466573,0.82511854,2.7339067,-0.91010886,0.24785295,-0.7458139,1.055297,-0.5259152,1.8979309,-0.053262614,-0.8218516,0.96485233,0.8977778,-0.58520395,-0.26833642,-0.9193288,-0.16266637,-1.2458609,1.077469,-0.11270391,-1.056688,-0.15193456,-1.0837065,-1.3201752,-0.8738961,0.27208394,0.27841645,0.029095426,-0.7384512,0.19513826,0.40745646,1.1467505,0.85240686,-0.094626114,0.80188924,-1.5987978,-0.9304688,1.021356,1.7725543,-0.5139646,-0.85552585,1.5321583,2.492395,-1.1423209,0.4940321,0.8145572,0.4682613,0.69445217,1.561104,-0.29229555,-0.098808385,-0.09348241,-0.018226746,0.38636404,0.86811393,-1.285164,0.37511817,0.21800722,-1.4545925,-1.0727857,-1.5748415,-0.3320243,-0.64017165,0.8558317,-1.4804139,0.8776209,0.2361247,-1.0870205,-1.4109116,-1.6001574,-0.67960984,0.8905636,0.5136954,0.1573717,-0.9882414,-0.6988972,-1.7966715,0.37030324,-1.4078085,-0.27104658,1.0964011,-2.0345328,-0.5410902,0.88808066,-0.66932386,0.086982735,0.5530654,-1.4725411,-0.6594861,0.039689526,0.04172792,-0.5951841,2.5062654,1.4383465,-0.3698658,-2.2811754,-0.6734241,0.86166203,-0.007497881,1.569099,0.26608056,-1.9730906,-1.1045382,-1.484683,-0.38484895,-1.1132237,-0.18852581,0.9531998,1.3162535,2.3303287,-0.28344485,-0.011429193,0.4388231,-1.0819813,-0.7091797,-0.36364594,0.6802222,2.3313174,0.87950665,1.6265756,0.78354543,0.14763205,0.41864696,-0.71992004,-0.33700395,-2.1006093,-0.90290004,-0.3401641,-0.55737185,2.341036,-1.9606006,-0.13565218,-0.30909967,-0.47402516,2.2809165,-2.209434,-0.068370126,1.8271123,-0.19455726,0.7301423,-0.13513026,-0.6308566,-0.29950362,0.3901532,0.6604545,-0.96595687,-0.28739005,-0.075076774,1.6823404,-0.4053927,0.47770643,0.46970245,-0.9955996,2.300381,-0.038378004,1.0986195,0.83582926,-0.6226731,-1.0030947,-0.19078124,-0.45319137,-1.0392106,-2.183355,-2.1345105,-0.37151346,-1.0849673,1.0322689,0.058272153,0.083388925,1.3564677,-2.3812902,1.1061988,1.5880978,-1.0929214,-2.4709625,2.3250744,0.70654356,0.11081745,-0.14911263,-0.2818554,0.5712279,0.61611444,-0.5186651,-3.2957916,1.5195845,0.5689921,0.64420915,-0.5366452,-0.04672863,0.5460691,0.5757254,0.4183774,0.6297761,1.1713516,0.7537479,1.1058999,-0.7673748,0.46998253,-1.2855494,0.8686698,1.4175,0.37465972,-1.5069939,-1.0342946,0.63966304,-0.3279279,0.6517842,1.0473479,-1.0452459,1.348228,-0.8046209,-1.6705644,0.863195,1.7828648,-0.96091264,1.511839,1.1463546,-0.34406015,0.88415873,0.3678193,-0.20306571,0.03170078,0.33941892,0.13396367,0.19944713,1.3753,-1.34715,0.030639682,0.7163634,0.6385919,-0.45525143,0.70798147,0.2475801,-1.6007962,-0.03259429,0.24946567,-0.24798131,-0.2602327
