,dim_0,dim_1,dim_2,dim_3,dim_4,dim_5,dim_6,dim_7,dim_8,dim_9,dim_10,dim_11,dim_12,dim_13,dim_14,dim_15,dim_16,dim_17,dim_18,dim_19,dim_20,dim_21,dim_22,dim_23,dim_24,dim_25,dim_26,dim_27,dim_28,dim_29,dim_30,dim_31,dim_32,dim_33,dim_34,dim_35,dim_36,dim_37,dim_38,dim_39,dim_40,dim_41,dim_42,dim_43,dim_44,dim_45,dim_46,dim_47,dim_48,dim_49,dim_50,dim_51,dim_52,dim_53,dim_54,dim_55,dim_56,dim_57,dim_58,dim_59,dim_60,dim_61,dim_62,dim_63,dim_64,dim_65,dim_66,dim_67,dim_68,dim_69,dim_70,dim_71,dim_72,dim_73,dim_74,dim_75,dim_76,dim_77,dim_78,dim_79,dim_80,dim_81,dim_82,dim_83,dim_84,dim_85,dim_86,dim_87,dim_88,dim_89,dim_90,dim_91,dim_92,dim_93,dim_94,dim_95,dim_96,dim_97,dim_98,dim_99,dim_100,dim_101,dim_102,dim_103,dim_104,dim_105,dim_106,dim_107,dim_108,dim_109,dim_110,dim_111,dim_112,dim_113,dim_114,dim_115,dim_116,dim_117,dim_118,dim_119,dim_120,dim_121,dim_122,dim_123,dim_124,dim_125,dim_126,dim_127,dim_128,dim_129,dim_130,dim_131,dim_132,dim_133,dim_134,dim_135,dim_136,dim_137,dim_138,dim_139,dim_140,dim_141,dim_142,dim_143,dim_144,dim_145,dim_146,dim_147,dim_148,dim_149,dim_150,dim_151,dim_152,dim_153,dim_154,dim_155,dim_156,dim_157,dim_158,dim_159,dim_160,dim_161,dim_162,dim_163,dim_164,dim_165,dim_166,dim_167,dim_168,dim_169,dim_170,dim_171,dim_172,dim_173,dim_174,dim_175,dim_176,dim_177,dim_178,dim_179,dim_180,dim_181,dim_182,dim_183,dim_184,dim_185,dim_186,dim_187,dim_188,dim_189,dim_190,dim_191,dim_192,dim_193,dim_194,dim_195,dim_196,dim_197,dim_198,dim_199,dim_200,dim_201,dim_202,dim_203,dim_204,dim_205,dim_206,dim_207,dim_208,dim_209,dim_210,dim_211,dim_212,dim_213,dim_214,dim_215,dim_216,dim_217,dim_218,dim_219,dim_220,dim_221,dim_222,dim_223,dim_224,dim_225,dim_226,dim_227,dim_228,dim_229,dim_230,dim_231,dim_232,dim_233,dim_234,dim_235,dim_236,dim_237,dim_238,dim_239,dim_240,dim_241,dim_242,dim_243,dim_244,dim_245,dim_246,dim_247,dim_248,dim_249,dim_250,dim_251,dim_252,dim_253,dim_254,dim_255,dim_256,dim_257,dim_258,dim_259,dim_260,dim_261,dim_262,dim_263,dim_264,dim_265,dim_266,dim_267,dim_268,dim_269,dim_270,dim_271,dim_272,dim_273,dim_274,dim_275,dim_276,dim_277,dim_278,dim_279,dim_280,dim_281,dim_282,dim_283,dim_284,dim_285,dim_286,dim_287,dim_288,dim_289,dim_290,dim_291,dim_292,dim_293,dim_294,dim_295,dim_296,dim_297,dim_298,dim_299,dim_300,dim_301,dim_302,dim_303,dim_304,dim_305,dim_306,dim_307,dim_308,dim_309,dim_310,dim_311,dim_312,dim_313,dim_314,dim_315,dim_316,dim_317,dim_318,dim_319,dim_320,dim_321,dim_322,dim_323,dim_324,dim_325,dim_326,dim_327,dim_328,dim_329,dim_330,dim_331,dim_332,dim_333,dim_334,dim_335,dim_336,dim_337,dim_338,dim_339,dim_340,dim_341,dim_342,dim_343,dim_344,dim_345,dim_346,dim_347,dim_348,dim_349,dim_350,dim_351,dim_352,dim_353,dim_354,dim_355,dim_356,dim_357,dim_358,dim_359,dim_360,dim_361,dim_362,dim_363,dim_364,dim_365,dim_366,dim_367,dim_368,dim_369,dim_370,dim_371,dim_372,dim_373,dim_374,dim_375,dim_376,dim_377,dim_378,dim_379,dim_380,dim_381,dim_382,dim_383,dim_384,dim_385,dim_386,dim_387,dim_388,dim_389,dim_390,dim_391,dim_392,dim_393,dim_394,dim_395,dim_396,dim_397,dim_398,dim_399,dim_400,dim_401,dim_402,dim_403,dim_404,dim_405,dim_406,dim_407,dim_408,dim_409,dim_410,dim_411,dim_412,dim_413,dim_414,dim_415,dim_416,dim_417,dim_418,dim_419,dim_420,dim_421,dim_422,dim_423,dim_424,dim_425,dim_426,dim_427,dim_428,dim_429,dim_430,dim_431,dim_432,dim_433,dim_434,dim_435,dim_436,dim_437,dim_438,dim_439,dim_440,dim_441,dim_442,dim_443,dim_444,dim_445,dim_446,dim_447,dim_448,dim_449,dim_450,dim_451,dim_452,dim_453,dim_454,dim_455,dim_456,dim_457,dim_458,dim_459,dim_460,dim_461,dim_462,dim_463,dim_464,dim_465,dim_466,dim_467,dim_468,dim_469,dim_470,dim_471,dim_472,dim_473,dim_474,dim_475,dim_476,dim_477,dim_478,dim_479,dim_480,dim_481,dim_482,dim_483,dim_484,dim_485,dim_486,dim_487,dim_488,dim_489,dim_490,dim_491,dim_492,dim_493,dim_494,dim_495,dim_496,dim_497,dim_498,dim_499,dim_500,dim_501,dim_502,dim_503,dim_504,dim_505,dim_506,dim_507,dim_508,dim_509,dim_510,dim_511
ADAMDEC1,1.021123,-1.1136293,1.8169674,-0.78284484,-2.423742,0.606134,1.7643954,0.39254445,1.7876401,0.5974307,0.40144876,1.4662066,-0.29393458,0.20234314,0.9407022,0.19344224,-0.7599749,-0.7975709,-1.1805116,-1.1758609,0.028882615,-2.5286412,0.6235438,0.96807015,1.1794133,0.48657355,-0.36032492,-0.1099703,0.248626,0.17748107,-0.7163125,-0.4503618,0.788863,-0.17371646,-1.2906333,1.049757,1.9167295,0.059138317,-0.9037812,1.1386061,1.5702795,1.3608272,1.6193907,0.06287529,-0.5466506,-0.29032153,0.10017476,2.126614,1.2529348,1.3856351,0.11642179,0.66804075,-1.7345853,0.35993502,-0.6698145,-0.55244523,-1.5769836,0.6297616,-0.43398124,-0.3629006,-0.52873355,-0.3885697,0.539905,-0.25137016,-0.73586994,-0.11310496,-1.2532735,-0.8031267,0.08829967,2.415912,1.3107901,0.32927573,-0.9686179,1.4223127,-0.24901666,0.4728753,0.44397306,0.49030894,0.48655087,-1.0106239,0.7607716,-1.8690914,-0.98324823,-1.3599805,0.49576128,-0.69988257,1.2376065,-1.3130895,0.12731275,-2.100577,0.60585064,0.3399585,-0.9760645,-0.25780573,-1.3749154,-0.1492184,-0.14024338,0.4800179,0.719068,-0.30451953,-0.29312503,1.1223582,2.2550044,1.9870749,1.9720821,-0.2698286,0.5721975,-1.4718924,0.63051647,0.30686462,0.60410035,1.6974835,0.60528964,0.10883466,0.9958531,-0.6881241,0.31214926,1.0449809,-0.9029069,-1.2614732,1.1364913,-1.1998214,-1.179436,0.83019614,0.9760375,0.8960824,0.105140865,0.79002494,1.3130388,-1.0382278,-0.22812946,-1.9644116,0.47602925,0.320254,-0.09281791,0.038021117,2.0101311,-1.8801279,2.1299005,-0.13496827,-0.03095824,1.253487,0.07457956,0.82061386,-0.35337728,1.7523189,0.29595113,-0.23346892,-0.05837638,-0.33607504,-0.7975848,-0.40410522,-2.8790336,-0.17164852,-0.7337707,0.84419465,1.3620169,-0.32481444,-1.2916448,-1.2490909,0.44905233,-0.033325087,-0.10602307,-0.4229473,-1.887129,3.0968075,-0.13662933,0.29053885,-1.9424859,0.4060597,0.5028681,-1.2694016,-0.48887607,-0.8365119,-0.5415533,-0.17352752,-0.6603558,1.3939422,0.44532856,0.8853364,-1.2742269,1.5858467,-2.662279,-0.8678246,1.1960306,0.65584326,-0.19518118,-1.7551495,-1.4193443,-0.5089415,-0.16124916,0.10342622,0.44874403,-1.3434856,1.5724158,1.2955059,-0.566345,-0.9452068,0.20566353,-0.60530156,-0.51326025,-0.23008601,-1.9288105,0.057083588,0.40682435,0.6619494,1.2655255,0.5179244,-0.7576313,0.6675584,-1.6136733,-0.37171698,-0.96038914,-0.26527038,-0.6624401,-2.5907617,-0.3879616,0.5527105,0.15904173,-0.032568872,-0.8217556,0.571302,-1.7141764,-0.6328275,0.4829399,-1.262757,-0.2546802,1.4592087,-0.017582674,0.0019805287,-1.1259072,-1.8165916,0.24922636,1.2312498,-2.3103836,0.35127765,-0.60575753,0.6790207,1.0814302,-1.7518823,-1.2023001,-1.3473709,0.14894612,0.61366004,-0.49520785,0.6823477,-1.2044926,0.2632482,-0.74028736,0.5712209,1.2282313,0.4005381,-0.7586427,-1.2265565,-0.24386606,1.864995,-0.91657424,-0.35813138,1.6170377,-1.254811,0.72788197,-1.8032494,0.09860538,-0.57706845,-0.14736556,-1.3684772,-2.4065926,1.3062894,2.125449,-2.3617344,0.11831253,1.7067183,0.34235314,1.3258388,0.033155408,1.2182444,-0.2531356,1.1066566,1.2860434,1.0379057,-0.7516242,0.49176216,-0.41946787,1.0084817,1.4877688,-0.5457555,0.6897921,-0.7730388,-0.47095853,1.1137378,-0.09089139,0.3522256,-0.4759574,2.517406,-0.33710986,1.272093,-0.89190817,-0.14561553,0.40977803,1.0126605,-0.24204431,1.8097267,-0.50486636,0.19467153,0.2987212,0.10780609,-1.1813749,-0.71007574,0.33978224,-1.6730839,-0.495071,-0.8163452,0.38240665,-0.459451,0.29951173,-0.026339533,-0.036299124,1.0043854,-0.6090844,0.9873527,-0.21166205,-1.2667192,-0.74073726,0.13165595,1.2136589,1.45602,0.4494126,1.3955418,0.29361597,0.12878875,-0.454181,-0.8541177,0.40011954,0.5488057,0.8514763,-0.35011208,0.61845803,-0.34850523,-1.2833611,0.79473513,-0.5904885,-2.562842,-0.23538864,-0.059009258,-0.9709421,-0.3330947,0.87391967,0.80333024,-1.9092002,0.8234525,-1.7047743,1.8275974,-0.21819668,0.3068703,1.9394392,-0.5550776,-0.9994728,-1.5053586,-0.50696176,-2.6833072,0.58001524,-0.683738,-1.418405,1.7803187,-1.2071381,1.2883744,0.59659415,0.43156493,2.0451195,0.19846195,0.6145961,0.69307417,2.8854196,-0.11323329,-0.3362927,1.19695,1.1553415,-0.8577971,-0.68149143,0.6151759,-1.3400174,0.18247366,1.1020746,0.56043303,-0.79781175,-2.2813787,-0.64067584,-0.3819338,-0.39537454,0.91415596,-0.60024995,0.05834647,0.9249527,1.4258318,0.98770756,-0.19670253,-0.16294925,-1.2947543,-0.06200992,0.48343986,0.02555366,-0.38940728,0.67950225,0.22729544,-1.2125124,-0.6882883,0.8292776,1.2693855,2.0437713,0.03441222,-2.8563914,0.782372,0.23892798,0.015516733,-1.0573926,-0.77958065,2.001267,-0.3930389,0.3739815,-1.8326226,-0.73970914,-0.59601456,-0.015426781,1.026566,-0.05696081,0.6209799,-0.09457213,1.9280554,-0.03903981,-1.0991408,1.2706504,0.4616208,0.13794519,1.1598561,-0.021896832,0.9502515,-2.790521,0.16078418,-0.34692442,1.8054868,1.1687943,0.17857134,0.25372317,-1.4032291,0.19168717,-1.3024328,0.057943936,-2.0690107,-0.0068538697,0.65277255,-1.7837754,-0.21188644,0.35252842,0.2133028,-0.38249534,0.5523637,0.030998453,-0.46232235,0.070185654,1.6067225,1.1381739,-0.800456,-0.2518673,0.7027658,-0.78948593,0.20663977,-0.69044954,0.32678244,0.6279861,-0.568196,1.771468,-0.38156667,0.49064732,-1.3052512,1.1589113,1.1359053,-0.68048054,0.5995332,0.6393159,-1.3587943,-1.92851,0.09418815,-0.7711957,-1.2169616,-0.65994966,1.1986789,1.298741,0.9943135,0.23079574,0.86481726,-3.3658187,-0.5406942,-1.281583,-1.2341042,0.2650688,0.27728015,-0.06124466,-0.1195164,1.6928883,0.15085667,-3.0319617,-2.1987681,-0.5417895,-1.1792684,1.2125702,1.2331693,1.8119731,-1.0034012,0.1124988,0.7170079,1.6517329,1.1507509
ANGPTL2,-1.6782435,-0.42025548,-0.00467625,-0.060791615,-0.961342,-0.12732966,0.121946186,0.21670692,1.1933957,0.120662935,1.6780628,0.10024828,1.1205461,-0.50841826,-0.650059,-0.45130008,1.5600115,-2.379713,0.5510529,-1.7868495,-1.5878582,0.95277977,-1.1343528,-1.3397956,0.2950808,1.0293378,-1.848217,0.13569364,-0.49263713,0.7414688,-0.33840722,-1.4877785,-0.73434347,-0.74192464,-0.04838601,0.1930408,-0.14762636,0.86931825,-0.6694634,0.85801613,1.1405046,-0.80324954,-0.1627981,1.6556474,1.7269881,-0.09609721,0.18538105,-1.2088308,1.4343525,-0.51710653,-0.08293023,0.17710516,-1.1614852,-2.0192907,-1.0946679,-0.35901695,-2.2364504,-1.7309062,-0.64542145,-0.72632253,0.19341639,-0.87098336,-1.5773813,-0.63797766,1.3113708,-1.7458313,-1.2231445,0.29050088,0.5304294,-1.3460543,1.2596365,-0.08813755,-0.290179,-1.8157586,-1.070864,0.84490514,-0.1995925,0.1764543,-0.98588073,1.6347595,1.0099864,0.8094442,0.76713496,0.08804672,0.42623952,1.4470404,0.73778355,-1.5725807,-1.3266145,-0.11298743,1.4310684,-0.9913406,1.1515495,1.6821331,0.9871141,0.7429373,-0.42735842,0.5746124,0.45803815,0.4206222,0.34613675,0.002940634,1.4613384,2.215239,1.0864094,0.8026532,-1.2110158,0.32503778,-0.8564037,-1.456883,0.5143629,0.70108736,2.0421002,-0.61128235,0.38167682,0.085058026,-0.7139425,1.1459669,0.69486046,0.9703114,-0.3538396,0.7850732,-0.88219696,2.1051028,0.9942158,-0.8492055,-0.018416248,-1.0412699,0.21489535,1.5680311,0.64420676,0.7569239,0.5459788,-1.7988988,0.6728049,-0.25147697,-1.2902584,1.2098995,1.8116813,-0.29799035,0.26514754,-0.6268727,1.0510287,1.7785997,0.3993336,2.6172307,-1.1990554,0.13042447,-0.23871638,-0.6429446,-0.83971226,-0.8137853,-1.641853,0.92431194,0.8154659,0.01963438,-0.45455462,-0.71384007,-0.9670117,-0.69630206,0.98167753,0.43623018,0.05059116,1.7236664,-0.13640745,-1.3240572,1.4472758,1.178559,-0.47735146,0.79656154,0.40184826,0.5760896,0.75505143,-1.099199,0.8094094,-1.8610313,1.6509464,0.8760314,-0.8404016,0.4124505,0.9266748,0.83993983,-0.8915148,0.65163976,1.5294535,-0.35425204,0.9645213,0.7527145,2.2055767,-0.24423973,-0.9657978,-0.50665575,1.2722886,-0.3908002,0.56111026,0.5561069,-0.840735,1.3319653,0.8610333,-0.3628906,-0.18967555,-2.8083453,-0.62013745,0.14493823,-0.03103913,0.23132966,2.0098648,-0.7951521,0.44546384,1.0859859,-1.2564789,1.2394769,0.9023384,1.252585,-0.62047917,1.639623,0.31709948,-0.408042,-1.6226125,-0.29163817,-0.71283007,-1.4166347,0.36122978,-1.4347619,0.44104552,-0.741281,-1.3238624,-1.2830969,1.8349332,-0.6192731,1.623702,-0.31048432,-1.4279753,-0.27832225,-1.0045648,-1.7105262,-1.164215,-0.9932464,0.9601595,0.49692044,0.2556286,1.1321516,1.1692032,0.3816032,-0.4906312,0.6397982,-0.50012124,-0.33729348,0.3604274,1.3871418,0.83314764,0.8841232,0.16906023,-0.42508468,1.5974892,-0.4761289,-1.2281086,-0.72009337,-0.62783533,0.22967713,3.1485317,-0.033483844,-1.5163879,-0.8643207,0.70482737,0.46269464,-0.90574265,-2.3316176,-0.69293123,2.0910573,1.297214,0.7176804,0.33451834,0.6508619,-0.30685562,-0.13242155,-1.8578047,-1.454352,1.7813504,1.4009488,-0.80753785,0.46322033,-0.7111575,0.39739504,0.34445804,-0.9085472,0.28083637,-1.31604,-0.017142437,0.85501367,-0.7490454,0.5417492,0.7304685,0.7670949,3.175811,-0.31871808,1.350888,-0.0042758444,-1.0833908,-0.55313283,-1.263373,-0.758409,1.5812726,0.8964054,-0.92989093,0.7519591,0.2796797,1.5892315,-0.9165736,-1.2940809,-2.0566518,0.14642775,1.3077867,0.6393393,-0.9020604,-0.14914532,1.5490172,-1.5898483,0.80077416,-1.2906209,-1.2295713,-1.594199,1.1748852,-0.7114852,-1.5377079,1.7445602,0.4794385,-1.0283271,0.9334063,-0.36180404,-0.66284794,-1.0478638,0.024643363,0.089272685,-1.9502208,0.9203385,1.1699048,0.82696074,-1.0678828,0.96826625,-0.9695242,0.032833435,1.4123874,-1.3084168,-0.22599043,-0.24562371,0.25921935,0.73194474,1.5009434,-1.3476691,0.6988169,-0.91876155,0.13957523,1.1146766,-1.7015581,1.0724825,2.0161972,-1.1940928,0.9535746,0.27964914,-0.8497527,-0.105169795,-0.88134485,0.38561887,-0.36663392,-0.89717925,0.4056583,-0.83699155,1.5371292,0.8165136,-0.83514893,1.0499811,-1.0906159,2.3248088,1.0891126,1.755326,0.21049571,0.58232033,-1.5214087,-0.9362777,-0.115686715,-1.2319736,0.6014541,0.31925818,0.075601324,-1.7151875,-1.1656756,-0.50539374,1.7192101,-0.105915464,-1.6471701,-0.033060484,0.68418103,-1.7888533,2.259461,-0.8855318,1.2594571,-1.5698066,0.25094151,-0.059619866,-0.1433283,1.0055281,-0.68435615,-1.3162954,1.2868426,2.03792,-0.10512168,-0.8377707,-0.21306421,-0.63642293,1.1116841,1.5898182,0.26649672,-0.9698756,-0.13482103,0.9223806,1.0004655,0.6952636,-0.034578707,1.7792674,1.4419014,0.8435202,-1.293483,-1.2529217,1.4769965,-0.4506489,0.22065721,0.1286608,0.5660211,-0.45978364,-1.3256644,0.351397,0.8598702,2.5239513,-2.7857556,1.0685945,0.04077807,1.4425608,0.62138194,0.68433636,0.17996782,-1.1815915,-0.3461301,-1.1079023,-0.73932534,-1.1142584,-0.61996794,-1.649952,1.7302926,-0.7508067,0.80120206,-0.7018975,-1.4301581,-2.161062,0.022946376,-1.286263,0.6482117,-1.0592996,0.44409394,0.14130405,-0.7415062,0.058345366,0.46247992,-0.458426,-0.1617096,-1.032668,-0.6304483,-0.36150455,-0.008607565,0.22207971,0.40631902,-1.8423162,1.1076971,0.9234768,-0.6074155,-0.8459499,1.2512033,-1.9898704,0.57125705,0.5735181,-2.712851,0.15235303,-1.3677187,1.0082928,-0.1506407,-1.3444127,-0.9719924,-0.48266935,2.0205774,-2.212824,-0.7759537,1.3954251,-0.75665283,1.7710145,0.26924953,0.528816,-0.10385712,0.74057144,-1.8751472,-1.0651947,0.93162674,1.4541149,0.74347425,-1.4976786,0.44754192,1.0934145,-0.95346284,-1.0877587,-0.4230388,1.5206167,-0.60050774,-0.8862798
APOC1,-0.027308414,-0.73084176,0.56482595,0.22707869,-0.21243879,1.8375152,0.60805535,1.2855403,-0.44968274,-0.6555376,-1.8814569,-0.43050468,1.4373958,-1.2202489,0.15332615,-2.0541275,0.09229943,2.3927925,1.2553303,0.5960531,0.99071485,0.7249002,0.7505061,0.51165396,0.6435565,-0.41742185,-0.35375732,1.1746904,0.35984147,1.389687,-2.551078,-0.9381054,0.38356853,-0.6238699,1.0628295,-0.30872574,0.12782048,0.57083106,0.13201769,1.3780369,-1.3872819,-0.079051584,0.053337384,0.8224414,0.67848563,1.1590797,-0.19823043,-2.6733932,-1.7500083,1.368831,-1.596695,-0.002158839,-1.6552058,-0.12110169,-0.5278445,-0.33521944,-0.39178586,-0.034779135,1.0447984,2.2485206,-0.073760584,-0.984666,-0.8235034,0.7708964,-1.6245102,0.5333476,1.9417061,-0.09523409,0.83139557,0.9200727,-0.5193932,-0.6603498,-0.12580611,2.9903877,0.04386639,-0.034146026,0.8937598,-0.19884554,2.0089705,-0.19620638,-0.46854213,1.2315685,-1.0583797,-0.8783891,-3.2724915,1.9947731,-1.282001,1.9945709,-0.2797622,-1.7253897,-1.3916695,1.9331471,-1.1583595,-0.49640653,-0.76767653,-0.8359998,-1.7693563,0.3659778,1.8886237,-0.88283664,0.65069264,1.5515859,-1.409539,-0.5460826,-0.22279613,-1.826154,0.7915969,1.2285125,-1.1059909,-1.4327573,-1.4446242,-0.02375075,-1.09369,0.51153934,0.05962769,0.5286534,-2.2105062,0.84024525,1.3788476,-0.53526086,0.6441807,0.18320023,0.23156135,0.39819527,-0.8797067,0.5022845,0.47876018,0.32941493,-0.11047626,0.75836694,0.640955,1.0577366,0.039419558,0.92609125,-0.10281763,0.82597435,-0.27794826,-0.4249235,-1.74777,-1.4871354,-1.4480568,-0.038927123,-1.7202972,-0.5535102,-0.9884576,-0.6989334,-1.8577826,-1.7669184,0.3421513,-0.4984043,0.38476267,1.6373308,-0.46311104,-0.5154336,1.4893787,-0.4078593,-1.9919202,1.0869325,-0.99150413,0.17504339,0.99035215,-0.44793153,0.35575905,-1.7625648,-0.48914817,-1.10829,-0.13448913,-2.315737,-0.6730975,2.3639977,0.80756223,-0.1274969,1.1626815,-1.3353394,0.62599033,1.296566,0.5024399,-0.9361113,-0.5180336,-0.8486131,0.39113694,-0.26539382,2.571862,1.2954031,-0.01986109,0.13038959,-1.9010043,0.52191633,-1.1822459,-0.5488895,0.17042147,1.5774028,-0.5786685,0.03156904,-1.3797406,0.7891655,1.3778248,0.68956816,1.0144581,1.1213388,-0.97483915,1.2381912,-1.3569238,-0.2365174,1.0255091,0.36486736,-0.7066773,-0.01970028,-0.1034963,-0.16129632,2.0542605,-0.5961127,0.825728,-0.19764854,-0.6492159,-0.5697064,1.1955936,-0.087793484,-1.4520414,-1.448149,1.4239689,1.2832723,-0.31652766,-0.07061685,0.22818872,-0.394117,1.7931527,1.1976882,-2.562627,-2.0046246,-0.10387012,0.9559335,1.98209,0.9394294,-0.031057661,1.609126,-0.089023806,-0.035903875,-0.045347407,-0.69743246,-0.45085368,1.7968249,1.1233829,-1.6869968,-0.1583658,0.3589731,1.3850231,1.875145,-1.3952571,1.0678751,2.0306036,0.28566387,0.47782177,-0.9455797,-0.2657544,0.88487554,-1.3381511,-0.27237514,1.348669,0.7202093,-0.4189169,0.54149896,0.497083,0.4089719,-0.17302744,2.9055326,1.2032403,-1.4641385,-0.0026200986,-0.60025024,1.0712814,-1.56051,0.24014242,-1.2202364,-1.6746868,1.634293,-0.8953987,1.0103583,0.84001505,0.27686638,0.49526167,0.8066744,-0.3619467,-1.3824625,-0.60962903,-1.8499645,0.13376255,-0.7379132,0.21327512,0.9606412,0.7815695,-0.7819897,-1.7391812,0.4541353,3.1772542,0.17053641,4.834558,-0.27397868,1.1698301,-1.5484924,-1.1827861,0.53551,0.052075155,0.753779,0.4942499,0.4811435,0.30563954,0.89578635,-0.77496606,0.76546067,0.849843,1.6346619,-1.0342596,-2.6553404,0.04399852,-0.47246858,-0.4315487,-1.0386984,0.9107511,1.5214232,-1.038595,0.0060331426,-3.3577728,-0.13915612,0.24568336,1.1461927,-0.2059441,0.014595668,1.6483498,-1.1341596,0.582716,0.21060416,0.24168245,0.30231187,-0.31435782,-0.97225696,0.21728909,-1.1744748,-2.1195445,-1.3159654,0.33846515,0.15845409,-0.32547426,-2.0241177,-1.3063822,1.1631607,0.6681337,0.6463176,-0.016814938,-0.73072374,1.3080275,-0.24796546,1.5762005,0.9704265,-1.0152632,1.0187026,1.9132997,0.3810613,1.723385,-0.91630185,-1.153578,-0.04832317,-0.8161395,1.3659655,-0.28153154,-1.4485669,-1.9806024,0.7434954,-0.6735065,0.7176199,0.42547774,-0.9201661,-0.92829233,1.5730828,-0.44136593,0.103877135,-0.9118756,0.59656227,-0.9080484,0.1382235,0.4047304,0.64694077,0.4263607,1.2662281,-0.52199996,-0.36286744,-0.43770978,0.39227563,-1.3467344,-1.6728479,0.6603614,2.0907676,0.36534178,0.8774202,1.7959124,1.2615899,0.08809137,1.8188386,1.2424246,-0.8494564,1.277645,0.039344236,1.5892369,0.39363828,-0.6275372,-0.16487136,0.912457,-0.4528701,-1.3205793,-0.9933708,-1.9481344,0.61203045,-0.48026562,0.22110875,0.6001448,-0.42632425,-2.1220536,-0.40275234,-1.2285041,0.7422958,-0.98505986,0.44527844,1.3837932,-0.77878445,-0.5120042,-0.44352522,0.42533422,-0.9313997,1.41404,-0.99183625,-0.48442253,-2.1564226,0.84230256,-0.10287734,-0.76312995,-0.12930955,-0.16993225,0.29370406,1.4842532,-0.14542075,0.21283175,0.39596394,-1.0268286,-0.1759698,-0.028178198,1.2810735,-2.544728,-0.6833795,0.9847656,1.4855393,0.3617889,-1.1035784,-0.962189,0.07577962,-1.3725404,-0.33284262,-0.336848,0.11822712,0.63532996,0.101382114,0.80941015,-1.6564319,1.1938193,0.5950564,-1.0301714,0.027555473,-0.91230077,-0.21214266,1.5803394,1.003011,-1.1905456,-0.8930396,-1.4357708,0.47834548,0.81271315,-0.9633473,-1.269823,-0.008078109,2.165143,-0.068791926,-0.7704755,0.40441006,-0.4933745,-0.18631099,-0.0990969,2.5913491,-0.33058622,-0.24773051,0.5054102,-0.28482667,-0.60012805,-0.9599523,-0.42876613,-0.062352538,-0.22067697,0.45823243,-0.075798154,-1.397373,-0.31410933,0.8028889,0.6051506,0.4425888,-0.74763227,-1.5195956,-1.4075524,0.36140868,-0.18903111,1.0589285,0.91371036,-0.081089236,0.49223647,1.3812144
BTNL3,-1.6450026,-1.256993,1.3817008,0.04500338,0.9778349,-1.5385141,-0.60218495,2.25565,-0.49517167,0.033641774,0.53630686,-0.13754095,1.1114802,2.2294993,-1.6325918,-0.026934575,0.6693805,1.6545608,-1.4858927,-1.3610688,-1.4749516,2.8148513,-1.2438296,-0.22486974,-0.167286,0.31838366,-1.4898424,0.55463815,0.8161363,-1.4833018,0.033996195,0.35326982,1.4431078,-0.52513355,-1.923968,0.014955789,1.2296698,1.0986319,-0.9101089,1.1902926,-0.8870578,-0.6493461,-0.5220504,-1.1082293,0.5973833,1.3248612,0.41816562,0.4805818,1.5512607,-1.0368603,-2.5425317,-1.283672,-0.40281656,2.9314182,0.66420126,-1.4953601,-1.441522,0.62399036,-1.1948674,1.3495637,1.1552323,0.27738467,-0.7233576,-0.84650683,1.0917238,1.0938748,0.85861546,2.2429132,2.061532,-0.032601405,0.1940738,-0.7198857,0.83609796,0.5018989,-1.0138263,-2.580003,0.9013215,0.40969315,1.846584,1.2790015,-1.466607,0.56329674,0.40679383,0.66466725,-0.23189445,1.505154,-1.8184029,-1.1787803,-0.32963863,0.48371747,0.1332999,-1.4716254,0.24788372,0.7810684,-0.46971714,-0.68407536,0.6446979,-0.6240533,2.2367096,1.0080094,0.53227514,-0.27413243,1.8400961,0.85458064,1.383753,-1.1018866,0.94900864,0.29755393,0.6781045,-0.8845771,-0.63696635,-1.1304781,0.27793992,-0.3124274,1.0847908,-1.0601324,0.2924736,-0.71476924,-0.44269338,0.11640911,0.13541786,-0.6173458,0.14436962,0.74271697,0.26970702,-3.1880267,-0.15828341,0.20069054,-0.25664318,-0.9868864,-0.03727694,0.35036674,-1.155512,-0.02093177,-2.5509567,0.838751,0.17489676,0.26954043,-0.40159482,-0.7415463,0.5864447,0.5560787,-2.5395758,-0.09996219,-0.18670644,1.3162036,0.21688683,2.369021,1.1220957,1.1917332,0.63908684,-0.90294,1.5534588,-0.041662175,1.1407015,-0.43489268,0.3172088,-0.6811165,0.4103131,-0.9955882,-0.6068961,1.4694295,-0.40673962,-0.71986604,1.6032629,0.23836406,2.1397753,0.07541825,-1.1896244,-1.0793993,-0.225625,-0.119373314,1.0590707,-0.6753204,-0.30018407,-0.58786666,-0.9153345,-2.1228805,-0.31424898,0.56435794,1.4306915,-0.48837286,-0.78612846,-0.57643735,-1.5548841,-0.99016464,0.030951012,0.31054983,0.8311528,-0.761998,-0.77908355,1.0234973,0.6410287,0.68279237,-0.6859774,-0.7459664,-1.6653049,-0.29624623,-0.09617958,-1.4059813,-2.443839,0.739157,-0.8824304,-0.8862488,-0.4993651,-0.04614924,2.4015982,1.0133502,-2.143658,-1.0321211,0.64577794,-0.16726376,-1.4201874,1.0946444,0.113752685,2.477183,0.65802765,0.33659378,-1.2156646,-0.80721015,0.7709841,-0.9453346,0.27501515,1.9099488,-0.22090861,-0.40729633,1.1485935,0.8872553,-0.5968322,0.06342622,0.7288273,1.0036457,1.6854842,-0.31011304,0.52920413,1.4359611,-0.9754312,0.48301125,0.028476406,-0.23047188,1.1072308,0.70932,-0.88009137,-0.6401476,-1.2390403,-0.36887303,0.042930067,0.20643704,-1.3869486,1.0603908,0.73813444,0.13276549,0.8318456,1.3734604,-0.7454303,0.90955234,-0.82232577,-0.3108433,0.47450274,-0.39531982,2.150735,0.8231781,0.49251014,-1.7087818,-0.153938,-0.60491604,-1.2004664,0.56610763,0.86989105,-0.00788889,1.0197581,0.24364759,0.22446035,-1.2164537,0.013173416,1.4095261,0.3182692,-1.11147,0.18772346,1.3613551,1.5496765,0.57384944,-1.7182777,-0.9108838,-0.90256506,0.3721615,-0.57121444,-0.47713783,0.39106756,1.3530583,1.3826927,-1.1574776,-0.8949932,0.20863643,0.28557265,0.8909038,1.9590565,-1.2064651,1.1220447,0.3296177,0.031638004,0.27208984,-1.6777254,-1.3154562,0.008354006,-1.5520539,0.19410607,-0.39917037,-1.0898322,-0.49514705,-0.55958694,-0.14062503,-1.8426282,-1.994522,-0.3817607,-0.22158194,2.5701716,-0.37817904,0.69768816,-0.5252351,-0.016828159,-0.94511735,-0.15989193,-1.3653355,-1.2269719,0.2746407,0.3129867,0.901411,0.36673388,-1.0641409,-0.1709763,0.93581,1.1888938,0.24819964,-1.3313009,1.629225,0.52355057,0.92984927,0.6057327,1.4242643,-0.44745526,-0.5470788,0.3668909,1.7127762,0.62085885,0.6647959,-0.50860196,-0.29829675,-0.80740064,0.5725706,0.33782905,-0.703128,-1.2048165,1.9254515,-1.0714092,0.24709079,-0.88475114,0.04391495,-0.61964905,-0.1550454,-2.384149,1.6149914,-1.0764289,0.85117656,0.74400973,0.08674908,-1.4048784,-2.85948,0.52337307,0.15437675,1.0657666,-0.9260703,-1.3668259,1.5471592,-0.3015082,0.368349,-0.8998154,-1.8685478,0.8841925,-0.43233576,-0.5198652,0.15143085,-1.2455844,-0.42567196,-0.7250373,-1.0250695,-0.31629047,-1.4327536,-1.1081645,-2.3907418,-1.6347153,0.5455405,-0.9139987,0.083037466,0.64718735,-0.6244985,1.6033609,-1.5171031,-1.148739,1.2776493,-1.399525,-1.4329842,-0.26984373,0.3390815,-0.8948046,-0.9297116,1.1746787,1.7172089,-1.6545509,0.7046232,0.0403363,0.3357791,-0.16457586,1.0229117,-0.3814832,-0.061459437,0.86936575,0.17113975,-0.6180797,1.951386,0.77957135,0.65891206,0.8383186,-1.3495134,-0.9919232,1.0571645,2.2455373,-1.5116684,-0.1002992,-1.111032,1.4008255,1.2034513,1.2452896,1.8491827,0.6947292,-0.31143737,0.93589807,-0.15568851,1.4275893,0.8160124,0.8461024,-1.0102597,0.20747286,-1.861494,-0.045608412,-1.4708364,-1.7224723,0.21812521,3.1131628,-0.88244915,-0.084949024,0.14807715,0.0847222,-0.5881246,1.0659212,0.90913534,1.7233489,-0.084277794,-0.22880995,-0.49270317,0.45453802,0.083186254,1.5296576,1.1370187,-1.4004,0.038922705,-0.6767201,-0.3021136,-0.39087975,-1.1861596,-0.16129996,-1.3134925,1.1220398,1.3302054,-0.52527285,-0.12139458,-0.76099014,0.6426896,2.297337,-0.57968587,1.2099777,0.712485,0.8494971,-0.60204667,-0.67179054,-0.6741034,0.58808196,-0.49083978,-1.018144,0.15914215,1.0443116,-0.5855826,0.41269484,0.90656185,-0.046928294,-0.49348208,-0.12116655,-1.4317666,0.6189576,-1.3691355,-1.2296877,1.5507154,-1.0204891,2.2599883,-0.2902375,1.0184287,0.24526435,-0.27098873,-1.2039618,1.3692819,1.8456401,-1.2602663
CA1,0.64174706,1.0442216,-0.34213448,0.89748406,-1.010697,1.40985,-1.8127388,0.52908677,-0.26389727,0.1959188,-1.4957075,1.7796417,1.7271085,-1.0794113,-0.34626776,-1.6611634,-0.64722604,-0.2684548,1.6906371,1.7832518,0.30338022,1.9250156,1.7299135,0.6918617,-0.77014214,1.7313312,-0.35763174,-0.079029575,0.804912,-0.50379395,0.5291801,0.2076256,-2.810095,0.27624092,0.64870834,-0.02317003,1.8943263,1.2974548,-0.10893323,2.1858773,0.57453007,-0.68651706,0.26352984,1.6097717,0.25982782,2.5540478,1.2906045,-1.7829659,-1.1455702,-0.103854716,-0.4225756,0.03645985,-0.116445035,-0.7027534,-0.42666513,-0.19199623,1.2667187,-2.1247313,1.5756915,1.8171893,-1.1957043,-1.7087975,0.45417145,-1.7575456,-0.7871364,-0.41627103,-0.26143003,-0.70275664,-1.1650629,-0.2714187,1.1669037,0.73556244,0.7728543,0.067409664,-0.74536645,1.1509078,-0.3245829,0.008404019,-1.1702192,-0.8543252,-0.8755225,-1.2488916,-0.77799034,0.32423759,-1.4125981,0.7965511,0.9456956,0.38591215,0.2616548,-0.23018354,-0.10235386,-0.4338844,0.6476612,-3.0848277,-1.3179125,1.202569,-0.9315067,-0.52104205,-1.2719887,-1.4346852,-1.1740432,1.0688757,-0.8692849,-1.9257326,0.2056586,-1.8663424,0.09684747,1.6329485,0.20574704,-0.69739497,-1.337107,-1.5075579,0.2961754,0.6070422,-1.514285,0.59167194,0.9194811,0.65197235,-2.09917,-0.062151983,0.49945405,-0.42489228,0.43051922,-0.15853965,-0.11764012,1.3941329,0.027696334,-0.90785253,0.61631274,-0.90171343,-0.2064649,-1.4911654,-1.786225,1.0290239,1.1805135,-0.1490559,-0.7559726,1.1126255,0.41409686,-1.166582,0.81860214,1.8614948,0.18963861,1.4897004,1.863599,0.7076615,-1.3788868,0.09400786,0.31986964,1.6521733,1.4023579,-0.33328003,0.06713791,-1.5757269,0.7918843,0.0567423,-0.04623022,1.0213387,0.5736115,-1.2804596,-0.32229885,-0.23952591,-1.0392896,-2.2440045,-0.10472553,-0.6418431,-0.006220327,0.42702264,1.0123304,-0.13441522,-1.3008204,-0.49617982,-0.340735,1.6058403,1.8812907,0.49089584,-1.5035654,1.5222987,-0.22958297,-1.7899113,-0.36740094,0.6481708,1.8122325,0.32196137,-1.0679936,0.9149674,-0.17522591,-0.46747294,-0.70393616,0.48088545,1.0193158,1.6678233,0.26989987,-0.5131083,-0.75749564,1.4085226,-0.72303736,-0.6092643,-0.2669883,-1.3365092,-0.21545011,2.2239637,0.75721395,1.0349153,-0.31387794,-0.837454,-1.4796152,0.5205229,-0.3410126,0.22407113,-0.5002937,-0.35817212,1.0454986,0.81249225,2.2013133,0.15852842,0.9755694,-1.1529921,-1.0453372,-1.086643,-0.31082147,1.4966283,-0.84900916,1.4920183,2.1158936,0.19811405,1.9293703,-0.18176039,-0.261503,-1.285465,0.38676694,-1.5951232,1.4806596,-0.0063905893,-0.7335935,-0.31710935,-0.37084717,-0.30115128,1.0551922,1.4224795,-0.40494347,1.4205117,0.67353106,1.6740348,0.018783128,-1.7192771,0.91774523,0.27248248,-0.74817467,0.74702305,-1.2953302,1.7513226,0.6527302,0.74371916,0.71975076,-0.10841635,-0.09378333,-0.7050644,0.9211538,-0.2163511,-0.19144297,1.1794034,-1.6949233,-1.0671756,0.3904651,-0.7943883,0.07127867,-1.6178508,0.5725044,0.5660171,-0.3297794,-0.3269443,-0.58600616,0.015070527,-1.0700238,-1.7234404,1.1009033,-0.50045073,0.36089846,-0.65030044,-0.85287625,-0.28001088,0.869347,-0.07582106,-1.0100332,2.1489105,0.1678604,0.3796318,-0.56560415,-1.0293417,-0.4128718,1.4780663,0.35997942,-0.0015305119,-0.4984243,1.0594356,-1.1988468,-1.8602529,0.67869514,0.7734767,-0.858977,0.22596416,0.0880845,0.71715677,-0.46140233,-1.1501515,0.81577253,0.2434189,-0.32605734,-0.30695114,1.3788842,2.752182,-1.0085253,-0.19019106,0.58076006,1.7885094,1.7794137,-0.00024176124,1.67625,0.18425654,0.7532797,-0.35163346,-1.3283241,1.3541913,0.8669379,-0.8178361,0.6349491,-1.3336765,0.6861005,0.002329872,0.34289944,-0.09813231,0.799252,0.005467267,-0.41365126,1.1175275,-1.1475142,-0.84565175,-1.3487401,-1.2750201,-0.2890113,1.3043767,-1.1679888,1.0359122,0.37527284,-0.46759924,-0.9234043,0.92326397,0.04320446,-2.2030096,0.16504867,-1.282729,1.1274649,-0.8295816,-0.6848164,-0.1917578,-1.5445433,-1.832239,0.62054,-1.6108841,-1.0525608,0.23602661,2.2468882,-0.42458293,-0.98200274,0.9256779,-2.3063385,-2.4536855,-0.22974367,1.1033762,-0.89423275,-1.3993766,-0.13497132,1.3041451,1.4442302,-0.41768435,-1.7000805,-0.99504536,-0.9233253,0.11594051,-2.1777887,0.5769611,-0.7563002,1.3510183,0.4899929,-0.3678031,-0.18128842,-1.9452976,1.098472,0.23345746,0.011528016,-0.6286896,1.4482249,1.3739411,-0.67838097,1.1154499,1.7571621,1.4980818,1.9119356,-0.8987706,-1.0987027,-0.17861578,0.959329,0.012602275,0.2852644,-0.16004731,-0.6422159,0.5918969,1.5508558,-0.94620687,-1.1472327,-0.026964081,-0.94883996,-1.1742388,0.13318388,1.6203476,-0.21674715,0.46106806,0.14963058,-0.7485442,0.731271,-0.8938504,-1.132747,1.2164434,0.76107407,0.66222143,-1.112152,-0.6722959,0.9024909,0.9283456,2.2482693,1.0103786,-0.28130838,-1.489178,0.54773384,0.9706026,-0.069754325,0.6288475,-2.372796,-1.5575399,-1.1434386,-1.8571252,-1.8115025,-0.4572119,-2.2767942,0.17079511,1.9051939,-3.2537396,0.4355019,0.607465,-1.1299958,0.31356055,1.3058376,0.4950447,-0.09153089,-1.759308,0.8540449,-0.30699912,0.9577299,2.3061054,-0.9882183,2.579499,-0.20281117,-0.56048876,-0.97662836,-0.5290487,0.35344854,0.77291334,0.86809283,0.75288385,-0.68587166,0.67581743,-0.99897754,-1.3061795,-0.4896146,0.22757185,-1.1542401,1.7434132,1.3383373,0.30455846,-0.93257165,2.1332343,0.3855607,-0.2271834,-1.3637174,-0.3742262,-0.659563,-0.65975076,0.57153326,1.193133,-0.87418854,1.6073103,0.62387806,1.6150938,-0.07834789,-0.17616993,-0.24151844,1.2134975,0.4985865,0.47151053,-0.29718858,0.7450454,-0.9457595,1.7069907,-0.0041514337,-1.4718106,-1.1121184,0.50971866,1.3249326,-0.016463842,-1.3316598,0.22684133
CA2,1.0461779,-1.9950298,-1.1807653,-0.5781185,1.7006754,1.4755371,-1.589804,0.5700511,0.71711653,0.88339084,0.39633566,0.8165674,-0.8279417,-0.8586792,0.32857987,-0.97579694,0.111046985,-1.2807614,1.4399307,2.161712,-0.33531824,1.4768608,0.41274545,1.4694891,0.9831721,0.39116886,-1.555438,1.7468232,-1.8026431,-0.57642615,0.3915167,-1.2538066,0.054127596,0.94519824,1.1321095,0.5709893,1.3050604,-0.06075872,-1.2012861,1.8982363,-2.3934093,-1.369581,0.97094536,0.7534256,0.2585475,-0.042291723,-0.064900935,0.24981779,-0.83227676,-0.98657185,-0.58896476,-0.49402696,-1.1797198,-0.08885997,0.84759045,0.1160729,0.16525514,-0.12124095,0.38452646,2.0076394,-0.45179173,1.2805809,0.6663443,-2.0301135,0.50709635,1.2632703,0.5966452,-1.2097704,1.1009653,-0.6292018,1.0322794,-2.4716752,0.58538747,-0.8012519,-0.6467062,0.4836753,1.6878505,0.21932551,0.80970484,1.2673609,0.15913925,1.3664528,-0.69173175,1.7587478,0.6000231,0.17651099,-0.8408693,2.40462,1.2231973,-0.25134155,-1.6910113,0.27886245,0.48580405,-0.21217372,-0.62746274,0.5154887,-0.81429744,-0.6469151,-0.071457736,-0.03451421,-1.3906715,-0.8401135,-1.7112898,1.4241095,1.0914268,1.3422011,-1.3682134,1.3554609,-1.9712324,-1.3906388,0.33093002,0.13997614,0.689123,-2.2480302,-1.3408737,-1.771822,-2.342073,0.8230471,0.85029334,-0.4420977,1.8134246,1.7432295,0.60173017,0.23086542,1.55766,1.7176425,-0.15843084,-0.6070884,-0.6447601,-0.056369063,0.35042328,0.20862497,0.33140433,-0.8249211,2.272712,0.30731264,0.6825846,-0.4855099,0.7647612,1.686893,-1.6686153,1.4016361,0.3479055,0.3442565,-0.69586086,0.3076042,-1.7696363,-1.2816533,0.20978707,-0.040795676,1.186692,-0.80068475,0.99430203,-1.0108118,0.17365098,-0.36804196,-0.5342338,-0.29749277,0.09815853,0.2753987,0.3565168,1.0700648,0.8162541,-1.9306735,0.64136344,1.106775,-0.14563216,-0.79245466,1.0491267,0.8051437,1.1049409,-2.0029566,1.0678614,0.79279953,0.17620121,-1.5978807,0.034936033,0.54633504,-0.35202876,-0.79272515,-1.0071626,1.3622615,1.917008,-0.099353015,1.0472633,-0.32764292,-2.6041236,0.006975281,-1.9508392,-0.023808675,-0.15620293,1.6507849,0.7490978,-1.2627163,-1.1415684,0.9084613,-0.79451585,-0.86276007,0.28096512,-0.19089802,1.0985168,1.3381805,-0.44861463,0.5964145,-1.6038202,-0.33001238,0.3078103,-0.28108856,-1.0232979,-0.12279525,-1.014078,1.6783112,-0.113344386,-0.5504693,-1.448651,0.4505755,0.25071746,0.3278556,0.16231823,-0.7491798,-1.7931069,-0.26867047,0.8605634,1.9364711,1.4778712,-1.8148015,1.6049179,1.5427613,-0.6739269,0.52132887,0.031825304,0.45922297,-1.0715435,-0.9854044,-0.317168,0.512858,1.3436977,-0.28421384,-0.16388474,1.744773,-1.7853017,0.39981166,-0.41816258,1.2307817,0.14874437,-0.63103116,0.9312832,1.3406364,-0.694808,-1.1124977,1.7382258,2.378684,0.8035887,-1.7210473,0.36805484,0.17973325,-0.045124874,-1.0109346,0.102472685,-0.31323582,-2.7353487,1.1548449,-0.96860164,-2.0189445,0.9130973,0.6671458,-1.0424707,-1.9784439,-0.5861628,1.7238377,0.47594362,-1.6565214,2.181981,0.48143506,-0.2694637,-1.1898623,-0.3179013,1.8117381,0.50663924,-1.7967575,0.15936682,0.40614143,0.19779219,0.28324163,0.47143322,0.47892898,1.2491642,1.8241874,0.9885841,2.5858312,2.3533325,-0.8063,-0.039010327,1.452524,-0.97801375,-0.7042482,-0.4997446,-1.1781163,2.073817,-1.0211016,-1.8942448,-1.5024692,-0.4405007,0.82837665,1.3145713,0.5722033,-0.8091061,0.0262205,-0.047466073,1.8625454,0.01954625,-0.0707646,-0.97110444,-1.1056409,0.0274868,1.6708541,-0.62509435,0.37997854,0.6674141,-0.27677846,1.5967424,-1.0305566,-0.3556729,1.0563005,0.9940566,0.99402326,-0.8108918,-1.0924413,-0.590253,-0.3244087,0.14173217,0.046567135,1.0704578,0.060047228,-0.4298444,-1.4142443,-1.821888,-1.12165,-2.0787737,-0.46042722,-0.9044669,0.53122497,0.2529888,1.9873717,0.7992349,-0.5710595,-1.1573914,0.707985,-0.3951247,-0.060665276,0.01058578,0.7235526,-0.611922,-0.35962445,0.10561217,1.2287326,-0.090694934,-0.16573484,1.6636523,-0.7526907,-0.8577776,0.8265648,0.6774341,-1.193484,1.0055242,0.9992546,-0.777251,-1.0788162,1.0639286,0.90513134,-1.4469817,0.22200915,-1.5226963,-1.2996507,0.8450339,-1.4655458,-1.2539788,-0.083131336,-0.061580323,-0.9955428,-0.4959265,0.61047924,1.6621457,0.09950787,-1.0344656,-0.72106797,1.3651311,-1.9222268,-1.7149053,-0.76497084,-0.597622,-2.045326,-0.46637452,-0.972143,-1.7367927,-0.01633609,0.2196335,-1.7026879,-0.7410683,1.0091101,-0.30567113,0.63229865,-0.3280002,-1.3605188,0.57539123,-0.5571368,-1.4441739,0.49612468,0.22771184,1.0583535,-0.86141527,0.23739466,-1.9514807,2.0929646,1.073262,0.88470674,-1.2916144,-0.5817351,-0.25283188,1.9574537,0.15944651,0.3465976,1.7564925,-0.39288476,0.09148718,0.9115953,-2.1860895,-2.102886,0.9760136,1.0875872,2.030141,-1.3522235,0.04445272,-0.72660583,1.1804035,0.539621,1.6733265,-0.49270406,1.0364336,-1.2841212,-2.178228,1.3059155,-1.4282358,-1.6563525,-0.6710729,-1.6606435,1.061582,0.7725725,0.6562951,-1.0212898,-0.9639912,-1.1730229,-0.4312749,1.6954656,-0.8633869,0.4625655,0.2199612,-1.80914,-0.40643388,0.77554893,0.44335845,-0.07343715,0.08247711,-0.078578345,-0.5586811,-0.3784268,0.019742267,-0.15263861,-0.2654251,-0.4514344,-0.16828059,0.7089817,-1.0540838,0.44611937,-0.22934176,-0.40624166,1.0648293,2.24883,1.2364699,0.10523977,0.7426939,0.6038332,0.9854403,-0.7551901,0.9375308,0.74846673,-0.33603936,0.79713035,-0.9541356,0.86777174,-0.24152556,-0.41920108,0.030418238,0.45574936,0.15505517,-1.2051874,-0.3765395,0.53891397,-0.020525524,1.4537598,-0.5962444,0.055913124,-0.07207761,0.93824595,1.1675466,0.5927501,-0.5254345,-0.09196507,-1.1911007,-1.544302,-0.7342251,1.6619384
CCL14,0.42101553,1.7503057,1.7031277,0.04896203,-0.6879598,1.8725119,1.2346554,-1.0674696,1.1060863,0.11305667,1.5589796,0.12402489,0.7423452,-0.9334447,-0.51288515,-1.2918056,-0.11351558,2.6991003,-0.6264821,1.0060692,-0.39620316,-2.265835,0.28298625,0.32018992,-1.5898637,-0.7701648,0.14084832,0.30265632,0.5752094,2.3575177,-0.23245649,0.69426966,0.36723682,0.38924715,0.9757592,0.653935,-0.43903655,0.5605769,-1.386855,0.25305903,-1.1187663,-0.48827115,1.5673416,-2.155708,0.057177857,1.3649354,2.302472,-1.0228497,1.4834726,1.0631064,-0.38111848,0.22001117,0.13576533,-0.46687776,0.7573494,-1.0021398,-0.9896551,-0.06657184,0.012359047,1.4187661,1.1136512,-0.2602276,0.9632195,-0.6031534,-0.22923797,1.2526495,-0.5709032,-0.16971917,0.4662526,0.9228328,-1.3119298,-2.438335,1.1592578,1.0971329,-1.6274025,-0.67568046,-0.083247416,-0.29566404,0.07350475,-0.7586788,0.78508055,-1.3935171,0.9334811,-0.9232114,-1.2120934,0.31781417,0.9866873,-0.944757,-0.27337465,1.282638,2.3643796,1.1913556,-1.3978921,1.2828466,-0.42219666,-1.0242053,1.1064552,1.184849,0.11432749,0.51622784,1.8287723,1.0506744,2.0020127,0.25464073,0.690018,0.77494323,-1.0530033,0.041821968,0.31955492,-0.29024372,2.0465755,-0.82878906,0.4956176,-1.0239568,0.5556499,0.46536568,0.24144615,0.026218642,-0.80550295,1.3340168,0.052794177,-2.1114848,-1.7864829,1.1893007,0.07421862,0.26449093,-0.9301579,0.70700383,1.0760871,-0.07378741,-0.5300327,-1.2440487,1.4948174,-0.9641924,-0.35743174,-1.0342282,0.31922162,-0.07062252,0.49606532,-0.12251936,0.5602402,-0.039267387,-0.4527704,0.7860523,0.4255719,2.318672,0.6304314,1.0178655,0.84722316,-0.9918429,0.015306361,-0.6350301,-1.8014395,-0.5117744,-1.8861283,0.9415592,-1.877732,-0.24131405,-0.79607064,-0.32157603,0.19284621,-0.26178256,0.5392949,-1.6052065,1.4765332,-1.5395563,1.5677907,-0.43402904,-0.62108177,1.2562685,-0.20931531,-1.38045,1.3740351,-1.394056,-0.5314209,-0.92873424,-0.053712334,0.48220295,-0.22865525,-0.32578623,-0.5805173,0.3422221,-1.6614498,-0.88404727,-0.8082947,-1.3051617,-0.20143217,-1.8519492,-0.4838384,0.37631887,0.33251148,0.3482255,-0.17129384,-0.6581142,1.9322485,-0.7897414,0.57918936,0.74913853,0.7822578,-0.9413984,1.7011453,-1.0880935,-0.41285634,0.5609345,0.05286731,-0.64726114,0.6422489,-1.3090366,1.8205737,0.008359206,-1.4101659,1.4687058,-0.16687202,0.117017075,0.14381857,-1.9218364,-0.35317042,-1.6600462,-0.45902652,-0.38776502,-0.9856758,-1.7704778,-1.0244007,0.40549743,-0.37220925,0.3857323,-2.0764933,-1.5230411,-0.048314404,-0.57710165,-0.62506413,-0.787983,2.145517,1.1711808,0.3192719,1.1656002,0.9016459,-1.0690542,-0.4310757,-0.7608396,-0.2620825,-0.17150044,0.86136115,-1.5055639,-1.3846283,0.3085044,1.1075387,1.121741,-1.4311143,-1.823899,-0.6668333,-1.6900562,-1.3431044,-0.2698911,0.26628295,-1.2068088,0.5827408,-1.5103806,-1.5016797,0.46185035,0.29676464,0.92091405,-0.21344474,-1.5297152,0.7360439,0.46631816,0.6077137,0.7408868,0.9515911,0.12055342,0.57859236,1.6777753,0.76724184,-0.75407076,-0.07384862,-0.63757837,0.15327659,-0.58018047,-0.29305866,-1.020408,0.88532895,-1.5159767,-0.14216085,0.25072002,1.2151654,0.79913384,-1.0346771,-0.47534186,-1.2460272,-0.5037337,0.82720274,-1.4308308,-0.4364428,0.07505385,1.1169541,2.1466858,-2.4038606,-0.38858733,1.813945,-0.51375055,-0.9860002,1.3199852,0.062277228,0.13785966,-0.608414,0.51672584,-0.5542874,1.8934355,-1.1444644,-1.533805,-0.8354396,-2.1622324,-0.6490399,-0.9242607,-0.09066034,-1.0355084,-1.3379761,0.3882823,0.85668176,-0.33945966,0.8997425,2.0342765,-0.09137252,-0.9850912,-1.4172363,-1.8852712,0.16967836,0.32477027,1.7165025,-2.1619337,1.1659434,-0.21162635,0.591152,-0.7600384,1.1858674,1.044735,1.103747,0.85334224,1.17303,0.27395847,0.8409139,0.26720428,-2.4098914,0.8690712,0.16089511,0.6710426,-1.0957102,-0.55749434,-1.0826292,0.93636835,-0.42896625,-0.45078954,-1.1739764,-0.8653465,0.7569863,-1.4152284,-0.46345577,0.5441147,-0.2845212,1.0531505,-1.9010259,1.7275205,0.42618597,0.8489065,-0.13727191,1.483611,-1.5601856,-0.28563377,1.2697922,-0.4853498,-0.90328157,1.3092914,-0.47543314,1.5150932,-0.17824152,0.185824,0.28000495,-1.5108349,-1.3077518,0.11200215,-0.007285585,-2.066996,0.18641353,-0.70420957,0.13406567,-0.6175693,-1.346525,1.7904088,-0.9665696,0.9563234,-1.7100255,-0.8770837,-1.2927839,-0.2875428,1.4742378,0.88674307,-0.89947134,0.20210011,-0.3344305,2.342607,-2.524078,0.40510082,0.7124601,1.1232438,-0.83303076,0.22457743,0.005945911,0.4274136,1.7764755,1.2514335,1.3071325,1.5073538,0.02654234,-0.45491788,0.053984564,1.7991939,1.545353,1.4846438,-2.0447533,-0.42694783,-1.2160892,1.3144071,-0.34955212,-0.50471216,-0.019990968,-0.045546852,1.6108953,-1.0564456,1.99365,1.0316961,-0.50428313,-0.5186316,-1.6910362,3.17028,-1.5347537,1.4440126,-1.6192344,0.8297739,-0.7608419,0.75967216,-0.31598538,-1.3534964,1.0821522,-1.4603791,1.5152519,1.7881454,0.3981283,-0.44141436,0.92170566,-1.3424035,-0.45182362,-0.43462026,-0.4005859,-0.60832477,1.0288407,1.431535,0.7309058,-0.8273289,-1.0324112,-1.0290511,-0.9802772,-0.01151062,2.5398557,1.2594777,0.38577926,0.65649813,-0.6874947,0.46998593,-0.0828848,-0.9800785,2.4959764,-0.94603556,0.84624624,-0.75507224,1.6157384,-0.09492599,-0.798686,0.5995153,-0.12778336,0.079783075,-0.3273872,-0.035091802,1.1330749,-0.31224856,-1.8994993,-0.2493267,-1.1630166,-1.4414266,1.21878,1.3531563,-1.3702061,-0.48355258,1.4878398,1.3126373,0.7688355,1.2167104,-0.10050925,-0.98236,-0.5795042,-0.26102716,1.058184,-1.6750606,-0.5688231,-0.2654002,2.3124635,2.459584,-1.2488027,1.6070846,-0.2637377,1.6867716,1.0087389,0.49965903
CCL21,1.4435108,0.21767604,1.9433776,-0.41221064,-0.95563656,0.34038162,-0.753903,0.14599735,2.603197,-1.7425015,-1.3078918,2.5330396,0.33774483,0.5996922,-1.2888733,0.9088872,0.5048891,0.2271499,-0.59484184,0.8415607,-0.5137263,-0.75330657,-1.0917935,1.0822462,-0.3921002,1.6702107,0.4401538,-0.20557925,-1.6272229,-0.98391354,-0.6550277,-1.2020562,1.7783856,1.1713055,-0.0945904,0.17844664,-1.0209755,1.898341,-1.7082524,-1.0192816,1.1799381,-0.7170081,-0.43705043,-0.7091455,0.700038,1.5186235,-1.3517582,2.0024705,-0.22105856,-0.43195105,-1.8797907,-1.6230911,0.4795255,0.14908798,-1.5306747,1.7263529,-1.9524497,1.171924,-0.9278733,-1.7143846,-0.018464154,-1.897946,0.44885045,-0.20001324,-0.7797212,-1.0117548,-0.90608543,-0.32255447,0.38338107,2.2453551,0.018148705,-1.8681223,0.08139705,1.5701798,-0.6519894,-2.2433136,-0.010080395,1.1726983,1.4499768,-0.690166,0.14568895,-0.69879955,1.428543,1.0450453,-0.3314875,0.35499573,-0.13906732,-2.6645248,-1.6258053,1.4248968,1.3137883,-0.75293225,-1.0207726,-1.3561403,-0.6852585,-1.4184843,-0.17990156,-1.234684,-0.33522275,0.13513829,-1.0140897,-0.21595125,-0.33632663,1.0892072,0.3976893,0.83488923,-1.9532083,0.14991514,-0.03485427,0.009806314,1.3122158,-0.86726964,0.94137514,-1.0088948,-0.79813784,-2.4385684,-1.2212865,-0.7291643,-1.3788471,-1.8149397,0.43418455,-2.3321712,1.3594849,-0.7628243,1.2131002,-0.34440476,1.124371,2.2069426,-0.034450553,-0.21323523,-0.5057119,0.3325485,-1.5350852,-0.5269058,-0.58351284,-2.5826395,-1.8525549,-1.1128923,0.119115904,-0.24539305,1.2263577,0.018705208,0.30818737,1.2918118,0.87307125,0.9742031,-0.40369326,0.746235,1.4717231,0.47400606,0.8260108,0.6909159,-0.6346235,0.58323944,-0.08930024,-0.9589796,-0.35301432,-1.6412168,1.4169574,-0.9410486,1.9326158,-0.40405914,0.45513877,1.4382135,-1.2957798,0.099656194,-0.39664844,-1.4871479,0.018349169,0.39197597,-1.3615642,-0.6745583,1.7514403,0.75690234,0.29838747,0.7284361,-2.0188043,0.90874994,0.14051554,1.911192,-0.3056571,0.58989936,-1.9761233,1.0343802,0.24221145,-0.49952078,0.72324234,-0.5873921,-0.29437253,0.084811404,-1.3921577,-0.05711308,-0.62290406,-1.2825739,0.37317377,-0.67626697,-0.99460864,1.1737169,-0.27978468,-1.3869879,-1.0320164,1.4829409,-1.1294968,-1.6178713,0.62369144,0.902543,-0.118624344,0.5574213,-1.301322,0.90991265,0.18852237,0.9815982,-0.82435715,1.1741624,1.3273089,-2.3701313,-0.16188994,-0.92352116,-0.22663157,0.09738394,1.350207,-0.14471436,-1.2214726,-0.6298181,0.3037599,-1.2143347,-2.0419302,-0.6871946,1.1652573,0.35854492,-0.2652112,-0.26852638,-0.71824056,0.881557,-0.7243879,-0.92413306,-0.8110111,-0.5310907,-1.6767944,-0.9136098,0.5699742,0.7640565,-1.7384764,-0.076031,-1.4129679,0.11708181,0.095916845,0.527455,-0.5796916,-0.46227372,0.88620347,-1.5703827,-0.56320506,0.46802875,0.7502275,1.9743239,-0.962844,-0.7717987,-0.29935572,1.1921808,1.3919933,-0.2311243,-0.56051964,0.3247672,0.3817439,0.8729006,0.8884449,-0.6990932,2.3842957,1.1299425,0.03761676,2.6737423,-0.79786843,0.046818648,1.3932885,-0.09188327,1.9694178,-0.69768727,-1.1686468,1.9536883,0.623224,-1.0248253,-0.55639505,-1.1180079,1.4463223,0.7363757,-0.064652026,1.5466489,1.7235161,-0.27577803,0.1137369,1.0726187,-1.4401149,0.5166804,-0.6966743,0.42126176,-0.60647434,-0.91017115,0.40417624,-1.061745,-0.31934154,-0.3606039,1.7065135,0.465821,0.8702634,1.3105971,0.5427838,0.23343626,1.1257591,-0.16448565,-1.1654578,2.5966427,-0.5600821,1.7153989,-0.850591,0.25957647,-1.5949694,-0.42904365,-1.6136701,-1.1261152,0.68212295,-0.027551513,0.50934595,0.11948156,-0.7989086,0.3401655,2.506365,-0.42052364,1.201109,0.17049947,0.5919507,-0.04271978,-0.6253876,1.1237298,-0.49663576,-0.28964588,1.4797416,-0.8572159,-0.35913163,-1.2671385,1.9627291,0.25830173,0.4097346,2.28551,2.1223335,0.20242587,-0.113223664,0.62192893,0.100873485,0.5880838,-1.6326255,0.48865327,-0.6588705,0.3118623,-0.24637572,0.5666686,0.843889,-0.5930182,0.7638216,1.1511196,0.16547832,-1.3321167,1.3646283,-1.1585287,-1.2160707,1.1428667,-1.6741964,1.0175308,0.6479114,1.3207948,-1.8212131,-0.48966601,-0.74238557,0.18081725,-1.129039,1.7719998,1.5488222,-0.91517,0.36475256,1.0544407,-0.57501537,-0.50466675,0.8967436,0.6825068,-1.2214102,-0.96187127,0.8887687,0.1584117,0.9988591,1.6263244,1.3434573,1.5592314,-0.370728,0.4514756,1.0057293,1.334306,1.0855106,-0.9022424,-0.420936,-0.82869315,-1.7446774,0.33057252,-0.8111318,-0.5954792,-2.0991812,1.4818715,-0.5091864,1.2819248,0.7167621,-0.8225044,-1.4495003,0.36709854,-0.4496101,-1.0209688,0.59207624,-1.1069137,-0.95685107,-0.9721989,0.08922086,0.718568,-0.569218,0.65810823,0.4408836,0.48053166,0.37842205,-0.16540979,-0.6127063,-2.615876,0.11350797,-1.5541055,1.6407306,1.5593967,-1.2169231,1.6751734,-0.67959404,-0.77310187,0.44746146,-0.425098,0.27967113,0.9014542,0.40796745,0.18285577,0.8934668,-1.0040553,0.08614123,-0.20789778,0.68231666,-0.2111786,0.6451191,-1.921089,-0.09580591,1.059155,-2.2074685,-0.6775857,1.4284539,0.2726914,0.957149,2.165986,-1.0954924,0.7000205,-0.16211912,0.1470857,1.1126623,0.33022338,-1.3359084,-1.4941436,0.38260308,-0.20389092,0.17834929,0.011985212,-0.09875655,-0.4283424,-0.8503917,1.3073415,2.6313672,-1.8169641,-0.18568315,-1.0254744,0.9413081,0.26518306,-0.34466523,0.6844005,0.15668003,0.8596304,-1.7705235,-0.6613765,0.91691595,0.31419706,0.26353043,0.8643217,0.34861404,-0.12954965,1.378525,-0.03540812,0.739812,-0.72892064,0.578517,-0.8792018,0.53837764,2.2493918,-0.33208534,0.7782585,-0.18363574,-1.0031114,0.7134684,-0.56448054,0.5003164,0.3365836,-0.27775142,0.82025117,1.1434261,-0.69535327
CD177,-1.4220254,1.1818662,1.4366145,0.12213429,-0.6070482,1.4315227,-1.3819923,-0.6455438,0.63252115,-1.6449873,-1.194198,1.5767627,-0.14773962,-0.16998251,1.6184235,1.1089132,-0.21489647,-1.1477413,-0.21489336,-0.9899932,0.8469888,0.5380496,-0.5525771,-1.5785439,-1.0329963,0.6287298,-0.4856552,-0.07587039,0.9034468,1.7204219,-1.6180989,-0.22385783,0.1920706,0.70833695,-2.4486725,-1.0735328,0.50837326,0.73182565,-0.3452952,0.81720126,-0.020328987,-0.7585212,-0.6919933,-0.6357228,-0.48224625,0.3165189,1.4214342,1.0879079,0.43725055,0.2125005,-0.91012347,1.1884491,0.61478853,2.568964,0.3627301,-1.1175393,-1.0320675,-0.7043975,2.289873,-0.6540604,1.0721473,1.1483027,1.1242414,-0.6241362,-0.03932101,1.4087393,1.4147369,-0.5366524,-0.32040527,-0.15514453,-0.26238486,-0.6295586,-0.8525232,0.32293543,-0.695349,0.7958904,1.5181136,-1.2398802,-0.5639682,1.3681194,-0.6001388,1.2152439,-1.8327173,-0.12342745,-1.5706512,0.8300938,-1.373055,0.19935986,0.6512819,2.4556391,1.3786101,-1.8077761,1.2078528,1.4396029,-0.019635621,-0.3741625,0.64519596,-1.986484,-0.7551143,1.2164887,0.46752924,1.213099,0.8033682,-0.76442486,1.1503849,-1.0898347,-1.8480172,1.1842624,-0.21131575,-0.8537615,0.30234718,0.8540943,0.85542,-0.65705645,-0.5736878,2.1103826,0.6783665,-0.23372164,0.00053044653,-1.4548315,-0.833778,-2.9683847,-0.9859736,-0.030582748,-0.78406686,0.180875,0.19789554,0.2801447,-1.7126237,-1.6638685,0.018533217,-1.143136,2.5399165,0.5416612,0.035785373,2.5739682,-0.18894579,0.73692954,0.75765216,1.959593,0.949386,-0.33550248,0.4422911,0.010891456,1.3988076,-2.3410387,-0.5725886,0.06252226,0.10640531,0.23338047,1.0301764,0.5918709,0.9464635,-1.4083714,1.5950606,0.85305166,1.7658706,0.7424095,-0.35776135,-0.0694544,0.6536693,-1.9649388,1.4017811,0.56775874,-0.66262287,1.4781303,0.39966595,0.8617195,2.0939467,-0.5433529,0.9278244,-0.07481723,-1.1857204,-0.92409945,-0.17674999,-0.3798206,-1.7325264,-0.41228902,0.9023929,0.2532472,-0.62105244,1.6115891,0.09362229,1.8577759,-0.6164047,-0.43846887,-0.082790785,-0.60910517,1.2866206,0.060241193,-1.8547915,0.19347039,0.84086347,0.022428883,0.72912174,-0.21655136,0.24689412,0.087912284,1.1437012,-1.4361731,-1.4428377,-0.44435373,0.40504026,-1.5050989,0.6729183,-1.198965,0.6900325,-1.7321638,-0.56452996,-0.33445695,-1.2437929,0.5711349,0.36469334,0.30834612,-0.4872904,0.5736625,0.63364196,0.68922067,-1.0583847,2.2805223,0.5862509,-1.0971786,0.37697032,2.0582855,-0.538309,-2.7086713,1.809974,-0.51257956,-3.03505,-0.961177,-0.6457266,0.6974206,2.7983239,-1.5315952,-0.7538269,-2.073878,-0.80516136,0.117891595,0.04751711,-1.628982,-0.76110154,2.2332423,-1.4717542,2.3076916,0.4942915,-1.4555572,1.3775426,2.27607,-1.4710406,0.91434395,-0.75066596,-1.4356169,-0.6254122,-1.5011446,-0.6344529,1.5242789,0.2254325,0.8247451,1.7714406,-1.0058464,0.11127438,-1.4712402,-1.8546553,-0.7447685,-0.8711677,-0.39609927,-1.479567,-0.85602087,1.7115611,-0.7192465,-0.098671034,1.2070467,-0.6202881,-1.7997667,-0.60548633,0.5316184,1.0179337,0.9691067,0.4836312,-0.25413504,-0.8978591,0.7922954,2.2813017,0.32971627,0.61511296,-0.43008518,0.0689918,-0.932971,1.5116153,1.6356567,-0.22332215,0.43392366,1.314381,-0.73073554,-0.660135,0.5372558,0.46139744,-1.9549588,0.8639325,0.41879892,2.0473177,-1.0414212,0.56978077,0.1497346,-0.72337717,-0.25395903,0.040434122,0.16814712,-0.9705745,0.5557181,-2.215918,0.11835695,0.38568312,1.7123288,-0.25688377,1.3044891,-0.42660442,0.75414073,0.16000752,0.6589747,0.9285867,0.8519703,-0.34730628,-0.44658527,0.20516706,0.6504619,-0.91349,1.2962141,0.5969481,0.45803076,1.0356561,-1.4632977,1.0928985,0.7714409,0.48766965,0.37583604,0.07067325,0.5401773,-1.7348443,2.0905752,0.3934245,-1.189095,1.4310918,1.7404618,-1.4620214,0.45013738,-0.504482,0.0502816,-0.31405443,0.5038589,-0.21102986,-0.67684203,0.70749605,1.5920376,1.4717479,-0.9275339,0.7113038,-2.0854952,0.5901754,-0.038766477,-2.345956,-0.02236757,-1.035839,-1.4566249,-0.22469817,2.0827243,1.548664,-0.557105,-0.6498972,-0.5650237,-0.5566881,-1.8011075,0.547943,0.5042793,0.73069435,-1.369537,2.3394454,-1.3755686,0.5518701,-1.1659598,-1.5479999,0.18388195,0.30357763,0.34645852,0.69181263,-1.0483665,-1.6099272,-0.7523701,-0.37134182,-1.1723511,0.18746261,-0.6590976,-0.6544021,0.4251485,-1.19351,-2.2165868,2.0714905,2.134519,-1.3121562,-0.23450303,-1.2494491,-0.12793694,1.3204602,-0.35737768,-0.23246431,-0.36898732,-1.4564304,-0.87978035,1.5485066,-0.51206714,0.6110134,0.6013421,-0.72124505,-0.7657998,-0.61335355,1.6073794,1.0480865,-0.95183325,-0.5283388,-1.640153,-0.014805509,0.40585858,-0.54474396,-0.4469508,-0.76885647,-1.2226425,-1.0376946,0.9995833,0.71367806,-0.99312186,-0.31954715,0.8748591,0.6823767,0.67372113,-2.0673306,-0.781981,-1.0208876,-0.3697707,-1.213535,0.66790456,-0.5628763,1.7168081,-1.0738626,0.30232832,-0.4830257,0.32353306,0.4662333,-2.1529813,1.260048,0.18487807,-0.44927016,-0.33429316,1.6945574,0.49280408,0.68343985,0.09747738,0.96460164,0.8640966,0.3648098,0.17032935,0.32782394,-0.0437486,-0.89429915,-0.0949162,1.3364148,0.62432486,1.126747,0.3366759,-1.327764,1.1283473,0.3764243,1.2638353,1.1052818,-0.43161634,0.074678935,-0.66907704,2.3488598,1.2022848,-1.1715692,0.105642535,-1.10336,-0.43950933,-0.5676385,-1.2931129,0.56066334,0.18635993,-1.528952,-1.6055143,0.08566486,-2.078743,-1.9902155,-0.09083141,0.12949929,1.0367075,0.50323296,-0.37961546,-0.91007537,-0.894983,-0.4018092,0.61529356,0.46509638,-0.96395165,1.086926,0.3586495,0.9202229,0.098772764,0.87703866,0.7825036,-0.75404215,1.1412016,-0.39854175,-0.26743874
CEMIP,-0.8616001,0.5711504,-1.1403788,0.38722175,-0.019204004,-1.2145321,1.6980641,0.38933793,1.2838594,0.0035723909,-0.8370891,1.8771676,-0.44730368,0.18149145,-0.6731279,0.530658,-1.5506136,0.35266033,-0.448858,1.2781262,-0.2741517,-0.48050025,1.8802171,0.016164592,0.6736869,0.32187045,-1.5672536,-1.3333052,1.0153351,-0.4365034,0.5637432,-1.3720542,-0.7971204,-0.1666274,0.4838232,0.957616,0.007824796,-1.7266527,-0.8248278,0.18354659,-0.03959965,-0.5391061,-0.49819055,0.7598128,0.4783878,1.1353538,0.40719947,0.68391514,0.4368208,-1.1352003,-0.9600932,-0.2184693,-0.3471571,1.6096469,-0.72686905,-0.9946157,-1.6932162,0.7724406,-0.8015144,0.87486976,-0.5301731,1.9917649,0.7568357,0.99506,-0.5438684,-1.5077566,-0.8097842,-0.14800398,-1.6029958,0.084607385,-0.9559541,-1.9594623,-0.38602483,0.5244331,-1.6066871,0.94978523,1.2017431,1.1087309,0.3686843,0.73158485,0.15831907,-1.4241811,-2.5246549,-0.25819206,-0.26878396,1.9878836,0.29891536,-0.46792582,-1.2537192,1.5905467,-1.0162336,0.27134854,-1.4332082,0.64528495,1.5214002,-1.8310447,-1.4591199,-2.031951,1.2419059,1.5892286,2.011436,-1.9508084,1.3722646,-1.439609,-0.4210842,0.30200222,-1.8084326,0.4285245,2.0003688,-1.7239044,1.5887898,1.1905029,1.774711,1.0119407,-1.3301716,-0.16437575,-1.0944344,0.66122115,-1.4211837,1.2222725,0.5068043,-0.7972575,0.39806902,0.63658243,1.6553217,1.2247643,1.700104,-0.57960135,0.16308999,-0.07854353,0.3029579,1.145356,0.2561733,0.67869586,0.6232016,0.60922045,-1.7180586,-0.60737807,1.6054026,0.10897247,1.2788953,0.02096628,-0.20875722,0.22433248,0.91368496,1.0951976,1.0453774,0.73815423,1.5338886,0.1331643,1.0158938,1.1356262,1.4236286,-1.6538554,0.10873353,1.0675803,-0.67266047,1.0279444,-1.6835532,-1.1686538,-1.5090039,-1.0699481,1.3107216,-1.4896591,-1.4654438,1.2585015,1.7801974,-0.43727377,1.3766738,-1.092602,-0.10248231,1.9221745,-0.6087828,-0.1937217,-1.4527423,0.7641569,0.21641952,1.1143672,-2.103917,1.7214636,-1.1112932,-0.2316937,1.456461,0.24670029,0.39632043,-1.7085333,-0.4973922,-1.0144379,-0.60854846,0.7884308,-1.3206443,-0.057668686,-0.61042404,0.7423732,0.52504086,0.09678518,1.09109,-1.4104376,0.59786814,-0.52454805,-1.685159,0.554523,-1.0698141,0.5676165,1.5738267,-0.023363294,1.4542003,0.7503034,-0.8620493,-0.0062206937,-0.41040543,0.34554148,-1.9400935,-0.9369684,0.77875775,1.5538528,-0.19556619,-0.2277674,0.6784448,1.5398749,-0.41995814,-1.2328384,-0.5798955,0.24226633,-0.24345402,-2.2642674,-1.9255748,-1.4517149,-0.980498,-1.5862118,-1.3048729,-0.8413299,-0.7412798,-1.3961598,-0.039968777,-0.691866,-2.550802,-1.2107174,0.35799405,0.11665822,-1.026347,0.78071445,0.22960228,1.9470505,0.51188654,0.86133873,0.41214135,-0.74646705,0.4414356,-1.9998982,1.4723514,-2.4055333,1.6955129,0.5895006,0.83009064,1.5092518,0.7603603,-0.63072884,0.24095196,-0.16913633,-0.48558137,-0.26579478,-1.3713015,-1.651598,-1.0807387,-1.6071773,0.2121288,-0.28781006,0.5048728,-0.94457465,-0.12037815,1.8426065,0.16910481,-1.4535408,0.08703686,0.97917384,0.7513014,0.6684979,-0.26164356,1.9266955,-1.4264404,0.967565,0.23122832,-0.33558822,0.9249099,-0.51618445,0.40478456,0.6054019,0.3422972,0.51336366,0.8008773,-0.16410702,-0.7473129,1.7991635,0.63826805,-0.51032954,-0.24509856,1.5096838,-0.81303847,0.1992243,-0.08288691,-1.3960642,0.17579295,0.22047818,0.29710022,1.6135315,-0.22756243,-0.5836791,-0.7899725,0.19420268,-1.1379421,-0.88658327,-0.13574167,-0.16848288,2.5775297,1.8570333,-2.008762,-0.16304931,-1.0952536,-0.49069616,-0.9494667,-0.30445102,1.152056,1.5576518,-0.84700865,1.3752099,-0.8820634,0.86307925,-1.0302962,1.4157038,1.1512127,-0.4672556,1.8877877,0.4643189,-0.7502955,0.6934545,-0.31501245,0.90129185,0.12193104,-1.5869876,0.78544426,0.4208271,-0.69954675,2.858622,-1.341127,-0.08513944,-0.08630152,1.5261363,-0.82715607,-0.19392364,0.6673278,0.012186877,0.18000147,1.232018,1.2065816,1.682349,0.3918266,-2.0242488,-1.0341334,0.105253175,-0.87305254,0.039905984,0.9568861,-0.31320924,-0.70807165,-0.39939302,-0.5057652,1.1720841,-0.46966308,-0.35804603,-0.7632439,0.82255536,0.029136222,-0.96546865,0.08066176,-0.7720476,0.2554592,0.687631,-0.94569796,-1.427354,-0.76362026,0.3777037,-0.5844071,-0.80864227,0.06568282,-0.67498726,-0.906698,-1.747407,-0.081540115,0.42514512,-1.4369003,1.3291541,0.46347386,1.54495,0.44393173,-1.1947452,0.116792776,-1.4089602,-1.5947491,0.5195631,-0.094959326,-2.0875494,1.1681908,-0.92317224,-2.42848,1.932405,-0.943417,-0.3559201,0.8051439,0.48351753,-1.7146932,2.3644242,0.16036895,0.26072142,-0.57148236,0.7907603,-0.0075539225,-1.5563171,-0.6320646,-0.034588944,-0.6361831,0.115242615,1.8231188,0.6079411,1.4096087,0.5323448,-0.07696803,-0.5335499,-0.52160096,0.49648592,-0.113780975,-0.97464013,-0.61461556,-0.85685325,-0.37819707,-0.38685074,0.13268204,1.5890077,1.1128867,0.89223045,0.9826572,0.78221244,-0.9324127,-1.616605,1.8498101,0.2367922,-1.7452744,-1.0722561,0.3960409,-1.4372057,-0.8618285,0.28891733,1.5277427,1.2760569,0.09326371,-1.910208,1.4353815,1.8174233,1.2571481,1.2393142,1.2851204,-0.88257366,0.026667316,0.25846192,0.08241355,0.4928356,1.1086087,1.6114918,0.14061962,-0.88149166,0.3627649,1.3744786,-0.56597936,-1.092267,0.49288288,1.0504237,-0.43395427,-0.7013242,-0.945902,-0.9077626,-0.75732267,0.54513,-1.3434769,0.9496282,0.7785966,-0.8992178,1.4535167,-1.493556,-0.46209675,0.64738584,0.14292309,1.9718965,-0.12828706,0.463458,1.4465353,1.8461446,0.6532302,-0.49276146,1.3589392,-1.7676374,0.859089,-0.55061215,-0.837631,1.2715124,-0.3160937,-0.94962275,-1.1701081,-1.6153243,0.50913453,1.4368492,-0.23661268,1.592727
CHI3L1,-0.6446678,0.59248805,0.3443571,0.34789625,0.13661882,1.3803612,0.8377251,1.786694,0.08297493,-0.95175755,-0.024927326,-0.978337,1.3721075,0.37621346,0.9279318,0.8861856,0.94244725,-0.86076033,-1.3575505,0.6316566,-0.71170336,1.9231094,-1.9557372,1.4835668,-0.10128769,-1.0522423,0.386355,1.6088136,-0.012952376,2.8718657,-1.5386251,-1.2784956,0.89880925,-1.5603588,0.91572714,-0.16199131,-1.6447538,1.5893053,0.8579013,0.46187094,1.8201663,1.0378016,1.2400372,0.37661773,-1.264203,1.1375564,2.3497944,0.21152408,0.12365929,0.30005193,0.234379,0.64453715,-1.6060263,2.7606936,-0.6551802,0.4218469,-2.4047518,0.48998812,2.1059046,-0.0022637923,-1.3442783,0.9971956,-0.022863563,0.20146565,-1.8542552,1.5866299,-0.3791955,-1.0990148,-0.19320324,0.2343398,0.36255977,-0.74774766,0.16155434,1.2091545,-0.3505495,0.83529514,1.8656251,-0.05786307,0.67667884,-0.5471388,0.1409685,-0.7592434,-0.9960256,1.0918124,-0.36026645,-0.4836412,0.83191484,1.3557122,0.1649156,-0.93331355,-1.3916645,1.8442239,0.14266512,-1.2377595,-0.30189648,0.59787476,-0.46709475,-1.7076015,1.5255085,-0.2043506,0.4462504,-1.0408915,-0.5069218,1.2046888,0.91047275,-0.48976743,-0.14327076,-0.8052521,-0.42066088,-1.5746484,1.5784913,0.55566573,0.008525181,-0.1032538,0.7020686,0.8415699,-1.4881778,-1.0052105,0.13388984,-0.42851216,-0.118726715,-0.83391535,0.99611646,0.9783449,-0.79879165,0.7279007,-0.6764885,-0.3326289,-0.6963478,1.4997094,0.73945683,-0.9366611,2.726621,0.7723806,-0.9888522,0.36694744,0.12720948,0.7554761,-0.4966817,-0.3279103,-0.71084225,0.8400565,0.5960647,-0.8739595,-0.6243913,0.270834,-1.3305302,-0.91925985,1.165886,1.8807157,-0.8735629,0.28350392,-0.9462865,-0.8705604,1.3763409,-1.1126654,0.738359,0.02796542,0.26565313,0.40797883,-0.5950465,-0.649318,0.6555859,-1.015375,-1.4781758,0.14257675,0.064853534,-1.3608475,2.4159436,0.1365956,-0.73002267,-0.20595989,-1.0149918,-1.5073427,-1.0227606,0.40149793,-1.4067533,-1.0359167,-1.1348985,0.53111726,-0.19826645,1.0885488,1.0967128,-0.50750226,0.5069484,0.5760267,-0.019893307,0.56336594,0.55984336,0.1552575,-1.5632297,0.7872152,1.1885139,-1.0544453,-2.0063703,-1.7968761,0.5704155,-1.5486033,-0.3738291,0.73378384,0.55520624,-0.5121366,0.08199414,0.7883824,-0.5469108,-0.48057523,-0.89685714,-0.4555308,0.41095152,0.25041986,-0.4406361,-0.040059064,-0.6324546,0.11585487,0.23784097,1.6215675,0.7707375,-0.17068768,-1.0637943,-0.39481398,0.99492586,-1.1729065,1.9078695,0.9684587,1.0869303,-2.3467712,1.1833992,-1.094338,-2.0431812,1.236195,-0.29748833,-1.1860435,0.7589546,0.91189337,-0.5444123,1.2496034,-1.159713,1.1563551,1.0157686,0.53153235,-0.7923919,0.997298,0.029498657,2.5951617,-1.1128045,-0.44081348,0.98033077,1.2445291,0.61760026,-0.075596705,1.6836907,0.2823649,0.101817735,0.15062423,0.4624283,0.90470934,0.41711318,-1.3278891,0.22937831,0.5856684,0.38140067,0.79182565,-0.45096233,0.014182005,-0.4577991,2.5936909,-0.39010975,-0.82236576,-1.5140258,-0.9736497,-0.3238802,-0.2213285,-0.862719,-0.11434138,0.9197123,0.47092885,1.0020001,0.06754324,1.0458869,1.0432318,0.30641416,0.18114719,-0.39492542,-1.6020211,-1.100369,-0.74148244,-0.40114197,-1.935852,-0.6482738,2.320793,1.6552688,-1.5280191,-1.4149868,1.1824443,-2.3736236,0.7760258,-1.2703813,0.37712955,-0.1680592,-0.5960543,-0.3309591,1.2810239,0.5405095,0.13697603,-0.15044998,1.2078749,0.22939986,2.015166,1.168614,0.66648495,-1.6590877,1.434108,-1.4812651,-0.23067239,-1.2233946,-0.6342725,-0.97081584,1.436923,2.650625,-0.25318056,1.220514,0.6557373,-1.3306369,1.4563848,-0.589781,-0.48454925,0.4253347,-0.7576375,-1.7943552,0.8015745,1.6724534,-1.7171547,0.2953255,-0.2162466,0.15699296,-1.2824992,-0.8839429,0.0628255,-2.4217474,-0.96475965,-0.18876581,-1.6633631,1.7224743,1.078462,-1.3298239,-1.0398372,0.7747709,-0.726153,-0.7015612,0.16628686,-1.3776759,0.93727696,0.24417639,0.9743215,-1.2158728,-1.7024536,2.6418464,-1.9605281,-0.50745803,-1.3509755,-1.3203505,1.1833718,-1.3335351,-2.1219525,0.30782434,-0.68543047,-0.27145213,0.7891555,1.1568277,0.53559804,-0.7745062,0.17957415,1.4242733,-0.4466377,-0.2251699,0.15528612,0.56067014,-1.6831915,-0.4675818,-0.90662134,-0.46352127,0.9716961,1.6390684,0.87619644,-0.7093779,-2.2671492,-0.9899219,-0.7117679,-0.83823144,0.8032261,-2.0624056,0.83251965,-0.08994524,1.4266917,0.83896685,-0.35048264,1.4236438,-1.5795059,1.4399188,0.5431673,-1.5039399,0.30570102,-1.1597797,-0.40669212,-0.9994337,-1.256829,-0.92956173,-0.70218486,-0.37825108,-1.8797048,-0.90518457,0.6992788,-0.9298627,-0.03656155,-0.5901896,0.54103494,-0.56836945,-1.1655357,-1.4849712,-1.2212535,-2.125934,1.7525519,-1.3722256,-0.595006,0.7604335,-2.6753373,-0.3304183,0.7885495,1.651492,0.30709195,1.2840334,-0.70517033,0.80807567,0.8322298,0.05078385,-0.25308836,1.1918914,0.2559226,0.19538589,1.6338909,-0.54463935,0.032512806,-1.5091277,0.341468,-2.0995643,-0.089322604,1.1675905,-1.0651083,-0.3143875,-0.53564733,0.7015023,-1.6931531,1.4281979,-0.49321795,0.89902997,-0.28119364,-2.0890641,-1.6550236,0.26435533,0.97462046,0.96235883,1.8378168,1.1137915,-2.0848434,-0.10799377,0.40090847,-0.95331603,0.57463056,-1.02124,-1.583,-0.6532446,-0.8057689,-0.7872603,0.9525076,-0.30217406,-0.8440227,0.88101876,-0.1545995,-0.23588863,0.102963455,-0.51244825,1.185991,-1.0737212,1.164151,1.9519848,0.9097367,0.16569911,-1.2115816,0.71231455,0.8710236,0.6263191,1.2936527,1.7058238,0.18913044,1.3160517,2.2655785,-0.8323234,1.6116313,-0.49258053,1.4754226,0.16818288,0.8431525,0.21300384,0.92116994,0.98268586,0.8860021,-0.83998525,-0.2986904,-0.25535884,1.7579684,2.4536781,-0.52219146
CLCA1,0.8954623,0.22491963,0.82322276,0.27343118,0.39414564,1.4247019,-1.0021422,0.36507964,0.1847726,0.15429811,0.4451927,0.6010565,0.2730443,-0.9644746,-0.31531712,0.2660527,-0.16845392,-1.8196056,0.09893366,-0.7984446,-0.73037946,0.50738555,0.3787284,1.6675144,0.10804138,1.5231261,0.5020165,0.62144774,2.2380612,1.4325087,-0.21612754,-0.7378609,-0.0771121,0.20786464,-1.683488,-0.39020273,-0.648288,1.7461456,-2.2060325,1.5671115,0.42055225,0.19799313,-0.96269673,0.20428339,0.33805576,2.280082,0.16985525,-1.7540452,-0.1750142,-0.18066435,-0.63503087,-0.38965693,-1.7233511,2.7756126,0.75668585,-1.1171207,-3.702517,-1.9947088,1.9278231,-0.03799159,1.273298,0.6784619,-1.4056768,-0.751737,0.65991575,1.5018137,0.7419562,1.5848897,0.33294025,1.3182483,1.1067197,0.32990515,1.5593193,-1.1594781,-1.4311365,-1.019624,1.2366794,-2.0059125,-2.0443103,0.77234113,-1.0571729,-0.63546515,-0.115420006,1.0114069,0.66062903,0.6888018,-2.187144,-0.43329516,-0.89810795,-2.1076276,-1.4242758,0.034954738,-1.5388167,0.37908328,0.18834946,1.3018817,-0.8079367,1.5423139,1.1197519,-0.99123615,-1.0689219,-0.07810334,-0.46904692,2.1373725,0.6434444,1.2651663,0.40837207,-0.41133583,-0.7297719,-0.6195068,1.2536135,-0.3455265,-0.5093044,-0.24403621,0.8995772,-0.99055576,0.8816523,0.16038373,1.3968934,0.08361534,0.10114178,0.33633524,1.3660381,1.1365039,0.9616337,-0.96365017,-0.12284374,0.07260708,1.198351,0.7823956,0.29330125,-0.908681,-0.033373028,1.3699275,-3.086715,0.7448664,0.9758904,-1.1239421,0.16414566,0.61789805,-0.6161161,0.9462108,-1.8969823,-0.65813535,0.69149077,0.1180759,1.2827579,0.72941166,0.065711774,-0.28294197,1.1808778,-0.51349974,-0.76997614,1.2382243,2.220308,-1.1296638,-1.2773415,-0.08432805,0.09410457,-0.59626216,-0.2961944,-0.57728904,-0.79013056,-1.6066462,1.4955865,-1.1092666,-2.06942,-2.0547373,1.1639513,-0.41604665,0.55555904,-1.29684,-0.6156322,-1.0492029,0.42200714,-0.48572946,-0.26564726,-1.6713997,-0.3386347,1.2916741,-1.0887171,0.033006582,-0.8284073,1.0609993,-1.708523,0.36411166,0.4789502,0.5055204,0.015418333,-1.2350823,0.9955025,0.6843836,-0.992422,1.4315443,0.04432898,1.5415272,1.160406,-2.4949327,-0.7546086,-0.7477878,0.114122234,-0.37750375,-1.9783337,0.8255711,0.78125036,-1.3468081,1.4425097,0.84423643,-1.1795135,-2.10024,0.7303131,1.4998713,-0.67575186,0.41987234,1.2449529,0.3481728,0.99842644,1.1251752,1.5010122,0.91335374,-2.8422315,-1.0852265,-1.2388786,0.8824847,-0.32362774,-0.39237976,1.349831,0.39048675,-0.27800137,0.36555076,0.31682348,-1.1709629,2.2379584,-1.3438774,-0.27063915,-0.96676993,-0.8427218,-0.4575031,0.9278426,-1.2037513,-0.52169764,-0.33362815,0.49062955,-0.07044488,-0.735153,1.1032935,3.3531191,-0.8731384,-2.5275815,-0.21596964,0.9010769,1.038512,-1.0473704,-1.7205845,0.41909194,0.56963754,-1.548766,-0.797665,0.42561015,-0.4811197,0.43110386,-0.48179364,1.0097904,-0.92252946,-1.2088765,2.947015,-0.22254038,-0.3503023,-1.648587,-1.1392936,-0.021003067,-0.4709431,0.071906686,-0.5759955,-0.48259264,-1.3086212,2.2904744,-2.04362,-0.6673941,-0.7675052,-1.0311278,1.8764532,-1.9707807,-0.8728311,-1.118,-0.65866536,0.7139861,0.49300662,0.22726154,-0.35712507,-0.37511098,0.1069013,0.09761635,-0.15665887,0.045647267,1.2877028,-0.48594075,-0.824677,0.89068794,1.2936028,-0.8977653,-0.25901043,0.48610282,-0.9534666,1.1317978,0.5759918,0.7675846,-0.56771713,-0.1663529,-1.1045356,-0.06610936,0.97223353,0.5125311,-1.0591403,-1.161785,1.9394624,0.26800892,-1.1569557,-0.30960554,-0.118556,1.2476335,-0.34733233,0.74394095,-0.52994186,0.16637528,1.8436612,-0.026085734,-0.83642983,0.7618843,-0.28216732,1.0592152,-1.1036893,0.3800653,-0.016106749,2.9970512,1.6402721,1.8939937,0.3805516,-1.7174902,-1.1255414,-1.0619147,-1.4235331,1.4408814,0.7429816,0.17452362,0.7975366,-0.3686838,0.7580534,-0.6433256,0.90373,-2.7290244,-0.5080424,-0.98118734,1.2920299,-0.5140365,-0.22109577,0.52456826,0.2666468,0.6082694,-0.6793745,0.6756172,0.955043,0.72370356,0.12797722,-1.2489535,1.7216355,0.67058337,-0.8716552,2.0855224,-1.3881795,0.37130284,-0.68386763,-0.8296562,0.08700772,1.3699579,1.504063,2.561823,-1.1818042,1.1018107,0.55486286,-1.7310942,-0.36090216,-1.9274051,0.84165484,0.49986717,-0.4001798,-0.95457786,0.6454169,0.2944151,0.49719167,0.28455132,1.5281585,-0.93195176,1.2136545,-0.15870512,2.2411323,1.235602,-1.0434058,0.6215506,-2.3112915,0.42537916,-0.29058865,-0.21115248,-0.42789662,-0.40671754,0.3440467,-1.6890876,-0.012679057,1.4363358,0.55143315,-0.061548732,0.35059673,-1.7376086,1.7471862,0.28326765,-0.38445848,-0.0017459902,0.3122198,-1.3456141,1.1770583,1.0584241,1.3989891,-0.84564394,-0.0025248616,1.1672885,0.8298993,-0.2825288,1.1250579,-1.2290426,-0.123794235,-0.047845148,0.8737743,0.6669203,-1.2812002,-1.4190422,0.62328064,-0.84464484,0.7365588,0.48984587,1.1032925,1.5272658,-0.77093214,0.28953958,-2.0686612,0.24713227,0.17469373,-1.1216853,-2.2306557,0.5613528,1.534304,0.09194517,0.93131334,0.32424483,0.3383693,-0.5494635,-1.9207885,-0.30526206,1.0154592,0.8861369,0.06301996,-1.9528425,-0.57658356,0.66118073,1.4639876,0.4887406,-1.3998712,0.5035989,1.8062809,-0.7648961,0.4350928,1.1605792,-0.15758744,0.6243983,0.72898805,0.20416689,-0.1644213,0.11457749,0.47307563,0.7069668,-1.0170014,-0.917571,-0.41684273,0.74565816,0.28637925,0.30291092,-1.8698529,0.023485202,-0.8433676,-0.46788085,-0.011563757,-0.4309681,0.2802562,-1.0166167,-0.48403457,-1.4279279,0.2628347,0.13913064,-0.23542984,1.6641365,2.0374148,-0.5317338,0.10067234,0.7708648,-1.227638,-1.4820225,-1.1657553,1.8815888,-0.98684245,-0.4356706,0.43194693,-0.1412452,-1.1934208
CLU,1.0347657,1.0407797,-0.38158226,-0.87086326,-0.428268,0.10829374,-0.32092035,0.16034618,-1.6385567,-1.1386701,0.47980103,0.6902875,-0.076257974,-1.443546,-0.07835319,-1.1078783,0.92373663,0.31384158,-1.1169013,1.4889874,0.13286972,0.2058906,-0.398107,0.86222774,0.4170821,2.0213141,1.3242117,1.4294876,-1.6959617,-0.53877646,-0.31583112,-1.5808451,0.25071877,0.96915734,1.549994,0.870423,0.038498312,-0.4474754,-0.16663651,0.3822065,-0.13858944,-2.2469168,0.74678123,0.20612577,-0.79320115,0.1384182,-0.4915647,1.9307357,0.39079407,-0.3388618,0.67995197,-0.5304216,-0.40656024,2.5880964,0.010114956,0.66810364,0.54268825,1.7178192,0.84757364,0.04165034,-0.3088767,-1.4571557,-1.3857533,-1.8215212,2.1517215,0.7920406,-0.37595427,-0.6454037,0.6932364,-1.2562073,2.4866211,-0.19742909,-0.43825522,0.5039527,-0.20097639,0.6360047,1.4409568,-0.4150429,0.22058156,2.406654,0.68492734,-0.74981445,-0.11880487,-0.573159,-0.4605348,-0.21412045,-1.0194298,-1.0464164,1.0896668,-0.092482835,-0.3615577,-1.341418,1.6885761,-0.68139225,-0.5626709,2.2756686,1.1150172,-1.4440908,1.6860197,0.088831045,-1.0705779,0.63927996,-2.8112059,1.952056,0.37399527,-1.4802396,-0.20465373,0.56900257,-2.3868303,0.9629073,0.11807125,-0.09882948,1.1510717,-2.5383687,0.91703576,-0.24054475,0.8407505,0.011333543,-1.2399205,-0.24130906,0.11925726,-1.0500005,0.53779525,-0.76310116,-1.569694,0.46374688,-0.95314926,-0.18258297,0.089251116,-0.51596504,1.6213007,1.2706921,0.9393046,-0.24541941,-0.5655398,-1.0844017,-0.77309304,-0.058878843,0.3957142,0.16491945,-0.13907033,2.3290455,0.8039056,-2.075096,-0.45143455,0.2900169,-0.5568382,-0.69390905,1.9391915,-0.84200823,-0.4718534,0.7154302,-1.4089862,1.0529897,-0.71547985,0.14116901,-0.6022231,0.0922664,1.3667028,-0.5053739,1.0174463,0.16238946,-1.0935425,0.17466964,-1.1813208,-0.011587266,-1.3870425,-1.4681531,-0.6819242,-0.043158285,0.2160561,-0.56919676,1.8661779,-0.57288426,0.44250816,1.4098818,0.7791515,-1.3745135,0.9369061,0.6258348,0.41420457,-0.41836053,1.5494938,-0.2163038,-1.9748578,0.17228627,-0.5690855,1.712408,-3.4346192,-0.6513161,-0.66055214,0.56676257,0.5714904,-0.88356346,0.28459275,0.7020063,0.37145078,-0.04237133,0.64217705,0.10683163,-0.20638447,0.031213637,0.33214185,0.83633316,0.5470763,0.35212812,-0.57675296,1.7513742,-1.2595791,0.16779052,-0.6498306,0.6391884,-0.049937967,1.1008976,-0.3586198,1.0184532,-0.3156157,0.13796349,0.18186133,0.6191276,-0.7286331,0.5989269,2.0151255,0.30815762,0.5929671,-0.26210722,0.6452755,-0.97976476,0.12288958,-0.5146697,-1.1805413,-1.4490554,0.09412933,-1.1327466,-1.1276927,0.7956687,0.09459276,1.14599,-1.9886013,-1.5171167,0.6975457,-0.08881294,0.84146136,3.7706735,0.405899,-0.02223701,-0.9469014,0.09548851,-1.891356,0.4183431,0.04596425,1.1476148,1.0092674,-0.34657395,-0.85855526,1.9841863,1.8113838,-0.8733095,0.10196055,-1.8061917,2.4876394,-0.021690143,0.5523779,0.97816133,0.30669838,0.64371437,0.8269231,1.075504,0.65804636,2.161619,1.505744,-0.5377776,0.91245115,-0.9599445,0.89295816,-0.0351754,3.598086,-1.0128263,0.95553046,0.02041047,-0.30629373,1.6719038,-0.35193276,0.9802481,0.06671818,1.3160008,1.5113033,-0.5061323,-0.57731783,2.2751462,0.42222735,-0.8628868,-1.1856623,-1.2567334,-4.3860173,0.694109,-2.143466,0.46828786,0.8038901,0.3651867,-0.44232,-1.1922023,-1.0706422,0.087994054,1.0073253,0.12568003,0.07412133,1.9425156,-2.3990905,0.20111787,0.30554226,1.9619852,0.5203409,1.9195622,0.48912653,0.57618225,0.38138914,-1.0079737,-0.9510867,1.1151364,1.1835438,-1.5838319,-0.33582675,-0.022041555,-0.12573762,1.4000094,1.7689364,-0.62748677,-0.17592485,0.2899718,-0.75686544,-0.5695299,-0.8742973,2.0475123,0.15546507,-0.9329425,-0.3267335,-1.4720086,-0.15900362,-0.59789413,0.6741483,-0.70128363,0.8525419,-0.15765922,-0.44187617,-0.9208662,0.8384806,1.0553981,-0.67628324,0.85543925,-2.3459988,1.1525478,0.22278723,0.55972713,-1.1818444,-0.47750115,-0.26789033,-2.5366535,1.6977099,-0.42988175,1.9126221,-0.8396675,0.15625209,0.28470007,-0.84028876,0.044491716,0.20099758,-1.2853483,1.9432691,-0.60870343,-1.2418032,-1.8331141,-1.9823515,-0.8813146,1.8759766,1.4553565,1.4802653,0.26568046,-0.532184,-0.9945089,1.0917181,0.009498084,1.0026665,0.88613695,-0.8469136,-0.93002874,-0.5102192,-0.5833497,0.8373773,-1.2421944,-0.17960706,-0.29383478,-0.4559765,0.32785967,-1.2851373,-1.6214312,-0.08473087,-0.19941768,-0.044676628,-1.646613,0.15684292,-3.8058546,0.19406709,-0.7543258,-0.35105893,0.76344424,-0.119943246,0.7970183,1.2657789,-1.26746,-2.219811,1.1276617,-1.6452348,0.0338637,0.1059698,0.3778779,-1.2024508,0.91857904,-1.1278727,2.0233328,-0.24473473,0.49872717,-0.51992774,0.81157756,0.22007048,-0.4912341,-1.250136,-1.4056001,-1.6145978,0.14255518,1.5575379,-0.4605152,-0.30579296,-2.338901,-0.47494924,0.9712532,0.17048617,-1.9048591,0.19717099,0.22158827,0.3854854,-0.93017834,-0.21720237,-0.23695214,-1.163493,-0.51932687,-0.5410015,-2.1971135,1.5424205,-1.6568965,-1.370119,-0.28792432,-0.7900678,1.0666146,-1.0631416,0.5848305,-0.6096383,-1.0642376,-1.4286681,1.1672162,-0.19951558,0.8441399,0.7198808,0.61313653,0.57536256,0.46541816,-1.0836266,-1.3306538,0.1806333,-1.009733,1.56877,0.48627284,-0.58793503,1.78427,-0.7378903,-1.3936257,1.5727482,-0.5813173,0.7701376,1.397929,0.73963445,1.2689414,0.8245599,1.029711,-0.37224376,-0.2204854,0.33358958,-1.8436303,-0.0938426,1.7519033,0.36227182,0.74524456,0.55892265,0.28246886,0.31528512,0.50757056,-0.74713075,-0.39964506,-0.45805904,-1.2024448,-0.7463415,-1.389154,0.83210343,1.7392291,1.892461,-1.2296263,0.69307554,-0.3693655,-0.06582748,0.3595557,-0.9751544,-0.3701358
CXCL10,-0.34390467,0.8980806,-2.0674574,-0.44419816,-0.43096188,0.63243574,-1.2791463,0.1593416,0.82765156,-0.8140962,-0.6020379,-0.8173354,-0.118561655,-2.5179927,-0.9140459,-1.1008524,1.2987394,-0.902483,0.05992191,0.9782547,0.18795167,-1.1472856,0.029061887,-0.8823071,1.3014574,0.6200872,0.23894614,1.1063453,-0.06908808,-1.5726262,0.63278395,-1.2982818,-1.4070637,0.169312,0.73845476,0.42971322,1.4530133,1.3664508,-0.959963,-0.12268829,0.075163804,-0.022855602,-1.2704221,0.7999267,-1.0446903,-1.2070786,0.16557162,1.3394651,2.214255,0.26618493,-0.17236926,-0.59853536,0.76073325,1.9126091,-0.00959349,0.47741032,-0.35525292,-0.58906615,0.14783578,-0.80008924,0.028989093,1.6455343,-1.8402852,-0.84580386,-1.4751168,-0.26384994,0.54642904,-0.58126354,0.29107788,2.4765315,0.43870926,-1.2477028,1.7006829,-0.037656758,1.7812407,-1.8222479,0.14192832,0.12036393,0.81412107,0.24977383,1.4634537,-0.22011003,-1.0934083,0.98304635,-0.7259861,0.30110404,0.05435015,1.5077682,0.92164874,0.9334379,-1.5482157,0.5857237,-0.351549,0.7901943,1.4747856,-1.5103704,-0.670772,-1.872818,2.205316,-0.13417321,0.07434619,0.5070712,0.14922202,1.1559879,0.5186161,1.0800102,-0.62533224,-0.9347544,1.0077477,0.22708516,0.8960973,0.16974339,-0.025178162,0.19571476,-0.23836134,-0.47608352,-0.4023189,1.4673384,2.8543377,-1.247745,0.21520388,1.7229767,2.2994516,0.42459208,-0.17121875,0.64735234,-0.59191,0.60893726,-0.27143437,1.0669477,0.90215147,0.86932707,-0.6752541,0.032854732,-2.6512048,-0.48311216,-0.44038212,-0.6133419,-0.038282152,0.15401313,-1.2173544,0.12959138,-1.0889975,-0.09976608,-1.2256765,0.53490716,-1.2106701,-2.175208,0.78533214,-0.06333553,-0.26142436,-1.729446,-0.7938887,0.15313032,0.22926037,0.8229229,-0.8479304,-0.65357536,-0.34617493,-1.0734507,-0.46712464,0.2910921,-0.5322908,0.2524214,1.3598994,1.3554422,0.4287907,-1.6074282,-1.1948586,2.5422184,0.23159406,-1.0774579,-0.08185453,0.61369187,0.51895183,-0.5681346,-0.31941333,-0.55214185,1.3432649,-1.3315682,1.388636,-1.7198771,0.5232671,0.51813924,-1.5870245,-1.757771,-1.7813607,-1.7289114,-0.64601904,-0.61992097,0.4700881,0.94990176,-1.237018,1.4669194,-1.3180144,2.0502536,0.34173715,-0.39362183,2.471482,1.2227455,-1.1463605,-0.56797904,-1.254756,-0.4605822,0.77212137,-1.7896763,-1.1296393,0.7236122,0.5606604,-1.1458585,0.4712862,0.067055926,0.09864853,-0.45190838,0.2022655,-2.1581187,0.9135739,0.5978251,-2.376843,0.6028312,-1.2348019,1.3777174,1.1698288,-0.61717385,-0.5800239,1.0222614,0.7127595,-0.5248765,-1.9909997,-0.13995184,0.41334727,0.9433386,-0.33432382,-1.2724891,-0.67002535,0.59887713,-2.1137958,1.4208205,-1.7816447,-0.11347012,0.3501897,-1.6644878,-1.2290125,1.8184776,1.1438578,-0.27498,0.4364873,1.4048533,-1.6436088,-0.16113015,-0.8532765,0.41379267,1.2913243,1.4708884,0.106006905,-2.0729756,-1.2840723,-1.3778127,0.18351571,2.6673422,-1.9289284,1.2960545,-0.21531141,1.0677199,0.08970559,0.20443311,-0.5657056,1.2479693,-1.4982166,1.0092661,0.56454104,-1.1061159,1.8976705,-0.11300414,-0.7668528,-1.5239526,0.42252558,-0.6747501,-1.372683,0.15918368,0.81714505,1.2190099,-0.18743378,-0.43486425,-0.30275396,0.20185201,-0.2718202,1.5265853,0.78578424,-1.2792276,0.9395669,1.0755178,-0.2914398,-0.4543796,-0.5175287,1.5461792,-2.2737064,-0.9568316,1.0021474,0.29703853,-1.2988997,-0.5025142,-0.35436046,-0.8303532,-1.8191208,1.5256414,0.54506636,-0.65120566,1.2504281,0.2663897,1.2798889,3.2203975,-0.3893674,0.699569,-0.872443,-0.17958075,1.675328,-1.9012479,0.418508,1.2408344,2.8419304,-0.71173847,1.4162122,0.22872156,1.1230369,1.8513007,1.2858406,-0.8382143,-0.096730016,0.26633075,-0.65350837,-1.1720045,-1.1743056,1.1775103,0.3723282,-2.3563626,-2.3587036,-1.2473915,-0.32740292,1.100988,-0.039307423,0.18502943,1.5031188,-0.81041735,-1.0996407,0.54540634,1.021555,0.57031673,1.4454252,1.5643146,-1.8430375,-1.5601217,-1.2030506,0.696524,0.29144874,-0.2025132,-0.9621702,-1.4808264,1.0281564,-0.69739974,-2.0402038,-1.1358764,0.56405383,-1.8722708,0.8462872,0.41340137,0.49176148,0.11030193,1.0770223,-1.8042794,2.9450166,1.7215209,0.4390751,0.49899673,0.3681234,-0.021758173,-0.058076598,-0.81298846,-0.8073352,-1.152636,-2.2462854,1.4783967,-0.17204674,-0.34174576,1.2788976,-0.96802676,-1.1170986,-0.24832098,0.9486365,1.1124003,-1.2042072,-0.800878,1.9130583,0.54846907,1.0972034,0.08574132,-1.7882044,-0.8005281,-0.59822726,-1.5937428,2.3152006,-0.21307907,2.4958732,1.0274506,0.6281113,0.76686263,0.6672752,0.57650626,-0.8472696,-1.3412662,-0.7151067,-0.81859225,0.6175438,0.35473484,-1.0073391,-0.38261276,-0.6320328,1.7099354,0.92155063,1.5240026,0.2210986,-0.10342748,0.29876247,-1.2593025,0.5861489,0.007586004,-0.107741795,-0.8817202,1.6393987,0.47032964,0.61877525,0.27427682,-1.1747174,-0.6499933,1.0248107,0.09999468,0.7393275,-0.15372804,0.312018,0.7262425,0.35761586,-1.3808119,-0.33365938,-0.52232295,-0.45602793,0.6222113,0.38199037,0.02948012,-0.5520607,-0.19810207,-0.41442356,0.9880714,-1.5692501,0.9311093,0.39231378,0.9219189,-0.30139422,1.3700283,-0.15836957,-0.9197512,0.80571514,-1.5712427,1.2931147,-0.70406675,0.1217038,0.2316939,0.87639314,1.7445133,-0.54569775,-0.3394336,1.3075174,-0.02280819,0.6500109,0.8886267,-0.6116582,1.4097978,-1.2177724,0.48566303,-0.53426665,0.79118896,-0.1330857,0.1085639,-0.10590261,-1.4348066,-1.0358773,0.25087294,0.80459577,-0.5800257,0.5721239,-0.35006225,0.7651773,-0.5801733,1.8723835,-0.6184974,0.81080335,0.4677547,-0.012290123,0.4947699,1.6914017,-2.1856244,-0.06630183,-1.5220844,-0.115512446,0.15680695,-1.034186,1.3530663,0.16914853,-0.9690076,0.8531719,-1.2778143,-0.6743648,1.591358
CXCL8,-1.0826098,1.1633954,-0.9131981,1.0408686,-2.2984912,0.09074118,0.68043834,0.78878933,-0.96134657,-0.763219,-0.31745645,0.5689699,0.25417635,-2.3091018,-2.001246,-1.8647367,1.2896979,-1.6745588,2.3310952,0.1343941,0.2029213,-1.3977095,-0.13419954,-0.5915254,2.125231,1.3944261,1.0440881,0.25293174,0.563632,0.7670782,0.01836961,-2.916226,1.4753147,1.36198,1.4490387,-0.80739695,0.5485444,1.0405625,0.8648968,0.55601114,0.047659744,0.23134755,-1.9179004,-0.383621,0.09851206,1.6868219,-0.3096539,0.18963285,0.065548,-0.07365448,2.9972541,0.28036964,0.057074342,1.7293746,-0.6424366,0.6357063,1.0539776,-0.6160442,0.07970711,0.02307395,0.13478097,-1.873568,-2.7698376,0.6040232,-0.71418697,1.4193025,-0.028309537,-1.2762558,-1.2192477,-0.24360691,2.7270136,0.13400538,0.5277297,0.012045972,-0.019375898,-0.1381917,0.8649495,-2.128637,-0.6244917,-0.85213757,-0.8467393,1.054112,-0.5070447,0.44578892,0.15547498,1.9763863,-2.6692305,0.9434793,0.17442144,-0.21571825,0.5239333,2.0183356,-1.2221493,-0.23104082,-1.3092049,-2.1149402,2.204806,0.15888824,-0.20614779,-0.0041040042,-1.8968021,0.14958447,-1.8648139,-2.098012,-0.24372245,0.63302565,-0.5415887,0.8196641,-1.6584677,0.4045296,-1.3620067,-1.0098906,-0.74577355,-0.9381175,0.2651012,-0.16999386,1.4966204,0.7639653,0.35881186,-0.32140115,-0.34577584,0.6858166,0.08912317,0.13280436,-1.0604825,0.8092974,-0.22554874,-0.53024584,-0.59398216,-2.0452256,0.89332676,1.5889924,-1.2319012,-0.042129014,-1.6293032,-0.5246805,1.9921502,0.0033746418,0.46309632,1.1253586,-1.7912896,1.4619803,-2.1825857,0.6819321,-0.5743603,-1.6294154,-1.1363343,0.036265187,-0.5567267,0.24805064,1.2588735,-0.02287433,-0.21178778,-0.046029758,-1.1087674,-2.1012716,0.6295635,1.8807306,-0.2011546,-0.6827624,0.2796145,-0.829585,-1.3188232,0.09969983,0.0562623,0.73724437,0.46524674,-0.07117869,0.05905837,3.6599004,-0.37533653,-2.6386743,-0.7169055,0.48135543,0.35895386,-0.68874085,-0.24980041,-0.60911477,0.65560526,-0.042048544,-2.0052354,-0.20489183,0.18779556,-0.47139105,-0.6753172,-0.81899726,-0.6550006,1.6464413,1.4100391,1.0599432,0.3955385,0.78545225,0.6186424,0.23935121,-2.1845677,-0.9906175,0.5668391,0.19056796,0.39218977,-0.4156397,0.69178486,0.41138917,0.5439068,1.4810221,-1.3020321,-1.9078556,-0.6323757,-0.54082614,-0.311173,-0.08277626,-1.1744125,1.9700888,0.23653197,-0.16638193,-1.3391509,0.9017008,1.4914681,1.081838,-0.1019765,-0.6070837,-0.38658142,-0.99380773,2.0721204,-0.19105321,0.23384364,1.2366315,-0.1459655,0.23986582,-1.4072583,0.55854523,-1.4488964,1.2593813,2.014505,-1.2241278,1.0645201,-0.3600701,-0.40626016,-1.0113912,0.6823029,1.5200337,0.24909438,-0.36606157,0.88475263,2.2515566,0.14633206,-0.021534188,1.7216325,1.8611733,-1.6712835,0.10228763,-1.3946705,0.6188743,-1.4284848,0.39353913,0.2385348,-0.48237824,-0.7206472,0.6928154,1.8234302,1.0815593,1.9100682,-0.119971655,-1.7253559,0.2280257,-0.06695859,-2.056869,0.79501987,0.6403113,0.92171985,1.2899784,-0.051535852,0.5836615,0.90903175,1.7690111,-0.5946928,-0.56719744,0.4710956,-1.2117237,-2.0124922,-1.2007326,0.4594508,0.5625365,1.5241961,0.4735594,-0.1218849,0.6730542,0.42889994,-0.22279152,-0.34031048,1.3850039,0.39708543,-0.19129263,-0.6300546,0.4633156,-1.5349406,-0.23578833,0.98056054,-0.34744132,0.32489866,0.057970278,-0.38190424,-1.4002054,0.35583436,-1.1141375,-1.136147,-0.6762521,1.0107832,0.78636897,1.7608892,-0.8712482,2.1178322,1.3433583,-2.7415879,-0.044424564,1.4569311,1.3147645,-0.85353506,0.8027478,0.61475074,1.2553767,-0.012708028,-1.1784272,0.6475503,0.79056394,0.8543076,0.4401093,0.01632966,-0.32859993,-0.15009165,0.25868326,0.56011564,-1.0189922,-1.1600561,0.75305194,0.31566453,-0.59754455,1.0388267,-0.54474866,0.69736385,-0.5421958,0.6004065,0.5719961,0.5796941,-0.1688662,-0.6985287,-0.49185967,-0.28013027,-0.039901473,-0.3469025,0.33354637,-0.15071857,-0.41304237,-0.5734594,-0.51285344,2.4008732,1.6776149,0.9435302,-1.4732356,0.9733683,-0.42311153,-0.12655517,-0.68278784,0.2790421,-0.5446888,0.09232056,0.59066993,-3.3368936,1.6788723,0.48280188,0.2741316,2.8982532,-0.83532095,1.7878878,1.7616189,2.2553616,-0.7163752,2.0749795,-0.6481942,-0.66086584,-0.054720223,-1.115225,1.2643871,-0.27249622,-0.6098237,0.5025174,-0.480219,0.3265694,1.0198412,0.1239184,0.008721849,0.4466494,-0.66165006,0.36456773,1.119692,0.23759887,-0.5687696,-0.541062,-0.52682114,0.21651582,-0.1311274,-0.2962771,-2.4123912,-0.29835653,0.6791565,-2.791558,0.54616606,0.5153198,-0.020489305,0.21509783,0.7601904,-1.3985633,-0.58171916,0.411069,1.2427777,-0.57939214,0.17253175,-1.4215796,1.1696715,-0.7283351,-1.4563476,-1.1382973,-0.57373315,-1.6262811,2.4604256,-0.6249347,-0.14308788,0.40249485,1.1570532,-0.48908713,1.2329632,1.7095816,-0.15479319,0.02344189,-0.9525867,0.8610113,0.6349465,-1.1726438,0.54039866,0.48193815,1.1763037,-2.3774803,0.70679605,-1.2965266,-2.0861626,-0.6101118,-0.84299564,-1.5886143,-0.38388103,0.13435668,-0.6010295,-1.402671,-0.442612,0.82167345,0.07516476,-0.29175103,0.6896037,-0.2789512,-1.7935402,-0.50822014,1.0132143,0.52367723,-2.3696828,-0.002328669,-0.8629419,1.5137991,0.28954569,0.6329922,0.0953437,-1.5103631,-0.37701204,0.61556107,1.0141932,-0.564676,-0.3902335,0.95200217,-1.0845482,-1.36676,1.3643911,0.6720042,-0.5911608,1.7749246,1.4144243,2.2471893,0.9091036,-0.79936165,-1.7040491,-0.70907325,-0.010799832,1.1084012,-0.23923314,-0.58976763,0.22788133,1.2416347,0.46202654,0.5405664,0.2583951,0.53158295,-0.90833163,2.6154711,0.24315374,0.0969992,-2.2499213,-0.45435166,-1.24691,0.78091663,-0.8610252,-0.12567072,-1.0790571,-0.10252696,-0.66601694,-0.71035045,1.1939352
CXCL9,-1.0789435,-0.10634567,1.2059973,-0.9142069,0.15144825,-0.51584977,-1.173173,-0.17413403,0.4532851,0.30204388,-1.7929668,-0.4062631,1.3212004,-2.579763,-2.007036,0.41033036,0.12225591,-1.4725693,-1.1120441,-0.84795475,-1.2696416,-0.61350095,1.680668,-0.46267554,-0.26616272,0.8709715,-0.043751705,-1.3625656,-0.9544186,1.7103015,-0.1985391,-0.41636148,-1.0135752,1.39977,0.32168242,-1.1547673,-0.95826894,-0.50833064,-1.4723072,2.0249665,0.3611184,-2.4742377,-1.7708923,-0.23014897,-1.610834,0.34665003,-0.028691094,0.35924366,-0.8666079,0.0101230545,0.67513895,0.12325253,-0.643126,0.8095939,0.072862305,-0.2712879,-1.0644202,-0.91198856,2.2261357,0.39384714,-0.11864338,0.59512305,-0.10949448,0.02014479,0.8601165,0.49542817,1.7699689,-1.0867935,0.8733077,1.9466408,0.72229195,0.6277461,-0.6758415,1.5318257,-0.0681308,-0.038020752,-0.5222205,0.54628336,2.6212785,0.7218866,-0.2026279,0.68957347,-1.2171874,-0.47451493,-0.5457063,-0.9850714,-0.86472595,-1.3587301,-0.5290827,1.7484163,0.62273866,-0.034363188,1.2910616,-0.19421709,-0.92950207,-0.2579662,-0.3455233,0.0760984,2.1244955,1.8738012,1.0903766,-1.3687159,0.20783554,-1.2560252,-0.6355296,-0.4613084,-0.9459094,0.5938426,0.2119004,0.7622297,-1.4063954,0.105238594,0.62960494,-0.89495647,0.38148996,-0.06923008,0.55386364,1.0242544,0.025199916,0.20848814,0.038050298,-0.9830642,-0.6259497,1.506052,1.1742389,-0.9923347,-1.045315,0.4945782,-1.5293523,0.8523821,0.3542471,1.5914557,-1.3725857,2.0793097,-0.27550262,0.20081499,0.9893059,-0.32194176,-0.5185408,0.13651745,0.40433165,0.4395897,-1.2990779,0.9763727,0.11984732,0.9511889,-1.5910437,0.27401167,0.94487184,-1.2111773,1.9346884,-0.864126,-0.19046603,-0.49721777,1.0405732,-0.30574754,-1.6408659,-0.6840432,0.45914066,-0.9341485,-0.42043167,1.2472999,-0.54930115,-0.62399215,-0.6634418,2.6951294,2.059584,-1.1624421,1.2616192,-0.38367468,0.24991167,0.5140769,-0.8135027,-0.47105482,0.48331565,-0.04513979,0.3049734,-0.56958294,-1.4182053,0.7180777,1.4273705,0.600232,0.1457494,-1.0721277,1.4687029,-0.39301613,-0.9530428,0.41623145,1.0886252,0.54265606,-1.6958362,1.727808,1.1023299,0.115341045,-1.4875051,-0.67892814,-1.6296569,0.7426336,1.3380547,-0.99671113,-0.95897657,-0.15813854,-1.875503,0.6464244,1.0670186,-0.5311248,0.232801,-0.18354873,0.27946374,-1.7106935,0.06862053,-0.015826153,-1.2916923,-1.7337469,-0.7284604,0.5037473,1.0701199,0.37491465,-1.7365049,-1.0287358,-1.2229753,-0.3260368,0.96469265,-1.3118687,0.3794736,0.29772332,-1.702065,-0.6534722,1.1224328,0.39293325,-0.25163847,-0.17181647,-0.6422071,0.52454853,0.7109943,-1.3980516,-0.9696954,1.5447996,-0.4629352,-0.025839439,0.68769103,-1.7821296,-1.0343828,0.33422735,1.3336148,0.5153422,0.33630374,2.006448,-1.482324,-1.9322469,1.5734602,2.0298088,-0.48261663,1.3838823,0.98688334,1.6544561,-0.9244064,-1.1844076,0.4875552,-0.852169,0.8163478,0.6879124,-2.0627227,0.995252,-2.3351593,-0.41424757,-1.3011612,-0.15058652,-0.86844593,-1.5189779,-1.3360049,-0.6330731,0.964274,1.0840514,-0.9102036,2.2971692,0.00017933575,0.46463883,0.9124602,1.7810042,0.33002567,-0.14878008,0.32705912,0.17680027,1.5778813,-0.26478696,-0.13073799,-1.5863323,0.75962746,-0.2056917,2.0155532,-1.0743283,-0.4382802,1.0536807,-0.44775224,-0.5057575,-1.6149491,1.2495558,1.3213702,-1.7297279,0.6241698,-0.006250471,1.2380008,-0.038466178,0.32224238,-0.35704535,0.44626635,-0.472798,1.469531,-0.6664247,-0.58604807,2.7684667,-1.7977022,2.5172577,-0.15442124,2.3159678,1.6082441,-0.46781147,1.288365,0.13029917,0.47165385,1.0312674,0.15880547,0.020242654,1.1885145,1.3618301,-0.07194727,2.348178,0.18361248,0.9331043,0.5205897,-0.64843994,1.5545305,1.4284546,0.6730016,-1.116625,0.31406716,-0.59103197,0.02038567,1.4375141,0.35678065,-1.6087364,0.38860726,-1.7267983,0.22389428,1.4690675,0.06026436,-0.25507542,0.48895955,-0.5978785,-0.9120386,-0.47862616,-0.1447151,-1.2132592,-0.9569109,0.82307017,-1.159536,-0.08092657,-0.1090753,-1.0586908,-0.07241043,0.18376493,-2.853701,-1.6141472,-0.008189885,-1.0775658,-1.0901792,-0.1482452,1.8605446,1.2256651,1.3180536,0.97353405,-1.3828156,0.602651,-0.1843205,0.8278899,0.71619093,-1.2634917,-1.6377146,0.7183672,-1.6948328,1.0206054,-0.7389877,-0.43488926,-0.54632664,-1.1861442,-0.16453396,0.50091416,-0.028263027,-1.1265352,-0.65928906,-0.64234626,-0.19966084,1.1486782,0.85734284,-0.8796609,-1.8048562,0.4898566,0.48738053,-0.063833185,0.102492414,-0.38039958,1.1439183,0.12381095,0.918106,1.2225882,0.7053233,-1.4823147,-1.3877143,0.63387316,0.18328112,-0.37354138,0.9882122,0.08289815,0.8303756,-0.19003983,1.0239165,-0.72362363,-1.5471275,-0.15875001,-0.6470503,-2.1239405,0.9282982,-1.4870785,0.7057099,-0.6435674,-0.46070787,-1.9664484,-0.19553809,-1.3592374,-0.023027977,0.8217493,0.31278068,0.88242173,-1.8167179,-0.39280164,-1.5302433,-1.3400763,-0.2077464,0.73032314,-0.27754265,0.3439209,1.1440802,0.87750626,0.5076754,0.44311202,1.5312341,-1.8748909,-0.23916265,-0.94052243,-0.65673095,1.2040666,0.11002317,-0.5212956,-1.6177063,0.6037136,0.13927272,2.2903116,1.0683151,1.2429469,0.8148267,0.058591623,1.700407,-0.8207527,1.0890957,-1.0971482,-0.019423714,1.6467249,-0.032636322,0.6552838,0.076120436,0.8945265,0.7875384,0.6447676,1.4848684,0.87346673,-2.4218402,1.8451902,1.1300159,0.85843664,1.0257877,0.20151545,-1.0168937,-0.019328382,0.5419015,2.0298214,-0.6177554,0.7907493,-1.3537741,2.2377422,0.7249383,-0.3855927,0.4179702,-0.10209455,-0.0229811,-0.79251623,-0.14809534,-0.13606162,2.4864821,-1.1599882,0.57768637,-1.6010528,-1.2174006,1.3083142,-2.7544465,1.9111557,0.94383925,-1.9736611,0.33807674,-1.410772,1.7030638,1.5578966
EFEMP1,0.04786565,-0.40994206,0.99997485,0.36492965,-1.5909548,0.28440085,1.2668827,-0.8840645,0.049709335,-0.9215456,1.6074907,-0.7706071,1.4891258,0.89866966,-1.0967747,-0.5031882,0.040194724,-0.1587134,-1.1700771,0.19016369,-1.8825606,0.42444518,1.3017156,1.4680228,-1.4006292,2.011051,-2.0623128,-0.5611243,0.006304923,-2.3290286,-1.0130758,1.5578347,-1.0877956,-0.60712194,0.22912213,0.5921347,-0.24656166,0.9959726,-1.0089273,0.106436975,-0.29483578,1.3514177,0.69024736,0.9095332,-0.19210085,-1.004673,0.55769485,1.1941587,0.16763772,-1.0575675,0.827071,-1.6061175,0.19313456,-0.4987778,0.016715705,-0.8340037,0.507436,1.1226199,2.5845916,-1.692852,-0.7256073,1.5416038,-2.1429029,0.037857022,0.23808546,-0.70831484,0.1790979,0.46632972,1.0907522,0.6173329,0.83565974,-1.022063,-0.11254249,-0.009741976,-1.0374131,-0.7600387,-0.11219419,0.6110399,0.84688073,2.793456,0.7142237,0.57837665,0.5428737,-0.09510581,-0.4875069,-0.8050204,1.0392119,-0.8666638,-0.21582776,0.43504846,-1.5966136,-0.16755413,-0.928819,-1.1071941,-0.63125426,2.2705853,0.075831406,-0.9793127,1.217856,-0.50999135,-0.08127239,0.64417404,0.92019755,0.9567008,-0.038613204,0.27847788,1.1703948,0.6547218,-2.2125704,-0.71075445,0.47852647,-0.472936,2.2917492,0.44992068,-1.1608992,-0.7790714,-0.7788458,-0.28026223,-0.29120833,-0.10942244,-1.2249821,0.9265164,-1.7785618,-0.53457934,-1.3299053,1.4587173,0.11410937,-0.058638476,-0.3984128,2.036889,0.851271,-0.09385875,-1.1588062,-0.7645668,0.092689246,-0.04613214,-3.269988,0.67056984,0.029966155,0.69273126,-0.55634546,-1.5460849,0.26074985,-1.1023623,-0.52241457,0.74447775,-0.06630364,-0.1718255,1.9889219,1.3275981,0.7748918,-2.2367911,-1.4806757,-1.4997997,-0.5512677,1.4363558,0.7458631,-0.36994702,-0.9963095,0.11396579,-1.0574968,0.49864677,-0.6817111,-0.7130165,0.9587381,1.6441926,-1.7662231,-0.4948481,-0.43389076,0.20413974,0.0750323,0.18536653,1.5937606,-0.2709933,-0.73991203,0.2057117,-0.25187826,-1.0513387,1.3695208,-1.2210549,-1.2088294,0.21444617,-0.85624063,1.0561975,0.9582089,0.8184654,0.5837044,-2.5025024,-1.1184336,-0.4089231,1.1730312,0.86787784,1.1411529,0.3126671,0.93336284,1.5049565,0.025149686,-0.45657626,0.90481466,-0.631605,-1.1540014,-0.8841068,1.2294595,1.0448008,-0.8854026,1.4279835,-0.9261545,0.29953167,-0.38952315,0.2715635,-1.4907976,0.08964772,-1.8198537,1.7487324,0.73144317,0.6615047,-0.27243793,1.5048692,0.07748223,0.7259214,0.72015464,0.451916,-0.45653343,-1.651665,-0.3777942,-1.0091817,-1.261451,-0.24097498,-0.39141804,0.5074709,1.978314,-1.8062147,1.6640916,0.65706486,0.59250396,0.15124077,-0.23397103,1.0952734,-0.11555509,1.7819797,0.18659402,0.22404154,0.21821532,-0.19821607,-0.26813477,-0.48445106,0.3030949,1.7986037,-1.1438743,-0.32884854,2.0682266,-0.05937528,0.47183192,-0.64908785,0.17830437,1.2560288,-0.74170387,-0.9343514,0.5654188,-1.8485676,1.2542151,-0.9365085,1.5240104,-1.3009634,0.66709906,3.1791632,0.57288486,0.9081652,-0.027398307,-0.17281704,0.23980014,2.0008342,-0.5197265,2.3683643,0.43595928,1.5783792,-1.0382577,0.387238,-0.7698175,0.5899569,-1.6787385,-1.0493118,1.3307188,-0.58281565,-1.6561946,0.2243388,0.78671116,-0.61484087,-0.9285063,-0.24654527,-0.052450288,-0.61264837,1.2218426,0.28989673,-2.114275,-0.59068537,-1.5257369,-1.058795,1.6869149,-1.4185451,0.39146292,-1.8028405,0.8576036,-0.116269164,-0.7628518,0.07623984,1.3632615,-0.7972314,0.2258274,-0.28051737,-0.46743894,-0.970305,-0.9467555,0.809051,0.6527105,1.7870957,-1.6658452,0.94792795,0.55755436,-0.094011776,0.4206778,-1.9893048,-2.1812394,-2.0301397,0.3923117,0.5430698,-0.9770092,-1.0952761,-0.105923355,0.021403214,-0.08548015,-0.7978349,0.019648695,-0.08697133,0.7088643,1.0839404,0.7389952,0.012856096,-1.3489965,1.4173306,0.92526877,0.73233193,-2.211589,1.6994073,0.040971324,1.015244,1.1980691,-0.5891051,1.0760883,1.056963,-1.3518685,0.0403549,-0.83345324,-0.55456173,-0.18237013,0.9795692,-1.0162934,0.6163136,-1.1885858,-1.3740432,0.14109562,1.9621291,-1.1867738,-0.571012,-0.605803,2.108603,-0.264813,-1.1047764,0.69409055,1.4405675,-1.3381997,-1.3333857,-1.646578,0.5970382,-0.76435685,-0.97948116,-0.48191813,1.1964141,-1.4036012,-0.95939916,-1.5317413,-0.62720037,1.133885,-0.06843314,0.7433087,-0.93387926,-1.3574351,1.019937,0.515819,-1.6448582,1.5040612,1.1374085,-0.5638986,-1.3728302,0.84949386,-0.08950051,1.296329,-0.47419336,-1.5392535,-0.75002736,-0.77054715,-0.04681633,1.0720767,0.9473677,-1.4677215,-0.118592456,-0.31894475,0.69194776,0.47436538,0.44094178,-2.5557272,1.9820592,-0.9837082,-1.2075672,0.4787812,-0.8166121,-0.44641334,2.3119376,0.6866906,1.8587735,-0.983271,-0.6106651,1.7904538,0.21845539,-1.9027079,-0.7265173,0.36455524,-0.18126753,1.1523725,0.99518263,0.8191318,0.4949171,1.3735228,-0.8664859,0.6626774,-0.6237223,1.2183424,-1.2145295,0.06184756,1.4305571,2.031766,-0.016884996,0.26382267,-1.206561,-0.14338803,1.0117158,-0.3107966,-0.20318106,0.2808262,-1.1773623,0.99461,0.3786532,-0.19501358,1.1665642,-0.80278563,0.66904503,-1.4053448,0.16607706,-1.6800512,-0.76506454,-0.2807363,-0.9385437,0.71410686,-0.08288688,1.6925333,-0.3623091,-1.2975317,-0.23139627,0.9753804,-1.2144606,1.5440937,-0.44892672,1.8614361,-0.52433574,1.4533268,0.4266394,1.3997636,-0.7121615,0.43879333,0.9628034,-0.5181396,0.8102075,0.59768486,2.2490869,0.26636142,2.7030098,-0.86557364,-1.2175938,-1.4272698,1.629766,0.7300146,2.2457902,1.808001,-1.2313441,0.07525598,1.1583773,-0.26249912,0.31917605,-0.01767776,0.6419495,-0.52050817,-0.2297238,0.2538508,-1.8831435,-1.7417498,-1.3851751,-0.7073064,-0.3097665,0.8243543,1.4707508,-0.7124214,0.33893096
