,dim_0,dim_1,dim_2,dim_3,dim_4,dim_5,dim_6,dim_7,dim_8,dim_9,dim_10,dim_11,dim_12,dim_13,dim_14,dim_15,dim_16,dim_17,dim_18,dim_19,dim_20,dim_21,dim_22,dim_23,dim_24,dim_25,dim_26,dim_27,dim_28,dim_29,dim_30,dim_31,dim_32,dim_33,dim_34,dim_35,dim_36,dim_37,dim_38,dim_39,dim_40,dim_41,dim_42,dim_43,dim_44,dim_45,dim_46,dim_47,dim_48,dim_49,dim_50,dim_51,dim_52,dim_53,dim_54,dim_55,dim_56,dim_57,dim_58,dim_59,dim_60,dim_61,dim_62,dim_63,dim_64,dim_65,dim_66,dim_67,dim_68,dim_69,dim_70,dim_71,dim_72,dim_73,dim_74,dim_75,dim_76,dim_77,dim_78,dim_79,dim_80,dim_81,dim_82,dim_83,dim_84,dim_85,dim_86,dim_87,dim_88,dim_89,dim_90,dim_91,dim_92,dim_93,dim_94,dim_95,dim_96,dim_97,dim_98,dim_99,dim_100,dim_101,dim_102,dim_103,dim_104,dim_105,dim_106,dim_107,dim_108,dim_109,dim_110,dim_111,dim_112,dim_113,dim_114,dim_115,dim_116,dim_117,dim_118,dim_119,dim_120,dim_121,dim_122,dim_123,dim_124,dim_125,dim_126,dim_127,dim_128,dim_129,dim_130,dim_131,dim_132,dim_133,dim_134,dim_135,dim_136,dim_137,dim_138,dim_139,dim_140,dim_141,dim_142,dim_143,dim_144,dim_145,dim_146,dim_147,dim_148,dim_149,dim_150,dim_151,dim_152,dim_153,dim_154,dim_155,dim_156,dim_157,dim_158,dim_159,dim_160,dim_161,dim_162,dim_163,dim_164,dim_165,dim_166,dim_167,dim_168,dim_169,dim_170,dim_171,dim_172,dim_173,dim_174,dim_175,dim_176,dim_177,dim_178,dim_179,dim_180,dim_181,dim_182,dim_183,dim_184,dim_185,dim_186,dim_187,dim_188,dim_189,dim_190,dim_191,dim_192,dim_193,dim_194,dim_195,dim_196,dim_197,dim_198,dim_199,dim_200,dim_201,dim_202,dim_203,dim_204,dim_205,dim_206,dim_207,dim_208,dim_209,dim_210,dim_211,dim_212,dim_213,dim_214,dim_215,dim_216,dim_217,dim_218,dim_219,dim_220,dim_221,dim_222,dim_223,dim_224,dim_225,dim_226,dim_227,dim_228,dim_229,dim_230,dim_231,dim_232,dim_233,dim_234,dim_235,dim_236,dim_237,dim_238,dim_239,dim_240,dim_241,dim_242,dim_243,dim_244,dim_245,dim_246,dim_247,dim_248,dim_249,dim_250,dim_251,dim_252,dim_253,dim_254,dim_255,dim_256,dim_257,dim_258,dim_259,dim_260,dim_261,dim_262,dim_263,dim_264,dim_265,dim_266,dim_267,dim_268,dim_269,dim_270,dim_271,dim_272,dim_273,dim_274,dim_275,dim_276,dim_277,dim_278,dim_279,dim_280,dim_281,dim_282,dim_283,dim_284,dim_285,dim_286,dim_287,dim_288,dim_289,dim_290,dim_291,dim_292,dim_293,dim_294,dim_295,dim_296,dim_297,dim_298,dim_299,dim_300,dim_301,dim_302,dim_303,dim_304,dim_305,dim_306,dim_307,dim_308,dim_309,dim_310,dim_311,dim_312,dim_313,dim_314,dim_315,dim_316,dim_317,dim_318,dim_319,dim_320,dim_321,dim_322,dim_323,dim_324,dim_325,dim_326,dim_327,dim_328,dim_329,dim_330,dim_331,dim_332,dim_333,dim_334,dim_335,dim_336,dim_337,dim_338,dim_339,dim_340,dim_341,dim_342,dim_343,dim_344,dim_345,dim_346,dim_347,dim_348,dim_349,dim_350,dim_351,dim_352,dim_353,dim_354,dim_355,dim_356,dim_357,dim_358,dim_359,dim_360,dim_361,dim_362,dim_363,dim_364,dim_365,dim_366,dim_367,dim_368,dim_369,dim_370,dim_371,dim_372,dim_373,dim_374,dim_375,dim_376,dim_377,dim_378,dim_379,dim_380,dim_381,dim_382,dim_383,dim_384,dim_385,dim_386,dim_387,dim_388,dim_389,dim_390,dim_391,dim_392,dim_393,dim_394,dim_395,dim_396,dim_397,dim_398,dim_399,dim_400,dim_401,dim_402,dim_403,dim_404,dim_405,dim_406,dim_407,dim_408,dim_409,dim_410,dim_411,dim_412,dim_413,dim_414,dim_415,dim_416,dim_417,dim_418,dim_419,dim_420,dim_421,dim_422,dim_423,dim_424,dim_425,dim_426,dim_427,dim_428,dim_429,dim_430,dim_431,dim_432,dim_433,dim_434,dim_435,dim_436,dim_437,dim_438,dim_439,dim_440,dim_441,dim_442,dim_443,dim_444,dim_445,dim_446,dim_447,dim_448,dim_449,dim_450,dim_451,dim_452,dim_453,dim_454,dim_455,dim_456,dim_457,dim_458,dim_459,dim_460,dim_461,dim_462,dim_463,dim_464,dim_465,dim_466,dim_467,dim_468,dim_469,dim_470,dim_471,dim_472,dim_473,dim_474,dim_475,dim_476,dim_477,dim_478,dim_479,dim_480,dim_481,dim_482,dim_483,dim_484,dim_485,dim_486,dim_487,dim_488,dim_489,dim_490,dim_491,dim_492,dim_493,dim_494,dim_495,dim_496,dim_497,dim_498,dim_499,dim_500,dim_501,dim_502,dim_503,dim_504,dim_505,dim_506,dim_507,dim_508,dim_509,dim_510,dim_511
ACTA2,-1.0050008,2.9091272,-0.8761981,0.91414064,0.013249833,0.23970337,1.0823114,-0.91839176,0.48552778,0.1825116,1.6181622,-0.13182366,-0.93497545,-1.137596,-0.033458848,0.4872858,-0.27958786,1.0523447,-0.10079101,0.31816098,0.011672131,2.7035098,-0.93000615,0.119909056,0.63554597,-1.7265773,-0.83908147,0.37844336,-0.3452983,-0.56072533,-1.3889862,-1.1636851,-1.878351,-0.04175847,0.20633486,0.025205659,-0.42574477,0.062111586,-1.3669051,-0.12229233,1.2024616,-0.15668471,0.00043613097,-0.8472187,-1.6367286,3.4716134,0.5249692,-0.21591955,1.8027146,0.75276077,-0.4105477,1.5390872,0.2933111,-1.4531475,-1.3589965,2.0227597,-1.4259173,0.92033225,0.33822507,-0.87269217,2.1700594,0.66940236,-0.0055787954,0.25858253,3.4909632,0.56750494,-2.9612186,2.3843136,-2.0129638,2.9590616,1.0942615,0.059770066,0.16733953,1.2130952,-0.81259036,0.61011255,-1.003857,-0.6913215,-0.43727118,0.7970151,0.6238107,-2.5474725,0.73131466,0.22405176,-0.23792623,-1.005784,0.663313,-1.8615391,-0.02841285,-0.5695485,0.021011837,-0.49057356,0.47391668,-2.5128105,-1.51873,-1.2451086,-0.94050163,0.09472306,-1.0075536,-0.32365823,-1.2044629,-1.2237238,-1.2724737,2.5025976,1.5468512,0.32040834,-1.3713083,1.0487523,-0.22788857,-1.9147257,0.68544966,-0.12376568,0.5722543,-0.07253879,0.12149801,0.42589125,1.7106953,0.75834244,-0.0066229454,-1.1245369,1.5238773,-0.9289913,0.008281138,-0.45222104,-0.3353828,-1.0480493,0.17625785,1.2756425,-0.45287427,0.30300885,1.5646368,-0.067942426,1.8346415,-0.6356717,0.38801974,-1.6825913,-0.0988813,-0.4212918,1.1896547,2.12319,0.014377572,0.52308977,0.3772198,0.5379697,0.1176483,-0.5054809,1.1835237,-0.3871586,1.0290703,-0.12983552,-1.1641243,-1.752743,-1.9171954,0.8281165,0.493604,0.017877461,-0.036283813,0.4566793,-0.30101797,-0.14213412,1.1907278,-0.36906672,-1.2164129,-0.13558665,0.31481224,0.44411618,-0.8830408,-1.9670998,-1.6652238,-1.0943078,1.1796738,-0.70008844,-2.5542517,-0.6889198,0.24899974,-1.688395,-0.7362885,-0.8911787,-0.55865806,1.2174343,-1.4896939,-1.1719459,1.3634696,0.62103695,-0.10923003,-0.9394633,-0.8808965,-0.2954096,0.07460667,0.57239485,1.0170536,-0.38790318,1.1494191,0.42183557,1.6633496,-1.252745,-0.73854387,0.038600057,-0.49876925,-0.16552453,1.5961859,-0.39908144,-1.0137061,0.43094254,-0.017441534,1.0018975,-1.8595554,0.42703307,0.0032351972,1.40648,-1.6215743,0.41609693,-1.8941419,-0.7193492,-0.71456987,-1.5418589,0.4224728,0.02433967,0.041647915,1.0166886,0.7151724,-1.7149692,1.9833405,1.1645623,-0.74372226,0.46507263,0.4670045,-0.13210602,0.23576064,0.4247917,-0.26167047,-1.285568,0.6865169,1.2719238,-1.4117414,0.57385755,-0.40674943,-0.07526402,-1.804713,-1.1155891,0.9636589,-1.4580064,-0.15474077,-1.7170628,-0.13759646,-0.21000205,1.6175424,-0.885208,-0.3404301,0.8945933,-1.616387,-0.30814505,-0.13111362,0.63670135,1.0945926,0.9628145,-0.4195276,-0.95097053,-0.44489652,-2.2722526,-0.85767436,-0.5410447,0.35360804,1.2065375,1.8452721,1.2490058,-0.0046475576,0.40008846,0.8208003,-1.6243557,-0.928522,0.267542,0.15137446,0.2327513,0.81358784,-0.9264647,0.6492022,-0.6159009,1.3643869,1.6480038,0.14834444,0.02819064,1.3029739,0.14259873,-0.8334319,-1.0957448,-0.41103074,0.7082818,-0.47534433,0.017423112,-1.0597279,0.76432604,0.91615736,0.82554317,-1.4978583,-1.163803,-0.47165036,-1.019928,1.0436317,0.34367543,-0.39128244,-0.085857876,-0.98253924,-0.5662539,-0.6052165,0.6669258,-0.35755944,1.3402778,0.14967912,-0.17181568,-1.7181652,2.0090706,0.48824367,-1.9031322,-0.8939708,1.5358251,-0.037232503,0.42613626,0.038532928,0.4563599,0.005861057,0.3514632,1.0531564,-0.10273365,1.0539198,0.18642153,0.81271905,0.85017556,1.0940148,-1.43077,0.74013793,0.5815898,0.7213679,-0.3371622,1.6387012,-1.1031358,-1.1773856,-0.22580074,0.6573452,0.81150657,-0.69909465,-0.67118204,-0.18102394,0.5289009,-0.40657228,-1.7003958,1.8756058,-0.4409461,-0.079201356,-0.7599946,-2.4582748,0.33264035,-0.2044367,-0.026106875,-2.0811644,2.795823,-0.81174755,0.2852702,-0.5381142,0.37363037,-0.95618695,-1.008164,0.5011002,1.4234648,-1.3905195,1.1927967,-0.4292006,1.5136967,-1.2137239,0.61324406,-0.82697105,-1.5542852,0.7797709,1.758325,1.2209724,-0.11546053,2.1224322,-2.4415307,-1.7544023,-0.6366552,1.6725862,-0.20605819,0.13574217,2.3934636,-1.4306884,0.49409643,0.023946002,1.5703629,1.3068556,1.5757565,0.93287414,-0.56819355,-1.9104179,-0.03599719,0.49725068,0.8183376,1.65548,0.40214828,0.970812,0.60594183,-0.84925866,0.05942056,-0.1544384,0.9972873,0.23495974,-1.1307626,0.03344289,1.3772644,2.3864794,-0.87774384,0.037232507,-0.16854508,-0.09318929,0.31072068,0.03843715,-2.368497,2.0300703,0.40284222,-0.70570755,1.4322673,0.29975805,2.022221,1.7322268,-0.6286666,2.1525655,-0.9532163,-0.4544063,0.18222198,-1.4355296,-0.7319653,1.1217096,0.8090951,-1.0372063,-0.99496406,0.1598251,-0.14545116,-0.87591153,0.096004896,0.13697201,-0.033116553,0.20911269,1.0715629,-0.39298192,-1.1685688,-2.6377513,-1.0888233,-0.6273369,0.09440238,-0.39537358,1.3559151,-1.0394177,0.9388384,0.64407474,-0.18562473,0.8115204,-0.60372084,-0.56322557,0.62824625,0.71031606,2.1139657,-0.60827947,1.3558083,-0.087911576,0.2729408,-0.6367193,-1.581189,0.54366267,-0.20190689,-0.0092002265,-0.10025256,0.347431,1.7967894,-0.2516307,-0.015925042,0.013138363,0.42154297,1.3346537,-0.5024146,1.1694944,-2.1923397,0.52004135,-0.57330376,-0.82163054,1.6520032,-0.27634287,-1.0446221,-0.07554516,-0.77684194,-0.5488459,1.5515445,-2.1841187,0.8294692,1.11136,0.5121252,1.1943918,-0.41127256,-0.22241788,-0.4493283,0.29811758,0.7387326,-1.8760947,0.22863731,1.4743371,-0.67019916,-2.416538,-0.5562521,-0.931894,0.1830692,0.14344802,-0.41131896,0.44505903,0.03377677
AEBP1,-0.7632149,-1.7181518,-0.13981462,0.2969546,1.0741869,1.4124386,-0.95936775,1.2350436,-0.9680916,-2.2507784,0.7134082,-0.10459858,0.4434717,-0.5890697,0.82036537,0.16628279,0.56016093,1.8837395,-0.54761696,-0.44329944,0.78105444,1.1571277,-2.2603126,-0.052148752,-0.17748173,-1.2665629,-1.4639677,-1.1593691,0.9278696,0.3569275,0.48405918,1.7586398,-0.086102374,1.7350516,-0.621417,0.21875194,-0.9363267,0.37751567,1.2309449,-0.10715971,1.8482525,0.31041992,0.14482252,0.9797073,2.4219697,-0.60947293,0.9984595,0.7792775,-0.12221912,0.31858933,1.7038145,1.9492834,-1.1008402,-0.3947904,-1.4133345,0.24974771,-0.122972175,2.2635925,-0.5266655,-0.31620163,0.38230398,-0.044988897,1.1933649,-0.8299672,-2.5764809,0.17211407,1.4016721,-1.5148995,-0.14540695,-0.7101822,0.33125827,-0.9471975,0.18456106,0.33552545,0.2993298,-1.9829879,0.8622741,1.1890111,1.2301521,-0.64874566,-1.4145856,0.5093162,-1.8170927,1.1622678,-1.2937639,-0.047702372,1.724565,-0.9670201,0.61199975,1.3138567,-0.49595574,2.4439237,-0.8750789,-0.36741003,1.1983596,-1.6445422,0.6280206,-2.049686,-1.0131,-0.55292743,0.11571537,-1.6581907,0.6362023,1.1823905,0.13740511,-0.2739624,0.3195885,-0.5635655,-0.1879358,1.0984726,0.5505445,0.9834799,-0.22361921,1.2536829,1.0326854,0.8966609,-1.6573389,-1.2683055,-2.3387516,-1.0728121,1.0335348,1.9298214,-0.18592918,1.2004381,-0.5672728,-0.23183799,-0.07199816,0.6686663,0.5603996,0.21385342,-1.4632621,-0.9606618,0.91184586,1.4692894,0.25378713,0.16427092,0.1820496,0.18210673,0.4351006,1.9761245,-0.9213678,0.29755917,-0.86979747,1.7127886,-0.43661174,-0.4846614,1.4172165,0.7192134,0.4281946,-1.1346967,-0.23623766,0.86115634,1.2135577,-0.521809,0.4472694,-0.36748222,0.7217321,1.1275724,0.8110327,-0.70962703,0.711361,-0.5060271,-1.4532084,-0.6604359,-1.8834822,0.28664082,0.9640182,0.35379788,-0.1715307,-0.9245381,0.6614371,-0.14688833,-1.5202764,-0.84426844,1.6732688,-0.8498192,1.6702558,1.401693,1.1672137,-0.68333673,-1.3176686,0.56158274,-0.5992146,-0.4247352,-0.63768524,0.33483583,-1.7878639,0.09610057,-0.8150499,-0.12407483,-0.28227568,1.0195718,0.9472758,-0.7532726,-0.8831022,1.3288203,0.26530516,1.0456587,-0.013792831,0.6202109,-0.70629317,-0.058873434,-1.0526294,-2.3084154,0.9391209,1.0896599,1.0856742,0.39430624,-0.6508039,-0.3877393,0.59290606,1.4620078,-0.8635023,-0.10424388,-0.39980987,0.942965,0.7792337,-1.4509972,0.20972222,0.19254416,-0.5774721,-1.2114663,-0.6454335,0.17050393,-0.83662796,0.43787473,0.17556678,1.0309471,-0.93606955,-0.7366222,-0.2595217,-0.7225711,0.79778755,0.9459277,-2.4425254,-0.5227346,-2.0655053,0.55306727,2.2499,-0.8262465,-1.5307608,0.2944717,-0.053218223,-1.462768,-1.4628397,-0.64052296,-1.4962231,1.1293759,-0.15535265,-2.5245595,-1.3736247,-0.78371,0.81511444,-3.3265624,0.6127951,1.8244923,0.015210727,-0.7168478,-0.32122067,0.71771425,1.5456494,-0.40851107,-2.0810947,-0.66885823,-0.31955722,-1.5567994,-1.8161889,-2.1649508,1.417133,-1.2302393,1.1411945,1.1947033,-0.81003547,0.17624252,-0.05039183,-0.30518928,-0.27871102,-0.74484545,-0.23003769,0.8874628,-2.7724423,0.7412488,0.21678676,0.1916519,0.33502445,-1.5144802,-0.10878626,0.59326303,-0.49459478,0.9091675,0.12033796,-0.991691,1.3280244,-0.21435876,0.12926354,-0.07007673,-1.030112,1.3480297,1.1039637,-0.3056859,0.9380384,-1.5035983,-0.22343664,0.69795203,0.43841344,2.1678832,-0.6567144,0.052075103,-1.7284898,0.10828179,0.50556433,-0.65759224,-1.418788,1.620076,2.2831087,0.052812833,-0.14177467,1.7729869,0.79387236,0.21785843,0.117513664,-1.747898,-1.5732,0.50639844,0.935017,1.7250538,-0.85774267,-0.60007936,0.42009407,-1.4253396,1.0152646,-0.88132447,0.9614591,0.78593045,0.45838398,-1.3926256,1.0844579,1.0855792,-0.73224753,-1.6235687,-0.63441557,-0.08535993,2.0164256,-1.5270287,-0.9006125,-1.6501045,-0.5262569,-0.60332197,-0.021294001,0.31902614,1.4944979,1.6864326,0.8835621,1.4307877,0.32294405,1.0198969,0.6432758,0.8331706,-1.9002292,-1.8358845,1.0675399,-0.76966166,1.9340256,-1.6039535,-1.160271,-0.8134463,-1.0385853,1.2650962,1.7606268,1.9225886,1.0913599,-2.8071537,-0.59713006,-1.0969418,-1.0648426,-0.7242492,1.7762307,1.2091674,0.6771817,-1.3800607,1.1692016,0.24945623,-1.0484792,-0.42728052,-2.309651,0.80420744,-0.79535586,-0.38262165,1.8449404,0.4381239,-0.57151276,-0.14719597,1.3129246,-1.3504364,-1.0846958,-0.9829808,1.1044979,0.8721596,1.7256697,1.0527005,-0.7428056,1.2254006,1.4231527,0.89080137,1.3776586,1.1739215,-1.3140923,-0.82177734,-0.53442585,0.5785208,-0.76562953,2.2687318,0.17399223,1.513178,-0.86191845,1.8644928,-0.032356646,1.256001,0.097087085,-1.2660958,0.45867643,-1.3142452,0.1963072,0.7837349,1.2527831,0.22153373,1.0580688,0.2790067,-1.234111,-0.65476084,-0.67416567,0.013677876,-0.77927154,-0.4339913,-1.114852,0.8581699,-0.53325665,-0.8538257,1.564922,1.6168975,1.3587012,-0.18793155,-0.64185184,-0.5852112,-1.03803,-0.16604845,1.7953513,-0.3462651,-1.6808379,0.842035,0.4487995,0.17297488,0.58069503,-0.80888075,-0.5347624,-2.1714797,-0.10785319,-0.7089122,1.3783324,1.0190388,0.0664415,1.2999498,-0.31585324,-0.05516567,0.7582108,0.5561295,-1.7423106,1.1974174,-0.4969561,1.0772583,-0.5654782,-1.2395663,-1.315198,-0.9953084,-1.8937861,-1.4005884,1.4677572,0.6112767,-0.60909516,-0.31096822,-1.0486307,0.73362935,-1.1101413,0.044632036,2.4193943,-0.9349863,-1.1300268,0.22215866,0.40064535,-2.29689,-0.19208743,2.2644598,0.5131587,0.8261121,-0.0040205456,-1.3874683,0.27443638,1.8235737,1.828809,-0.7598464,-0.76747847,-0.00033244144,-0.22487895,-0.9744973,0.10730726,-1.5237494,1.018935,0.08970333,0.9736465,0.655552,0.33300543,0.9817368
ASPM,1.3722497,-2.0767307,-0.32382002,1.1364372,1.2456193,-1.444635,-1.006209,0.78048146,0.013756584,1.2508315,0.99311155,1.0640826,0.26660326,1.2514254,0.7042495,0.0369911,0.56792176,-1.4321243,-0.6157111,-0.4304058,-0.7887113,2.2610624,-0.38185707,-0.45813558,1.4819375,-0.88645655,-0.42864263,0.789832,-1.5160339,-0.76962274,1.9339495,0.29674423,0.5796676,-0.6069664,-0.98941857,1.7526938,-2.043613,-1.6856312,-1.1622441,-0.72616017,0.31530383,0.72444224,-0.4540386,2.3399608,-5.2601954e-05,-0.1625706,1.5020293,-0.6045666,0.20311111,-0.6868565,-0.7663855,0.3958108,-1.8060712,0.19830759,-0.78672093,1.6222751,3.238364,-0.9998491,-0.43156347,0.7942146,0.7650336,1.3090465,1.4618504,0.4795552,1.037618,0.11220577,-0.9058652,-0.6547805,0.15292764,1.2162362,1.0334854,-0.13007198,-1.2221718,0.26139945,-1.4535042,0.64865124,-0.29126045,-0.6845036,0.59887385,-0.388618,-0.57699674,0.51266813,0.556417,0.67271453,0.48853672,-1.1584362,1.3392966,-1.6871575,1.2199054,0.21532032,-1.293608,-0.5699718,-1.2437475,2.663699,1.8657593,1.4964901,0.4641937,1.5529306,0.41875154,-1.1899474,-0.4491769,0.59239995,-1.4942012,-1.7905327,0.88495344,-1.5768228,-1.0648987,-0.18094838,-0.18314473,0.4095034,-1.3334206,0.79358137,-1.2606704,-0.14834265,0.06385541,2.0161173,-0.52335924,0.3631516,-0.43723845,0.23987667,-0.039259408,2.0247862,0.4834452,-1.5232438,0.6068458,0.5418161,-0.6033805,-0.3904032,1.2455698,0.8841701,0.33441544,-0.1811817,-0.9603508,-2.7354279,4.8078895,0.17950912,-0.4370823,-1.5375797,-1.3007005,-1.4112643,-1.5198241,0.6194744,0.3028671,-1.201135,0.53929776,0.08530177,-1.3283914,0.37239477,-0.28062716,0.95191944,-1.3594933,0.18843919,0.95622027,-1.0223063,-1.700951,0.83807296,1.0140426,0.35149002,-0.5670963,-1.1724261,-0.351971,1.7120136,1.5084438,-0.6919104,-1.1736811,0.5375322,-2.1053293,0.08047514,-0.40559036,-1.3722922,-0.93791586,-0.25506574,1.2333144,1.0894017,0.6608332,-1.0679444,-0.053875178,0.39395636,0.10058784,-1.5356088,0.4190536,-0.61582524,0.83075184,0.36192822,0.027126694,-1.970532,-0.34268442,-0.47072345,-0.24937172,-1.0890627,1.338283,0.28263703,0.6349202,0.36090115,0.49912256,1.3318434,-0.11609862,0.82070404,-1.1730596,-2.095683,1.4997314,0.8149482,1.4211626,0.9895217,-0.58983135,1.1803136,0.3507799,-0.92967117,-0.14417094,2.5194771,0.057824455,0.8469558,-0.37751997,1.797797,0.11166722,0.97617936,0.096860625,-1.9474833,0.18258746,0.3355446,1.7251301,1.4935395,-0.23679326,-0.014871654,-1.2553658,-0.93232274,0.29044664,-0.013019933,0.05522295,0.06972077,-0.64507633,1.8669491,0.6763332,0.6725837,1.349686,0.8651298,-0.9369951,-1.2571396,0.2546792,1.9089762,-2.0829732,-1.7943842,1.7491032,1.0908078,-0.7403813,1.6717086,-0.6052704,-0.90618795,-0.16812135,-0.8410929,-1.2302332,-1.0646638,-2.5111399,-2.3708532,-0.45887104,-0.192176,1.4193486,0.75619197,-0.88448787,0.9815275,1.3650974,1.0295833,0.49845588,0.80978346,1.0771307,1.6147774,1.7602414,-1.53445,-1.8326564,1.2941278,0.10179794,-0.14811598,1.1827136,1.5388895,-0.40158856,-2.4081843,-1.8037047,-0.42070544,1.2903074,0.8925145,1.9475163,0.0040359334,1.3652436,-0.39823937,1.3058188,0.4942344,-1.6078615,-1.0359793,0.7313025,-1.0331002,-3.6208715,-1.1917316,0.80621874,-0.8224041,-1.6524283,-1.0204687,-2.1612341,-0.38944146,-1.4817266,0.06432579,-0.08617304,1.6944783,0.0665323,0.42170048,0.7071693,-1.8885221,0.24115069,-0.57788634,1.0147346,1.5464675,-1.2038996,-0.13693991,-0.497698,0.509487,1.5978615,-1.1502653,-1.2192624,1.6173227,-0.90124965,-0.6722467,0.4069598,0.1392061,1.4463081,-0.028983776,1.4058667,-0.3545741,-0.00811658,-0.9474328,-0.087561,-1.7031679,-0.7482395,0.01206362,-0.6364584,-0.5960211,0.6043793,0.15121973,-0.9469453,0.83202153,-0.19553643,-1.1934373,0.8711409,1.9566386,0.26345533,1.4151151,1.1140602,-0.6606281,1.3748215,0.82864714,0.027993163,-0.25228816,-0.28888196,0.03923849,-0.7236236,0.20010753,-0.52154374,-0.07280839,0.2339012,-0.811604,-0.6163274,-0.4517673,-0.25591308,-0.66972876,0.9062723,0.8583818,-1.7475046,-2.5251098,0.32978103,1.5321589,1.1481708,-0.32266912,-0.82472956,0.116516724,2.069128,-1.6193469,0.6522097,-1.8416862,0.8473415,-0.17277586,-0.68675846,0.51051897,-0.316005,-0.016891379,-0.19320695,1.6618588,-0.6767985,1.4806086,0.9286428,-0.13949718,-0.31534126,-0.44327706,0.32910284,-0.09462131,0.035434414,-2.3282192,-0.5901406,-0.78790736,-1.5139577,1.3120054,0.25808406,0.053392097,0.7394257,0.25350446,-0.26919672,0.09121567,0.74211276,-0.48937103,-0.046763774,0.72411877,2.55081,-1.1224612,-1.9701447,2.1459246,-0.21892075,1.4811392,-0.5587718,1.8305942,0.6255999,-0.51499647,0.8173565,1.0044907,-0.2847248,1.1945523,1.4193021,-0.26405975,-0.7425877,1.2075274,0.046787675,-0.712166,1.1818838,-1.2252105,-0.46406883,-0.00784934,0.6393408,0.585111,-1.3517474,0.00059988396,1.0789602,-2.0939598,-1.0621622,-0.108543225,1.3686994,-1.9036924,0.47466764,0.5761745,1.9442393,0.6270071,1.6240581,-2.1232913,0.35711938,0.6640282,-0.5662998,-1.0388436,-0.22301763,0.35984167,0.5361514,-0.1691007,-0.7468989,-1.5007516,-0.4231587,-0.7099854,0.6461221,0.13755232,-1.516886,0.17182775,0.27814955,-0.52887636,0.7091953,-1.096156,1.3671372,-0.12138522,0.9303604,-0.39144653,0.34722975,-1.0572107,-0.9608143,0.7382856,0.6273012,0.36088234,-0.32457536,0.13988243,0.38337195,-0.75496346,0.057387345,-2.1025553,-0.013795077,-0.50136936,-0.2662937,0.09661023,-0.5285687,0.19965605,1.3094275,-1.0129172,-1.0003175,-0.009208337,-0.10788052,-0.8530948,-0.8981056,0.15045197,-1.2137892,-0.67341536,-0.22197479,-2.0577607,-1.8174038,-1.6662251,0.7563809,1.4091439,0.48197123,1.1278218,1.8997413,1.3007034,0.47733074,0.18071193
BEST1,0.25005546,-0.7677488,-1.4746068,0.18528432,1.3569719,0.80011874,-0.94662887,1.5783708,1.1942922,1.4156581,0.0042882706,0.8587293,0.34328604,-2.0477355,-0.32745698,-1.0820214,1.2102336,-1.0142086,-0.39688706,0.3690981,-1.1795168,-0.67163503,0.56515956,-0.7003895,-0.00508994,1.4024582,-1.1374563,0.18360177,0.24843629,1.9951329,-1.4428566,-1.1171172,1.4296468,0.6690317,2.683301,-1.3986439,0.18692325,1.4770612,-0.63979447,-0.47440565,-0.1870923,0.55762213,-0.14582312,1.3944505,1.3204829,-0.24511285,-0.70386773,-0.6181888,0.6244416,-1.976251,0.34350288,-0.97863054,0.11042768,2.8702822,1.6384183,-0.44456437,0.5835115,0.9340745,-1.4931339,0.35371202,-1.1358938,0.0038576818,-0.8657049,-0.2531673,-1.5367887,0.006671058,0.85696495,0.37316823,-0.92822564,-0.14387839,-1.2876755,-0.5943845,-0.22674762,-1.1619748,-2.6751637,1.5322415,0.5566257,-1.5690559,0.94078934,-0.46464056,0.08319658,-0.025965335,0.7564847,-2.1502259,-0.8401723,0.16239707,-0.5954065,1.5113114,1.3948985,-0.010071973,1.0351099,0.03688197,-0.5472793,0.13288805,-0.26870704,-0.4297473,-1.750849,-0.96698195,0.90798426,0.76000124,0.95834756,-1.4549049,-1.983777,1.3909019,-1.5556003,0.21363838,0.09913806,-0.17948878,0.17742385,-0.86740315,0.6926423,0.6843298,-1.1269646,-0.3816863,0.54054934,-2.7609508,-1.1917447,-0.31073278,2.4849226,0.58574635,2.6480083,-0.12770766,-0.043258213,0.60170275,1.384617,-0.4542739,-1.3543041,-1.390344,-0.17923556,-0.101745576,1.2359215,1.0312301,-1.3271607,0.31241596,1.5294638,-1.4365436,1.2461187,0.89736027,-1.4245088,0.27719793,-1.0576714,0.9706437,1.7308459,1.4913728,-0.025789471,0.3759566,-0.2164197,0.33038193,1.4232554,0.027221596,0.56913334,-0.07594742,0.20229794,-0.45820624,-0.87894785,-0.67857444,-0.3837123,1.4794548,0.89177364,0.3087511,-1.3642274,-1.0876852,-0.46802816,-0.41346097,0.6856487,0.07733227,-1.8695843,-0.79766166,1.5834695,3.2526078,1.0140487,-0.04050398,-0.49765736,-0.5303427,0.62001,0.28572685,-0.5293967,-1.5025262,1.1293552,-1.3853515,1.7322731,-0.39432946,1.6153554,0.85319924,-0.373291,0.89993876,0.3633001,-0.3834539,1.3490907,-0.4215837,0.49847153,-0.8602049,0.65434265,1.8706322,-0.18754944,-0.8399026,0.45052138,-1.6331364,-1.521101,1.8045572,0.7644251,0.90884227,-1.1076586,-0.42748985,-0.4213793,1.4709203,-0.9212829,0.25357148,-1.2693655,0.083736025,1.4452058,0.8141524,0.23686664,0.05191974,0.44669062,1.1164484,0.77347195,1.4247333,-0.9122041,1.5115805,-1.2754538,0.37698925,-0.90618825,-0.48224849,0.323517,-1.6923131,1.2368617,0.21632518,0.31542534,0.0772399,-2.6012352,-0.116976716,-0.2624433,-1.8278159,1.4316264,0.23377006,-1.5440637,-0.42759,-0.58821005,1.8221185,1.5733782,0.22425538,0.5225402,1.52538,1.5649017,-0.9488142,-1.0252553,-1.7171912,0.44440892,-0.0015871442,-0.7439313,-0.64536214,-1.5911123,-0.04288217,-0.90182644,-0.158807,-0.28700268,-1.4307799,-0.4031908,-1.8748261,1.4773047,1.5019695,-0.11566503,-0.06414328,1.4259952,-1.0693492,0.94242984,-0.3947028,1.1310598,-0.64196074,-0.18932448,-1.7623457,-0.25838137,-0.7583905,1.0134043,-0.9887028,-1.1475581,0.263578,-0.2176265,-0.54034775,-0.038153183,1.0981923,1.8644359,0.8482142,-0.5484341,1.3812555,0.24388936,-0.08824808,1.267038,-0.9536064,1.6456494,-1.835434,0.7165473,1.2341539,-1.5942554,-1.1855367,-1.3511931,0.61566657,-0.12667044,0.804601,0.25804317,-2.3855824,-1.4275265,0.525175,0.9342059,-0.63487816,-0.9186579,-0.80826676,1.5046124,1.6993263,1.324931,1.2597958,-1.1006804,0.49773505,0.7792296,0.15340428,1.5104539,-0.17717178,0.2687826,-0.21577835,-0.19857529,0.05620135,0.67249423,0.17413582,-0.9547763,0.47090045,0.41839108,0.5680887,-0.66521895,-1.7316755,-1.2418729,0.04283278,-0.07828758,0.04451221,-0.660768,-1.7442545,0.76770043,0.08566201,-1.3517536,-1.2918472,-0.6690037,0.12401993,-0.25642863,0.36816266,-0.87497085,-1.6738478,-0.92076916,-0.7749099,-0.67625946,-1.3463019,-0.74182796,-0.5903738,0.53721666,-1.2544107,-0.12799634,0.13620965,-0.021593288,0.3910144,1.2230599,-1.0270718,-0.6087915,-1.7147309,-0.30319265,-0.7667012,-0.230081,0.3191649,-1.917812,-0.64295423,0.115844734,0.3890712,-0.27726248,-0.2577945,-0.76059663,0.8905202,-0.4719618,1.0562791,0.1860277,-0.27590382,1.4445839,-0.5861673,2.2252502,-1.6055036,-1.0440922,0.14311044,0.7491663,-1.3862644,-0.6738723,-0.16171105,-0.6126019,0.93471354,-0.38182336,-0.90792894,-0.21717785,0.7105397,1.2578031,1.9496521,0.14713494,-1.8883663,0.36418742,-1.7954276,0.9543207,-1.1701057,0.43946856,-1.4044135,-1.9321179,-0.6120732,0.017141776,0.45151836,2.4371774,2.3632293,-0.27349433,-2.3882236,-2.2301881,1.9753792,0.111967646,1.8980113,0.65307516,0.7410095,0.51543665,1.0280598,-0.76250964,-1.8950312,-0.95407987,-0.22427703,-0.46697685,-2.212416,1.2855084,-0.24402685,0.4103829,2.1831462,0.8592252,0.7484122,-0.39701673,-1.207869,-0.69845784,0.45415884,2.5089788,-0.26742783,-0.85108405,1.1526865,1.0208217,-0.43224066,-0.8703908,-0.057967227,0.8081567,-0.8082719,-1.1958923,-0.856714,0.7910305,0.25557524,0.47942454,2.7057428,-0.50253826,0.55416137,0.31917548,0.28177577,1.6449368,1.0572108,-1.7493824,0.8446089,0.3900661,0.94474494,-1.265327,0.5184922,-1.5382323,0.47222498,-1.1446667,0.12272652,-0.30496415,-1.0657957,1.7068024,-0.92741835,-0.2696776,1.338555,0.6080376,0.7692305,2.036983,0.87870735,1.8084791,0.6114485,-0.1728897,0.26983374,1.3828212,-0.41463265,-0.09941024,-0.10966773,0.15945664,0.5088923,-0.9255364,-0.14381988,1.033654,0.2842474,0.3802517,0.021684494,0.4797495,1.941829,-0.61636835,-0.77541816,2.621469,0.40031543,-0.38849145,-0.1450974,-1.0991031,0.78121877,-0.8640656,1.8578568,-1.3987987,1.605664,-1.5228679,-1.5868012,-0.18325584,1.1057488
C11orf96,-2.5244749,1.3021696,0.19356143,0.44659665,0.28958252,-1.1077585,-0.7305502,-0.0018312365,-0.55030686,-0.9827432,1.137309,-0.89262915,-0.3502996,-1.010996,-0.19824174,0.5458739,-0.09272334,1.1063021,0.11629681,0.6609646,-1.2115221,-1.546505,1.3503826,-1.2124205,0.6272812,0.7222801,-0.8498386,-0.5491744,0.31985593,-1.0414191,-0.3312547,-0.16134645,-1.2666248,0.13682789,0.18630256,-0.42762893,-0.10590031,0.07827335,-0.092953034,0.9379241,-2.1089225,-0.486531,0.5153494,1.3559109,-0.83668715,-0.58502084,-1.1688173,1.3859408,0.436107,0.2566259,2.3206162,-0.5107613,0.29154292,-0.36901107,0.29997897,2.1097698,-0.53351146,0.67058545,-2.3276536,1.9791551,-0.1234407,1.2235901,0.8960476,0.9491988,0.12362363,0.04354448,-0.6059453,0.17283899,0.71196705,0.969208,1.8838238,1.4947032,-0.37369466,-1.1739802,-1.2270181,-1.1162102,1.3345398,1.0268697,0.01746036,-1.4193183,0.58326316,1.6708027,-1.3305631,1.3980838,-1.4634111,1.6310092,-0.79675144,0.26078784,-0.1087633,-0.46661493,0.25682887,-0.7942423,0.6966294,-0.2837969,-0.7345408,0.76638335,1.3193768,-0.4720917,-0.41164547,-0.12496371,0.37956,-1.9517921,-0.4222407,0.4336046,1.8915331,1.7839953,-1.7021234,-0.41540974,-1.1351726,-1.7099679,-1.1558899,1.0739977,1.1574662,-1.4019761,1.3293984,1.2914091,0.05349897,0.2335181,-1.8279117,-0.27920407,-0.31020802,0.74511015,-0.5644308,-0.117826715,-0.49466416,1.8136723,-0.6615929,-0.4270491,1.5053034,-0.04711532,0.05249292,0.32180294,-0.03878623,-0.82460654,-1.0190779,-0.22415936,0.67503613,0.6703771,-0.21976256,2.0154006,0.87276536,1.145996,-1.2008548,0.037139185,0.87192523,0.0061590895,-0.04515294,-1.4064155,-0.06411818,0.26850435,0.33149472,-1.5591372,2.1252263,0.10359415,-2.6803536,-0.09748479,0.28139377,-0.15513866,0.4143221,-1.0967801,-0.82529485,0.85602176,-0.66584855,-0.64227545,-0.8248896,1.7889309,-1.5402175,-0.58394605,-1.2187859,1.280685,-0.73589724,-0.013354275,-2.0566404,2.3067162,-1.2599543,-1.3607028,-0.676158,-0.55710316,-0.8275556,-0.52162856,0.18743959,-0.074424416,-1.4614531,1.361497,-0.011969609,0.22352996,-1.0293355,0.4086933,0.76168144,1.2041378,1.5650398,1.5790166,0.59146196,-0.8396697,1.0743322,-0.31110474,-2.0364127,-0.26305756,0.17620905,0.543561,-0.6953845,-1.0856179,0.283673,0.33510634,0.8436351,-1.3560708,1.6669973,0.3324691,-0.43236184,1.5281909,-1.290117,0.06920065,-1.3724334,-0.80581653,-0.76484436,0.44355017,2.1693873,0.57050055,1.1770515,-0.6120436,0.49229586,-1.1597946,-0.29751372,0.4596591,0.55418843,0.22513127,0.14790925,0.18450768,0.5719478,-0.10008173,1.2702554,1.2395383,1.2140733,-0.6201112,-1.156282,-0.15544344,-0.0968012,-0.6724784,1.4035498,2.0621066,-0.3482349,-0.81163317,-1.3839574,-0.8637875,0.09880078,-0.108938985,-1.6509308,2.0975227,-0.84844047,0.22460541,-1.1824647,0.26353636,0.2684813,-1.7185962,0.42747283,0.40020254,-0.7164982,-1.3124619,0.7234453,1.7619265,-0.037114557,-0.10136092,-0.3724212,-1.007912,-1.4606099,-1.2729745,-1.3481584,-1.9010121,2.0711188,-2.0541124,-0.30788717,0.34783384,-0.6194228,-0.56417793,-0.49644777,1.7777193,-0.34449902,-0.8412542,1.663346,-0.42125952,0.953266,1.5310328,0.011712277,0.3961089,1.4781231,-1.65785,-0.43454576,-0.79669064,-0.4028534,-1.0133278,-0.47115746,-1.0475225,0.43909883,0.57217866,0.84733474,1.7422118,-0.09501877,1.46944,2.4727328,0.13108556,-0.64401954,-0.12455894,-0.8178645,-0.37935543,-0.49578086,-1.0786752,-0.3605655,0.98308295,0.91433656,-0.63389784,0.68960047,0.9786126,-0.3364958,-0.1756488,-0.9948653,-0.160851,1.9661943,-0.9574805,2.472225,-0.28496477,1.0907558,-0.24839854,0.58376694,-2.0949283,-0.52744526,1.0943182,0.9868766,0.6550682,0.15899806,-1.3086113,-0.08933882,0.3416911,-1.1471307,2.4625468,1.0987682,-1.1471652,-0.36642557,-1.1476451,-0.010350534,-0.61031085,-0.6571571,-0.31661135,1.1380372,-1.9743218,0.39087254,0.48086554,1.584629,-1.2418393,-1.8572702,0.6173535,-0.76303387,-0.88453615,0.91758174,1.5843219,2.4854784,1.5189826,1.3144807,1.0943394,0.028322063,-0.5869479,0.11634181,-1.3038366,0.8696817,2.502825,-1.6330132,1.9432409,-2.638622,-1.8929458,-0.16162896,1.3698318,0.14102408,-0.6642709,0.4287205,0.26440874,-0.19746059,1.2965984,0.5051163,-1.3915347,-2.2160563,0.78608346,-1.311939,0.15898275,1.564963,-0.641483,1.3186387,0.59776026,-0.31980383,0.0017973192,0.8701929,-1.1039919,1.7507404,0.51652426,0.26448974,-0.26315853,1.9452713,2.006599,0.99042594,-0.52519685,0.22738819,-1.4044687,0.22917488,-2.883856,0.043044806,-0.59017503,0.66799235,-1.2551016,0.18832143,-0.55160636,-0.10393199,-0.72768,0.99779165,-0.8137089,0.5952113,1.9355186,0.5770893,2.0475266,-0.20698231,-0.32190058,1.002748,-0.8131417,0.99542356,1.1819428,-2.8615108,-0.9856293,0.79879856,-0.09491477,2.2673185,0.25487927,0.46696088,0.79831004,0.07812623,-1.1819657,-0.781913,0.34860325,-1.3157803,-0.31260958,-1.6521021,1.8709437,0.48075983,0.48345962,-0.84348977,0.9710141,-0.8132051,-1.1571244,0.9615956,1.62815,-0.81674314,0.61417043,-1.6182767,0.1306759,1.4517182,-0.56968373,-0.73490417,-0.22822711,-1.4158603,0.4297382,-0.57440126,-1.3970853,1.3613102,-1.1240132,-0.22951166,0.21415608,0.759452,-0.32271552,-0.3742095,0.26864663,1.1292373,1.9602501,2.3305013,0.81908983,0.91636485,-0.5590976,1.1506369,-0.8901679,-0.074261,-0.03615515,-2.3996658,-1.0192708,1.8955742,0.9367992,-1.4646112,0.48616612,-0.15133682,-0.085847214,-1.5436292,1.374857,0.7502498,0.25525022,1.3558583,-0.41542697,-1.785729,1.1035585,0.14280272,0.64948404,-0.27814093,-1.277802,-1.2398024,-0.26748028,0.7487997,-0.3652243,-0.95810544,0.40523934,-1.3233092,0.54451936,-2.1425552,-1.1264297,-1.4854257,-1.3597481,0.5891725,0.6811551,-0.52605057,-1.3703415
CAVIN3,-1.5904433,-0.3506444,-2.284299,-0.9722333,-1.8754672,-0.5547766,-2.0912192,0.87245595,-1.4433525,-1.4295245,-0.7507962,0.9361724,-0.71983147,0.38941932,0.38331646,1.5390573,1.1593332,-0.79197145,-0.50037926,1.0912557,-0.20461407,1.6981301,-1.4700103,-1.7212129,-1.6373823,-0.24048539,-0.9748079,0.11470693,0.3694601,-1.0841697,-1.7232915,-1.4986596,0.15318115,-0.125559,0.7436803,0.13101953,0.66949147,-0.19261472,0.92512137,-1.4873102,0.69553125,1.4682683,-1.1008369,0.27613115,-1.5892873,-1.9702619,-1.6444936,-1.1865083,1.1861221,1.2202626,-0.40689385,0.91257507,-1.0715811,0.36542666,-1.1181182,0.28218845,-0.043135468,1.3094563,0.7184941,0.41964525,1.0495578,2.2590387,0.6009853,-0.20148875,1.7557395,0.3923913,-0.7737561,0.3342465,-0.19424869,-0.30327326,1.6865773,0.7662648,0.6412593,-0.40023032,-0.070787705,-1.4338338,-1.3765978,-1.4521768,-0.2712086,1.1958408,0.27651408,1.5062714,0.66790867,-0.3584241,0.4425814,-0.12189802,-0.95185906,-3.1312733,0.77358127,-0.6985244,0.19072795,-2.2012763,-0.4662417,1.0676461,-1.0661895,-0.8453408,-1.3432204,-1.7693653,1.5809368,-0.636446,1.1458609,-0.7517336,-1.6002462,1.4372638,0.9950394,0.0028124943,-1.434122,0.06680739,0.5770243,-2.047966,0.760012,1.2870889,0.12054284,0.6324113,0.7207005,-0.03689201,2.2967947,0.11250054,-0.13167825,-0.4317384,-0.31761977,-1.0782663,0.41944864,-0.124123335,-1.3883247,-1.1002533,-0.8254844,-0.42991224,-2.2789936,1.2806709,0.29657012,1.6759809,0.8264871,0.94224775,0.1939592,-0.31779104,0.20262669,-0.093037896,-0.6989537,0.86793596,0.84406906,-0.115538925,-1.5579009,-0.4412392,0.70192623,1.5425032,0.53352684,1.4449226,1.0036707,-0.19106443,-0.30037284,-0.47874448,-0.06758341,0.4161482,0.97133505,0.68173033,1.2205048,0.09662619,-1.4930547,-0.12488896,-0.07649883,-1.0561157,-1.5970544,-1.4275922,-0.6746099,-0.62312484,0.42468682,-0.036881212,-0.14271586,0.4848812,-0.9363771,0.31852475,-1.2130204,0.12417983,1.6041853,-1.8557069,-0.6983438,0.61952037,1.7725172,0.7217572,0.06802332,0.7308456,0.31697476,-0.08855693,-0.45550507,-2.2784789,-1.4359294,-0.54366034,1.353718,-0.67266583,-1.4504849,1.0444942,0.5956505,-0.894604,1.4142348,0.24044797,1.0845057,1.4413122,-1.1438775,0.11887668,2.007754,0.9969819,1.0596608,-0.76808035,1.0949931,0.13572706,-0.44856,0.43213737,-0.5690085,1.614613,0.39189065,-0.6764505,1.4947246,-1.5877173,1.238876,0.86945564,-0.076586425,-1.071447,-1.0750355,-0.35792375,0.9922883,1.7131131,1.1888962,0.34099576,1.0983168,1.4795738,-1.3938146,0.12608014,-2.052031,-0.12536423,-1.6426417,-2.1077297,0.5757476,1.5520493,-0.06739415,-0.7881975,-0.5178876,-0.5566681,-1.5328586,-0.10815328,-2.8260725,0.80752015,0.052694216,0.65034217,1.017634,0.75540924,-0.74583524,-0.8092642,0.26569745,0.5779334,0.46193007,1.2389299,-0.48597935,-0.54786116,-0.99729395,-0.27764428,0.57117575,-0.7262944,0.8750672,1.1711917,-1.0786744,-0.4884762,0.85765946,1.5372597,0.8166756,3.3154836,0.31837723,1.4979141,0.08912692,-0.42062593,1.213971,2.2442334,-0.10316036,1.029391,-1.2922274,0.41829175,1.3460466,-0.30509335,1.1705147,0.85668916,1.0002924,2.7002726,0.6612042,-0.04418979,1.5729698,2.242206,-0.12224783,-0.28520077,1.1181203,0.5087147,-0.49904633,-0.23850708,1.2185377,0.3378212,-0.5018365,1.0742472,-1.5044254,-2.002143,0.77789575,-0.46875647,0.08370521,-0.102947906,-1.5210994,-1.8065424,-0.33513287,-1.5733494,-1.9345288,1.7276386,-1.107829,0.26241904,1.1451287,0.1177645,0.33294246,2.0406113,-0.5706824,0.11687296,1.2536312,-1.037741,1.0376493,-0.2792015,1.4551939,0.785893,0.018471459,-1.4456207,1.1053437,1.1166744,0.6748841,-0.69550323,0.92657137,-0.7395641,-0.36023077,0.23396334,1.1890556,0.8343031,-1.6439278,0.793285,-0.6749985,-1.0485682,-0.10028286,-0.9612451,1.1576114,-0.0125989495,-0.47969335,-0.7726009,1.7085893,-1.0170951,2.0742583,-0.45863897,0.813766,-0.29385278,1.4386575,0.49737415,0.64034694,0.63965183,0.32467395,-0.9361175,1.1113986,-0.7373052,1.1054167,0.46467587,0.7243752,-1.1632802,-0.4536647,-1.7545224,-1.8606726,-0.3607733,3.0537124,-2.1444635,0.72431266,-1.0820032,-0.5547055,0.41923144,-1.6908163,-1.0332854,-1.3970982,0.41113123,-1.1907953,-1.0209588,1.1837659,-0.7977765,1.5795115,-0.0075237807,-0.96745217,1.222552,0.3423882,-0.8770408,0.6499486,0.14723596,-1.9220724,1.5573167,-1.4684854,-1.5297437,1.0869282,-0.813071,1.3185889,-0.8787369,0.63661885,0.5079252,-1.2251073,-0.98340905,0.7607915,-0.3122816,-0.84437776,-1.6094359,0.45206666,0.3885931,0.035823464,-1.3925272,1.3706918,-0.34181,0.65516305,0.687256,0.25331867,1.6443455,0.10631797,-1.0261914,1.3560218,-0.65118235,-0.06626659,-0.20211352,0.38946193,0.7916034,-0.3461062,-0.5697882,-0.004906356,-1.1284045,0.79006064,0.6163958,1.1270772,0.48220858,0.8285895,0.33490416,-1.1582286,-0.87470996,-0.21632472,1.9969807,-0.97174114,0.2174091,-0.8397037,-0.4155966,-1.1838293,0.39334336,-1.7110659,-2.1772,-0.20478079,0.28712222,-0.7351231,-0.24547857,0.91715384,0.061957266,-1.1579931,1.152581,-0.5120241,-0.5523018,0.093678795,1.7877288,0.93145096,0.6597981,-0.77963066,0.37535557,-0.081000395,1.0435983,1.8345416,2.299087,0.809977,-0.68876845,-1.4688405,-0.35726714,0.87520367,-0.27142665,-1.1004215,1.2298312,-0.80963737,0.26371992,-0.7763267,0.24710597,0.44107446,1.063026,-0.9838248,-0.0009525686,-1.4866005,-0.77569944,0.6757178,0.427733,-1.0495851,0.6904998,1.7784551,-2.094968,0.5844018,1.6394578,-0.024650525,-0.0031117937,0.88390654,-0.27720052,1.9454186,-1.4368163,-0.14221601,-0.27907473,-0.5873467,-0.13691007,-0.6916975,0.57419586,-0.34973153,0.18069945,-0.44337383,0.09660248,-1.2027093,-1.1418183,-2.7994719,0.36940524,1.875906,-0.9055468
CCL21,1.4435108,0.21767604,1.9433776,-0.41221064,-0.95563656,0.34038162,-0.753903,0.14599735,2.603197,-1.7425015,-1.3078918,2.5330396,0.33774483,0.5996922,-1.2888733,0.9088872,0.5048891,0.2271499,-0.59484184,0.8415607,-0.5137263,-0.75330657,-1.0917935,1.0822462,-0.3921002,1.6702107,0.4401538,-0.20557925,-1.6272229,-0.98391354,-0.6550277,-1.2020562,1.7783856,1.1713055,-0.0945904,0.17844664,-1.0209755,1.898341,-1.7082524,-1.0192816,1.1799381,-0.7170081,-0.43705043,-0.7091455,0.700038,1.5186235,-1.3517582,2.0024705,-0.22105856,-0.43195105,-1.8797907,-1.6230911,0.4795255,0.14908798,-1.5306747,1.7263529,-1.9524497,1.171924,-0.9278733,-1.7143846,-0.018464154,-1.897946,0.44885045,-0.20001324,-0.7797212,-1.0117548,-0.90608543,-0.32255447,0.38338107,2.2453551,0.018148705,-1.8681223,0.08139705,1.5701798,-0.6519894,-2.2433136,-0.010080395,1.1726983,1.4499768,-0.690166,0.14568895,-0.69879955,1.428543,1.0450453,-0.3314875,0.35499573,-0.13906732,-2.6645248,-1.6258053,1.4248968,1.3137883,-0.75293225,-1.0207726,-1.3561403,-0.6852585,-1.4184843,-0.17990156,-1.234684,-0.33522275,0.13513829,-1.0140897,-0.21595125,-0.33632663,1.0892072,0.3976893,0.83488923,-1.9532083,0.14991514,-0.03485427,0.009806314,1.3122158,-0.86726964,0.94137514,-1.0088948,-0.79813784,-2.4385684,-1.2212865,-0.7291643,-1.3788471,-1.8149397,0.43418455,-2.3321712,1.3594849,-0.7628243,1.2131002,-0.34440476,1.124371,2.2069426,-0.034450553,-0.21323523,-0.5057119,0.3325485,-1.5350852,-0.5269058,-0.58351284,-2.5826395,-1.8525549,-1.1128923,0.119115904,-0.24539305,1.2263577,0.018705208,0.30818737,1.2918118,0.87307125,0.9742031,-0.40369326,0.746235,1.4717231,0.47400606,0.8260108,0.6909159,-0.6346235,0.58323944,-0.08930024,-0.9589796,-0.35301432,-1.6412168,1.4169574,-0.9410486,1.9326158,-0.40405914,0.45513877,1.4382135,-1.2957798,0.099656194,-0.39664844,-1.4871479,0.018349169,0.39197597,-1.3615642,-0.6745583,1.7514403,0.75690234,0.29838747,0.7284361,-2.0188043,0.90874994,0.14051554,1.911192,-0.3056571,0.58989936,-1.9761233,1.0343802,0.24221145,-0.49952078,0.72324234,-0.5873921,-0.29437253,0.084811404,-1.3921577,-0.05711308,-0.62290406,-1.2825739,0.37317377,-0.67626697,-0.99460864,1.1737169,-0.27978468,-1.3869879,-1.0320164,1.4829409,-1.1294968,-1.6178713,0.62369144,0.902543,-0.118624344,0.5574213,-1.301322,0.90991265,0.18852237,0.9815982,-0.82435715,1.1741624,1.3273089,-2.3701313,-0.16188994,-0.92352116,-0.22663157,0.09738394,1.350207,-0.14471436,-1.2214726,-0.6298181,0.3037599,-1.2143347,-2.0419302,-0.6871946,1.1652573,0.35854492,-0.2652112,-0.26852638,-0.71824056,0.881557,-0.7243879,-0.92413306,-0.8110111,-0.5310907,-1.6767944,-0.9136098,0.5699742,0.7640565,-1.7384764,-0.076031,-1.4129679,0.11708181,0.095916845,0.527455,-0.5796916,-0.46227372,0.88620347,-1.5703827,-0.56320506,0.46802875,0.7502275,1.9743239,-0.962844,-0.7717987,-0.29935572,1.1921808,1.3919933,-0.2311243,-0.56051964,0.3247672,0.3817439,0.8729006,0.8884449,-0.6990932,2.3842957,1.1299425,0.03761676,2.6737423,-0.79786843,0.046818648,1.3932885,-0.09188327,1.9694178,-0.69768727,-1.1686468,1.9536883,0.623224,-1.0248253,-0.55639505,-1.1180079,1.4463223,0.7363757,-0.064652026,1.5466489,1.7235161,-0.27577803,0.1137369,1.0726187,-1.4401149,0.5166804,-0.6966743,0.42126176,-0.60647434,-0.91017115,0.40417624,-1.061745,-0.31934154,-0.3606039,1.7065135,0.465821,0.8702634,1.3105971,0.5427838,0.23343626,1.1257591,-0.16448565,-1.1654578,2.5966427,-0.5600821,1.7153989,-0.850591,0.25957647,-1.5949694,-0.42904365,-1.6136701,-1.1261152,0.68212295,-0.027551513,0.50934595,0.11948156,-0.7989086,0.3401655,2.506365,-0.42052364,1.201109,0.17049947,0.5919507,-0.04271978,-0.6253876,1.1237298,-0.49663576,-0.28964588,1.4797416,-0.8572159,-0.35913163,-1.2671385,1.9627291,0.25830173,0.4097346,2.28551,2.1223335,0.20242587,-0.113223664,0.62192893,0.100873485,0.5880838,-1.6326255,0.48865327,-0.6588705,0.3118623,-0.24637572,0.5666686,0.843889,-0.5930182,0.7638216,1.1511196,0.16547832,-1.3321167,1.3646283,-1.1585287,-1.2160707,1.1428667,-1.6741964,1.0175308,0.6479114,1.3207948,-1.8212131,-0.48966601,-0.74238557,0.18081725,-1.129039,1.7719998,1.5488222,-0.91517,0.36475256,1.0544407,-0.57501537,-0.50466675,0.8967436,0.6825068,-1.2214102,-0.96187127,0.8887687,0.1584117,0.9988591,1.6263244,1.3434573,1.5592314,-0.370728,0.4514756,1.0057293,1.334306,1.0855106,-0.9022424,-0.420936,-0.82869315,-1.7446774,0.33057252,-0.8111318,-0.5954792,-2.0991812,1.4818715,-0.5091864,1.2819248,0.7167621,-0.8225044,-1.4495003,0.36709854,-0.4496101,-1.0209688,0.59207624,-1.1069137,-0.95685107,-0.9721989,0.08922086,0.718568,-0.569218,0.65810823,0.4408836,0.48053166,0.37842205,-0.16540979,-0.6127063,-2.615876,0.11350797,-1.5541055,1.6407306,1.5593967,-1.2169231,1.6751734,-0.67959404,-0.77310187,0.44746146,-0.425098,0.27967113,0.9014542,0.40796745,0.18285577,0.8934668,-1.0040553,0.08614123,-0.20789778,0.68231666,-0.2111786,0.6451191,-1.921089,-0.09580591,1.059155,-2.2074685,-0.6775857,1.4284539,0.2726914,0.957149,2.165986,-1.0954924,0.7000205,-0.16211912,0.1470857,1.1126623,0.33022338,-1.3359084,-1.4941436,0.38260308,-0.20389092,0.17834929,0.011985212,-0.09875655,-0.4283424,-0.8503917,1.3073415,2.6313672,-1.8169641,-0.18568315,-1.0254744,0.9413081,0.26518306,-0.34466523,0.6844005,0.15668003,0.8596304,-1.7705235,-0.6613765,0.91691595,0.31419706,0.26353043,0.8643217,0.34861404,-0.12954965,1.378525,-0.03540812,0.739812,-0.72892064,0.578517,-0.8792018,0.53837764,2.2493918,-0.33208534,0.7782585,-0.18363574,-1.0031114,0.7134684,-0.56448054,0.5003164,0.3365836,-0.27775142,0.82025117,1.1434261,-0.69535327
CCN1,0.13136272,1.869154,0.39545074,1.3792329,-1.7623005,0.6817252,0.38660008,-0.2560343,-0.17757146,-1.4296398,0.65259767,0.78923625,-0.039669033,1.6690822,-0.36931202,0.65949935,0.94625074,-1.5422615,0.757521,0.9635836,0.3266354,-0.1698833,-0.028327452,-1.1172872,0.51414824,0.88293403,-2.0184524,0.60303766,-0.38481942,0.8373946,1.3237303,-0.68809354,-0.198983,1.9078715,2.0774844,-0.10982224,-0.5986089,-1.2015821,-0.80342937,2.7131379,1.454769,1.981575,-0.4373512,1.7894039,-0.045599587,1.1235982,-1.1685494,0.020236108,-0.32049382,-0.47850657,2.3001509,1.5037769,-0.05139498,1.5551192,-0.5789013,0.20087537,-0.9915774,-0.6541056,-0.30616507,0.23223594,0.7994976,1.027783,0.14038509,-0.26356772,2.0300603,1.1830313,-1.3817643,1.0731188,-2.82228,1.0421576,2.769988,1.6813815,0.15593593,-1.6043692,-0.34909838,0.393944,1.8402394,0.832502,0.9229317,0.9132613,1.0289649,-0.67405546,-1.8191879,0.16728887,-0.9362725,0.989639,-1.4577171,0.058379907,-1.3465145,-0.10986665,0.9243547,-0.28765368,1.6055319,-1.282798,-0.07115865,0.008557561,0.12999165,1.6461307,1.4390177,0.6896028,-0.2160816,0.58129174,-0.2233884,2.192625,1.6080555,1.1234543,0.1815594,0.54017204,-0.6580614,-0.5736194,0.004524587,0.8934136,1.1904037,1.1878824,0.19544138,-0.13053034,0.59555733,0.40979365,-0.1360586,0.28520927,0.074198075,-0.0065551493,-1.3187609,-0.592792,-2.6739728,1.2664601,-0.62104374,0.7597815,0.11746662,1.42487,0.19118047,-1.1564612,1.375331,1.2296407,0.7754546,0.7805942,1.0862858,-0.968807,-1.4102579,0.68642044,-0.10618579,1.6211677,-0.17041175,0.7510733,1.814775,-0.7240503,0.47950268,-1.2388188,0.21294755,0.9292749,-1.1071299,-1.6780127,1.6416695,-0.30586296,-1.3299937,0.032576717,1.3656743,0.020541718,0.6684242,0.16552621,0.44410768,-0.49481234,0.7504193,1.7276278,0.109965354,0.6409469,-0.52626365,0.3152809,-2.2293584,1.4825016,-1.2627577,-0.5019504,-0.8025091,1.1096362,-1.414622,-0.54988724,1.2701721,-1.006845,0.9678207,-0.3578583,-0.81461334,-1.2794819,0.10502474,1.1068456,0.5465893,-0.6224942,1.1215531,-1.5500531,0.778616,1.5796131,-0.70899904,-0.19152275,0.31038812,-0.84892744,2.4133234,-0.2731993,-1.0995522,-2.0377526,1.1441531,-0.20268835,0.018875347,-0.78562856,-1.1310945,-0.55124915,1.5579203,-0.441179,-0.21092215,0.48580343,-0.11630998,1.1648707,-1.2684325,-1.5524867,-0.32169306,-1.0417681,1.3487432,1.3419641,1.7134583,1.1861541,-0.12880418,2.0525935,-2.2984161,-1.4767407,-0.7270218,-0.907102,-0.8481799,0.40641743,0.67790496,-0.78591347,-0.4631548,-0.95349485,0.46176314,0.2028369,-0.23220393,-0.8863442,-2.7600362,-1.8213055,0.65648866,-1.4429011,-0.6897164,0.9241759,0.20474295,-0.9011793,-1.3089803,1.2554562,0.12050771,0.81911767,2.7609892,0.8964303,-2.8832843,-1.2275232,-0.33528695,0.10382134,-1.0940281,-0.41976073,-0.18958355,0.7073591,-1.2723581,0.03681836,0.35122478,0.15478352,0.6020325,-0.5401663,-0.5873324,-0.23396698,0.0858807,1.6192125,1.2244704,-1.2429365,-0.8955747,-0.9450801,0.76059276,0.2728468,0.40004098,2.5162656,-0.72337013,-0.39820158,0.4155523,-0.6413844,0.53683454,0.09419474,-0.129682,1.335868,0.14408574,0.49021688,2.0887818,-0.7724836,-1.3431536,0.5979006,0.3927091,0.5816397,0.9936509,0.45288274,0.5099569,-0.40329105,-2.5927625,0.4940444,-3.3773074,-1.024679,0.7050638,0.861206,-0.1676427,-0.8994468,-0.0005713096,-1.5837094,0.39094925,1.5606356,-0.041252248,0.3159353,-0.5856272,1.00381,-0.52895355,-1.3018169,1.3636309,-0.47119296,-0.10545173,-0.14300162,-1.9474136,0.3770951,-0.66113174,0.0977973,0.018765645,-1.7952462,-1.1967958,-1.0925715,-0.39677837,0.3628256,-0.80559003,0.29059952,0.50880706,-0.6308793,0.6487518,-0.65958697,0.03485683,0.8903393,1.0646108,1.4277662,-0.25522888,-0.24122018,0.15282002,-0.3581188,-1.7594202,-1.6604214,0.46160617,0.7665574,-0.20657343,0.38756123,0.663302,0.20107917,1.016739,-1.7987435,-1.8179709,1.7309676,-0.64465165,0.820286,-0.7383406,-0.37171945,0.27592552,1.2626338,0.32297865,-1.9056003,0.99279594,-1.1478614,-0.99685967,0.85140395,-0.55215067,0.13618481,-0.63435477,-0.96576965,1.7997365,0.8170853,0.85912347,-0.9044189,0.60046864,-1.4362116,1.0485895,-0.28968936,1.4975568,1.2930996,-0.6711686,-0.80287826,-0.9142834,0.6657412,0.8781871,1.1644081,0.9154748,-1.878283,0.85442793,0.8005247,0.10095268,1.9004341,0.33292994,-0.49079964,0.16467592,0.5366159,-1.0436823,-0.82814115,0.34148672,-0.9038346,-1.2975322,0.55465615,-0.17181048,0.24349476,-1.2184755,0.026225451,-0.2876273,0.3357464,0.85500646,0.32382616,0.89960617,1.1370757,-2.2433913,1.9829395,-0.9524985,1.1929811,-0.78540766,-1.0718784,-0.322154,-0.39681628,0.63528067,1.2204409,-0.5586697,3.2904973,-0.29594737,2.086429,-1.0757107,0.91511875,0.09691115,0.0054707965,0.892232,0.59828293,0.5590669,-1.6118865,-1.1753248,0.43774343,-1.9533122,-0.07763766,-0.23135254,-0.7510874,-1.1604277,0.3691036,0.013214616,-0.43370596,0.8385317,-0.27194223,-2.0320761,-0.20649408,-2.0768127,-2.0259476,-0.6064227,-1.7575487,0.08444588,0.23941065,0.58002806,1.3160291,0.9321421,-0.6390477,-0.3164211,-0.36298355,0.41146636,0.63750345,-0.9975475,-2.5741372,0.5274857,-0.3710826,0.7562433,-0.087427795,-0.08155985,-0.4770677,-0.41589707,-0.7246254,0.3072341,1.57384,0.65605867,1.2715806,-0.03621869,-0.75939083,0.2939218,0.64376885,1.8374722,-1.4077948,-1.6897986,0.15657519,-1.21703,1.8736292,-1.4865291,-0.6261475,-1.1473923,-1.1087626,-0.46283722,0.040102523,-1.7170335,0.50787514,1.3991193,-2.35969,-0.39291066,-0.70715994,-0.7881436,-0.8830782,0.8843855,0.24195793,-2.5086555,-1.2855949,-0.2096587,-1.429785,-0.07667006,-0.8256719,1.0559945,-2.0710876,-0.861539,-1.3590772,-0.16405666,-0.6493697
CXCL10,-0.34390467,0.8980806,-2.0674574,-0.44419816,-0.43096188,0.63243574,-1.2791463,0.1593416,0.82765156,-0.8140962,-0.6020379,-0.8173354,-0.118561655,-2.5179927,-0.9140459,-1.1008524,1.2987394,-0.902483,0.05992191,0.9782547,0.18795167,-1.1472856,0.029061887,-0.8823071,1.3014574,0.6200872,0.23894614,1.1063453,-0.06908808,-1.5726262,0.63278395,-1.2982818,-1.4070637,0.169312,0.73845476,0.42971322,1.4530133,1.3664508,-0.959963,-0.12268829,0.075163804,-0.022855602,-1.2704221,0.7999267,-1.0446903,-1.2070786,0.16557162,1.3394651,2.214255,0.26618493,-0.17236926,-0.59853536,0.76073325,1.9126091,-0.00959349,0.47741032,-0.35525292,-0.58906615,0.14783578,-0.80008924,0.028989093,1.6455343,-1.8402852,-0.84580386,-1.4751168,-0.26384994,0.54642904,-0.58126354,0.29107788,2.4765315,0.43870926,-1.2477028,1.7006829,-0.037656758,1.7812407,-1.8222479,0.14192832,0.12036393,0.81412107,0.24977383,1.4634537,-0.22011003,-1.0934083,0.98304635,-0.7259861,0.30110404,0.05435015,1.5077682,0.92164874,0.9334379,-1.5482157,0.5857237,-0.351549,0.7901943,1.4747856,-1.5103704,-0.670772,-1.872818,2.205316,-0.13417321,0.07434619,0.5070712,0.14922202,1.1559879,0.5186161,1.0800102,-0.62533224,-0.9347544,1.0077477,0.22708516,0.8960973,0.16974339,-0.025178162,0.19571476,-0.23836134,-0.47608352,-0.4023189,1.4673384,2.8543377,-1.247745,0.21520388,1.7229767,2.2994516,0.42459208,-0.17121875,0.64735234,-0.59191,0.60893726,-0.27143437,1.0669477,0.90215147,0.86932707,-0.6752541,0.032854732,-2.6512048,-0.48311216,-0.44038212,-0.6133419,-0.038282152,0.15401313,-1.2173544,0.12959138,-1.0889975,-0.09976608,-1.2256765,0.53490716,-1.2106701,-2.175208,0.78533214,-0.06333553,-0.26142436,-1.729446,-0.7938887,0.15313032,0.22926037,0.8229229,-0.8479304,-0.65357536,-0.34617493,-1.0734507,-0.46712464,0.2910921,-0.5322908,0.2524214,1.3598994,1.3554422,0.4287907,-1.6074282,-1.1948586,2.5422184,0.23159406,-1.0774579,-0.08185453,0.61369187,0.51895183,-0.5681346,-0.31941333,-0.55214185,1.3432649,-1.3315682,1.388636,-1.7198771,0.5232671,0.51813924,-1.5870245,-1.757771,-1.7813607,-1.7289114,-0.64601904,-0.61992097,0.4700881,0.94990176,-1.237018,1.4669194,-1.3180144,2.0502536,0.34173715,-0.39362183,2.471482,1.2227455,-1.1463605,-0.56797904,-1.254756,-0.4605822,0.77212137,-1.7896763,-1.1296393,0.7236122,0.5606604,-1.1458585,0.4712862,0.067055926,0.09864853,-0.45190838,0.2022655,-2.1581187,0.9135739,0.5978251,-2.376843,0.6028312,-1.2348019,1.3777174,1.1698288,-0.61717385,-0.5800239,1.0222614,0.7127595,-0.5248765,-1.9909997,-0.13995184,0.41334727,0.9433386,-0.33432382,-1.2724891,-0.67002535,0.59887713,-2.1137958,1.4208205,-1.7816447,-0.11347012,0.3501897,-1.6644878,-1.2290125,1.8184776,1.1438578,-0.27498,0.4364873,1.4048533,-1.6436088,-0.16113015,-0.8532765,0.41379267,1.2913243,1.4708884,0.106006905,-2.0729756,-1.2840723,-1.3778127,0.18351571,2.6673422,-1.9289284,1.2960545,-0.21531141,1.0677199,0.08970559,0.20443311,-0.5657056,1.2479693,-1.4982166,1.0092661,0.56454104,-1.1061159,1.8976705,-0.11300414,-0.7668528,-1.5239526,0.42252558,-0.6747501,-1.372683,0.15918368,0.81714505,1.2190099,-0.18743378,-0.43486425,-0.30275396,0.20185201,-0.2718202,1.5265853,0.78578424,-1.2792276,0.9395669,1.0755178,-0.2914398,-0.4543796,-0.5175287,1.5461792,-2.2737064,-0.9568316,1.0021474,0.29703853,-1.2988997,-0.5025142,-0.35436046,-0.8303532,-1.8191208,1.5256414,0.54506636,-0.65120566,1.2504281,0.2663897,1.2798889,3.2203975,-0.3893674,0.699569,-0.872443,-0.17958075,1.675328,-1.9012479,0.418508,1.2408344,2.8419304,-0.71173847,1.4162122,0.22872156,1.1230369,1.8513007,1.2858406,-0.8382143,-0.096730016,0.26633075,-0.65350837,-1.1720045,-1.1743056,1.1775103,0.3723282,-2.3563626,-2.3587036,-1.2473915,-0.32740292,1.100988,-0.039307423,0.18502943,1.5031188,-0.81041735,-1.0996407,0.54540634,1.021555,0.57031673,1.4454252,1.5643146,-1.8430375,-1.5601217,-1.2030506,0.696524,0.29144874,-0.2025132,-0.9621702,-1.4808264,1.0281564,-0.69739974,-2.0402038,-1.1358764,0.56405383,-1.8722708,0.8462872,0.41340137,0.49176148,0.11030193,1.0770223,-1.8042794,2.9450166,1.7215209,0.4390751,0.49899673,0.3681234,-0.021758173,-0.058076598,-0.81298846,-0.8073352,-1.152636,-2.2462854,1.4783967,-0.17204674,-0.34174576,1.2788976,-0.96802676,-1.1170986,-0.24832098,0.9486365,1.1124003,-1.2042072,-0.800878,1.9130583,0.54846907,1.0972034,0.08574132,-1.7882044,-0.8005281,-0.59822726,-1.5937428,2.3152006,-0.21307907,2.4958732,1.0274506,0.6281113,0.76686263,0.6672752,0.57650626,-0.8472696,-1.3412662,-0.7151067,-0.81859225,0.6175438,0.35473484,-1.0073391,-0.38261276,-0.6320328,1.7099354,0.92155063,1.5240026,0.2210986,-0.10342748,0.29876247,-1.2593025,0.5861489,0.007586004,-0.107741795,-0.8817202,1.6393987,0.47032964,0.61877525,0.27427682,-1.1747174,-0.6499933,1.0248107,0.09999468,0.7393275,-0.15372804,0.312018,0.7262425,0.35761586,-1.3808119,-0.33365938,-0.52232295,-0.45602793,0.6222113,0.38199037,0.02948012,-0.5520607,-0.19810207,-0.41442356,0.9880714,-1.5692501,0.9311093,0.39231378,0.9219189,-0.30139422,1.3700283,-0.15836957,-0.9197512,0.80571514,-1.5712427,1.2931147,-0.70406675,0.1217038,0.2316939,0.87639314,1.7445133,-0.54569775,-0.3394336,1.3075174,-0.02280819,0.6500109,0.8886267,-0.6116582,1.4097978,-1.2177724,0.48566303,-0.53426665,0.79118896,-0.1330857,0.1085639,-0.10590261,-1.4348066,-1.0358773,0.25087294,0.80459577,-0.5800257,0.5721239,-0.35006225,0.7651773,-0.5801733,1.8723835,-0.6184974,0.81080335,0.4677547,-0.012290123,0.4947699,1.6914017,-2.1856244,-0.06630183,-1.5220844,-0.115512446,0.15680695,-1.034186,1.3530663,0.16914853,-0.9690076,0.8531719,-1.2778143,-0.6743648,1.591358
CXCL9,-1.0789435,-0.10634567,1.2059973,-0.9142069,0.15144825,-0.51584977,-1.173173,-0.17413403,0.4532851,0.30204388,-1.7929668,-0.4062631,1.3212004,-2.579763,-2.007036,0.41033036,0.12225591,-1.4725693,-1.1120441,-0.84795475,-1.2696416,-0.61350095,1.680668,-0.46267554,-0.26616272,0.8709715,-0.043751705,-1.3625656,-0.9544186,1.7103015,-0.1985391,-0.41636148,-1.0135752,1.39977,0.32168242,-1.1547673,-0.95826894,-0.50833064,-1.4723072,2.0249665,0.3611184,-2.4742377,-1.7708923,-0.23014897,-1.610834,0.34665003,-0.028691094,0.35924366,-0.8666079,0.0101230545,0.67513895,0.12325253,-0.643126,0.8095939,0.072862305,-0.2712879,-1.0644202,-0.91198856,2.2261357,0.39384714,-0.11864338,0.59512305,-0.10949448,0.02014479,0.8601165,0.49542817,1.7699689,-1.0867935,0.8733077,1.9466408,0.72229195,0.6277461,-0.6758415,1.5318257,-0.0681308,-0.038020752,-0.5222205,0.54628336,2.6212785,0.7218866,-0.2026279,0.68957347,-1.2171874,-0.47451493,-0.5457063,-0.9850714,-0.86472595,-1.3587301,-0.5290827,1.7484163,0.62273866,-0.034363188,1.2910616,-0.19421709,-0.92950207,-0.2579662,-0.3455233,0.0760984,2.1244955,1.8738012,1.0903766,-1.3687159,0.20783554,-1.2560252,-0.6355296,-0.4613084,-0.9459094,0.5938426,0.2119004,0.7622297,-1.4063954,0.105238594,0.62960494,-0.89495647,0.38148996,-0.06923008,0.55386364,1.0242544,0.025199916,0.20848814,0.038050298,-0.9830642,-0.6259497,1.506052,1.1742389,-0.9923347,-1.045315,0.4945782,-1.5293523,0.8523821,0.3542471,1.5914557,-1.3725857,2.0793097,-0.27550262,0.20081499,0.9893059,-0.32194176,-0.5185408,0.13651745,0.40433165,0.4395897,-1.2990779,0.9763727,0.11984732,0.9511889,-1.5910437,0.27401167,0.94487184,-1.2111773,1.9346884,-0.864126,-0.19046603,-0.49721777,1.0405732,-0.30574754,-1.6408659,-0.6840432,0.45914066,-0.9341485,-0.42043167,1.2472999,-0.54930115,-0.62399215,-0.6634418,2.6951294,2.059584,-1.1624421,1.2616192,-0.38367468,0.24991167,0.5140769,-0.8135027,-0.47105482,0.48331565,-0.04513979,0.3049734,-0.56958294,-1.4182053,0.7180777,1.4273705,0.600232,0.1457494,-1.0721277,1.4687029,-0.39301613,-0.9530428,0.41623145,1.0886252,0.54265606,-1.6958362,1.727808,1.1023299,0.115341045,-1.4875051,-0.67892814,-1.6296569,0.7426336,1.3380547,-0.99671113,-0.95897657,-0.15813854,-1.875503,0.6464244,1.0670186,-0.5311248,0.232801,-0.18354873,0.27946374,-1.7106935,0.06862053,-0.015826153,-1.2916923,-1.7337469,-0.7284604,0.5037473,1.0701199,0.37491465,-1.7365049,-1.0287358,-1.2229753,-0.3260368,0.96469265,-1.3118687,0.3794736,0.29772332,-1.702065,-0.6534722,1.1224328,0.39293325,-0.25163847,-0.17181647,-0.6422071,0.52454853,0.7109943,-1.3980516,-0.9696954,1.5447996,-0.4629352,-0.025839439,0.68769103,-1.7821296,-1.0343828,0.33422735,1.3336148,0.5153422,0.33630374,2.006448,-1.482324,-1.9322469,1.5734602,2.0298088,-0.48261663,1.3838823,0.98688334,1.6544561,-0.9244064,-1.1844076,0.4875552,-0.852169,0.8163478,0.6879124,-2.0627227,0.995252,-2.3351593,-0.41424757,-1.3011612,-0.15058652,-0.86844593,-1.5189779,-1.3360049,-0.6330731,0.964274,1.0840514,-0.9102036,2.2971692,0.00017933575,0.46463883,0.9124602,1.7810042,0.33002567,-0.14878008,0.32705912,0.17680027,1.5778813,-0.26478696,-0.13073799,-1.5863323,0.75962746,-0.2056917,2.0155532,-1.0743283,-0.4382802,1.0536807,-0.44775224,-0.5057575,-1.6149491,1.2495558,1.3213702,-1.7297279,0.6241698,-0.006250471,1.2380008,-0.038466178,0.32224238,-0.35704535,0.44626635,-0.472798,1.469531,-0.6664247,-0.58604807,2.7684667,-1.7977022,2.5172577,-0.15442124,2.3159678,1.6082441,-0.46781147,1.288365,0.13029917,0.47165385,1.0312674,0.15880547,0.020242654,1.1885145,1.3618301,-0.07194727,2.348178,0.18361248,0.9331043,0.5205897,-0.64843994,1.5545305,1.4284546,0.6730016,-1.116625,0.31406716,-0.59103197,0.02038567,1.4375141,0.35678065,-1.6087364,0.38860726,-1.7267983,0.22389428,1.4690675,0.06026436,-0.25507542,0.48895955,-0.5978785,-0.9120386,-0.47862616,-0.1447151,-1.2132592,-0.9569109,0.82307017,-1.159536,-0.08092657,-0.1090753,-1.0586908,-0.07241043,0.18376493,-2.853701,-1.6141472,-0.008189885,-1.0775658,-1.0901792,-0.1482452,1.8605446,1.2256651,1.3180536,0.97353405,-1.3828156,0.602651,-0.1843205,0.8278899,0.71619093,-1.2634917,-1.6377146,0.7183672,-1.6948328,1.0206054,-0.7389877,-0.43488926,-0.54632664,-1.1861442,-0.16453396,0.50091416,-0.028263027,-1.1265352,-0.65928906,-0.64234626,-0.19966084,1.1486782,0.85734284,-0.8796609,-1.8048562,0.4898566,0.48738053,-0.063833185,0.102492414,-0.38039958,1.1439183,0.12381095,0.918106,1.2225882,0.7053233,-1.4823147,-1.3877143,0.63387316,0.18328112,-0.37354138,0.9882122,0.08289815,0.8303756,-0.19003983,1.0239165,-0.72362363,-1.5471275,-0.15875001,-0.6470503,-2.1239405,0.9282982,-1.4870785,0.7057099,-0.6435674,-0.46070787,-1.9664484,-0.19553809,-1.3592374,-0.023027977,0.8217493,0.31278068,0.88242173,-1.8167179,-0.39280164,-1.5302433,-1.3400763,-0.2077464,0.73032314,-0.27754265,0.3439209,1.1440802,0.87750626,0.5076754,0.44311202,1.5312341,-1.8748909,-0.23916265,-0.94052243,-0.65673095,1.2040666,0.11002317,-0.5212956,-1.6177063,0.6037136,0.13927272,2.2903116,1.0683151,1.2429469,0.8148267,0.058591623,1.700407,-0.8207527,1.0890957,-1.0971482,-0.019423714,1.6467249,-0.032636322,0.6552838,0.076120436,0.8945265,0.7875384,0.6447676,1.4848684,0.87346673,-2.4218402,1.8451902,1.1300159,0.85843664,1.0257877,0.20151545,-1.0168937,-0.019328382,0.5419015,2.0298214,-0.6177554,0.7907493,-1.3537741,2.2377422,0.7249383,-0.3855927,0.4179702,-0.10209455,-0.0229811,-0.79251623,-0.14809534,-0.13606162,2.4864821,-1.1599882,0.57768637,-1.6010528,-1.2174006,1.3083142,-2.7544465,1.9111557,0.94383925,-1.9736611,0.33807674,-1.410772,1.7030638,1.5578966
CYP2E1,-0.07862818,-1.8621159,0.008663764,0.89343625,-1.269517,-0.93129766,0.6982106,-0.9265224,0.66240484,1.6977096,-0.5605335,1.730658,0.39582792,2.0232968,0.7790882,-0.73227876,1.1598172,-0.16158654,0.34433308,-1.3441786,0.78801584,0.20987034,-1.148284,1.1281976,-0.734769,-0.519727,-0.7743017,-0.09274623,-1.1957021,-0.32436776,-0.35481316,1.039606,1.1430175,1.3612566,-1.0066794,0.24120933,-1.1986392,0.79374546,-0.5777038,2.0571203,-0.6440331,0.431115,-0.037364144,-1.1653181,0.9143678,-0.83971953,-1.0810279,-0.1574407,-0.56729835,-1.2738687,2.7170548,-0.7516971,1.5442709e-05,1.2969991,-1.1502495,1.1694187,-1.2378321,-0.01507735,-0.79325634,1.9966931,1.9312936,-0.13578397,-0.45739827,-1.1682929,-0.2801175,-0.6220112,-0.47620824,0.7003024,-1.5211713,0.7512821,-1.398053,-1.2935945,1.2573875,-1.5868702,1.5537748,-2.1161375,-1.1073278,-0.36589116,1.4112048,0.8206248,-0.25332767,-0.9213705,-1.2601315,1.7815523,-0.97656643,-2.1613338,-0.5694499,-0.023093643,-1.15751,-0.65111375,1.8834981,-2.3881457,-1.7183086,-0.47397953,0.15443406,0.93348604,-1.9939277,-1.006525,-1.7201974,-0.03828306,-0.12484096,0.06645058,0.06617368,2.3702412,1.805534,0.93725985,-0.7562242,0.067161076,-0.8369815,0.76713055,-0.92759895,-0.9121103,2.1430838,1.8027788,-0.58692145,0.10897738,0.07886473,-0.36114022,-0.19112241,0.11514981,-0.97405475,0.5194909,-1.2925138,1.6096255,-1.212112,1.0205736,-0.9716178,0.9791047,-0.42966923,-0.22714311,-0.12683897,-0.026242191,-1.3293431,-0.07076166,0.3620275,0.6963954,-0.3260215,-0.5739395,0.6493555,-2.0647137,0.30793422,-0.007885256,0.18867882,0.43048024,0.88640577,0.17041852,1.249301,-0.7597855,1.8740336,-0.4095677,-1.7936299,-0.91832185,-1.830549,-0.38371727,0.43007746,-0.07997407,-0.9705672,-0.11979033,-2.0135221,0.55091155,-1.4409318,-0.69996446,0.8171095,-2.533383,1.4161059,-1.220625,1.0856243,0.6075616,-0.33662602,0.4240799,0.5971277,-0.06553619,0.13562159,0.772762,2.365227,0.7793951,1.4093019,-0.105595246,-1.2805948,-0.5270616,-0.6997848,0.5698037,-1.3248734,-0.3752582,-1.1089782,0.6672302,-0.5255943,0.26241088,0.32678366,-0.49815133,1.3900787,1.5391922,-0.55758166,0.813477,-0.5948637,-1.1490004,-0.4657545,-1.7765778,-0.2725657,-1.4348162,0.13515083,0.3192084,0.9421167,-1.0679655,-1.5623628,0.84044653,0.14669675,0.2825069,1.1227221,-1.5253469,-0.291088,-0.27058947,1.8352926,0.22106369,-1.1017863,-0.3293069,-0.62753916,0.6302362,-1.2134207,1.3593653,0.92561126,0.29653448,-0.8438489,1.0217785,-0.4119789,0.6364093,0.0492024,1.1121912,0.9351546,1.3691872,-0.20542581,-0.30028313,-0.96597904,-0.4388917,0.78080237,0.5305995,0.37856728,1.0457926,-1.8525699,-1.3927673,-0.3818661,0.930857,0.5944443,-1.5093431,0.6957161,0.43157113,1.1191093,-1.9401063,0.05478584,-0.082302794,1.0841951,-1.4135271,-1.7019141,-1.571075,-0.39343536,2.3094192,1.3640136,0.50738525,-1.254518,-0.44675973,-1.5691413,1.6595209,-0.61447406,-0.32559264,1.7424523,0.82625914,-0.7410049,0.59139305,1.4109294,-0.8786948,0.50502264,-0.64569235,-1.4452112,-0.52683806,0.34226683,1.3791794,0.8839728,-1.2453618,-0.20295955,0.6226827,-0.89095354,-1.2097423,-0.42399615,-0.5186565,0.9425662,-0.22547358,-0.53755534,0.043112736,-0.42780927,0.26457182,0.14602263,1.3484589,-0.014368375,-0.24285671,1.171678,1.977348,0.19436207,-0.56208235,-0.14646666,0.9953737,-0.99527615,-0.09843441,-1.096252,-0.67058885,0.20937741,1.3985896,-0.21031418,-0.019225333,1.5818758,-0.2862814,-0.3227119,2.4697049,-0.17932002,-0.75247616,0.11005392,1.1170715,2.010154,-1.0204756,0.100392394,-0.66994536,1.0791206,1.6936466,-0.89295685,-1.5696511,-0.47005257,0.4885601,-0.6457169,-1.0604947,1.2744408,-1.1169062,1.4292423,1.6960982,1.5117393,1.5634414,-0.010732155,-0.020537619,0.7208494,-1.8571546,-0.31306335,-0.36069775,1.1145283,-1.2952341,-0.7585381,1.7966546,-0.97621447,1.1312442,-0.65634924,1.1140993,1.5192869,0.7631766,-0.85907185,0.7621835,1.0887886,0.36860895,1.7403977,1.7432129,-0.7536498,0.7359833,-0.030103803,-1.6172558,-1.3669398,-0.57216096,0.3480054,1.7502404,0.6629537,0.81846154,-0.048499916,0.2539404,1.3743546,1.418638,2.3381555,1.0877695,-1.7266155,-0.053525772,-1.492883,0.5413948,0.7942293,0.10934205,-0.23149727,-1.258354,0.64298403,-1.7524967,1.1909713,-0.30080286,0.23174028,-0.5328582,-0.25937817,-1.5945005,0.15654324,-0.5625822,-1.8671978,-1.1044372,0.37813398,0.58967805,0.64832824,-1.116444,-0.13008066,1.1897396,-0.11928735,-0.75311553,2.1156855,-1.7166914,-0.015792299,0.96906674,-0.52679694,0.50232035,-1.8745543,1.2137052,0.62241143,-0.5549971,0.6993992,1.5537921,0.48906112,-1.9171138,0.06217454,0.07077129,-0.7954504,0.7239294,1.916901,-1.8701358,-0.42184016,0.5221422,-1.8827456,0.16828254,1.2905387,-0.4138371,1.1812924,-0.055010296,1.6194264,1.803664,0.75291926,0.9952294,-0.04687192,-0.3460315,0.8158849,-0.7979377,-1.6247442,1.375292,0.24661778,-0.52429074,0.6283235,-1.8243421,-1.7149057,-0.16318451,0.49111247,-0.2940848,-1.3120223,0.5288524,0.52757376,1.1837009,-0.48623207,0.8345391,0.19445951,-0.9408021,-1.3418316,-1.7424824,-1.3952458,2.097645,0.96135855,-1.3305342,-1.3783691,-1.6509223,0.95726687,-0.17898805,-0.8495802,0.4970471,-1.2089442,0.99152154,1.2104275,-1.1475649,-0.33955234,-1.064194,0.7857148,1.5248669,0.9108654,0.21246776,-0.70660603,-0.91668665,0.28315797,0.95796627,-2.300148,0.7045844,1.3046345,1.2675511,0.13840452,1.3433896,-1.0471961,-1.0971214,1.5051558,0.8462648,1.9783026,1.3434443,-0.071468115,1.5779507,-0.8008009,1.3765265,0.781423,-0.44081673,-1.4248056,-1.8784941,-0.49632674,-0.40442634,-1.1057959,-0.020045271,-1.619201,-0.76761717,1.6151514,1.7847,-0.030565308,0.93624103,-0.33973503,-1.0917381
ELN,-1.4479957,1.759101,0.84783125,1.1884152,0.59000474,1.2171474,-0.41441703,1.5318252,0.6521234,-0.16604608,1.1633878,-0.14286184,0.69934833,0.8485977,1.1107738,1.861531,-0.6563463,-1.0670731,-0.6292066,-1.381179,0.74701667,1.4840075,-0.2762535,0.11285946,1.4382024,0.9376318,-2.4074216,0.30496323,0.8650901,-0.34928197,0.4468801,1.7298069,-0.5405438,-2.0091844,-0.10502846,1.65171,-0.20063719,-0.9227096,-0.5423377,-0.88506263,-0.05383968,0.9882702,-0.2316496,0.016943831,0.89790404,-0.049936343,0.9576747,0.9509792,0.23029204,-0.69431233,2.5056698,0.82468593,0.1773695,-1.175523,-0.26754475,-1.0964998,-2.2265255,-0.07544765,1.6076136,-0.1853483,-0.029308962,-0.0646639,0.8292061,-1.5175195,1.9062355,-0.5869957,-1.7122419,1.0976356,1.3286425,-1.7094482,0.016849106,-1.4464139,0.028967872,-0.2763299,-1.5121607,-1.1527306,-0.034532614,2.6036994,-0.8405953,0.64243746,-0.049386844,-0.7522915,-1.5423682,-0.67598444,-0.88008374,-0.80314636,1.4537536,0.9020576,-0.8853699,0.103512086,-0.39948726,0.2753491,-0.09661525,-0.56458056,0.5321658,-0.40925798,-0.77827954,-0.3182915,1.4945513,0.0015996266,1.2902124,-1.4384284,1.2912992,2.6346776,1.5753623,-1.3861878,-0.11592736,-0.02658194,0.749452,-1.65953,0.8491703,0.52307385,0.7837329,-1.6519203,-0.4967319,-0.26488873,0.700234,1.2986534,-0.028486123,-0.024837472,-0.40041453,-0.74029356,-1.2019178,0.34029916,-0.32269943,1.0241518,-1.30117,-1.2141205,-0.60736126,2.3042746,-0.2695786,-1.6707076,0.124503955,-1.120092,-0.37671432,2.0165417,0.063623175,-0.66823184,-0.73323923,0.61152065,0.7033398,-0.3062887,-1.5059607,-1.1863532,-0.39416045,1.9071054,0.6091017,0.69515616,0.53305936,0.08177377,-1.0709536,-0.9498839,-0.7720867,-0.64267963,-0.77716607,1.3818399,1.3835588,-0.843056,1.3015406,-0.34102696,0.17279978,0.5860505,-0.09420622,2.138984,-0.75845635,0.054502472,-0.4212841,-0.6048849,-1.5418575,0.09385078,-0.9989275,-0.38368523,-0.47606924,1.6962298,0.57671297,-0.33150014,0.21019849,1.2461727,1.485899,1.3172708,-0.38167384,-2.056375,0.44450584,0.28734457,1.1541842,0.84697247,0.6999718,-1.4914995,-1.0516639,-0.81328005,-0.10776459,0.47186092,0.42579454,-0.79603446,0.72770095,-0.6163715,-0.24607132,-1.6992927,-1.1007097,0.85990924,0.7134827,-1.8507991,-1.6785859,0.7152972,2.1988115,-0.07097814,0.33089036,-0.5070805,-0.4682738,1.0425205,0.04370766,1.6663004,-0.5080299,1.3808942,-0.44473824,2.1382196,-0.30359003,-0.86532193,-0.14652948,0.04073205,0.021644872,0.64712375,0.16678144,-0.80749565,-1.8348736,-0.6081664,-2.6994028,-1.8079617,1.3281099,-0.39964664,1.8960106,-0.9977784,0.6506709,0.8543211,-0.45439252,-0.16916026,-0.6681162,1.7340792,-0.25611284,0.32857966,0.010535572,1.3368404,0.52771026,-0.26639906,-1.965336,0.15743066,1.788233,0.66188306,-0.4704084,-0.3790759,1.6223513,-0.74939287,0.34660998,-3.4308898,-0.28448987,1.8372958,-1.1020539,-1.5166179,-0.05170735,0.33180752,0.19667204,0.104557164,-0.77479273,0.2635881,-0.682955,-0.77780676,-0.7748631,-0.9721502,1.1682429,-1.1395787,2.1953254,1.6262815,-1.1434417,1.0491136,0.4160873,-0.38713467,-1.1513393,-1.7542062,-0.1346232,-0.2545146,1.4148371,0.87408966,-0.85225207,1.6326941,0.65928084,0.3905538,0.45869952,-0.22711052,1.2977163,0.041497536,-0.027654855,-1.5807484,0.81659186,-0.32874086,-2.9475136,-1.5294743,-0.7871138,1.1599327,-0.2676942,2.07206,0.8455975,0.29929528,-0.778505,-1.7029142,-0.6169243,0.25207138,0.8149298,1.4017521,-0.7528893,-0.5454466,-2.49016,-2.3808558,1.6304315,0.04937131,-1.6496587,1.7412506,0.45126566,-1.7101614,0.8360958,-1.8478761,1.9940726,-0.18735085,-0.8152736,0.52265143,-0.949967,2.2018075,0.4761293,0.6343669,0.8319057,-0.8821154,0.34279698,-1.6778713,1.2652035,-0.74236405,1.2151904,1.065315,-0.016223269,1.30789,1.0184152,-1.9139919,0.79343957,-0.86897314,1.2521127,-1.5882955,-0.88208574,0.70126474,-0.122788005,0.9618928,-0.0730919,0.67360413,0.2657103,0.11119346,0.18371665,1.191518,-2.3837056,2.5613427,0.16479422,-0.41668332,-0.9669182,-1.3029611,1.0572315,1.422783,-0.02329317,-0.5289201,-1.3573076,-0.81375456,-1.1581011,-1.2869127,0.25943965,0.90299684,-0.38356873,-0.54072744,0.21233545,0.540754,0.68385774,-1.4558536,-1.0574949,-0.545545,-1.5202808,0.7471813,0.6924982,-0.29282552,-0.6295146,2.0146532,-0.49928352,-0.91513866,-0.111032665,-0.2606156,1.5259254,-0.45467195,0.11833484,0.46852157,1.3416125,-0.12136898,1.2392082,-1.1833618,1.3723077,-1.6761307,-0.8709196,0.78299177,-1.5087477,-1.3635919,0.95797247,0.08830262,-0.20359007,0.89004666,-0.067944184,0.0781042,1.6058676,-0.25962943,0.16100655,3.5269506,-1.1542652,0.66582966,1.0619998,0.6511237,0.76156175,0.118558414,-0.88785356,0.8548604,0.03735015,0.011108443,-0.8772031,0.024849012,-0.36577368,0.73846644,-0.92818654,-0.12738231,-0.54843473,-1.2801298,-1.2949799,-0.85837495,-1.3346182,2.2482362,-1.710722,-0.32735357,-1.7921565,-1.7436441,-0.9866192,-0.01111539,1.6552701,0.00943882,-1.0629562,-0.05580715,-0.6974106,0.16476624,1.3427972,-1.3172824,-0.7728375,-0.10242099,-1.0813472,0.09552494,0.06395168,-1.4580315,-0.9184966,0.21486591,2.23872,0.21446167,0.75610244,0.8667831,-0.41428557,2.12239,1.0111822,1.4966753,-1.2016014,-0.80524737,-0.71234727,0.89627725,0.86606044,-1.2330137,2.4747849,0.3246789,0.05102668,0.8980614,0.5891067,-0.031552527,0.0746911,0.35242775,1.7178037,2.0029793,-0.6606477,-0.49081877,-0.51612496,0.6263647,-0.28132248,0.11070343,-1.7634423,-1.0434973,0.50858563,-0.9663795,-0.99775004,-0.8175528,-1.0901717,0.8719062,-0.784238,0.77878386,0.9666583,0.055885818,0.70798725,1.2067109,0.5292434,-0.9498807,-1.0174184,0.6318523,-0.8202565,-0.9854967,0.69350505,-0.13114454,-0.30677754,1.2725148,0.8377968,-0.9821739
ETNPPL,-0.6784734,-0.90076655,-1.3150578,-0.32556435,-0.82110196,-2.8211615,-1.1473691,0.6556023,-1.2402703,1.0969702,2.3409777,2.0036368,1.850487,-0.51252556,0.3610819,-0.8201371,-0.3369293,1.6644213,-0.75671595,-1.6627276,-1.6032753,0.92145705,0.5249824,-0.43351477,1.5327547,1.2638568,-0.5278605,-1.8503816,1.0725207,0.16407238,0.03759003,-0.14874317,-0.36464795,-0.5715483,-1.179558,1.3412157,-1.5364907,1.3723665,-0.50037086,1.1744788,0.8510217,-0.62140393,-0.24078774,0.3770994,0.4093325,-1.0340619,-0.07630681,1.566203,1.5745616,-1.2221823,-0.11929835,-0.43257642,-0.41945648,-1.1439338,-0.35472286,0.54857993,-0.8859307,-2.2442315,1.9107003,0.5738754,1.6298324,-0.7004,-1.1143794,-0.8734308,1.5528566,0.53801507,-0.27630806,-0.32796887,-0.41472167,0.63223433,-0.82189006,-1.1488491,0.32172793,-0.3501508,-1.8217177,0.6290061,-1.024626,-1.2473742,-0.5479903,0.019193754,-0.9931761,-1.0195973,-1.384253,-1.068442,-0.34757873,-1.3397156,0.4654721,-1.3492166,-1.3737571,-0.5644004,0.047500756,0.16938598,-1.1098971,0.9706501,0.43995112,0.938221,-2.021775,-1.7327197,-0.6509228,0.32745036,-0.40446922,-0.78680027,0.58568925,0.8370933,0.026572287,-0.906269,-0.61617273,-0.3163264,0.24428423,-0.81311405,2.183227,-2.0604248,1.3881339,-1.2387613,-0.5109839,-0.93733114,-0.6378801,0.49891078,0.13965246,1.6031402,-0.70683867,-0.1281733,0.80918056,-0.84619296,-0.0030660843,-1.5638956,1.7602928,-0.7346985,1.2354366,0.88947725,1.5861523,1.7630838,0.6937179,-1.9776584,-2.1392305,1.2446188,0.92610025,-0.0028870888,-0.2986817,-0.9281283,1.7445401,-0.91355586,2.0257356,-0.0105263665,-0.13223037,2.1497471,0.64545715,1.0172527,-0.5858146,0.6090018,0.34111062,0.571508,-0.8447826,1.6858896,-0.10874619,-1.2260572,-0.37478635,-0.055600423,1.0568662,-0.19702047,-0.8325715,-1.1587961,-0.36188114,-1.9934747,1.7176656,0.6672175,-1.2706393,0.77207637,-1.6311439,2.2335484,-1.152868,-1.2569464,0.86373866,-1.6717181,1.707592,-1.7938592,-0.8725488,-1.9151342,0.8644165,0.5998292,0.42104238,0.11780062,-1.0824121,-0.38095737,-0.6275094,1.2262542,1.0377483,0.8581322,1.9973323,0.7531437,1.0589793,-0.069149815,0.6056588,1.4667081,-1.3497021,1.2515354,-1.0670656,-2.1571043,0.8009135,1.4770868,0.89203566,0.47251597,-0.19609192,-0.4136292,-0.19757691,-0.63395065,1.2396625,-0.505991,-0.23412271,0.089027934,0.009234741,-0.21030493,-0.6555922,0.28862512,0.9048086,0.25441876,-1.0677295,0.22197032,1.2280596,-1.0208155,1.3157549,-0.82916194,-1.0698181,2.1098607,-0.7860996,-0.3005906,0.27562314,0.24153918,1.0113007,-0.2688729,0.51641446,-0.3137609,-1.6396867,-1.164874,0.41925424,-0.37186518,-0.32042852,1.6361053,-1.2691342,-0.96672565,-0.20449528,-1.5180734,-0.6403899,-0.42342994,1.3199459,1.3559456,0.37960157,0.123609014,0.45532447,1.9201497,-1.5504476,-0.82931495,-0.8935838,-2.004662,-0.08474616,-0.17812584,-0.16150442,0.4876552,0.1034531,0.62626344,0.0049175173,0.37497842,-1.3984504,-1.4400343,0.55421305,-0.5751277,0.3050688,-1.4715257,-0.4735851,-0.18313114,1.5733532,1.1444012,-1.6741655,0.73639894,0.44680804,0.7194221,0.036002878,0.45141408,-0.45045784,0.8763101,0.92465264,1.0099148,-1.6543528,-1.0852942,-0.30064842,-0.72934085,-0.7266096,-0.24735114,-0.3779283,1.4377903,-0.82285714,1.5268587,-1.6213769,-0.5372942,-1.7824025,0.43782055,-0.5311322,-1.1331382,0.56363726,1.1004113,1.0793045,1.3189893,-0.16746004,1.4592292,-1.4672173,0.79924357,1.5142514,0.4627158,-0.36481783,0.6659217,-1.520072,1.3512167,0.52420324,-1.825706,1.1284441,-0.07626982,-0.61686504,-0.9657977,0.9045133,-0.7097857,-1.0034221,-0.6177108,0.97281903,0.7977773,1.1058264,-1.0530559,1.5657957,-1.3551381,-0.86342454,0.97796834,0.47050697,1.2098378,2.2777581,-1.4139589,-0.6237059,0.79270935,-0.08760813,-0.6945613,-1.1524063,-0.1367143,0.50944036,-0.06277715,-0.17652264,-1.0549867,1.7980008,-0.08910953,-1.235937,1.5960562,-1.4963917,0.060654182,-0.032259956,0.37717068,0.105780676,0.38868445,-1.2329522,1.406684,-1.7995349,-0.9720919,-1.5071222,-0.31082678,-0.66151994,0.23792341,0.39619282,0.41556877,-1.084961,0.48178416,-0.27672982,-1.1927224,-0.6793703,2.0379264,-0.6051708,-1.0895633,1.4465253,-0.434127,-0.3112886,0.08364123,-1.2669191,0.74472034,1.1201218,1.8916913,1.1129718,0.020487078,-2.0245373,-1.5371271,-0.04380006,0.5193783,-0.7399509,-1.3051631,-0.13797878,1.120949,1.5755591,0.84668195,0.9552124,0.25972953,-0.03457055,-0.9556802,1.4478589,2.348649,0.62411284,-0.21866514,0.9690512,-2.0997808,1.6216217,1.422111,1.0595407,-0.42356244,1.129839,1.9250643,-0.8959191,1.4254386,-0.45475343,-0.070777275,1.279069,-0.26647493,-1.5384713,-1.366209,-1.0243784,0.19690646,-0.8733212,0.378332,1.1991066,0.38019234,-0.9423514,0.65279835,1.6683584,0.05147926,1.0718182,-1.1939819,-1.3726513,-0.08312277,1.3273002,0.15717453,-0.23700176,1.59576,1.909224,0.5603651,0.17623787,-0.1290562,0.93730336,-0.8573405,0.75038254,-1.6371984,0.5712671,-1.2399523,0.820197,0.6910838,0.3862987,-1.4074426,-0.96429074,-0.317596,-0.3415156,1.7565627,2.034352,-1.1110743,0.41433766,0.5295405,-0.93382096,-0.7831401,0.5345497,0.3363025,0.07831069,-0.24331465,-1.2396363,-0.571398,0.16524225,0.9250399,-1.077621,0.198413,-1.5828782,0.4730469,-1.4800819,-1.1804091,-0.33041927,-0.6603024,1.3507099,-0.69075423,-1.4375097,-2.2003422,1.0499325,-0.0169843,1.6153733,0.28196347,1.1629632,-1.402972,2.300542,-0.35845104,-0.86589444,0.27985847,-0.16754721,0.8041014,-0.7593916,1.2092807,1.3598832,0.32569757,0.73112595,1.4292734,-1.2070674,-0.7307172,0.20512295,-0.660304,1.6176363,1.4419193,1.4324639,1.6321411,2.0393443,1.2125616,1.1811292,0.85671014,-1.5553148,-0.5399681,0.85143596,-0.38604978
FBLN2,-0.37569034,-0.4427559,0.726212,1.5851399,-0.4637093,0.9294742,-0.09361419,0.2682998,1.274475,-2.0239036,-0.962889,-0.84424186,0.6952682,0.007335293,-0.96760786,0.6650473,-0.012612316,-0.57862926,0.9727622,-2.1367466,0.6087571,-1.4374455,1.0593575,0.98950034,-0.92726177,1.9053445,1.3610517,-0.86836934,1.8295434,1.3577757,-1.3111073,-0.09279274,1.2239587,-0.7059233,1.0746752,0.99282295,0.7449125,-0.011949083,0.6753346,0.30874178,1.4512197,1.4036883,-0.068441264,1.953298,0.48918054,0.36618766,-0.4893754,1.085432,-1.2244077,0.91014427,0.30969614,-0.3483362,-1.424441,-0.25068864,0.21589084,-0.33082286,-0.9147432,-1.4062119,-0.33191878,-1.6352293,0.99683493,-0.13280095,-0.08059213,-0.112026416,-0.18116957,0.3182453,-0.6042139,0.63056636,-0.023531754,0.049763594,1.2119734,0.8779489,-1.0828819,0.15999012,-1.0930609,-2.9985824,-2.6829712,0.81216156,-0.67038894,2.6894891,-0.58132815,-1.436115,-0.7744742,-0.6306247,-0.08355622,0.45386755,0.4211512,-1.89389,-0.54739064,-1.1927725,-0.018525366,-0.80437964,1.9069943,0.6292555,1.0002453,0.022608124,0.7402786,-1.8091488,0.29335928,0.3754918,2.1295738,-0.430066,2.8726888,0.63337857,0.9633105,-1.1664531,-0.37513378,-0.36642823,-0.055497423,-0.73953325,0.62899005,1.6779741,1.6426969,0.7804405,0.42685044,-0.06321315,0.3221009,-1.1519947,-1.9959035,0.2693132,0.5670592,1.7880763,-1.3105106,-0.6657375,1.1689839,1.1233915,0.46250418,0.36781004,-1.6320869,0.41692552,0.3871977,0.91346157,0.5023336,1.1962012,0.27876422,-0.7796295,1.57241,1.165287,1.79805,0.76838857,-0.44121206,-0.9941025,0.44735447,1.0296661,0.5643735,2.7000158,0.8850748,2.7225275,-1.0491098,1.07596,0.25952744,-1.1281736,-1.2929614,-0.5658541,-0.16251178,0.669103,0.1555069,-0.40389082,-1.032506,0.2519204,-0.85563165,0.21657743,-0.4471803,1.0108548,1.6546727,1.0845397,0.5304357,-1.1131016,0.07860428,-1.7933338,-0.4339854,-0.44540033,-1.3383738,-0.83382034,0.64353335,0.05862301,-0.18878576,-0.22640315,-0.07768784,0.75969213,-0.45175335,-1.8863912,-0.27435136,0.8045432,0.021225912,0.17610717,-1.1518719,-0.40976015,0.90988684,-1.0873529,0.40991506,-0.7505815,0.16099389,-1.5009407,1.2650509,1.586429,-2.1886394,0.051882237,0.5305501,0.43188646,0.15798758,0.7798262,0.90961933,-1.0323014,1.5699694,0.6731938,0.7537638,0.5867503,1.1203845,0.19704908,0.5954712,-0.37358528,1.4194534,-0.97531873,0.32736638,0.24996929,0.7316026,-0.8091308,1.5814213,0.91894335,0.64571625,-1.3395464,0.8757797,-0.10878415,-0.20202179,-1.2094258,1.8281236,-1.5742518,1.2166733,-0.13511804,-0.9854007,-1.6187093,1.4885347,2.039958,0.6612143,-1.4204212,0.10345556,-0.034946144,1.2150396,-1.1410347,-1.0129589,-0.9782436,1.1951363,0.31254327,-2.403449,-0.5170396,1.3008341,1.0871046,-0.7759857,-0.3585767,1.2587478,0.5799906,0.74307686,-0.39102134,0.52044314,-1.1478392,0.91654253,0.19195381,0.18035528,1.3375885,2.7771685,-0.90715086,-1.0852876,0.07195657,-0.79766273,0.5418868,-0.89111984,-1.169012,0.46200737,-1.8961747,-0.40366352,2.3703756,-1.8909544,-0.7337531,0.2894354,1.3504267,1.1227989,-1.3485119,0.4681675,2.4649959,0.94558865,1.1302402,-0.3580633,0.28394952,-1.3298061,-1.0644468,-0.81262296,-0.23838381,0.5600182,0.17983755,-0.93528366,-1.2805868,-0.22727938,1.1161333,-1.1182667,-0.9490389,-0.9426719,0.5394932,-0.57474476,-0.060804266,0.701524,-0.8003735,0.120192684,0.18917657,-0.83173966,1.1258556,-0.38280672,1.7344397,0.60423875,0.8014581,-0.05930907,-0.6384411,1.6876631,-0.46683878,-0.24354844,0.6232648,1.4070617,-0.91340965,0.027410131,0.9961286,0.5792646,-1.2633443,-1.1960776,-0.36582753,0.17813699,0.9194561,0.3234603,-1.2455722,1.4791293,0.04993407,-0.4537136,-1.2811847,0.39082995,-0.19431718,-1.1378126,0.6632196,0.1282008,1.1209059,1.8401607,-1.95712,0.17994483,-0.78662306,-0.7515166,-2.0049481,0.2525234,-0.963206,0.3478708,-0.42476836,-0.47512677,-0.48586285,0.9836845,1.4168469,-0.4485963,-0.47870052,1.0577639,-0.6240704,-0.41023332,-0.3077483,-1.2988793,0.14154641,-0.5682353,2.0370162,0.42005223,-0.58953285,-1.038176,-1.1345885,0.8461087,-1.4252528,-0.6438172,1.0101889,0.23023602,-1.5522113,-1.2916738,1.08073,-0.32360062,-0.41098234,-0.9834978,0.8499195,-1.9501331,-2.158846,-0.86515516,0.06711844,-0.7832591,0.43464378,-0.38388237,-1.069049,-0.8197955,0.70729834,1.7629266,1.7487738,-1.78771,2.3626838,-0.530591,-0.108985685,0.42315748,-1.4044764,-0.6181255,0.36251962,1.0272142,-1.5888501,-1.0711477,-2.3457534,1.0450597,0.60080975,-0.9938669,0.24666,0.74177593,-1.8033668,-0.8942232,0.7393698,0.73230326,2.627968,0.2575061,1.1077038,-0.03637333,-0.67677927,0.78059584,1.3770853,-0.7728683,-0.85588324,0.31913075,1.7841448,1.1685297,-1.3664193,-1.4975257,-0.9093029,0.41462845,-0.96063596,-0.13074589,-0.74421597,-2.498824,0.55735517,-1.08476,-0.9766349,-0.56216455,0.10760555,-1.1745024,0.2672784,0.04579916,1.5721948,0.26076657,1.101412,-1.1404321,-1.496582,-1.6734921,0.633679,-1.0764554,-0.024418492,-1.6973273,-0.9364496,1.0793616,1.2606989,-0.64643645,1.5231224,-1.8811955,1.5575658,1.5877532,-1.5225731,-0.103112854,-1.2295887,1.2052054,-0.9340642,1.321164,1.1542917,-1.0321279,-1.1690549,0.5748846,-1.5909479,1.6764205,-1.3922436,-0.07089975,0.41054636,0.6441432,-1.2753241,0.73120713,-0.7472377,-1.680953,-1.2811652,1.2596525,0.96423537,-0.9552049,1.1093624,-1.6371155,0.0432111,1.4077213,0.1264308,0.6830398,0.33966294,-0.15411815,-2.095051,-0.48361805,0.64584243,0.7147375,1.4971164,-0.76922774,-0.63271147,0.9909234,0.0009825767,1.3424915,-0.62396073,-0.4769957,-0.25778887,-1.9989468,-1.9466857,0.2677551,-0.4926657,-1.5926629,-0.10025786,1.7791561,2.2329862,1.3640741,-1.3359126
FBLN5,0.15448399,2.0980284,2.9824252,0.33920717,0.082728125,0.7042493,-1.1606606,2.083151,-0.37486014,0.956696,0.18846524,-0.34060708,-0.5017119,-0.26242238,0.3943513,0.06984452,1.2156717,-1.2204804,0.50679445,1.0594654,-1.0227034,0.81974304,-1.6344068,0.46356025,0.65993804,2.497592,0.985016,0.70288664,-0.324922,1.6170281,0.6310341,1.4194394,-1.043903,-1.3646792,0.4784579,1.6731642,-0.6640087,0.9231434,-0.8324833,-0.05624028,-0.09021555,3.1692822,1.0558633,-0.084331095,0.49314684,-1.664635,0.109537825,0.92172253,0.914256,0.91726595,0.2608776,0.99726033,-1.4856602,0.5503057,-0.23207103,-0.80017287,1.1195667,-0.9717143,0.3287912,0.034078725,1.1550863,0.5983403,-1.6764046,0.3461186,0.3063174,-0.105069056,-0.1355908,0.90973914,0.19021243,-0.759406,0.5115612,1.017715,0.75144714,-1.7644684,-0.43881515,0.2190454,-1.1699462,0.551681,-0.4181027,0.6077358,-1.0795712,-0.16010782,0.9093194,2.0810986,-2.0288215,1.4595561,1.2344627,-1.5643554,-1.3472116,-0.5415056,-1.6185207,-0.3061242,-0.7799989,0.13756219,-0.21130499,0.47761282,-1.9983305,-0.37706447,0.47637823,-0.77171886,1.0148314,-0.9630311,-0.3837313,1.1586913,1.2643362,-1.3308238,-1.467812,0.64262146,-1.0352689,-0.08383999,2.8260903,0.7719295,1.2695305,0.53773797,0.6274866,1.4567691,-0.9526422,-1.2839472,-0.42861205,-0.31987357,-1.3874881,0.15271841,-1.071566,-0.1593742,-1.906901,0.70318604,-0.010025403,-1.1199105,1.081983,-0.26198882,-1.2853941,-0.6806657,0.6546142,-1.2090071,0.6159839,-0.45350504,2.3666537,-0.17069449,1.2916172,-0.93791765,0.26381838,0.41017336,-1.5643722,-0.1320771,-1.0929942,0.6510349,-1.1911141,1.7516475,-0.07397803,0.5923858,-0.91236633,-0.9671913,-1.6873375,-1.583306,-0.7983592,1.806764,-0.035611022,0.48179218,0.7111114,-0.9469598,-1.2575595,0.79563546,-1.4651041,0.6940068,0.85887,1.0540049,-0.8394221,-1.0077605,-3.4666524,-1.599905,-0.19562736,1.2076279,0.8480685,-0.32159364,-0.7978803,0.61914176,1.9009006,-0.054912433,-0.023241077,0.51637274,0.97238845,-1.281269,-0.27890697,-0.12672387,0.33636016,-1.1175467,-0.9219906,0.8845738,0.8064187,-0.5953233,-0.49133104,-1.4933494,0.8171991,-0.5272595,1.1304,0.33356094,2.2866485,0.87373585,1.3565178,0.14311133,0.34126148,0.16794409,0.27767304,-1.2973806,1.6675454,2.036473,-0.20680285,0.13138066,-1.6114038,2.251377,-1.9890789,-0.813586,-1.985011,-0.34067607,-0.12618908,-0.65816015,-1.0940771,-0.3806103,-0.28135887,1.1588628,-1.223919,-0.50355804,-0.06409213,-0.9264255,-1.75867,-1.3642048,-1.6658648,1.0910293,-1.275876,1.6931198,0.9538159,-1.5541446,1.5690813,1.0375047,-2.66714,-0.8307468,-1.1990314,-0.2685258,-1.3663002,0.80156034,1.0860187,-2.96265,-0.22264703,-0.44592628,-1.3909171,-1.2744279,1.0739838,0.53394073,-0.7045674,0.14079295,0.54283285,0.79188097,-0.8658995,-2.812727,-0.5223935,1.1727284,0.93580925,-0.46166807,1.3283786,0.82862115,0.32639343,-1.2546967,-0.5547033,1.1625656,1.972723,-0.02306239,0.9103163,-0.27762702,0.4465574,-1.2230912,0.00826433,0.030336026,-0.29501614,0.69559443,1.3523291,-0.64402103,-0.7351135,-1.6099988,-0.12631427,1.515699,-0.8200188,1.0225652,0.8566301,0.7411231,0.73109037,0.20129582,0.8967534,-0.58561665,-0.026839903,-0.88123554,0.8853093,-0.9931329,-0.26284945,-1.0814364,-1.591904,-0.91338176,0.7506964,0.2964612,0.6880923,1.7287871,1.2710593,0.923676,1.4706994,0.2896146,0.58273506,0.047527395,0.33067912,-0.9598024,-0.7891827,-0.62694794,0.15512057,0.58179957,-1.6498967,0.0855484,-2.3620493,-0.2539831,0.9538821,-0.6409838,-1.0735475,-0.041848022,2.5147965,-1.1997,-1.3788635,-0.1562622,0.95227915,1.4104892,0.30734155,-0.32125035,-1.2100097,-1.0558445,0.25207913,-0.84071493,-0.68716943,0.7141267,-0.7599897,0.86218756,2.1107464,-0.4437083,-0.13068904,0.2512934,0.64255,0.28642657,0.12380283,-2.2122326,0.95492095,-1.4326856,-0.42530996,-0.20496817,-0.3828495,-1.6754396,-0.2709908,1.6815833,-0.9754856,-0.058574814,0.42657655,2.051022,0.095886596,1.3147527,0.6080344,-0.089110054,0.0936218,-0.55418336,1.1084723,0.14801453,-0.8561217,0.6027376,-1.8648827,-1.0994238,0.17350778,-0.3009914,-1.7497938,-0.49802274,-0.016524388,1.3473504,-1.3631437,2.0877037,0.06665857,-1.179447,0.64954954,0.06472405,-1.5751688,-0.6061902,-0.6437914,2.0559177,-0.98639137,1.2592319,1.0581465,1.1630853,1.107726,0.024081426,0.37693003,-0.64781755,1.4873878,-0.6868167,0.9101443,0.1586021,0.5349342,0.62148905,-0.04263346,-1.4887879,-0.78013456,0.21564883,-0.2458794,0.111461215,-1.5961025,0.45818627,-1.4416661,-0.7850132,1.1642401,1.9633292,-0.035864916,-0.49462602,-0.693744,-0.30248892,0.8840895,1.107921,1.4509115,-0.11289413,1.338019,0.4092027,0.1476718,1.394493,-1.1118798,1.3642168,-0.14786379,-0.22229019,-1.6112616,-1.1054422,0.22646694,2.428026,-0.42222497,-1.5192686,0.44078565,1.3554305,-0.25407884,0.51275885,0.11283926,-1.9359432,-2.0548007,1.874674,2.2574914,1.5278648,-0.28286093,-2.5068831,-1.3721622,-1.9224422,-0.5833527,0.24131958,2.051052,-0.06607646,-1.9052064,-0.47979346,0.099359274,-1.1919874,-0.22211374,0.61245203,0.22890905,1.5084854,-0.04691613,1.143336,0.30834633,0.13527465,1.2804618,0.16265038,1.2928213,-1.1448265,0.8926958,-0.07648478,0.06771083,0.67429966,-0.54224765,0.054262955,-0.66034853,0.18284719,-0.5714138,-1.6338056,-0.11720091,-0.7793601,-0.36234185,0.51646525,-0.57920265,1.9940803,-0.09518236,0.9875049,1.3368742,1.3389252,1.3192884,-1.1816534,-0.6107594,-0.22828807,-1.7683661,-0.26750845,0.18670923,-0.35402647,-0.635045,-1.1937963,-0.18724242,-0.50106347,0.8167395,-1.73924,0.5897807,0.7568357,0.2879492,-0.8550543,-1.0734243,-0.8916271,-1.7619915,0.49579322,0.20981604,0.6869547,1.5013679,0.25292188
GJA4,-1.9431933,-0.5102387,0.074518636,-1.1579347,0.5633272,-0.467397,0.56261694,-1.0922501,-0.24443237,-0.66752374,-0.9360453,1.5160869,-0.2772721,0.049823802,0.82659835,0.3155009,1.1627429,-1.952246,0.5997543,1.4501472,-0.91449136,0.22546346,0.32304013,-0.6858044,0.3032486,0.97196543,-1.2172929,0.6465396,-0.39346877,0.41366228,-0.32526678,2.1972046,-0.6674922,-0.93908775,0.45383874,-0.9122112,1.481357,0.102002464,-0.3386619,1.5850681,0.14785986,-1.3299361,-0.45289347,-0.76833594,-1.8901886,2.035087,-0.20932618,1.8661395,-1.7340747,-0.8190585,2.4842257,-0.055214897,-0.2639999,-1.9688579,0.3723249,0.97208315,1.1130692,0.2608011,-0.8434737,0.7036376,-0.7996169,0.75525403,0.44821474,0.8924459,0.1308595,-1.0867221,-1.2820873,0.9680814,-0.03793671,2.4817367,0.8050651,-1.9884592,1.0630662,1.5523558,1.3585254,-0.9093113,1.2580334,0.8930927,2.1562896,0.8025892,-0.19492638,1.0623521,0.46524858,0.43675146,1.0624644,-0.6327527,0.11865711,-1.8203921,0.9061845,0.5131018,1.6350439,-1.2488514,0.9349507,0.78312933,-1.5988344,1.4094045,1.2716626,-2.6113224,1.7038038,-0.03268506,-1.4742227,-2.200947,0.74541104,2.0180638,0.089497104,0.09750503,0.07323247,1.2823644,-0.75336534,-2.1833127,-0.28660473,-1.6264178,1.657716,-0.18361443,0.99033356,-1.3899118,-0.6978025,1.7724729,-0.72393364,1.4515275,0.53968775,-1.7816588,0.7609838,0.14752907,-1.1634072,-0.9142734,1.461878,-0.52103233,0.21525362,0.78717095,-0.25277683,0.7637525,1.2185295,-1.3558992,-0.5547776,-0.29583523,-0.4467716,-0.5237622,-0.76920927,-0.9017043,-1.2273804,1.4222246,-0.21919607,1.8302583,0.843373,0.4375398,0.07519121,-0.5361258,1.0006582,0.74639297,0.26543984,-1.2896945,-1.3859022,-1.7648804,-1.4701083,-0.7807639,0.3843855,0.94143903,-0.30883706,0.5425098,0.17734028,0.8134076,-0.48377654,0.49200943,1.1727904,0.29843658,0.024955904,-0.25311613,1.8526573,-1.4238244,-0.5186026,-1.0302626,1.1268593,1.4130598,1.9290613,-1.7314055,-0.9977993,-1.411972,-0.9670605,0.96034217,0.36151642,-0.045206692,0.3639078,0.5584539,1.2050387,-1.0488999,-0.10783387,-0.7118681,-0.24374071,-0.7883374,-0.88941425,-0.2666791,2.2372336,-1.1083386,1.0930462,0.42129457,0.861791,0.6805551,-1.3725197,-0.7289341,0.004418456,-1.149812,-0.44685906,0.9778613,0.94166297,-0.17631866,-0.41216484,0.77284724,-0.16565123,0.46092352,1.2822458,0.6896288,1.3682402,-2.0803232,0.18938181,0.8512318,-0.5963555,-1.9343365,0.12752698,1.1671457,-0.3051231,-1.3715211,0.38036698,2.0044756,-0.6481178,-1.259087,-1.6394907,-1.3679366,-1.251514,0.032716077,-0.85742074,0.36810228,-0.50968117,1.2419436,0.103541605,0.56196815,-0.9175341,0.8677686,-1.0287068,0.18921089,0.84794027,-0.053291667,-1.6764431,-0.47724327,0.22119665,-0.6591631,0.45387506,-0.42033425,-0.6413472,-0.18318416,-0.5766499,0.0012740598,-0.7649579,-1.0205384,0.7939534,-0.016429868,0.13251789,0.032028776,-0.8746274,0.6227552,-1.0797617,0.0790709,0.88731384,-0.124983355,0.38718477,0.89036787,1.8570831,-0.6469948,2.0780485,-1.2626882,-0.82433605,1.2362242,1.4705725,1.1564304,-1.1316875,0.88171816,-0.9429569,-1.1340746,1.823671,2.0725048,0.020036275,-1.0517936,1.6244134,0.38095784,-0.07463743,0.6409854,-0.43138283,-0.26365688,-0.047010057,0.34218958,-0.9519128,-0.40705276,-0.70591474,-1.2179655,1.177458,-0.8848911,-0.6058718,1.5506929,0.09204175,0.42172393,0.74668396,-1.3115293,-0.6384679,1.5252537,-1.1085637,0.66491705,-1.4702841,-0.40134987,1.5143334,-0.38554275,-1.0168062,0.2831149,-0.7851831,-1.1506342,-1.7560923,-0.5048478,-2.0551093,-0.61245567,-0.048560906,0.6845486,0.82204235,1.5114765,1.6343801,-0.008230023,0.084865764,-1.8256348,-0.9701115,0.7200717,-0.5681071,-1.73892,-0.28265876,-1.6127467,-0.5155753,1.0366578,0.54487646,-1.2741534,-1.4800153,-0.5354964,-1.0113767,0.87140757,0.033587366,-1.879093,-0.6058964,2.7797422,-0.059521623,-1.8896562,-0.49224302,1.088749,0.22905128,-0.5291827,-0.28311545,0.548253,-0.48623985,0.4962815,-1.4925855,-0.5169531,-0.0004911199,-1.3303396,0.16445956,-1.1071033,-0.65720916,1.0371666,0.403134,0.9974017,-1.4274502,2.1993082,-0.014939318,-1.0194362,1.0587103,0.44522813,1.4454696,-0.33603272,-0.14488418,-0.9323662,2.039831,-1.3695958,-2.2601085,-0.042574085,-0.4292583,-0.7582315,1.5627253,-1.1865625,-0.9483523,1.6812572,0.7163294,-0.8243806,-0.16867186,1.1990887,-0.2560364,-0.6561062,0.9074551,0.7725671,-0.27730638,-0.605251,-0.3455034,-1.923415,1.5401868,0.56809556,0.34079754,1.1894683,0.5869229,-0.65646493,0.116493225,-0.57877624,0.71921134,0.6186894,-1.3511542,0.6057866,1.3709545,-0.1635663,0.82604474,-0.038065914,-0.9986482,0.42357832,0.74469674,-1.026593,-0.11692656,1.4928043,-0.016249994,0.32483122,1.4508004,-1.0509174,1.2825089,-0.8239409,0.7263029,1.0667006,0.13204151,-2.417207,2.0369208,0.18965977,1.8795241,0.428838,-1.6039135,-0.5118231,-1.2037807,-0.29684275,-0.9631216,0.8879641,0.9291122,-0.0489011,1.6749837,0.64115506,0.5896305,-0.71382225,-0.048633877,-0.77679974,0.5220654,-1.2703555,1.0585423,-2.8922796,0.7722814,0.8862048,0.48698378,1.042688,-0.63036394,2.3717191,2.076615,1.1801481,-0.9016158,-0.57685906,1.1959156,-1.817435,1.6061552,-0.7131777,0.6896259,0.5931977,0.37797922,0.2896115,-1.6584257,0.046953205,1.6302263,-0.58565265,-1.2067724,-1.9368627,-0.4610448,0.106264,1.3661462,0.03781343,-0.48320895,-1.4671301,0.8066505,0.15289922,-0.99709606,0.12567718,0.60679686,2.5834618,-2.287141,-0.2063824,-0.7270034,-0.9121263,-1.2277901,-0.3081239,-0.737751,-0.31055483,1.8859788,-0.60435724,1.0206984,0.51216334,-0.85276896,1.384473,1.3273029,0.30643114,1.1892698,-0.73512185,0.5366785,-0.08959972,0.29789987,-2.1565218,0.14387079,0.27675697,0.053048916,-1.860083
HAMP,0.21400563,-0.95075256,-0.2271801,-1.0878204,-1.8545917,0.045177083,1.8434864,-0.3833842,0.90438545,-0.02710223,0.7739603,-0.5569919,-0.26493353,-1.1481886,-2.024449,0.35346046,2.5857544,-0.22438686,-0.91053975,0.39524263,-0.12557562,1.8313076,-0.6977368,-0.030160101,1.388039,-0.86945885,-0.2100089,-1.709592,0.79741323,0.30716437,-2.0605278,-2.6081553,-0.03044846,0.2621841,0.79852057,0.26948747,1.013519,-0.61160934,-1.119724,2.3693795,-0.8562841,-0.2653676,0.7421601,0.1638154,1.3061204,-1.5227464,0.76591593,-0.5998321,0.9545216,-0.5055945,1.0181289,0.89164096,-0.72685367,0.28729996,-0.57785344,-1.5642892,-1.1955131,-0.91374874,0.28715536,0.2566868,-0.0013526179,1.3252625,0.57035834,0.87419885,-0.36600307,1.731414,0.57960474,0.30407867,-0.25497365,-0.22550681,-0.07090151,-0.28800303,0.6899017,0.2720948,0.7677507,0.75048375,0.06957672,-0.82846105,0.6106731,0.83838207,-1.1986098,-0.7967993,-0.32098544,1.3916436,0.048766285,1.1742766,-1.3274466,-0.4223183,-0.83705664,0.3743144,0.78698504,1.5510597,-0.37839654,-2.2328982,-1.5313184,-0.9443881,0.25509408,0.73835355,-0.3033016,0.68827784,0.80835474,0.88529366,-1.7809035,0.43151158,-0.3357594,1.109722,-0.99261606,1.2387514,0.70384634,-2.105628,0.6734324,-1.172023,0.6936362,-0.9350798,0.30413097,-2.7991784,0.7089768,0.23868814,0.84930986,0.80334306,0.2684727,-1.1144998,0.6301917,-0.65244114,-1.1729418,0.8732087,0.4719731,0.15135866,-0.43066296,1.6459665,1.4252185,-0.38010862,-0.6401175,1.7380232,-1.259295,-1.9664088,1.4331064,-1.3485711,-0.9891888,1.3578502,0.45320457,1.0592182,-2.1521342,2.1219573,-0.95102215,-0.2869974,0.42906258,1.3417304,1.9508734,-0.7640887,1.1298892,0.46333513,0.8128562,1.2229408,-0.50035393,0.8296074,-1.3329518,-0.9826208,0.848252,0.45960808,-0.3339869,0.5084951,1.2624269,-2.4760234,-0.1830005,0.63934416,-0.7348145,1.4257721,0.8306469,-0.57002646,-0.5522192,0.69524336,-0.040362842,-0.2915008,1.1821895,-0.8159985,-1.8501496,0.011047981,-0.14513204,-0.6367611,0.27857795,2.0993187,-0.71207225,-1.6117221,1.4554089,1.3071755,0.78309894,-2.0359983,-0.35611287,0.97543997,0.3356482,1.3390929,1.5484481,1.5756418,-1.0001482,0.4472836,-1.2263967,-0.26929033,-1.0245159,0.21973634,0.32433343,0.41202727,-1.3909082,-1.158584,2.3500965,1.0950696,0.221406,-1.1163775,-0.6323253,-0.29142335,-0.5492081,-1.7049022,0.28848016,-0.9301793,-0.49634165,-1.4209659,0.09172305,-0.12945423,0.83942026,-1.1554949,-0.16572528,0.58822674,-0.08907602,-0.8870114,0.33390135,-2.3729098,-1.7523954,-0.22649902,-1.2744892,-0.08740107,0.71103567,-0.73634976,-1.1877275,-0.50395745,-1.6220882,1.1260575,0.61195433,-0.056939203,-0.5849018,-1.3989663,-0.12149928,-0.20609032,0.30599618,0.11126073,-0.9479583,0.4480652,1.8380009,0.55874884,-1.4948603,1.4195443,-0.8404553,0.58853436,-0.18861215,2.244723,0.9608287,1.4153115,-0.20498076,-0.36578146,1.1256498,-0.59235,-1.743142,-0.90204096,-0.39232695,0.68594885,1.2823638,0.35180792,-0.32444188,-1.4676892,0.74058974,-1.285201,0.47791195,2.442281,0.61424524,-0.19321898,1.0132024,1.4885364,1.192926,0.5787699,0.81321263,1.849818,-0.9338885,0.0713772,1.3836557,0.029568179,-0.1921395,-0.82979053,-0.26218542,-0.9771771,0.33952352,0.8016486,2.009072,0.9367913,-1.7639842,-0.5092605,0.9487674,1.7550377,1.3827726,0.09444097,-1.2662293,-1.0847032,-1.1181709,-0.9986492,0.3380068,0.15819336,0.13439167,0.89385855,0.5209128,2.535719,1.238183,-0.08420158,-0.8777889,2.7213209,0.26523143,-0.13469772,0.87933093,0.38221657,-0.7242975,-0.743607,1.744219,-0.7808825,1.8769956,-0.07005651,1.1511717,0.5838541,0.8235348,1.2660863,0.48895743,-0.10379184,0.5249249,-0.29880822,0.5125769,-0.44813493,-0.97757775,0.5604928,-0.37059477,0.4782496,0.16637841,1.0179999,0.7306656,-1.4931809,1.4798973,-1.7502315,0.6555049,-0.7757969,0.40571618,-1.0719146,1.3882743,1.582267,0.33322838,-2.1368828,-0.94854355,-0.8607833,-1.5886377,0.40470153,-0.38193843,1.3563231,-1.4824395,-0.397414,1.8556613,0.4276589,-2.8629193,1.8518549,-0.78498477,-0.8707118,-0.4815742,-1.2327279,-1.6085979,-1.2518694,1.2603431,-0.06970561,1.7616285,-0.4809752,-0.5817114,-0.45980504,-1.4037439,-1.1746389,1.2675697,-1.4927667,0.2846795,1.1150622,-1.3742927,1.3739681,0.6471081,-0.34814957,-0.47632948,-1.659351,-1.2698792,1.0392909,0.70976144,-1.0602169,1.0079072,1.6479586,1.4354054,1.7409424,-1.2970812,1.7861704,0.13863315,-0.58872396,-1.2166612,0.67393214,0.34302858,-1.3435832,-1.7998954,0.2977308,-1.341934,-0.26982048,0.39456767,1.1729945,-1.0856705,-0.7947,-0.5423436,-1.424349,0.7471344,-0.26857635,-0.39152813,-0.8464041,-0.28307438,-0.0680934,-1.5213964,0.9105036,0.67224795,-0.33817217,-1.1431868,-1.1149387,-0.91326433,0.47990745,1.6002872,0.67077625,1.3866128,0.87223804,-0.896883,-0.17033541,-2.0187936,0.29657498,-0.022304097,0.70682335,0.5587837,-1.2232454,-0.38267124,1.0671972,1.0762737,-0.018506953,-0.7507026,-0.9888747,-1.0439928,0.99766886,-1.5729537,-1.4185334,1.9221905,-1.1253539,-0.16806763,-0.18630151,-1.1040051,-0.3698365,-0.47640207,-0.82517403,-1.5370266,0.24859276,0.36624867,-0.21301894,-0.54571474,1.5658873,0.16083716,-0.36315662,-1.499885,0.5130596,0.18154815,0.68674904,-1.4892329,1.9572593,2.2190452,-0.11012763,-0.77009684,-0.8223018,-2.4966142,-0.20870928,-1.9929262,0.21721625,1.2724285,-0.27201962,-0.17576611,0.30716377,-0.89255387,-0.4202024,-0.17807251,-0.17726837,0.8422701,-1.0545819,0.68004835,-0.33774188,-0.99384046,1.5083916,0.77497643,1.5982884,2.2944677,0.4882761,0.5501358,0.045223847,0.6151736,0.49103677,-1.6637712,-2.1385565,0.022095181,-0.15864405,-0.70488816,-0.20825012,1.8758838,0.43166208,-1.342388,-0.10144786,1.247179,-0.054072127
